~o
<STREAMINFO> 1 38
<VECSIZE> 38<NULLD><MFCC_E_D_N_A_Z><DIAGC>
~h "@"
<BEGINHMM>
<NUMSTATES> 5
<STATE> 2
<NUMMIXES> 2
<SWEIGHTS> 1
 1.000000e+00
<MIXTURE> 1 4.807611e-01
<MEAN> 38
 4.843078e+00 2.226084e-04 1.417619e+00 5.591121e-01 -2.240654e+00 -4.947000e+00 -5.698073e+00 -3.354475e-01 1.051376e+00 -2.669783e-01 -1.173668e+00 3.025017e-01 6.699443e-01 2.772370e-01 2.685893e-01 8.953036e-02 -1.645772e-01 1.302997e-01 -1.085276e-01 8.211432e-02 2.038444e-01 2.272942e-01 4.355716e-02 8.892559e-02 7.128997e-03 -4.523483e-01 1.064903e-01 5.129649e-02 1.941710e-01 3.558616e-01 2.613969e-01 3.784261e-01 1.357799e-01 4.898301e-02 4.699752e-02 1.336126e-01 4.481278e-02 -8.848100e-03
<VARIANCE> 38
 1.840959e+01 2.425611e+01 3.560717e+01 3.480848e+01 4.311367e+01 5.112389e+01 5.004298e+01 4.504205e+01 4.323815e+01 4.259900e+01 3.555568e+01 3.126445e+01 2.179302e+00 2.255329e+00 1.864889e+00 2.377994e+00 3.131528e+00 2.733374e+00 3.002339e+00 3.086155e+00 2.811922e+00 2.740881e+00 2.441293e+00 2.122053e+00 1.000000e-02 3.331347e-01 3.805892e-01 3.194830e-01 3.938440e-01 4.846277e-01 4.760488e-01 5.335355e-01 6.035410e-01 5.382088e-01 5.150987e-01 4.873991e-01 4.001977e-01 1.000000e-02
<GCONST> 1.052906e+02
<MIXTURE> 2 5.192212e-01
<MEAN> 38
 4.424830e+00 -9.521821e-01 6.846449e-01 -4.238826e-01 -2.819722e+00 -5.780006e+00 -6.566848e+00 -9.978786e-01 2.704677e-01 -1.270964e+00 -2.353876e+00 -7.301741e-01 9.039980e-01 -1.997208e-01 -5.066638e-02 -3.531836e-01 -6.620880e-01 -2.025630e-01 -5.267991e-01 -1.316436e-01 -8.475015e-02 -7.404279e-02 -2.882088e-01 -2.694142e-01 1.813397e-02 -4.152425e-01 6.429808e-03 -4.496880e-02 1.020218e-01 2.605669e-01 2.060331e-01 2.963577e-01 1.057289e-01 4.563886e-02 6.049576e-02 1.156419e-01 3.675648e-02 -7.914525e-03
<VARIANCE> 38
 1.738646e+01 2.370266e+01 3.466029e+01 3.518066e+01 4.291076e+01 4.912152e+01 4.834563e+01 4.523675e+01 4.321503e+01 4.587739e+01 3.728481e+01 3.048428e+01 2.341047e+00 2.163058e+00 1.891255e+00 2.480108e+00 3.190754e+00 2.872803e+00 3.207154e+00 3.401352e+00 2.964457e+00 2.883986e+00 2.715092e+00 2.153658e+00 1.000000e-02 3.596938e-01 3.875054e-01 3.240561e-01 3.931713e-01 4.818985e-01 4.723607e-01 5.333796e-01 6.029654e-01 5.322741e-01 5.185032e-01 4.855199e-01 3.880837e-01 1.000000e-02
<GCONST> 1.058108e+02
<STATE> 3
<NUMMIXES> 2
<SWEIGHTS> 1
 1.000000e+00
<MIXTURE> 1 5.028257e-01
<MEAN> 38
 5.148155e+00 9.441303e-01 2.378464e+00 1.168934e+00 -2.222015e+00 -4.907656e+00 -5.345242e+00 1.636574e-01 1.091436e+00 -1.681673e-01 -1.235782e+00 3.361861e-01 -2.172309e-01 7.494982e-01 3.976128e-01 5.634578e-01 6.578735e-01 5.409858e-01 6.105267e-01 1.088045e-01 8.860318e-02 4.784957e-02 8.131923e-02 2.579435e-02 -1.616615e-02 -2.735185e-01 1.032864e-01 6.633871e-02 1.551313e-01 2.410447e-01 1.604068e-01 2.449644e-01 3.053475e-02 -2.680495e-02 -1.036981e-02 4.751224e-02 6.975872e-03 -6.679476e-03
<VARIANCE> 38
 1.580312e+01 2.781971e+01 3.419954e+01 3.385559e+01 4.085468e+01 4.749102e+01 4.843466e+01 4.392619e+01 4.242732e+01 4.393460e+01 3.574058e+01 3.314541e+01 1.301819e+00 1.796805e+00 1.463028e+00 1.850647e+00 2.340448e+00 2.131665e+00 2.364362e+00 2.382170e+00 2.320884e+00 2.189719e+00 2.004066e+00 1.816965e+00 1.000000e-02 1.644541e-01 2.654010e-01 2.308855e-01 2.796289e-01 3.571689e-01 3.560181e-01 3.949717e-01 4.277385e-01 4.112712e-01 4.006295e-01 3.632043e-01 3.305976e-01 1.000000e-02
<GCONST> 9.807475e+01
<MIXTURE> 2 4.971584e-01
<MEAN> 38
 4.975566e+00 -8.609482e-01 1.288037e+00 -3.890105e-01 -3.560534e+00 -6.046376e+00 -6.363587e+00 -3.216016e-01 4.330522e-01 -1.080645e+00 -2.394553e+00 -7.325493e-01 -6.576780e-02 2.557190e-01 9.374034e-02 1.969984e-01 2.311184e-01 2.675804e-01 2.437242e-01 -6.770378e-02 -1.391726e-01 -1.521498e-01 -1.501608e-01 -2.139953e-01 -7.089873e-03 -2.204875e-01 8.752484e-02 1.866926e-02 1.047915e-01 1.865148e-01 9.166903e-02 1.528611e-01 -4.339050e-02 -6.462433e-02 -3.244524e-02 1.501475e-02 -9.339281e-03 -5.308247e-03
<VARIANCE> 38
 1.412224e+01 2.679744e+01 3.377053e+01 3.459550e+01 4.022432e+01 4.689769e+01 4.824810e+01 4.519795e+01 4.344432e+01 4.802372e+01 4.005700e+01 3.344131e+01 1.056698e+00 1.465863e+00 1.315488e+00 1.652873e+00 2.033973e+00 1.903357e+00 2.121884e+00 2.154061e+00 2.079958e+00 2.041852e+00 1.838873e+00 1.635175e+00 1.000000e-02 1.557693e-01 2.267559e-01 2.027944e-01 2.559137e-01 3.111980e-01 3.206988e-01 3.642783e-01 3.903702e-01 3.664090e-01 3.617393e-01 3.326631e-01 2.930731e-01 1.000000e-02
<GCONST> 9.543056e+01
<STATE> 4
<NUMMIXES> 2
<SWEIGHTS> 1
 1.000000e+00
<MIXTURE> 1 5.479650e-01
<MEAN> 38
 2.924249e+00 4.261669e+00 4.109787e+00 4.257096e+00 1.229995e+00 -1.756076e+00 -1.407810e+00 2.428638e-01 4.449021e-01 -1.144179e+00 -1.678923e+00 -3.050316e-01 -6.563264e-01 4.733855e-01 2.467844e-01 6.441749e-01 9.030375e-01 8.401951e-01 9.092441e-01 1.926754e-01 6.593567e-02 6.102940e-02 1.758381e-01 7.048091e-02 -2.968158e-02 -9.316796e-02 -1.372089e-01 -7.897493e-02 -2.380299e-02 1.172270e-02 3.412398e-02 5.256825e-02 6.190407e-02 4.082011e-02 7.227388e-02 7.131437e-02 5.829843e-02 -9.517459e-04
<VARIANCE> 38
 2.688440e+01 3.872590e+01 3.633050e+01 3.860870e+01 4.230289e+01 4.539829e+01 4.907247e+01 4.290272e+01 3.965503e+01 4.146226e+01 3.331033e+01 2.987144e+01 1.326693e+00 1.685685e+00 1.477316e+00 1.691997e+00 2.154872e+00 2.172095e+00 2.198214e+00 2.403703e+00 2.382403e+00 2.197858e+00 1.973029e+00 1.806433e+00 1.000000e-02 1.197890e-01 2.502671e-01 2.427773e-01 2.741863e-01 3.318067e-01 3.440187e-01 3.623756e-01 3.932562e-01 3.946043e-01 3.887299e-01 3.433335e-01 3.246424e-01 1.000000e-02
<GCONST> 9.779485e+01
<MIXTURE> 2 4.520217e-01
<MEAN> 38
 3.172693e+00 2.322392e+00 2.664492e+00 2.574434e+00 3.399430e-02 -2.748377e+00 -2.869692e+00 -6.889185e-01 -2.608329e-01 -1.686190e+00 -2.578294e+00 -1.255419e+00 -5.745979e-01 1.646108e-01 2.563607e-02 3.465438e-01 5.391781e-01 5.286171e-01 5.942387e-01 -6.038797e-02 -2.109706e-01 -1.597078e-01 -9.762272e-02 -1.731349e-01 -2.290236e-02 -9.731714e-02 -1.415532e-01 -1.118063e-01 -7.367054e-02 -3.140137e-02 -2.721975e-02 -4.784957e-03 -6.193972e-03 -1.147692e-02 2.698414e-02 2.949560e-02 2.205971e-02 -5.735005e-04
<VARIANCE> 38
 2.510764e+01 4.007406e+01 3.888822e+01 4.424123e+01 4.465126e+01 4.634472e+01 5.034238e+01 4.606830e+01 4.237186e+01 4.589014e+01 3.655153e+01 3.085627e+01 1.428542e+00 1.601843e+00 1.465331e+00 1.751452e+00 2.170091e+00 2.166864e+00 2.255592e+00 2.396374e+00 2.365052e+00 2.191952e+00 1.922316e+00 1.779435e+00 1.000000e-02 1.279070e-01 2.643201e-01 2.443585e-01 2.918103e-01 3.334039e-01 3.393159e-01 3.641279e-01 3.960136e-01 3.870545e-01 3.780557e-01 3.395663e-01 3.128121e-01 1.000000e-02
<GCONST> 9.855140e+01
<TRANSP> 5
 0.000000e+00 1.000000e+00 0.000000e+00 0.000000e+00 0.000000e+00
 0.000000e+00 5.594084e-01 4.405916e-01 0.000000e+00 0.000000e+00
 0.000000e+00 0.000000e+00 6.066935e-01 3.933065e-01 0.000000e+00
 0.000000e+00 0.000000e+00 0.000000e+00 6.294989e-01 3.705011e-01
 0.000000e+00 0.000000e+00 0.000000e+00 0.000000e+00 0.000000e+00
<ENDHMM>
~h "a"
<BEGINHMM>
<NUMSTATES> 5
<STATE> 2
<NUMMIXES> 2
<SWEIGHTS> 1
 1.000000e+00
<MIXTURE> 1 5.106017e-01
<MEAN> 38
 5.903651e+00 -1.017687e+01 -7.656056e+00 -7.255389e-02 3.496719e+00 2.992227e+00 1.007587e+00 7.773504e-01 1.616027e+00 -2.398499e+00 -3.988478e+00 -2.810502e+00 7.787630e-02 -4.757739e-02 -4.211131e-02 1.544148e-01 2.231282e-01 2.070113e-01 7.051731e-02 5.144457e-03 4.160316e-02 3.885010e-02 1.032936e-01 7.910398e-02 -9.463658e-04 1.409578e-02 9.834830e-02 6.651890e-02 1.073255e-02 -2.224674e-02 -2.634590e-02 8.012239e-04 1.499350e-02 3.232392e-03 5.002735e-02 4.792834e-02 3.639360e-02 -1.201240e-03
<VARIANCE> 38
 1.007917e+01 1.780231e+01 2.393823e+01 3.602044e+01 3.201272e+01 3.817151e+01 3.991633e+01 4.056381e+01 4.008481e+01 3.607429e+01 2.895391e+01 3.589289e+01 1.599531e-01 4.152971e-01 4.878993e-01 6.432828e-01 8.114352e-01 9.051434e-01 9.495301e-01 9.882190e-01 9.300767e-01 9.268457e-01 8.834078e-01 8.048599e-01 1.000000e-02 2.617881e-02 5.272561e-02 7.097518e-02 9.669353e-02 1.159533e-01 1.331787e-01 1.525725e-01 1.608974e-01 1.549730e-01 1.524905e-01 1.463341e-01 1.328382e-01 1.000000e-02
<GCONST> 6.943634e+01
<MIXTURE> 2 4.892533e-01
<MEAN> 38
 5.264102e+00 -1.108613e+01 -8.326983e+00 -1.001911e+00 2.905983e+00 2.337908e+00 -1.208435e-01 1.046086e-02 8.502473e-01 -3.716052e+00 -4.915560e+00 -3.586660e+00 -1.079474e-02 -1.613662e-01 -1.364064e-01 6.490709e-03 9.795392e-02 7.297987e-02 -8.715354e-02 -1.367373e-01 -1.225404e-01 -1.558634e-01 -7.367538e-02 -1.582252e-01 2.397056e-04 -1.475893e-03 6.898986e-02 3.652440e-02 -2.586226e-02 -5.835035e-02 -6.357201e-02 -3.818369e-02 -2.082776e-02 -3.496621e-02 6.968015e-03 5.499592e-03 -2.508419e-02 -1.056047e-03
<VARIANCE> 38
 1.041591e+01 1.738965e+01 2.277007e+01 3.153557e+01 3.191690e+01 3.782941e+01 4.150877e+01 4.164492e+01 4.135566e+01 3.945888e+01 2.959315e+01 3.494592e+01 1.537725e-01 3.912612e-01 4.747758e-01 6.223457e-01 8.101935e-01 8.991101e-01 9.558281e-01 9.989746e-01 9.359982e-01 9.347311e-01 8.810585e-01 8.174809e-01 1.000000e-02 2.510967e-02 4.796545e-02 6.763413e-02 9.288219e-02 1.143397e-01 1.298177e-01 1.486363e-01 1.594679e-01 1.525464e-01 1.507135e-01 1.441650e-01 1.322026e-01 1.000000e-02
<GCONST> 6.896313e+01
<STATE> 3
<NUMMIXES> 2
<SWEIGHTS> 1
 1.000000e+00
<MIXTURE> 1 5.252690e-01
<MEAN> 38
 7.032713e+00 -7.324533e+00 -6.302193e+00 -3.507085e-01 2.739636e+00 2.166380e+00 9.868004e-01 1.716229e+00 1.264231e-01 -1.738871e+00 -2.761041e+00 -3.307838e+00 1.425545e-01 6.480515e-01 4.476402e-01 -9.525040e-03 -2.523950e-01 -1.662949e-01 1.165838e-01 1.822313e-01 -1.128460e-01 2.373266e-01 2.360918e-01 1.323411e-01 -8.695642e-03 -1.069117e-02 1.483818e-01 1.351738e-01 8.551282e-02 3.074092e-03 -3.056841e-02 1.532952e-02 -2.398332e-02 -3.821383e-03 5.582491e-02 3.952237e-02 6.183171e-02 -1.998072e-03
<VARIANCE> 38
 1.124576e+01 2.416791e+01 3.182302e+01 4.794770e+01 4.516768e+01 5.618823e+01 5.314703e+01 5.706370e+01 4.997904e+01 3.944107e+01 3.692767e+01 3.350428e+01 2.269019e-01 5.367591e-01 6.894801e-01 8.954666e-01 1.037980e+00 1.164839e+00 1.326374e+00 1.349023e+00 1.316355e+00 1.243425e+00 1.202271e+00 1.082814e+00 1.000000e-02 3.362804e-02 8.543148e-02 1.103849e-01 1.517916e-01 1.672109e-01 1.936047e-01 2.150685e-01 2.187246e-01 2.160931e-01 2.066821e-01 2.005504e-01 1.775014e-01 1.000000e-02
<GCONST> 8.019547e+01
<MIXTURE> 2 4.747254e-01
<MEAN> 38
 6.330614e+00 -8.770247e+00 -6.840664e+00 -1.254001e+00 1.586851e+00 8.571525e-01 -2.701816e-01 9.877262e-01 -1.450647e+00 -3.559485e+00 -4.165751e+00 -3.927715e+00 5.290693e-02 4.586757e-01 3.220208e-01 -2.277780e-01 -4.410636e-01 -3.243263e-01 -3.199020e-02 6.769145e-02 -2.845826e-01 5.169935e-02 6.295791e-03 -1.274281e-01 -5.925089e-03 -8.013195e-03 9.505726e-02 8.083328e-02 1.147915e-02 -4.822399e-02 -5.513708e-02 -3.747191e-02 -4.374845e-02 -1.692302e-02 2.613610e-02 4.321936e-03 -1.659511e-02 -1.379008e-03
<VARIANCE> 38
 1.245524e+01 2.448062e+01 3.196696e+01 4.228770e+01 4.913072e+01 5.662718e+01 6.141933e+01 6.208560e+01 5.704294e+01 4.337654e+01 3.986235e+01 3.240560e+01 2.070156e-01 5.037522e-01 6.792710e-01 8.961986e-01 1.066109e+00 1.181054e+00 1.372781e+00 1.356591e+00 1.325714e+00 1.249753e+00 1.210192e+00 1.089850e+00 1.000000e-02 3.129281e-02 7.855182e-02 1.043979e-01 1.409544e-01 1.654555e-01 1.892140e-01 2.170500e-01 2.170101e-01 2.094617e-01 2.048814e-01 1.955817e-01 1.762908e-01 1.000000e-02
<GCONST> 8.032739e+01
<STATE> 4
<NUMMIXES> 2
<SWEIGHTS> 1
 1.000000e+00
<MIXTURE> 1 5.610911e-01
<MEAN> 38
 6.790034e+00 -3.223467e+00 -4.049195e+00 3.331341e-01 2.450920e+00 1.427461e+00 9.812508e-01 1.227835e+00 3.581846e-02 -1.138905e+00 -3.115031e+00 -3.583206e+00 -2.653066e-01 1.534623e+00 1.236727e+00 7.358519e-01 8.232922e-02 -3.011754e-01 2.016845e-01 -8.225381e-02 -1.372612e-01 3.606510e-01 3.582250e-01 3.552752e-01 -2.701352e-02 -2.169627e-01 1.248715e-01 2.071355e-01 2.414706e-01 1.393908e-01 2.359106e-02 2.437937e-02 -8.330205e-02 1.581698e-02 1.635777e-02 5.672913e-02 1.170726e-01 -3.703364e-03
<VARIANCE> 38
 1.678952e+01 3.570757e+01 3.722466e+01 4.667073e+01 4.167434e+01 4.987084e+01 4.833636e+01 5.181704e+01 4.735440e+01 4.407545e+01 4.046725e+01 3.424109e+01 8.174715e-01 1.540433e+00 1.561085e+00 1.855526e+00 2.026851e+00 2.324911e+00 2.298352e+00 2.417962e+00 2.488300e+00 2.068381e+00 1.978777e+00 1.830290e+00 1.000000e-02 1.186969e-01 2.146419e-01 2.539990e-01 3.131168e-01 3.041533e-01 3.580496e-01 3.802598e-01 4.086726e-01 3.972425e-01 3.741699e-01 3.632970e-01 3.044280e-01 1.000000e-02
<GCONST> 9.792384e+01
<MIXTURE> 2 4.388919e-01
<MEAN> 38
 6.327911e+00 -4.592675e+00 -4.638304e+00 -7.973262e-01 1.510781e+00 6.220927e-01 -1.296621e-02 5.053705e-01 -1.242193e+00 -2.345811e+00 -4.099050e+00 -4.146885e+00 -3.025621e-01 1.181765e+00 9.940211e-01 3.534386e-01 -2.546687e-01 -4.932412e-01 -7.022577e-02 -2.484961e-01 -3.523861e-01 1.331078e-01 1.018929e-01 1.306826e-02 -2.297850e-02 -1.741964e-01 5.544666e-02 1.237301e-01 1.457604e-01 5.564290e-02 -4.638251e-02 -6.250524e-02 -1.272837e-01 -7.318546e-03 -9.597265e-03 1.176095e-02 3.164166e-02 -2.054124e-03
<VARIANCE> 38
 1.651786e+01 3.813840e+01 3.784416e+01 4.353572e+01 4.654598e+01 5.184452e+01 5.479775e+01 5.462468e+01 5.115749e+01 4.671925e+01 4.330183e+01 3.437263e+01 8.859993e-01 1.465712e+00 1.591218e+00 1.910620e+00 2.082162e+00 2.327189e+00 2.310236e+00 2.412217e+00 2.446568e+00 2.147545e+00 2.029592e+00 1.828154e+00 1.000000e-02 1.217069e-01 2.218770e-01 2.459767e-01 3.148994e-01 3.076388e-01 3.448483e-01 3.771442e-01 3.985020e-01 3.840695e-01 3.630530e-01 3.544690e-01 2.981974e-01 1.000000e-02
<GCONST> 9.847268e+01
<TRANSP> 5
 0.000000e+00 1.000000e+00 0.000000e+00 0.000000e+00 0.000000e+00
 0.000000e+00 9.413769e-01 5.862312e-02 0.000000e+00 0.000000e+00
 0.000000e+00 0.000000e+00 7.668819e-01 2.331181e-01 0.000000e+00
 0.000000e+00 0.000000e+00 0.000000e+00 7.010081e-01 2.989919e-01
 0.000000e+00 0.000000e+00 0.000000e+00 0.000000e+00 0.000000e+00
<ENDHMM>
~h "b"
<BEGINHMM>
<NUMSTATES> 5
<STATE> 2
<NUMMIXES> 2
<SWEIGHTS> 1
 1.000000e+00
<MIXTURE> 1 5.504463e-01
<MEAN> 38
 7.501880e+00 1.233759e+01 5.054500e+00 6.286191e+00 4.733356e+00 2.068001e+00 7.186098e-02 -4.903440e+00 -2.997635e+00 -5.482402e-01 -3.619194e-01 -1.910064e+00 -3.835615e-01 1.881265e-02 2.660531e-01 5.337409e-01 2.520007e-01 9.269438e-02 1.664766e-01 1.469308e-01 1.044075e-01 -1.521549e-01 5.523387e-02 1.258512e-01 -7.078956e-03 -1.656524e-01 -4.975352e-01 -1.957757e-01 -9.315790e-02 -1.205270e-01 -7.451369e-02 -5.736693e-02 1.702705e-01 1.765095e-01 5.063876e-02 5.436346e-02 9.393615e-02 1.957910e-03
<VARIANCE> 38
 2.035076e+01 2.734258e+01 2.581914e+01 2.873348e+01 2.550696e+01 2.896251e+01 3.318976e+01 3.179528e+01 3.777147e+01 2.811595e+01 2.604390e+01 2.735859e+01 1.417348e+00 4.042869e+00 1.835518e+00 1.586251e+00 1.594562e+00 1.778877e+00 2.143490e+00 2.144498e+00 2.359636e+00 1.935926e+00 1.827640e+00 1.610298e+00 1.000000e-02 1.733742e-01 5.043566e-01 3.320383e-01 3.152189e-01 3.226230e-01 3.408446e-01 3.944675e-01 3.831783e-01 4.182368e-01 3.924180e-01 3.590958e-01 3.135465e-01 1.000000e-02
<GCONST> 9.586190e+01
<MIXTURE> 2 4.495223e-01
<MEAN> 38
 6.484097e+00 1.047580e+01 4.357635e+00 6.044919e+00 4.095462e+00 1.198504e+00 -6.652526e-01 -5.093083e+00 -3.375554e+00 -1.696570e+00 -1.525618e+00 -2.852670e+00 -8.089185e-01 -1.253760e+00 -2.361856e-01 3.640895e-01 -1.052831e-01 -3.130463e-01 -2.623326e-01 2.078144e-01 3.525859e-01 -2.914208e-01 -1.487325e-01 -3.896636e-03 3.558939e-03 -9.549271e-02 -6.092058e-01 -3.419299e-01 -2.759981e-01 -3.049296e-01 -2.249541e-01 -1.980042e-01 1.218676e-01 1.847979e-01 1.194616e-01 9.903687e-02 9.930742e-02 6.855975e-03
<VARIANCE> 38
 2.420306e+01 3.612700e+01 2.658567e+01 2.952258e+01 2.721091e+01 2.991220e+01 3.476111e+01 3.368892e+01 3.768116e+01 2.796107e+01 2.669167e+01 3.007010e+01 2.326928e+00 7.004974e+00 2.777062e+00 2.203416e+00 2.269094e+00 2.464191e+00 3.141264e+00 2.989947e+00 3.340325e+00 2.513826e+00 2.371244e+00 2.204201e+00 1.000000e-02 2.923082e-01 6.528903e-01 4.006271e-01 4.218009e-01 4.142764e-01 4.325861e-01 4.787726e-01 4.569267e-01 4.922124e-01 4.494793e-01 4.230925e-01 3.630444e-01 1.000000e-02
<GCONST> 1.037737e+02
<STATE> 3
<NUMMIXES> 2
<SWEIGHTS> 1
 1.000000e+00
<MIXTURE> 1 4.099751e-01
<MEAN> 38
 1.796647e+00 -8.285257e-01 3.014556e-01 5.996036e+00 2.226252e+00 -1.484082e+00 -3.066967e+00 -2.341018e+00 1.201488e+00 -1.952061e-01 8.667198e-01 -2.997560e-02 6.380733e-01 -1.149482e+00 -6.500782e-01 -1.022327e+00 -1.505394e+00 -8.044287e-01 -8.086241e-01 2.829615e-01 3.307623e-01 4.542424e-01 6.669496e-01 5.362785e-01 4.098462e-02 4.981968e-01 7.210307e-01 3.264958e-01 -2.358170e-01 -1.652548e-01 2.188037e-01 1.787916e-01 -1.509427e-02 -2.992394e-01 2.289504e-02 -1.228748e-02 7.389018e-04 3.268575e-03
<VARIANCE> 38
 2.640754e+01 3.699602e+01 3.459357e+01 3.878735e+01 3.752369e+01 4.366344e+01 4.603660e+01 3.608372e+01 3.384974e+01 3.099647e+01 2.808061e+01 2.401222e+01 3.279629e+00 6.245831e+00 4.419843e+00 4.394574e+00 3.981618e+00 4.501536e+00 4.053548e+00 3.878161e+00 4.594591e+00 3.841020e+00 3.527168e+00 2.794503e+00 1.000000e-02 6.482201e-01 1.063167e+00 6.584032e-01 7.486408e-01 7.079743e-01 8.511817e-01 8.457763e-01 7.427243e-01 8.116364e-01 7.269670e-01 6.893345e-01 5.275561e-01 1.000000e-02
<GCONST> 1.161972e+02
<MIXTURE> 2 5.900258e-01
<MEAN> 38
 1.554715e+00 -4.155238e-01 8.194978e-01 6.416342e+00 2.277523e+00 -1.287751e+00 -2.463178e+00 -1.875126e+00 9.528940e-01 -1.149340e+00 -1.768662e-01 -1.033856e+00 -1.621761e-02 -2.390036e+00 -1.367160e+00 -1.425956e+00 -1.924473e+00 -1.365815e+00 -1.225100e+00 2.376153e-01 4.292194e-01 3.107491e-01 3.754419e-01 3.726034e-01 4.825170e-02 5.884811e-01 6.405293e-01 1.541298e-01 -4.468188e-01 -3.281641e-01 2.352504e-02 -4.289767e-02 -1.759840e-01 -3.607386e-01 9.122468e-02 -3.651010e-02 -6.574703e-02 7.254361e-03
<VARIANCE> 38
 2.449034e+01 3.375497e+01 3.272918e+01 3.624063e+01 3.807918e+01 4.252511e+01 4.469335e+01 3.616943e+01 3.364652e+01 3.014859e+01 2.741575e+01 2.356206e+01 3.139954e+00 5.771551e+00 4.341360e+00 4.098648e+00 3.707335e+00 4.311460e+00 4.096959e+00 4.135976e+00 4.819129e+00 3.722599e+00 3.492825e+00 2.955578e+00 1.000000e-02 5.802131e-01 9.450713e-01 6.560714e-01 7.462409e-01 7.100554e-01 8.455557e-01 8.487002e-01 7.405851e-01 8.015841e-01 7.389506e-01 7.172277e-01 5.356714e-01 1.000000e-02
<GCONST> 1.154245e+02
<STATE> 4
<NUMMIXES> 2
<SWEIGHTS> 1
 1.000000e+00
<MIXTURE> 1 5.190385e-01
<MEAN> 38
 5.174129e+00 -1.679190e+00 -8.314268e-01 1.344955e+00 -3.419699e+00 -3.130369e+00 -4.489014e+00 -1.537153e+00 7.581704e-01 7.533655e-01 1.540425e+00 4.008608e-01 8.698341e-01 -1.149452e-01 2.138063e-02 -1.227790e+00 -1.163859e+00 1.188495e-01 -5.712200e-02 2.973834e-01 -1.648654e-01 4.477133e-01 1.886065e-01 2.056325e-01 3.300457e-02 -1.132255e-01 4.002480e-01 2.686299e-01 2.075789e-01 4.107074e-01 3.785268e-01 3.440908e-01 1.880684e-02 -6.800852e-02 -8.071718e-02 -1.436530e-01 -7.993854e-02 -7.809757e-03
<VARIANCE> 38
 2.150232e+01 2.868921e+01 4.623202e+01 5.454554e+01 4.169282e+01 5.797814e+01 4.557002e+01 4.327271e+01 4.087707e+01 4.042990e+01 3.520685e+01 2.671935e+01 2.007010e+00 2.697898e+00 3.067063e+00 4.041480e+00 3.787740e+00 4.214054e+00 3.882891e+00 3.639374e+00 3.743202e+00 3.700266e+00 3.644796e+00 2.619433e+00 1.000000e-02 4.157583e-01 5.239231e-01 4.222185e-01 5.520735e-01 5.152832e-01 6.516985e-01 5.857503e-01 5.673258e-01 6.139494e-01 5.965408e-01 5.397388e-01 4.186523e-01 1.000000e-02
<GCONST> 1.113649e+02
<MIXTURE> 2 4.809669e-01
<MEAN> 38
 5.292977e+00 -2.369695e+00 -6.918444e-01 1.201296e+00 -4.299258e+00 -3.897308e+00 -5.217092e+00 -1.624629e+00 5.021797e-02 8.621154e-02 4.171744e-01 -6.145599e-01 5.763603e-01 -5.111179e-01 -3.093954e-01 -1.512902e+00 -1.353618e+00 -1.197148e-01 -2.741972e-01 8.929337e-02 -3.217064e-01 2.279361e-01 -2.512586e-01 -1.527444e-01 3.474637e-02 -1.377979e-01 3.167909e-01 1.441663e-01 1.065303e-01 3.356585e-01 2.866417e-01 2.307069e-01 -8.712431e-02 -7.002789e-02 -1.095367e-01 -1.849012e-01 -1.191799e-01 -6.571195e-03
<VARIANCE> 38
 1.900623e+01 2.673262e+01 4.792985e+01 5.436168e+01 4.454039e+01 5.490899e+01 4.888613e+01 4.358747e+01 4.372266e+01 4.120302e+01 3.707812e+01 2.854391e+01 1.792524e+00 2.641969e+00 3.128686e+00 3.766356e+00 3.803999e+00 4.037912e+00 3.993580e+00 3.628436e+00 3.821513e+00 3.654364e+00 3.591923e+00 2.578851e+00 1.000000e-02 4.135989e-01 4.832692e-01 4.231423e-01 5.685416e-01 5.679402e-01 6.450618e-01 6.123651e-01 5.811695e-01 6.464959e-01 6.115254e-01 5.533090e-01 4.325356e-01 1.000000e-02
<GCONST> 1.115120e+02
<TRANSP> 5
 0.000000e+00 1.000000e+00 0.000000e+00 0.000000e+00 0.000000e+00
 0.000000e+00 8.430246e-01 1.569754e-01 0.000000e+00 0.000000e+00
 0.000000e+00 0.000000e+00 6.309659e-01 3.690341e-01 0.000000e+00
 0.000000e+00 0.000000e+00 0.000000e+00 5.913766e-01 4.086234e-01
 0.000000e+00 0.000000e+00 0.000000e+00 0.000000e+00 0.000000e+00
<ENDHMM>
~h "d"
<BEGINHMM>
<NUMSTATES> 5
<STATE> 2
<NUMMIXES> 2
<SWEIGHTS> 1
 1.000000e+00
<MIXTURE> 1 4.868020e-01
<MEAN> 38
 2.309864e+00 6.469254e+00 5.737086e+00 4.639838e+00 1.840122e+00 -1.988682e+00 -6.842000e-01 -1.456030e+00 -2.302951e-01 -1.284917e+00 -1.320230e+00 -9.646118e-01 -5.793285e-01 -3.220382e-01 3.198506e-01 -3.042563e-02 1.973599e-01 -5.528851e-02 -4.622462e-02 1.848883e-01 1.258257e-01 -6.164441e-02 3.074885e-01 2.605773e-01 4.811626e-03 2.684294e-02 -2.672076e-01 -1.311334e-01 -1.524581e-01 -1.655070e-01 -1.987527e-02 -6.642868e-02 4.935338e-02 6.591871e-02 1.179330e-01 1.025253e-01 1.163902e-01 4.235408e-03
<VARIANCE> 38
 4.490685e+01 6.930094e+01 4.108101e+01 4.270746e+01 4.506791e+01 4.433355e+01 4.280673e+01 4.282595e+01 3.782994e+01 3.273014e+01 3.655807e+01 2.890945e+01 3.598057e+00 7.404552e+00 3.809859e+00 3.876405e+00 4.485404e+00 4.700211e+00 4.096101e+00 3.909317e+00 3.598639e+00 3.303107e+00 3.429518e+00 2.870781e+00 1.000000e-02 6.923034e-01 1.487073e+00 6.903643e-01 7.727225e-01 8.293983e-01 8.710421e-01 7.067688e-01 7.209231e-01 6.749508e-01 6.531408e-01 6.735137e-01 5.516064e-01 1.000000e-02
<GCONST> 1.184915e+02
<MIXTURE> 2 5.131381e-01
<MEAN> 38
 1.035357e+00 4.140243e+00 5.268361e+00 3.719228e+00 1.881259e+00 -1.889545e+00 -1.001324e+00 -1.882577e+00 -1.046142e+00 -2.055472e+00 -1.561273e+00 -1.577800e+00 -1.043028e+00 -1.400058e+00 -2.949839e-01 -8.003606e-01 -1.506252e-01 -3.427582e-01 -4.426293e-01 1.667095e-03 -1.013459e-01 -3.015162e-01 2.976089e-01 1.847043e-01 1.488164e-02 2.009123e-01 -6.754829e-02 -2.416288e-01 -2.259330e-01 -3.652706e-01 -2.510672e-01 -2.290852e-01 -5.612439e-02 5.521321e-02 1.306152e-01 2.004541e-02 8.658845e-02 7.815553e-03
<VARIANCE> 38
 4.199236e+01 6.639783e+01 4.101960e+01 4.129960e+01 4.664977e+01 4.861786e+01 4.459364e+01 4.370949e+01 3.866202e+01 3.422876e+01 3.750016e+01 2.964748e+01 4.229264e+00 7.949837e+00 4.396510e+00 4.406913e+00 5.311149e+00 5.477694e+00 4.837867e+00 4.641089e+00 4.314664e+00 3.803168e+00 4.172871e+00 3.322787e+00 1.000000e-02 7.345952e-01 1.641873e+00 7.209592e-01 8.017784e-01 8.940381e-01 9.950587e-01 7.710220e-01 7.699836e-01 7.157598e-01 7.158972e-01 7.710205e-01 5.982484e-01 1.000000e-02
<GCONST> 1.214473e+02
<STATE> 3
<NUMMIXES> 2
<SWEIGHTS> 1
 1.000000e+00
<MIXTURE> 1 4.739339e-01
<MEAN> 38
 2.064744e-01 1.469513e+00 3.373188e+00 8.024266e-01 -1.068094e-01 -4.816991e+00 -3.524068e+00 -1.173266e+00 6.198450e-01 -6.029703e-01 5.172020e-01 1.212832e+00 9.100268e-01 3.313273e-02 -1.743844e-01 -3.235375e-01 -1.097687e+00 -7.921432e-01 -8.468040e-01 1.000593e-01 6.175507e-01 6.076236e-01 1.085342e-01 2.927563e-01 3.085480e-02 3.560615e-01 1.613861e-01 5.908258e-02 1.788407e-01 -1.119365e-02 3.047249e-01 1.506582e-01 2.364860e-02 7.842020e-03 1.214307e-01 -1.145119e-01 -1.459122e-01 -9.367908e-04
<VARIANCE> 38
 2.516526e+01 3.589703e+01 3.899919e+01 3.544609e+01 4.351596e+01 4.450147e+01 4.794714e+01 3.772289e+01 3.758194e+01 3.197564e+01 3.262557e+01 2.821947e+01 2.897746e+00 3.601288e+00 3.426100e+00 3.280425e+00 4.219636e+00 4.795503e+00 4.005424e+00 3.897418e+00 3.701938e+00 3.508573e+00 3.515905e+00 3.301073e+00 1.000000e-02 5.700846e-01 8.061438e-01 5.682995e-01 5.861962e-01 7.235788e-01 8.289619e-01 6.925263e-01 6.594773e-01 5.968149e-01 6.039438e-01 6.353431e-01 5.590357e-01 1.000000e-02
<GCONST> 1.139608e+02
<MIXTURE> 2 5.260777e-01
<MEAN> 38
 1.988689e-01 8.421404e-01 2.961158e+00 3.684315e-01 -7.115838e-01 -5.401968e+00 -4.106325e+00 -1.887790e+00 -6.123613e-02 -1.522753e+00 -5.017121e-01 2.237124e-01 7.463121e-01 -6.235254e-01 -6.591352e-01 -9.011970e-01 -1.354910e+00 -9.977688e-01 -1.191326e+00 -7.619926e-02 4.195110e-01 3.023924e-01 -2.300729e-01 7.024243e-02 3.640890e-02 3.699908e-01 1.244185e-01 -5.201045e-02 4.674195e-02 -9.577876e-02 2.158045e-01 4.065085e-02 -4.151731e-02 -3.071610e-02 1.074001e-01 -1.544245e-01 -1.906688e-01 1.687598e-04
<VARIANCE> 38
 2.290059e+01 3.017444e+01 3.836338e+01 3.278863e+01 4.601723e+01 4.571095e+01 4.700128e+01 3.837693e+01 3.809621e+01 3.237129e+01 3.189770e+01 2.819024e+01 3.328758e+00 3.491123e+00 3.445626e+00 3.102931e+00 4.160228e+00 4.673987e+00 4.144257e+00 4.188292e+00 3.865820e+00 3.634950e+00 4.184807e+00 3.334620e+00 1.000000e-02 5.973753e-01 8.107954e-01 5.563788e-01 5.698001e-01 7.942321e-01 8.955331e-01 7.330460e-01 6.658481e-01 6.035215e-01 6.298252e-01 7.212114e-01 5.698228e-01 1.000000e-02
<GCONST> 1.145064e+02
<STATE> 4
<NUMMIXES> 2
<SWEIGHTS> 1
 1.000000e+00
<MIXTURE> 1 4.900717e-01
<MEAN> 38
 2.995621e+00 9.980835e-01 2.764488e+00 2.677626e-01 -2.458540e+00 -5.317524e+00 -5.240947e+00 -9.952491e-01 1.809415e+00 7.420069e-01 9.842495e-03 7.151143e-01 7.606920e-01 -1.155329e-01 -2.479916e-01 -1.550168e-01 -5.547003e-01 1.938695e-01 -1.929471e-01 1.679424e-01 3.704498e-01 5.239307e-01 4.025505e-02 -2.690264e-02 1.613995e-02 -8.684506e-02 6.995168e-02 6.999270e-02 1.480859e-01 2.680930e-01 3.318571e-01 3.041369e-01 2.406906e-02 -1.176357e-01 -6.931694e-02 -4.497264e-03 -5.284105e-02 -5.329187e-03
<VARIANCE> 38
 2.002848e+01 3.284533e+01 4.320430e+01 3.728693e+01 4.824589e+01 4.404295e+01 5.616700e+01 4.455535e+01 4.526456e+01 3.874539e+01 3.516372e+01 3.256993e+01 1.526420e+00 2.148655e+00 2.491596e+00 2.399759e+00 3.480726e+00 3.534031e+00 3.178060e+00 3.170073e+00 2.957530e+00 2.815908e+00 2.830065e+00 2.546941e+00 1.000000e-02 3.225703e-01 3.809941e-01 3.557745e-01 3.786581e-01 5.096906e-01 5.360627e-01 5.383515e-01 4.961267e-01 4.799517e-01 4.625107e-01 4.709063e-01 4.285790e-01 1.000000e-02
<GCONST> 1.065685e+02
<MIXTURE> 2 5.099221e-01
<MEAN> 38
 2.918659e+00 -2.210001e-01 1.698479e+00 -9.446396e-01 -3.640143e+00 -6.384008e+00 -5.981209e+00 -1.491276e+00 1.346126e+00 -1.423113e-01 -1.330519e+00 -1.895182e-01 7.384034e-01 -5.698903e-01 -5.399098e-01 -5.729013e-01 -7.341176e-01 1.310458e-01 -4.405057e-01 4.530912e-02 1.798141e-01 2.506043e-01 -3.116516e-01 -3.694367e-01 2.177541e-02 -1.218336e-01 2.413368e-02 8.383487e-03 7.255608e-02 2.441615e-01 3.137772e-01 2.545743e-01 -2.959608e-02 -1.764529e-01 -9.691306e-02 8.490711e-03 -9.127987e-02 -5.556698e-03
<VARIANCE> 38
 1.824638e+01 2.822840e+01 4.539177e+01 3.537652e+01 4.832902e+01 4.248082e+01 5.434101e+01 4.760213e+01 4.771711e+01 3.970380e+01 3.660571e+01 3.234397e+01 1.493571e+00 1.937050e+00 2.409829e+00 2.265065e+00 3.477183e+00 3.475774e+00 3.313182e+00 3.290100e+00 2.996718e+00 2.902160e+00 3.108024e+00 2.575126e+00 1.000000e-02 3.275926e-01 3.538460e-01 3.410805e-01 3.707273e-01 5.326967e-01 5.388632e-01 5.432373e-01 4.957919e-01 4.803984e-01 4.563780e-01 4.962023e-01 4.281698e-01 1.000000e-02
<GCONST> 1.063972e+02
<TRANSP> 5
 0.000000e+00 1.000000e+00 0.000000e+00 0.000000e+00 0.000000e+00
 0.000000e+00 7.839566e-01 2.160434e-01 0.000000e+00 0.000000e+00
 0.000000e+00 0.000000e+00 4.840629e-01 5.159371e-01 0.000000e+00
 0.000000e+00 0.000000e+00 0.000000e+00 4.697409e-01 5.302591e-01
 0.000000e+00 0.000000e+00 0.000000e+00 0.000000e+00 0.000000e+00
<ENDHMM>
~h "e"
<BEGINHMM>
<NUMSTATES> 5
<STATE> 2
<NUMMIXES> 2
<SWEIGHTS> 1
 1.000000e+00
<MIXTURE> 1 5.057857e-01
<MEAN> 38
 2.132581e+00 2.165147e-01 9.674284e+00 -3.582834e+00 -1.251262e+01 -3.332186e+00 -1.024915e+00 -3.625622e+00 -2.214666e+00 3.451770e+00 9.590220e-01 1.007406e+00 1.445802e-02 1.392219e-01 2.078237e-01 -8.286803e-03 -5.070518e-02 1.776635e-01 5.744343e-02 -7.436085e-02 1.909588e-02 1.948797e-01 4.880264e-02 9.296303e-02 -2.525349e-04 1.017384e-02 3.187223e-02 -1.388230e-02 8.406249e-02 9.779122e-02 9.711105e-04 2.288916e-02 3.727055e-02 8.477954e-03 -2.620822e-02 9.529293e-03 1.962416e-02 -1.507784e-03
<VARIANCE> 38
 9.840896e+00 2.492373e+01 2.412780e+01 3.845150e+01 2.523444e+01 4.406783e+01 3.674789e+01 5.350350e+01 3.975835e+01 3.957385e+01 3.729586e+01 2.454303e+01 1.726897e-01 4.152118e-01 4.757521e-01 6.356213e-01 8.016810e-01 8.751151e-01 9.562724e-01 9.967732e-01 1.008636e+00 9.484490e-01 8.760852e-01 7.495126e-01 1.000000e-02 3.257223e-02 5.958206e-02 7.339834e-02 1.019067e-01 1.419650e-01 1.480446e-01 1.631217e-01 1.661050e-01 1.587881e-01 1.578810e-01 1.504740e-01 1.281252e-01 1.000000e-02
<GCONST> 7.079771e+01
<MIXTURE> 2 4.940743e-01
<MEAN> 38
 1.397117e+00 -7.321297e-01 8.627850e+00 -4.760032e+00 -1.353560e+01 -3.927459e+00 -1.765688e+00 -4.525876e+00 -3.181147e+00 2.445322e+00 -3.469872e-01 -4.323091e-01 -6.583063e-02 2.842709e-02 9.089202e-02 -1.591472e-01 -1.501231e-01 5.326184e-02 -6.570008e-02 -2.241114e-01 -1.473219e-01 1.590332e-03 -1.571549e-01 -1.358811e-01 1.050937e-03 -6.050798e-04 9.211787e-03 -3.026746e-02 4.548060e-02 7.011029e-02 -3.593102e-02 -1.366621e-02 -2.727705e-03 -3.034300e-02 -5.656264e-02 -2.796160e-02 -1.728645e-02 -1.307936e-03
<VARIANCE> 38
 1.012646e+01 2.201194e+01 2.511409e+01 4.189672e+01 2.550108e+01 4.049479e+01 3.628932e+01 5.393021e+01 3.846175e+01 3.861416e+01 4.524254e+01 2.577970e+01 1.689152e-01 3.973264e-01 4.742253e-01 6.368235e-01 7.864616e-01 8.721441e-01 9.565156e-01 1.008848e+00 9.764408e-01 9.618164e-01 9.161649e-01 7.418989e-01 1.000000e-02 3.170665e-02 5.454895e-02 6.981593e-02 9.726465e-02 1.355424e-01 1.424387e-01 1.564554e-01 1.580440e-01 1.546781e-01 1.563014e-01 1.450533e-01 1.253017e-01 1.000000e-02
<GCONST> 7.038879e+01
<STATE> 3
<NUMMIXES> 2
<SWEIGHTS> 1
 1.000000e+00
<MIXTURE> 1 5.221285e-01
<MEAN> 38
 2.686123e+00 2.142745e+00 1.095281e+01 -1.634150e+00 -1.153347e+01 -3.073175e+00 -3.891679e-01 -4.885503e+00 -4.770716e+00 2.805555e+00 -1.170226e-01 3.589345e-01 2.029034e-01 1.892100e-01 -1.410074e-01 7.508394e-01 7.427260e-01 -1.892140e-01 2.967761e-01 4.845141e-01 -1.495001e-02 -3.112341e-01 1.074980e-01 1.496434e-01 -1.254650e-02 -3.413159e-02 4.809730e-02 -1.022687e-01 1.616800e-01 2.778935e-01 -3.777299e-02 3.261136e-02 1.712824e-01 1.612176e-01 -9.247732e-02 3.002309e-02 4.181370e-02 -3.278118e-03
<VARIANCE> 38
 1.024943e+01 2.574095e+01 2.638604e+01 4.085743e+01 2.904780e+01 5.256405e+01 4.224268e+01 6.101638e+01 4.878904e+01 4.221925e+01 4.605955e+01 2.984066e+01 3.499781e-01 8.461510e-01 9.131345e-01 1.130663e+00 1.368947e+00 1.592860e+00 1.783047e+00 1.932421e+00 1.887029e+00 1.646922e+00 1.628345e+00 1.315886e+00 1.000000e-02 6.251379e-02 1.266326e-01 1.409430e-01 1.924243e-01 2.469087e-01 2.814679e-01 3.137009e-01 3.367576e-01 3.087106e-01 2.852584e-01 2.946124e-01 2.341962e-01 1.000000e-02
<GCONST> 8.749272e+01
<MIXTURE> 2 4.778664e-01
<MEAN> 38
 1.901823e+00 7.982900e-01 9.146763e+00 -3.427046e+00 -1.267285e+01 -4.305511e+00 -1.622336e+00 -5.794752e+00 -5.454799e+00 1.298377e+00 -1.965192e+00 -1.018777e+00 1.629333e-01 -8.056155e-02 -3.660945e-01 4.519416e-01 5.026739e-01 -3.542904e-01 2.056893e-02 3.150121e-01 -2.246174e-01 -5.683064e-01 -1.398919e-01 -1.268428e-01 -6.518082e-03 -7.051677e-03 -5.776965e-03 -1.050527e-01 9.420838e-02 1.874699e-01 -7.024814e-02 -4.267097e-02 8.629800e-02 7.326832e-02 -1.155010e-01 1.407785e-03 -9.042089e-03 -1.921755e-03
<VARIANCE> 38
 1.111349e+01 2.427991e+01 2.910622e+01 4.878652e+01 3.069193e+01 5.181063e+01 4.468439e+01 6.506757e+01 4.697324e+01 4.421190e+01 5.805094e+01 3.161680e+01 3.052006e-01 7.408993e-01 9.458799e-01 1.088596e+00 1.321369e+00 1.600961e+00 1.716740e+00 2.070799e+00 1.991068e+00 1.715885e+00 1.652950e+00 1.333290e+00 1.000000e-02 5.381676e-02 1.019835e-01 1.326105e-01 1.834718e-01 2.346769e-01 2.650023e-01 2.958935e-01 3.188418e-01 2.957293e-01 2.786226e-01 2.806101e-01 2.235660e-01 1.000000e-02
<GCONST> 8.723987e+01
<STATE> 4
<NUMMIXES> 2
<SWEIGHTS> 1
 1.000000e+00
<MIXTURE> 1 5.395550e-01
<MEAN> 38
 1.425709e+00 3.410321e+00 9.787161e+00 3.055499e+00 -5.540429e+00 -4.062263e+00 6.951354e-01 -2.129025e+00 -3.765399e+00 2.847623e-01 -8.638153e-02 4.798015e-01 -6.223810e-01 3.228998e-01 -6.199550e-01 1.173065e+00 2.063917e+00 2.542433e-01 4.059005e-01 9.298168e-01 8.005218e-01 -4.307637e-01 1.153339e-02 4.628875e-02 -3.392832e-02 -2.107429e-01 -5.891648e-02 -1.282990e-01 -6.722920e-02 1.478422e-01 2.363487e-01 8.298109e-03 8.788834e-03 1.696596e-01 1.331665e-01 -1.346064e-02 -2.542613e-02 -1.859083e-03
<VARIANCE> 38
 2.384662e+01 3.059646e+01 2.987672e+01 3.748174e+01 4.472628e+01 4.852291e+01 3.914309e+01 5.317631e+01 4.414682e+01 3.539597e+01 3.303300e+01 2.594549e+01 1.836908e+00 1.976698e+00 1.711013e+00 2.345604e+00 2.504979e+00 3.172898e+00 3.184132e+00 3.633360e+00 2.993821e+00 2.752722e+00 2.825809e+00 2.067374e+00 1.000000e-02 1.740167e-01 2.770634e-01 2.664835e-01 3.280236e-01 4.583929e-01 4.647697e-01 4.640953e-01 5.285205e-01 4.909921e-01 4.497941e-01 4.221359e-01 3.514915e-01 1.000000e-02
<GCONST> 1.029090e+02
<MIXTURE> 2 4.604056e-01
<MEAN> 38
 1.096067e+00 2.004501e+00 8.240058e+00 2.206376e+00 -6.080379e+00 -5.371974e+00 -6.078701e-01 -2.384318e+00 -4.082968e+00 -1.153085e+00 -1.357233e+00 -2.775719e-01 -6.619526e-01 -6.257661e-03 -9.257286e-01 8.883071e-01 1.853314e+00 9.769601e-02 -1.080733e-01 6.816183e-01 5.820975e-01 -6.714852e-01 -3.260998e-01 -2.561243e-01 -2.938904e-02 -1.684303e-01 -1.078259e-01 -1.683812e-01 -1.689379e-01 3.685604e-02 1.711756e-01 -5.553455e-02 -8.196070e-02 8.266448e-02 1.209598e-01 -4.406524e-02 -8.153860e-02 -8.301726e-05
<VARIANCE> 38
 2.408439e+01 3.120347e+01 3.353756e+01 4.555363e+01 4.624181e+01 4.600838e+01 4.207723e+01 5.954844e+01 4.469334e+01 3.588726e+01 3.741493e+01 2.818213e+01 2.128379e+00 1.815537e+00 1.749471e+00 2.513053e+00 2.653535e+00 3.224908e+00 3.256283e+00 3.612246e+00 3.199302e+00 2.829801e+00 2.831764e+00 2.079667e+00 1.000000e-02 1.717770e-01 2.740768e-01 2.589084e-01 3.490629e-01 4.887643e-01 4.618436e-01 4.600115e-01 5.445296e-01 4.885779e-01 4.544160e-01 4.317279e-01 3.578952e-01 1.000000e-02
<GCONST> 1.041282e+02
<TRANSP> 5
 0.000000e+00 1.000000e+00 0.000000e+00 0.000000e+00 0.000000e+00
 0.000000e+00 9.488419e-01 5.115810e-02 0.000000e+00 0.000000e+00
 0.000000e+00 0.000000e+00 7.397345e-01 2.602655e-01 0.000000e+00
 0.000000e+00 0.000000e+00 0.000000e+00 7.595258e-01 2.404741e-01
 0.000000e+00 0.000000e+00 0.000000e+00 0.000000e+00 0.000000e+00
<ENDHMM>
~h "f"
<BEGINHMM>
<NUMSTATES> 5
<STATE> 2
<NUMMIXES> 2
<SWEIGHTS> 1
 1.000000e+00
<MIXTURE> 1 5.299690e-01
<MEAN> 38
 -1.300504e+01 -5.902204e+00 -5.008744e+00 5.371641e+00 2.314258e+00 2.160756e+00 1.781372e+00 4.621925e+00 5.155613e+00 3.206816e+00 3.359482e+00 2.830384e+00 -3.444774e-01 -3.833532e-01 -3.026404e-01 -1.089905e-01 5.094792e-02 1.598742e-01 1.870733e-01 3.244029e-01 4.544121e-01 4.811833e-01 4.269565e-01 3.301207e-01 -5.188387e-03 2.347124e-01 1.366946e-01 1.164811e-01 -2.316499e-02 3.143796e-02 2.272582e-02 2.243337e-02 -3.853136e-02 -6.411650e-02 -4.880540e-02 -3.326080e-02 -3.841055e-02 2.007399e-03
<VARIANCE> 38
 1.751393e+01 2.009100e+01 2.786866e+01 2.602029e+01 2.607999e+01 2.864929e+01 2.808438e+01 3.101223e+01 2.667928e+01 2.664088e+01 2.853327e+01 2.159182e+01 1.163005e+00 7.771662e-01 1.062098e+00 1.385544e+00 1.516995e+00 1.677959e+00 1.695246e+00 1.867226e+00 1.969572e+00 1.910427e+00 1.767353e+00 1.652243e+00 1.000000e-02 1.184708e-01 1.415287e-01 1.977959e-01 2.917109e-01 3.206764e-01 3.418517e-01 3.594660e-01 3.843093e-01 4.044480e-01 3.938664e-01 3.734533e-01 3.440781e-01 1.000000e-02
<GCONST> 8.920302e+01
<MIXTURE> 2 4.699343e-01
<MEAN> 38
 -1.309091e+01 -6.201362e+00 -6.054318e+00 4.632215e+00 1.739217e+00 1.478759e+00 7.149131e-01 3.528634e+00 4.435224e+00 2.556672e+00 2.013750e+00 2.276564e+00 -3.999040e-01 -5.911736e-01 -6.045019e-01 -4.116263e-01 -3.533352e-01 -2.979421e-01 -2.671365e-01 -1.110434e-01 5.931660e-02 1.006133e-01 6.755116e-02 6.076259e-02 -3.984433e-03 2.533955e-01 9.389924e-02 5.141950e-02 -1.133662e-01 -5.763088e-02 -7.254083e-02 -7.322927e-02 -1.228904e-01 -1.333029e-01 -1.044097e-01 -8.412425e-02 -6.875587e-02 2.480780e-03
<VARIANCE> 38
 1.769086e+01 2.005234e+01 2.847749e+01 2.643964e+01 2.534034e+01 2.873163e+01 2.686232e+01 3.048829e+01 2.617250e+01 2.607682e+01 2.618716e+01 2.122624e+01 1.270857e+00 8.186580e-01 1.104265e+00 1.443034e+00 1.554784e+00 1.690819e+00 1.721835e+00 1.846920e+00 1.937878e+00 1.877612e+00 1.751005e+00 1.637318e+00 1.000000e-02 1.144394e-01 1.355585e-01 1.973863e-01 3.056225e-01 3.351140e-01 3.415793e-01 3.605907e-01 3.846425e-01 3.985992e-01 3.892106e-01 3.721934e-01 3.421308e-01 1.000000e-02
<GCONST> 8.920160e+01
<STATE> 3
<NUMMIXES> 2
<SWEIGHTS> 1
 1.000000e+00
<MIXTURE> 1 5.450011e-01
<MEAN> 38
 -1.124412e+01 -7.199313e+00 -6.632138e+00 2.649422e+00 1.803450e+00 1.038509e+00 7.107257e-01 3.593600e+00 5.247426e+00 3.411704e+00 2.893551e+00 2.639215e+00 1.865345e+00 1.173134e+00 1.011088e+00 1.046557e-01 5.022495e-01 3.578673e-01 1.299252e-01 -4.520627e-01 -5.574526e-01 -4.601701e-01 -4.030173e-01 -4.789808e-01 1.274207e-02 7.151662e-01 5.686184e-01 2.973504e-01 -1.751318e-02 -7.125580e-02 6.668143e-02 -6.575728e-02 -2.700377e-01 -3.542484e-01 -2.159578e-01 -1.667065e-01 -1.510517e-01 1.448989e-02
<VARIANCE> 38
 2.012341e+01 1.956070e+01 3.444518e+01 2.623074e+01 3.089416e+01 3.583270e+01 3.215033e+01 3.788105e+01 2.917752e+01 2.899968e+01 2.936235e+01 2.258421e+01 2.498345e+00 1.565364e+00 1.589623e+00 1.890692e+00 1.965031e+00 2.334863e+00 2.312155e+00 2.417522e+00 2.498406e+00 2.395673e+00 2.368602e+00 2.058968e+00 1.000000e-02 2.922654e-01 2.630852e-01 3.045052e-01 4.126558e-01 4.518192e-01 4.890310e-01 5.076345e-01 5.239806e-01 5.221452e-01 4.951168e-01 4.959413e-01 4.283020e-01 1.000000e-02
<GCONST> 9.946935e+01
<MIXTURE> 2 4.549940e-01
<MEAN> 38
 -1.117671e+01 -7.457043e+00 -6.374210e+00 3.197994e+00 1.676774e+00 1.211575e+00 8.160814e-01 3.815893e+00 5.217310e+00 3.100805e+00 2.936406e+00 2.352386e+00 2.127746e+00 9.673249e-01 6.108660e-01 -3.461563e-01 -9.820512e-02 -3.996535e-01 -6.860347e-01 -1.226595e+00 -1.225397e+00 -1.137831e+00 -1.134346e+00 -1.027733e+00 2.462662e-02 7.797276e-01 4.727483e-01 1.339928e-01 -2.365271e-01 -2.279578e-01 -1.015709e-01 -2.773970e-01 -4.467749e-01 -4.982998e-01 -3.103328e-01 -3.139069e-01 -2.615796e-01 1.670328e-02
<VARIANCE> 38
 1.898397e+01 1.818570e+01 3.094748e+01 2.480679e+01 3.079189e+01 3.348318e+01 3.028230e+01 3.491942e+01 2.956943e+01 2.716294e+01 2.782028e+01 2.187216e+01 2.602793e+00 1.701367e+00 1.672767e+00 1.882890e+00 1.902372e+00 2.296922e+00 2.294260e+00 2.502318e+00 2.564242e+00 2.366341e+00 2.488004e+00 2.157638e+00 1.000000e-02 2.817028e-01 2.733342e-01 3.273013e-01 4.459263e-01 4.465714e-01 4.687196e-01 4.960934e-01 5.418701e-01 5.268608e-01 5.027889e-01 4.984271e-01 4.260585e-01 1.000000e-02
<GCONST> 9.921529e+01
<STATE> 4
<NUMMIXES> 2
<SWEIGHTS> 1
 1.000000e+00
<MIXTURE> 1 4.243602e-01
<MEAN> 38
 -6.961906e-01 -1.085674e+00 -3.536617e+00 1.367697e+00 8.626369e-01 9.355586e-01 -8.674098e-01 -9.003854e-01 5.718656e-01 4.894630e-01 2.201529e-01 -2.954984e-02 2.818228e+00 1.360764e+00 6.174037e-01 -9.460584e-01 -5.106640e-01 2.367444e-01 -1.590833e-01 -6.908691e-01 -8.278630e-01 -1.421455e-01 -2.555267e-02 -1.500378e-01 4.553675e-02 -3.327394e-01 -3.057602e-01 -1.510748e-01 -1.005388e-01 -6.733831e-02 1.061032e-01 1.064098e-01 2.655961e-01 2.486498e-01 2.574414e-01 2.518407e-01 2.079242e-01 -1.614886e-03
<VARIANCE> 38
 6.377510e+01 2.434094e+01 4.412148e+01 4.564682e+01 3.991854e+01 4.438528e+01 3.658361e+01 4.121923e+01 3.630096e+01 3.117047e+01 2.898186e+01 2.511601e+01 4.169765e+00 3.214366e+00 3.045378e+00 3.909894e+00 3.189226e+00 3.345960e+00 3.408086e+00 3.588948e+00 3.449442e+00 3.365364e+00 3.013957e+00 2.400543e+00 1.000000e-02 6.448570e-01 4.440439e-01 3.949281e-01 5.909532e-01 5.640557e-01 5.124447e-01 5.687949e-01 6.019803e-01 5.694810e-01 5.522283e-01 4.943789e-01 4.181391e-01 1.000000e-02
<GCONST> 1.106272e+02
<MIXTURE> 2 5.756193e-01
<MEAN> 38
 1.043299e+00 -1.220415e+00 -3.133146e+00 1.376867e+00 -2.053370e-01 1.915512e-02 -1.794662e+00 -1.752629e+00 -7.571009e-01 -1.066854e+00 -8.815985e-01 -1.344256e+00 3.529216e+00 1.084542e+00 -1.488231e-02 -1.770948e+00 -1.296085e+00 -4.707709e-01 -1.143176e+00 -1.558228e+00 -1.650746e+00 -7.425882e-01 -9.095314e-01 -9.282929e-01 7.084730e-02 -4.411938e-01 -4.816136e-01 -3.314704e-01 -2.876358e-01 -1.485903e-01 7.199746e-02 4.766801e-02 2.759214e-01 2.796320e-01 3.569292e-01 2.545210e-01 2.219403e-01 -3.913028e-03
<VARIANCE> 38
 4.949052e+01 2.187787e+01 4.546252e+01 4.517525e+01 4.114412e+01 4.444187e+01 3.549764e+01 3.696469e+01 3.608966e+01 2.964269e+01 2.698732e+01 2.384115e+01 3.221120e+00 3.543277e+00 3.098560e+00 3.870742e+00 3.023998e+00 3.539531e+00 3.583990e+00 4.354951e+00 3.823961e+00 3.752239e+00 3.903157e+00 2.734484e+00 1.000000e-02 6.398293e-01 3.861087e-01 3.593367e-01 5.937290e-01 5.303297e-01 4.881438e-01 5.397977e-01 6.075906e-01 5.723862e-01 5.473952e-01 4.914091e-01 4.144418e-01 1.000000e-02
<GCONST> 1.102842e+02
<TRANSP> 5
 0.000000e+00 1.000000e+00 0.000000e+00 0.000000e+00 0.000000e+00
 0.000000e+00 9.061781e-01 9.382190e-02 0.000000e+00 0.000000e+00
 0.000000e+00 0.000000e+00 6.166391e-01 3.833609e-01 0.000000e+00
 0.000000e+00 0.000000e+00 0.000000e+00 6.866962e-01 3.133039e-01
 0.000000e+00 0.000000e+00 0.000000e+00 0.000000e+00 0.000000e+00
<ENDHMM>
~h "g"
<BEGINHMM>
<NUMSTATES> 5
<STATE> 2
<NUMMIXES> 2
<SWEIGHTS> 1
 1.000000e+00
<MIXTURE> 1 5.301347e-01
<MEAN> 38
 3.685625e+00 9.064049e+00 7.875944e+00 4.956220e+00 -1.570412e+00 -2.936458e+00 1.323934e+00 -1.442560e+00 -3.462318e+00 4.444065e-01 -1.294124e+00 -2.003292e+00 -2.768306e-01 4.786773e-01 -1.752468e-01 7.185571e-01 1.355001e+00 5.865677e-01 2.266296e-01 -3.213575e-02 5.364116e-01 -1.661459e-01 8.653639e-03 1.411808e-01 -3.137261e-02 -5.863947e-02 -3.897075e-01 -3.371959e-01 -1.078755e-01 1.304979e-01 1.707057e-01 -6.447224e-02 2.198741e-02 8.469087e-02 6.138216e-02 5.627113e-02 1.062243e-01 1.601849e-03
<VARIANCE> 38
 2.491278e+01 4.207400e+01 4.757550e+01 3.371801e+01 5.354656e+01 4.259381e+01 3.714509e+01 4.996716e+01 4.434070e+01 3.609095e+01 3.625539e+01 2.854492e+01 1.303279e+00 3.172591e+00 3.244972e+00 2.517542e+00 4.276170e+00 3.122044e+00 3.093737e+00 3.696415e+00 3.103631e+00 2.489410e+00 2.303812e+00 2.166340e+00 1.000000e-02 1.806665e-01 5.205032e-01 5.719956e-01 4.133704e-01 6.847533e-01 5.619487e-01 5.839843e-01 6.399713e-01 5.994780e-01 4.783469e-01 4.395455e-01 4.303042e-01 1.000000e-02
<GCONST> 1.080832e+02
<MIXTURE> 2 4.698659e-01
<MEAN> 38
 3.508029e+00 8.104337e+00 7.048116e+00 4.111195e+00 -2.460150e+00 -3.644612e+00 1.811389e-01 -2.526131e+00 -4.350166e+00 -4.285930e-01 -2.399729e+00 -2.892205e+00 -3.973132e-01 2.553356e-01 -3.201885e-01 6.589606e-01 1.196095e+00 2.373187e-01 -9.451615e-02 -3.184117e-01 2.808646e-01 -5.396411e-01 -1.923764e-01 -2.096531e-01 -3.211349e-02 -9.488905e-02 -4.906163e-01 -3.982733e-01 -1.930073e-01 7.879496e-02 9.626652e-02 -1.191223e-01 -5.036651e-02 3.630915e-02 4.518805e-02 5.078967e-02 9.727452e-02 3.417904e-03
<VARIANCE> 38
 2.639177e+01 4.213067e+01 5.126499e+01 3.460388e+01 5.273584e+01 4.615567e+01 4.250659e+01 5.489152e+01 4.171515e+01 3.735786e+01 4.303439e+01 2.986431e+01 1.504125e+00 3.959029e+00 3.855470e+00 2.686227e+00 5.309200e+00 3.963789e+00 3.419641e+00 3.786788e+00 3.258867e+00 2.895104e+00 2.745187e+00 2.316384e+00 1.000000e-02 1.990021e-01 6.377387e-01 6.476503e-01 4.288647e-01 7.381226e-01 6.396512e-01 6.539906e-01 6.219177e-01 5.771067e-01 5.370504e-01 5.135207e-01 4.157661e-01 1.000000e-02
<GCONST> 1.112991e+02
<STATE> 3
<NUMMIXES> 2
<SWEIGHTS> 1
 1.000000e+00
<MIXTURE> 1 5.233781e-01
<MEAN> 38
 1.532953e+00 5.599213e+00 2.597366e+00 6.480287e+00 5.007812e+00 9.360436e-01 1.302457e+00 -1.055011e+00 -1.634848e+00 -6.009098e-01 -1.171092e+00 -1.251887e+00 -4.026590e-01 -7.505389e-01 -9.210688e-01 1.976309e-01 1.000423e+00 5.295805e-01 1.586792e-01 4.407587e-02 4.694480e-01 2.913387e-01 3.143053e-01 2.916766e-01 -1.423901e-02 6.297813e-02 -5.616703e-02 5.352082e-02 -1.981351e-01 -3.868089e-01 -1.801484e-01 7.060248e-03 7.471462e-02 -8.140418e-03 1.621961e-01 1.195043e-01 5.956342e-02 8.159573e-03
<VARIANCE> 38
 2.977830e+01 5.856920e+01 7.152158e+01 4.398462e+01 4.601019e+01 5.153572e+01 4.694181e+01 4.094584e+01 3.401530e+01 2.965840e+01 2.824598e+01 2.197745e+01 2.051671e+00 7.031200e+00 7.436600e+00 3.921846e+00 5.141186e+00 4.692824e+00 3.880538e+00 3.946628e+00 3.540538e+00 3.100985e+00 2.929136e+00 2.122515e+00 1.000000e-02 3.167882e-01 1.325903e+00 1.402863e+00 8.282229e-01 8.868596e-01 9.335976e-01 7.881585e-01 6.518999e-01 6.995931e-01 5.660352e-01 5.283824e-01 4.027667e-01 1.000000e-02
<GCONST> 1.169583e+02
<MIXTURE> 2 4.766208e-01
<MEAN> 38
 1.163212e+00 4.954863e+00 1.900771e+00 5.946140e+00 4.746210e+00 1.883407e-01 7.284038e-01 -1.586572e+00 -2.510570e+00 -8.542897e-01 -1.561775e+00 -1.572472e+00 -5.846065e-01 -2.017770e+00 -1.895992e+00 -2.968820e-01 8.520976e-01 3.192319e-01 -3.072209e-01 -1.749024e-01 1.217881e-01 8.045086e-02 1.330372e-01 1.280111e-01 -4.159573e-03 9.063480e-02 -1.272219e-01 -2.859020e-02 -3.646841e-01 -5.344902e-01 -2.343342e-01 -1.418290e-01 -2.674973e-02 -1.178354e-01 1.115714e-01 8.084097e-02 7.505510e-03 1.121916e-02
<VARIANCE> 38
 3.163029e+01 6.594720e+01 7.608907e+01 4.626352e+01 4.757056e+01 5.198518e+01 4.740257e+01 4.130013e+01 3.439892e+01 2.830631e+01 3.045298e+01 2.491644e+01 2.420217e+00 7.442239e+00 7.954174e+00 5.204770e+00 6.052383e+00 5.624302e+00 4.791292e+00 4.308663e+00 4.036506e+00 3.377970e+00 3.341129e+00 2.401979e+00 1.000000e-02 3.210524e-01 1.465026e+00 1.385654e+00 8.413471e-01 8.935381e-01 9.052522e-01 8.359910e-01 6.904529e-01 6.949823e-01 5.812719e-01 5.739684e-01 4.124843e-01 1.000000e-02
<GCONST> 1.194986e+02
<STATE> 4
<NUMMIXES> 2
<SWEIGHTS> 1
 1.000000e+00
<MIXTURE> 1 5.215272e-01
<MEAN> 38
 -1.937421e-01 6.272090e-02 -1.505657e+00 3.680908e+00 3.225968e+00 -1.435474e+00 -5.124864e-01 -1.490678e+00 -1.182247e+00 1.230147e+00 1.142967e+00 3.908468e-01 3.410456e-01 3.103362e-01 3.913322e-01 -8.583618e-02 -4.542773e-01 -2.879800e-01 1.228196e-03 6.145916e-02 2.192177e-01 2.592673e-01 3.499851e-01 1.664971e-01 1.667990e-02 1.262305e-01 3.535450e-01 3.643962e-01 1.018494e-01 -1.153223e-01 9.144988e-02 1.682609e-01 7.913102e-02 -4.968629e-02 -7.658300e-02 -5.889059e-02 -5.661174e-02 1.907171e-03
<VARIANCE> 38
 3.879074e+01 5.754301e+01 6.678484e+01 4.982939e+01 5.815456e+01 5.900486e+01 6.173877e+01 4.978382e+01 4.329859e+01 3.729276e+01 3.458742e+01 2.938380e+01 2.615158e+00 5.316086e+00 5.074018e+00 3.841201e+00 4.483767e+00 4.762136e+00 4.724504e+00 4.320891e+00 3.918153e+00 3.551457e+00 2.962029e+00 2.413525e+00 1.000000e-02 4.735809e-01 1.104446e+00 9.897240e-01 7.780474e-01 9.924858e-01 9.457811e-01 9.526551e-01 8.271767e-01 7.898074e-01 7.037287e-01 5.965760e-01 4.760307e-01 1.000000e-02
<GCONST> 1.201542e+02
<MIXTURE> 2 4.784722e-01
<MEAN> 38
 -3.107173e-01 -7.382614e-01 -1.523897e+00 3.189281e+00 2.057131e+00 -2.006902e+00 -7.123628e-01 -1.942574e+00 -1.907244e+00 8.341787e-01 3.103703e-01 -3.244987e-01 5.063573e-01 -5.498993e-01 -3.589796e-01 -8.027710e-01 -1.207291e+00 -7.852578e-01 -7.408667e-01 -4.066069e-01 -2.722242e-01 -1.040954e-01 -5.350648e-02 -2.175415e-01 3.869422e-02 1.848035e-01 3.310813e-01 2.209664e-01 -2.425324e-02 -2.338485e-01 -2.919135e-02 1.179015e-02 -1.777834e-03 -9.665241e-02 -1.158879e-01 -8.381926e-02 -1.084059e-01 1.895721e-03
<VARIANCE> 38
 4.221795e+01 5.622234e+01 6.727980e+01 4.899142e+01 6.699853e+01 5.819962e+01 6.041859e+01 5.355139e+01 4.841897e+01 3.861271e+01 3.614597e+01 3.332650e+01 3.050533e+00 6.721250e+00 5.399366e+00 4.155965e+00 5.162930e+00 5.340002e+00 5.362819e+00 5.294697e+00 4.595417e+00 3.942759e+00 3.986172e+00 2.813172e+00 1.000000e-02 5.095292e-01 1.264293e+00 1.072271e+00 7.692487e-01 1.080023e+00 9.149233e-01 8.882448e-01 8.665566e-01 8.707855e-01 7.282535e-01 6.884004e-01 5.004009e-01 1.000000e-02
<GCONST> 1.231608e+02
<TRANSP> 5
 0.000000e+00 1.000000e+00 0.000000e+00 0.000000e+00 0.000000e+00
 0.000000e+00 6.801739e-01 3.198261e-01 0.000000e+00 0.000000e+00
 0.000000e+00 0.000000e+00 6.598968e-01 3.401032e-01 0.000000e+00
 0.000000e+00 0.000000e+00 0.000000e+00 7.557721e-01 2.442279e-01
 0.000000e+00 0.000000e+00 0.000000e+00 0.000000e+00 0.000000e+00
<ENDHMM>
~h "h"
<BEGINHMM>
<NUMSTATES> 5
<STATE> 2
<NUMMIXES> 2
<SWEIGHTS> 1
 1.000000e+00
<MIXTURE> 1 5.236570e-01
<MEAN> 38
 2.349777e+00 -4.167722e+00 -1.700520e+00 1.543025e+00 4.375015e+00 5.398585e+00 4.752389e+00 7.935831e-01 2.816232e-01 -1.664528e+00 -2.464015e+00 -1.097123e+00 1.692938e-01 -5.928270e-02 -1.242974e-01 -1.219031e-01 -4.588079e-02 1.729684e-01 1.941426e-01 1.083632e-02 -1.033511e-02 5.854070e-02 1.256727e-01 2.412633e-02 6.025895e-03 -2.564152e-03 4.003871e-02 1.288933e-02 -7.636590e-04 -3.541594e-02 -5.472295e-02 -4.057227e-02 3.103221e-02 4.411660e-02 5.994746e-02 6.224841e-02 4.441543e-02 -1.784281e-04
<VARIANCE> 38
 1.648186e+01 2.363881e+01 4.065908e+01 3.537032e+01 6.411737e+01 5.073770e+01 4.930689e+01 3.994790e+01 3.644078e+01 3.696723e+01 3.175476e+01 2.776139e+01 3.768344e-01 5.740051e-01 8.712253e-01 1.103314e+00 1.442927e+00 1.463861e+00 1.630848e+00 1.587025e+00 1.570244e+00 1.556277e+00 1.444395e+00 1.317844e+00 1.000000e-02 6.028658e-02 8.730856e-02 1.331992e-01 1.770685e-01 2.264381e-01 2.512234e-01 2.856703e-01 2.939979e-01 2.984887e-01 2.942258e-01 2.738884e-01 2.537534e-01 1.000000e-02
<GCONST> 8.575425e+01
<MIXTURE> 2 4.763239e-01
<MEAN> 38
 2.193558e+00 -5.110487e+00 -2.230746e+00 6.773486e-01 3.268080e+00 3.879718e+00 3.295609e+00 -5.743058e-01 -1.287207e+00 -3.421193e+00 -3.809806e+00 -2.343079e+00 2.293152e-01 -2.141801e-01 -3.712215e-01 -3.744672e-01 -3.319320e-01 -7.527706e-02 -5.205158e-02 -1.468372e-01 -1.641738e-01 -1.118987e-01 -1.081781e-01 -2.683165e-01 1.023295e-02 -3.924000e-02 -9.648527e-03 -3.183375e-02 -2.601665e-02 -4.866001e-02 -6.562723e-02 -4.218622e-02 1.843017e-02 2.927583e-02 2.866307e-02 2.367513e-02 1.041665e-02 -1.097522e-03
<VARIANCE> 38
 1.641617e+01 2.341754e+01 3.975364e+01 3.414558e+01 6.523717e+01 4.700351e+01 5.164964e+01 4.150399e+01 4.029055e+01 4.077380e+01 3.075779e+01 2.696939e+01 4.005641e-01 6.053042e-01 9.052361e-01 1.157873e+00 1.498440e+00 1.510131e+00 1.653190e+00 1.637536e+00 1.569646e+00 1.523398e+00 1.448995e+00 1.317397e+00 1.000000e-02 7.327161e-02 9.497313e-02 1.360321e-01 1.807876e-01 2.290524e-01 2.521270e-01 2.860656e-01 2.926566e-01 2.915230e-01 2.853681e-01 2.689014e-01 2.491387e-01 1.000000e-02
<GCONST> 8.638383e+01
<STATE> 3
<NUMMIXES> 2
<SWEIGHTS> 1
 1.000000e+00
<MIXTURE> 1 4.880748e-01
<MEAN> 38
 4.853521e+00 -2.387961e+00 -2.179731e+00 -1.837546e+00 -1.130825e+00 2.518061e+00 2.981111e+00 1.330982e+00 -6.173067e-01 -1.663671e+00 -1.427226e+00 -1.262022e+00 2.207828e-01 3.189416e-02 -8.900078e-02 -2.022347e-01 -2.883545e-01 -1.205920e-01 -1.010985e-01 1.318543e-01 1.284521e-01 1.666413e-01 1.920023e-01 5.915868e-02 7.302964e-03 -1.333732e-02 6.066022e-02 5.556585e-02 6.511305e-02 4.723719e-02 -1.486040e-02 -2.546484e-02 -8.641726e-03 3.558582e-02 5.192215e-02 4.638572e-02 5.301246e-02 -1.258851e-03
<VARIANCE> 38
 1.998942e+01 4.431971e+01 4.895344e+01 4.524622e+01 5.515005e+01 5.872835e+01 5.090131e+01 4.921336e+01 4.124081e+01 3.479911e+01 3.367802e+01 3.074388e+01 2.604819e-01 6.117951e-01 7.743142e-01 9.528354e-01 1.145482e+00 1.203166e+00 1.358034e+00 1.362607e+00 1.272287e+00 1.247221e+00 1.145428e+00 1.054340e+00 1.000000e-02 4.700703e-02 9.246322e-02 1.158529e-01 1.595091e-01 1.869042e-01 1.977074e-01 2.308659e-01 2.423427e-01 2.302501e-01 2.156953e-01 2.100628e-01 1.920085e-01 1.000000e-02
<GCONST> 8.286119e+01
<MIXTURE> 2 5.119257e-01
<MEAN> 38
 4.311661e+00 -3.707262e+00 -2.580668e+00 -2.257305e+00 -1.538513e+00 1.712070e+00 1.796367e+00 1.173784e-01 -1.974015e+00 -3.154524e+00 -3.105794e+00 -2.714613e+00 1.932520e-01 -1.614478e-01 -2.807032e-01 -3.921157e-01 -4.509566e-01 -2.809379e-01 -2.615709e-01 1.459442e-02 -5.550351e-03 1.801547e-02 1.065056e-02 -1.733894e-01 9.073004e-03 -3.589486e-02 1.501850e-02 2.404390e-02 3.451190e-02 2.434505e-02 -3.758854e-02 -4.436009e-02 -1.903508e-02 1.419329e-02 1.732295e-02 4.470375e-03 1.982394e-02 -1.657904e-03
<VARIANCE> 38
 1.782461e+01 4.206577e+01 4.641462e+01 4.093762e+01 6.009570e+01 5.171566e+01 5.087933e+01 4.941832e+01 4.309254e+01 3.649056e+01 3.364396e+01 3.047744e+01 2.661529e-01 5.945206e-01 8.003243e-01 9.525189e-01 1.189007e+00 1.239116e+00 1.344190e+00 1.375444e+00 1.247718e+00 1.221158e+00 1.139791e+00 1.068512e+00 1.000000e-02 4.559169e-02 8.818402e-02 1.135309e-01 1.501294e-01 1.844125e-01 1.992458e-01 2.279408e-01 2.370109e-01 2.220155e-01 2.143453e-01 2.063429e-01 1.889755e-01 1.000000e-02
<GCONST> 8.236848e+01
<STATE> 4
<NUMMIXES> 2
<SWEIGHTS> 1
 1.000000e+00
<MIXTURE> 1 4.817193e-01
<MEAN> 38
 4.485744e+00 -2.236657e+00 -1.769245e+00 -1.579968e+00 -1.898920e+00 1.285143e+00 2.593225e+00 1.343112e+00 -2.692996e-01 -1.226209e+00 -1.389297e+00 -1.169909e+00 3.107789e-01 2.028388e-01 7.025018e-02 -1.111962e-01 -2.702171e-01 -1.752023e-01 -2.122036e-01 -2.829301e-02 1.277672e-01 2.648340e-01 2.502334e-01 1.204364e-01 9.615720e-03 1.125852e-02 1.017079e-01 9.100445e-02 7.709667e-02 6.936651e-02 2.827401e-02 6.386024e-05 -5.184558e-02 -2.238610e-02 2.102104e-02 2.367637e-02 5.118611e-02 -8.907754e-04
<VARIANCE> 38
 2.324454e+01 5.272654e+01 5.609962e+01 4.495307e+01 5.821529e+01 6.218471e+01 5.162069e+01 5.001814e+01 4.055820e+01 3.594580e+01 3.449972e+01 3.148641e+01 3.943648e-01 9.621058e-01 1.091316e+00 1.244623e+00 1.433031e+00 1.478462e+00 1.591777e+00 1.519834e+00 1.518660e+00 1.437808e+00 1.353258e+00 1.217829e+00 1.000000e-02 6.538057e-02 1.360557e-01 1.566463e-01 2.189953e-01 2.445916e-01 2.435756e-01 2.810878e-01 2.888540e-01 2.736755e-01 2.568823e-01 2.508581e-01 2.287829e-01 1.000000e-02
<GCONST> 8.921172e+01
<MIXTURE> 2 5.182852e-01
<MEAN> 38
 4.482090e+00 -3.297949e+00 -2.314835e+00 -1.963625e+00 -1.936935e+00 9.661695e-01 1.415219e+00 1.037699e-01 -1.522930e+00 -2.638003e+00 -2.949626e+00 -2.545472e+00 2.673054e-01 -7.774727e-02 -2.224634e-01 -3.838961e-01 -4.873070e-01 -3.673624e-01 -3.982487e-01 -1.226910e-01 -2.761624e-02 7.115673e-02 3.064064e-02 -1.328049e-01 1.116613e-02 -2.812191e-02 1.965005e-02 2.789769e-02 2.743918e-02 3.553089e-02 -6.329456e-03 -1.879684e-02 -5.402168e-02 -3.450586e-02 -1.352271e-02 -1.615575e-02 1.441226e-02 -1.683791e-03
<VARIANCE> 38
 1.969866e+01 4.998259e+01 5.271820e+01 4.312812e+01 6.520656e+01 5.660528e+01 5.252206e+01 5.101397e+01 4.177267e+01 3.626084e+01 3.493879e+01 3.137369e+01 3.923079e-01 9.016438e-01 1.098639e+00 1.215333e+00 1.466468e+00 1.515374e+00 1.613077e+00 1.581394e+00 1.466671e+00 1.416623e+00 1.287733e+00 1.183831e+00 1.000000e-02 5.425358e-02 1.268869e-01 1.572753e-01 1.998636e-01 2.361294e-01 2.427181e-01 2.742672e-01 2.788865e-01 2.573120e-01 2.472176e-01 2.375188e-01 2.179677e-01 1.000000e-02
<GCONST> 8.823347e+01
<TRANSP> 5
 0.000000e+00 1.000000e+00 0.000000e+00 0.000000e+00 0.000000e+00
 0.000000e+00 7.799170e-01 2.200830e-01 0.000000e+00 0.000000e+00
 0.000000e+00 0.000000e+00 6.140020e-01 3.859980e-01 0.000000e+00
 0.000000e+00 0.000000e+00 0.000000e+00 3.492218e-01 6.507782e-01
 0.000000e+00 0.000000e+00 0.000000e+00 0.000000e+00 0.000000e+00
<ENDHMM>
~h "i"
<BEGINHMM>
<NUMSTATES> 5
<STATE> 2
<NUMMIXES> 2
<SWEIGHTS> 1
 1.000000e+00
<MIXTURE> 1 4.870079e-01
<MEAN> 38
 1.080276e+00 6.152777e+00 1.497476e+01 -5.929160e-01 -9.588103e+00 -8.904413e-02 -3.096255e+00 -8.707457e+00 -6.610159e+00 5.996178e-01 -1.462562e+00 -7.988143e-01 1.996036e-01 4.729344e-01 6.664186e-01 -4.509576e-01 -5.103968e-01 6.827812e-01 -3.530475e-01 -4.478809e-01 4.441904e-02 3.082727e-01 -2.311019e-01 4.248922e-02 9.186014e-03 -1.102050e-01 -3.397265e-02 -2.237091e-01 1.480865e-01 3.234493e-01 -5.315271e-02 1.466971e-01 2.291185e-01 1.646106e-01 2.881798e-03 6.612409e-02 6.199417e-02 -4.877642e-03
<VARIANCE> 38
 1.469182e+01 2.224319e+01 2.311368e+01 4.748358e+01 3.135983e+01 4.218890e+01 4.068810e+01 4.704238e+01 4.330881e+01 3.929587e+01 4.495118e+01 2.934960e+01 1.034909e+00 1.140764e+00 1.346626e+00 1.786962e+00 2.394134e+00 2.164792e+00 2.428078e+00 2.344854e+00 2.221909e+00 2.035691e+00 2.048598e+00 1.652686e+00 1.000000e-02 1.839284e-01 2.248502e-01 2.261111e-01 2.863907e-01 3.660557e-01 3.929844e-01 4.186532e-01 4.440805e-01 4.040183e-01 3.621862e-01 3.754416e-01 2.849733e-01 1.000000e-02
<GCONST> 9.624471e+01
<MIXTURE> 2 5.129629e-01
<MEAN> 38
 5.782737e-01 5.136669e+00 1.380336e+01 -1.932989e+00 -1.049440e+01 -1.231594e+00 -4.226726e+00 -9.929188e+00 -7.423992e+00 -5.652497e-01 -3.451507e+00 -2.104322e+00 2.004229e-01 2.286845e-01 5.590072e-01 -6.551230e-01 -7.663140e-01 5.073906e-01 -5.798365e-01 -6.534421e-01 -2.419782e-01 9.779689e-02 -5.291387e-01 -2.448592e-01 1.372980e-02 -1.310732e-01 -6.537241e-02 -2.513440e-01 9.222278e-02 2.695950e-01 -4.492739e-02 1.250767e-01 1.978817e-01 1.445828e-01 -5.417747e-03 3.496088e-02 3.100536e-02 -5.105071e-03
<VARIANCE> 38
 1.393037e+01 2.062074e+01 2.353498e+01 5.056175e+01 3.104340e+01 3.931193e+01 4.077893e+01 5.036092e+01 4.026394e+01 3.828921e+01 5.427664e+01 3.107549e+01 1.212651e+00 1.147963e+00 1.383204e+00 1.868160e+00 2.514873e+00 2.276538e+00 2.603097e+00 2.570925e+00 2.366647e+00 2.118582e+00 2.404530e+00 1.760004e+00 1.000000e-02 1.909487e-01 2.310788e-01 2.271592e-01 2.875657e-01 3.737202e-01 3.831758e-01 4.208121e-01 4.548825e-01 4.157630e-01 3.751628e-01 3.966064e-01 2.920504e-01 1.000000e-02
<GCONST> 9.739774e+01
<STATE> 3
<NUMMIXES> 2
<SWEIGHTS> 1
 1.000000e+00
<MIXTURE> 1 4.897792e-01
<MEAN> 38
 7.612831e-01 8.370694e+00 1.515467e+01 -7.575058e-01 -8.120054e+00 9.885341e-01 -3.013583e+00 -8.354181e+00 -4.945071e+00 3.905573e-01 -2.380642e+00 -7.898084e-01 -3.210741e-02 1.236283e-01 -2.145123e-01 5.458591e-01 5.747504e-01 -2.440913e-01 4.857945e-01 4.483999e-01 2.082631e-01 2.361125e-02 2.363437e-01 1.220866e-01 -1.367277e-02 -2.659348e-02 -5.524616e-02 -1.203318e-01 1.393351e-01 1.819520e-01 -4.471422e-02 7.721401e-02 1.367803e-01 4.732742e-02 -3.022880e-02 5.604834e-02 2.906457e-02 -3.132974e-03
<VARIANCE> 38
 1.344670e+01 2.296140e+01 2.252727e+01 4.705556e+01 3.692642e+01 4.064392e+01 3.914081e+01 4.150835e+01 4.795153e+01 3.969864e+01 4.179154e+01 3.174662e+01 5.238702e-01 7.701120e-01 8.241208e-01 1.369390e+00 1.643414e+00 1.665542e+00 1.723799e+00 1.705056e+00 1.557418e+00 1.500306e+00 1.552947e+00 1.241327e+00 1.000000e-02 6.613938e-02 1.128537e-01 1.426793e-01 1.864917e-01 2.563848e-01 2.798746e-01 2.792119e-01 2.921736e-01 2.825767e-01 2.655035e-01 2.595387e-01 2.193455e-01 1.000000e-02
<GCONST> 8.645895e+01
<MIXTURE> 2 5.101883e-01
<MEAN> 38
 1.029049e-01 6.839353e+00 1.388650e+01 -2.465627e+00 -9.603684e+00 -1.876066e-02 -4.509326e+00 -9.754058e+00 -6.107579e+00 -9.177055e-01 -4.559865e+00 -2.271826e+00 -5.290668e-02 -8.887417e-02 -2.752232e-01 3.251096e-01 2.327573e-01 -3.579790e-01 2.276638e-01 2.035861e-01 -3.861109e-02 -1.383156e-01 7.153877e-02 -5.903614e-02 -8.112536e-03 -1.826161e-02 -7.197048e-02 -1.155043e-01 9.717913e-02 9.727918e-02 -9.564006e-02 5.399936e-02 8.972871e-02 3.666865e-03 -4.003268e-02 5.408503e-02 -1.756056e-03 -2.135457e-03
<VARIANCE> 38
 1.244826e+01 2.219735e+01 2.456062e+01 5.136364e+01 3.567171e+01 3.894368e+01 3.974841e+01 4.388664e+01 4.464898e+01 4.135736e+01 5.410844e+01 3.292068e+01 4.233310e-01 6.830131e-01 7.405351e-01 1.175889e+00 1.413285e+00 1.498411e+00 1.461896e+00 1.513422e+00 1.409183e+00 1.430452e+00 1.439573e+00 1.181141e+00 1.000000e-02 5.571791e-02 9.485764e-02 1.225927e-01 1.626185e-01 2.190941e-01 2.341968e-01 2.497193e-01 2.559908e-01 2.522855e-01 2.449027e-01 2.390261e-01 1.994640e-01 1.000000e-02
<GCONST> 8.378915e+01
<STATE> 4
<NUMMIXES> 2
<SWEIGHTS> 1
 1.000000e+00
<MIXTURE> 1 5.354404e-01
<MEAN> 38
 -1.476084e+00 6.763011e+00 1.022706e+01 5.614970e+00 -7.717071e-01 -1.023886e+00 1.421837e+00 -3.098152e+00 -3.562531e+00 -9.313092e-01 -1.040425e+00 -8.200003e-01 -4.967339e-01 -3.875366e-01 -1.185899e+00 6.934742e-01 1.558454e+00 3.197452e-01 6.746280e-01 1.223793e+00 8.600062e-01 2.701297e-02 3.129835e-01 2.282999e-01 -3.471984e-02 -3.528816e-02 -8.207913e-02 -7.493676e-02 -1.953459e-01 -8.419761e-02 1.948014e-01 -1.564804e-02 -1.732926e-02 1.085203e-01 1.365168e-01 -2.741002e-03 2.263324e-02 1.850926e-03
<VARIANCE> 38
 3.809527e+01 2.929074e+01 3.272707e+01 3.562777e+01 5.797979e+01 5.278388e+01 3.953912e+01 4.111383e+01 4.197272e+01 3.333913e+01 3.048716e+01 2.574608e+01 1.729501e+00 1.669281e+00 1.669747e+00 2.228744e+00 2.836491e+00 3.123954e+00 2.684812e+00 2.932149e+00 2.709245e+00 2.493706e+00 2.439498e+00 1.920979e+00 1.000000e-02 1.431525e-01 2.740209e-01 2.861674e-01 3.218345e-01 4.731990e-01 5.121620e-01 4.498310e-01 4.831539e-01 4.649705e-01 4.445288e-01 4.359770e-01 3.581084e-01 1.000000e-02
<GCONST> 1.021108e+02
<MIXTURE> 2 4.645413e-01
<MEAN> 38
 -1.325187e+00 5.427929e+00 9.472358e+00 4.868177e+00 -2.072762e+00 -2.481587e+00 2.211480e-02 -3.924358e+00 -4.572314e+00 -1.806662e+00 -2.034288e+00 -1.412124e+00 -6.022601e-01 -7.303133e-01 -1.453105e+00 4.637839e-01 1.338512e+00 5.274716e-02 2.155459e-01 9.318414e-01 5.989388e-01 -2.968688e-01 -8.920877e-03 -2.410244e-02 -3.211156e-02 -6.374586e-02 -1.585175e-01 -1.373604e-01 -2.898628e-01 -1.804478e-01 1.149162e-01 -7.204209e-02 -8.294412e-02 4.841033e-02 1.172000e-01 -2.728401e-02 -2.300404e-02 3.161263e-03
<VARIANCE> 38
 3.629370e+01 3.161226e+01 3.200822e+01 4.148355e+01 6.122974e+01 5.473112e+01 4.391436e+01 4.393771e+01 4.101479e+01 3.612956e+01 3.344045e+01 2.858141e+01 1.878403e+00 1.655783e+00 1.809165e+00 2.406794e+00 3.032616e+00 3.154388e+00 2.990967e+00 3.129885e+00 2.889733e+00 2.622693e+00 2.593702e+00 1.982197e+00 1.000000e-02 1.480178e-01 2.906851e-01 2.966079e-01 3.358189e-01 5.100757e-01 5.266939e-01 4.539981e-01 5.016049e-01 4.719394e-01 4.651097e-01 4.530065e-01 3.689313e-01 1.000000e-02
<GCONST> 1.039227e+02
<TRANSP> 5
 0.000000e+00 1.000000e+00 0.000000e+00 0.000000e+00 0.000000e+00
 0.000000e+00 8.466209e-01 1.533791e-01 0.000000e+00 0.000000e+00
 0.000000e+00 0.000000e+00 8.862411e-01 1.137588e-01 0.000000e+00
 0.000000e+00 0.000000e+00 0.000000e+00 7.612529e-01 2.387471e-01
 0.000000e+00 0.000000e+00 0.000000e+00 0.000000e+00 0.000000e+00
<ENDHMM>
~h "j"
<BEGINHMM>
<NUMSTATES> 5
<STATE> 2
<NUMMIXES> 2
<SWEIGHTS> 1
 1.000000e+00
<MIXTURE> 1 5.115991e-01
<MEAN> 38
 7.467166e-01 6.546412e+00 1.394577e+01 -4.011902e-01 -8.252309e+00 -1.844367e+00 -3.028859e+00 -4.973076e+00 -5.226890e+00 7.682427e-01 -1.273158e-01 -6.117619e-01 1.492545e-01 1.299554e-01 3.666589e-01 7.049791e-03 -3.715270e-01 -2.161925e-02 1.248042e-01 -8.811285e-03 -9.773161e-02 2.366622e-01 2.876187e-01 1.322622e-01 4.352131e-03 -6.254424e-02 -1.161972e-01 -2.111829e-01 7.124232e-02 1.722632e-01 3.256425e-02 8.636274e-02 1.642240e-01 1.681110e-01 2.660676e-02 3.577675e-02 4.800504e-02 -2.569404e-03
<VARIANCE> 38
 1.728594e+01 3.734272e+01 3.190869e+01 5.065125e+01 4.252076e+01 4.237291e+01 3.770614e+01 4.297539e+01 4.395502e+01 4.858530e+01 3.356987e+01 2.868664e+01 1.035449e+00 1.494010e+00 1.707881e+00 1.312681e+00 2.548931e+00 2.183789e+00 2.044332e+00 2.286768e+00 2.202292e+00 2.077115e+00 1.783253e+00 1.467252e+00 1.000000e-02 1.505394e-01 1.550301e-01 1.738570e-01 2.107877e-01 3.616814e-01 3.276244e-01 3.416675e-01 4.131750e-01 4.085661e-01 3.499095e-01 3.055377e-01 2.669054e-01 1.000000e-02
<GCONST> 9.528873e+01
<MIXTURE> 2 4.883842e-01
<MEAN> 38
 4.207842e-01 5.378550e+00 1.300285e+01 -1.228426e+00 -9.581270e+00 -3.055123e+00 -3.904417e+00 -6.231276e+00 -6.412385e+00 -1.774566e-02 -1.357754e+00 -1.667894e+00 2.348780e-01 -1.883035e-01 2.259285e-01 -2.069158e-01 -7.876367e-01 -2.436911e-01 -8.692601e-02 -2.255385e-01 -4.533016e-01 1.345799e-01 1.341988e-01 -1.370867e-01 1.091471e-02 -8.223599e-02 -1.714132e-01 -2.722182e-01 3.100486e-04 1.471681e-01 1.755645e-02 5.354033e-02 1.670285e-01 1.557743e-01 8.602170e-03 -8.016633e-03 4.287726e-03 -2.872323e-03
<VARIANCE> 38
 1.620915e+01 3.676227e+01 3.235199e+01 5.379887e+01 4.140857e+01 4.229274e+01 3.637943e+01 4.514025e+01 4.176134e+01 4.444337e+01 3.650603e+01 3.180187e+01 1.168779e+00 1.574390e+00 1.864081e+00 1.432810e+00 2.662980e+00 2.388587e+00 2.204606e+00 2.380638e+00 2.321003e+00 2.115522e+00 1.901614e+00 1.510011e+00 1.000000e-02 1.679947e-01 1.611151e-01 1.738767e-01 2.027454e-01 3.590977e-01 3.231545e-01 3.614321e-01 4.103298e-01 4.078436e-01 3.606292e-01 3.121228e-01 2.611073e-01 1.000000e-02
<GCONST> 9.624154e+01
<STATE> 3
<NUMMIXES> 2
<SWEIGHTS> 1
 1.000000e+00
<MIXTURE> 1 5.147572e-01
<MEAN> 38
 2.236629e+00 1.717645e+00 1.134417e+01 1.378502e+00 -1.140588e+01 -5.204463e+00 -1.812153e+00 -1.826135e+00 -5.738662e+00 4.916908e-01 2.631751e+00 4.447012e-01 2.338851e-01 -4.114271e-01 -6.556613e-01 2.732262e-01 1.328821e-01 -3.441471e-01 3.305219e-01 7.800696e-01 3.795103e-01 -1.407463e-02 1.631741e-01 2.665106e-01 -1.418489e-03 -3.006786e-02 5.207006e-02 -1.077282e-01 3.688494e-02 2.611707e-01 8.470213e-02 1.917740e-02 6.696436e-02 1.691333e-01 -6.380051e-02 -1.183789e-01 9.743984e-03 -2.830440e-03
<VARIANCE> 38
 1.189038e+01 2.155116e+01 2.846444e+01 4.594355e+01 2.773567e+01 3.819751e+01 4.188875e+01 3.672066e+01 3.860899e+01 5.571324e+01 2.866924e+01 2.795665e+01 3.252394e-01 8.999156e-01 1.268969e+00 8.949284e-01 1.329115e+00 1.409131e+00 1.712340e+00 1.789894e+00 1.659396e+00 1.485421e+00 1.327420e+00 1.178311e+00 1.000000e-02 5.703177e-02 9.190612e-02 1.145350e-01 1.441779e-01 2.296206e-01 2.214553e-01 2.368067e-01 2.577446e-01 2.733345e-01 2.604774e-01 2.294045e-01 2.030964e-01 1.000000e-02
<GCONST> 8.317224e+01
<MIXTURE> 2 4.852382e-01
<MEAN> 38
 1.874809e+00 1.013512e+00 1.059185e+01 3.686884e-01 -1.237076e+01 -5.877490e+00 -2.544317e+00 -2.685653e+00 -6.746926e+00 -2.149808e-01 1.662695e+00 -7.750145e-01 1.961046e-01 -6.155072e-01 -8.262051e-01 8.047930e-02 -3.029435e-02 -4.625963e-01 2.233229e-01 7.034212e-01 1.920386e-01 -2.195473e-01 2.066346e-02 4.190408e-02 2.494409e-03 -3.376679e-02 1.551907e-02 -1.262924e-01 -1.392678e-03 2.255584e-01 6.094270e-02 -2.239963e-02 3.182799e-02 1.362621e-01 -1.061810e-01 -1.441506e-01 -1.988990e-02 -2.296669e-03
<VARIANCE> 38
 1.184987e+01 2.051317e+01 2.985557e+01 5.449019e+01 2.834059e+01 3.717352e+01 4.028586e+01 3.766842e+01 3.986995e+01 5.469198e+01 3.518945e+01 3.145478e+01 3.135992e-01 8.500136e-01 1.291986e+00 8.742033e-01 1.227875e+00 1.385418e+00 1.785546e+00 1.816995e+00 1.622046e+00 1.554778e+00 1.340914e+00 1.190925e+00 1.000000e-02 5.303925e-02 7.952661e-02 1.111148e-01 1.396371e-01 2.259079e-01 2.071952e-01 2.290486e-01 2.408991e-01 2.637032e-01 2.740799e-01 2.354042e-01 2.015826e-01 1.000000e-02
<GCONST> 8.313051e+01
<STATE> 4
<NUMMIXES> 2
<SWEIGHTS> 1
 1.000000e+00
<MIXTURE> 1 4.885573e-01
<MEAN> 38
 4.180581e+00 -1.598199e+00 3.509711e+00 2.374278e+00 -7.292775e+00 -6.405272e+00 -1.077049e+00 2.905256e+00 -1.540601e+00 -5.116464e-01 7.559027e-01 5.454724e-01 2.459722e-01 -1.578260e-01 -1.087569e+00 1.152879e-01 1.300801e+00 5.337236e-01 1.223714e-01 3.268567e-01 8.004276e-01 -3.131577e-02 -4.014668e-01 -1.356929e-01 -1.013283e-02 -6.352140e-02 1.415948e-01 9.826240e-02 -2.578552e-02 1.639469e-01 2.313217e-01 2.387086e-02 -2.231570e-01 -5.182654e-02 7.524456e-02 3.664922e-02 -3.844443e-02 -2.484571e-03
<VARIANCE> 38
 1.429108e+01 2.678607e+01 4.573951e+01 4.306885e+01 3.659893e+01 4.508210e+01 6.977530e+01 4.163700e+01 4.295465e+01 4.313810e+01 3.139213e+01 2.992605e+01 4.654743e-01 1.143768e+00 1.535976e+00 1.605270e+00 1.679162e+00 1.980637e+00 2.253989e+00 2.422124e+00 2.364563e+00 2.595823e+00 1.913922e+00 1.774294e+00 1.000000e-02 6.254265e-02 1.228277e-01 1.405580e-01 1.774311e-01 2.626048e-01 2.898642e-01 3.201546e-01 3.261751e-01 3.523637e-01 3.378154e-01 2.992481e-01 2.957970e-01 1.000000e-02
<GCONST> 9.217525e+01
<MIXTURE> 2 5.114349e-01
<MEAN> 38
 4.002542e+00 -3.100122e+00 1.820343e+00 5.841986e-01 -8.590709e+00 -7.470255e+00 -1.197664e+00 2.498380e+00 -1.937164e+00 -1.217841e+00 -7.395506e-01 -3.959657e-01 2.309300e-01 -5.236740e-01 -1.435270e+00 -7.918002e-02 1.263479e+00 4.796273e-01 -9.808628e-02 2.665153e-01 6.923068e-01 -3.271449e-01 -7.074656e-01 -4.217293e-01 -5.048596e-03 -6.193687e-02 1.051903e-01 7.941683e-02 -7.287899e-02 1.306038e-01 2.272813e-01 -8.166148e-02 -3.041468e-01 -1.101244e-01 8.012680e-02 1.995211e-02 -1.192901e-01 -1.626210e-03
<VARIANCE> 38
 1.308427e+01 2.583796e+01 4.304043e+01 4.827919e+01 3.723566e+01 4.456758e+01 6.554794e+01 4.520914e+01 4.545710e+01 4.318119e+01 3.707662e+01 3.070092e+01 4.154390e-01 9.588152e-01 1.457213e+00 1.477955e+00 1.634317e+00 1.922963e+00 2.372134e+00 2.393939e+00 2.471237e+00 2.854167e+00 1.938595e+00 1.841958e+00 1.000000e-02 5.386749e-02 1.015927e-01 1.274775e-01 1.724787e-01 2.492773e-01 2.829229e-01 3.191960e-01 3.121500e-01 3.377879e-01 3.444988e-01 3.125041e-01 2.897364e-01 1.000000e-02
<GCONST> 9.153780e+01
<TRANSP> 5
 0.000000e+00 1.000000e+00 0.000000e+00 0.000000e+00 0.000000e+00
 0.000000e+00 8.237612e-01 1.762388e-01 0.000000e+00 0.000000e+00
 0.000000e+00 0.000000e+00 7.951736e-01 2.048264e-01 0.000000e+00
 0.000000e+00 0.000000e+00 0.000000e+00 7.398273e-01 2.601727e-01
 0.000000e+00 0.000000e+00 0.000000e+00 0.000000e+00 0.000000e+00
<ENDHMM>
~h "k"
<BEGINHMM>
<NUMSTATES> 5
<STATE> 2
<NUMMIXES> 2
<SWEIGHTS> 1
 1.000000e+00
<MIXTURE> 1 4.935195e-01
<MEAN> 38
 -4.230660e+00 9.826720e-01 5.871985e-01 6.514505e+00 5.911898e+00 2.396188e+00 3.927244e+00 2.908284e+00 1.294982e+00 1.980563e+00 6.716096e-01 4.282978e-01 -4.798610e-01 -1.622341e+00 -1.414622e+00 -4.397956e-01 3.051990e-01 3.759285e-02 -4.072584e-02 5.222334e-01 5.567794e-01 8.041042e-01 6.355659e-01 7.138246e-01 1.493002e-02 1.247157e-01 -2.093277e-01 -2.007717e-01 -2.670009e-01 -2.260978e-01 -2.093491e-01 -1.791890e-01 -3.746792e-02 -2.537842e-02 1.439773e-01 6.652559e-02 1.003890e-01 1.591715e-02
<VARIANCE> 38
 2.315273e+01 6.563898e+01 7.587508e+01 4.534094e+01 4.577683e+01 5.245663e+01 5.511088e+01 4.582915e+01 4.794668e+01 3.730462e+01 3.490818e+01 3.013186e+01 1.515413e+00 6.488832e+00 5.872759e+00 4.248233e+00 4.463558e+00 4.680146e+00 4.625870e+00 3.911571e+00 3.736187e+00 3.587025e+00 3.064461e+00 2.696615e+00 1.000000e-02 2.463882e-01 1.509086e+00 1.221034e+00 7.548406e-01 7.671095e-01 8.314586e-01 8.772511e-01 7.345684e-01 7.180157e-01 6.815632e-01 5.830989e-01 5.319990e-01 1.000000e-02
<GCONST> 1.184637e+02
<MIXTURE> 2 5.064101e-01
<MEAN> 38
 -4.412961e+00 -1.670416e+00 -1.419684e+00 5.048452e+00 5.475726e+00 1.804297e+00 2.851550e+00 2.732978e+00 5.216828e-01 1.906907e+00 1.702967e-01 5.115047e-01 -5.463434e-01 -2.799124e+00 -2.332431e+00 -1.259320e+00 -3.772073e-01 -7.427024e-01 -1.060432e+00 1.425533e-02 -9.146273e-02 6.034271e-01 3.016707e-01 4.760526e-01 5.501036e-02 1.067055e-01 4.556328e-02 -8.017004e-02 -3.134871e-01 -3.820184e-01 -3.246897e-01 -2.652130e-01 -1.917701e-01 -1.730839e-01 1.567665e-02 -1.232755e-02 -8.383335e-03 1.045735e-02
<VARIANCE> 38
 2.423897e+01 7.500572e+01 8.086208e+01 4.747715e+01 4.566100e+01 5.158696e+01 5.688708e+01 4.533718e+01 4.714468e+01 3.600902e+01 3.333892e+01 2.912648e+01 1.952829e+00 6.634755e+00 6.473148e+00 5.110918e+00 5.457086e+00 5.587224e+00 5.940190e+00 4.547871e+00 4.539220e+00 3.864864e+00 3.396405e+00 3.032936e+00 1.000000e-02 2.638102e-01 1.680804e+00 1.244250e+00 7.708700e-01 7.498561e-01 7.913254e-01 9.063165e-01 7.292647e-01 7.159038e-01 6.498613e-01 5.697984e-01 5.196753e-01 1.000000e-02
<GCONST> 1.205208e+02
<STATE> 3
<NUMMIXES> 2
<SWEIGHTS> 1
 1.000000e+00
<MIXTURE> 1 5.414336e-01
<MEAN> 38
 -5.344120e+00 -8.274284e+00 -8.664708e+00 -8.428968e-01 2.141026e+00 -2.001632e+00 -9.392239e-01 2.461773e+00 1.282723e+00 6.145903e+00 2.904454e+00 3.602567e+00 2.382287e-01 1.190315e+00 9.770997e-01 1.479271e-01 -3.314475e-01 -2.140691e-01 2.212304e-01 1.266486e-02 2.482979e-01 1.679955e-01 1.979980e-01 3.588526e-02 9.900176e-03 2.190059e-01 7.514023e-01 8.248468e-01 4.500244e-01 1.241845e-01 2.762889e-01 3.500060e-01 3.640589e-02 -6.225965e-03 -3.303745e-01 -1.369797e-01 -2.408415e-01 -9.778584e-03
<VARIANCE> 38
 2.522314e+01 3.565866e+01 7.474654e+01 5.075632e+01 5.706252e+01 6.063148e+01 6.525948e+01 5.060355e+01 5.635111e+01 4.358829e+01 3.861493e+01 3.080839e+01 1.944619e+00 3.417436e+00 4.231897e+00 3.434672e+00 2.937087e+00 3.181414e+00 3.333062e+00 3.142553e+00 3.397882e+00 3.023516e+00 2.870784e+00 2.378126e+00 1.000000e-02 4.028766e-01 9.004759e-01 8.308793e-01 7.103811e-01 6.996803e-01 7.212541e-01 8.249218e-01 7.096840e-01 8.129964e-01 6.479242e-01 6.325098e-01 5.515118e-01 1.000000e-02
<GCONST> 1.157611e+02
<MIXTURE> 2 4.585587e-01
<MEAN> 38
 -5.799330e+00 -8.183969e+00 -7.796504e+00 -6.785723e-01 1.957734e+00 -1.487538e+00 -7.361448e-01 2.492050e+00 1.073011e+00 5.560738e+00 2.225153e+00 3.056912e+00 4.673483e-01 5.254183e-01 3.722740e-01 -5.681975e-01 -1.057936e+00 -9.006763e-01 -7.438308e-01 -7.925068e-01 -7.211431e-01 -4.663580e-01 -4.694078e-01 -4.993095e-01 3.453591e-02 3.112298e-01 6.870970e-01 5.697895e-01 1.983791e-01 -5.225591e-02 6.085295e-02 1.062154e-01 -1.867922e-01 -2.037109e-01 -3.847160e-01 -2.434955e-01 -2.822095e-01 -6.410469e-03
<VARIANCE> 38
 2.751177e+01 3.786707e+01 7.535669e+01 5.086895e+01 5.522023e+01 5.671003e+01 6.259233e+01 4.892202e+01 5.356932e+01 4.183442e+01 3.614381e+01 2.878875e+01 2.389361e+00 5.048363e+00 5.773109e+00 4.096414e+00 3.316570e+00 3.502819e+00 3.890471e+00 3.548676e+00 4.101773e+00 3.527363e+00 3.283688e+00 2.782715e+00 1.000000e-02 4.251115e-01 1.040520e+00 9.288352e-01 8.108621e-01 7.627495e-01 7.195495e-01 8.670731e-01 7.189814e-01 8.330935e-01 6.558269e-01 6.364675e-01 5.291713e-01 1.000000e-02
<GCONST> 1.183185e+02
<STATE> 4
<NUMMIXES> 2
<SWEIGHTS> 1
 1.000000e+00
<MIXTURE> 1 4.584266e-01
<MEAN> 38
 -2.433218e+00 -2.242935e+00 -1.314700e+00 4.109792e-01 -1.176902e+00 -3.354935e+00 -3.341653e-01 7.632909e-01 -6.917508e-01 2.908030e+00 1.330128e+00 1.091059e+00 9.715152e-01 1.233080e+00 1.188644e+00 1.911935e-01 -2.930072e-01 9.674556e-02 3.254097e-01 2.313884e-02 -1.359308e-02 -4.024450e-01 6.179813e-02 -1.493530e-01 1.868584e-02 -2.994423e-02 -2.158705e-01 -1.365445e-01 1.172800e-02 1.358084e-01 2.067745e-01 9.769540e-02 1.604024e-01 1.438132e-01 4.761814e-02 8.917069e-02 8.082582e-02 -3.482161e-04
<VARIANCE> 38
 4.660904e+01 3.481536e+01 6.521912e+01 4.611264e+01 5.235922e+01 5.207064e+01 5.158130e+01 5.683817e+01 5.014149e+01 4.361317e+01 4.028330e+01 2.852835e+01 3.798018e+00 3.004063e+00 3.358109e+00 2.998785e+00 3.628785e+00 3.262859e+00 3.648220e+00 3.673061e+00 3.877763e+00 3.216029e+00 3.127684e+00 2.441976e+00 1.000000e-02 4.579301e-01 5.131639e-01 6.075325e-01 5.527825e-01 6.239333e-01 5.672452e-01 6.035916e-01 6.461204e-01 6.839473e-01 6.028904e-01 5.827078e-01 4.514984e-01 1.000000e-02
<GCONST> 1.142873e+02
<MIXTURE> 2 5.415631e-01
<MEAN> 38
 -7.208229e-01 -1.450303e+00 -2.789915e-01 7.940038e-02 -2.240568e+00 -4.097710e+00 -1.217656e+00 -5.998523e-01 -1.792720e+00 1.564667e+00 -3.837850e-01 -5.420538e-02 1.746574e+00 8.116022e-01 7.459923e-01 -5.630147e-01 -1.294883e+00 -5.196195e-01 -5.618950e-01 -7.916355e-01 -9.636048e-01 -1.039599e+00 -7.223843e-01 -8.624384e-01 4.177603e-02 -1.156817e-01 -5.088434e-01 -4.534858e-01 -2.244722e-01 1.755691e-02 1.179465e-01 -1.023764e-02 1.421275e-01 1.717438e-01 1.540892e-01 1.212457e-01 1.108985e-01 -1.826950e-04
<VARIANCE> 38
 4.359538e+01 3.111120e+01 6.570483e+01 4.379103e+01 5.264323e+01 5.015626e+01 4.935122e+01 5.788491e+01 4.785220e+01 4.072913e+01 3.985316e+01 2.837172e+01 3.086524e+00 3.228201e+00 3.564438e+00 3.371290e+00 4.056341e+00 3.487249e+00 3.938733e+00 4.398493e+00 4.799328e+00 3.812897e+00 4.270064e+00 2.895859e+00 1.000000e-02 4.470814e-01 4.882694e-01 5.134985e-01 5.322165e-01 6.339089e-01 5.498930e-01 5.854666e-01 6.706914e-01 7.140995e-01 6.191133e-01 6.022133e-01 4.534155e-01 1.000000e-02
<GCONST> 1.150343e+02
<TRANSP> 5
 0.000000e+00 1.000000e+00 0.000000e+00 0.000000e+00 0.000000e+00
 0.000000e+00 8.203138e-01 1.796862e-01 0.000000e+00 0.000000e+00
 0.000000e+00 0.000000e+00 7.462040e-01 2.537959e-01 0.000000e+00
 0.000000e+00 0.000000e+00 0.000000e+00 6.941617e-01 3.058383e-01
 0.000000e+00 0.000000e+00 0.000000e+00 0.000000e+00 0.000000e+00
<ENDHMM>
~h "l"
<BEGINHMM>
<NUMSTATES> 5
<STATE> 2
<NUMMIXES> 2
<SWEIGHTS> 1
 1.000000e+00
<MIXTURE> 1 5.484600e-01
<MEAN> 38
 8.017055e+00 2.317294e+00 -4.789534e+00 -1.055004e+01 -1.159302e-03 4.109110e+00 -4.537142e+00 -4.093776e+00 6.586070e-01 -1.568149e-01 1.382211e+00 -2.127139e-01 1.617932e-01 4.734205e-01 1.029065e-01 -3.494444e-01 1.389866e-01 2.764367e-01 -5.614710e-02 -7.505788e-02 -1.464621e-01 -2.289740e-02 2.976951e-01 2.514801e-01 -2.676653e-03 -3.785876e-02 5.806247e-03 5.466575e-02 1.318282e-01 5.792837e-03 -3.543260e-02 8.652683e-02 5.556646e-02 -2.863448e-02 -9.602155e-03 8.577654e-03 3.272320e-02 -1.593309e-03
<VARIANCE> 38
 1.154535e+01 3.757779e+01 6.026797e+01 7.986086e+01 4.718508e+01 6.461266e+01 7.218739e+01 5.316059e+01 5.087135e+01 5.492768e+01 4.861368e+01 4.206728e+01 2.147844e-01 6.270196e-01 8.229599e-01 1.200301e+00 1.147437e+00 1.481874e+00 1.582083e+00 1.638220e+00 1.586864e+00 1.596293e+00 1.533439e+00 1.381625e+00 1.000000e-02 3.893410e-02 8.535716e-02 1.075490e-01 1.519358e-01 1.719717e-01 2.045645e-01 2.485414e-01 2.509440e-01 2.470636e-01 2.451265e-01 2.337092e-01 2.176534e-01 1.000000e-02
<GCONST> 8.643506e+01
<MIXTURE> 2 4.514552e-01
<MEAN> 38
 7.296931e+00 1.252615e+00 -4.922533e+00 -1.044416e+01 -6.552663e-01 2.641811e+00 -5.893206e+00 -4.659341e+00 -2.368358e-01 -1.353335e+00 -8.836405e-02 -1.449310e+00 8.803859e-02 2.990614e-01 -4.315352e-02 -5.070506e-01 3.325029e-02 1.643955e-01 -2.230766e-01 -1.794214e-01 -2.299903e-01 -1.300420e-01 8.533334e-02 -5.471355e-02 -6.359519e-04 -5.114497e-02 -2.985071e-02 9.774334e-03 8.090656e-02 -3.378869e-02 -6.317597e-02 6.909703e-02 3.366795e-02 -5.163450e-02 -3.288424e-02 -1.177455e-02 -1.970415e-02 -1.288690e-03
<VARIANCE> 38
 1.176794e+01 3.808070e+01 6.710081e+01 8.116663e+01 4.851610e+01 6.662452e+01 7.274722e+01 5.461415e+01 5.203077e+01 5.720801e+01 5.269638e+01 4.298751e+01 2.195925e-01 6.709847e-01 8.820258e-01 1.178480e+00 1.210830e+00 1.544040e+00 1.677544e+00 1.759552e+00 1.668246e+00 1.646723e+00 1.565356e+00 1.442251e+00 1.000000e-02 4.129910e-02 9.085511e-02 1.134917e-01 1.557679e-01 1.797945e-01 2.151614e-01 2.640100e-01 2.696073e-01 2.588135e-01 2.508469e-01 2.451044e-01 2.250143e-01 1.000000e-02
<GCONST> 8.793776e+01
<STATE> 3
<NUMMIXES> 2
<SWEIGHTS> 1
 1.000000e+00
<MIXTURE> 1 5.220073e-01
<MEAN> 38
 7.832431e+00 5.448198e+00 -1.193820e+00 -8.296583e+00 2.774646e-01 2.569945e+00 -4.867807e+00 -4.586193e+00 -1.589674e+00 -1.229952e+00 1.579564e+00 9.580796e-01 -1.744680e-01 2.302452e-01 3.103217e-01 7.627921e-01 2.690840e-01 -1.377756e-01 3.278731e-01 1.696961e-01 -5.502731e-02 1.102005e-01 1.160466e-04 5.358879e-02 -1.152175e-02 -1.415484e-01 -9.346202e-02 2.886498e-02 2.912502e-01 2.332233e-02 -6.409609e-02 2.229464e-01 1.248099e-01 5.271952e-02 5.128744e-02 -2.662548e-02 -4.116346e-02 -2.626371e-03
<VARIANCE> 38
 1.381796e+01 4.076305e+01 6.142761e+01 7.371502e+01 4.759381e+01 5.761857e+01 7.164018e+01 5.490606e+01 4.996262e+01 5.045461e+01 4.876498e+01 4.049660e+01 3.735698e-01 1.152369e+00 1.365793e+00 2.030138e+00 1.635055e+00 1.848757e+00 2.278563e+00 2.320377e+00 2.160158e+00 2.046696e+00 1.814364e+00 1.696826e+00 1.000000e-02 7.701907e-02 1.741439e-01 2.028055e-01 2.984191e-01 2.971641e-01 3.342112e-01 4.228972e-01 4.084316e-01 3.790018e-01 3.649148e-01 3.421358e-01 3.134243e-01 1.000000e-02
<GCONST> 9.716169e+01
<MIXTURE> 2 4.779923e-01
<MEAN> 38
 6.998799e+00 3.541764e+00 -3.235748e-02 -7.674686e+00 -6.385792e-01 3.005521e-01 -7.514432e+00 -5.524278e+00 -1.911726e+00 -1.786695e+00 -9.494891e-02 -2.605591e-01 -2.059387e-01 -1.615262e-01 -1.128171e-03 3.382102e-01 -5.085618e-02 -2.699215e-01 2.782420e-01 1.782621e-01 -1.335412e-01 -2.685909e-02 -1.796269e-01 -2.451946e-01 -4.267585e-03 -1.221591e-01 -1.855341e-01 -9.971064e-02 2.027389e-01 -8.034273e-02 -1.101353e-01 2.849200e-01 1.324486e-01 1.605356e-02 1.223035e-02 -4.598347e-02 -9.119291e-02 -1.285113e-03
<VARIANCE> 38
 1.438759e+01 4.042095e+01 6.790845e+01 7.286088e+01 4.818063e+01 5.858049e+01 7.399785e+01 5.721385e+01 5.181321e+01 5.396068e+01 5.089896e+01 4.348375e+01 3.661367e-01 1.298604e+00 1.522242e+00 2.003087e+00 1.707159e+00 1.986083e+00 2.578918e+00 2.661285e+00 2.319859e+00 2.144261e+00 1.959664e+00 1.781552e+00 1.000000e-02 7.245381e-02 1.951325e-01 2.277643e-01 2.926873e-01 3.236332e-01 3.698202e-01 4.974670e-01 4.578648e-01 4.060031e-01 3.911964e-01 3.748470e-01 3.387032e-01 1.000000e-02
<GCONST> 9.933579e+01
<STATE> 4
<NUMMIXES> 2
<SWEIGHTS> 1
 1.000000e+00
<MIXTURE> 1 4.739999e-01
<MEAN> 38
 5.220902e+00 4.422019e+00 -6.191557e-01 -3.632930e+00 1.216023e+00 9.928396e-01 -2.557695e+00 -2.983735e+00 -9.122958e-01 -7.241153e-01 7.067757e-01 -8.719754e-03 -8.645537e-01 -2.087298e-01 3.517903e-01 1.412129e+00 2.684690e-01 -1.626522e-01 9.658133e-01 7.398072e-01 2.559682e-01 2.621004e-01 -1.027244e-01 -4.110568e-02 -2.172398e-02 -1.388191e-01 -5.582629e-02 4.612781e-02 5.372918e-02 5.491586e-02 1.035287e-01 3.516925e-02 7.256918e-02 8.224437e-02 3.669996e-02 5.961233e-03 2.046601e-02 -1.451734e-03
<VARIANCE> 38
 2.025907e+01 4.920879e+01 5.178156e+01 6.156375e+01 5.242764e+01 5.606244e+01 6.061750e+01 4.999232e+01 4.775037e+01 4.573418e+01 4.128899e+01 3.522383e+01 1.525422e+00 2.132454e+00 2.903127e+00 4.179571e+00 3.439163e+00 3.359307e+00 3.658707e+00 3.525072e+00 3.200658e+00 3.141492e+00 2.877583e+00 2.469789e+00 1.000000e-02 1.655332e-01 2.806861e-01 3.090364e-01 4.324224e-01 4.460131e-01 4.836159e-01 5.613107e-01 5.752036e-01 5.151645e-01 5.057922e-01 4.732749e-01 4.182890e-01 1.000000e-02
<GCONST> 1.088122e+02
<MIXTURE> 2 5.259833e-01
<MEAN> 38
 5.027381e+00 2.032333e+00 2.706130e-01 -3.811758e+00 -4.415302e-01 -1.312614e+00 -4.913957e+00 -3.581203e+00 -1.131980e+00 -1.294954e+00 -8.407994e-01 -1.049939e+00 -7.071151e-01 -7.932256e-01 -2.697465e-01 8.223525e-01 -2.825550e-01 -3.366527e-01 1.151202e+00 7.197764e-01 3.045819e-02 2.530311e-02 -2.864878e-01 -3.755748e-01 -1.007388e-02 -9.771724e-02 -1.002343e-01 -6.297490e-02 -2.113116e-02 -3.438960e-02 6.527188e-02 2.112365e-02 1.018010e-02 1.925789e-02 -1.372008e-02 -3.854852e-02 -4.944269e-04 1.125557e-04
<VARIANCE> 38
 1.814243e+01 4.819670e+01 5.787941e+01 5.632717e+01 5.207359e+01 5.712952e+01 6.464348e+01 5.396835e+01 4.834242e+01 4.780634e+01 4.248502e+01 3.768923e+01 1.404427e+00 2.254716e+00 3.226812e+00 4.030661e+00 3.707363e+00 3.772389e+00 4.387515e+00 4.098797e+00 3.488765e+00 3.403605e+00 3.330885e+00 2.663016e+00 1.000000e-02 1.396400e-01 3.068694e-01 3.249507e-01 4.170008e-01 5.008526e-01 5.208002e-01 6.443206e-01 6.348398e-01 5.259591e-01 5.255023e-01 5.046932e-01 4.278666e-01 1.000000e-02
<GCONST> 1.104687e+02
<TRANSP> 5
 0.000000e+00 1.000000e+00 0.000000e+00 0.000000e+00 0.000000e+00
 0.000000e+00 8.686205e-01 1.313794e-01 0.000000e+00 0.000000e+00
 0.000000e+00 0.000000e+00 6.053224e-01 3.946775e-01 0.000000e+00
 0.000000e+00 0.000000e+00 0.000000e+00 7.077296e-01 2.922704e-01
 0.000000e+00 0.000000e+00 0.000000e+00 0.000000e+00 0.000000e+00
<ENDHMM>
~h "m"
<BEGINHMM>
<NUMSTATES> 5
<STATE> 2
<NUMMIXES> 2
<SWEIGHTS> 1
 1.000000e+00
<MIXTURE> 1 5.631301e-01
<MEAN> 38
 9.915995e+00 4.554584e+00 1.873226e+00 4.617882e+00 2.999777e+00 -1.518293e+00 -5.370431e-01 -8.090081e+00 -8.390748e+00 -4.072834e-02 1.429605e+00 -2.906385e+00 1.582925e-01 3.749703e-01 3.230678e-01 6.348627e-01 2.080065e-01 -2.428793e-01 2.331291e-02 -6.094110e-01 -5.048857e-01 2.844024e-01 3.657399e-01 -5.487274e-02 4.122742e-03 -8.309129e-02 -1.104686e-01 -6.843973e-02 -1.484336e-01 -7.633922e-02 8.633483e-02 1.082672e-02 2.287088e-01 2.231838e-01 -1.674598e-02 -5.746675e-02 7.792829e-02 -1.622784e-03
<VARIANCE> 38
 9.765306e+00 1.910736e+01 2.514480e+01 3.716780e+01 3.431624e+01 5.181023e+01 4.988106e+01 4.262874e+01 5.480192e+01 4.151283e+01 4.137274e+01 3.694989e+01 3.575239e-01 1.007764e+00 9.871501e-01 1.402782e+00 1.305032e+00 1.560122e+00 1.636402e+00 1.975857e+00 2.122720e+00 1.694815e+00 1.598233e+00 1.384847e+00 1.000000e-02 6.850134e-02 1.358352e-01 1.538855e-01 2.090185e-01 2.244574e-01 2.671923e-01 2.924497e-01 3.213336e-01 3.473688e-01 2.830479e-01 2.756485e-01 2.411833e-01 1.000000e-02
<GCONST> 8.784623e+01
<MIXTURE> 2 4.368469e-01
<MEAN> 38
 9.612537e+00 3.688870e+00 9.612730e-01 3.264635e+00 1.836601e+00 -2.662402e+00 -2.393352e+00 -9.066749e+00 -9.402415e+00 -1.327476e+00 -3.741681e-01 -4.822155e+00 1.607103e-01 1.776762e-01 1.982883e-01 4.938211e-01 5.628337e-02 -3.432486e-01 -1.391588e-01 -6.214896e-01 -5.207167e-01 9.082487e-02 7.169207e-02 -3.653920e-01 7.644491e-03 -1.150952e-01 -1.741756e-01 -1.221608e-01 -2.019674e-01 -9.895805e-02 9.934379e-02 1.777952e-02 2.613116e-01 2.606257e-01 -3.899445e-02 -8.322899e-02 6.761147e-02 -2.412814e-03
<VARIANCE> 38
 9.561418e+00 1.897283e+01 2.723347e+01 3.826989e+01 3.531461e+01 5.383836e+01 5.694741e+01 4.574622e+01 5.222849e+01 4.362299e+01 4.625856e+01 4.018994e+01 4.491156e-01 1.070491e+00 1.059107e+00 1.528168e+00 1.368734e+00 1.654875e+00 1.758030e+00 2.040332e+00 2.188588e+00 1.802833e+00 1.655764e+00 1.534774e+00 1.000000e-02 9.395608e-02 1.545900e-01 1.665385e-01 2.227882e-01 2.334775e-01 2.827511e-01 3.171272e-01 3.474973e-01 3.736669e-01 3.028559e-01 2.949044e-01 2.610481e-01 1.000000e-02
<GCONST> 9.041042e+01
<STATE> 3
<NUMMIXES> 2
<SWEIGHTS> 1
 1.000000e+00
<MIXTURE> 1 5.408853e-01
<MEAN> 38
 9.434029e+00 5.360252e+00 3.026443e+00 6.023338e+00 2.873010e+00 -2.329325e+00 -5.968819e-01 -7.266741e+00 -6.435119e+00 1.404889e-01 3.382966e-01 -2.916935e+00 -7.817376e-02 -3.912112e-03 -3.870228e-02 -8.785630e-02 -6.045819e-02 2.060262e-01 5.053060e-02 3.287388e-01 3.930830e-01 -4.527929e-02 -1.102870e-01 1.735334e-01 -3.665128e-03 -7.681614e-02 -8.501711e-02 -5.698352e-02 -1.052665e-01 -2.637964e-02 9.757177e-02 1.889342e-02 1.727636e-01 1.476598e-01 -5.653800e-02 -4.428775e-02 7.391471e-02 -1.878175e-03
<VARIANCE> 38
 1.158523e+01 2.240938e+01 2.680119e+01 3.559375e+01 4.178351e+01 4.990598e+01 4.610069e+01 4.472982e+01 5.177367e+01 4.332825e+01 4.255325e+01 3.906751e+01 2.247281e-01 6.945491e-01 7.164323e-01 1.037247e+00 1.053010e+00 1.190867e+00 1.318708e+00 1.422083e+00 1.613865e+00 1.395328e+00 1.379872e+00 1.204418e+00 1.000000e-02 4.820126e-02 1.155695e-01 1.323217e-01 1.961830e-01 2.033922e-01 2.341960e-01 2.567225e-01 2.957349e-01 3.246210e-01 2.735844e-01 2.699125e-01 2.418646e-01 1.000000e-02
<GCONST> 8.386121e+01
<MIXTURE> 2 4.591269e-01
<MEAN> 38
 9.464194e+00 3.878472e+00 1.700041e+00 4.548963e+00 1.521777e+00 -3.433649e+00 -2.531045e+00 -8.458488e+00 -7.655555e+00 -8.579420e-01 -6.944214e-01 -4.891119e+00 -1.401332e-01 -3.754388e-01 -3.291711e-01 -3.971317e-01 -2.898192e-01 1.681969e-01 -1.316900e-01 4.841367e-01 5.719301e-01 -2.812474e-01 -3.790010e-01 -1.698001e-02 5.658796e-04 -1.200172e-01 -1.868854e-01 -1.285083e-01 -2.183012e-01 -1.003965e-01 1.142196e-01 2.015069e-03 2.818600e-01 2.373745e-01 -1.264917e-01 -1.377509e-01 8.376585e-02 -1.775039e-03
<VARIANCE> 38
 1.106312e+01 2.135661e+01 2.808264e+01 3.454810e+01 3.893100e+01 5.258017e+01 5.044988e+01 4.643111e+01 5.041106e+01 4.676237e+01 4.865046e+01 4.233796e+01 2.793756e-01 9.405317e-01 9.807214e-01 1.401452e+00 1.219151e+00 1.442296e+00 1.533005e+00 1.764048e+00 2.131361e+00 1.654633e+00 1.619536e+00 1.455127e+00 1.000000e-02 6.782645e-02 1.501680e-01 1.769792e-01 2.525962e-01 2.362711e-01 2.839261e-01 2.971330e-01 3.670114e-01 4.078843e-01 3.280002e-01 3.219611e-01 2.879181e-01 1.000000e-02
<GCONST> 8.940634e+01
<STATE> 4
<NUMMIXES> 2
<SWEIGHTS> 1
 1.000000e+00
<MIXTURE> 1 4.339016e-01
<MEAN> 38
 7.566378e+00 1.612305e+00 7.185634e-01 3.117543e+00 1.005236e+00 -2.557213e-01 -1.164396e+00 -3.085309e+00 -2.781395e+00 -1.507036e+00 -1.542736e+00 -2.127027e+00 -6.149474e-01 -7.191265e-01 -1.313467e-01 -7.209596e-01 -4.496647e-01 7.209622e-01 3.303480e-01 1.280359e+00 9.115568e-01 -1.745523e-01 -2.400762e-01 5.317270e-01 -1.053653e-02 -6.455542e-02 9.278458e-02 1.178886e-01 6.789828e-02 7.412075e-02 5.562248e-02 1.167961e-01 -9.083354e-02 -1.661173e-01 9.656861e-02 1.562957e-01 3.023892e-02 -1.822870e-03
<VARIANCE> 38
 1.745750e+01 4.282564e+01 4.005627e+01 5.082839e+01 4.702229e+01 4.916272e+01 4.386737e+01 4.778466e+01 4.751554e+01 3.748380e+01 3.596202e+01 3.027051e+01 8.007681e-01 2.047496e+00 2.444355e+00 3.189371e+00 3.247516e+00 3.082295e+00 3.277468e+00 3.599544e+00 4.053928e+00 3.028756e+00 2.911220e+00 2.647822e+00 1.000000e-02 1.123110e-01 3.357342e-01 3.078100e-01 4.617565e-01 4.403416e-01 4.798841e-01 5.074268e-01 5.771227e-01 6.381041e-01 4.859659e-01 4.443519e-01 4.091395e-01 1.000000e-02
<GCONST> 1.057183e+02
<MIXTURE> 2 5.660830e-01
<MEAN> 38
 8.225244e+00 1.716303e-01 -4.602042e-01 2.025958e+00 -8.691447e-03 -1.752243e+00 -3.111470e+00 -4.359073e+00 -3.659411e+00 -2.125165e+00 -2.301629e+00 -3.845883e+00 -7.646604e-01 -1.357754e+00 -5.309379e-01 -1.206172e+00 -7.377858e-01 6.905663e-01 4.887872e-02 1.530643e+00 1.137724e+00 -6.110184e-01 -7.444392e-01 3.837198e-01 -3.061414e-03 -1.206231e-01 1.181833e-02 9.166069e-02 -1.008376e-02 -1.528090e-02 2.688414e-02 1.104731e-01 -1.546539e-02 -1.482703e-01 3.990291e-02 6.478485e-02 3.140330e-02 -1.295864e-03
<VARIANCE> 38
 1.511141e+01 3.669647e+01 3.720956e+01 4.538018e+01 4.120530e+01 4.992183e+01 4.254922e+01 4.818079e+01 4.638404e+01 3.981924e+01 3.814244e+01 3.179945e+01 8.678845e-01 2.079698e+00 2.887459e+00 3.498026e+00 3.190760e+00 3.614820e+00 3.656250e+00 4.054269e+00 4.770289e+00 3.587296e+00 3.233995e+00 3.173704e+00 1.000000e-02 1.162592e-01 3.553233e-01 3.285077e-01 5.050134e-01 4.698448e-01 4.922287e-01 5.214790e-01 6.187621e-01 6.318561e-01 5.047860e-01 4.530509e-01 4.076841e-01 1.000000e-02
<GCONST> 1.070585e+02
<TRANSP> 5
 0.000000e+00 1.000000e+00 0.000000e+00 0.000000e+00 0.000000e+00
 0.000000e+00 8.239683e-01 1.760317e-01 0.000000e+00 0.000000e+00
 0.000000e+00 0.000000e+00 7.677712e-01 2.322288e-01 0.000000e+00
 0.000000e+00 0.000000e+00 0.000000e+00 7.151614e-01 2.848386e-01
 0.000000e+00 0.000000e+00 0.000000e+00 0.000000e+00 0.000000e+00
<ENDHMM>
~h "n"
<BEGINHMM>
<NUMSTATES> 5
<STATE> 2
<NUMMIXES> 2
<SWEIGHTS> 1
 1.000000e+00
<MIXTURE> 1 5.412832e-01
<MEAN> 38
 9.079437e+00 4.814559e+00 3.088918e+00 2.506387e+00 -2.021906e-01 -2.506742e+00 4.194769e-01 -6.139958e+00 -6.302571e+00 3.020726e-01 -2.316015e+00 -7.286334e-01 2.044730e-01 5.290189e-01 2.687287e-01 6.093822e-01 9.375071e-02 -1.699358e-01 2.232993e-01 -5.923210e-01 -2.742522e-01 3.499183e-01 -2.714664e-03 2.041458e-01 -1.856769e-03 -7.129332e-02 -4.342055e-02 -1.310079e-02 -7.574178e-02 -1.900863e-02 6.435734e-02 -2.627372e-02 1.394183e-01 1.208594e-01 -3.519369e-02 4.270207e-02 1.427364e-02 -1.223546e-03
<VARIANCE> 38
 9.635756e+00 2.186789e+01 2.520978e+01 3.498191e+01 3.800470e+01 4.799759e+01 4.819893e+01 5.178511e+01 5.311894e+01 4.714467e+01 4.069690e+01 4.120501e+01 3.044432e-01 7.873194e-01 9.786391e-01 1.194398e+00 1.335600e+00 1.490434e+00 1.593905e+00 2.052319e+00 1.940265e+00 1.637948e+00 1.381427e+00 1.345070e+00 1.000000e-02 4.556331e-02 1.135078e-01 1.407996e-01 1.823829e-01 2.256314e-01 2.375222e-01 2.550598e-01 3.108001e-01 2.919430e-01 2.712536e-01 2.347768e-01 2.233029e-01 1.000000e-02
<GCONST> 8.584839e+01
<MIXTURE> 2 4.586129e-01
<MEAN> 38
 8.649362e+00 3.761288e+00 2.077749e+00 9.049894e-01 -1.391739e+00 -3.995482e+00 -1.258481e+00 -7.002147e+00 -7.646831e+00 -1.355510e+00 -4.279875e+00 -2.449628e+00 1.619326e-01 3.562094e-01 1.495209e-01 4.434798e-01 -7.094654e-03 -2.568217e-01 8.457354e-02 -5.540974e-01 -3.337953e-01 1.680608e-01 -2.405043e-01 -6.598107e-02 5.809587e-05 -8.468249e-02 -7.961549e-02 -3.654034e-02 -1.060416e-01 -2.811379e-02 5.708440e-02 -4.479291e-02 1.420593e-01 1.178795e-01 -5.601670e-02 2.761941e-02 -1.630020e-02 -1.257498e-03
<VARIANCE> 38
 1.018272e+01 2.230768e+01 2.746759e+01 3.636656e+01 3.998199e+01 5.132681e+01 5.321247e+01 5.267094e+01 5.319934e+01 5.415946e+01 4.520969e+01 4.041329e+01 3.163764e-01 7.771331e-01 9.641922e-01 1.192385e+00 1.329274e+00 1.523556e+00 1.639098e+00 2.009356e+00 1.917756e+00 1.659854e+00 1.436588e+00 1.328828e+00 1.000000e-02 5.081062e-02 1.202915e-01 1.455307e-01 1.847862e-01 2.252972e-01 2.441704e-01 2.636038e-01 3.112285e-01 2.964123e-01 2.740150e-01 2.411576e-01 2.246150e-01 1.000000e-02
<GCONST> 8.690091e+01
<STATE> 3
<NUMMIXES> 2
<SWEIGHTS> 1
 1.000000e+00
<MIXTURE> 1 5.651491e-01
<MEAN> 38
 8.551188e+00 7.541918e+00 4.741758e+00 5.999400e+00 1.315382e+00 -2.937385e+00 9.744446e-01 -6.985820e+00 -5.759301e+00 7.477131e-01 -2.434529e+00 -2.265275e-01 -2.558292e-01 2.934434e-01 2.419227e-01 2.915023e-01 3.026579e-01 1.924119e-01 1.569274e-02 2.839077e-01 2.821308e-01 -9.462634e-02 9.911750e-02 7.185936e-02 -1.232169e-02 -1.831900e-01 -1.288140e-01 8.128319e-03 -8.487193e-02 1.019616e-01 1.348658e-01 -3.272722e-02 2.282997e-01 1.434382e-01 -1.160480e-01 5.233862e-02 -2.461953e-03 -3.187635e-03
<VARIANCE> 38
 1.305298e+01 2.157505e+01 2.349964e+01 2.975318e+01 4.000363e+01 4.212929e+01 4.781723e+01 4.488185e+01 5.226885e+01 4.460870e+01 3.909056e+01 4.023806e+01 4.020485e-01 8.422039e-01 8.165787e-01 1.102730e+00 1.362763e+00 1.399129e+00 1.586072e+00 1.694216e+00 1.675737e+00 1.668133e+00 1.503955e+00 1.437953e+00 1.000000e-02 8.078106e-02 1.581218e-01 1.700413e-01 2.162723e-01 2.600385e-01 2.795630e-01 3.210802e-01 3.417430e-01 3.561542e-01 3.401130e-01 3.002844e-01 2.891228e-01 1.000000e-02
<GCONST> 8.823162e+01
<MIXTURE> 2 4.348399e-01
<MEAN> 38
 8.462195e+00 6.061043e+00 3.612428e+00 4.199629e+00 -2.839719e-01 -4.774578e+00 -8.380026e-01 -8.067737e+00 -7.220111e+00 -1.842978e-01 -4.053515e+00 -1.655595e+00 -3.144504e-01 2.068407e-02 9.478954e-02 2.864749e-02 1.308944e-01 5.720723e-02 -2.071071e-01 2.327236e-01 2.264982e-01 -2.824458e-01 -7.130227e-02 -1.478319e-01 -8.884721e-03 -2.324988e-01 -2.161086e-01 -1.774234e-02 -1.848131e-01 6.369885e-02 1.507970e-01 -9.028003e-02 2.689581e-01 1.859980e-01 -1.894120e-01 4.117557e-02 -4.229147e-02 -2.806485e-03
<VARIANCE> 38
 1.334065e+01 2.305617e+01 2.486158e+01 2.943134e+01 3.972949e+01 4.511569e+01 5.219934e+01 4.475482e+01 5.221090e+01 5.276344e+01 4.311236e+01 4.145110e+01 4.857226e-01 1.043235e+00 9.225056e-01 1.258678e+00 1.452212e+00 1.522187e+00 1.712868e+00 1.872126e+00 1.858627e+00 1.808014e+00 1.643656e+00 1.529065e+00 1.000000e-02 9.811389e-02 1.984109e-01 2.091113e-01 2.567161e-01 2.878303e-01 3.160048e-01 3.604968e-01 3.867496e-01 4.090182e-01 3.809789e-01 3.318632e-01 3.187099e-01 1.000000e-02
<GCONST> 9.183502e+01
<STATE> 4
<NUMMIXES> 2
<SWEIGHTS> 1
 1.000000e+00
<MIXTURE> 1 4.551425e-01
<MEAN> 38
 4.553339e+00 6.325791e+00 4.956293e+00 5.716968e+00 3.044621e+00 -9.491544e-01 4.850871e-01 -3.706760e+00 -4.007346e+00 -1.556906e+00 -2.465695e+00 -1.182097e+00 -1.171104e+00 -2.943627e-01 9.068447e-04 2.139648e-02 6.215791e-01 7.838833e-01 2.292064e-01 1.034452e+00 8.139663e-01 -1.783397e-01 3.379723e-01 1.855137e-01 -2.943061e-02 -1.447121e-01 -1.471471e-01 -1.169122e-01 -9.145720e-02 -1.242579e-02 9.759299e-02 8.863969e-02 1.159335e-01 1.074741e-01 8.980805e-02 7.815111e-02 7.138057e-02 -1.809546e-03
<VARIANCE> 38
 2.705438e+01 3.291948e+01 2.871812e+01 4.232813e+01 4.647982e+01 4.406306e+01 4.524511e+01 4.498774e+01 4.428202e+01 4.196182e+01 3.583720e+01 3.263131e+01 1.383682e+00 2.087262e+00 2.031837e+00 2.450637e+00 2.740201e+00 2.676514e+00 3.157884e+00 3.019777e+00 3.149262e+00 3.120216e+00 2.647713e+00 2.435817e+00 1.000000e-02 2.116413e-01 3.583293e-01 3.184756e-01 4.006865e-01 4.414201e-01 4.598833e-01 4.984276e-01 5.351308e-01 5.401222e-01 5.254158e-01 4.535036e-01 4.183783e-01 1.000000e-02
<GCONST> 1.049455e+02
<MIXTURE> 2 5.447974e-01
<MEAN> 38
 5.353335e+00 4.617923e+00 4.013735e+00 3.645147e+00 1.160023e+00 -2.664101e+00 -1.386993e+00 -4.870331e+00 -5.289955e+00 -2.201488e+00 -3.550889e+00 -1.988516e+00 -1.295222e+00 -9.231176e-01 -2.188972e-01 -5.876628e-01 2.800632e-01 6.685496e-01 -2.561315e-01 1.066603e+00 8.069368e-01 -6.501920e-01 9.489691e-02 -1.233137e-01 -2.096080e-02 -1.622258e-01 -1.871010e-01 -1.932688e-01 -1.781882e-01 -9.270548e-02 5.646352e-02 4.896109e-02 9.828305e-02 9.980129e-02 5.479568e-02 2.153151e-02 1.772113e-02 -6.369814e-04
<VARIANCE> 38
 2.549053e+01 3.636143e+01 2.852848e+01 4.069231e+01 4.596154e+01 4.585410e+01 4.652831e+01 4.700498e+01 4.707299e+01 4.623984e+01 3.752563e+01 3.428490e+01 1.552596e+00 2.411124e+00 2.628687e+00 2.876154e+00 3.112739e+00 3.208277e+00 3.516359e+00 3.576834e+00 3.786422e+00 3.459854e+00 2.974524e+00 2.751998e+00 1.000000e-02 2.246761e-01 4.050169e-01 3.564006e-01 4.375026e-01 4.637778e-01 4.974130e-01 5.297105e-01 5.807651e-01 5.729986e-01 5.490285e-01 4.716514e-01 4.315601e-01 1.000000e-02
<GCONST> 1.079086e+02
<TRANSP> 5
 0.000000e+00 1.000000e+00 0.000000e+00 0.000000e+00 0.000000e+00
 0.000000e+00 8.457245e-01 1.542755e-01 0.000000e+00 0.000000e+00
 0.000000e+00 0.000000e+00 6.878227e-01 3.121774e-01 0.000000e+00
 0.000000e+00 0.000000e+00 0.000000e+00 7.176288e-01 2.823712e-01
 0.000000e+00 0.000000e+00 0.000000e+00 0.000000e+00 0.000000e+00
<ENDHMM>
~h "o"
<BEGINHMM>
<NUMSTATES> 5
<STATE> 2
<NUMMIXES> 2
<SWEIGHTS> 1
 1.000000e+00
<MIXTURE> 1 5.177159e-01
<MEAN> 38
 9.952779e+00 3.434865e+00 -8.129869e+00 -1.251205e+01 -5.055679e+00 7.253214e+00 -3.323387e-01 -2.260537e+00 -3.168615e+00 -2.903152e-01 3.713107e+00 1.223756e+00 1.923135e-01 2.833536e-01 3.530176e-02 -3.127853e-01 -1.338856e-01 2.851452e-01 2.206231e-01 1.882842e-01 -1.605446e-01 -1.457909e-01 1.472258e-01 2.796990e-01 2.044768e-03 -4.741976e-02 9.451602e-03 6.446542e-02 1.579831e-01 7.026573e-02 -4.422792e-02 8.313607e-03 2.151308e-02 4.948098e-02 1.331044e-02 -2.102791e-02 1.764326e-02 -2.082344e-03
<VARIANCE> 38
 1.142414e+01 2.836093e+01 2.683540e+01 4.203939e+01 4.143491e+01 3.834764e+01 4.894667e+01 4.277659e+01 4.293679e+01 5.484628e+01 4.270898e+01 3.344075e+01 2.436054e-01 5.336332e-01 6.022571e-01 1.126974e+00 9.403548e-01 1.142076e+00 1.213852e+00 1.214486e+00 1.324128e+00 1.351480e+00 1.317448e+00 1.109385e+00 1.000000e-02 5.145246e-02 7.629627e-02 9.600035e-02 1.591743e-01 1.559345e-01 1.713606e-01 1.913554e-01 2.036430e-01 2.114602e-01 2.172071e-01 2.028828e-01 1.819771e-01 1.000000e-02
<GCONST> 7.950885e+01
<MIXTURE> 2 4.821497e-01
<MEAN> 38
 9.418856e+00 2.698137e+00 -8.902470e+00 -1.340298e+01 -5.800797e+00 6.453268e+00 -1.224987e+00 -2.655128e+00 -3.923948e+00 -1.263696e+00 2.608216e+00 3.043913e-02 1.241429e-01 1.529166e-01 -9.493539e-02 -4.048698e-01 -2.757386e-01 1.316638e-01 2.624412e-02 3.359730e-02 -3.088292e-01 -3.269544e-01 -5.861984e-02 1.187050e-02 3.257518e-03 -4.963300e-02 -1.923448e-02 3.004450e-02 1.096229e-01 2.800303e-02 -7.383034e-02 -3.774014e-02 -2.650297e-02 9.625964e-03 -2.330470e-02 -5.424105e-02 -3.051726e-02 -1.728629e-03
<VARIANCE> 38
