~o
<STREAMINFO> 1 38
<VECSIZE> 38<NULLD><MFCC_E_D_N_A_Z><DIAGC>
~h "@"
<BEGINHMM>
<NUMSTATES> 5
<STATE> 2
<NUMMIXES> 2
<SWEIGHTS> 1
 1.000000e+00
<MIXTURE> 1 4.650554e-01
<MEAN> 38
 5.403241e+00 -2.276179e-01 8.699614e-01 -1.297043e-01 -2.740429e+00 -4.704206e+00 -6.064313e+00 -1.054048e+00 6.949267e-01 -1.282461e-01 -1.086285e+00 2.047824e-01 6.525511e-01 3.262708e-02 1.546008e-01 -3.322758e-02 -3.090150e-01 1.192423e-01 -1.661539e-01 8.424432e-02 2.066494e-01 2.747923e-01 4.798021e-02 9.485319e-02 9.421290e-03 -5.487926e-01 1.263319e-01 7.862483e-02 2.288476e-01 4.203675e-01 2.299031e-01 4.030397e-01 1.320865e-01 1.307351e-02 -1.926245e-02 9.541012e-02 6.569778e-03 -9.771811e-03
<VARIANCE> 38
 1.625472e+01 2.309784e+01 3.784836e+01 3.739975e+01 4.339284e+01 5.611187e+01 5.201787e+01 4.704802e+01 4.560603e+01 4.329299e+01 3.711751e+01 3.240981e+01 1.520693e+00 1.977334e+00 1.721098e+00 2.180354e+00 2.795204e+00 2.642758e+00 2.738887e+00 2.887151e+00 2.722196e+00 2.680290e+00 2.328162e+00 2.070927e+00 1.000000e-02 2.922011e-01 3.579198e-01 3.141789e-01 4.066653e-01 4.798001e-01 5.116493e-01 5.546249e-01 6.292238e-01 5.542545e-01 5.203472e-01 4.967118e-01 4.159611e-01 1.000000e-02
<GCONST> 1.045518e+02
<MIXTURE> 2 5.349236e-01
<MEAN> 38
 4.854187e+00 -8.528439e-01 2.798905e-01 -8.180540e-01 -2.658823e+00 -5.324416e+00 -6.506871e+00 -1.218026e+00 1.966824e-01 -1.260367e+00 -2.383528e+00 -8.754980e-01 1.235800e+00 -4.496524e-01 -1.665940e-01 -5.691750e-01 -8.979369e-01 -1.449296e-01 -6.315078e-01 -3.326712e-02 4.244477e-02 1.564710e-01 -2.149838e-01 -2.318702e-01 2.431236e-02 -5.577038e-01 -1.308299e-02 -1.727000e-02 1.833091e-01 3.659829e-01 2.738689e-01 3.960778e-01 2.045159e-01 1.202827e-01 1.282773e-01 2.051971e-01 1.031334e-01 -1.005201e-02
<VARIANCE> 38
 1.427101e+01 2.197258e+01 3.518878e+01 3.530513e+01 4.098362e+01 4.936852e+01 4.728181e+01 4.498046e+01 4.368369e+01 4.703892e+01 3.774949e+01 2.940439e+01 1.795770e+00 1.924406e+00 1.774135e+00 2.409754e+00 2.883394e+00 2.913746e+00 3.132298e+00 3.372851e+00 2.932441e+00 2.931321e+00 2.806876e+00 2.176390e+00 1.000000e-02 3.487073e-01 3.710575e-01 3.123618e-01 3.914351e-01 4.575299e-01 4.761344e-01 5.332026e-01 6.282648e-01 5.442554e-01 5.347657e-01 5.053788e-01 3.865979e-01 1.000000e-02
<GCONST> 1.049254e+02
<STATE> 3
<NUMMIXES> 2
<SWEIGHTS> 1
 1.000000e+00
<MIXTURE> 1 4.022907e-01
<MEAN> 38
 5.521642e+00 4.793099e-01 1.977917e+00 6.632366e-01 -2.829853e+00 -5.192000e+00 -5.738622e+00 -1.755048e-01 9.001018e-01 -6.505401e-02 -1.185143e+00 4.963750e-01 -2.939286e-01 9.254504e-01 4.227612e-01 6.111059e-01 7.180683e-01 4.330498e-01 6.294559e-01 -7.023283e-03 1.845611e-02 -3.336474e-02 4.205496e-02 1.374033e-03 -1.701651e-02 -3.080481e-01 1.518956e-01 1.052158e-01 1.700669e-01 2.510578e-01 1.459310e-01 2.546407e-01 1.943724e-02 -5.941404e-02 -7.099688e-02 -2.875776e-03 -5.248154e-02 -6.861764e-03
<VARIANCE> 38
 1.380156e+01 2.270292e+01 3.346309e+01 3.201314e+01 3.995114e+01 4.833932e+01 4.814909e+01 4.521303e+01 4.399137e+01 4.481700e+01 3.644749e+01 3.500691e+01 1.089062e+00 1.782311e+00 1.414936e+00 1.820338e+00 2.245814e+00 2.150120e+00 2.387584e+00 2.471087e+00 2.426537e+00 2.229229e+00 2.061771e+00 1.872772e+00 1.000000e-02 1.489184e-01 2.319102e-01 2.153808e-01 2.625434e-01 3.452685e-01 3.581380e-01 3.880507e-01 4.236439e-01 4.155648e-01 3.997974e-01 3.564159e-01 3.342357e-01 1.000000e-02
<GCONST> 9.728374e+01
<MIXTURE> 2 5.975988e-01
<MEAN> 38
 5.333233e+00 -2.147451e+00 1.069957e+00 -1.057410e+00 -4.205633e+00 -5.944702e+00 -5.989923e+00 7.270264e-01 8.159493e-01 -7.077742e-01 -2.159186e+00 -5.130296e-01 6.584467e-02 1.628402e-01 5.117819e-02 1.633043e-01 1.732766e-01 2.025398e-01 1.638498e-01 9.157510e-03 -5.904634e-02 -5.543012e-02 -1.026343e-01 -9.874642e-02 -4.524573e-03 -1.432643e-01 2.019185e-01 5.979795e-02 1.540102e-01 2.139909e-01 7.678311e-02 1.349276e-01 -9.506513e-02 -6.420676e-02 -3.432754e-02 1.603940e-02 7.064741e-03 -5.431070e-03
<VARIANCE> 38
 1.055212e+01 1.971222e+01 3.168395e+01 3.136991e+01 3.632892e+01 4.462368e+01 4.950517e+01 4.511718e+01 4.393481e+01 4.878466e+01 4.210190e+01 3.529248e+01 4.104324e-01 9.154242e-01 8.987862e-01 1.113120e+00 1.377360e+00 1.417502e+00 1.574226e+00 1.657601e+00 1.607429e+00 1.586810e+00 1.424099e+00 1.275225e+00 1.000000e-02 1.001856e-01 1.399442e-01 1.397539e-01 1.903761e-01 2.301901e-01 2.501380e-01 2.938327e-01 3.044036e-01 2.897443e-01 2.832769e-01 2.691056e-01 2.340166e-01 1.000000e-02
<GCONST> 8.669937e+01
<STATE> 4
<NUMMIXES> 2
<SWEIGHTS> 1
 1.000000e+00
<MIXTURE> 1 5.969810e-01
<MEAN> 38
 2.085521e+00 5.751640e+00 5.197612e+00 5.204877e+00 1.795754e+00 -1.848503e+00 -9.002693e-01 -3.417343e-02 -1.294136e-01 -1.726633e+00 -1.854483e+00 -2.993540e-01 -9.696971e-01 5.111288e-01 3.181608e-01 7.810238e-01 1.048683e+00 9.186590e-01 9.538655e-01 1.973727e-01 2.939444e-02 -8.952980e-02 9.537969e-02 -3.885241e-02 -3.666135e-02 -8.246361e-02 -2.846623e-01 -1.719583e-01 -1.052787e-01 -5.259740e-02 2.984204e-02 2.440043e-03 6.968736e-02 4.401722e-02 8.006874e-02 5.200365e-02 3.658689e-02 -2.623732e-04
<VARIANCE> 38
 2.538220e+01 3.438243e+01 3.400317e+01 3.324487e+01 3.865224e+01 4.330888e+01 4.511947e+01 3.965574e+01 3.796306e+01 3.897282e+01 3.122972e+01 2.813943e+01 1.499927e+00 1.891133e+00 1.690906e+00 1.772602e+00 2.268467e+00 2.345071e+00 2.301468e+00 2.602044e+00 2.573284e+00 2.357440e+00 2.141467e+00 1.995010e+00 1.000000e-02 1.175257e-01 2.465635e-01 2.575488e-01 2.720881e-01 3.384159e-01 3.633571e-01 3.693089e-01 4.059255e-01 4.093765e-01 4.049718e-01 3.569909e-01 3.429766e-01 1.000000e-02
<GCONST> 9.818776e+01
<MIXTURE> 2 4.029491e-01
<MEAN> 38
 3.711715e+00 3.066640e+00 2.778362e+00 2.752248e+00 6.905442e-01 -1.952213e+00 -2.352897e+00 -1.116923e+00 -4.630960e-01 -1.394279e+00 -2.443682e+00 -1.394298e+00 -4.842968e-01 3.030802e-01 1.230568e-01 4.541767e-01 5.844461e-01 5.339727e-01 6.533734e-01 -8.599016e-02 -2.312108e-01 -1.295427e-01 -8.543754e-02 -1.447554e-01 -2.257349e-02 -8.169438e-02 -1.292761e-01 -8.632564e-02 -5.422501e-02 -4.485189e-02 -2.967797e-02 -2.462075e-03 1.555000e-02 1.600520e-02 4.751109e-02 5.399726e-02 6.636913e-02 -6.811051e-04
<VARIANCE> 38
 2.384011e+01 3.978733e+01 4.351606e+01 4.900094e+01 4.360659e+01 4.694247e+01 5.092719e+01 4.770164e+01 4.427642e+01 4.803549e+01 3.868840e+01 3.158171e+01 1.338295e+00 1.630501e+00 1.557936e+00 1.851282e+00 2.219020e+00 2.281952e+00 2.413739e+00 2.574543e+00 2.559725e+00 2.303630e+00 2.007571e+00 1.868120e+00 1.000000e-02 1.234207e-01 2.621137e-01 2.527884e-01 3.093717e-01 3.417297e-01 3.508665e-01 3.752649e-01 4.132421e-01 3.990013e-01 3.945178e-01 3.562708e-01 3.213178e-01 1.000000e-02
<GCONST> 9.974283e+01
<TRANSP> 5
 0.000000e+00 1.000000e+00 0.000000e+00 0.000000e+00 0.000000e+00
 0.000000e+00 4.576603e-01 5.423397e-01 0.000000e+00 0.000000e+00
 0.000000e+00 0.000000e+00 7.321348e-01 2.678652e-01 0.000000e+00
 0.000000e+00 0.000000e+00 0.000000e+00 6.416366e-01 3.583635e-01
 0.000000e+00 0.000000e+00 0.000000e+00 0.000000e+00 0.000000e+00
<ENDHMM>
~h "a"
<BEGINHMM>
<NUMSTATES> 5
<STATE> 2
<NUMMIXES> 2
<SWEIGHTS> 1
 1.000000e+00
<MIXTURE> 1 5.056523e-01
<MEAN> 38
 5.797185e+00 -1.046532e+01 -7.867821e+00 -2.070582e-01 3.342316e+00 2.926702e+00 9.709192e-01 4.803666e-01 1.432508e+00 -2.506809e+00 -4.188910e+00 -3.016327e+00 6.819924e-02 -6.515021e-02 -6.054426e-02 1.501719e-01 2.045640e-01 1.819808e-01 4.120725e-02 -3.850380e-02 2.275454e-02 1.906010e-02 7.648451e-02 6.776550e-02 -8.225789e-04 1.214683e-02 8.884166e-02 5.489652e-02 -5.180769e-03 -3.586849e-02 -3.855168e-02 -1.471482e-02 8.437465e-03 -7.312780e-03 3.264530e-02 3.051084e-02 2.224466e-02 -1.128904e-03
<VARIANCE> 38
 9.758662e+00 1.726085e+01 2.367565e+01 3.704954e+01 3.087727e+01 3.700448e+01 3.842511e+01 3.903594e+01 3.874643e+01 3.459502e+01 2.794680e+01 3.666837e+01 1.470300e-01 3.780778e-01 4.547893e-01 6.142917e-01 7.615924e-01 8.554918e-01 8.800309e-01 9.287503e-01 8.764005e-01 8.791305e-01 8.307828e-01 7.540759e-01 1.000000e-02 2.359117e-02 4.844524e-02 6.624597e-02 9.078658e-02 1.082757e-01 1.252503e-01 1.416801e-01 1.510333e-01 1.452348e-01 1.438717e-01 1.369324e-01 1.253408e-01 1.000000e-02
<GCONST> 6.752995e+01
<MIXTURE> 2 4.942370e-01
<MEAN> 38
 5.209586e+00 -1.127245e+01 -8.148141e+00 -7.366539e-01 3.238571e+00 2.637853e+00 -3.321034e-02 1.128597e-01 1.013795e+00 -3.765431e+00 -4.851766e+00 -3.168617e+00 -1.092922e-02 -1.270242e-01 -9.476873e-02 2.329816e-02 1.166868e-01 7.996788e-02 -8.615248e-02 -1.154981e-01 -9.082719e-02 -1.230484e-01 -3.329641e-02 -1.436032e-01 -2.955862e-04 1.141508e-02 7.264572e-02 3.645493e-02 -2.267304e-02 -5.423670e-02 -5.413320e-02 -2.210464e-02 -1.913018e-03 -2.285092e-02 2.233308e-02 1.503023e-02 -1.965109e-02 -9.990352e-04
<VARIANCE> 38
 1.034251e+01 1.666617e+01 2.196290e+01 3.037801e+01 3.057812e+01 3.642649e+01 4.111904e+01 4.106956e+01 4.057827e+01 3.937052e+01 2.864979e+01 3.414145e+01 1.339009e-01 3.314514e-01 4.202576e-01 5.663804e-01 7.488723e-01 8.311020e-01 8.800085e-01 9.315510e-01 8.724048e-01 8.755016e-01 8.167558e-01 7.555075e-01 1.000000e-02 2.057409e-02 3.961051e-02 5.850319e-02 8.108088e-02 1.022941e-01 1.171051e-01 1.332979e-01 1.452114e-01 1.396924e-01 1.400564e-01 1.317379e-01 1.202500e-01 1.000000e-02
<GCONST> 6.610363e+01
<STATE> 3
<NUMMIXES> 2
<SWEIGHTS> 1
 1.000000e+00
<MIXTURE> 1 5.180637e-01
<MEAN> 38
 7.210498e+00 -7.600090e+00 -7.215308e+00 -9.525635e-01 2.750258e+00 2.461040e+00 8.653893e-01 1.363736e+00 3.295491e-01 -1.709374e+00 -2.701464e+00 -4.111920e+00 1.667744e-01 6.177629e-01 3.581546e-01 -3.996203e-02 -2.642274e-01 -1.616401e-01 9.065420e-02 1.277274e-01 -1.787322e-01 2.032796e-01 2.319947e-01 1.110534e-01 -7.787596e-03 -1.647171e-02 1.428023e-01 1.337113e-01 7.927255e-02 -1.342869e-02 -6.155559e-02 7.904151e-03 -4.097341e-02 -2.426930e-02 3.630454e-02 1.655895e-02 6.457294e-02 -1.937757e-03
<VARIANCE> 38
 1.004872e+01 2.126421e+01 3.153611e+01 4.770962e+01 4.432371e+01 5.657915e+01 5.286586e+01 5.543672e+01 4.887198e+01 3.819755e+01 3.733035e+01 3.473362e+01 2.130802e-01 5.170076e-01 6.953643e-01 8.796260e-01 1.041312e+00 1.203277e+00 1.361654e+00 1.367794e+00 1.342590e+00 1.250188e+00 1.225638e+00 1.111098e+00 1.000000e-02 3.113108e-02 8.436340e-02 1.109896e-01 1.587867e-01 1.732034e-01 2.022692e-01 2.249882e-01 2.236409e-01 2.229755e-01 2.076966e-01 2.030234e-01 1.833063e-01 1.000000e-02
<GCONST> 8.011119e+01
<MIXTURE> 2 4.819060e-01
<MEAN> 38
 6.366396e+00 -9.286985e+00 -6.813950e+00 -7.082138e-01 1.567656e+00 5.395667e-01 3.125364e-01 1.777068e+00 -1.740361e+00 -3.781650e+00 -4.174200e+00 -3.680920e+00 7.225893e-02 4.199584e-01 3.412709e-01 -2.156105e-01 -4.142754e-01 -2.642920e-01 9.639395e-04 1.320347e-01 -2.535504e-01 8.196934e-02 2.087443e-02 -1.211003e-01 -5.690573e-03 9.552456e-03 1.020264e-01 8.446287e-02 1.301488e-02 -3.452188e-02 -2.313989e-02 -3.945195e-02 -3.706824e-02 1.668585e-02 5.695613e-02 2.327470e-02 -1.126129e-02 -1.402615e-03
<VARIANCE> 38
 1.187259e+01 2.212757e+01 3.248436e+01 3.875524e+01 5.198124e+01 5.652923e+01 6.542190e+01 6.738062e+01 6.347601e+01 4.358558e+01 4.079487e+01 3.215037e+01 1.815020e-01 4.528351e-01 6.760307e-01 8.764153e-01 1.122792e+00 1.223545e+00 1.445803e+00 1.391256e+00 1.362398e+00 1.276211e+00 1.243703e+00 1.115623e+00 1.000000e-02 2.743691e-02 7.050505e-02 9.785116e-02 1.339936e-01 1.694602e-01 1.907482e-01 2.303222e-01 2.218514e-01 2.161846e-01 2.097000e-01 1.991955e-01 1.800782e-01 1.000000e-02
<GCONST> 8.028454e+01
<STATE> 4
<NUMMIXES> 2
<SWEIGHTS> 1
 1.000000e+00
<MIXTURE> 1 5.830803e-01
<MEAN> 38
 7.175248e+00 -2.679712e+00 -4.422179e+00 -2.048830e-01 2.436543e+00 1.310707e+00 4.322472e-01 3.961237e-01 -4.993901e-02 -8.984601e-01 -3.218102e+00 -4.016418e+00 -4.763781e-01 1.770542e+00 1.429458e+00 9.606022e-01 1.692221e-01 -4.355327e-01 2.111441e-01 -2.470456e-01 -2.385511e-01 2.711152e-01 3.167471e-01 3.697509e-01 -3.037539e-02 -2.947827e-01 5.781512e-02 2.000013e-01 2.319605e-01 1.394417e-01 3.152422e-02 2.043851e-02 -7.826568e-02 -7.755026e-03 -4.203255e-02 2.102291e-02 1.045505e-01 -4.131475e-03
<VARIANCE> 38
 1.416811e+01 3.374093e+01 3.472885e+01 4.351409e+01 3.777708e+01 4.917382e+01 4.604056e+01 5.071318e+01 4.658037e+01 4.514918e+01 4.144332e+01 3.399636e+01 1.161951e+00 1.678001e+00 1.745519e+00 2.188842e+00 2.340151e+00 2.734482e+00 2.685122e+00 2.866858e+00 3.016774e+00 2.396335e+00 2.262467e+00 2.081578e+00 1.000000e-02 1.320738e-01 2.509832e-01 2.823448e-01 3.403657e-01 3.287469e-01 3.951748e-01 4.187379e-01 4.536140e-01 4.394499e-01 4.163545e-01 3.991745e-01 3.364540e-01 1.000000e-02
<GCONST> 1.005796e+02
<MIXTURE> 2 4.168787e-01
<MEAN> 38
 6.391492e+00 -4.295632e+00 -4.401131e+00 -5.557916e-01 1.861127e+00 7.819647e-01 -5.474621e-02 3.720059e-01 -1.279020e+00 -2.298872e+00 -4.096225e+00 -3.892697e+00 -2.990596e-01 1.226912e+00 1.098945e+00 4.832767e-01 -1.761270e-01 -4.531930e-01 -7.855754e-02 -2.197750e-01 -2.622812e-01 2.142282e-01 1.305474e-01 2.795587e-02 -2.300011e-02 -1.484751e-01 3.639881e-02 9.681585e-02 1.569102e-01 7.378226e-02 -9.397138e-03 -4.609265e-02 -1.003415e-01 4.835384e-02 3.060955e-02 4.864714e-02 4.079110e-02 -2.070791e-03
<VARIANCE> 38
 1.513892e+01 3.991919e+01 3.875139e+01 4.234695e+01 4.837162e+01 5.249569e+01 5.627214e+01 5.605336e+01 5.265986e+01 4.883229e+01 4.497565e+01 3.394041e+01 1.195096e+00 1.481555e+00 1.755769e+00 2.198447e+00 2.353600e+00 2.612302e+00 2.570721e+00 2.693328e+00 2.734846e+00 2.429788e+00 2.263407e+00 1.947421e+00 1.000000e-02 1.266423e-01 2.633224e-01 2.791306e-01 3.411155e-01 3.481967e-01 3.775844e-01 4.129657e-01 4.356534e-01 4.226963e-01 3.940823e-01 3.841790e-01 3.171581e-01 1.000000e-02
<GCONST> 1.011717e+02
<TRANSP> 5
 0.000000e+00 1.000000e+00 0.000000e+00 0.000000e+00 0.000000e+00
 0.000000e+00 9.342355e-01 6.576446e-02 0.000000e+00 0.000000e+00
 0.000000e+00 0.000000e+00 8.003259e-01 1.996742e-01 0.000000e+00
 0.000000e+00 0.000000e+00 0.000000e+00 7.205285e-01 2.794715e-01
 0.000000e+00 0.000000e+00 0.000000e+00 0.000000e+00 0.000000e+00
<ENDHMM>
~h "b"
<BEGINHMM>
<NUMSTATES> 5
<STATE> 2
<NUMMIXES> 2
<SWEIGHTS> 1
 1.000000e+00
<MIXTURE> 1 6.772395e-01
<MEAN> 38
 8.110081e+00 1.311996e+01 4.849804e+00 5.431740e+00 4.589776e+00 2.120237e+00 -3.120225e-02 -5.267912e+00 -3.469349e+00 -4.604629e-01 -3.475381e-01 -2.062729e+00 -3.380399e-01 3.047121e-01 3.323010e-01 4.825473e-01 2.559013e-01 1.436884e-01 2.400958e-01 8.355484e-02 -4.238572e-02 -2.137214e-01 -4.254626e-02 7.658191e-02 -1.104745e-02 -1.797660e-01 -4.917097e-01 -1.502629e-01 -1.119660e-02 -6.420249e-02 -6.177280e-02 -6.501982e-02 1.495418e-01 1.511522e-01 -1.373453e-02 -1.549572e-02 5.950088e-02 1.343540e-03
<VARIANCE> 38
 1.653907e+01 1.435038e+01 2.222096e+01 2.623038e+01 2.316130e+01 2.752434e+01 3.240014e+01 3.160543e+01 3.934005e+01 2.764631e+01 2.634067e+01 2.857273e+01 6.373357e-01 1.783907e+00 1.063845e+00 1.041760e+00 1.030311e+00 1.231176e+00 1.410510e+00 1.473980e+00 1.611998e+00 1.491384e+00 1.420046e+00 1.237466e+00 1.000000e-02 9.832418e-02 3.171271e-01 2.156521e-01 2.071454e-01 2.240953e-01 2.559239e-01 2.989951e-01 3.072579e-01 3.347469e-01 3.127077e-01 2.896209e-01 2.696026e-01 1.000000e-02
<GCONST> 8.548344e+01
<MIXTURE> 2 3.227040e-01
<MEAN> 38
 5.696713e+00 1.088047e+01 5.289514e+00 7.193644e+00 4.840889e+00 1.675664e+00 2.157350e-01 -4.328550e+00 -3.162149e+00 -2.269379e+00 -1.849390e+00 -2.617100e+00 -1.155685e+00 -2.048401e+00 -4.881253e-01 4.351369e-01 -3.146895e-02 -2.774056e-01 -2.536847e-01 5.323763e-01 7.619308e-01 -1.865485e-01 -4.586538e-02 1.291764e-01 4.292357e-03 -1.032924e-01 -8.214625e-01 -5.159368e-01 -4.168673e-01 -4.183052e-01 -3.145604e-01 -2.812271e-01 1.360730e-01 2.919880e-01 2.722439e-01 2.413818e-01 1.557721e-01 1.008929e-02
<VARIANCE> 38
 2.425498e+01 2.762747e+01 2.608559e+01 2.736324e+01 2.736580e+01 2.898030e+01 3.387114e+01 3.345212e+01 3.572986e+01 2.661241e+01 2.631916e+01 3.026359e+01 2.677728e+00 6.683408e+00 2.991377e+00 2.628731e+00 2.686561e+00 2.848747e+00 3.611308e+00 3.600657e+00 3.773198e+00 2.998035e+00 2.803046e+00 2.587451e+00 1.000000e-02 2.712181e-01 5.595682e-01 4.248745e-01 4.389409e-01 4.515514e-01 4.867921e-01 5.041808e-01 5.160192e-01 5.242646e-01 4.686014e-01 4.395961e-01 3.974795e-01 1.000000e-02
<GCONST> 1.053331e+02
<STATE> 3
<NUMMIXES> 2
<SWEIGHTS> 1
 1.000000e+00
<MIXTURE> 1 3.558266e-01
<MEAN> 38
 1.388073e-01 -2.735570e+00 -1.246325e+00 5.606087e+00 2.538495e+00 -2.100204e+00 -3.539990e+00 -2.430021e+00 1.967610e+00 4.648357e-01 1.181888e+00 1.721553e-01 1.082304e+00 -7.404848e-01 -5.539910e-01 -1.019816e+00 -1.583327e+00 -1.059565e+00 -1.185245e+00 -2.102363e-01 -9.686020e-02 2.146385e-01 5.476589e-01 4.066879e-01 5.319907e-02 6.755902e-01 1.022637e+00 5.357835e-01 -2.098959e-01 -2.278118e-01 3.209646e-01 2.717310e-01 -7.072757e-03 -4.811316e-01 -1.635301e-01 -1.334419e-01 -6.362170e-02 2.427326e-03
<VARIANCE> 38
 2.430236e+01 2.906982e+01 3.115688e+01 3.469854e+01 3.265711e+01 4.052950e+01 4.436219e+01 3.669287e+01 3.136232e+01 3.017396e+01 2.739617e+01 2.374930e+01 3.008791e+00 5.862129e+00 4.626687e+00 4.570491e+00 3.940856e+00 4.437524e+00 4.106695e+00 3.810432e+00 4.411371e+00 3.856204e+00 3.439779e+00 2.662571e+00 1.000000e-02 5.110608e-01 9.551265e-01 6.646932e-01 7.680522e-01 6.947977e-01 8.767822e-01 8.939238e-01 7.981669e-01 8.059874e-01 7.717699e-01 7.087857e-01 5.685883e-01 1.000000e-02
<GCONST> 1.150643e+02
<MIXTURE> 2 6.441547e-01
<MEAN> 38
 1.628352e-03 -2.729349e-01 1.284828e+00 7.403226e+00 3.694078e+00 -7.079370e-02 -6.996315e-01 -7.183529e-01 1.639280e+00 -1.482236e+00 -4.428670e-01 -1.074423e+00 -3.913337e-01 -3.140507e+00 -1.762475e+00 -1.386126e+00 -1.847730e+00 -1.558811e+00 -1.349288e+00 3.795712e-01 8.567162e-01 5.309709e-01 6.221012e-01 5.517749e-01 5.012630e-02 8.481477e-01 7.546814e-01 1.236119e-01 -5.346840e-01 -4.560041e-01 -1.161521e-01 -2.235915e-01 -3.182372e-01 -4.379959e-01 1.817927e-01 6.020119e-02 -2.574299e-02 1.245599e-02
<VARIANCE> 38
 1.956500e+01 2.819026e+01 2.797793e+01 2.931541e+01 3.290256e+01 3.901315e+01 3.879732e+01 3.330981e+01 2.932745e+01 2.718086e+01 2.638339e+01 2.211456e+01 2.950159e+00 4.390829e+00 3.608661e+00 3.715577e+00 3.447264e+00 3.820750e+00 3.904560e+00 4.157327e+00 4.488815e+00 3.576062e+00 3.216527e+00 2.886803e+00 1.000000e-02 3.692631e-01 7.964413e-01 6.390947e-01 7.141120e-01 6.392247e-01 8.195537e-01 8.050521e-01 7.096439e-01 7.380579e-01 7.199150e-01 7.270749e-01 5.352016e-01 1.000000e-02
<GCONST> 1.117587e+02
<STATE> 4
<NUMMIXES> 2
<SWEIGHTS> 1
 1.000000e+00
<MIXTURE> 1 5.252071e-01
<MEAN> 38
 5.782750e+00 -1.713348e+00 -1.632484e+00 8.265450e-01 -3.435005e+00 -3.092682e+00 -4.847016e+00 -2.355277e+00 3.449043e-01 7.208635e-01 1.755377e+00 4.125272e-01 1.183441e+00 4.124898e-02 -2.434507e-02 -1.421137e+00 -1.338189e+00 1.899856e-01 -2.361623e-01 9.198200e-02 -4.111481e-01 3.360801e-01 1.352194e-01 1.296073e-01 3.876605e-02 -2.543668e-01 2.978647e-01 2.910857e-01 2.307331e-01 4.050829e-01 3.770851e-01 3.627945e-01 9.164535e-02 -3.703494e-02 -1.113250e-01 -2.104765e-01 -1.226801e-01 -9.764175e-03
<VARIANCE> 38
 1.777455e+01 2.337781e+01 4.476319e+01 5.571213e+01 3.770299e+01 6.054642e+01 4.272528e+01 4.267495e+01 3.931156e+01 3.847485e+01 3.371696e+01 2.668094e+01 2.121120e+00 2.782878e+00 3.181693e+00 4.482692e+00 3.833521e+00 4.645424e+00 4.173861e+00 3.947294e+00 3.920403e+00 4.000654e+00 3.978263e+00 2.899338e+00 1.000000e-02 3.307764e-01 4.544377e-01 3.775035e-01 5.302014e-01 4.504607e-01 6.478720e-01 5.409541e-01 5.473570e-01 5.598714e-01 5.671046e-01 5.062552e-01 4.027184e-01 1.000000e-02
<GCONST> 1.104679e+02
<MIXTURE> 2 4.747819e-01
<MEAN> 38
 5.976083e+00 -2.781182e+00 -3.889989e-01 1.573433e+00 -4.686139e+00 -4.398361e+00 -5.397261e+00 -1.427849e+00 -1.608829e-01 3.591678e-01 5.059615e-01 -5.716341e-01 7.060937e-01 -3.687549e-01 -4.705776e-02 -1.405451e+00 -1.322731e+00 8.214681e-02 -1.613776e-01 1.242908e-01 -3.791083e-01 3.372654e-01 -3.041308e-01 -1.635908e-01 3.517646e-02 -2.743255e-01 2.824833e-01 1.263320e-01 1.319952e-01 4.306793e-01 3.487446e-01 2.998292e-01 -3.910401e-02 4.626368e-02 -8.970093e-02 -1.584508e-01 -7.780881e-02 -9.188940e-03
<VARIANCE> 38
 1.439158e+01 2.198493e+01 5.109203e+01 5.664946e+01 4.441353e+01 5.491108e+01 4.844153e+01 4.573920e+01 4.610586e+01 4.219723e+01 3.803682e+01 2.994795e+01 1.795248e+00 2.377963e+00 3.118139e+00 3.609144e+00 3.811079e+00 4.072721e+00 4.302694e+00 3.924610e+00 3.954262e+00 3.868867e+00 3.726192e+00 2.712803e+00 1.000000e-02 2.997049e-01 3.944462e-01 4.140867e-01 5.454648e-01 5.419566e-01 6.397883e-01 6.132966e-01 5.784825e-01 6.455531e-01 6.340012e-01 5.506275e-01 4.459046e-01 1.000000e-02
<GCONST> 1.109361e+02
<TRANSP> 5
 0.000000e+00 1.000000e+00 0.000000e+00 0.000000e+00 0.000000e+00
 0.000000e+00 8.562401e-01 1.437599e-01 0.000000e+00 0.000000e+00
 0.000000e+00 0.000000e+00 6.513862e-01 3.486138e-01 0.000000e+00
 0.000000e+00 0.000000e+00 0.000000e+00 6.428202e-01 3.571799e-01
 0.000000e+00 0.000000e+00 0.000000e+00 0.000000e+00 0.000000e+00
<ENDHMM>
~h "d"
<BEGINHMM>
<NUMSTATES> 5
<STATE> 2
<NUMMIXES> 2
<SWEIGHTS> 1
 1.000000e+00
<MIXTURE> 1 4.703702e-01
<MEAN> 38
 3.775879e+00 9.275017e+00 6.567642e+00 5.637243e+00 1.335579e+00 -2.793335e+00 -1.151488e+00 -1.941097e+00 -2.039460e-01 -1.677554e+00 -2.759480e+00 -1.853909e+00 -8.342732e-01 -5.601598e-01 3.953509e-01 7.446259e-02 4.570646e-01 2.440329e-01 1.444498e-01 1.263711e-01 -5.518980e-02 -1.943824e-01 2.066496e-01 1.310093e-01 -5.102868e-03 -2.331675e-01 -7.492466e-01 -3.013356e-01 -3.618845e-01 -8.889697e-02 9.666637e-02 -3.123534e-02 6.456696e-02 3.545529e-03 9.764317e-02 2.490413e-01 1.774836e-01 4.784652e-03
<VARIANCE> 38
 3.695710e+01 4.967107e+01 3.491593e+01 3.576923e+01 4.090606e+01 3.794044e+01 3.924348e+01 4.049572e+01 3.631970e+01 3.067531e+01 3.157355e+01 2.648300e+01 2.919950e+00 6.222674e+00 3.134185e+00 3.026313e+00 3.727039e+00 3.813516e+00 3.375694e+00 3.326994e+00 3.073064e+00 2.814385e+00 2.841930e+00 2.473464e+00 1.000000e-02 5.456941e-01 1.071286e+00 5.813686e-01 6.206168e-01 7.088360e-01 6.805629e-01 6.255441e-01 6.611872e-01 6.277643e-01 5.673411e-01 5.583634e-01 4.750015e-01 1.000000e-02
<GCONST> 1.125393e+02
<MIXTURE> 2 5.295868e-01
<MEAN> 38
 -5.771289e-01 2.375422e+00 5.858594e+00 3.872296e+00 3.614125e+00 2.693924e-01 7.511282e-02 -1.097980e+00 -1.110155e+00 -2.255862e+00 -8.681801e-01 -1.542769e+00 -1.600448e+00 -2.362602e+00 -8.055484e-01 -1.336918e+00 -1.797872e-01 -1.545705e-01 -2.531408e-01 2.384791e-01 -7.644445e-03 -7.602142e-02 8.791915e-01 5.818415e-01 1.817227e-02 4.500975e-01 3.148698e-01 -2.524820e-01 -1.828629e-01 -6.207244e-01 -5.855832e-01 -3.470058e-01 -1.152033e-01 1.362361e-01 2.096055e-01 -1.588755e-02 1.568033e-01 1.191045e-02
<VARIANCE> 38
 3.475203e+01 6.352844e+01 4.084620e+01 4.260560e+01 4.454607e+01 4.781843e+01 4.388033e+01 4.203099e+01 3.692346e+01 3.319514e+01 3.580293e+01 2.770623e+01 3.359089e+00 7.030327e+00 4.407713e+00 4.226138e+00 5.140749e+00 5.356996e+00 4.752865e+00 4.822193e+00 4.552432e+00 4.001421e+00 3.990741e+00 3.287191e+00 1.000000e-02 6.446444e-01 1.679574e+00 7.912682e-01 8.691620e-01 9.019614e-01 9.973576e-01 8.070827e-01 8.126543e-01 7.418773e-01 7.677639e-01 7.981858e-01 6.148311e-01 1.000000e-02
<GCONST> 1.208986e+02
<STATE> 3
<NUMMIXES> 2
<SWEIGHTS> 1
 1.000000e+00
<MIXTURE> 1 4.971502e-01
<MEAN> 38
 -2.279048e+00 2.204492e-01 2.457883e+00 -2.797753e-01 2.403384e-01 -4.658182e+00 -2.380518e+00 -9.102259e-01 2.004278e-02 -8.245076e-01 1.711455e+00 1.849828e+00 1.218379e+00 6.372029e-01 9.613907e-02 -8.205698e-02 -1.524594e+00 -1.567368e+00 -1.175754e+00 -2.865708e-01 3.670904e-01 3.982715e-01 -1.219462e-01 3.040704e-01 4.399524e-02 6.310807e-01 3.233987e-01 2.287119e-01 3.369230e-01 -8.944080e-02 2.785980e-01 -1.424408e-03 -4.611469e-02 3.056031e-02 9.206602e-02 -3.161655e-01 -2.691783e-01 7.256178e-05
<VARIANCE> 38
 2.522706e+01 3.360204e+01 4.055967e+01 3.558093e+01 3.746508e+01 4.117528e+01 4.525359e+01 3.754739e+01 3.636843e+01 3.098025e+01 3.197426e+01 2.649482e+01 2.363132e+00 3.584042e+00 3.812328e+00 3.664835e+00 4.067729e+00 4.606813e+00 3.807573e+00 3.789418e+00 3.702511e+00 3.536294e+00 3.323078e+00 3.255826e+00 1.000000e-02 4.771500e-01 9.810454e-01 6.632578e-01 7.224828e-01 6.548223e-01 7.765698e-01 6.916900e-01 6.973955e-01 6.209137e-01 6.413689e-01 6.589355e-01 5.514789e-01 1.000000e-02
<GCONST> 1.136879e+02
<MIXTURE> 2 5.028475e-01
<MEAN> 38
 -1.427984e+00 1.343579e-01 2.460582e+00 1.302655e-01 8.674811e-02 -5.026136e+00 -3.047632e+00 -1.445033e+00 -3.349923e-02 -1.636602e+00 5.736673e-01 8.557001e-01 1.108149e+00 -2.592708e-01 -6.842613e-01 -9.711789e-01 -1.656528e+00 -1.515162e+00 -1.536420e+00 -2.039132e-01 5.634074e-01 4.040565e-01 -2.387699e-01 2.826161e-01 4.646464e-02 6.434460e-01 3.158832e-01 6.939861e-02 1.498177e-01 -1.537982e-01 2.239177e-01 -7.268527e-02 -6.198333e-02 3.114611e-02 1.932367e-01 -2.771980e-01 -2.555735e-01 1.176181e-03
<VARIANCE> 38
 2.136254e+01 2.706963e+01 3.693148e+01 3.068391e+01 4.178776e+01 4.376449e+01 4.474128e+01 3.791141e+01 3.696975e+01 3.183092e+01 3.205064e+01 2.637900e+01 2.857979e+00 3.491508e+00 3.642223e+00 3.218734e+00 3.826456e+00 4.482877e+00 4.088212e+00 4.398326e+00 4.040973e+00 3.867315e+00 4.494113e+00 3.386338e+00 1.000000e-02 5.221180e-01 9.185318e-01 5.957856e-01 6.261934e-01 7.793536e-01 9.029915e-01 7.699702e-01 7.410905e-01 6.600836e-01 7.102398e-01 7.998632e-01 5.936911e-01 1.000000e-02
<GCONST> 1.146096e+02
<STATE> 4
<NUMMIXES> 2
<SWEIGHTS> 1
 1.000000e+00
<MIXTURE> 1 4.483414e-01
<MEAN> 38
 2.839906e+00 1.180708e+00 2.767320e+00 2.944030e-01 -2.798692e+00 -5.659330e+00 -5.543176e+00 -1.885595e+00 1.310904e+00 7.450112e-01 2.488509e-01 7.121087e-01 1.017829e+00 -1.253072e-01 -2.581757e-01 -2.056457e-01 -8.904493e-01 7.798427e-02 -4.237350e-01 -6.508743e-02 3.158851e-01 5.541441e-01 -3.255160e-02 -1.345920e-01 2.230861e-02 -1.446368e-01 -4.852673e-02 2.135201e-02 7.814920e-02 2.848805e-01 4.109583e-01 3.290102e-01 8.160791e-02 -1.291681e-01 -1.137208e-01 -3.542319e-02 -9.249976e-02 -6.084496e-03
<VARIANCE> 38
 1.801598e+01 2.835219e+01 4.306863e+01 3.673342e+01 4.594144e+01 4.364687e+01 5.623787e+01 4.729402e+01 4.621921e+01 3.787384e+01 3.217598e+01 3.195739e+01 1.375549e+00 2.146838e+00 2.674404e+00 2.566602e+00 3.537497e+00 3.700342e+00 3.371793e+00 3.436898e+00 3.206483e+00 2.999833e+00 3.020017e+00 2.679748e+00 1.000000e-02 2.574608e-01 3.447217e-01 3.336309e-01 3.715764e-01 4.504465e-01 5.070257e-01 5.076458e-01 4.783200e-01 4.627020e-01 4.443188e-01 4.249536e-01 4.218315e-01 1.000000e-02
<GCONST> 1.058073e+02
<MIXTURE> 2 5.516458e-01
<MEAN> 38
 3.637969e+00 -6.247628e-01 8.236889e-01 -1.273964e+00 -3.972203e+00 -6.941378e+00 -6.371240e+00 -1.135823e+00 2.378834e+00 2.860202e-01 -1.683155e+00 6.375781e-03 1.110880e+00 -7.206947e-01 -6.483195e-01 -6.951158e-01 -7.798661e-01 3.461604e-01 -5.974259e-01 1.953014e-01 3.984722e-01 4.570699e-01 -4.220392e-01 -4.915602e-01 2.643509e-02 -2.619429e-01 -3.872890e-02 2.117291e-02 7.978655e-02 3.811645e-01 4.911236e-01 3.845423e-01 2.930746e-02 -2.212420e-01 -9.517414e-02 1.216428e-01 -8.950425e-02 -8.076521e-03
<VARIANCE> 38
 1.317644e+01 2.326129e+01 4.281531e+01 3.282926e+01 4.470180e+01 3.841856e+01 5.216545e+01 5.013542e+01 4.805289e+01 4.030542e+01 3.489914e+01 3.251520e+01 1.248412e+00 1.679021e+00 2.218383e+00 2.236265e+00 3.407074e+00 3.490337e+00 3.632528e+00 3.583784e+00 3.145126e+00 3.219476e+00 3.622265e+00 2.727039e+00 1.000000e-02 2.482176e-01 2.912263e-01 3.005078e-01 3.418504e-01 4.712752e-01 4.923323e-01 5.001924e-01 4.952014e-01 4.717771e-01 4.461466e-01 4.790327e-01 4.259427e-01 1.000000e-02
<GCONST> 1.046053e+02
<TRANSP> 5
 0.000000e+00 1.000000e+00 0.000000e+00 0.000000e+00 0.000000e+00
 0.000000e+00 7.193094e-01 2.806906e-01 0.000000e+00 0.000000e+00
 0.000000e+00 0.000000e+00 5.110770e-01 4.889230e-01 0.000000e+00
 0.000000e+00 0.000000e+00 0.000000e+00 4.681534e-01 5.318466e-01
 0.000000e+00 0.000000e+00 0.000000e+00 0.000000e+00 0.000000e+00
<ENDHMM>
~h "e"
<BEGINHMM>
<NUMSTATES> 5
<STATE> 2
<NUMMIXES> 2
<SWEIGHTS> 1
 1.000000e+00
<MIXTURE> 1 4.989092e-01
<MEAN> 38
 2.061399e+00 -1.415710e-02 9.617890e+00 -3.870456e+00 -1.260965e+01 -3.611645e+00 -1.257339e+00 -3.768383e+00 -2.256925e+00 3.433297e+00 9.140652e-01 1.123683e+00 -5.212036e-03 1.306100e-01 1.960789e-01 -1.989028e-02 -5.613632e-02 1.532933e-01 1.301556e-02 -1.164946e-01 -4.396365e-03 1.670980e-01 2.376447e-02 8.384765e-02 -2.406707e-04 8.005766e-03 2.312412e-02 -2.274599e-02 7.373431e-02 7.078617e-02 -1.002142e-02 8.013276e-03 1.958456e-02 -1.216651e-02 -4.190432e-02 -8.823929e-03 -6.709195e-03 -1.393337e-03
<VARIANCE> 38
 9.555861e+00 2.563546e+01 2.362508e+01 3.722087e+01 2.379153e+01 4.515084e+01 3.651672e+01 5.439766e+01 4.021416e+01 3.961640e+01 3.551234e+01 2.361810e+01 1.511922e-01 3.738345e-01 4.399725e-01 5.746976e-01 6.951405e-01 7.949993e-01 8.810903e-01 9.131479e-01 9.504579e-01 8.634544e-01 8.006990e-01 6.971455e-01 1.000000e-02 2.706994e-02 5.341675e-02 6.693427e-02 9.303158e-02 1.252939e-01 1.359495e-01 1.502584e-01 1.526979e-01 1.457718e-01 1.461391e-01 1.373275e-01 1.183576e-01 1.000000e-02
<GCONST> 6.831538e+01
<MIXTURE> 2 5.009802e-01
<MEAN> 38
 1.332526e+00 -8.055296e-01 8.641328e+00 -4.863522e+00 -1.361678e+01 -3.550948e+00 -1.494238e+00 -4.252040e+00 -2.961807e+00 2.584448e+00 -1.989803e-01 -5.813413e-01 -7.166789e-02 7.366076e-02 1.159055e-01 -1.279083e-01 -8.647718e-02 9.060369e-02 -4.116630e-02 -2.116570e-01 -1.107069e-01 1.585492e-02 -1.500423e-01 -1.131305e-01 1.060526e-04 1.676251e-02 1.598299e-02 -1.291552e-02 5.374436e-02 7.203487e-02 -3.344515e-02 -5.756481e-03 3.378282e-03 -2.439775e-02 -3.657488e-02 -1.284845e-02 1.009057e-02 -1.145337e-03
<VARIANCE> 38
 1.013293e+01 2.080050e+01 2.522474e+01 4.138638e+01 2.424960e+01 3.886610e+01 3.544989e+01 5.280666e+01 3.720412e+01 3.832306e+01 4.766539e+01 2.535435e+01 1.421216e-01 3.391717e-01 4.244770e-01 5.589849e-01 6.541585e-01 7.797977e-01 8.617167e-01 9.143059e-01 8.874612e-01 8.776113e-01 8.469889e-01 6.788074e-01 1.000000e-02 2.353378e-02 4.335734e-02 5.877344e-02 8.390931e-02 1.122540e-01 1.226747e-01 1.353825e-01 1.373166e-01 1.359987e-01 1.387142e-01 1.302251e-01 1.129181e-01 1.000000e-02
<GCONST> 6.682756e+01
<STATE> 3
<NUMMIXES> 2
<SWEIGHTS> 1
 1.000000e+00
<MIXTURE> 1 5.105274e-01
<MEAN> 38
 2.650778e+00 2.408225e+00 1.138753e+01 -2.294192e+00 -1.224093e+01 -2.786152e+00 -7.185419e-01 -5.884959e+00 -5.097334e+00 3.454954e+00 -2.550445e-01 3.894540e-01 1.929741e-01 1.950760e-01 -1.040686e-01 7.373491e-01 6.138236e-01 -2.490586e-01 3.135833e-01 3.888879e-01 -1.342753e-01 -3.026389e-01 1.140219e-01 9.958629e-02 -1.126883e-02 -4.901360e-02 4.205666e-02 -1.373806e-01 1.630736e-01 2.788924e-01 -8.918459e-02 3.535981e-02 1.801752e-01 1.604675e-01 -1.463427e-01 1.320180e-02 1.495640e-02 -3.142009e-03
<VARIANCE> 38
 9.284743e+00 2.498354e+01 2.430204e+01 3.909023e+01 2.773938e+01 5.134595e+01 4.214465e+01 5.852749e+01 5.079634e+01 4.122393e+01 4.340025e+01 2.969393e+01 3.435377e-01 8.649181e-01 9.159161e-01 1.206915e+00 1.403223e+00 1.646427e+00 1.801419e+00 1.907073e+00 1.823129e+00 1.674093e+00 1.634467e+00 1.333156e+00 1.000000e-02 6.363162e-02 1.402223e-01 1.481958e-01 2.033641e-01 2.582264e-01 2.921999e-01 3.319518e-01 3.454903e-01 3.271320e-01 2.933748e-01 2.984996e-01 2.426092e-01 1.000000e-02
<GCONST> 8.772525e+01
<MIXTURE> 2 4.894385e-01
<MEAN> 38
 1.764031e+00 9.572849e-01 8.931087e+00 -4.123146e+00 -1.320519e+01 -3.859885e+00 -1.450173e+00 -6.068283e+00 -4.816521e+00 1.692627e+00 -2.037788e+00 -1.017052e+00 2.202741e-01 -1.033893e-01 -3.180080e-01 3.962087e-01 4.071597e-01 -2.915980e-01 2.472072e-02 3.278889e-01 -2.190319e-01 -4.797322e-01 -8.624186e-02 -8.679543e-02 -5.115000e-03 2.952014e-02 1.185857e-03 -6.984302e-02 1.056489e-01 1.794153e-01 -5.162967e-02 -3.405163e-02 9.320339e-02 6.586488e-02 -7.264791e-02 3.196166e-02 2.507323e-02 -1.823967e-03
<VARIANCE> 38
 1.073244e+01 2.298099e+01 2.899571e+01 5.101980e+01 3.138672e+01 5.196322e+01 4.704583e+01 6.401768e+01 4.720312e+01 4.615817e+01 6.127262e+01 3.295247e+01 2.637079e-01 6.770521e-01 9.424353e-01 1.077137e+00 1.311271e+00 1.617187e+00 1.713736e+00 2.097855e+00 1.996130e+00 1.783289e+00 1.635673e+00 1.348855e+00 1.000000e-02 4.273681e-02 8.927155e-02 1.287763e-01 1.805410e-01 2.272597e-01 2.613085e-01 2.945754e-01 3.041564e-01 2.889749e-01 2.771681e-01 2.834515e-01 2.239463e-01 1.000000e-02
<GCONST> 8.667677e+01
<STATE> 4
<NUMMIXES> 2
<SWEIGHTS> 1
 1.000000e+00
<MIXTURE> 1 5.442224e-01
<MEAN> 38
 1.091423e+00 4.065032e+00 1.024437e+01 3.170380e+00 -5.661750e+00 -4.286941e+00 9.208293e-01 -2.671271e+00 -4.194716e+00 4.158952e-01 7.240271e-02 3.029103e-01 -9.106621e-01 4.026798e-01 -5.558119e-01 1.211506e+00 2.154656e+00 2.269288e-01 4.841982e-01 9.061378e-01 7.285475e-01 -5.381985e-01 -1.732500e-02 -1.418061e-02 -3.765804e-02 -2.729828e-01 -1.545231e-01 -1.640953e-01 -1.023052e-01 1.335603e-01 2.412426e-01 -3.264000e-02 2.591208e-02 1.491850e-01 8.065980e-02 -6.460418e-02 -3.776783e-02 -1.672695e-03
<VARIANCE> 38
 2.433639e+01 2.957410e+01 2.802071e+01 3.331803e+01 4.086741e+01 4.385308e+01 3.551762e+01 4.897046e+01 4.124789e+01 3.346246e+01 2.979935e+01 2.435675e+01 1.921621e+00 2.257159e+00 1.841960e+00 2.425367e+00 2.405923e+00 3.334233e+00 3.168919e+00 3.800320e+00 3.005509e+00 2.846363e+00 2.973445e+00 2.155389e+00 1.000000e-02 1.834875e-01 3.066543e-01 2.915167e-01 3.236161e-01 4.589202e-01 4.555076e-01 4.672488e-01 5.134634e-01 5.012767e-01 4.481278e-01 4.120312e-01 3.477889e-01 1.000000e-02
<GCONST> 1.026883e+02
<MIXTURE> 2 4.557450e-01
<MEAN> 38
 1.138477e+00 1.800008e+00 7.524700e+00 3.212994e+00 -4.916554e+00 -5.714290e+00 -7.996203e-01 -1.362771e+00 -3.398918e+00 -1.730670e+00 -1.204212e+00 -1.229476e-01 -6.258994e-01 5.744317e-02 -9.853211e-01 8.485647e-01 2.016630e+00 3.205487e-01 -1.910894e-01 5.883800e-01 7.970706e-01 -4.653671e-01 -4.082388e-01 -2.465672e-01 -2.863486e-02 -1.210859e-01 -6.651933e-02 -9.917833e-02 -2.392602e-01 -6.103436e-02 2.476729e-01 -3.036054e-04 -1.574025e-01 3.515676e-02 2.461906e-01 1.162581e-02 -6.532065e-02 3.414056e-04
<VARIANCE> 38
 2.915364e+01 3.061365e+01 3.532713e+01 4.671012e+01 4.729226e+01 4.397639e+01 4.280896e+01 5.883490e+01 4.591655e+01 3.449764e+01 3.746367e+01 2.856729e+01 2.482956e+00 1.912976e+00 1.877875e+00 2.642774e+00 2.604981e+00 3.377639e+00 3.397947e+00 3.891253e+00 3.296305e+00 2.940610e+00 2.790423e+00 2.149907e+00 1.000000e-02 1.748696e-01 2.958338e-01 2.847779e-01 3.791057e-01 5.314313e-01 4.663097e-01 4.796925e-01 5.648429e-01 5.147535e-01 4.555805e-01 4.519524e-01 3.758667e-01 1.000000e-02
<GCONST> 1.055146e+02
<TRANSP> 5
 0.000000e+00 1.000000e+00 0.000000e+00 0.000000e+00 0.000000e+00
 0.000000e+00 9.421206e-01 5.787948e-02 0.000000e+00 0.000000e+00
 0.000000e+00 0.000000e+00 7.979541e-01 2.020459e-01 0.000000e+00
 0.000000e+00 0.000000e+00 0.000000e+00 7.518116e-01 2.481884e-01
 0.000000e+00 0.000000e+00 0.000000e+00 0.000000e+00 0.000000e+00
<ENDHMM>
~h "f"
<BEGINHMM>
<NUMSTATES> 5
<STATE> 2
<NUMMIXES> 2
<SWEIGHTS> 1
 1.000000e+00
<MIXTURE> 1 5.296977e-01
<MEAN> 38
 -1.349509e+01 -6.193988e+00 -5.161475e+00 5.038001e+00 1.840481e+00 1.782678e+00 1.680010e+00 4.694298e+00 5.067810e+00 3.140123e+00 3.489676e+00 2.932997e+00 -3.111852e-01 -3.913950e-01 -3.319591e-01 -1.721012e-01 -8.203024e-03 1.621672e-01 2.142980e-01 3.442619e-01 4.403347e-01 4.759439e-01 4.259258e-01 3.183254e-01 -3.851272e-03 1.966776e-01 1.108866e-01 1.053451e-01 -9.589748e-03 4.422941e-02 1.209184e-02 7.931433e-03 -5.088534e-02 -7.056727e-02 -7.596531e-02 -7.284575e-02 -6.313250e-02 1.434273e-03
<VARIANCE> 38
 1.381650e+01 1.816601e+01 2.706591e+01 2.521183e+01 2.634069e+01 2.862173e+01 2.955925e+01 3.148602e+01 2.678917e+01 2.682165e+01 2.917075e+01 2.183178e+01 7.884622e-01 6.550812e-01 9.341524e-01 1.167225e+00 1.349361e+00 1.570960e+00 1.633454e+00 1.803363e+00 1.912666e+00 1.884832e+00 1.749046e+00 1.629720e+00 1.000000e-02 9.335095e-02 1.173245e-01 1.712815e-01 2.481348e-01 2.917760e-01 3.304195e-01 3.546343e-01 3.707547e-01 3.913369e-01 3.864635e-01 3.670669e-01 3.371837e-01 1.000000e-02
<GCONST> 8.674356e+01
<MIXTURE> 2 4.702134e-01
<MEAN> 38
 -1.322343e+01 -6.055923e+00 -5.864460e+00 4.854877e+00 2.003774e+00 1.782514e+00 9.835360e-01 3.668708e+00 4.494104e+00 2.558870e+00 1.946104e+00 2.250020e+00 -3.407556e-01 -6.006159e-01 -6.624205e-01 -5.283423e-01 -4.799317e-01 -3.871123e-01 -3.368784e-01 -1.476114e-01 5.311207e-02 1.423223e-01 1.394985e-01 1.539366e-01 -2.467891e-03 2.549407e-01 1.095671e-01 7.700744e-02 -8.044183e-02 -3.058803e-02 -5.851238e-02 -4.632436e-02 -8.428586e-02 -8.571915e-02 -5.830731e-02 -2.472364e-02 -2.532210e-02 2.266590e-03
<VARIANCE> 38
 1.489407e+01 1.854302e+01 2.807532e+01 2.623531e+01 2.545675e+01 2.886093e+01 2.705829e+01 3.020534e+01 2.558596e+01 2.538431e+01 2.568922e+01 2.090793e+01 1.023479e+00 7.628375e-01 1.046629e+00 1.309003e+00 1.457265e+00 1.629904e+00 1.688712e+00 1.775216e+00 1.870802e+00 1.851896e+00 1.729355e+00 1.614994e+00 1.000000e-02 9.932971e-02 1.168296e-01 1.806177e-01 2.824154e-01 3.247338e-01 3.393297e-01 3.574831e-01 3.730462e-01 3.853779e-01 3.751248e-01 3.588038e-01 3.326477e-01 1.000000e-02
<GCONST> 8.750784e+01
<STATE> 3
<NUMMIXES> 2
<SWEIGHTS> 1
 1.000000e+00
<MIXTURE> 1 5.525621e-01
<MEAN> 38
 -1.179852e+01 -7.851693e+00 -7.243861e+00 1.961861e+00 1.178176e+00 3.721319e-01 1.801719e-01 3.438070e+00 5.265558e+00 3.444741e+00 2.845281e+00 2.797596e+00 1.576933e+00 1.001651e+00 1.021042e+00 2.193842e-01 6.689005e-01 4.973806e-01 2.592627e-01 -3.053717e-01 -4.303985e-01 -4.078467e-01 -3.751009e-01 -4.748745e-01 5.019381e-03 7.122164e-01 6.317289e-01 3.924631e-01 1.013785e-01 1.449360e-02 1.135962e-01 -2.222707e-02 -2.778601e-01 -3.904452e-01 -2.763021e-01 -2.212435e-01 -2.039192e-01 1.261816e-02
<VARIANCE> 38
 1.840592e+01 1.789496e+01 3.554710e+01 2.554424e+01 3.161727e+01 3.705057e+01 3.263490e+01 3.940954e+01 2.987874e+01 2.966618e+01 2.948985e+01 2.272650e+01 1.839001e+00 1.444996e+00 1.501680e+00 1.728882e+00 1.870381e+00 2.327960e+00 2.203606e+00 2.184057e+00 2.286427e+00 2.225189e+00 2.145667e+00 1.923089e+00 1.000000e-02 2.396410e-01 2.010729e-01 2.665844e-01 3.662904e-01 4.400269e-01 4.982357e-01 5.090266e-01 4.980595e-01 4.845490e-01 4.859585e-01 4.893364e-01 4.277622e-01 1.000000e-02
<GCONST> 9.751653e+01
<MIXTURE> 2 4.474059e-01
<MEAN> 38
 -1.111749e+01 -7.505468e+00 -5.482796e+00 4.122049e+00 2.442155e+00 1.921147e+00 1.988077e+00 4.877697e+00 5.838251e+00 3.443871e+00 3.588880e+00 2.592282e+00 2.583875e+00 1.405970e+00 9.362205e-01 -1.981947e-01 -7.988146e-02 -4.677347e-01 -8.654093e-01 -1.487018e+00 -1.504758e+00 -1.372839e+00 -1.366836e+00 -1.170851e+00 3.407688e-02 9.105144e-01 5.319667e-01 7.698048e-02 -3.658801e-01 -3.608965e-01 -1.774889e-01 -4.051684e-01 -5.684896e-01 -5.857216e-01 -3.216490e-01 -3.410352e-01 -2.642370e-01 2.040270e-02
<VARIANCE> 38
 1.655305e+01 1.525944e+01 3.059629e+01 2.344415e+01 3.223594e+01 3.338562e+01 2.962413e+01 3.300558e+01 2.908068e+01 2.610189e+01 2.707574e+01 2.150155e+01 2.309574e+00 1.747901e+00 1.726863e+00 1.838873e+00 1.833964e+00 2.217655e+00 2.191459e+00 2.438397e+00 2.543987e+00 2.213668e+00 2.334098e+00 2.071425e+00 1.000000e-02 1.967914e-01 2.271449e-01 3.158404e-01 4.345548e-01 4.338717e-01 4.623454e-01 4.666881e-01 4.954883e-01 4.782653e-01 4.856701e-01 4.848340e-01 4.221649e-01 1.000000e-02
<GCONST> 9.732497e+01
<STATE> 4
<NUMMIXES> 2
<SWEIGHTS> 1
 1.000000e+00
<MIXTURE> 1 4.030339e-01
<MEAN> 38
 3.959838e-01 -6.464538e-01 -3.952861e+00 2.611229e-01 6.583205e-01 1.404279e+00 -8.847188e-01 -1.231426e+00 2.317663e-01 5.740106e-01 1.335793e-01 -7.554159e-03 2.281668e+00 8.581917e-01 3.452384e-01 -9.911883e-01 -4.407428e-01 3.357128e-01 6.364883e-02 -4.436468e-01 -5.638996e-01 2.185072e-02 1.556157e-01 -1.071536e-02 3.628195e-02 -4.669558e-01 -3.591653e-01 -1.217503e-01 1.473409e-02 -1.444708e-02 3.402892e-02 9.963448e-02 2.590090e-01 2.444888e-01 1.568454e-01 1.781055e-01 1.287178e-01 -4.633357e-03
<VARIANCE> 38
 7.201505e+01 2.447645e+01 4.363462e+01 5.190208e+01 4.259656e+01 4.614951e+01 3.818906e+01 4.347878e+01 3.785259e+01 3.189284e+01 3.111862e+01 2.721702e+01 3.856721e+00 3.129881e+00 2.713119e+00 3.455374e+00 2.935448e+00 3.135253e+00 3.119193e+00 3.061743e+00 3.012095e+00 3.135644e+00 2.620250e+00 2.181676e+00 1.000000e-02 5.837897e-01 3.483742e-01 3.694562e-01 5.887791e-01 5.616339e-01 5.136577e-01 5.582914e-01 5.549238e-01 5.113476e-01 5.001686e-01 4.749420e-01 4.105131e-01 1.000000e-02
<GCONST> 1.093273e+02
<MIXTURE> 2 5.969205e-01
<MEAN> 38
 1.833880e+00 -2.097175e-01 -2.504842e+00 1.464169e+00 -3.807099e-01 -2.358665e-01 -2.140919e+00 -2.299577e+00 -1.591582e+00 -1.812184e+00 -1.371140e+00 -1.667080e+00 3.930526e+00 1.283866e+00 -1.064957e-01 -2.037594e+00 -1.460104e+00 -4.380286e-01 -1.247116e+00 -1.646676e+00 -1.720680e+00 -6.288463e-01 -8.413323e-01 -8.822519e-01 7.759520e-02 -5.463067e-01 -6.216841e-01 -4.187996e-01 -3.106247e-01 -1.191574e-01 1.464273e-01 1.275512e-01 3.906361e-01 4.148581e-01 5.105933e-01 3.791935e-01 3.151277e-01 -6.233171e-03
<VARIANCE> 38
 3.698888e+01 1.805797e+01 4.732053e+01 4.562210e+01 3.987199e+01 4.298309e+01 3.214937e+01 3.213677e+01 3.322416e+01 2.661812e+01 2.408506e+01 2.167645e+01 2.113430e+00 3.319619e+00 3.017952e+00 3.683174e+00 2.863317e+00 3.624230e+00 3.433706e+00 4.185509e+00 3.589561e+00 3.756501e+00 3.966717e+00 2.757048e+00 1.000000e-02 5.002514e-01 2.586235e-01 2.980774e-01 5.558197e-01 4.874944e-01 4.430174e-01 4.864861e-01 5.313057e-01 4.993876e-01 4.756970e-01 4.367172e-01 3.802541e-01 1.000000e-02
<GCONST> 1.066340e+02
<TRANSP> 5
 0.000000e+00 1.000000e+00 0.000000e+00 0.000000e+00 0.000000e+00
 0.000000e+00 9.030601e-01 9.693993e-02 0.000000e+00 0.000000e+00
 0.000000e+00 0.000000e+00 6.654863e-01 3.345137e-01 0.000000e+00
 0.000000e+00 0.000000e+00 0.000000e+00 6.810108e-01 3.189892e-01
 0.000000e+00 0.000000e+00 0.000000e+00 0.000000e+00 0.000000e+00
<ENDHMM>
~h "g"
<BEGINHMM>
<NUMSTATES> 5
<STATE> 2
<NUMMIXES> 2
<SWEIGHTS> 1
 1.000000e+00
<MIXTURE> 1 5.872100e-01
<MEAN> 38
 3.581065e+00 1.067858e+01 9.241790e+00 5.264946e+00 -1.750001e+00 -3.330544e+00 1.879227e+00 -1.371246e+00 -3.408753e+00 5.316821e-01 -1.619169e+00 -2.536741e+00 -3.363360e-01 3.227676e-01 -2.616435e-01 5.816625e-01 1.328460e+00 6.605246e-01 1.122505e-01 -4.047752e-02 5.316488e-01 -2.268131e-01 -8.468027e-02 1.090777e-01 -3.296932e-02 -5.258878e-02 -4.874347e-01 -4.174750e-01 -1.458993e-01 1.490221e-01 1.804532e-01 -1.220912e-01 -8.824106e-05 4.209580e-02 6.165720e-02 2.551625e-02 9.574445e-02 2.315601e-03
<VARIANCE> 38
 2.383548e+01 3.184570e+01 3.804726e+01 2.784755e+01 4.150220e+01 3.825653e+01 3.083944e+01 4.175875e+01 4.604869e+01 3.242904e+01 3.223457e+01 2.790443e+01 1.055444e+00 2.351595e+00 2.323009e+00 1.999688e+00 2.958366e+00 2.355602e+00 2.670110e+00 3.108753e+00 2.729519e+00 2.107905e+00 1.988497e+00 1.990222e+00 1.000000e-02 1.483693e-01 3.810564e-01 4.138274e-01 3.397816e-01 4.991636e-01 4.356127e-01 5.076320e-01 5.707945e-01 5.371390e-01 3.999726e-01 3.629034e-01 4.025659e-01 1.000000e-02
<GCONST> 1.014356e+02
<MIXTURE> 2 4.127907e-01
<MEAN> 38
 3.964285e+00 9.765483e+00 8.318604e+00 4.030619e+00 -2.721653e+00 -3.634502e+00 5.156624e-01 -2.342748e+00 -4.248353e+00 -2.883038e-01 -3.055384e+00 -3.428480e+00 -4.258132e-01 1.856547e-01 -3.017550e-01 7.831652e-01 1.559338e+00 3.212710e-01 -1.407584e-01 -2.307125e-01 4.503387e-01 -4.974520e-01 -1.635137e-01 -1.674550e-01 -3.276704e-02 -1.141475e-01 -6.173222e-01 -5.035025e-01 -1.797070e-01 1.905435e-01 1.742151e-01 -1.277976e-01 6.212308e-03 6.187693e-02 1.126775e-01 1.394904e-01 1.941632e-01 2.745602e-03
<VARIANCE> 38
 2.438129e+01 3.304429e+01 4.688518e+01 3.274783e+01 4.419325e+01 4.468046e+01 4.200373e+01 5.057578e+01 4.245314e+01 3.601450e+01 4.928060e+01 3.065136e+01 1.617995e+00 3.834687e+00 3.291104e+00 2.691837e+00 4.926868e+00 4.002503e+00 3.425847e+00 3.640712e+00 3.349081e+00 2.870807e+00 2.844403e+00 2.474329e+00 1.000000e-02 1.929057e-01 5.613874e-01 5.271894e-01 3.915750e-01 6.525966e-01 5.998774e-01 6.557696e-01 6.226143e-01 5.329916e-01 5.144173e-01 5.208675e-01 4.231974e-01 1.000000e-02
<GCONST> 1.098451e+02
<STATE> 3
<NUMMIXES> 2
<SWEIGHTS> 1
 1.000000e+00
<MIXTURE> 1 4.989937e-01
<MEAN> 38
 8.782215e-01 5.779201e+00 3.147515e+00 6.630199e+00 5.840626e+00 1.790822e+00 1.332620e+00 -1.309321e+00 -1.933774e+00 -9.583061e-01 -1.427150e+00 -1.570129e+00 -5.220355e-01 -1.138836e+00 -1.446664e+00 2.784775e-02 1.062776e+00 7.766806e-01 2.844877e-01 1.851980e-01 6.304330e-01 3.150436e-01 2.916463e-01 2.917246e-01 -2.584510e-02 1.325053e-01 -7.748024e-02 -6.243959e-02 -3.487844e-01 -5.822763e-01 -3.040763e-01 -4.576875e-03 8.304937e-02 -3.092311e-02 1.959437e-01 1.291084e-01 7.805439e-02 1.025975e-02
<VARIANCE> 38
 2.898971e+01 4.409614e+01 6.159955e+01 4.025925e+01 4.143492e+01 5.309326e+01 4.424754e+01 3.896800e+01 3.478746e+01 2.842665e+01 2.723619e+01 2.083245e+01 1.681293e+00 4.657155e+00 5.247359e+00 3.327105e+00 3.950629e+00 3.959107e+00 3.528714e+00 3.465754e+00 3.147803e+00 2.871758e+00 2.608440e+00 1.965804e+00 1.000000e-02 2.896242e-01 9.728338e-01 1.151656e+00 7.313757e-01 6.710883e-01 8.868346e-01 7.746360e-01 5.695687e-01 6.398528e-01 5.331815e-01 4.644639e-01 3.609463e-01 1.000000e-02
<GCONST> 1.123557e+02
<MIXTURE> 2 5.010049e-01
<MEAN> 38
 2.211380e-01 4.306916e+00 2.133881e+00 6.775449e+00 6.513608e+00 9.798424e-01 1.321675e+00 -1.184845e+00 -2.486290e+00 -5.767912e-01 -1.837381e+00 -1.367653e+00 -6.831841e-01 -2.870085e+00 -2.870348e+00 -4.831245e-01 1.438216e+00 6.735569e-01 -3.400345e-01 2.393518e-01 3.763662e-01 3.817627e-01 4.037949e-01 4.377613e-01 -1.134123e-02 2.213848e-01 -2.477534e-03 -1.027927e-01 -5.191243e-01 -7.658063e-01 -2.822141e-01 -1.289759e-01 -3.702700e-02 -8.916885e-02 1.514944e-01 1.857554e-01 6.322834e-02 1.332572e-02
<VARIANCE> 38
 2.885670e+01 5.520123e+01 7.157560e+01 4.692793e+01 4.534924e+01 5.900941e+01 4.485999e+01 3.896587e+01 3.505795e+01 2.584969e+01 2.828713e+01 2.309011e+01 2.533246e+00 5.927924e+00 6.219316e+00 6.242536e+00 6.666580e+00 6.077528e+00 5.211460e+00 4.353425e+00 4.306942e+00 3.491922e+00 3.823422e+00 2.491012e+00 1.000000e-02 2.685056e-01 1.198349e+00 1.147078e+00 7.906197e-01 8.006226e-01 9.370552e-01 8.078002e-01 6.324271e-01 6.900092e-01 4.937554e-01 5.209758e-01 3.954788e-01 1.000000e-02
<GCONST> 1.180802e+02
<STATE> 4
<NUMMIXES> 2
<SWEIGHTS> 1
 1.000000e+00
<MIXTURE> 1 5.945195e-01
<MEAN> 38
 -7.284684e-01 -5.537916e-01 -2.800704e+00 2.757345e+00 3.632681e+00 -6.003681e-01 -7.631258e-01 -8.966806e-01 -6.114157e-01 1.372976e+00 1.413207e+00 9.494368e-01 1.509660e-01 6.386068e-01 6.130300e-01 1.448165e-01 -3.321036e-01 -2.347148e-01 2.615395e-01 -1.036062e-01 2.491525e-01 1.284780e-01 2.163430e-01 8.459189e-02 4.014782e-03 4.929144e-02 3.731398e-01 4.715829e-01 1.818678e-01 -9.387687e-02 6.672111e-02 2.027325e-01 3.859667e-02 -1.013774e-01 -1.366689e-01 -1.319528e-01 -1.190474e-01 1.947301e-03
<VARIANCE> 38
 3.847073e+01 5.325435e+01 7.139085e+01 4.757009e+01 5.430746e+01 5.480299e+01 6.371083e+01 5.049758e+01 4.033905e+01 3.509578e+01 3.141905e+01 3.047067e+01 1.865736e+00 3.636511e+00 4.479266e+00 3.555623e+00 3.776720e+00 3.927380e+00 4.067512e+00 3.507268e+00 3.156181e+00 2.867859e+00 2.525383e+00 2.102008e+00 1.000000e-02 3.773008e-01 9.206644e-01 1.028198e+00 7.814073e-01 8.869856e-01 8.798143e-01 9.563805e-01 7.422622e-01 7.258794e-01 6.121233e-01 5.514742e-01 4.389123e-01 1.000000e-02
<GCONST> 1.163915e+02
<MIXTURE> 2 4.054778e-01
<MEAN> 38
 -1.128530e+00 -1.935024e+00 -2.399351e+00 2.994613e+00 2.553727e+00 -1.513579e+00 -2.778533e-02 -8.604894e-01 -1.458969e+00 1.364351e+00 6.271712e-01 6.050166e-01 7.511195e-01 -2.959044e-01 -3.526240e-01 -8.339467e-01 -1.266505e+00 -8.023327e-01 -8.996607e-01 -6.236812e-01 -3.532389e-01 -9.183217e-02 1.232682e-01 -1.869002e-01 3.852647e-02 1.809335e-01 5.132048e-01 4.130714e-01 9.396000e-02 -1.974765e-01 -4.247581e-02 1.535258e-02 -5.669234e-02 -7.670613e-02 -1.060940e-01 -6.826282e-02 -1.562815e-01 1.952704e-03
<VARIANCE> 38
 4.057512e+01 5.746557e+01 7.339454e+01 4.608712e+01 6.667707e+01 5.492265e+01 5.856821e+01 5.819673e+01 4.979193e+01 3.767444e+01 3.332618e+01 3.220753e+01 2.333202e+00 6.099078e+00 5.876600e+00 4.264133e+00 4.814431e+00 4.755212e+00 5.465416e+00 4.992446e+00 4.646343e+00 3.679746e+00 4.079847e+00 2.647422e+00 1.000000e-02 4.290512e-01 1.358214e+00 1.240838e+00 7.722200e-01 1.011033e+00 8.022498e-01 8.609201e-01 8.628556e-01 8.457909e-01 6.580791e-01 7.290819e-01 4.767331e-01 1.000000e-02
<GCONST> 1.221653e+02
<TRANSP> 5
 0.000000e+00 1.000000e+00 0.000000e+00 0.000000e+00 0.000000e+00
 0.000000e+00 6.845405e-01 3.154596e-01 0.000000e+00 0.000000e+00
 0.000000e+00 0.000000e+00 5.873144e-01 4.126855e-01 0.000000e+00
 0.000000e+00 0.000000e+00 0.000000e+00 7.346828e-01 2.653172e-01
 0.000000e+00 0.000000e+00 0.000000e+00 0.000000e+00 0.000000e+00
<ENDHMM>
~h "h"
<BEGINHMM>
<NUMSTATES> 5
<STATE> 2
<NUMMIXES> 2
<SWEIGHTS> 1
 1.000000e+00
<MIXTURE> 1 5.215696e-01
<MEAN> 38
 1.700041e+00 -4.365588e+00 -1.059925e+00 2.422105e+00 5.739485e+00 6.000746e+00 4.694890e+00 5.435688e-01 3.613255e-01 -1.882074e+00 -2.874593e+00 -1.225308e+00 9.379295e-02 -5.544763e-02 -1.086281e-01 -9.775297e-02 -1.478888e-02 1.703479e-01 1.414096e-01 -1.210532e-01 -7.658213e-02 1.514421e-02 1.218604e-01 2.711466e-02 4.377240e-03 3.193559e-02 4.032530e-02 -2.016600e-02 -5.793722e-02 -1.077812e-01 -1.059584e-01 -8.075953e-02 7.598556e-03 5.863720e-03 2.385748e-02 3.325819e-02 3.668561e-03 5.999476e-04
<VARIANCE> 38
 1.407969e+01 2.189259e+01 4.179239e+01 3.387648e+01 6.524953e+01 5.148087e+01 5.018069e+01 4.084478e+01 3.726210e+01 3.750169e+01 3.112231e+01 2.881569e+01 3.555496e-01 5.193152e-01 8.603784e-01 1.105037e+00 1.485955e+00 1.522949e+00 1.676175e+00 1.679630e+00 1.689292e+00 1.684471e+00 1.547753e+00 1.403230e+00 1.000000e-02 4.764026e-02 7.636560e-02 1.337076e-01 1.782142e-01 2.303661e-01 2.683729e-01 2.919653e-01 3.143903e-01 3.177159e-01 3.162668e-01 2.962756e-01 2.738952e-01 1.000000e-02
<GCONST> 8.600054e+01
<MIXTURE> 2 4.784066e-01
<MEAN> 38
 2.116806e+00 -4.928842e+00 -1.147394e+00 1.752368e+00 4.036586e+00 3.650134e+00 2.689608e+00 -9.163851e-01 -1.601143e+00 -3.948829e+00 -4.235523e+00 -2.535370e+00 3.462468e-01 -1.852881e-01 -4.587533e-01 -4.221530e-01 -3.992003e-01 -7.503942e-02 -4.712680e-02 -1.194608e-01 -9.276502e-02 5.381394e-03 -4.331394e-02 -2.449543e-01 1.221505e-02 -5.767819e-02 -3.225646e-02 -6.072928e-02 -2.989794e-02 -2.953790e-02 -2.299791e-02 1.933974e-02 6.991905e-02 7.492731e-02 6.655872e-02 6.352725e-02 4.894335e-02 -1.529239e-03
<VARIANCE> 38
 1.520992e+01 2.282443e+01 4.009998e+01 3.343807e+01 6.909683e+01 4.549795e+01 5.530666e+01 4.369650e+01 4.291755e+01 4.322679e+01 2.939234e+01 2.752925e+01 4.286260e-01 6.377648e-01 1.002782e+00 1.281801e+00 1.665819e+00 1.633198e+00 1.816870e+00 1.767279e+00 1.727362e+00 1.640835e+00 1.554466e+00 1.406125e+00 1.000000e-02 9.738266e-02 1.002566e-01 1.527223e-01 2.048493e-01 2.627790e-01 2.812375e-01 3.166536e-01 3.228232e-01 3.254887e-01 3.162853e-01 2.893772e-01 2.695008e-01 1.000000e-02
<GCONST> 8.888607e+01
<STATE> 3
<NUMMIXES> 2
<SWEIGHTS> 1
 1.000000e+00
<MIXTURE> 1 4.725670e-01
<MEAN> 38
 4.800905e+00 -1.874488e+00 -1.949865e+00 -1.679083e+00 -1.224157e+00 2.534323e+00 3.363210e+00 8.167925e-01 -9.106962e-01 -1.727936e+00 -1.453857e+00 -1.050779e+00 2.031040e-01 -5.371333e-02 -1.807668e-01 -2.945780e-01 -3.565585e-01 -1.647458e-01 -1.093170e-01 1.396734e-01 9.268817e-02 9.838622e-02 1.797183e-01 3.886998e-02 8.625407e-03 -3.678381e-02 2.360870e-02 4.452618e-02 6.163235e-02 3.788327e-02 -2.403608e-02 -4.599656e-02 -1.634578e-02 2.405583e-02 2.545735e-02 1.985324e-02 1.528067e-02 -1.467196e-03
<VARIANCE> 38
 1.804384e+01 4.541226e+01 5.070933e+01 4.164017e+01 4.884412e+01 5.767199e+01 4.859589e+01 4.835276e+01 3.933867e+01 3.259653e+01 3.144967e+01 3.020592e+01 2.376181e-01 5.983543e-01 7.535592e-01 9.317018e-01 1.103572e+00 1.205846e+00 1.346490e+00 1.345382e+00 1.286764e+00 1.233423e+00 1.116132e+00 1.051842e+00 1.000000e-02 4.740693e-02 9.182838e-02 1.171896e-01 1.637934e-01 1.840003e-01 1.978260e-01 2.316717e-01 2.449140e-01 2.367698e-01 2.062544e-01 2.050916e-01 1.923055e-01 1.000000e-02
<GCONST> 8.208427e+01
<MIXTURE> 2 5.274268e-01
<MEAN> 38
 4.457889e+00 -3.413480e+00 -2.194647e+00 -1.472387e+00 -1.001695e+00 2.052212e+00 2.306987e+00 -1.653568e-01 -2.153361e+00 -3.111367e+00 -3.294235e+00 -2.579374e+00 2.497385e-01 -2.464920e-01 -4.195769e-01 -4.450155e-01 -4.545022e-01 -2.404730e-01 -1.868527e-01 1.249396e-01 5.747571e-02 6.937391e-02 5.425873e-02 -1.500389e-01 1.049383e-02 -5.316281e-02 -1.141650e-02 4.476907e-02 6.030263e-02 4.695857e-02 -2.043568e-02 -2.123156e-02 1.936517e-02 4.911719e-02 3.411536e-02 2.665957e-02 3.932895e-02 -1.817131e-03
<VARIANCE> 38
 1.490975e+01 3.897410e+01 4.581856e+01 3.578713e+01 5.474199e+01 4.572158e+01 4.914604e+01 4.855192e+01 4.155228e+01 3.507839e+01 3.111089e+01 2.886258e+01 2.510635e-01 5.692649e-01 8.152559e-01 9.576308e-01 1.182467e+00 1.262420e+00 1.342662e+00 1.383297e+00 1.253055e+00 1.195678e+00 1.109176e+00 1.068417e+00 1.000000e-02 4.463394e-02 8.458546e-02 1.159819e-01 1.516656e-01 1.850628e-01 1.967313e-01 2.295673e-01 2.419342e-01 2.262654e-01 2.056502e-01 2.042342e-01 1.895530e-01 1.000000e-02
<GCONST> 8.134184e+01
<STATE> 4
<NUMMIXES> 2
<SWEIGHTS> 1
 1.000000e+00
<MIXTURE> 1 4.497843e-01
<MEAN> 38
 4.254866e+00 -2.649334e+00 -1.683610e+00 -1.862292e+00 -2.620365e+00 9.408250e-01 3.234107e+00 1.377101e+00 -4.779341e-01 -1.175828e+00 -1.246509e+00 -1.154336e+00 2.900690e-01 5.777556e-02 3.590761e-02 -1.994434e-01 -4.489080e-01 -2.430367e-01 -2.362493e-01 -4.908988e-02 9.689188e-02 2.266255e-01 2.608106e-01 7.989817e-02 1.306440e-02 -1.014469e-02 9.350543e-02 1.093036e-01 6.981023e-02 5.280472e-02 4.069858e-02 -1.769510e-02 -8.503769e-02 -5.402311e-02 -3.633668e-03 -1.981534e-02 1.857805e-02 -1.224832e-03
<VARIANCE> 38
 2.061478e+01 5.110239e+01 6.298356e+01 4.242693e+01 5.528920e+01 6.805465e+01 4.977538e+01 5.275839e+01 3.944582e+01 3.455027e+01 3.398839e+01 3.103177e+01 3.891470e-01 1.103553e+00 1.120782e+00 1.255374e+00 1.470447e+00 1.521472e+00 1.563259e+00 1.522305e+00 1.544412e+00 1.478981e+00 1.388444e+00 1.273002e+00 1.000000e-02 6.801251e-02 1.568639e-01 1.715351e-01 2.417622e-01 2.664389e-01 2.600489e-01 2.899795e-01 2.975705e-01 2.822978e-01 2.628119e-01 2.590140e-01 2.364041e-01 1.000000e-02
<GCONST> 9.009102e+01
<MIXTURE> 2 5.502183e-01
<MEAN> 38
 4.854786e+00 -3.316740e+00 -2.541075e+00 -1.690506e+00 -1.528545e+00 1.551814e+00 2.028154e+00 -3.141000e-02 -1.451377e+00 -2.456124e+00 -2.864578e+00 -2.580368e+00 3.264736e-01 -2.506989e-01 -3.874900e-01 -4.810879e-01 -5.916777e-01 -3.084392e-01 -3.055343e-01 1.276369e-02 6.037471e-02 1.112784e-01 1.024773e-01 -1.195075e-01 1.307556e-02 -5.544498e-02 -8.525112e-03 7.261723e-02 5.035433e-02 5.457721e-02 3.868109e-02 1.642474e-02 -1.930763e-02 -1.169397e-02 1.156665e-02 3.935019e-03 4.101033e-02 -2.012189e-03
<VARIANCE> 38
 1.528542e+01 4.589033e+01 5.436575e+01 3.879380e+01 6.459499e+01 5.462495e+01 5.085379e+01 5.301703e+01 4.031353e+01 3.503740e+01 3.324098e+01 2.960645e+01 3.559384e-01 8.837794e-01 1.103196e+00 1.226812e+00 1.469306e+00 1.529685e+00 1.559155e+00 1.571459e+00 1.438002e+00 1.389375e+00 1.260799e+00 1.154520e+00 1.000000e-02 4.206229e-02 1.261688e-01 1.639709e-01 1.943498e-01 2.361071e-01 2.388947e-01 2.732736e-01 2.774986e-01 2.518029e-01 2.350097e-01 2.302854e-01 2.130947e-01 1.000000e-02
<GCONST> 8.698783e+01
<TRANSP> 5
 0.000000e+00 1.000000e+00 0.000000e+00 0.000000e+00 0.000000e+00
 0.000000e+00 7.729321e-01 2.270679e-01 0.000000e+00 0.000000e+00
 0.000000e+00 0.000000e+00 5.760621e-01 4.239379e-01 0.000000e+00
 0.000000e+00 0.000000e+00 0.000000e+00 2.855270e-01 7.144730e-01
 0.000000e+00 0.000000e+00 0.000000e+00 0.000000e+00 0.000000e+00
<ENDHMM>
~h "i"
<BEGINHMM>
<NUMSTATES> 5
<STATE> 2
<NUMMIXES> 2
<SWEIGHTS> 1
 1.000000e+00
<MIXTURE> 1 4.808537e-01
<MEAN> 38
 1.181440e+00 5.504123e+00 1.470907e+01 4.798825e-02 -1.009186e+01 -7.519228e-01 -2.515978e+00 -8.250489e+00 -7.316867e+00 4.598573e-01 -5.894473e-01 -7.745193e-01 1.354654e-01 4.842399e-01 7.193520e-01 -6.743853e-01 -6.782959e-01 9.033424e-01 -5.325640e-01 -6.229773e-01 7.018086e-02 3.444047e-01 -3.438047e-01 -3.092311e-02 1.180636e-02 -1.522723e-01 -4.290481e-02 -2.937703e-01 1.422254e-01 4.301960e-01 -9.578356e-02 1.128291e-01 2.505922e-01 2.041566e-01 -5.854453e-02 -8.556766e-03 3.940415e-02 -5.520256e-03
<VARIANCE> 38
 1.418685e+01 2.263238e+01 2.226818e+01 4.745072e+01 2.970955e+01 4.511674e+01 3.797187e+01 4.748149e+01 4.222939e+01 4.058282e+01 3.951846e+01 2.785467e+01 9.044566e-01 1.117543e+00 1.227699e+00 1.686113e+00 2.255576e+00 2.119884e+00 2.356245e+00 2.298476e+00 2.303723e+00 2.137210e+00 2.009388e+00 1.749497e+00 1.000000e-02 1.932591e-01 2.349780e-01 2.302594e-01 3.107255e-01 3.572264e-01 4.288388e-01 4.452313e-01 4.462489e-01 4.148507e-01 3.829820e-01 3.775596e-01 2.968403e-01 1.000000e-02
<GCONST> 9.610552e+01
<MIXTURE> 2 5.191121e-01
<MEAN> 38
 7.618893e-01 4.722079e+00 1.341065e+01 -1.067908e+00 -1.065714e+01 -1.949024e+00 -3.429305e+00 -9.425472e+00 -7.814524e+00 -5.533597e-01 -2.500874e+00 -2.113506e+00 3.310447e-01 2.522980e-01 7.093990e-01 -8.651329e-01 -1.038216e+00 8.184801e-01 -7.485157e-01 -7.844951e-01 -1.732964e-01 2.980731e-01 -6.401137e-01 -2.487085e-01 1.849771e-02 -2.172258e-01 -5.358329e-02 -2.998354e-01 1.154575e-01 4.407172e-01 3.133539e-02 1.630872e-01 3.144360e-01 2.714989e-01 2.196818e-02 5.071105e-02 8.598514e-02 -6.882575e-03
<VARIANCE> 38
 1.354925e+01 2.056109e+01 2.281092e+01 4.980972e+01 2.918967e+01 3.816409e+01 3.792578e+01 5.271552e+01 3.767415e+01 3.739091e+01 5.158759e+01 3.104310e+01 1.303863e+00 1.255911e+00 1.439481e+00 2.015552e+00 2.594639e+00 2.490498e+00 2.822022e+00 2.845560e+00 2.714869e+00 2.477850e+00 2.879219e+00 2.083342e+00 1.000000e-02 2.449701e-01 2.754784e-01 2.498021e-01 3.342158e-01 3.846941e-01 4.236095e-01 4.942248e-01 5.313070e-01 4.590913e-01 4.279626e-01 4.816868e-01 3.257042e-01 1.000000e-02
<GCONST> 9.993482e+01
<STATE> 3
<NUMMIXES> 2
<SWEIGHTS> 1
 1.000000e+00
<MIXTURE> 1 4.080658e-01
<MEAN> 38
 9.000375e-01 8.371405e+00 1.534998e+01 -1.456264e+00 -8.583010e+00 1.210437e+00 -3.431976e+00 -8.920174e+00 -5.079443e+00 6.145542e-01 -2.459166e+00 -6.792846e-01 -3.397427e-02 1.512107e-01 -1.621580e-01 4.470229e-01 4.558104e-01 -2.801544e-01 4.192970e-01 3.441249e-01 1.424483e-01 -5.381184e-03 1.607241e-01 6.374617e-02 -1.102551e-02 -4.150443e-02 -6.574733e-02 -1.413240e-01 1.664872e-01 1.924260e-01 -1.053255e-01 8.710207e-02 1.447483e-01 2.038437e-02 -6.228033e-02 5.155862e-02 1.695677e-04 -3.234735e-03
<VARIANCE> 38
 1.286967e+01 2.256681e+01 2.207883e+01 4.440699e+01 3.562196e+01 3.984009e+01 3.901558e+01 4.125325e+01 5.011416e+01 3.960172e+01 3.928743e+01 3.160692e+01 4.523655e-01 7.544733e-01 8.069172e-01 1.354481e+00 1.469574e+00 1.641326e+00 1.793358e+00 1.674836e+00 1.566030e+00 1.492309e+00 1.544934e+00 1.250476e+00 1.000000e-02 6.495693e-02 1.098736e-01 1.402193e-01 1.878366e-01 2.554367e-01 2.720788e-01 2.830960e-01 2.948339e-01 2.833674e-01 2.687314e-01 2.548552e-01 2.214180e-01 1.000000e-02
<GCONST> 8.587012e+01
<MIXTURE> 2 5.918638e-01
<MEAN> 38
 2.151331e-01 6.584332e+00 1.425047e+01 -3.171287e+00 -9.986940e+00 7.844428e-01 -5.181460e+00 -9.855801e+00 -5.819857e+00 -6.498389e-01 -4.582477e+00 -1.990571e+00 2.294667e-02 -2.425729e-03 -8.875222e-02 1.276864e-01 4.964416e-02 -1.369098e-01 1.204781e-01 7.798654e-02 -1.774906e-02 -3.044355e-02 -9.059266e-03 -1.422347e-02 -3.464054e-03 1.542320e-02 -4.101905e-02 -7.985217e-02 1.212630e-01 6.910958e-02 -1.250235e-01 1.079429e-01 7.774777e-02 -1.202497e-02 -1.258269e-02 9.427460e-02 1.411434e-02 -2.176270e-03
<VARIANCE> 38
 1.132034e+01 2.130035e+01 2.560805e+01 5.049213e+01 3.296843e+01 3.645140e+01 3.968877e+01 4.530046e+01 4.406880e+01 4.307249e+01 5.913069e+01 3.383758e+01 2.356893e-01 5.365177e-01 5.697638e-01 8.320559e-01 9.636379e-01 1.148207e+00 1.161062e+00 1.199600e+00 1.167366e+00 1.188113e+00 1.178744e+00 1.002952e+00 1.000000e-02 3.607976e-02 6.702167e-02 9.003179e-02 1.275345e-01 1.659600e-01 1.769907e-01 2.008287e-01 2.079490e-01 2.027297e-01 2.044665e-01 2.036778e-01 1.685999e-01 1.000000e-02
<GCONST> 7.737778e+01
<STATE> 4
<NUMMIXES> 2
<SWEIGHTS> 1
 1.000000e+00
<MIXTURE> 1 5.365797e-01
<MEAN> 38
 -1.486256e+00 7.419728e+00 1.111545e+01 5.270270e+00 -1.565539e+00 -1.211524e+00 1.378546e+00 -4.075356e+00 -4.144895e+00 -9.444298e-01 -1.315843e+00 -1.264558e+00 -6.412478e-01 -2.851716e-01 -1.067974e+00 7.627544e-01 1.608924e+00 2.639439e-01 7.292536e-01 1.143429e+00 7.072279e-01 -7.192066e-02 2.424044e-01 1.403876e-01 -3.798560e-02 -6.613212e-02 -1.344094e-01 -1.111418e-01 -1.847081e-01 -5.436828e-02 1.962858e-01 -6.235321e-02 -2.889095e-03 8.651377e-02 7.069144e-02 -4.989106e-02 1.183645e-02 9.229713e-04
<VARIANCE> 38
 3.558524e+01 2.706668e+01 3.231620e+01 3.282286e+01 5.497496e+01 4.780970e+01 3.548965e+01 4.095984e+01 4.147372e+01 3.100689e+01 2.961544e+01 2.433832e+01 1.738176e+00 1.827859e+00 1.685104e+00 2.221365e+00 2.599508e+00 3.183062e+00 2.594268e+00 2.907620e+00 2.655310e+00 2.436507e+00 2.454955e+00 1.922957e+00 1.000000e-02 1.571137e-01 2.694503e-01 2.942359e-01 3.169439e-01 4.748074e-01 4.936711e-01 4.498575e-01 4.795606e-01 4.709837e-01 4.293049e-01 4.183910e-01 3.499839e-01 1.000000e-02
<GCONST> 1.013516e+02
<MIXTURE> 2 4.633818e-01
<MEAN> 38
 -3.861423e-01 5.679249e+00 1.023281e+01 4.558541e+00 -3.238531e+00 -2.773246e+00 -5.223315e-01 -4.737611e+00 -5.189264e+00 -1.716595e+00 -2.316963e+00 -1.541575e+00 -4.173551e-01 -5.547681e-01 -1.377513e+00 7.105941e-01 1.533960e+00 -4.781583e-02 2.350968e-01 9.069646e-01 6.066412e-01 -3.024772e-01 6.344329e-02 2.424678e-02 -3.179591e-02 -7.410462e-02 -9.340705e-02 -1.267121e-01 -2.498285e-01 -7.219999e-02 1.989664e-01 -3.309206e-02 -5.105536e-02 1.044153e-01 1.495403e-01 -4.631144e-03 3.398985e-03 1.015307e-03
<VARIANCE> 38
 3.307152e+01 3.176181e+01 3.450481e+01 4.458342e+01 6.329298e+01 5.433280e+01 4.375845e+01 4.822663e+01 4.312239e+01 3.865533e+01 3.808320e+01 3.089026e+01 1.990904e+00 1.839591e+00 2.092168e+00 2.698364e+00 3.126997e+00 3.490116e+00 3.313548e+00 3.386848e+00 3.196712e+00 2.828747e+00 2.831662e+00 2.098786e+00 1.000000e-02 1.641279e-01 3.370658e-01 3.482963e-01 3.814487e-01 5.934368e-01 5.509028e-01 5.001257e-01 5.512338e-01 5.220438e-01 4.981215e-01 4.793782e-01 3.920870e-01 1.000000e-02
<GCONST> 1.066939e+02
<TRANSP> 5
 0.000000e+00 1.000000e+00 0.000000e+00 0.000000e+00 0.000000e+00
 0.000000e+00 7.509373e-01 2.490627e-01 0.000000e+00 0.000000e+00
 0.000000e+00 0.000000e+00 9.010744e-01 9.892560e-02 0.000000e+00
 0.000000e+00 0.000000e+00 0.000000e+00 7.966582e-01 2.033418e-01
 0.000000e+00 0.000000e+00 0.000000e+00 0.000000e+00 0.000000e+00
<ENDHMM>
~h "j"
<BEGINHMM>
<NUMSTATES> 5
<STATE> 2
<NUMMIXES> 2
<SWEIGHTS> 1
 1.000000e+00
<MIXTURE> 1 5.064966e-01
<MEAN> 38
 4.775159e-01 7.358681e+00 1.436906e+01 -1.175112e+00 -7.629951e+00 -1.248616e+00 -3.228714e+00 -5.360789e+00 -4.981584e+00 6.247680e-01 -6.319882e-01 -7.942346e-01 -1.645476e-02 1.269650e-01 2.915077e-01 -1.954766e-02 -2.057224e-01 3.179055e-02 7.115754e-02 -8.522423e-02 2.103850e-02 1.363565e-01 1.979569e-01 1.191957e-01 1.487749e-03 -2.609330e-02 -1.449525e-01 -2.153597e-01 8.785341e-02 8.775551e-02 -4.512254e-02 6.331888e-02 1.259558e-01 8.447438e-02 2.328929e-03 1.929059e-02 1.899797e-02 -1.530182e-03
<VARIANCE> 38
 1.626256e+01 3.669426e+01 2.879743e+01 5.069979e+01 4.366125e+01 4.008321e+01 3.854982e+01 4.270491e+01 4.406012e+01 4.770804e+01 3.288014e+01 2.869150e+01 7.952266e-01 1.416456e+00 1.473882e+00 1.259761e+00 2.365748e+00 1.949407e+00 1.901604e+00 2.106544e+00 2.016071e+00 1.971254e+00 1.683574e+00 1.402267e+00 1.000000e-02 1.283417e-01 1.383615e-01 1.686731e-01 2.119909e-01 3.561793e-01 3.068139e-01 3.258930e-01 3.770435e-01 3.946236e-01 3.355657e-01 2.922261e-01 2.582505e-01 1.000000e-02
<GCONST> 9.329535e+01
<MIXTURE> 2 4.934834e-01
<MEAN> 38
 5.372334e-01 5.528623e+00 1.299684e+01 -8.737081e-01 -9.714096e+00 -3.394820e+00 -3.615917e+00 -6.693171e+00 -6.452019e+00 2.562047e-01 -1.257833e+00 -1.511292e+00 5.220561e-01 -3.047951e-01 1.451554e-01 -1.985565e-01 -1.041843e+00 -3.097071e-01 -2.892847e-02 -1.589772e-01 -5.389928e-01 3.387426e-01 2.619694e-01 -1.325742e-01 1.633029e-02 -1.651527e-01 -2.139343e-01 -3.263483e-01 1.401896e-02 2.668806e-01 9.234271e-02 1.116723e-01 3.189904e-01 2.831981e-01 3.180965e-02 3.190708e-02 4.555116e-02 -4.788544e-03
<VARIANCE> 38
 1.514329e+01 3.371679e+01 2.877332e+01 5.409164e+01 3.888551e+01 4.035514e+01 3.569205e+01 4.406054e+01 4.069910e+01 4.029268e+01 3.543872e+01 3.185711e+01 1.538275e+00 1.876794e+00 2.152040e+00 1.717082e+00 2.896270e+00 2.835892e+00 2.549529e+00 2.684739e+00 2.534492e+00 2.413138e+00 2.159084e+00 1.649735e+00 1.000000e-02 2.394078e-01 1.992950e-01 1.936752e-01 2.374140e-01 4.128974e-01 3.595561e-01 4.463622e-01 4.811894e-01 4.696409e-01 3.942638e-01 3.502797e-01 2.898740e-01 1.000000e-02
<GCONST> 9.930120e+01
<STATE> 3
<NUMMIXES> 2
<SWEIGHTS> 1
 1.000000e+00
<MIXTURE> 1 5.090582e-01
<MEAN> 38
 2.185273e+00 1.539234e+00 1.150960e+01 1.686983e+00 -1.158278e+01 -5.495134e+00 -2.092014e+00 -1.910803e+00 -6.304689e+00 8.421253e-03 2.963310e+00 4.594703e-01 2.213032e-01 -4.151309e-01 -6.486738e-01 2.510526e-01 8.683231e-02 -4.277840e-01 2.340545e-01 7.147562e-01 3.258039e-01 -4.260678e-02 1.389743e-01 2.588988e-01 -3.896929e-04 -4.312887e-02 4.608769e-02 -1.272037e-01 1.979805e-02 2.451110e-01 6.109278e-02 8.772676e-03 6.372038e-02 1.726960e-01 -6.804836e-02 -1.523156e-01 -9.212881e-03 -2.782602e-03
<VARIANCE> 38
 1.144930e+01 2.041516e+01 2.625799e+01 4.246137e+01 2.560050e+01 3.759807e+01 4.099131e+01 3.691679e+01 3.752890e+01 5.434976e+01 2.610988e+01 2.625624e+01 3.036855e-01 8.430732e-01 1.194916e+00 8.746085e-01 1.195764e+00 1.342767e+00 1.558242e+00 1.708464e+00 1.581442e+00 1.360047e+00 1.246556e+00 1.123002e+00 1.000000e-02 6.092700e-02 9.275880e-02 1.120534e-01 1.392250e-01 2.165010e-01 2.143479e-01 2.307490e-01 2.423422e-01 2.598940e-01 2.447134e-01 2.124986e-01 1.873218e-01 1.000000e-02
<GCONST> 8.140935e+01
<MIXTURE> 2 4.909222e-01
<MEAN> 38
 1.881516e+00 1.104047e+00 1.083217e+01 3.083900e-01 -1.266854e+01 -5.525347e+00 -2.248364e+00 -2.811208e+00 -6.851500e+00 3.134636e-01 1.840978e+00 -8.923382e-01 2.268725e-01 -6.283795e-01 -7.875921e-01 1.096329e-01 -5.954005e-02 -4.632108e-01 3.148991e-01 8.042837e-01 1.945621e-01 -1.829132e-01 1.081508e-01 6.549890e-02 2.487640e-03 -1.644443e-02 2.639532e-02 -1.113702e-01 1.396925e-02 2.389231e-01 5.516710e-02 -1.993805e-02 5.934636e-02 1.494596e-01 -1.162639e-01 -1.330649e-01 2.345327e-02 -2.304944e-03
<VARIANCE> 38
 1.108435e+01 1.883672e+01 2.816951e+01 5.475060e+01 2.636922e+01 3.532838e+01 3.827519e+01 3.809731e+01 3.933697e+01 5.429105e+01 3.643160e+01 3.259211e+01 2.367931e-01 7.511240e-01 1.160159e+00 7.964243e-01 1.003787e+00 1.259762e+00 1.736339e+00 1.720082e+00 1.470539e+00 1.442424e+00 1.232145e+00 1.138183e+00 1.000000e-02 4.284460e-02 6.629486e-02 9.915144e-02 1.292426e-01 1.993947e-01 1.787067e-01 2.098648e-01 2.133646e-01 2.398252e-01 2.571838e-01 2.234018e-01 1.852020e-01 1.000000e-02
<GCONST> 8.015997e+01
<STATE> 4
<NUMMIXES> 2
<SWEIGHTS> 1
 1.000000e+00
<MIXTURE> 1 4.376102e-01
<MEAN> 38
 4.199610e+00 -1.422885e+00 3.604099e+00 2.944665e+00 -7.362613e+00 -6.957922e+00 -2.260448e+00 2.291212e+00 -1.943986e+00 -7.236309e-01 9.062340e-01 3.514858e-01 2.430360e-01 -7.047234e-02 -1.123778e+00 7.511997e-03 1.335894e+00 5.026926e-01 -1.046258e-02 1.307767e-01 8.092690e-01 5.008828e-02 -3.968797e-01 -1.916979e-01 -1.008668e-02 -1.006921e-01 1.460513e-01 9.409639e-02 -7.700464e-02 1.448174e-01 2.439933e-01 6.775097e-02 -2.395168e-01 -6.064242e-02 6.205443e-02 7.073660e-03 -7.330737e-02 -2.696592e-03
<VARIANCE> 38
 1.421085e+01 2.823656e+01 4.834984e+01 4.288792e+01 3.669551e+01 4.476469e+01 7.111700e+01 4.212514e+01 4.449314e+01 4.599391e+01 3.067569e+01 2.984163e+01 5.622833e-01 1.283432e+00 1.669267e+00 1.964571e+00 1.692242e+00 2.239952e+00 2.409986e+00 2.793098e+00 2.566361e+00 2.800538e+00 2.076696e+00 1.881936e+00 1.000000e-02 8.157532e-02 1.490401e-01 1.594922e-01 1.957503e-01 3.069094e-01 3.239481e-01 3.638001e-01 3.381864e-01 4.040048e-01 3.721652e-01 3.156048e-01 3.375421e-01 1.000000e-02
<GCONST> 9.513482e+01
<MIXTURE> 2 5.623760e-01
<MEAN> 38
 4.390522e+00 -4.177227e+00 2.822605e-01 9.154020e-02 -8.443118e+00 -7.361153e+00 -8.929191e-02 3.732532e+00 -7.754966e-01 -1.036994e+00 -1.396066e+00 -6.107476e-01 3.752579e-01 -6.979316e-01 -1.678334e+00 -5.805538e-02 1.510834e+00 6.324292e-01 -1.505769e-01 3.264012e-01 8.022730e-01 -2.955903e-01 -8.021016e-01 -4.649782e-01 -2.044344e-03 -3.394843e-02 1.386597e-01 1.280387e-01 -6.420285e-02 1.372041e-01 2.803360e-01 -1.171127e-01 -3.809968e-01 -1.370216e-01 1.434131e-01 8.322278e-02 -1.098391e-01 -1.579797e-03
<VARIANCE> 38
 1.058860e+01 2.278127e+01 3.723244e+01 4.636967e+01 3.635341e+01 4.471767e+01 6.931973e+01 4.369775e+01 4.775882e+01 4.296083e+01 3.809048e+01 3.041999e+01 2.616301e-01 7.733757e-01 1.158198e+00 1.572464e+00 1.476341e+00 1.926504e+00 2.617649e+00 2.570432e+00 2.651329e+00 3.120503e+00 1.951140e+00 1.996210e+00 1.000000e-02 3.764221e-02 7.717519e-02 1.108724e-01 1.768374e-01 2.528492e-01 2.931543e-01 3.338422e-01 2.965621e-01 3.533074e-01 3.648350e-01 3.389156e-01 3.101364e-01 1.000000e-02
<GCONST> 9.009650e+01
<TRANSP> 5
 0.000000e+00 1.000000e+00 0.000000e+00 0.000000e+00 0.000000e+00
 0.000000e+00 7.929464e-01 2.070536e-01 0.000000e+00 0.000000e+00
 0.000000e+00 0.000000e+00 8.077415e-01 1.922585e-01 0.000000e+00
 0.000000e+00 0.000000e+00 0.000000e+00 7.272791e-01 2.727210e-01
 0.000000e+00 0.000000e+00 0.000000e+00 0.000000e+00 0.000000e+00
<ENDHMM>
~h "k"
<BEGINHMM>
<NUMSTATES> 5
<STATE> 2
<NUMMIXES> 2
<SWEIGHTS> 1
 1.000000e+00
<MIXTURE> 1 5.511282e-01
<MEAN> 38
 -4.511687e+00 3.748497e+00 3.207639e+00 7.700337e+00 5.838316e+00 2.954659e+00 4.859782e+00 2.530898e+00 8.199028e-01 6.936473e-01 -3.501037e-01 -4.999606e-01 -6.647909e-01 -1.397860e+00 -1.198357e+00 -2.346095e-01 4.115905e-01 3.719582e-01 2.698076e-01 5.783888e-01 6.357068e-01 5.463428e-01 5.247243e-01 5.252126e-01 -7.957566e-03 1.452205e-01 -5.968615e-01 -5.048251e-01 -4.241842e-01 -2.600562e-01 -3.114108e-01 -3.094257e-01 7.076114e-03 -4.628779e-02 2.372542e-01 1.326311e-01 1.687527e-01 2.506550e-02
<VARIANCE> 38
 1.861362e+01 3.610041e+01 4.443351e+01 3.268143e+01 3.747322e+01 4.406779e+01 4.234608e+01 4.104686e+01 4.429251e+01 3.179708e+01 3.163363e+01 2.706872e+01 1.171848e+00 4.875397e+00 4.097718e+00 2.993967e+00 3.571927e+00 3.503962e+00 3.326387e+00 3.315358e+00 3.020999e+00 3.030525e+00 2.668721e+00 2.275550e+00 1.000000e-02 2.049937e-01 9.237022e-01 8.095397e-01 5.966377e-01 6.874027e-01 7.367104e-01 7.174414e-01 6.780263e-01 6.593599e-01 6.156881e-01 5.431721e-01 4.910544e-01 1.000000e-02
<GCONST> 1.104722e+02
<MIXTURE> 2 4.488064e-01
<MEAN> 38
 -5.087532e+00 -3.225136e+00 -2.561417e+00 5.182907e+00 6.382893e+00 2.780258e+00 3.868665e+00 3.922618e+00 1.741965e+00 2.661787e+00 9.750214e-01 1.336968e+00 -3.276380e-01 -3.700550e+00 -3.049058e+00 -1.755618e+00 -5.818204e-01 -1.104306e+00 -1.445125e+00 1.035054e-01 -1.334665e-01 1.047223e+00 5.893461e-01 8.080534e-01 9.100307e-02 1.305896e-01 2.479248e-01 1.356955e-02 -3.301816e-01 -4.569329e-01 -3.932516e-01 -3.480441e-01 -2.952612e-01 -2.248275e-01 1.086590e-02 -3.083478e-02 -1.911908e-02 9.608557e-03
<VARIANCE> 38
 2.155733e+01 6.480254e+01 6.406104e+01 4.259407e+01 4.139739e+01 4.714597e+01 5.029035e+01 3.923956e+01 4.206226e+01 3.188354e+01 3.032305e+01 2.513066e+01 2.221440e+00 5.274669e+00 6.109854e+00 4.991221e+00 5.722329e+00 5.916533e+00 6.005790e+00 4.909814e+00 5.011250e+00 4.003502e+00 3.661663e+00 3.290419e+00 1.000000e-02 2.438175e-01 1.402478e+00 9.764858e-01 6.275581e-01 6.416041e-01 6.772022e-01 7.493634e-01 6.236137e-01 6.284130e-01 5.514076e-01 5.019885e-01 4.453886e-01 1.000000e-02
<GCONST> 1.173414e+02
<STATE> 3
<NUMMIXES> 2
<SWEIGHTS> 1
 1.000000e+00
<MIXTURE> 1 5.795405e-01
<MEAN> 38
 -5.230692e+00 -8.997797e+00 -9.971740e+00 -1.756199e+00 1.929382e+00 -2.256972e+00 -1.934858e+00 2.230668e+00 8.698781e-01 6.273892e+00 2.885297e+00 3.601232e+00 -2.234782e-02 1.111902e+00 8.673334e-01 1.132277e-01 -2.789856e-01 -2.063558e-01 2.654306e-01 1.023806e-01 4.181841e-01 2.586715e-01 2.550362e-01 5.004637e-02 3.893328e-03 1.221341e-01 7.992163e-01 9.583206e-01 5.634359e-01 1.886026e-01 3.050809e-01 4.558380e-01 6.727929e-02 3.030612e-02 -3.658697e-01 -1.687596e-01 -2.729092e-01 -1.256226e-02
<VARIANCE> 38
 2.379668e+01 3.066137e+01 6.852474e+01 4.938006e+01 5.851023e+01 6.341246e+01 6.468034e+01 5.050267e+01 5.702984e+01 4.325550e+01 3.944412e+01 3.110051e+01 1.468794e+00 2.619900e+00 3.334688e+00 2.965607e+00 2.540751e+00 2.845063e+00 2.970250e+00 2.727721e+00 2.854026e+00 2.611782e+00 2.533521e+00 2.143654e+00 1.000000e-02 3.657983e-01 8.299087e-01 7.214189e-01 6.151277e-01 6.507929e-01 7.078407e-01 7.801892e-01 6.879457e-01 7.973673e-01 6.264206e-01 6.210269e-01 5.519876e-01 1.000000e-02
<GCONST> 1.128248e+02
<MIXTURE> 2 4.204066e-01
<MEAN> 38
 -6.234102e+00 -9.140177e+00 -8.373900e+00 -7.295534e-01 2.473339e+00 -7.107920e-01 -8.563136e-02 3.194725e+00 1.836048e+00 6.049703e+00 2.850948e+00 3.565302e+00 5.377088e-01 9.196064e-02 -1.264099e-01 -8.383195e-01 -1.133033e+00 -1.090744e+00 -1.091671e+00 -9.117315e-01 -8.490064e-01 -3.225816e-01 -4.506030e-01 -3.560842e-01 4.660452e-02 3.809216e-01 9.807281e-01 7.246793e-01 2.645243e-01 -6.566236e-02 6.185121e-02 1.229229e-01 -2.430061e-01 -2.297022e-01 -4.151825e-01 -2.774087e-01 -3.041656e-01 -1.021348e-02
<VARIANCE> 38
 2.755308e+01 3.495945e+01 7.205627e+01 5.249100e+01 5.656727e+01 5.844999e+01 6.243937e+01 4.846087e+01 5.336084e+01 3.983828e+01 3.520716e+01 2.753446e+01 2.046380e+00 5.725657e+00 6.808599e+00 4.472998e+00 3.223506e+00 3.531522e+00 3.922627e+00 3.299919e+00 3.871819e+00 3.704416e+00 3.217830e+00 2.921672e+00 1.000000e-02 4.369611e-01 1.024088e+00 9.024103e-01 8.416004e-01 8.098849e-01 7.604415e-01 9.130371e-01 7.452273e-01 8.610561e-01 6.487063e-01 6.417031e-01 5.173948e-01 1.000000e-02
<GCONST> 1.185348e+02
<STATE> 4
<NUMMIXES> 2
<SWEIGHTS> 1
 1.000000e+00
<MIXTURE> 1 4.310953e-01
<MEAN> 38
 -3.900995e+00 -2.902001e+00 -1.592343e+00 3.354100e-01 -1.264712e+00 -3.361249e+00 1.767920e-01 1.589479e+00 1.932913e-02 2.976375e+00 1.805928e+00 1.188132e+00 3.110237e-01 1.151556e+00 1.283061e+00 4.205824e-01 1.168031e-01 2.445243e-01 6.363784e-01 2.048698e-01 1.896489e-01 -4.501522e-01 5.125804e-02 -1.038594e-01 5.805676e-03 5.407625e-02 -1.661858e-01 -1.029975e-01 3.107082e-02 1.123953e-01 1.565074e-01 4.776767e-03 3.594189e-02 4.679766e-03 -5.376821e-02 -2.709371e-02 1.826550e-02 1.666693e-03
<VARIANCE> 38
 5.094062e+01 3.037017e+01 5.646104e+01 4.704711e+01 5.314096e+01 5.238708e+01 5.255323e+01 5.584228e+01 5.005363e+01 4.316206e+01 3.925146e+01 2.860186e+01 3.621562e+00 3.121326e+00 3.396124e+00 2.620970e+00 3.179436e+00 3.125374e+00 3.289987e+00 3.248901e+00 3.308853e+00 2.849467e+00 2.677994e+00 2.261116e+00 1.000000e-02 4.708941e-01 3.994464e-01 5.070947e-01 4.912386e-01 6.207156e-01 5.794639e-01 6.026393e-01 6.128308e-01 6.385965e-01 5.482869e-01 5.333585e-01 4.333177e-01 1.000000e-02
<GCONST> 1.122031e+02
<MIXTURE> 2 5.688682e-01
<MEAN> 38
 6.007334e-01 1.406936e-01 8.108283e-01 7.672282e-01 -2.029396e+00 -4.012384e+00 -1.273238e+00 -1.346194e+00 -2.490868e+00 8.580337e-01 -9.501698e-01 -4.115243e-01 2.368030e+00 1.019912e+00 8.726081e-01 -6.818691e-01 -1.654755e+00 -6.718232e-01 -7.880539e-01 -9.721072e-01 -1.229129e+00 -1.083340e+00 -7.143145e-01 -8.695881e-01 5.459283e-02 -1.828826e-01 -6.841177e-01 -6.355281e-01 -3.595652e-01 -2.449221e-02 1.355200e-01 -2.867377e-04 2.431462e-01 2.866418e-01 3.035201e-01 2.529556e-01 2.061072e-01 -9.710000e-04
<VARIANCE> 38
 3.372973e+01 2.655732e+01 6.563506e+01 4.393032e+01 5.297653e+01 4.850790e+01 4.891615e+01 5.571772e+01 4.425840e+01 3.693389e+01 3.613028e+01 2.605142e+01 1.792923e+00 3.334479e+00 3.828254e+00 3.529535e+00 3.801188e+00 3.620759e+00 4.024675e+00 4.575744e+00 4.784375e+00 4.138188e+00 4.685053e+00 3.116439e+00 1.000000e-02 3.982905e-01 3.565956e-01 3.729906e-01 4.873673e-01 6.299183e-01 5.341716e-01 5.765273e-01 6.334051e-01 6.503614e-01 5.585155e-01 5.564635e-01 4.255353e-01 1.000000e-02
<GCONST> 1.127889e+02
<TRANSP> 5
 0.000000e+00 1.000000e+00 0.000000e+00 0.000000e+00 0.000000e+00
 0.000000e+00 8.026540e-01 1.973459e-01 0.000000e+00 0.000000e+00
 0.000000e+00 0.000000e+00 7.774739e-01 2.225261e-01 0.000000e+00
 0.000000e+00 0.000000e+00 0.000000e+00 7.079858e-01 2.920142e-01
 0.000000e+00 0.000000e+00 0.000000e+00 0.000000e+00 0.000000e+00
<ENDHMM>
~h "l"
<BEGINHMM>
<NUMSTATES> 5
<STATE> 2
<NUMMIXES> 2
<SWEIGHTS> 1
 1.000000e+00
<MIXTURE> 1 5.671059e-01
<MEAN> 38
 8.115897e+00 2.769053e+00 -5.659858e+00 -1.163185e+01 2.599859e-01 4.507433e+00 -4.195806e+00 -4.410989e+00 1.885224e-01 -3.460880e-01 1.699483e+00 -4.053123e-01 1.405226e-01 4.979344e-01 1.216885e-01 -3.297057e-01 6.824730e-02 2.112768e-01 -3.020407e-02 -1.185982e-01 -2.687621e-01 -1.445898e-01 2.770948e-01 2.800823e-01 -3.672583e-03 -3.645491e-02 -7.558424e-03 5.209884e-02 1.246738e-01 -6.038574e-03 -5.667815e-02 4.246827e-02 4.011834e-02 -2.641021e-02 -2.439611e-02 -3.140948e-02 1.496699e-02 -1.334675e-03
<VARIANCE> 38
 1.112998e+01 3.685374e+01 5.518325e+01 7.428157e+01 4.648355e+01 5.954911e+01 6.951218e+01 5.194215e+01 5.072133e+01 5.455966e+01 4.541327e+01 4.174554e+01 1.708563e-01 5.037068e-01 6.360678e-01 1.062402e+00 9.611716e-01 1.284886e+00 1.324308e+00 1.381917e+00 1.389153e+00 1.428576e+00 1.417297e+00 1.243326e+00 1.000000e-02 2.886497e-02 6.532554e-02 8.682391e-02 1.259234e-01 1.435520e-01 1.701479e-01 1.978555e-01 2.064756e-01 2.111670e-01 2.113545e-01 1.994207e-01 1.926688e-01 1.000000e-02
<GCONST> 8.170957e+01
<MIXTURE> 2 4.328287e-01
<MEAN> 38
 7.030524e+00 1.639241e+00 -3.410943e+00 -8.519653e+00 -1.506950e-01 1.520115e+00 -6.431929e+00 -4.506542e+00 2.648103e-01 -1.013260e+00 -3.811404e-01 -1.306318e+00 9.855512e-02 3.101037e-01 -2.877777e-02 -4.915561e-01 1.468004e-01 2.717976e-01 -2.662951e-01 -1.999802e-01 -1.509634e-01 -9.561789e-03 1.316762e-01 -6.675126e-02 -8.153953e-04 -4.956193e-02 -3.464956e-02 1.078304e-02 7.929170e-02 -4.314653e-02 -2.902561e-02 1.157572e-01 5.187009e-02 -5.146169e-02 -1.569694e-02 3.449081e-02 6.362967e-03 -1.320873e-03
<VARIANCE> 38
 1.247131e+01 3.754091e+01 7.719733e+01 8.503575e+01 4.791931e+01 6.892632e+01 7.016889e+01 5.499681e+01 5.468509e+01 5.777601e+01 5.316297e+01 4.497286e+01 2.149566e-01 6.518849e-01 8.811638e-01 1.145258e+00 1.237259e+00 1.549778e+00 1.659439e+00 1.793818e+00 1.688098e+00 1.649980e+00 1.590056e+00 1.459655e+00 1.000000e-02 4.293152e-02 9.146073e-02 1.141831e-01 1.519585e-01 1.807291e-01 2.193182e-01 2.692024e-01 2.782848e-01 2.680269e-01 2.541312e-01 2.550010e-01 2.346838e-01 1.000000e-02
<GCONST> 8.850163e+01
<STATE> 3
<NUMMIXES> 2
<SWEIGHTS> 1
 1.000000e+00
<MIXTURE> 1 5.013996e-01
<MEAN> 38
 8.242237e+00 6.384731e+00 -2.683085e+00 -1.013835e+01 5.968297e-01 3.788945e+00 -4.226825e+00 -5.347810e+00 -2.933469e+00 -2.058518e+00 2.173299e+00 1.123768e+00 -2.820097e-01 3.183208e-01 4.643265e-01 1.023252e+00 3.533272e-01 -2.412758e-01 2.205286e-01 -2.373765e-02 -1.791077e-01 3.950752e-02 -8.535066e-02 4.119067e-02 -1.509469e-02 -2.130557e-01 -1.215568e-01 6.906010e-02 3.590787e-01 4.374386e-02 -1.187879e-01 1.626989e-01 1.214944e-01 1.033479e-01 6.816310e-02 -7.679778e-02 -7.971752e-02 -3.041461e-03
<VARIANCE> 38
 1.236268e+01 3.469053e+01 5.511999e+01 6.993166e+01 4.590395e+01 5.182777e+01 6.536279e+01 5.311186e+01 4.927837e+01 5.067115e+01 4.773199e+01 3.916848e+01 3.738632e-01 1.060666e+00 1.186951e+00 2.061768e+00 1.590039e+00 1.814779e+00 2.176796e+00 2.173517e+00 2.177701e+00 2.092148e+00 1.794967e+00 1.701004e+00 1.000000e-02 8.639918e-02 1.683495e-01 1.912500e-01 3.287643e-01 2.913472e-01 3.331659e-01 3.823234e-01 3.916999e-01 3.834398e-01 3.704499e-01 3.395064e-01 3.100846e-01 1.000000e-02
<GCONST> 9.601591e+01
<MIXTURE> 2 4.985903e-01
<MEAN> 38
 6.360146e+00 3.371019e+00 3.273070e+00 -5.118618e+00 -2.973275e-01 -6.733465e-01 -9.690563e+00 -6.203876e+00 -1.080127e+00 -1.369796e+00 -1.052711e+00 3.780329e-01 -1.608637e-01 -2.494374e-01 -3.812819e-02 1.314916e-01 -8.333581e-02 -1.227955e-01 3.210298e-01 3.301424e-01 -1.255350e-02 9.716406e-02 -3.109412e-02 -2.079795e-01 -1.767048e-03 -7.850599e-02 -2.917177e-01 -2.187673e-01 1.597610e-01 -1.851371e-01 -1.483806e-01 4.883010e-01 2.555850e-01 9.863252e-04 4.252364e-02 4.723066e-02 -1.041287e-01 -5.096197e-04
<VARIANCE> 38
 1.449345e+01 3.300158e+01 6.839300e+01 6.919875e+01 4.733682e+01 5.816341e+01 6.931562e+01 5.902526e+01 5.330976e+01 5.402443e+01 5.423420e+01 4.773144e+01 3.251391e-01 1.219582e+00 1.449123e+00 1.908982e+00 1.659380e+00 1.990933e+00 2.622775e+00 2.685808e+00 2.352103e+00 2.194617e+00 2.032093e+00 1.835735e+00 1.000000e-02 6.302404e-02 2.120311e-01 2.393228e-01 2.967491e-01 3.577872e-01 4.261297e-01 5.499941e-01 5.301891e-01 4.688152e-01 4.531556e-01 4.561377e-01 3.997698e-01 1.000000e-02
<GCONST> 1.001966e+02
<STATE> 4
<NUMMIXES> 2
<SWEIGHTS> 1
 1.000000e+00
<MIXTURE> 1 4.336514e-01
<MEAN> 38
 4.519711e+00 5.638772e+00 -1.916639e+00 -3.983743e+00 2.202203e+00 2.067939e+00 -1.567975e+00 -3.638283e+00 -1.888533e+00 -1.207388e+00 1.105664e+00 -6.388432e-02 -1.464943e+00 -3.231139e-02 7.518180e-01 1.862561e+00 5.838839e-01 -2.764565e-01 6.057220e-01 5.939351e-01 3.110588e-01 1.865287e-01 -2.756994e-01 -1.371531e-01 -2.896718e-02 -1.951389e-01 -1.537176e-01 4.069451e-02 -1.742197e-02 3.289241e-02 8.074521e-02 -5.344176e-02 1.094479e-01 1.374224e-01 2.497632e-02 -3.424639e-02 -2.971332e-02 -1.152663e-03
<VARIANCE> 38
 2.503349e+01 4.314933e+01 4.524751e+01 6.463783e+01 5.160563e+01 4.990320e+01 5.302858e+01 4.617281e+01 4.528712e+01 4.326614e+01 3.731914e+01 3.357118e+01 2.176647e+00 2.174143e+00 2.796244e+00 4.477833e+00 3.323018e+00 3.410046e+00 3.372371e+00 3.414568e+00 3.249526e+00 3.136569e+00 2.764045e+00 2.482702e+00 1.000000e-02 2.256105e-01 2.944120e-01 3.406995e-01 5.267884e-01 4.485920e-01 5.016015e-01 5.221123e-01 5.473931e-01 5.222786e-01 5.089050e-01 4.642240e-01 4.196207e-01 1.000000e-02
<GCONST> 1.090318e+02
<MIXTURE> 2 5.663081e-01
<MEAN> 38
 4.854397e+00 3.661105e-02 2.067761e+00 -2.171222e+00 -1.739386e+00 -2.910199e+00 -5.440171e+00 -2.909851e+00 -1.453671e-01 -4.687019e-01 -1.111832e+00 -9.478167e-01 -3.156004e-01 -1.123942e+00 -7.728483e-01 1.528739e-01 -6.947491e-01 -2.064891e-01 1.466113e+00 1.002491e+00 8.726192e-02 1.931241e-01 -2.448235e-02 -3.066572e-01 1.252917e-04 1.132287e-02 2.783788e-02 -8.574906e-02 -7.172913e-02 -3.110564e-02 1.432987e-01 1.176068e-02 -6.888530e-02 -1.941269e-02 -1.605136e-02 -2.728073e-02 4.300925e-02 9.378760e-04
<VARIANCE> 38
 1.711434e+01 4.060743e+01 5.879429e+01 5.181801e+01 5.267485e+01 5.252193e+01 6.068695e+01 5.643698e+01 4.781962e+01 4.737237e+01 4.187764e+01 3.694393e+01 9.816976e-01 2.106939e+00 3.038120e+00 3.549273e+00 4.066229e+00 4.467334e+00 4.749213e+00 4.729627e+00 4.081578e+00 3.930941e+00 3.996854e+00 3.044134e+00 1.000000e-02 1.110293e-01 3.615459e-01 3.658344e-01 4.125221e-01 6.075457e-01 5.938480e-01 7.308426e-01 7.365749e-01 5.866708e-01 5.849807e-01 5.880932e-01 4.696329e-01 1.000000e-02
<GCONST> 1.116174e+02
<TRANSP> 5
 0.000000e+00 1.000000e+00 0.000000e+00 0.000000e+00 0.000000e+00
 0.000000e+00 8.449996e-01 1.550004e-01 0.000000e+00 0.000000e+00
 0.000000e+00 0.000000e+00 6.240641e-01 3.759359e-01 0.000000e+00
 0.000000e+00 0.000000e+00 0.000000e+00 7.390620e-01 2.609380e-01
 0.000000e+00 0.000000e+00 0.000000e+00 0.000000e+00 0.000000e+00
<ENDHMM>
~h "m"
<BEGINHMM>
<NUMSTATES> 5
<STATE> 2
<NUMMIXES> 2
<SWEIGHTS> 1
 1.000000e+00
<MIXTURE> 1 5.620314e-01
<MEAN> 38
 9.896008e+00 4.265364e+00 1.448723e+00 3.844226e+00 3.310663e+00 -6.414713e-01 -4.309654e-01 -8.495088e+00 -9.203498e+00 -7.678965e-01 1.489937e+00 -2.425647e+00 7.516624e-02 4.342881e-01 4.085414e-01 8.251949e-01 2.802849e-01 -3.911332e-01 1.863928e-02 -8.510781e-01 -7.012804e-01 3.938746e-01 5.052751e-01 -2.975370e-02 2.994492e-03 -6.882059e-02 -1.395321e-01 -9.280053e-02 -1.958291e-01 -1.336931e-01 5.267593e-02 -2.440870e-02 2.667241e-01 2.755902e-01 -1.388269e-02 -1.046209e-01 2.481041e-02 -7.352110e-04
<VARIANCE> 38
 9.461211e+00 1.810866e+01 2.375126e+01 3.280003e+01 3.226284e+01 4.968382e+01 5.031885e+01 3.974151e+01 5.381054e+01 4.086568e+01 3.948085e+01 3.379939e+01 2.580911e-01 9.504070e-01 9.640203e-01 1.255966e+00 1.283537e+00 1.536178e+00 1.694631e+00 1.869453e+00 2.126370e+00 1.722991e+00 1.622230e+00 1.397747e+00 1.000000e-02 4.843349e-02 1.314145e-01 1.551238e-01 2.050160e-01 2.252441e-01 2.634531e-01 2.853000e-01 2.986140e-01 3.336630e-01 2.815842e-01 2.748307e-01 2.328224e-01 1.000000e-02
<GCONST> 8.613168e+01
<MIXTURE> 2 4.379451e-01
<MEAN> 38
 9.830977e+00 3.854830e+00 9.810504e-01 3.428927e+00 2.078915e+00 -2.519676e+00 -2.528225e+00 -9.364771e+00 -9.380542e+00 -1.463223e+00 -5.583395e-01 -4.891449e+00 2.739822e-01 2.102692e-01 2.689789e-01 6.485061e-01 3.579801e-02 -4.289594e-01 -1.691654e-01 -7.514107e-01 -5.610085e-01 2.767541e-01 1.918680e-01 -4.403656e-01 1.151976e-02 -1.872617e-01 -2.361881e-01 -1.453463e-01 -2.481832e-01 -9.369919e-02 1.651529e-01 9.255096e-02 4.029628e-01 3.783847e-01 -8.425327e-03 -6.299441e-02 1.379496e-01 -4.336191e-03
<VARIANCE> 38
 9.809470e+00 1.965402e+01 2.708097e+01 3.501981e+01 3.464603e+01 5.358341e+01 6.077767e+01 4.665776e+01 5.190613e+01 4.413250e+01 4.712033e+01 4.016004e+01 5.890886e-01 1.392536e+00 1.249791e+00 1.732723e+00 1.603000e+00 1.919641e+00 2.059768e+00 2.164661e+00 2.309546e+00 2.166143e+00 1.921033e+00 1.806387e+00 1.000000e-02 1.542012e-01 2.046369e-01 2.095770e-01 2.643929e-01 2.908545e-01 3.574786e-01 4.102245e-01 4.099663e-01 4.345546e-01 3.621537e-01 3.618056e-01 3.166400e-01 1.000000e-02
<GCONST> 9.514064e+01
<STATE> 3
<NUMMIXES> 2
<SWEIGHTS> 1
 1.000000e+00
<MIXTURE> 1 6.705961e-01
<MEAN> 38
 9.338729e+00 5.216910e+00 3.239951e+00 6.210756e+00 2.846132e+00 -3.102663e+00 -8.205743e-01 -7.746368e+00 -7.046028e+00 1.322797e-01 2.719553e-01 -3.286365e+00 -2.731915e-02 6.121416e-02 3.030596e-03 2.197427e-02 -1.955285e-02 9.068463e-02 4.241339e-02 1.013580e-01 1.146287e-01 -4.787122e-02 -6.108724e-02 5.025609e-02 -1.935589e-03 -4.139232e-02 -5.382723e-02 -5.985653e-02 -8.914642e-02 -2.347637e-02 6.857175e-02 -9.466721e-03 9.627376e-02 8.239738e-02 -4.942337e-02 -3.005252e-02 3.132610e-02 -1.303155e-03
<VARIANCE> 38
 1.117417e+01 1.966011e+01 2.457034e+01 3.182837e+01 4.055839e+01 5.044820e+01 4.674484e+01 4.290593e+01 5.334445e+01 4.281376e+01 4.381204e+01 4.011531e+01 1.326188e-01 3.829785e-01 4.166243e-01 5.864170e-01 7.289212e-01 8.316125e-01 9.338595e-01 9.508681e-01 1.033406e+00 1.014415e+00 1.025142e+00 9.130855e-01 1.000000e-02 2.624569e-02 7.161064e-02 8.707096e-02 1.252834e-01 1.473641e-01 1.672527e-01 1.884815e-01 2.016478e-01 2.195719e-01 2.036938e-01 1.999394e-01 1.813526e-01 1.000000e-02
<GCONST> 7.389578e+01
<MIXTURE> 2 3.293553e-01
<MEAN> 38
 9.902694e+00 4.163810e+00 1.848381e+00 5.448430e+00 1.957282e+00 -3.698807e+00 -2.575410e+00 -9.242032e+00 -8.219874e+00 1.553002e-01 2.581874e-01 -5.171126e+00 -1.087947e-01 -4.278291e-01 -3.701073e-01 -4.162078e-01 -2.997537e-01 2.242837e-01 -1.526068e-01 6.008129e-01 7.464890e-01 -2.686222e-01 -3.729588e-01 -8.250992e-03 1.813574e-03 -1.606073e-01 -2.625370e-01 -1.698646e-01 -3.088031e-01 -1.247855e-01 1.882793e-01 1.452957e-02 4.306752e-01 3.828698e-01 -1.846033e-01 -1.953196e-01 1.559444e-01 -2.449549e-03
<VARIANCE> 38
 1.082722e+01 2.018109e+01 2.629588e+01 3.150135e+01 3.657245e+01 5.332872e+01 5.269513e+01 4.590260e+01 5.263706e+01 4.728212e+01 5.196828e+01 4.584795e+01 3.087952e-01 9.748525e-01 1.013355e+00 1.422078e+00 1.262872e+00 1.499797e+00 1.627139e+00 1.697122e+00 2.081606e+00 1.710811e+00 1.672052e+00 1.538784e+00 1.000000e-02 9.088749e-02 1.728338e-01 2.126069e-01 2.900401e-01 2.703661e-01 3.396074e-01 3.595946e-01 4.044048e-01 4.707574e-01 3.928282e-01 3.869897e-01 3.507018e-01 1.000000e-02
<GCONST> 9.179139e+01
<STATE> 4
<NUMMIXES> 2
<SWEIGHTS> 1
 1.000000e+00
<MIXTURE> 1 4.157136e-01
<MEAN> 38
 6.971920e+00 9.244046e-01 8.783646e-01 2.385564e+00 2.035418e-01 -3.140801e-01 -7.826625e-01 -2.645096e+00 -3.082864e+00 -2.138684e+00 -1.990361e+00 -1.608558e+00 -7.473388e-01 -5.985949e-01 -6.584544e-02 -7.583827e-01 -5.295469e-01 6.918067e-01 4.243419e-01 9.976737e-01 5.794548e-01 -8.789884e-02 -9.053074e-02 4.030322e-01 -1.053800e-02 -3.251174e-02 1.512669e-01 7.240906e-02 7.424544e-02 1.084553e-01 2.024632e-02 4.151288e-02 -2.094392e-01 -1.753677e-01 1.273597e-01 1.600277e-01 -8.011652e-02 -1.596304e-03
<VARIANCE> 38
 1.824099e+01 4.643953e+01 4.358232e+01 5.227958e+01 5.338063e+01 5.070837e+01 4.336690e+01 5.016317e+01 4.980675e+01 3.673302e+01 3.526513e+01 2.898607e+01 9.527025e-01 1.941814e+00 2.463007e+00 3.105525e+00 3.454252e+00 3.050785e+00 3.364320e+00 3.379370e+00 3.806109e+00 2.897424e+00 2.689512e+00 2.421436e+00 1.000000e-02 1.240996e-01 3.686698e-01 3.228685e-01 4.725282e-01 4.706893e-01 5.143511e-01 5.275400e-01 5.756556e-01 6.441901e-01 4.888016e-01 4.517880e-01 4.109951e-01 1.000000e-02
<GCONST> 1.064278e+02
<MIXTURE> 2 5.842366e-01
<MEAN> 38
 8.787201e+00 -8.603033e-02 -9.843874e-01 2.172154e+00 2.099435e-01 -1.919290e+00 -3.731369e+00 -4.612748e+00 -3.222915e+00 -1.678788e+00 -1.887804e+00 -4.100085e+00 -7.396661e-01 -1.607319e+00 -6.195903e-01 -1.374644e+00 -7.992587e-01 7.856760e-01 -5.861467e-03 1.890813e+00 1.427727e+00 -6.815259e-01 -8.279198e-01 4.889721e-01 -2.019625e-04 -1.385905e-01 3.571608e-02 1.605084e-01 -1.076623e-02 -1.939941e-02 6.044448e-02 2.007893e-01 2.725589e-02 -2.028723e-01 3.481677e-02 7.897829e-02 9.457445e-02 -1.530335e-03
<VARIANCE> 38
 1.327092e+01 3.298002e+01 3.467174e+01 4.273918e+01 3.499809e+01 4.979390e+01 3.965724e+01 4.719091e+01 4.609767e+01 3.870836e+01 3.760436e+01 3.085303e+01 1.026752e+00 1.956886e+00 3.266258e+00 3.769596e+00 3.426283e+00 4.097262e+00 4.115978e+00 4.035149e+00 5.139586e+00 3.903259e+00 3.533516e+00 3.604962e+00 1.000000e-02 1.287979e-01 3.841218e-01 3.407392e-01 5.502052e-01 5.018567e-01 5.238636e-01 5.473064e-01 6.632202e-01 6.715820e-01 5.361133e-01 4.814456e-01 4.232638e-01 1.000000e-02
<GCONST> 1.081138e+02
<TRANSP> 5
 0.000000e+00 1.000000e+00 0.000000e+00 0.000000e+00 0.000000e+00
 0.000000e+00 7.135937e-01 2.864063e-01 0.000000e+00 0.000000e+00
 0.000000e+00 0.000000e+00 8.272898e-01 1.727102e-01 0.000000e+00
 0.000000e+00 0.000000e+00 0.000000e+00 7.283914e-01 2.716086e-01
 0.000000e+00 0.000000e+00 0.000000e+00 0.000000e+00 0.000000e+00
<ENDHMM>
~h "n"
<BEGINHMM>
<NUMSTATES> 5
<STATE> 2
<NUMMIXES> 2
<SWEIGHTS> 1
 1.000000e+00
<MIXTURE> 1 5.547140e-01
<MEAN> 38
 9.214673e+00 4.769007e+00 2.930486e+00 2.800042e+00 8.521615e-02 -2.466065e+00 2.882626e-01 -6.819394e+00 -6.712319e+00 2.913079e-01 -2.142037e+00 -7.184953e-01 1.755158e-01 4.713260e-01 2.002980e-01 5.473006e-01 3.754645e-03 -1.915887e-01 2.086622e-01 -6.358365e-01 -2.688725e-01 3.682221e-01 -1.160385e-02 1.833498e-01 -1.751979e-03 -7.600530e-02 -5.122468e-02 -2.481005e-02 -1.081830e-01 -4.252260e-02 4.702969e-02 -3.844550e-02 1.575108e-01 1.189661e-01 -5.245280e-02 8.598000e-03 -1.924497e-02 -1.080574e-03
<VARIANCE> 38
 8.863424e+00 1.988097e+01 2.393620e+01 2.968403e+01 3.734110e+01 4.642330e+01 4.705680e+01 4.883657e+01 5.247824e+01 4.387689e+01 3.946284e+01 4.078058e+01 2.383075e-01 6.968613e-01 8.733677e-01 1.057477e+00 1.178219e+00 1.303298e+00 1.432207e+00 1.887881e+00 1.779585e+00 1.489127e+00 1.262589e+00 1.254991e+00 1.000000e-02 3.616573e-02 9.970357e-02 1.264672e-01 1.625670e-01 2.001342e-01 2.098773e-01 2.253830e-01 2.764046e-01 2.643839e-01 2.381775e-01 2.100569e-01 2.033284e-01 1.000000e-02
<GCONST> 8.229943e+01
<MIXTURE> 2 4.451704e-01
<MEAN> 38
 8.947682e+00 4.019120e+00 2.115743e+00 1.351060e+00 -8.510604e-01 -3.965503e+00 -1.221095e+00 -7.110976e+00 -7.673706e+00 -1.257090e+00 -4.384619e+00 -2.459938e+00 1.644580e-01 3.345529e-01 1.327238e-01 4.181727e-01 -2.777672e-02 -2.034369e-01 1.057988e-01 -4.286374e-01 -1.950002e-01 2.313003e-01 -2.141262e-01 -4.229508e-02 -6.493439e-04 -8.337724e-02 -6.010028e-02 -2.225266e-02 -9.959045e-02 -1.815963e-02 7.391457e-02 -2.944228e-02 1.576243e-01 1.330295e-01 -3.966202e-02 6.277199e-02 8.954560e-03 -1.534472e-03
<VARIANCE> 38
 9.729083e+00 2.100002e+01 2.816026e+01 3.196690e+01 4.109105e+01 5.323064e+01 5.620594e+01 5.060921e+01 5.341019e+01 5.661907e+01 4.784893e+01 4.012587e+01 2.626119e-01 6.819842e-01 8.320297e-01 1.023560e+00 1.182724e+00 1.344510e+00 1.473987e+00 1.739408e+00 1.704822e+00 1.517486e+00 1.358136e+00 1.221950e+00 1.000000e-02 4.876291e-02 1.135360e-01 1.384864e-01 1.706968e-01 2.100306e-01 2.326505e-01 2.516637e-01 2.848823e-01 2.780071e-01 2.592990e-01 2.336239e-01 2.116310e-01 1.000000e-02
<GCONST> 8.471909e+01
<STATE> 3
<NUMMIXES> 2
<SWEIGHTS> 1
 1.000000e+00
<MIXTURE> 1 5.779547e-01
<MEAN> 38
 8.464265e+00 8.190504e+00 5.188546e+00 6.809916e+00 1.032660e+00 -3.080651e+00 1.369429e+00 -7.269849e+00 -5.515074e+00 9.121602e-01 -2.422933e+00 5.633796e-02 -2.860519e-01 2.640195e-01 2.195573e-01 2.512904e-01 3.035498e-01 1.674961e-01 -2.184642e-02 2.903622e-01 2.241803e-01 -1.825166e-01 3.011895e-02 7.552944e-04 -1.264119e-02 -1.823791e-01 -1.457327e-01 -8.495651e-04 -9.305099e-02 1.164181e-01 1.072536e-01 -4.685113e-02 2.086421e-01 9.565172e-02 -1.291867e-01 2.009108e-02 -3.726668e-02 -2.976803e-03
<VARIANCE> 38
 1.280200e+01 1.849562e+01 2.194271e+01 2.659512e+01 4.080610e+01 3.979822e+01 4.520395e+01 4.368420e+01 5.091320e+01 4.082666e+01 3.716728e+01 4.012459e+01 3.034280e-01 6.684103e-01 6.694745e-01 9.056214e-01 1.198890e+00 1.215603e+00 1.407349e+00 1.436810e+00 1.461705e+00 1.471960e+00 1.385709e+00 1.339011e+00 1.000000e-02 6.709724e-02 1.317996e-01 1.456314e-01 1.885527e-01 2.403927e-01 2.486777e-01 2.953305e-01 3.071257e-01 3.212107e-01 3.036866e-01 2.808710e-01 2.778609e-01 1.000000e-02
<GCONST> 8.434394e+01
<MIXTURE> 2 4.220059e-01
<MEAN> 38
 9.123810e+00 6.460504e+00 3.471071e+00 4.502508e+00 -8.477841e-01 -5.315440e+00 -1.100162e-01 -8.380990e+00 -7.385006e+00 9.685223e-01 -4.102407e+00 -1.574575e+00 -2.878378e-01 8.591870e-02 1.897357e-01 4.182140e-02 1.877015e-01 1.053579e-01 -2.247423e-01 3.110790e-01 2.778192e-01 -2.710894e-01 9.181318e-03 -9.781820e-02 -8.773162e-03 -3.093177e-01 -2.914318e-01 4.648790e-02 -2.507184e-01 1.233226e-01 2.500626e-01 -1.553981e-01 3.895922e-01 2.694144e-01 -2.968736e-01 1.091553e-01 -1.307512e-02 -3.185267e-03
<VARIANCE> 38
 1.218710e+01 2.229454e+01 2.569261e+01 2.779866e+01 3.998614e+01 4.634396e+01 5.440369e+01 4.504353e+01 5.483754e+01 5.524143e+01 4.591069e+01 4.432832e+01 4.449570e-01 1.132877e+00 9.658645e-01 1.285270e+00 1.481576e+00 1.555957e+00 1.803177e+00 1.899818e+00 1.914158e+00 1.875695e+00 1.729534e+00 1.598024e+00 1.000000e-02 1.114087e-01 2.391787e-01 2.654157e-01 3.079605e-01 3.441313e-01 3.729811e-01 4.415454e-01 4.406282e-01 4.856122e-01 4.440477e-01 3.894447e-01 3.805143e-01 1.000000e-02
<GCONST> 9.439784e+01
<STATE> 4
<NUMMIXES> 2
<SWEIGHTS> 1
 1.000000e+00
<MIXTURE> 1 4.248849e-01
<MEAN> 38
 3.359457e+00 6.844837e+00 4.918819e+00 5.917083e+00 3.649575e+00 -6.371446e-01 5.921711e-01 -3.513042e+00 -4.064266e+00 -2.144663e+00 -2.448586e+00 -1.403294e+00 -1.474358e+00 -2.417327e-01 -1.036758e-01 1.487734e-01 7.210402e-01 6.993880e-01 3.782621e-01 8.841360e-01 6.510208e-01 -1.629374e-01 2.526788e-01 1.107027e-01 -3.389114e-02 -1.297417e-01 -2.127707e-01 -1.593286e-01 -1.405655e-01 -7.203540e-02 4.250356e-02 4.986120e-02 7.243521e-02 8.159245e-02 9.984159e-02 5.153349e-02 5.748540e-02 -1.037743e-03
<VARIANCE> 38
 3.093200e+01 3.092218e+01 2.835612e+01 4.153391e+01 4.642213e+01 4.268896e+01 4.318366e+01 4.246896e+01 4.141259e+01 3.885920e+01 3.461405e+01 3.042504e+01 1.614631e+00 2.120444e+00 1.942095e+00 2.397724e+00 2.736763e+00 2.585499e+00 3.052540e+00 2.829961e+00 2.988557e+00 2.972759e+00 2.588010e+00 2.354283e+00 1.000000e-02 2.374119e-01 3.658061e-01 3.197366e-01 4.100101e-01 4.675604e-01 4.631571e-01 4.959111e-01 5.171020e-01 5.273744e-01 5.051014e-01 4.546112e-01 4.124498e-01 1.000000e-02
<GCONST> 1.045229e+02
<MIXTURE> 2 5.750275e-01
<MEAN> 38
 5.649434e+00 3.883703e+00 4.069120e+00 2.839783e+00 6.076773e-01 -2.784362e+00 -1.886374e+00 -4.622639e+00 -5.045206e+00 -2.027850e+00 -3.206339e+00 -1.865072e+00 -1.352542e+00 -1.105852e+00 -1.349812e-01 -8.020265e-01 2.771502e-01 8.506153e-01 -3.425089e-01 1.308383e+00 9.675685e-01 -7.090152e-01 2.123517e-01 -6.279307e-02 -1.765720e-02 -1.411352e-01 -1.002737e-01 -2.107543e-01 -1.166406e-01 -7.571714e-02 6.944051e-02 1.204034e-01 7.922415e-02 9.509151e-02 1.036418e-01 2.213219e-02 4.172573e-02 -3.884526e-04
<VARIANCE> 38
 2.463675e+01 3.907327e+01 3.123595e+01 4.000071e+01 4.574401e+01 4.714674e+01 4.677103e+01 5.025768e+01 5.050915e+01 4.738694e+01 3.922578e+01 3.571486e+01 1.799750e+00 2.779286e+00 3.320851e+00 3.271641e+00 3.750333e+00 3.823375e+00 4.119138e+00 4.107123e+00 4.411956e+00 3.986244e+00 3.453394e+00 3.196978e+00 1.000000e-02 2.525763e-01 4.986823e-01 4.100791e-01 5.058553e-01 5.183514e-01 5.621628e-01 5.858490e-01 6.507760e-01 6.374255e-01 5.990060e-01 5.194942e-01 4.654870e-01 1.000000e-02
<GCONST> 1.116242e+02
<TRANSP> 5
 0.000000e+00 1.000000e+00 0.000000e+00 0.000000e+00 0.000000e+00
 0.000000e+00 8.229129e-01 1.770871e-01 0.000000e+00 0.000000e+00
 0.000000e+00 0.000000e+00 6.953615e-01 3.046385e-01 0.000000e+00
 0.000000e+00 0.000000e+00 0.000000e+00 7.324255e-01 2.675746e-01
 0.000000e+00 0.000000e+00 0.000000e+00 0.000000e+00 0.000000e+00
<ENDHMM>
~h "o"
<BEGINHMM>
<NUMSTATES> 5
<STATE> 2
<NUMMIXES> 2
<SWEIGHTS> 1
 1.000000e+00
<MIXTURE> 1 5.111487e-01
<MEAN> 38
 9.993423e+00 3.303150e+00 -8.176464e+00 -1.284729e+01 -5.386035e+00 7.106153e+00 -4.763626e-01 -2.406771e+00 -3.341698e+00 -5.138807e-01 3.537191e+00 1.056692e+00 1.588783e-01 2.724987e-01 4.385023e-02 -3.132460e-01 -1.429475e-01 2.278635e-01 1.979477e-01 1.777702e-01 -1.916479e-01 -2.090683e-01 8.232694e-02 2.677197e-01 1.511226e-03 -4.392412e-02 7.920212e-03 4.862678e-02 1.387087e-01 5.195556e-02 -6.194206e-02 -9.703102e-03 6.050607e-03 3.099149e-02 -5.005809e-03 -4.072882e-02 -2.051304e-03 -1.854444e-03
<VARIANCE> 38
 1.091930e+01 2.871606e+01 2.692327e+01 4.064169e+01 4.206818e+01 3.870829e+01 4.845929e+01 4.275839e+01 4.153957e+01 5.443221e+01 4.199142e+01 3.236370e+01 1.884384e-01 4.918276e-01 5.459499e-01 9.677428e-01 8.425261e-01 1.055296e+00 1.144645e+00 1.129607e+00 1.239501e+00 1.243639e+00 1.223479e+00 1.053332e+00 1.000000e-02 3.956565e-02 6.755143e-02 8.678351e-02 1.396055e-01 1.433748e-01 1.605175e-01 1.791627e-01 1.896352e-01 1.935189e-01 2.012981e-01 1.882525e-01 1.696681e-01 1.000000e-02
<GCONST> 7.697279e+01
<MIXTURE> 2 4.887490e-01
<MEAN> 38
 9.509288e+00 2.971243e+00 -8.552114e+00 -1.354146e+01 -5.879948e+00 6.555565e+00 -9.130428e-01 -2.037439e+00 -3.686850e+00 -1.321197e+00 2.664540e+00 1.161621e-01 1.006292e-01 1.869835e-01 -4.393489e-02 -3.060641e-01 -2.143888e-01 1.239867e-01 4.377183e-02 7.510608e-02 -2.335568e-01 -2.946929e-01 -4.877536e-02 1.230401e-02 1.728902e-03 -2.344257e-02 -1.196352e-03 3.112062e-02 1.052435e-01 2.802755e-02 -5.316085e-02 -2.640632e-02 -2.942515e-02 8.297140e-03 -5.146564e-03 -2.860968e-02 -6.591041e-03 -1.485033e-03
<VARIANCE> 38
