~o
<STREAMINFO> 1 38
<VECSIZE> 38<NULLD><MFCC_E_D_N_A_Z><DIAGC>
~h "@"
<BEGINHMM>
<NUMSTATES> 5
<STATE> 2
<SWEIGHTS> 1
 1.000000e+00
<MEAN> 38
 3.462493e+00 2.178664e-01 1.355200e+00 1.150905e+00 -1.048591e+00 -4.212897e+00 -4.545671e+00 -2.566785e-01 6.679511e-01 -6.224339e-01 -1.493141e+00 -2.835810e-01 3.315337e-01 1.778935e-01 1.304608e-01 1.048092e-01 -2.278538e-02 8.009729e-02 -9.283729e-03 -1.580358e-02 -3.138038e-03 -4.783893e-02 -1.140316e-01 -7.565235e-02 1.161391e-03 -2.066739e-01 2.246993e-02 -1.351337e-02 5.129500e-02 1.241530e-01 1.236351e-01 1.662026e-01 4.808480e-02 1.197711e-02 3.067919e-02 6.013350e-02 2.328335e-02 -4.364280e-03
<VARIANCE> 38
 3.103596e+01 3.164141e+01 3.666991e+01 3.839671e+01 4.649773e+01 5.197836e+01 5.337700e+01 4.692147e+01 4.290482e+01 4.393763e+01 3.685637e+01 3.131283e+01 2.571190e+00 2.228958e+00 1.875684e+00 2.303991e+00 2.981680e+00 2.689119e+00 3.012215e+00 2.952981e+00 2.743128e+00 2.611461e+00 2.400068e+00 2.050033e+00 1.000000e-02 3.325238e-01 3.529249e-01 2.983876e-01 3.590434e-01 4.447190e-01 4.291626e-01 4.850495e-01 5.068170e-01 4.669569e-01 4.583205e-01 4.259855e-01 3.613446e-01 1.000000e-02
<GCONST> 1.051680e+02
<STATE> 3
<SWEIGHTS> 1
 1.000000e+00
<MEAN> 38
 3.626946e+00 8.425892e-01 1.748199e+00 1.709261e+00 -6.446094e-01 -3.585199e+00 -3.900255e+00 -1.463669e-01 6.074444e-01 -7.817584e-01 -1.692183e+00 -4.078427e-01 -1.009418e-01 2.441952e-01 1.184268e-01 2.507544e-01 2.848280e-01 3.462805e-01 3.394411e-01 2.927641e-02 -1.873093e-02 -2.109908e-02 -1.828219e-02 -4.247914e-02 -1.001757e-02 -1.578479e-01 5.332850e-03 -1.315498e-02 3.249132e-02 9.027211e-02 8.066813e-02 1.179790e-01 1.708174e-02 -5.697124e-03 2.305861e-02 4.430845e-02 1.767585e-02 -3.300062e-03
<VARIANCE> 38
 3.008073e+01 3.472027e+01 3.694587e+01 4.077740e+01 4.642927e+01 5.165940e+01 5.406798e+01 4.673209e+01 4.257268e+01 4.441362e+01 3.700913e+01 3.158307e+01 1.896274e+00 1.922882e+00 1.676841e+00 2.052464e+00 2.592941e+00 2.418187e+00 2.652463e+00 2.613629e+00 2.503058e+00 2.390122e+00 2.168016e+00 1.916845e+00 1.000000e-02 2.273267e-01 2.985512e-01 2.638550e-01 3.218190e-01 3.983780e-01 3.897408e-01 4.332795e-01 4.486430e-01 4.276492e-01 4.194038e-01 3.832088e-01 3.393762e-01 1.000000e-02
<GCONST> 1.022236e+02
<STATE> 4
<SWEIGHTS> 1
 1.000000e+00
<MEAN> 38
 2.871143e+00 1.487472e+00 1.992878e+00 2.589087e+00 4.572870e-01 -2.314346e+00 -2.503005e+00 2.612538e-02 5.432772e-01 -9.061840e-01 -1.717495e+00 -4.487201e-01 -3.610593e-01 1.944265e-01 4.414882e-02 2.704176e-01 4.175779e-01 4.695709e-01 5.231765e-01 5.809689e-02 -1.086250e-02 4.690491e-02 7.484259e-02 7.723223e-03 -1.585736e-02 -8.798254e-02 -3.824437e-02 -3.456136e-02 -2.024170e-02 1.393534e-02 1.571858e-02 4.259088e-02 1.176631e-02 3.012755e-03 3.220451e-02 4.047382e-02 2.271130e-02 -7.944878e-04
<VARIANCE> 38
 3.734948e+01 3.776394e+01 3.747938e+01 4.358245e+01 4.807348e+01 5.184902e+01 5.596176e+01 4.801711e+01 4.290100e+01 4.393822e+01 3.683091e+01 3.146806e+01 1.598872e+00 1.803816e+00 1.594833e+00 1.889943e+00 2.367816e+00 2.300215e+00 2.460430e+00 2.548310e+00 2.478287e+00 2.310174e+00 2.082022e+00 1.856051e+00 1.000000e-02 1.739010e-01 2.718854e-01 2.487431e-01 3.032049e-01 3.716320e-01 3.733424e-01 4.060362e-01 4.212743e-01 4.102604e-01 4.018902e-01 3.634574e-01 3.302272e-01 1.000000e-02
<GCONST> 1.010835e+02
<TRANSP> 5
 0.000000e+00 1.000000e+00 0.000000e+00 0.000000e+00 0.000000e+00
 0.000000e+00 5.584339e-01 4.415661e-01 0.000000e+00 0.000000e+00
 0.000000e+00 0.000000e+00 5.501792e-01 4.498207e-01 0.000000e+00
 0.000000e+00 0.000000e+00 0.000000e+00 5.538476e-01 4.461524e-01
 0.000000e+00 0.000000e+00 0.000000e+00 0.000000e+00 0.000000e+00
<ENDHMM>
~h "a"
<BEGINHMM>
<NUMSTATES> 5
<STATE> 2
<SWEIGHTS> 1
 1.000000e+00
<MEAN> 38
 5.495602e+00 -9.932854e+00 -7.574668e+00 -3.741871e-01 3.127160e+00 2.301883e+00 3.848685e-01 5.283121e-01 1.127865e+00 -2.825116e+00 -4.359564e+00 -3.318128e+00 3.657213e-02 -1.243542e-01 -9.098007e-02 8.067803e-02 1.504120e-01 1.358929e-01 1.357020e-02 -4.454269e-02 -4.080132e-02 -6.580966e-02 -7.755195e-03 -4.047846e-02 2.301581e-04 -1.029068e-02 7.968915e-02 5.656388e-02 6.716411e-03 -2.584025e-02 -3.758245e-02 -1.652887e-02 -1.234619e-02 -1.545234e-02 2.544273e-02 3.179938e-02 1.559730e-02 -1.182599e-03
<VARIANCE> 38
 1.347409e+01 2.349396e+01 2.706822e+01 3.439243e+01 3.444891e+01 3.982415e+01 4.210793e+01 4.317326e+01 4.232203e+01 3.962776e+01 3.163225e+01 3.614780e+01 2.737700e-01 6.640618e-01 6.967512e-01 8.084133e-01 9.952418e-01 1.097449e+00 1.156247e+00 1.209758e+00 1.141633e+00 1.121552e+00 1.080737e+00 9.903447e-01 1.000000e-02 4.518942e-02 7.989770e-02 9.789286e-02 1.277981e-01 1.464310e-01 1.641162e-01 1.856127e-01 1.964238e-01 1.891060e-01 1.855994e-01 1.815529e-01 1.625201e-01 1.000000e-02
<GCONST> 7.696098e+01
<STATE> 3
<SWEIGHTS> 1
 1.000000e+00
<MEAN> 38
 5.938855e+00 -7.987700e+00 -6.294052e+00 -9.576549e-02 2.923059e+00 1.967908e+00 3.170201e-01 8.187961e-01 3.741974e-01 -2.470733e+00 -3.728092e+00 -3.272313e+00 1.980782e-02 4.523386e-01 3.027060e-01 7.912324e-03 -1.462318e-01 -1.331210e-01 2.539990e-02 4.956304e-02 -1.016053e-01 1.007490e-01 1.037800e-01 2.199248e-02 -8.064688e-03 -1.947562e-02 9.073193e-02 7.465410e-02 2.575932e-02 -1.614107e-02 -2.688984e-02 -1.108866e-03 -1.609691e-02 -1.202481e-02 2.490875e-02 2.315489e-02 2.119758e-02 -1.450557e-03
<VARIANCE> 38
 1.627788e+01 3.208989e+01 3.263037e+01 4.136465e+01 4.057448e+01 4.738408e+01 4.856398e+01 4.959057e+01 4.684835e+01 4.142043e+01 3.563224e+01 3.463693e+01 3.600858e-01 8.174146e-01 8.782417e-01 9.945459e-01 1.120085e+00 1.243568e+00 1.322054e+00 1.379494e+00 1.337883e+00 1.269081e+00 1.226510e+00 1.113166e+00 1.000000e-02 5.018239e-02 1.022952e-01 1.240098e-01 1.551772e-01 1.701710e-01 1.929505e-01 2.114742e-01 2.212793e-01 2.160446e-01 2.120965e-01 2.057932e-01 1.826229e-01 1.000000e-02
<GCONST> 8.248169e+01
<STATE> 4
<SWEIGHTS> 1
 1.000000e+00
<MEAN> 38
 5.456998e+00 -4.542754e+00 -3.826131e+00 4.028304e-01 2.169144e+00 1.076835e+00 7.053981e-01 1.207313e+00 -5.691926e-02 -1.698807e+00 -3.053989e+00 -2.942738e+00 -1.790331e-01 8.862529e-01 6.997252e-01 2.197818e-01 -1.624433e-01 -2.278527e-01 2.955558e-02 -5.715668e-02 -1.371298e-01 2.232472e-01 2.360157e-01 1.749426e-01 -1.731057e-02 -9.092104e-02 8.249398e-02 9.502228e-02 8.861998e-02 3.553579e-02 -1.343019e-02 -1.031188e-02 -5.652951e-02 -8.908421e-03 1.964439e-02 3.820354e-02 5.082339e-02 -1.529170e-03
<VARIANCE> 38
 2.532094e+01 4.331910e+01 3.951519e+01 4.640065e+01 4.641586e+01 5.027840e+01 5.015593e+01 5.220037e+01 4.908691e+01 4.329195e+01 3.889605e+01 3.465178e+01 7.269853e-01 1.343283e+00 1.378507e+00 1.499016e+00 1.607359e+00 1.774145e+00 1.801208e+00 1.908828e+00 1.936656e+00 1.719633e+00 1.646313e+00 1.521348e+00 1.000000e-02 9.901167e-02 1.781494e-01 2.044257e-01 2.401245e-01 2.457284e-01 2.748225e-01 2.942937e-01 3.124800e-01 3.118233e-01 2.978535e-01 2.858736e-01 2.528849e-01 1.000000e-02
<GCONST> 9.360577e+01
<TRANSP> 5
 0.000000e+00 1.000000e+00 0.000000e+00 0.000000e+00 0.000000e+00
 0.000000e+00 9.454313e-01 5.456872e-02 0.000000e+00 0.000000e+00
 0.000000e+00 0.000000e+00 8.288717e-01 1.711283e-01 0.000000e+00
 0.000000e+00 0.000000e+00 0.000000e+00 7.220804e-01 2.779196e-01
 0.000000e+00 0.000000e+00 0.000000e+00 0.000000e+00 0.000000e+00
<ENDHMM>
~h "b"
<BEGINHMM>
<NUMSTATES> 5
<STATE> 2
<SWEIGHTS> 1
 1.000000e+00
<MEAN> 38
 6.345703e+00 8.068936e+00 3.213705e+00 4.927175e+00 2.637386e+00 4.730216e-01 -1.553695e+00 -4.018923e+00 -2.014163e+00 -7.296008e-01 -5.247609e-01 -1.878491e+00 -2.259821e-01 -4.834451e-01 -4.198906e-02 1.007665e-01 -2.470336e-01 -1.962529e-01 -1.594538e-01 1.210739e-01 1.313083e-01 -8.391798e-02 4.761311e-02 6.438987e-02 5.819987e-03 -4.353897e-02 -2.217126e-01 -9.595437e-02 -1.210988e-01 -1.171997e-01 -3.687882e-02 -2.550931e-02 7.482670e-02 5.128687e-02 3.900256e-02 2.730072e-02 5.060973e-02 2.203166e-03
<VARIANCE> 38
 2.662475e+01 6.674730e+01 3.485324e+01 4.157367e+01 3.828934e+01 3.980670e+01 4.256606e+01 3.683933e+01 3.942744e+01 3.167524e+01 2.905300e+01 2.950151e+01 1.988966e+00 6.162522e+00 2.716190e+00 2.863921e+00 2.860142e+00 2.738396e+00 3.019955e+00 2.631365e+00 2.990369e+00 2.499806e+00 2.317856e+00 2.004635e+00 1.000000e-02 3.335845e-01 9.042728e-01 4.326126e-01 4.487760e-01 4.466925e-01 4.790501e-01 5.166739e-01 4.552608e-01 5.270685e-01 4.628409e-01 4.306494e-01 3.586363e-01 1.000000e-02
<GCONST> 1.070916e+02
<STATE> 3
<SWEIGHTS> 1
 1.000000e+00
<MEAN> 38
 5.537653e+00 4.410114e+00 1.942570e+00 3.705975e+00 3.367499e-01 -7.107922e-01 -2.576215e+00 -2.995339e+00 -1.145265e+00 -6.747785e-01 -1.448985e-01 -1.190515e+00 -1.230116e-01 -8.306064e-01 -2.372132e-01 -4.057990e-01 -6.520441e-01 -2.513978e-01 -2.035906e-01 2.625747e-01 1.652643e-01 6.639279e-02 7.712741e-02 1.369431e-01 1.489588e-02 1.157106e-02 1.526217e-02 -9.733131e-03 -9.414740e-02 -2.141736e-02 3.304566e-02 5.080060e-02 1.739367e-02 -1.672429e-02 2.375382e-02 -1.613425e-02 2.327106e-03 8.280955e-04
<VARIANCE> 38
 2.555847e+01 7.101262e+01 3.971332e+01 5.296517e+01 5.153896e+01 4.776099e+01 4.795379e+01 3.921869e+01 4.150581e+01 3.450919e+01 3.163418e+01 2.880103e+01 1.911836e+00 4.858882e+00 2.787425e+00 3.280860e+00 3.339931e+00 3.055587e+00 3.001951e+00 2.709596e+00 3.099004e+00 2.634692e+00 2.506475e+00 2.081807e+00 1.000000e-02 3.571926e-01 8.056675e-01 4.395076e-01 5.045375e-01 5.223573e-01 5.320628e-01 5.276764e-01 4.632853e-01 5.472695e-01 4.730197e-01 4.531359e-01 3.636795e-01 1.000000e-02
<GCONST> 1.092315e+02
<STATE> 4
<SWEIGHTS> 1
 1.000000e+00
<MEAN> 38
 5.290879e+00 1.771727e+00 1.011173e+00 1.587514e+00 -2.062330e+00 -1.345144e+00 -3.112590e+00 -2.112616e+00 -6.956649e-01 -3.551947e-01 -4.832927e-03 -7.978280e-01 -8.477991e-02 -5.851013e-01 -1.845381e-01 -5.307359e-01 -5.268164e-01 -9.635079e-02 1.792206e-03 2.482878e-01 7.742347e-02 7.607933e-02 -1.801366e-02 8.893310e-02 1.403670e-02 -1.282463e-02 1.188495e-01 1.547432e-02 -7.814806e-03 9.756906e-02 8.195332e-02 8.557899e-02 -1.720244e-02 -3.061245e-02 -1.574101e-02 -2.929341e-02 -1.138917e-02 -1.366158e-03
<VARIANCE> 38
 2.452522e+01 6.127094e+01 4.695451e+01 6.267791e+01 5.738748e+01 5.280188e+01 5.122532e+01 4.352888e+01 4.360184e+01 4.037343e+01 3.637027e+01 2.935228e+01 1.693892e+00 3.504122e+00 2.562317e+00 3.095343e+00 3.230757e+00 2.871811e+00 2.935445e+00 2.659250e+00 2.970842e+00 2.588695e+00 2.502533e+00 2.005230e+00 1.000000e-02 3.124768e-01 5.752997e-01 3.806638e-01 4.699136e-01 4.846122e-01 5.001807e-01 4.800878e-01 4.434896e-01 4.982031e-01 4.474598e-01 4.265786e-01 3.414305e-01 1.000000e-02
<GCONST> 1.080623e+02
<TRANSP> 5
 0.000000e+00 1.000000e+00 0.000000e+00 0.000000e+00 0.000000e+00
 0.000000e+00 8.106491e-01 1.893509e-01 0.000000e+00 0.000000e+00
 0.000000e+00 0.000000e+00 6.740858e-01 3.259142e-01 0.000000e+00
 0.000000e+00 0.000000e+00 0.000000e+00 5.989038e-01 4.010962e-01
 0.000000e+00 0.000000e+00 0.000000e+00 0.000000e+00 0.000000e+00
<ENDHMM>
~h "d"
<BEGINHMM>
<NUMSTATES> 5
<STATE> 2
<SWEIGHTS> 1
 1.000000e+00
<MEAN> 38
 3.188429e+00 4.704238e+00 4.667096e+00 2.991659e+00 2.181631e-01 -3.283471e+00 -2.591364e+00 -2.043281e+00 -3.935470e-01 -1.103631e+00 -1.566604e+00 -9.374012e-01 -2.984452e-01 -3.290480e-01 9.928518e-02 -1.675780e-01 -3.881098e-02 -2.161790e-01 -2.933692e-01 6.362982e-02 1.262384e-01 -8.031477e-02 4.761698e-02 5.375557e-02 7.237320e-03 4.498553e-04 -1.384767e-01 -1.075137e-01 -9.253303e-02 -8.252519e-02 2.038316e-02 -9.000263e-03 3.220482e-02 1.989686e-02 5.607470e-02 4.155737e-02 3.559751e-02 1.941297e-03
<VARIANCE> 38
 3.617040e+01 6.463219e+01 4.136454e+01 4.263196e+01 4.944864e+01 4.957171e+01 5.093791e+01 4.494563e+01 4.040448e+01 3.584678e+01 3.667992e+01 3.147029e+01 3.263008e+00 6.439602e+00 3.217335e+00 3.601954e+00 4.425063e+00 4.512992e+00 4.046176e+00 3.685364e+00 3.465748e+00 3.222414e+00 3.369785e+00 2.831445e+00 1.000000e-02 5.559514e-01 1.186797e+00 5.262267e-01 6.271256e-01 7.619997e-01 8.210379e-01 6.684973e-01 6.313066e-01 5.942661e-01 5.903806e-01 6.111643e-01 5.157180e-01 1.000000e-02
<GCONST> 1.165329e+02
<STATE> 3
<SWEIGHTS> 1
 1.000000e+00
<MEAN> 38
 2.806050e+00 2.725801e+00 3.895839e+00 1.647777e+00 -8.365373e-01 -4.298975e+00 -4.074511e+00 -1.793100e+00 2.476994e-01 -7.314824e-01 -1.280487e+00 -4.865185e-01 -3.727134e-02 -4.161590e-01 -1.857058e-01 -2.717490e-01 -2.795917e-01 -1.034835e-01 -2.411800e-01 1.256632e-01 1.945340e-01 1.215002e-01 5.806339e-02 4.783159e-02 1.055945e-02 3.985941e-02 5.096728e-03 -5.438537e-02 -3.742540e-03 -5.187007e-03 8.007392e-02 7.384861e-02 7.469077e-03 -1.859916e-02 2.904622e-02 6.641964e-03 -1.292311e-02 -1.695922e-04
<VARIANCE> 38
 2.861067e+01 5.125942e+01 4.142039e+01 4.104287e+01 5.031417e+01 4.913336e+01 5.480043e+01 4.305003e+01 4.111333e+01 3.711258e+01 3.639693e+01 3.195447e+01 2.785210e+00 4.319467e+00 2.848898e+00 2.958148e+00 3.955731e+00 4.022737e+00 3.646965e+00 3.307183e+00 3.153177e+00 3.006325e+00 3.107550e+00 2.684518e+00 1.000000e-02 4.732460e-01 8.037228e-01 4.719479e-01 5.061273e-01 6.811162e-01 7.242166e-01 6.180364e-01 5.602654e-01 5.311901e-01 5.345443e-01 5.508550e-01 4.769925e-01 1.000000e-02
<GCONST> 1.128113e+02
<STATE> 4
<SWEIGHTS> 1
 1.000000e+00
<MEAN> 38
 2.939657e+00 1.384904e+00 2.976120e+00 8.196086e-01 -1.694817e+00 -4.337703e+00 -4.568281e+00 -1.371467e+00 7.696345e-01 -2.240337e-01 -1.100274e+00 -4.191626e-01 1.898392e-02 -2.486040e-01 -2.294055e-01 -1.763051e-01 -1.394661e-01 1.618352e-01 3.904842e-02 1.182048e-01 8.617178e-02 1.165781e-01 4.496286e-02 -3.292749e-02 5.974960e-03 -2.891690e-03 5.826537e-02 1.649475e-03 3.630377e-02 5.784372e-02 8.837833e-02 9.911211e-02 -1.379020e-02 -5.008985e-02 -1.981369e-02 -3.805790e-04 -6.482764e-03 -1.854045e-03
<VARIANCE> 38
 2.561262e+01 4.299244e+01 4.566780e+01 4.199486e+01 5.060193e+01 4.882845e+01 5.793268e+01 4.548833e+01 4.451983e+01 4.028240e+01 3.782795e+01 3.239897e+01 1.991271e+00 2.927359e+00 2.451450e+00 2.462469e+00 3.438189e+00 3.322181e+00 3.126493e+00 2.929879e+00 2.788787e+00 2.627469e+00 2.648744e+00 2.335526e+00 1.000000e-02 3.556961e-01 5.211943e-01 3.881602e-01 3.971877e-01 5.514392e-01 5.607808e-01 5.325952e-01 4.860479e-01 4.651582e-01 4.626205e-01 4.700728e-01 4.087932e-01 1.000000e-02
<GCONST> 1.082435e+02
<TRANSP> 5
 0.000000e+00 1.000000e+00 0.000000e+00 0.000000e+00 0.000000e+00
 0.000000e+00 7.815524e-01 2.184476e-01 0.000000e+00 0.000000e+00
 0.000000e+00 0.000000e+00 6.683034e-01 3.316966e-01 0.000000e+00
 0.000000e+00 0.000000e+00 0.000000e+00 6.099753e-01 3.900247e-01
 0.000000e+00 0.000000e+00 0.000000e+00 0.000000e+00 0.000000e+00
<ENDHMM>
~h "e"
<BEGINHMM>
<NUMSTATES> 5
<STATE> 2
<SWEIGHTS> 1
 1.000000e+00
<MEAN> 38
 1.896109e+00 1.524384e-01 9.136163e+00 -3.350817e+00 -1.240456e+01 -4.019162e+00 -1.361383e+00 -4.114037e+00 -2.918332e+00 2.765899e+00 3.044693e-01 3.520041e-01 -9.581524e-03 4.752918e-02 1.339240e-01 -1.028372e-01 -1.661924e-01 8.275130e-02 1.483380e-02 -1.155142e-01 -4.994466e-02 1.030498e-01 -2.866534e-02 -2.032545e-02 1.609851e-03 -1.588713e-02 1.802706e-02 -3.164973e-02 5.110073e-02 9.456389e-02 4.233695e-03 5.977052e-03 2.184219e-02 9.383826e-03 -3.333209e-02 -7.978555e-03 -1.583985e-03 -1.569973e-03
<VARIANCE> 38
 1.228692e+01 2.467955e+01 2.570196e+01 4.298029e+01 3.340877e+01 4.215450e+01 3.751175e+01 5.352931e+01 4.040874e+01 3.957583e+01 4.053263e+01 2.591608e+01 3.309887e-01 6.022033e-01 6.440070e-01 9.005117e-01 1.366095e+00 1.157616e+00 1.249273e+00 1.339417e+00 1.237242e+00 1.234439e+00 1.149201e+00 9.260823e-01 1.000000e-02 5.851018e-02 9.004507e-02 9.859737e-02 1.316464e-01 2.029217e-01 1.921716e-01 2.069434e-01 2.183322e-01 2.039373e-01 1.996511e-01 1.900718e-01 1.568626e-01 1.000000e-02
<GCONST> 7.919576e+01
<STATE> 3
<SWEIGHTS> 1
 1.000000e+00
<MEAN> 38
 2.124934e+00 1.056680e+00 9.432966e+00 -2.015272e+00 -1.095928e+01 -3.882686e+00 -9.434987e-01 -4.236117e+00 -3.978795e+00 1.889292e+00 -5.087056e-01 2.865368e-02 8.516126e-03 1.059968e-01 -1.763596e-01 4.348447e-01 6.121769e-01 -5.793712e-02 1.035770e-01 2.600228e-01 9.863591e-03 -2.671234e-01 -6.935936e-02 -4.801109e-03 -1.075211e-02 -3.515462e-02 2.355142e-04 -7.139350e-02 6.055448e-02 1.449464e-01 1.559746e-02 2.420711e-03 6.319354e-02 6.272782e-02 -4.201333e-02 -3.747033e-03 -3.759108e-03 -1.931444e-03
<VARIANCE> 38
 1.458931e+01 2.689715e+01 2.900478e+01 4.697654e+01 3.736051e+01 4.793972e+01 4.104710e+01 6.032441e+01 4.540432e+01 4.138960e+01 4.601226e+01 2.853965e+01 5.357929e-01 8.503624e-01 9.587118e-01 1.234708e+00 1.769470e+00 1.560791e+00 1.676984e+00 1.962952e+00 1.776261e+00 1.622256e+00 1.542434e+00 1.206541e+00 1.000000e-02 7.326709e-02 1.163581e-01 1.312574e-01 1.718514e-01 2.501549e-01 2.519985e-01 2.658411e-01 2.943507e-01 2.735466e-01 2.575514e-01 2.503997e-01 2.031677e-01 1.000000e-02
<GCONST> 8.761205e+01
<STATE> 4
<SWEIGHTS> 1
 1.000000e+00
<MEAN> 38
 1.557690e+00 1.640044e+00 8.032878e+00 1.135066e+00 -6.365132e+00 -4.083476e+00 -1.354105e-01 -2.178989e+00 -3.412749e+00 1.865707e-01 -8.169354e-01 2.989766e-02 -3.161841e-01 5.267244e-02 -6.317000e-01 6.781684e-01 1.403075e+00 1.648682e-01 1.022287e-01 5.801691e-01 4.305774e-01 -3.958910e-01 -9.565406e-02 -5.545935e-02 -2.199590e-02 -1.054650e-01 -2.880805e-02 -1.029048e-01 -3.270378e-02 9.613974e-02 1.084306e-01 -9.674059e-03 4.462697e-03 8.863188e-02 4.354168e-02 -6.420474e-04 -2.724693e-02 -8.218496e-04
<VARIANCE> 38
 2.828361e+01 3.255393e+01 3.514285e+01 4.644288e+01 5.033138e+01 5.001977e+01 4.508636e+01 6.278402e+01 4.746857e+01 3.882052e+01 3.998236e+01 2.890868e+01 1.408315e+00 1.422874e+00 1.399152e+00 1.925937e+00 2.530929e+00 2.374964e+00 2.470818e+00 2.944887e+00 2.574450e+00 2.308071e+00 2.227201e+00 1.685606e+00 1.000000e-02 1.345445e-01 2.035596e-01 2.056147e-01 2.634799e-01 3.826220e-01 3.710851e-01 3.682515e-01 4.310363e-01 3.934348e-01 3.670087e-01 3.490447e-01 2.911524e-01 1.000000e-02
<GCONST> 9.924473e+01
<TRANSP> 5
 0.000000e+00 1.000000e+00 0.000000e+00 0.000000e+00 0.000000e+00
 0.000000e+00 9.524187e-01 4.758130e-02 0.000000e+00 0.000000e+00
 0.000000e+00 0.000000e+00 8.202925e-01 1.797075e-01 0.000000e+00
 0.000000e+00 0.000000e+00 0.000000e+00 7.237154e-01 2.762845e-01
 0.000000e+00 0.000000e+00 0.000000e+00 0.000000e+00 0.000000e+00
<ENDHMM>
~h "f"
<BEGINHMM>
<NUMSTATES> 5
<STATE> 2
<SWEIGHTS> 1
 1.000000e+00
<MEAN> 38
 -1.131123e+01 -5.476076e+00 -5.587689e+00 4.627518e+00 1.820665e+00 1.863050e+00 7.857611e-01 3.174183e+00 4.038527e+00 2.557173e+00 2.179495e+00 2.154105e+00 -2.462569e-01 -3.067523e-01 -2.955964e-01 -9.099773e-02 -1.056992e-02 -2.624655e-02 -7.950331e-02 -5.229536e-03 1.464144e-01 1.426130e-01 8.807938e-02 3.642897e-02 -2.043282e-03 2.550772e-01 1.014860e-01 5.972267e-02 -1.044508e-01 -4.332158e-02 -1.301263e-02 -2.542182e-02 -7.399586e-02 -9.787074e-02 -5.998269e-02 -5.300369e-02 -5.500984e-02 3.410249e-03
<VARIANCE> 38
 4.080059e+01 2.508293e+01 3.233709e+01 3.157736e+01 2.685625e+01 3.114856e+01 2.787045e+01 3.344949e+01 3.052187e+01 2.860841e+01 2.819198e+01 2.246659e+01 3.015179e+00 1.300115e+00 1.441583e+00 2.240705e+00 1.934154e+00 1.934949e+00 1.975637e+00 2.325830e+00 2.478812e+00 2.229894e+00 2.096123e+00 1.891085e+00 1.000000e-02 2.500169e-01 2.038095e-01 2.404190e-01 3.797929e-01 3.648141e-01 3.677739e-01 3.902142e-01 4.336118e-01 4.584393e-01 4.302694e-01 4.045426e-01 3.656760e-01 1.000000e-02
<GCONST> 9.705904e+01
<STATE> 3
<SWEIGHTS> 1
 1.000000e+00
<MEAN> 38
 -9.292345e+00 -5.640361e+00 -5.993419e+00 3.339950e+00 1.362733e+00 1.373394e+00 1.876962e-01 2.326313e+00 3.620097e+00 2.427115e+00 2.025068e+00 1.699804e+00 1.246785e+00 3.408481e-01 1.164730e-01 -4.276083e-01 -1.314265e-01 -7.865755e-02 -2.166416e-01 -4.267201e-01 -3.918460e-01 -2.233313e-01 -2.362064e-01 -2.948620e-01 1.668419e-02 2.740293e-01 1.241769e-01 6.251892e-02 -1.065747e-01 -6.829006e-02 2.017823e-03 -3.915723e-02 -8.023744e-02 -1.130179e-01 -5.003072e-02 -4.980804e-02 -4.722211e-02 5.210442e-03
<VARIANCE> 38
 5.732152e+01 2.524290e+01 3.386954e+01 3.353244e+01 2.882249e+01 3.381672e+01 3.000531e+01 3.720994e+01 3.253299e+01 2.979053e+01 2.935956e+01 2.385937e+01 4.677005e+00 2.033671e+00 1.794728e+00 2.433627e+00 2.106479e+00 2.247212e+00 2.343832e+00 2.867939e+00 3.002978e+00 2.596495e+00 2.569705e+00 2.190360e+00 1.000000e-02 4.485510e-01 3.275886e-01 2.931193e-01 4.165185e-01 3.955668e-01 4.008172e-01 4.300108e-01 5.023591e-01 5.214881e-01 4.902653e-01 4.563648e-01 3.991902e-01 1.000000e-02
<GCONST> 1.027765e+02
<STATE> 4
<SWEIGHTS> 1
 1.000000e+00
<MEAN> 38
 -2.885858e+00 -3.466975e+00 -4.847709e+00 1.491341e+00 5.777799e-01 9.193044e-01 -7.262091e-01 3.052711e-01 1.518674e+00 1.232692e+00 8.676929e-01 3.239920e-01 1.915084e+00 6.650647e-01 2.862152e-01 -7.653583e-01 -3.951685e-01 -6.622079e-02 -3.332116e-01 -5.939372e-01 -6.730044e-01 -3.030339e-01 -3.248273e-01 -3.706380e-01 3.251800e-02 -1.205719e-01 -5.365868e-02 -1.347122e-02 -7.267757e-02 -4.957084e-02 3.069754e-02 1.743186e-02 7.288964e-02 4.623966e-02 6.170882e-02 6.001512e-02 6.104729e-02 1.560024e-04
<VARIANCE> 38
 8.865147e+01 2.941670e+01 4.099793e+01 4.563026e+01 3.568802e+01 4.223399e+01 3.618017e+01 4.276789e+01 3.921832e+01 3.301112e+01 3.148616e+01 2.658900e+01 4.627801e+00 2.733789e+00 2.284174e+00 3.204390e+00 2.679046e+00 2.730850e+00 2.868737e+00 3.425354e+00 3.397328e+00 2.966478e+00 2.898775e+00 2.311075e+00 1.000000e-02 6.612798e-01 4.314382e-01 3.385583e-01 4.997422e-01 4.502010e-01 4.315327e-01 4.802969e-01 5.624340e-01 5.598800e-01 5.302058e-01 4.787139e-01 4.026017e-01 1.000000e-02
<GCONST> 1.087643e+02
<TRANSP> 5
 0.000000e+00 1.000000e+00 0.000000e+00 0.000000e+00 0.000000e+00
 0.000000e+00 8.369493e-01 1.630506e-01 0.000000e+00 0.000000e+00
 0.000000e+00 0.000000e+00 7.501407e-01 2.498593e-01 0.000000e+00
 0.000000e+00 0.000000e+00 0.000000e+00 6.671349e-01 3.328650e-01
 0.000000e+00 0.000000e+00 0.000000e+00 0.000000e+00 0.000000e+00
<ENDHMM>
~h "g"
<BEGINHMM>
<NUMSTATES> 5
<STATE> 2
<SWEIGHTS> 1
 1.000000e+00
<MEAN> 38
 2.950055e+00 5.697057e+00 5.356335e+00 3.610668e+00 -1.607708e+00 -2.487698e+00 1.093363e-01 -1.893329e+00 -3.456934e+00 4.899571e-01 -1.198773e+00 -1.804607e+00 -5.116588e-02 2.542855e-01 -1.621867e-01 4.410852e-01 7.537435e-01 1.146725e-01 2.242871e-03 -1.387148e-01 2.172319e-01 -1.610685e-01 -8.530033e-02 -3.426255e-02 -1.617120e-02 -2.796184e-02 -1.428667e-01 -1.312572e-01 -8.516094e-02 2.445748e-03 4.195608e-02 -3.709287e-02 -2.308238e-03 2.548577e-02 -2.081309e-03 3.428778e-02 3.557899e-02 2.070298e-03
<VARIANCE> 38
 2.976517e+01 5.876937e+01 7.426799e+01 4.812914e+01 7.397595e+01 5.318227e+01 4.832757e+01 5.942373e+01 4.698605e+01 4.085189e+01 4.137569e+01 3.018934e+01 1.659890e+00 4.756381e+00 4.729189e+00 3.390279e+00 4.961473e+00 3.895899e+00 3.930954e+00 3.959589e+00 3.634784e+00 3.063708e+00 2.908633e+00 2.267629e+00 1.000000e-02 2.242053e-01 8.032469e-01 8.035392e-01 5.420522e-01 7.775740e-01 6.902991e-01 7.101043e-01 6.575528e-01 6.411225e-01 5.456781e-01 5.132951e-01 4.140664e-01 1.000000e-02
<GCONST> 1.155237e+02
<STATE> 3
<SWEIGHTS> 1
 1.000000e+00
<MEAN> 38
 2.484695e+00 5.179896e+00 3.022709e+00 4.649976e+00 1.575992e+00 -1.500154e+00 -3.522877e-02 -2.099759e+00 -2.585974e+00 -3.432490e-01 -9.659545e-01 -1.423113e+00 -9.739331e-02 -3.569056e-01 -3.901150e-01 -1.164879e-02 2.377612e-01 2.718299e-02 -1.370090e-01 -1.036127e-01 1.238519e-01 -1.001203e-02 7.819123e-02 6.700745e-02 1.983213e-03 1.518682e-02 -6.592352e-02 1.565016e-02 -8.800171e-02 -1.487817e-01 -4.259243e-02 -2.084195e-02 2.381429e-02 -1.373290e-02 3.076141e-02 2.350661e-02 9.550405e-03 4.010607e-03
<VARIANCE> 38
 3.346177e+01 7.494131e+01 6.907452e+01 4.503810e+01 6.210666e+01 5.449586e+01 5.102689e+01 4.924138e+01 4.031141e+01 3.602727e+01 3.783187e+01 2.901269e+01 2.226110e+00 6.821290e+00 5.460797e+00 3.761773e+00 5.385228e+00 4.751366e+00 4.344270e+00 4.124863e+00 3.658633e+00 3.208869e+00 3.151122e+00 2.355760e+00 1.000000e-02 3.368593e-01 1.220457e+00 9.648990e-01 6.705245e-01 8.746966e-01 8.348550e-01 7.763507e-01 7.119598e-01 6.791555e-01 5.866738e-01 5.867504e-01 4.328882e-01 1.000000e-02
<GCONST> 1.185529e+02
<STATE> 4
<SWEIGHTS> 1
 1.000000e+00
<MEAN> 38
 2.184592e+00 2.767215e+00 1.407275e+00 3.760485e+00 1.159847e+00 -2.137100e+00 -1.034871e+00 -2.376672e+00 -2.106992e+00 -1.682549e-01 -4.855224e-01 -9.938892e-01 4.269229e-02 -5.627930e-01 -2.464533e-01 -3.778353e-01 -4.406751e-01 -2.381946e-01 -2.842328e-01 9.896388e-02 1.195402e-01 1.016254e-01 1.173013e-01 8.352842e-02 1.988577e-02 6.953465e-02 7.074644e-02 5.387367e-02 -3.409715e-02 -1.081840e-01 2.318055e-03 3.950609e-02 5.636034e-02 -1.721758e-02 4.163854e-04 -9.769509e-03 -1.102328e-02 1.510371e-03
<VARIANCE> 38
 3.534208e+01 6.811662e+01 5.904861e+01 4.488333e+01 6.739931e+01 5.774385e+01 5.388918e+01 5.046730e+01 4.403887e+01 3.942968e+01 3.585974e+01 3.180853e+01 2.753815e+00 6.269855e+00 4.454570e+00 3.655291e+00 5.287591e+00 5.074417e+00 4.455442e+00 4.431729e+00 4.029365e+00 3.553129e+00 3.353397e+00 2.594846e+00 1.000000e-02 4.608059e-01 1.127542e+00 7.960601e-01 6.503066e-01 9.158753e-01 8.907230e-01 7.652579e-01 7.405832e-01 7.432514e-01 6.582311e-01 6.054739e-01 4.689518e-01 1.000000e-02
<GCONST> 1.196493e+02
<TRANSP> 5
 0.000000e+00 1.000000e+00 0.000000e+00 0.000000e+00 0.000000e+00
 0.000000e+00 8.151495e-01 1.848504e-01 0.000000e+00 0.000000e+00
 0.000000e+00 0.000000e+00 8.274739e-01 1.725261e-01 0.000000e+00
 0.000000e+00 0.000000e+00 0.000000e+00 7.931377e-01 2.068623e-01
 0.000000e+00 0.000000e+00 0.000000e+00 0.000000e+00 0.000000e+00
<ENDHMM>
~h "h"
<BEGINHMM>
<NUMSTATES> 5
<STATE> 2
<SWEIGHTS> 1
 1.000000e+00
<MEAN> 38
 3.040369e+00 -4.443024e+00 -2.835066e+00 -5.062614e-01 1.232299e+00 3.433400e+00 3.996780e+00 8.615205e-01 -5.757637e-01 -2.135132e+00 -2.491177e+00 -1.486729e+00 2.213152e-01 -8.276488e-02 -1.244784e-01 -2.076187e-01 -2.240253e-01 -2.447261e-02 -1.744312e-02 -2.612766e-02 -7.572528e-02 -2.702574e-02 -1.925969e-02 -1.284363e-01 9.713816e-03 -2.708480e-02 2.882817e-02 9.464427e-03 9.322298e-03 -4.134532e-03 -3.992582e-02 -3.391582e-02 9.600207e-03 3.332595e-02 3.607187e-02 3.763518e-02 2.862843e-02 -8.679176e-04
<VARIANCE> 38
 2.322056e+01 3.597631e+01 4.131985e+01 3.926635e+01 6.001099e+01 5.264010e+01 5.100027e+01 4.316334e+01 3.844938e+01 3.783997e+01 3.402406e+01 2.900301e+01 4.920588e-01 7.764032e-01 9.443349e-01 1.158674e+00 1.433877e+00 1.470971e+00 1.603891e+00 1.586000e+00 1.508465e+00 1.482457e+00 1.406834e+00 1.299487e+00 1.000000e-02 7.124008e-02 1.153240e-01 1.389133e-01 1.810153e-01 2.167109e-01 2.401471e-01 2.717102e-01 2.778646e-01 2.711851e-01 2.694892e-01 2.546360e-01 2.365198e-01 1.000000e-02
<GCONST> 8.744646e+01
<STATE> 3
<SWEIGHTS> 1
 1.000000e+00
<MEAN> 38
 4.078935e+00 -3.402661e+00 -2.531663e+00 -1.648629e+00 -9.669982e-01 2.068475e+00 2.769717e+00 9.043174e-01 -9.352531e-01 -2.094627e+00 -2.339402e+00 -1.892891e+00 2.035666e-01 4.431490e-02 -4.187829e-02 -1.788300e-01 -2.656045e-01 -1.603922e-01 -1.699929e-01 -3.154147e-02 -5.608780e-03 6.330250e-02 5.766607e-02 -6.513853e-02 8.021089e-03 -1.738654e-02 4.171132e-02 2.651267e-02 2.757307e-02 1.918208e-02 -2.253358e-02 -3.063116e-02 -9.177354e-03 1.698121e-02 2.545609e-02 2.512208e-02 2.777754e-02 -1.184067e-03
<VARIANCE> 38
 2.526945e+01 4.546222e+01 4.635521e+01 4.516294e+01 6.340252e+01 5.725354e+01 5.212420e+01 4.915865e+01 4.152604e+01 3.789795e+01 3.488658e+01 3.078284e+01 4.344760e-01 8.013981e-01 9.574117e-01 1.144109e+00 1.372132e+00 1.395411e+00 1.527905e+00 1.524952e+00 1.426415e+00 1.417900e+00 1.326140e+00 1.205034e+00 1.000000e-02 6.328178e-02 1.141814e-01 1.360355e-01 1.751366e-01 2.114360e-01 2.275196e-01 2.538112e-01 2.618969e-01 2.512083e-01 2.489467e-01 2.354622e-01 2.131500e-01 1.000000e-02
<GCONST> 8.723622e+01
<STATE> 4
<SWEIGHTS> 1
 1.000000e+00
<MEAN> 38
 4.321369e+00 -2.814159e+00 -2.057333e+00 -1.692364e+00 -1.648743e+00 1.226285e+00 2.021125e+00 7.393025e-01 -8.563278e-01 -1.758607e+00 -2.036516e+00 -1.792859e+00 1.932191e-01 1.666470e-01 5.712383e-02 -1.036072e-01 -1.824026e-01 -1.895150e-01 -2.671297e-01 -1.078338e-01 -4.323935e-03 1.098949e-01 1.047309e-01 -3.350388e-03 5.798611e-03 -1.214354e-02 5.795881e-02 3.634920e-02 3.493544e-02 3.815080e-02 -4.633844e-03 -1.878338e-02 -2.986286e-02 -5.774718e-03 1.107883e-02 1.063834e-02 2.207262e-02 -1.314134e-03
<VARIANCE> 38
 2.687214e+01 4.774428e+01 5.160977e+01 4.876928e+01 6.462045e+01 6.071998e+01 5.289165e+01 5.120717e+01 4.306812e+01 3.890069e+01 3.650848e+01 3.186251e+01 5.209981e-01 9.766662e-01 1.117664e+00 1.302621e+00 1.543550e+00 1.524688e+00 1.660960e+00 1.630868e+00 1.557350e+00 1.505065e+00 1.423643e+00 1.285974e+00 1.000000e-02 7.505647e-02 1.382323e-01 1.552435e-01 1.966902e-01 2.363133e-01 2.445827e-01 2.746882e-01 2.830818e-01 2.710358e-01 2.608933e-01 2.519576e-01 2.249654e-01 1.000000e-02
<GCONST> 9.030577e+01
<TRANSP> 5
 0.000000e+00 1.000000e+00 0.000000e+00 0.000000e+00 0.000000e+00
 0.000000e+00 8.117108e-01 1.882892e-01 0.000000e+00 0.000000e+00
 0.000000e+00 0.000000e+00 6.928273e-01 3.071728e-01 0.000000e+00
 0.000000e+00 0.000000e+00 0.000000e+00 5.710852e-01 4.289148e-01
 0.000000e+00 0.000000e+00 0.000000e+00 0.000000e+00 0.000000e+00
<ENDHMM>
~h "i"
<BEGINHMM>
<NUMSTATES> 5
<STATE> 2
<SWEIGHTS> 1
 1.000000e+00
<MEAN> 38
 4.916101e-01 6.568632e+00 1.394141e+01 -4.241113e-01 -8.629063e+00 -8.005457e-01 -3.125121e+00 -8.897198e+00 -6.358541e+00 -2.270778e-01 -2.682131e+00 -1.436406e+00 1.214197e-01 2.192899e-01 3.554681e-01 -1.596983e-01 -2.862301e-01 1.766913e-01 -1.744025e-01 -2.751995e-01 -1.147687e-01 3.347690e-02 -1.717254e-01 -6.968947e-02 4.840328e-03 -7.442248e-02 -5.843829e-02 -1.502238e-01 5.297133e-02 1.525916e-01 -8.307936e-03 7.671443e-02 1.302329e-01 9.147307e-02 1.288304e-02 4.113662e-02 2.390079e-02 -3.272294e-03
<VARIANCE> 38
 2.173869e+01 2.574603e+01 2.961150e+01 4.973363e+01 4.203161e+01 4.077342e+01 4.479595e+01 5.128612e+01 4.501700e+01 3.881060e+01 4.937486e+01 3.089286e+01 1.266533e+00 1.295120e+00 1.737816e+00 1.989456e+00 2.879900e+00 2.310939e+00 2.602942e+00 2.768615e+00 2.306785e+00 2.039170e+00 2.228117e+00 1.623059e+00 1.000000e-02 1.595716e-01 2.154897e-01 2.411648e-01 2.815755e-01 3.951491e-01 3.813625e-01 3.999627e-01 4.328316e-01 3.896829e-01 3.544866e-01 3.585677e-01 2.767048e-01 1.000000e-02
<GCONST> 9.867656e+01
<STATE> 3
<SWEIGHTS> 1
 1.000000e+00
<MEAN> 38
 2.838398e-01 6.878983e+00 1.331978e+01 4.450611e-01 -7.257604e+00 -7.075366e-01 -2.335661e+00 -7.825992e+00 -5.638799e+00 -3.039982e-01 -2.638542e+00 -1.285158e+00 -1.397250e-01 -8.203219e-02 -4.099959e-01 3.843857e-01 5.791893e-01 -8.787791e-02 3.134312e-01 4.305080e-01 2.070165e-01 -4.431501e-02 1.193665e-01 3.954549e-02 -1.504908e-02 -4.229650e-02 -6.784714e-02 -1.277228e-01 3.314051e-02 1.045495e-01 -4.382195e-04 4.118742e-02 9.844951e-02 5.981629e-02 -8.572459e-03 2.695836e-02 1.379128e-02 -2.134833e-03
<VARIANCE> 38
 2.366196e+01 2.651168e+01 3.043937e+01 5.163300e+01 4.993617e+01 4.315504e+01 4.458955e+01 5.054659e+01 4.618127e+01 3.988984e+01 4.694629e+01 3.136865e+01 9.858848e-01 1.165126e+00 1.436155e+00 1.781569e+00 2.487032e+00 2.247252e+00 2.170982e+00 2.381829e+00 2.068358e+00 1.920009e+00 1.982234e+00 1.524585e+00 1.000000e-02 1.051347e-01 1.719361e-01 2.045829e-01 2.574465e-01 3.546392e-01 3.685032e-01 3.517869e-01 3.791523e-01 3.529124e-01 3.370073e-01 3.329975e-01 2.667537e-01 1.000000e-02
<GCONST> 9.601012e+01
<STATE> 4
<SWEIGHTS> 1
 1.000000e+00
<MEAN> 38
 -7.146772e-01 5.551157e+00 9.872490e+00 2.956610e+00 -3.333937e+00 -1.286358e+00 -1.684095e-01 -4.395339e+00 -3.933246e+00 -6.157827e-01 -1.574317e+00 -7.716951e-01 -2.992166e-01 -4.578633e-01 -1.025713e+00 3.367228e-01 9.111384e-01 5.035124e-02 3.947988e-01 8.506877e-01 5.432421e-01 -2.638608e-02 1.899074e-01 9.620050e-02 -2.173488e-02 -3.168627e-02 -9.043457e-02 -9.428007e-02 -1.029002e-01 -4.129438e-02 4.303163e-02 -2.053461e-02 1.535571e-02 5.373841e-02 4.838653e-02 1.711619e-02 8.097510e-03 1.727977e-03
<VARIANCE> 38
 4.362041e+01 3.289138e+01 3.673148e+01 4.788062e+01 6.444824e+01 4.955666e+01 4.867116e+01 5.441420e+01 4.543111e+01 3.846764e+01 3.933501e+01 3.033110e+01 1.390633e+00 1.451060e+00 1.664617e+00 1.969352e+00 2.710609e+00 2.602122e+00 2.404121e+00 2.719070e+00 2.463671e+00 2.256004e+00 2.244127e+00 1.745489e+00 1.000000e-02 1.244635e-01 2.274168e-01 2.480973e-01 2.993553e-01 4.203219e-01 4.213116e-01 3.861767e-01 4.325041e-01 3.995413e-01 3.977225e-01 3.867858e-01 3.140755e-01 1.000000e-02
<GCONST> 1.010390e+02
<TRANSP> 5
 0.000000e+00 1.000000e+00 0.000000e+00 0.000000e+00 0.000000e+00
 0.000000e+00 9.109259e-01 8.907416e-02 0.000000e+00 0.000000e+00
 0.000000e+00 0.000000e+00 8.335202e-01 1.664798e-01 0.000000e+00
 0.000000e+00 0.000000e+00 0.000000e+00 7.487395e-01 2.512605e-01
 0.000000e+00 0.000000e+00 0.000000e+00 0.000000e+00 0.000000e+00
<ENDHMM>
~h "j"
<BEGINHMM>
<NUMSTATES> 5
<STATE> 2
<SWEIGHTS> 1
 1.000000e+00
<MEAN> 38
 9.899056e-01 3.868327e+00 1.165386e+01 -3.979941e-01 -9.076909e+00 -3.123307e+00 -3.125823e+00 -3.750151e+00 -5.376208e+00 1.834146e-01 -3.011863e-02 -1.013714e+00 1.574608e-01 -5.571158e-02 1.565205e-01 -3.053355e-02 -3.830737e-01 -1.922936e-01 4.185216e-02 6.790145e-02 -1.478960e-01 4.491940e-02 1.078817e-01 1.264465e-02 6.013602e-03 -5.002373e-02 -7.197171e-02 -1.665442e-01 1.808606e-02 1.429282e-01 4.981188e-02 4.347686e-02 7.306600e-02 1.122903e-01 6.208299e-03 -4.672293e-03 1.292015e-02 -2.248422e-03
<VARIANCE> 38
 2.496007e+01 4.326192e+01 5.104001e+01 5.246906e+01 4.654926e+01 4.897123e+01 4.274660e+01 4.769489e+01 4.591002e+01 5.075553e+01 3.796265e+01 3.127499e+01 1.003892e+00 1.336507e+00 2.026070e+00 1.288597e+00 2.491357e+00 2.207867e+00 2.104695e+00 2.413413e+00 2.374652e+00 2.099710e+00 1.781037e+00 1.501342e+00 1.000000e-02 1.241588e-01 1.412365e-01 1.700112e-01 1.905792e-01 3.227795e-01 3.124902e-01 3.202373e-01 3.779137e-01 3.831310e-01 3.434047e-01 2.982705e-01 2.562191e-01 1.000000e-02
<GCONST> 9.638666e+01
<STATE> 3
<SWEIGHTS> 1
 1.000000e+00
<MEAN> 38
 2.002653e+00 1.486246e+00 9.284987e+00 3.566093e-01 -9.762534e+00 -4.797594e+00 -2.358313e+00 -1.838846e+00 -4.903808e+00 -3.675883e-02 6.478325e-01 -4.510886e-01 1.653358e-01 -3.357914e-01 -5.828139e-01 1.108303e-01 1.864561e-01 -1.246884e-01 1.732262e-01 4.119992e-01 2.496189e-01 -7.151187e-02 -3.115891e-02 4.145033e-02 -9.111243e-04 -2.929781e-02 9.660049e-03 -9.328830e-02 1.348953e-02 1.723022e-01 7.970771e-02 7.861980e-03 5.620210e-03 7.770752e-02 -2.769167e-02 -4.897298e-02 -1.396077e-02 -2.096278e-03
<VARIANCE> 38
 2.137762e+01 3.684444e+01 5.363298e+01 5.116088e+01 4.284881e+01 4.684297e+01 4.726049e+01 4.665669e+01 4.560028e+01 5.073327e+01 3.696488e+01 3.112149e+01 6.178119e-01 1.149038e+00 1.779466e+00 1.168431e+00 2.161155e+00 1.931249e+00 1.982197e+00 2.158980e+00 2.169741e+00 1.987710e+00 1.717155e+00 1.435333e+00 1.000000e-02 7.936457e-02 1.140258e-01 1.505410e-01 1.678839e-01 2.841108e-01 2.753078e-01 2.802349e-01 3.283815e-01 3.362630e-01 3.124361e-01 2.772740e-01 2.446115e-01 1.000000e-02
<GCONST> 9.268710e+01
<STATE> 4
<SWEIGHTS> 1
 1.000000e+00
<MEAN> 38
 2.977341e+00 -6.639009e-01 4.944545e+00 9.492972e-01 -7.570762e+00 -5.079687e+00 -1.372768e+00 4.711618e-01 -2.978608e+00 -6.269133e-01 2.200337e-01 -1.487523e-01 9.380709e-02 -2.199898e-01 -8.300554e-01 1.222247e-01 8.465218e-01 2.706866e-01 1.513208e-01 2.912136e-01 4.487434e-01 -1.494105e-01 -2.364998e-01 -8.286768e-02 -8.941723e-03 -4.963050e-02 6.001468e-02 6.600078e-03 -9.758027e-03 1.272107e-01 1.116753e-01 -4.807838e-03 -8.950817e-02 -6.314088e-03 1.421358e-02 -1.411372e-04 -2.412777e-02 -1.730371e-03
<VARIANCE> 38
 2.403375e+01 3.545210e+01 6.399778e+01 4.880587e+01 4.728264e+01 4.861933e+01 5.699829e+01 4.799982e+01 4.639703e+01 4.614156e+01 3.662760e+01 3.203133e+01 6.744854e-01 1.147007e+00 1.610913e+00 1.367036e+00 2.045751e+00 2.064380e+00 2.069661e+00 2.237838e+00 2.198799e+00 2.214178e+00 1.839362e+00 1.626258e+00 1.000000e-02 7.515109e-02 1.260045e-01 1.559391e-01 1.754552e-01 2.712096e-01 2.811924e-01 2.958008e-01 3.347352e-01 3.406062e-01 3.220055e-01 2.886450e-01 2.637562e-01 1.000000e-02
<GCONST> 9.406902e+01
<TRANSP> 5
 0.000000e+00 1.000000e+00 0.000000e+00 0.000000e+00 0.000000e+00
 0.000000e+00 8.342460e-01 1.657540e-01 0.000000e+00 0.000000e+00
 0.000000e+00 0.000000e+00 7.811549e-01 2.188451e-01 0.000000e+00
 0.000000e+00 0.000000e+00 0.000000e+00 7.410360e-01 2.589640e-01
 0.000000e+00 0.000000e+00 0.000000e+00 0.000000e+00 0.000000e+00
<ENDHMM>
~h "k"
<BEGINHMM>
<NUMSTATES> 5
<STATE> 2
<SWEIGHTS> 1
 1.000000e+00
<MEAN> 38
 -3.314933e+00 -1.640876e+00 -1.453865e+00 3.868125e+00 3.345908e+00 -1.714435e-02 1.676051e+00 1.966751e+00 3.093852e-01 2.647334e+00 5.933371e-01 7.911923e-01 -2.495428e-01 -9.845168e-01 -8.445329e-01 -4.124470e-01 -9.334913e-02 -2.755656e-01 -3.258561e-01 7.285521e-02 8.363924e-02 3.378259e-01 1.975953e-01 2.569890e-01 1.989127e-02 8.839647e-02 5.003240e-02 2.893366e-02 -9.378158e-02 -1.288422e-01 -7.399455e-02 -5.813890e-02 -5.290815e-02 -4.562295e-02 -2.056532e-02 -1.159289e-02 -1.741318e-02 5.175651e-03
<VARIANCE> 38
 3.327714e+01 7.642878e+01 9.124822e+01 5.339891e+01 6.051807e+01 5.903004e+01 6.342228e+01 5.185307e+01 5.233128e+01 4.332750e+01 3.887891e+01 3.243836e+01 2.083760e+00 8.095904e+00 7.248265e+00 4.642122e+00 4.810909e+00 4.685434e+00 5.084201e+00 4.198013e+00 4.259847e+00 3.822268e+00 3.368386e+00 2.919287e+00 1.000000e-02 3.079824e-01 1.512576e+00 1.259828e+00 8.053733e-01 7.890158e-01 8.132369e-01 9.130226e-01 7.466767e-01 7.686168e-01 7.089053e-01 6.110471e-01 5.461861e-01 1.000000e-02
<GCONST> 1.224196e+02
<STATE> 3
<SWEIGHTS> 1
 1.000000e+00
<MEAN> 38
 -3.666027e+00 -4.292163e+00 -3.539038e+00 1.308227e+00 1.200811e+00 -1.979004e+00 2.419178e-01 1.761032e+00 2.595737e-01 3.767330e+00 1.221051e+00 1.667530e+00 3.929188e-01 3.274057e-01 2.860770e-01 -2.993573e-01 -5.115095e-01 -3.124934e-01 -1.876139e-01 -2.082853e-01 -1.749709e-01 -1.420060e-01 -5.929559e-02 -1.240157e-01 2.163900e-02 1.211487e-01 1.821747e-01 1.781638e-01 4.396747e-02 -2.303049e-02 5.817484e-02 5.508931e-02 -2.194949e-02 -2.452182e-02 -1.120552e-01 -3.942461e-02 -7.259259e-02 -5.196580e-04
<VARIANCE> 38
 3.708376e+01 5.234611e+01 8.133281e+01 5.048045e+01 5.952135e+01 5.824147e+01 5.966691e+01 5.260648e+01 5.207286e+01 4.423647e+01 3.960294e+01 3.141335e+01 2.816428e+00 5.878832e+00 5.738870e+00 3.841086e+00 3.937386e+00 3.892033e+00 4.128732e+00 3.970073e+00 4.278904e+00 3.735349e+00 3.529481e+00 2.889940e+00 1.000000e-02 3.836922e-01 1.094770e+00 9.697853e-01 6.995314e-01 7.056924e-01 6.998625e-01 7.656400e-01 7.060609e-01 7.553232e-01 6.670582e-01 6.111923e-01 5.159717e-01 1.000000e-02
<GCONST> 1.196956e+02
<STATE> 4
<SWEIGHTS> 1
 1.000000e+00
<MEAN> 38
 -1.825654e+00 -2.691989e+00 -1.893061e+00 5.882219e-01 -5.186924e-01 -2.901686e+00 -2.252415e-01 1.008474e+00 -4.420612e-01 2.846233e+00 7.960222e-01 9.919481e-01 7.193423e-01 5.674610e-01 5.328450e-01 -2.231960e-01 -5.042001e-01 -8.734951e-02 -7.214820e-02 -2.126221e-01 -1.914845e-01 -4.316398e-01 -1.331751e-01 -2.776284e-01 2.208268e-02 -3.662780e-02 -1.153136e-01 -9.332012e-02 -2.731676e-02 5.242090e-02 9.637359e-02 3.358999e-02 5.626158e-02 6.313960e-02 3.486761e-03 2.600606e-02 1.693470e-02 -4.186002e-04
<VARIANCE> 38
 4.792964e+01 4.137404e+01 7.271387e+01 4.755012e+01 5.896957e+01 5.621095e+01 5.482029e+01 5.782756e+01 5.206110e+01 4.439001e+01 4.325413e+01 3.123686e+01 3.207219e+00 3.611011e+00 3.831823e+00 3.238095e+00 3.729016e+00 3.473183e+00 3.731227e+00 3.834510e+00 4.088140e+00 3.437508e+00 3.416268e+00 2.640538e+00 1.000000e-02 4.079857e-01 6.866353e-01 6.982781e-01 5.794309e-01 6.323980e-01 5.911510e-01 6.288498e-01 6.557522e-01 6.915940e-01 6.166039e-01 5.832799e-01 4.673763e-01 1.000000e-02
<GCONST> 1.163245e+02
<TRANSP> 5
 0.000000e+00 1.000000e+00 0.000000e+00 0.000000e+00 0.000000e+00
 0.000000e+00 8.795837e-01 1.204163e-01 0.000000e+00 0.000000e+00
 0.000000e+00 0.000000e+00 7.320037e-01 2.679963e-01 0.000000e+00
 0.000000e+00 0.000000e+00 0.000000e+00 6.337302e-01 3.662698e-01
 0.000000e+00 0.000000e+00 0.000000e+00 0.000000e+00 0.000000e+00
<ENDHMM>
~h "l"
<BEGINHMM>
<NUMSTATES> 5
<STATE> 2
<SWEIGHTS> 1
 1.000000e+00
<MEAN> 38
 7.139007e+00 1.193521e+00 -4.070745e+00 -9.631856e+00 -4.862632e-01 2.724308e+00 -5.548841e+00 -4.368356e+00 1.798646e-01 -7.886817e-01 1.964154e-01 -9.263936e-01 1.019108e-01 2.913832e-01 -2.888210e-03 -3.594353e-01 6.473274e-02 1.692064e-01 -7.525356e-02 -6.357779e-02 -1.303489e-01 -4.824278e-02 1.342231e-01 5.764624e-02 -6.863503e-04 -5.721484e-02 -2.213530e-02 1.332865e-02 9.809978e-02 -1.087904e-02 -3.710587e-02 1.004874e-01 5.989023e-02 -2.312482e-02 -1.068293e-02 1.789356e-03 7.116973e-03 -1.507822e-03
<VARIANCE> 38
 1.599365e+01 4.121920e+01 6.779919e+01 8.500024e+01 5.039228e+01 7.001959e+01 7.616865e+01 5.418664e+01 4.871622e+01 5.519546e+01 5.030971e+01 4.166080e+01 4.464863e-01 1.024139e+00 1.293877e+00 1.735789e+00 1.595268e+00 1.991749e+00 2.323049e+00 2.252287e+00 2.005333e+00 1.969618e+00 1.881304e+00 1.696428e+00 1.000000e-02 6.793222e-02 1.372285e-01 1.608344e-01 2.169875e-01 2.429379e-01 2.828846e-01 3.537509e-01 3.455170e-01 3.148982e-01 3.087391e-01 2.918895e-01 2.652910e-01 1.000000e-02
<GCONST> 9.549030e+01
<STATE> 3
<SWEIGHTS> 1
 1.000000e+00
<MEAN> 38
 6.868759e+00 2.560776e+00 -2.579138e+00 -8.200902e+00 -2.394496e-01 1.816243e+00 -5.051652e+00 -4.149520e+00 -6.143523e-01 -9.300740e-01 4.566007e-01 -4.870335e-01 -1.466004e-01 7.425445e-02 5.712600e-02 2.839738e-01 7.585496e-02 -6.292915e-02 2.825994e-01 1.726562e-01 -8.369454e-02 -8.117856e-03 -2.211137e-02 -2.991539e-02 -6.678624e-03 -7.291181e-02 -4.967386e-02 8.258561e-03 1.395268e-01 7.934826e-04 -2.648261e-02 1.102870e-01 5.330329e-02 2.660643e-03 6.463564e-03 -1.551603e-02 -1.180814e-02 -1.585833e-03
<VARIANCE> 38
 1.901614e+01 4.469866e+01 6.543822e+01 8.126868e+01 5.176471e+01 6.322291e+01 7.461274e+01 5.481666e+01 4.753688e+01 5.143839e+01 4.834958e+01 4.007182e+01 6.047179e-01 1.338536e+00 1.609662e+00 2.247643e+00 1.811765e+00 2.101433e+00 2.653919e+00 2.536476e+00 2.182275e+00 2.111647e+00 1.967689e+00 1.768739e+00 1.000000e-02 8.042742e-02 1.666501e-01 1.964887e-01 2.687763e-01 2.860964e-01 3.215127e-01 4.090029e-01 3.958450e-01 3.512698e-01 3.435804e-01 3.250406e-01 2.937255e-01 1.000000e-02
<GCONST> 9.890331e+01
<STATE> 4
<SWEIGHTS> 1
 1.000000e+00
<MEAN> 38
 5.455825e+00 2.465465e+00 -1.504492e+00 -4.836810e+00 3.811169e-01 8.761290e-01 -3.533456e+00 -3.097476e+00 -6.224087e-01 -7.456749e-01 6.123818e-03 -7.103451e-01 -4.587182e-01 -1.527870e-01 1.121613e-01 7.801065e-01 1.157437e-01 -1.100750e-01 6.124514e-01 3.867977e-01 7.437618e-03 4.761351e-02 -9.976868e-02 -6.778852e-02 -1.285745e-02 -8.280603e-02 -3.706297e-02 2.058369e-02 6.785291e-02 5.796412e-03 1.583195e-02 4.273423e-02 2.821005e-02 1.340502e-02 1.137887e-02 -2.243853e-04 1.074052e-02 -1.031240e-03
<VARIANCE> 38
 2.567690e+01 4.998569e+01 5.876865e+01 7.103288e+01 5.327540e+01 6.091582e+01 6.803265e+01 5.329160e+01 4.735491e+01 4.753914e+01 4.458654e+01 3.710663e+01 1.063618e+00 1.705106e+00 2.088487e+00 2.929644e+00 2.451869e+00 2.576613e+00 3.122455e+00 2.943405e+00 2.562494e+00 2.448892e+00 2.311543e+00 2.012272e+00 1.000000e-02 1.156852e-01 2.116524e-01 2.400691e-01 3.366518e-01 3.455910e-01 3.815829e-01 4.651388e-01 4.623485e-01 4.094426e-01 3.982095e-01 3.777706e-01 3.349211e-01 1.000000e-02
<GCONST> 1.037071e+02
<TRANSP> 5
 0.000000e+00 1.000000e+00 0.000000e+00 0.000000e+00 0.000000e+00
 0.000000e+00 8.175017e-01 1.824983e-01 0.000000e+00 0.000000e+00
 0.000000e+00 0.000000e+00 7.251105e-01 2.748894e-01 0.000000e+00
 0.000000e+00 0.000000e+00 0.000000e+00 6.518136e-01 3.481864e-01
 0.000000e+00 0.000000e+00 0.000000e+00 0.000000e+00 0.000000e+00
<ENDHMM>
~h "m"
<BEGINHMM>
<NUMSTATES> 5
<STATE> 2
<SWEIGHTS> 1
 1.000000e+00
<MEAN> 38
 9.294857e+00 3.321365e+00 9.454733e-01 3.016012e+00 1.578964e+00 -1.544644e+00 -1.275081e+00 -7.219283e+00 -7.710074e+00 -1.146267e+00 -1.679673e-01 -3.872696e+00 1.229425e-01 1.073221e-01 1.612959e-01 3.223436e-01 7.516412e-02 -1.349088e-01 -5.941277e-02 -3.322764e-01 -2.851017e-01 1.438529e-02 2.877621e-02 -1.480241e-01 5.558177e-03 -8.764397e-02 -9.318091e-02 -6.387054e-02 -1.183147e-01 -4.993660e-02 6.921543e-02 1.662241e-02 1.624387e-01 1.625150e-01 -1.024436e-02 -3.251046e-02 6.794240e-02 -1.855253e-03
<VARIANCE> 38
 1.301972e+01 2.596334e+01 3.143140e+01 5.077246e+01 4.101146e+01 5.409644e+01 5.154392e+01 5.301069e+01 5.825576e+01 4.374305e+01 4.405818e+01 3.959699e+01 5.852901e-01 1.290534e+00 1.295904e+00 2.047396e+00 1.662560e+00 1.919313e+00 1.931117e+00 2.688531e+00 2.860231e+00 1.953749e+00 1.859210e+00 1.686328e+00 1.000000e-02 8.623423e-02 1.672865e-01 1.817234e-01 2.666116e-01 2.580008e-01 3.004898e-01 3.258879e-01 3.998174e-01 4.261042e-01 3.220032e-01 3.036859e-01 2.747262e-01 1.000000e-02
<GCONST> 9.478722e+01
<STATE> 3
<SWEIGHTS> 1
 1.000000e+00
<MEAN> 38
 8.969259e+00 3.129621e+00 1.247681e+00 3.420144e+00 1.468548e+00 -1.648580e+00 -1.440301e+00 -6.646505e+00 -6.737541e+00 -1.310390e+00 -6.173562e-01 -3.742041e+00 -1.638388e-01 -2.146586e-01 -1.031860e-01 -1.699568e-01 -1.327065e-01 1.460742e-01 1.046311e-02 3.370416e-01 3.447349e-01 -9.103810e-02 -1.550968e-01 9.972236e-02 -1.783717e-03 -7.612857e-02 -6.521612e-02 -3.477333e-02 -8.406759e-02 -3.066294e-02 5.870263e-02 2.961167e-02 1.317033e-01 1.047654e-01 -2.333938e-02 -3.367814e-02 5.876931e-02 -1.733241e-03
<VARIANCE> 38
 1.428180e+01 3.001544e+01 3.207985e+01 4.785375e+01 4.363733e+01 5.279237e+01 4.976294e+01 5.389320e+01 5.631404e+01 4.455120e+01 4.413913e+01 3.904482e+01 4.789771e-01 1.330420e+00 1.307219e+00 2.027192e+00 1.646925e+00 1.904423e+00 1.887371e+00 2.626019e+00 2.740760e+00 1.989445e+00 1.891879e+00 1.702538e+00 1.000000e-02 7.155854e-02 1.734323e-01 1.858693e-01 2.772044e-01 2.634135e-01 2.966508e-01 3.199895e-01 3.979120e-01 4.292747e-01 3.314002e-01 3.130881e-01 2.816548e-01 1.000000e-02
<GCONST> 9.473216e+01
<STATE> 4
<SWEIGHTS> 1
 1.000000e+00
<MEAN> 38
 7.666661e+00 1.992600e+00 7.479188e-01 2.559347e+00 8.174387e-01 -8.300943e-01 -1.197121e+00 -4.311328e+00 -4.381881e+00 -1.730342e+00 -1.406042e+00 -2.858283e+00 -4.555461e-01 -4.355391e-01 -1.698864e-01 -3.989994e-01 -2.289502e-01 3.358700e-01 1.387877e-01 7.247704e-01 6.190177e-01 -1.377793e-01 -2.167382e-01 2.983218e-01 -8.092009e-03 -7.140461e-02 -1.534906e-02 1.682409e-02 -5.924576e-03 6.929235e-03 2.152521e-02 2.925024e-02 1.897762e-02 -1.144109e-03 2.105827e-02 3.449856e-02 3.423667e-02 -1.218582e-03
<VARIANCE> 38
 2.046330e+01 4.025277e+01 3.753027e+01 5.210368e+01 4.907657e+01 5.161884e+01 4.797208e+01 5.593068e+01 5.363777e+01 4.249245e+01 4.078562e+01 3.505643e+01 6.996527e-01 1.703486e+00 1.735065e+00 2.386345e+00 2.236954e+00 2.376465e+00 2.409092e+00 3.062336e+00 3.142374e+00 2.400153e+00 2.274916e+00 2.057672e+00 1.000000e-02 8.977149e-02 2.396831e-01 2.351513e-01 3.464689e-01 3.318029e-01 3.578471e-01 3.871863e-01 4.690598e-01 4.966063e-01 3.893101e-01 3.615370e-01 3.237035e-01 1.000000e-02
<GCONST> 1.005078e+02
<TRANSP> 5
 0.000000e+00 1.000000e+00 0.000000e+00 0.000000e+00 0.000000e+00
 0.000000e+00 8.314955e-01 1.685045e-01 0.000000e+00 0.000000e+00
 0.000000e+00 0.000000e+00 7.786151e-01 2.213849e-01 0.000000e+00
 0.000000e+00 0.000000e+00 0.000000e+00 7.110645e-01 2.889355e-01
 0.000000e+00 0.000000e+00 0.000000e+00 0.000000e+00 0.000000e+00
<ENDHMM>
~h "n"
<BEGINHMM>
<NUMSTATES> 5
<STATE> 2
<SWEIGHTS> 1
 1.000000e+00
<MEAN> 38
 8.120656e+00 4.063908e+00 2.773544e+00 1.413089e+00 -8.571586e-01 -2.843546e+00 -3.826462e-01 -5.961028e+00 -6.612236e+00 -9.953070e-01 -3.510203e+00 -1.725462e+00 1.058164e-01 3.577228e-01 2.267903e-01 4.676303e-01 1.547386e-01 -1.287287e-01 7.727180e-02 -4.209938e-01 -2.544165e-01 9.118518e-02 -1.122707e-01 3.810859e-02 -1.401232e-03 -7.962234e-02 -6.635639e-02 -3.660032e-02 -6.763022e-02 -5.806093e-03 5.625765e-02 -1.773608e-02 1.135542e-01 1.066151e-01 -2.326585e-02 3.935847e-02 7.144547e-03 -1.443119e-03
<VARIANCE> 38
 1.544416e+01 2.749341e+01 3.021068e+01 4.551609e+01 4.257877e+01 5.124736e+01 5.001155e+01 5.603405e+01 5.428684e+01 5.176606e+01 4.311966e+01 3.996896e+01 5.985910e-01 1.080449e+00 1.225198e+00 1.571093e+00 1.657936e+00 1.884862e+00 1.933773e+00 2.502143e+00 2.292298e+00 1.981091e+00 1.662030e+00 1.561799e+00 1.000000e-02 7.821275e-02 1.567958e-01 1.767988e-01 2.334975e-01 2.684452e-01 2.911398e-01 3.095141e-01 3.816663e-01 3.543355e-01 3.276467e-01 2.817796e-01 2.628556e-01 1.000000e-02
<GCONST> 9.329836e+01
<STATE> 3
<SWEIGHTS> 1
 1.000000e+00
<MEAN> 38
 7.628307e+00 5.140361e+00 3.499550e+00 3.272093e+00 3.721073e-01 -2.733574e+00 -2.845213e-01 -6.209156e+00 -6.283854e+00 -9.443335e-01 -3.379153e+00 -1.395140e+00 -2.858391e-01 1.031927e-01 9.743313e-02 2.013949e-01 2.025060e-01 1.236109e-01 3.480263e-03 1.364566e-01 1.910428e-01 -6.334252e-02 2.726533e-02 2.702147e-02 -1.016997e-02 -1.134387e-01 -8.687056e-02 -4.316458e-02 -7.620397e-02 1.958836e-02 7.245775e-02 -8.517966e-03 1.406935e-01 1.102271e-01 -3.673014e-02 3.794757e-02 2.877698e-03 -2.185478e-03
<VARIANCE> 38
 1.951611e+01 2.894254e+01 2.858109e+01 4.139208e+01 4.301112e+01 4.862091e+01 5.012278e+01 5.238644e+01 5.360006e+01 5.080104e+01 4.210770e+01 3.939522e+01 8.019423e-01 1.262029e+00 1.186479e+00 1.607460e+00 1.686173e+00 1.869514e+00 1.954172e+00 2.441990e+00 2.260067e+00 2.068695e+00 1.747833e+00 1.641691e+00 1.000000e-02 9.927715e-02 1.847481e-01 1.930840e-01 2.507703e-01 2.830623e-01 3.071006e-01 3.341069e-01 3.869555e-01 3.804355e-01 3.585696e-01 3.089004e-01 2.888050e-01 1.000000e-02
<GCONST> 9.492467e+01
<STATE> 4
<SWEIGHTS> 1
 1.000000e+00
<MEAN> 38
 5.465205e+00 4.930164e+00 3.558298e+00 3.867723e+00 1.636895e+00 -1.603590e+00 -2.269941e-01 -4.379392e+00 -4.577242e+00 -1.423875e+00 -2.908253e+00 -1.255777e+00 -7.232325e-01 -2.341318e-01 -1.070865e-01 -4.660120e-02 2.644862e-01 3.654916e-01 4.887003e-02 6.001669e-01 5.602037e-01 -1.078060e-01 1.683881e-01 6.675594e-02 -1.911337e-02 -1.056210e-01 -1.044349e-01 -7.044505e-02 -8.628844e-02 -1.602482e-02 4.265913e-02 1.566330e-02 8.533034e-02 8.246050e-02 2.035702e-02 4.661210e-02 2.451018e-02 -1.050681e-03
<VARIANCE> 38
 3.183075e+01 3.519400e+01 2.987948e+01 4.478099e+01 4.693766e+01 4.755721e+01 4.900723e+01 5.245056e+01 5.020863e+01 4.597862e+01 3.865097e+01 3.585606e+01 1.199688e+00 1.687616e+00 1.596790e+00 2.001724e+00 2.135425e+00 2.267687e+00 2.431473e+00 2.748943e+00 2.719914e+00 2.538218e+00 2.151819e+00 1.981705e+00 1.000000e-02 1.502835e-01 2.531040e-01 2.462717e-01 3.173417e-01 3.493253e-01 3.725776e-01 4.033632e-01 4.504844e-01 4.468984e-01 4.300249e-01 3.684595e-01 3.430908e-01 1.000000e-02
<GCONST> 1.008369e+02
<TRANSP> 5
 0.000000e+00 1.000000e+00 0.000000e+00 0.000000e+00 0.000000e+00
 0.000000e+00 8.043154e-01 1.956846e-01 0.000000e+00 0.000000e+00
 0.000000e+00 0.000000e+00 7.496802e-01 2.503198e-01 0.000000e+00
 0.000000e+00 0.000000e+00 0.000000e+00 6.949401e-01 3.050599e-01
 0.000000e+00 0.000000e+00 0.000000e+00 0.000000e+00 0.000000e+00
<ENDHMM>
~h "o"
<BEGINHMM>
<NUMSTATES> 5
<STATE> 2
<SWEIGHTS> 1
 1.000000e+00
<MEAN> 38
 9.358651e+00 3.129089e+00 -8.764181e+00 -1.231910e+01 -4.875038e+00 6.919247e+00 -1.226274e+00 -2.831981e+00 -3.534431e+00 -6.015607e-01 3.334492e+00 7.758196e-01 2.124737e-01 1.770242e-01 -6.146660e-02 -3.797048e-01 -2.005820e-01 1.896779e-01 7.044994e-02 5.590355e-02 -2.181092e-01 -1.651595e-01 6.805488e-02 1.070907e-01 5.005700e-03 -6.855644e-02 -2.068281e-02 5.483776e-02 1.333020e-01 5.770377e-02 -5.596292e-02 -3.630349e-03 1.608458e-02 4.492129e-02 1.138137e-03 -3.827930e-02 -9.261400e-03 -2.092510e-03
<VARIANCE> 38
 1.708142e+01 2.923060e+01 2.963627e+01 5.221658e+01 4.388286e+01 4.113401e+01 5.200126e+01 4.608134e+01 4.863636e+01 5.926234e+01 4.674723e+01 3.638229e+01 6.300560e-01 7.735805e-01 9.240922e-01 2.046568e+00 1.438771e+00 1.546054e+00 1.603225e+00 1.615040e+00 1.796763e+00 1.860180e+00 1.691159e+00 1.421853e+00 1.000000e-02 9.564218e-02 1.167744e-01 1.360911e-01 2.346262e-01 2.143202e-01 2.316006e-01 2.446292e-01 2.589867e-01 2.801550e-01 2.828975e-01 2.610490e-01 2.277440e-01 1.000000e-02
<GCONST> 8.956675e+01
<STATE> 3
<SWEIGHTS> 1
 1.000000e+00
<MEAN> 38
 9.754332e+00 4.314794e+00 -7.731306e+00 -1.010473e+01 -4.765165e+00 5.913487e+00 -1.819265e+00 -2.830107e+00 -4.497032e+00 -1.468166e+00 2.705580e+00 6.920373e-01 -1.911538e-01 -6.123083e-02 2.464477e-01 8.575841e-01 3.795568e-01 -2.925951e-01 -1.115763e-01 -7.355994e-02 1.555291e-01 1.437712e-01 -1.586702e-01 -1.600670e-01 -1.096018e-02 -9.761531e-02 -4.726885e-02 7.450421e-02 1.691515e-01 8.971635e-02 -8.728371e-02 1.347156e-02 2.912308e-02 8.250864e-02 1.356669e-02 -5.460329e-02 -3.303367e-02 -2.334459e-03
<VARIANCE> 38
 1.864534e+01 3.119888e+01 3.163292e+01 6.196324e+01 5.004537e+01 4.407683e+01 5.790285e+01 5.744818e+01 5.179912e+01 6.426785e+01 5.159546e+01 3.936354e+01 6.786796e-01 9.948866e-01 1.032998e+00 2.262092e+00 1.835782e+00 1.897864e+00 1.963659e+00 2.085494e+00 2.204701e+00 2.204200e+00 1.991182e+00 1.711219e+00 1.000000e-02 8.321790e-02 1.218503e-01 1.449120e-01 2.427117e-01 2.647027e-01 2.845017e-01 2.922583e-01 3.212047e-01 3.280848e-01 3.373244e-01 3.105553e-01 2.745507e-01 1.000000e-02
<GCONST> 9.447794e+01
<STATE> 4
<SWEIGHTS> 1
 1.000000e+00
<MEAN> 38
 7.474609e+00 3.198487e+00 -5.563125e+00 -2.671757e+00 -1.164568e+00 3.303065e+00 -2.734453e+00 -3.325186e+00 -2.721615e+00 -1.186458e-01 1.431709e+00 -5.962982e-01 -8.304786e-01 -3.181606e-01 7.369984e-01 1.582737e+00 8.078646e-01 -6.997548e-01 4.642010e-02 2.460561e-01 5.838462e-01 1.275948e-01 -4.359896e-01 -2.532236e-01 -2.372218e-02 -1.294281e-01 -1.650332e-02 7.937838e-02 -4.105386e-02 -1.314242e-02 1.669680e-02 7.139976e-02 8.849178e-02 1.250135e-02 -5.785644e-02 -4.797965e-03 4.799318e-02 -1.240836e-03
<VARIANCE> 38
 3.395693e+01 3.893627e+01 3.953865e+01 8.251994e+01 5.720886e+01 5.355608e+01 6.878591e+01 6.510497e+01 5.488927e+01 6.256968e+01 5.106980e+01 4.022767e+01 1.490508e+00 1.520659e+00 1.895735e+00 2.867126e+00 3.057384e+00 2.993473e+00 2.831345e+00 3.289038e+00 3.285353e+00 3.211634e+00 2.862098e+00 2.396120e+00 1.000000e-02 1.457889e-01 2.134549e-01 2.565255e-01 4.073989e-01 4.566693e-01 4.562398e-01 4.411560e-01 4.975446e-01 4.999466e-01 5.077767e-01 4.580736e-01 3.979960e-01 1.000000e-02
<GCONST> 1.074619e+02
<TRANSP> 5
 0.000000e+00 1.000000e+00 0.000000e+00 0.000000e+00 0.000000e+00
 0.000000e+00 9.363244e-01 6.367558e-02 0.000000e+00 0.000000e+00
 0.000000e+00 0.000000e+00 8.331243e-01 1.668757e-01 0.000000e+00
 0.000000e+00 0.000000e+00 0.000000e+00 7.527485e-01 2.472515e-01
 0.000000e+00 0.000000e+00 0.000000e+00 0.000000e+00 0.000000e+00
<ENDHMM>
~h "p"
<BEGINHMM>
<NUMSTATES> 5
<STATE> 2
<SWEIGHTS> 1
 1.000000e+00
<MEAN> 38
 -1.955482e+00 1.907881e+00 3.449241e-01 3.527375e+00 2.457801e+00 2.101286e+00 2.124823e+00 9.971579e-01 2.338590e+00 2.723103e-01 8.086888e-01 2.586392e-01 -2.408946e-01 -9.864143e-01 -3.601800e-01 1.182203e-01 -2.136540e-01 -4.750223e-01 -4.962587e-01 -1.532268e-01 1.587469e-01 1.587862e-01 1.884885e-01 6.677401e-02 1.808297e-02 1.373573e-01 -6.104080e-02 -6.064297e-02 -1.597275e-01 -1.122859e-01 -2.252939e-02 -1.044665e-01 -6.370384e-02 -7.575975e-02 -1.214857e-02 -1.342521e-02 -1.003645e-02 7.756222e-03
<VARIANCE> 38
 4.174519e+01 6.535616e+01 4.523557e+01 4.193403e+01 3.761213e+01 4.030981e+01 4.616602e+01 3.696904e+01 3.730129e+01 3.139028e+01 3.502244e+01 2.517575e+01 3.056124e+00 5.485780e+00 4.177537e+00 3.981267e+00 3.701082e+00 4.159175e+00 4.675323e+00 3.690045e+00 3.529660e+00 2.966660e+00 3.111772e+00 2.419118e+00 1.000000e-02 3.301522e-01 9.549823e-01 6.591988e-01 5.820988e-01 6.274392e-01 7.668177e-01 8.550640e-01 6.819831e-01 6.397269e-01 5.603610e-01 5.881888e-01 4.636210e-01 1.000000e-02
<GCONST> 1.145735e+02
<STATE> 3
<SWEIGHTS> 1
 1.000000e+00
<MEAN> 38
 -1.911451e+00 -1.311919e+00 -1.017583e+00 3.033277e+00 1.300976e+00 5.783492e-01 2.311999e-01 3.128359e-01 2.454357e+00 8.592085e-01 1.300750e+00 5.328736e-01 4.174067e-01 -5.571918e-01 -2.220231e-01 -2.905765e-01 -4.161887e-01 -3.325529e-01 -5.171294e-01 -2.353069e-01 -1.577438e-01 3.837950e-02 -2.267178e-02 -6.910595e-02 3.428566e-02 1.345259e-01 1.702743e-01 6.159772e-02 -1.091001e-01 -1.772118e-02 1.027834e-01 6.289253e-02 1.913896e-02 -7.707181e-02 -2.045703e-02 -5.647139e-02 -3.308454e-02 7.272532e-04
<VARIANCE> 38
 4.050758e+01 5.829705e+01 4.863789e+01 4.374475e+01 4.049163e+01 4.488210e+01 4.907229e+01 3.978527e+01 3.744142e+01 3.228384e+01 3.475237e+01 2.530131e+01 3.824518e+00 5.373727e+00 4.055622e+00 4.002914e+00 3.910238e+00 4.455992e+00 4.627338e+00 3.965211e+00 4.006106e+00 3.263847e+00 3.544300e+00 2.639558e+00 1.000000e-02 4.170456e-01 9.110225e-01 6.314822e-01 6.346037e-01 6.767771e-01 7.892303e-01 8.643594e-01 7.421145e-01 6.959063e-01 6.017480e-01 6.288466e-01 4.887821e-01 1.000000e-02
<GCONST> 1.163978e+02
<STATE> 4
<SWEIGHTS> 1
 1.000000e+00
<MEAN> 38
 -8.620181e-02 -2.178988e+00 -1.328974e+00 1.882612e+00 8.719258e-03 -1.754439e-01 -1.032401e+00 -2.977789e-01 1.762561e+00 9.672819e-01 9.869510e-01 2.444888e-01 6.842054e-01 -2.441993e-02 -5.144320e-03 -4.877360e-01 -4.192938e-01 -5.242655e-02 -2.618532e-01 -1.266402e-01 -3.180868e-01 -1.198274e-02 -1.810841e-01 -1.700690e-01 3.241587e-02 -6.174792e-02 8.538873e-02 1.387781e-02 -4.551639e-02 4.161954e-02 1.118225e-01 1.092455e-01 6.450880e-02 1.785217e-02 1.352278e-02 -2.790320e-03 1.414946e-02 -3.673170e-03
<VARIANCE> 38
 5.187723e+01 4.549768e+01 5.516779e+01 5.039955e+01 4.568179e+01 5.066913e+01 5.041660e+01 4.278529e+01 4.193163e+01 3.529229e+01 3.642200e+01 2.708911e+01 3.690641e+00 4.147995e+00 3.486931e+00 3.779633e+00 3.988982e+00 4.046767e+00 4.135385e+00 3.861290e+00 4.100328e+00 3.286929e+00 3.532253e+00 2.626683e+00 1.000000e-02 4.637035e-01 6.991467e-01 5.214393e-01 6.052506e-01 6.367677e-01 7.079939e-01 7.443878e-01 6.850810e-01 6.754619e-01 5.932629e-01 6.038864e-01 4.713375e-01 1.000000e-02
<GCONST> 1.157104e+02
<TRANSP> 5
 0.000000e+00 1.000000e+00 0.000000e+00 0.000000e+00 0.000000e+00
 0.000000e+00 7.793332e-01 2.206668e-01 0.000000e+00 0.000000e+00
 0.000000e+00 0.000000e+00 7.029423e-01 2.970577e-01 0.000000e+00
 0.000000e+00 0.000000e+00 0.000000e+00 6.335219e-01 3.664781e-01
 0.000000e+00 0.000000e+00 0.000000e+00 0.000000e+00 0.000000e+00
<ENDHMM>
~h "r"
<BEGINHMM>
<NUMSTATES> 5
<STATE> 2
<SWEIGHTS> 1
 1.000000e+00
<MEAN> 38
 5.459194e+00 -4.434353e+00 -1.910949e+00 2.936916e-01 -2.594412e+00 -2.691836e+00 -3.842394e+00 1.104629e+00 1.169006e+00 2.538695e-01 -1.040597e+00 -1.359493e+00 -1.302208e-02 -3.730730e-02 1.742806e-01 1.263933e-01 -4.771049e-02 3.571405e-02 3.637938e-02 1.278284e-01 1.043576e-01 -7.989678e-02 -7.843611e-02 3.558847e-02 -4.048959e-03 -7.843998e-02 6.289405e-02 3.055585e-02 9.471726e-03 5.537209e-02 4.444641e-02 6.508292e-02 -2.432389e-02 -3.103324e-02 -4.478067e-03 2.697241e-02 2.462128e-02 -1.678850e-03
<VARIANCE> 38
 2.679855e+01 3.408355e+01 4.793081e+01 3.884806e+01 5.249661e+01 5.144565e+01 5.566659e+01 5.877019e+01 5.679939e+01 5.416461e+01 4.123876e+01 3.478400e+01 9.130703e-01 1.173790e+00 1.377848e+00 1.488122e+00 2.081883e+00 1.905885e+00 1.914215e+00 2.028546e+00 1.974989e+00 1.979893e+00 1.745694e+00 1.510400e+00 1.000000e-02 1.362670e-01 1.680977e-01 1.839946e-01 2.261864e-01 3.106305e-01 2.884248e-01 3.086608e-01 3.248161e-01 3.205945e-01 3.181623e-01 2.930722e-01 2.568511e-01 1.000000e-02
<GCONST> 9.558781e+01
<STATE> 3
<SWEIGHTS> 1
 1.000000e+00
<MEAN> 38
 4.826155e+00 -3.983021e+00 -8.884211e-01 8.688075e-01 -2.383516e+00 -2.283998e+00 -3.204569e+00 1.317256e+00 1.316905e+00 -8.175569e-02 -1.174984e+00 -9.784502e-01 -1.919848e-01 1.884564e-01 2.622136e-01 1.257031e-01 1.156111e-01 1.697515e-01 1.911592e-01 1.461576e-02 4.559473e-03 -7.537129e-02 3.111457e-03 7.436867e-02 -8.755386e-03 -6.889421e-02 6.749099e-02 1.597265e-02 3.952445e-04 6.178390e-02 3.877439e-02 5.578591e-02 -3.380001e-02 -3.189083e-02 5.227949e-04 2.830665e-02 7.234314e-03 -1.197889e-03
<VARIANCE> 38
 3.070265e+01 3.641296e+01 4.744647e+01 4.105340e+01 5.456831e+01 5.252618e+01 5.447847e+01 5.725805e+01 5.550272e+01 5.162703e+01 4.032470e+01 3.381961e+01 1.032845e+00 1.333610e+00 1.496587e+00 1.566468e+00 2.233412e+00 1.971342e+00 2.034503e+00 2.153425e+00 2.112546e+00 2.036395e+00 1.827235e+00 1.584073e+00 1.000000e-02 1.385606e-01 1.902808e-01 2.005376e-01 2.376517e-01 3.325961e-01 3.076224e-01 3.284009e-01 3.468222e-01 3.438545e-01 3.356532e-01 3.102425e-01 2.730000e-01 1.000000e-02
<GCONST> 9.730152e+01
<STATE> 4
<SWEIGHTS> 1
 1.000000e+00
<MEAN> 38
 3.747891e+00 -2.969053e+00 7.642745e-02 1.383920e+00 -1.578654e+00 -1.495528e+00 -2.263343e+00 1.239092e+00 1.241550e+00 -2.504155e-01 -1.020160e+00 -6.466281e-01 -3.538924e-01 3.667000e-01 2.821949e-01 1.267508e-01 2.838238e-01 2.701265e-01 3.150463e-01 -6.352767e-02 -4.964513e-02 -5.459673e-02 7.642701e-02 8.285558e-02 -1.216577e-02 -5.818219e-02 3.796507e-02 -8.666126e-03 -1.417607e-02 3.979072e-02 2.430927e-02 3.315186e-02 -2.519671e-02 -2.044247e-02 6.751385e-03 2.178036e-02 -3.224970e-03 -1.967752e-04
<VARIANCE> 38
 3.749490e+01 3.937295e+01 4.922980e+01 4.390969e+01 5.809130e+01 5.359729e+01 5.414539e+01 5.522332e+01 5.305679e+01 4.858077e+01 3.971996e+01 3.329209e+01 1.338696e+00 1.601480e+00 1.667584e+00 1.765934e+00 2.482259e+00 2.154963e+00 2.219735e+00 2.413880e+00 2.395766e+00 2.203135e+00 1.992547e+00 1.727371e+00 1.000000e-02 1.598580e-01 2.351411e-01 2.276742e-01 2.678945e-01 3.704222e-01 3.443732e-01 3.640167e-01 3.868693e-01 3.829365e-01 3.686659e-01 3.412098e-01 3.008758e-01 1.000000e-02
<GCONST> 1.004596e+02
<TRANSP> 5
 0.000000e+00 1.000000e+00 0.000000e+00 0.000000e+00 0.000000e+00
 0.000000e+00 6.687446e-01 3.312554e-01 0.000000e+00 0.000000e+00
 0.000000e+00 0.000000e+00 6.182935e-01 3.817065e-01 0.000000e+00
 0.000000e+00 0.000000e+00 0.000000e+00 5.817350e-01 4.182650e-01
 0.000000e+00 0.000000e+00 0.000000e+00 0.000000e+00 0.000000e+00
<ENDHMM>
~h "s"
<BEGINHMM>
<NUMSTATES> 5
<STATE> 2
<SWEIGHTS> 1
 1.000000e+00
<MEAN> 38
 -1.875876e+01 2.101377e+00 1.979226e+00 2.074394e-01 5.345605e+00 2.487761e+00 1.936082e+00 6.939919e+00 4.514022e+00 -3.402017e-01 3.953420e+00 2.706195e+00 -8.913891e-01 -1.169423e-01 -1.219882e-01 -1.832797e-01 9.865673e-02 1.456822e-01 1.459988e-01 3.833910e-01 3.438106e-01 1.190204e-01 2.206436e-01 1.962256e-01 1.987627e-03 2.283878e-01 -2.541750e-02 -2.140395e-02 -5.897962e-03 -8.364338e-02 -5.932150e-02 -4.146888e-02 -9.132316e-02 -5.312966e-02 1.067072e-02 -4.222042e-02 -1.931956e-02 -1.303882e-03
<VARIANCE> 38
 4.559402e+01 3.312968e+01 3.313372e+01 3.082329e+01 3.658097e+01 4.112288e+01 4.716259e+01 5.107647e+01 4.712546e+01 3.518343e+01 3.637963e+01 2.411751e+01 2.898194e+00 1.205557e+00 1.298021e+00 1.373461e+00 1.806213e+00 1.958442e+00 1.964972e+00 2.244437e+00 2.069692e+00 1.984053e+00 1.849020e+00 1.620826e+00 1.000000e-02 2.029674e-01 1.905665e-01 2.109714e-01 2.437469e-01 2.979654e-01 3.408270e-01 3.525293e-01 3.822357e-01 3.740129e-01 3.733279e-01 3.467828e-01 3.176561e-01 1.000000e-02
<GCONST> 9.657179e+01
<STATE> 3
<SWEIGHTS> 1
 1.000000e+00
<MEAN> 38
 -1.887759e+01 9.194391e-01 1.073550e+00 -5.391582e-01 4.241660e+00 1.934398e+00 1.894019e+00 6.987223e+00 5.588843e+00 3.903934e-01 4.016887e+00 3.351185e+00 8.101979e-01 -8.452724e-02 -4.475315e-02 1.518611e-02 -2.347672e-01 -2.987324e-01 -1.445371e-01 -2.630659e-01 -9.758785e-02 3.597189e-02 -1.661808e-01 -7.760289e-02 -1.657495e-02 2.605693e-01 2.445623e-02 7.428686e-03 2.434526e-02 -4.277020e-02 -4.973468e-02 -5.958410e-02 -1.229853e-01 -7.989842e-02 -1.800505e-02 -6.473649e-02 -5.986340e-02 -5.263982e-04
<VARIANCE> 38
 3.613846e+01 3.455062e+01 2.975640e+01 2.911849e+01 3.687445e+01 4.380412e+01 4.926320e+01 4.975855e+01 4.489040e+01 3.458094e+01 3.620448e+01 2.305854e+01 3.044268e+00 1.413364e+00 1.331864e+00 1.382662e+00 1.850502e+00 2.073398e+00 2.267085e+00 2.615905e+00 2.297439e+00 2.138664e+00 2.112846e+00 1.754483e+00 1.000000e-02 2.846862e-01 2.331451e-01 2.224979e-01 2.546795e-01 3.145605e-01 3.633891e-01 4.061871e-01 4.570342e-01 4.154968e-01 4.084378e-01 3.894321e-01 3.385469e-01 1.000000e-02
<GCONST> 9.865059e+01
<STATE> 4
<SWEIGHTS> 1
 1.000000e+00
<MEAN> 38
 -1.201558e+01 7.985300e-01 9.668802e-01 -2.129878e-03 2.639777e+00 -1.665712e-01 6.298261e-01 4.276105e+00 4.190926e+00 3.357047e-01 2.411135e+00 2.242325e+00 1.962231e+00 2.743072e-02 -7.378483e-02 7.680204e-02 -4.278026e-01 -4.373722e-01 -4.114748e-01 -8.206041e-01 -4.620583e-01 -2.393458e-03 -4.204578e-01 -3.458869e-01 -9.301829e-03 -4.969292e-03 -7.941042e-02 -5.787929e-02 -4.520804e-02 -3.100393e-02 5.193042e-02 9.218900e-03 4.239985e-03 -4.338287e-03 4.399312e-02 3.164189e-02 8.302274e-03 5.217745e-03
<VARIANCE> 38
 7.634189e+01 3.916211e+01 3.261619e+01 2.890689e+01 4.475846e+01 5.159745e+01 5.645715e+01 5.754052e+01 4.987381e+01 3.599585e+01 3.731383e+01 2.525235e+01 3.680182e+00 2.291032e+00 1.972822e+00 1.935619e+00 2.638977e+00 2.702202e+00 3.249247e+00 3.570375e+00 2.918785e+00 2.734875e+00 2.744582e+00 2.062205e+00 1.000000e-02 5.337664e-01 3.959533e-01 3.038724e-01 3.310800e-01 4.194781e-01 4.668980e-01 5.409765e-01 6.119849e-01 5.202447e-01 4.960450e-01 4.666619e-01 3.833197e-01 1.000000e-02
<GCONST> 1.076886e+02
<TRANSP> 5
 0.000000e+00 1.000000e+00 0.000000e+00 0.000000e+00 0.000000e+00
 0.000000e+00 9.173425e-01 8.265748e-02 0.000000e+00 0.000000e+00
 0.000000e+00 0.000000e+00 8.337920e-01 1.662080e-01 0.000000e+00
 0.000000e+00 0.000000e+00 0.000000e+00 7.513537e-01 2.486462e-01
 0.000000e+00 0.000000e+00 0.000000e+00 0.000000e+00 0.000000e+00
<ENDHMM>
~h "t"
<BEGINHMM>
<NUMSTATES> 5
<STATE> 2
<SWEIGHTS> 1
 1.000000e+00
<MEAN> 38
 -6.798590e+00 2.273371e+00 5.397149e-01 2.284916e+00 3.612910e+00 -1.794185e-01 2.341662e+00 1.674440e+00 2.031701e+00 7.808442e-01 1.573337e+00 1.159994e+00 -7.872310e-01 -5.536147e-01 -4.269401e-01 -3.758428e-01 -1.722366e-01 -3.197106e-01 -4.604999e-02 1.775748e-01 1.805275e-01 7.165659e-02 2.802208e-01 2.896214e-01 6.951051e-03 9.444762e-02 -2.353015e-02 -5.489301e-02 -7.860256e-02 -9.791057e-02 -8.105215e-02 -9.313561e-02 -3.057650e-02 -2.731532e-02 -2.106473e-03 -2.328692e-02 -3.766942e-03 6.694579e-03
<VARIANCE> 38
 5.355920e+01 5.411287e+01 5.182453e+01 4.626397e+01 4.340392e+01 4.753995e+01 4.637557e+01 4.468319e+01 3.969637e+01 3.258112e+01 3.945568e+01 2.827275e+01 3.437785e+00 6.090073e+00 4.675219e+00 4.178899e+00 3.970418e+00 4.176251e+00 4.105277e+00 3.749727e+00 3.425481e+00 3.064752e+00 3.341269e+00 2.605862e+00 1.000000e-02 4.624524e-01 1.176408e+00 8.104940e-01 7.459478e-01 6.958015e-01 7.173846e-01 7.276819e-01 6.822479e-01 6.217917e-01 5.804027e-01 6.225941e-01 4.961488e-01 1.000000e-02
<GCONST> 1.172040e+02
<STATE> 3
<SWEIGHTS> 1
 1.000000e+00
<MEAN> 38
 -9.211423e+00 4.263270e-01 -1.577363e+00 2.461556e-01 2.325092e+00 -2.324707e+00 1.688195e+00 2.524827e+00 2.745102e+00 1.152236e+00 2.412094e+00 2.479826e+00 3.028149e-01 -6.079384e-02 -4.635911e-02 -1.692108e-01 -3.551136e-01 -4.954605e-01 -3.688608e-01 -5.712447e-02 -1.522430e-02 -7.026235e-02 -1.474408e-01 1.773275e-03 2.243887e-02 2.752132e-01 6.953202e-02 1.145829e-01 5.855276e-02 -9.681591e-03 6.979328e-02 -4.757695e-02 -6.224017e-02 -4.083699e-02 -1.375703e-02 -8.888871e-02 -8.670001e-02 7.584860e-04
<VARIANCE> 38
 4.913725e+01 4.023601e+01 4.410614e+01 3.996702e+01 4.266581e+01 4.978946e+01 5.147267e+01 4.584113e+01 3.870221e+01 3.285386e+01 4.075514e+01 2.741170e+01 5.102227e+00 4.568785e+00 3.980098e+00 3.484965e+00 3.525715e+00 3.864181e+00 4.208010e+00 4.023668e+00 3.391193e+00 3.151617e+00 3.596960e+00 2.728016e+00 1.000000e-02 5.645348e-01 9.421482e-01 6.714571e-01 6.449202e-01 6.389667e-01 6.832101e-01 7.433961e-01 7.245846e-01 6.184387e-01 5.898939e-01 6.316834e-01 4.931574e-01 1.000000e-02
<GCONST> 1.160690e+02
<STATE> 4
<SWEIGHTS> 1
 1.000000e+00
<MEAN> 38
 -6.814515e+00 4.023546e-01 -1.106732e+00 3.192172e-02 1.168357e+00 -3.816749e+00 2.564914e-01 2.197374e+00 2.496641e+00 7.788739e-01 1.446660e+00 2.156102e+00 1.154397e+00 -1.988734e-02 2.495062e-01 -3.687497e-03 -3.780235e-01 -8.979373e-02 -4.453886e-01 -2.757577e-01 -1.511096e-01 -6.540645e-02 -3.291453e-01 -2.618904e-01 1.936239e-02 7.882771e-03 -8.287802e-02 -3.278636e-02 -3.232132e-02 1.207536e-02 1.721181e-01 6.591351e-02 7.907766e-03 -1.868144e-03 4.696810e-02 5.569065e-02 -5.955132e-03 -2.009179e-03
<VARIANCE> 38
 6.939700e+01 3.277937e+01 4.234970e+01 3.632972e+01 4.734260e+01 5.006878e+01 5.973888e+01 5.331819e+01 4.221370e+01 3.557749e+01 4.213106e+01 2.986663e+01 4.550453e+00 3.212140e+00 2.897975e+00 2.924419e+00 3.273430e+00 3.616727e+00 4.051131e+00 4.038651e+00 3.308006e+00 3.087624e+00 3.371341e+00 2.583282e+00 1.000000e-02 6.077402e-01 6.050086e-01 4.771579e-01 5.012652e-01 5.507205e-01 5.906985e-01 6.822373e-01 6.928317e-01 5.832932e-01 5.641161e-01 5.791852e-01 4.600064e-01 1.000000e-02
<GCONST> 1.138224e+02
<TRANSP> 5
 0.000000e+00 1.000000e+00 0.000000e+00 0.000000e+00 0.000000e+00
 0.000000e+00 8.381020e-01 1.618981e-01 0.000000e+00 0.000000e+00
 0.000000e+00 0.000000e+00 7.542795e-01 2.457205e-01 0.000000e+00
 0.000000e+00 0.000000e+00 0.000000e+00 6.778745e-01 3.221255e-01
 0.000000e+00 0.000000e+00 0.000000e+00 0.000000e+00 0.000000e+00
<ENDHMM>
~h "u"
<BEGINHMM>
<NUMSTATES> 5
<STATE> 2
<SWEIGHTS> 1
 1.000000e+00
<MEAN> 38
 8.220597e+00 6.358304e+00 -4.325063e+00 -2.271909e+00 -3.016168e+00 3.287426e+00 -5.026484e+00 -7.849010e+00 -5.722675e+00 -3.830378e+00 4.337544e-01 -7.316738e-01 3.680429e-01 2.152488e-01 -6.090291e-02 -1.145671e-01 -1.293882e-01 1.337456e-01 -2.307950e-01 -4.201556e-01 -3.048608e-01 -1.008085e-01 3.644130e-02 -2.943404e-02 7.519528e-03 -1.172635e-01 -6.638686e-02 4.082443e-02 5.836933e-02 5.468918e-02 -3.832619e-02 6.242333e-02 1.105287e-01 1.001884e-01 4.969834e-02 -3.943259e-03 5.506965e-03 -2.991319e-03
<VARIANCE> 38
 3.105204e+01 3.986054e+01 3.918462e+01 6.929531e+01 5.330559e+01 5.201595e+01 8.282411e+01 7.066682e+01 6.275113e+01 6.256818e+01 5.221176e+01 4.220971e+01 1.929892e+00 2.539170e+00 2.025312e+00 3.550400e+00 3.534049e+00 3.571676e+00 3.962464e+00 4.599349e+00 4.035321e+00 3.677284e+00 3.459024e+00 2.804449e+00 1.000000e-02 2.133029e-01 3.609143e-01 2.934727e-01 4.731770e-01 5.280218e-01 5.880108e-01 6.090037e-01 6.995611e-01 6.256089e-01 6.053697e-01 5.961848e-01 4.882460e-01 1.000000e-02
<GCONST> 1.134358e+02
<STATE> 3
<SWEIGHTS> 1
 1.000000e+00
<MEAN> 38
 7.683978e+00 5.825656e+00 -2.854692e+00 6.003562e-02 -1.314906e+00 2.300759e+00 -4.933789e+00 -7.738635e+00 -4.819626e+00 -2.813500e+00 4.481254e-01 -9.176025e-01 -4.648339e-01 -2.600278e-01 4.395158e-01 5.544474e-01 3.787220e-01 -2.998952e-01 1.303646e-01 3.718837e-01 4.267994e-01 1.461860e-01 -1.195824e-01 -1.034799e-01 -1.574145e-02 -1.201675e-01 -6.889958e-02 4.775912e-02 -9.963408e-04 -2.997381e-02 -2.007798e-02 7.650060e-02 1.324002e-01 6.303547e-02 -5.692986e-03 -2.550542e-02 1.410882e-02 -1.968642e-03
<VARIANCE> 38
 2.906728e+01 4.030848e+01 4.426662e+01 7.201183e+01 5.772404e+01 5.416926e+01 7.399744e+01 7.081669e+01 6.189689e+01 6.246684e+01 5.530701e+01 4.145483e+01 1.634150e+00 2.367355e+00 2.351694e+00 3.443326e+00 3.687373e+00 3.785922e+00 3.883526e+00 4.407834e+00 4.090998e+00 3.894935e+00 3.563838e+00 2.858327e+00 1.000000e-02 1.805516e-01 3.869151e-01 3.417668e-01 4.605959e-01 5.689077e-01 6.175264e-01 6.053945e-01 6.963137e-01 6.635008e-01 6.726564e-01 6.295804e-01 5.118457e-01 1.000000e-02
<GCONST> 1.140229e+02
<STATE> 4
<SWEIGHTS> 1
 1.000000e+00
<MEAN> 38
 4.120994e+00 3.798224e+00 -9.113592e-02 3.074975e+00 6.047126e-01 6.106736e-01 -3.656525e+00 -4.667825e+00 -2.041811e+00 -1.927205e+00 -9.086286e-02 -1.203146e+00 -8.879889e-01 -5.480469e-01 4.631130e-01 2.496780e-01 4.258453e-02 -2.050579e-01 4.617299e-01 8.265093e-01 5.478561e-01 1.112246e-01 -9.904496e-02 6.113836e-02 -1.977078e-02 -1.823978e-02 -4.636456e-02 -1.032482e-01 -1.579690e-01 -1.089936e-01 6.527016e-02 3.230339e-02 9.775339e-03 -3.445724e-02 2.541993e-02 5.622955e-02 5.434824e-02 2.375045e-03
<VARIANCE> 38
 4.272705e+01 4.789748e+01 5.142079e+01 7.022585e+01 6.035184e+01 5.881755e+01 7.085609e+01 6.911890e+01 5.934322e+01 5.319254e+01 5.207494e+01 3.740337e+01 2.056493e+00 2.917659e+00 2.771916e+00 3.545262e+00 3.939327e+00 3.836995e+00 4.020371e+00 4.180709e+00 3.972684e+00 3.912841e+00 3.641400e+00 2.868553e+00 1.000000e-02 2.297253e-01 5.171821e-01 4.290054e-01 5.073818e-01 6.000411e-01 6.500605e-01 6.639429e-01 6.990265e-01 6.642201e-01 6.919008e-01 6.493523e-01 5.225444e-01 1.000000e-02
<GCONST> 1.162294e+02
<TRANSP> 5
 0.000000e+00 1.000000e+00 0.000000e+00 0.000000e+00 0.000000e+00
 0.000000e+00 9.014990e-01 9.850104e-02 0.000000e+00 0.000000e+00
 0.000000e+00 0.000000e+00 8.036741e-01 1.963259e-01 0.000000e+00
 0.000000e+00 0.000000e+00 0.000000e+00 7.295203e-01 2.704798e-01
 0.000000e+00 0.000000e+00 0.000000e+00 0.000000e+00 0.000000e+00
<ENDHMM>
~h "v"
<BEGINHMM>
<NUMSTATES> 5
<STATE> 2
<SWEIGHTS> 1
 1.000000e+00
<MEAN> 38
 -3.546225e+00 -1.381986e-01 -2.928972e+00 5.203938e+00 2.212172e+00 2.500154e+00 1.082510e-01 4.945756e-02 1.021252e+00 7.761665e-02 2.283468e-01 1.459409e-01 1.913563e-01 -3.288693e-02 -1.268158e-01 -9.437658e-02 1.885002e-02 7.342444e-02 -1.203623e-01 -1.567499e-01 -5.369829e-02 1.862742e-02 1.982235e-02 -7.911486e-02 3.818304e-03 1.602656e-01 5.550141e-03 -1.850158e-02 -1.710971e-01 -9.109723e-02 -1.348843e-02 -9.724845e-03 -1.345884e-02 -3.718603e-02 1.101288e-02 1.118648e-02 -1.931948e-04 2.966914e-03
<VARIANCE> 38
 6.319078e+01 2.600462e+01 3.187920e+01 6.835193e+01 3.404689e+01 3.629382e+01 3.112236e+01 3.217895e+01 3.219928e+01 3.026393e+01 2.404472e+01 2.180219e+01 4.205096e+00 1.418681e+00 1.368296e+00 3.600206e+00 2.149284e+00 2.016868e+00 1.874511e+00 2.217978e+00 2.349359e+00 2.121436e+00 1.873933e+00 1.579843e+00 1.000000e-02 3.086133e-01 1.984715e-01 2.097375e-01 3.963716e-01 3.127997e-01 3.417198e-01 3.216526e-01 3.637415e-01 3.849224e-01 3.848525e-01 3.383651e-01 2.950148e-01 1.000000e-02
<GCONST> 9.798069e+01
<STATE> 3
<SWEIGHTS> 1
 1.000000e+00
<MEAN> 38
 -9.935344e-01 -2.436706e-01 -3.472517e+00 2.939723e+00 1.274894e+00 2.371759e+00 -5.722574e-01 -7.250414e-01 3.850873e-01 1.928322e-01 3.498628e-01 -1.456544e-01 7.533430e-01 2.691176e-02 -1.162754e-01 -5.630239e-01 -2.388226e-01 -5.297428e-02 -1.893185e-01 -1.981646e-01 -1.907094e-01 1.263700e-02 1.044551e-02 -9.344192e-02 1.309850e-02 4.074929e-02 -1.434867e-02 1.140476e-02 -6.499833e-02 -3.142442e-02 -9.342839e-03 5.029150e-03 2.431574e-02 1.915334e-03 1.250094e-02 3.342566e-03 4.929733e-03 8.937630e-04
<VARIANCE> 38
 6.776233e+01 2.613441e+01 3.269702e+01 8.160757e+01 3.645238e+01 4.080649e+01 3.433331e+01 3.493904e+01 3.386688e+01 3.142756e+01 2.556020e+01 2.356422e+01 3.526662e+00 1.353559e+00 1.300696e+00 3.136053e+00 1.945538e+00 1.959542e+00 1.825490e+00 2.121804e+00 2.221167e+00 2.065940e+00 1.759866e+00 1.533396e+00 1.000000e-02 3.322854e-01 1.990618e-01 1.966154e-01 3.855810e-01 2.978156e-01 3.253479e-01 3.110124e-01 3.503465e-01 3.690636e-01 3.683629e-01 3.134100e-01 2.827858e-01 1.000000e-02
<GCONST> 9.767546e+01
<STATE> 4
<SWEIGHTS> 1
 1.000000e+00
<MEAN> 38
 2.107657e+00 -8.481161e-02 -3.545761e+00 4.978020e-01 1.935596e-01 1.980103e+00 -1.304381e+00 -1.333397e+00 -4.246531e-01 1.959340e-01 2.781088e-01 -5.078712e-01 6.602610e-01 1.532971e-02 8.239666e-03 -5.084041e-01 -1.954948e-01 -9.130153e-02 -1.710745e-01 -9.074052e-02 -1.477894e-01 7.063417e-03 -1.962385e-02 -9.037635e-02 1.110900e-02 -7.762714e-02 -9.840350e-03 5.147892e-02 4.154920e-02 2.373296e-02 3.262112e-03 2.164638e-02 3.988260e-02 2.311842e-02 -6.474658e-04 -5.144500e-03 1.114009e-02 -1.248980e-03
<VARIANCE> 38
 6.278031e+01 2.897742e+01 3.579492e+01 8.412202e+01 3.972378e+01 4.836017e+01 3.942628e+01 3.921889e+01 3.744855e+01 3.555999e+01 2.875216e+01 2.606474e+01 2.704162e+00 1.335985e+00 1.335584e+00 2.912003e+00 1.942158e+00 1.971706e+00 1.842524e+00 2.090975e+00 2.185662e+00 2.082449e+00 1.726312e+00 1.556900e+00 1.000000e-02 2.872310e-01 1.946220e-01 1.902936e-01 3.582363e-01 2.835643e-01 3.208738e-01 3.116907e-01 3.444213e-01 3.533078e-01 3.566054e-01 3.019488e-01 2.764186e-01 1.000000e-02
<GCONST> 9.794776e+01
<TRANSP> 5
 0.000000e+00 1.000000e+00 0.000000e+00 0.000000e+00 0.000000e+00
 0.000000e+00 7.556986e-01 2.443014e-01 0.000000e+00 0.000000e+00
 0.000000e+00 0.000000e+00 7.063360e-01 2.936640e-01 0.000000e+00
 0.000000e+00 0.000000e+00 0.000000e+00 6.735262e-01 3.264738e-01
 0.000000e+00 0.000000e+00 0.000000e+00 0.000000e+00 0.000000e+00
<ENDHMM>
~h "w"
<BEGINHMM>
<NUMSTATES> 5
<STATE> 2
<SWEIGHTS> 1
 1.000000e+00
<MEAN> 38
 6.655288e+00 -2.375484e-02 -2.172652e+00 -3.215895e-01 -2.094337e+00 -5.614171e-01 -3.491022e+00 -2.637880e+00 -1.725040e+00 9.814219e-01 4.918413e-01 -9.477557e-01 2.997452e-01 -3.550927e-01 -2.147261e-01 -5.089550e-01 -3.324349e-01 6.708562e-02 7.366606e-02 1.334276e-01 1.504321e-02 1.229568e-01 1.652805e-02 -1.219317e-01 1.416302e-02 -1.390274e-01 1.040955e-03 3.095387e-02 3.983688e-02 6.022475e-02 2.960375e-02 9.075987e-02 6.160958e-02 3.957815e-02 -3.649722e-02 -2.021159e-02 2.345926e-02 -2.472557e-03
<VARIANCE> 38
 2.323457e+01 3.277017e+01 3.890152e+01 5.517712e+01 4.193828e+01 5.344548e+01 4.393777e+01 3.840625e+01 3.772171e+01 3.629493e+01 3.426709e+01 2.734170e+01 1.057655e+00 1.242539e+00 1.073654e+00 1.958266e+00 1.714260e+00 1.786096e+00 1.779289e+00 1.789995e+00 1.781217e+00 1.813139e+00 1.569961e+00 1.313540e+00 1.000000e-02 1.583128e-01 1.576962e-01 1.466666e-01 2.488682e-01 2.466186e-01 2.723416e-01 2.847474e-01 2.858937e-01 2.911589e-01 2.918358e-01 2.606759e-01 2.206554e-01 1.000000e-02
<GCONST> 9.180533e+01
<STATE> 3
<SWEIGHTS> 1
 1.000000e+00
<MEAN> 38
 6.833149e+00 -1.335477e+00 -2.909742e+00 -2.095765e+00 -2.981740e+00 -8.768412e-02 -2.555206e+00 -1.702321e+00 -1.304802e+00 1.015216e+00 2.963501e-01 -1.395963e+00 2.068465e-02 -2.902483e-01 -1.070234e-01 -3.101361e-01 -1.488371e-01 6.095897e-02 2.020634e-01 2.042381e-01 8.455121e-02 -2.432811e-02 -7.802130e-02 -8.657448e-02 7.888289e-03 -7.228420e-02 3.612135e-02 3.389096e-02 5.616399e-02 5.363942e-02 8.709654e-04 2.846554e-02 3.815500e-04 1.807023e-03 -3.814723e-02 -1.634982e-02 2.082773e-02 -1.820718e-03
<VARIANCE> 38
 2.217067e+01 3.843037e+01 4.510725e+01 6.131113e+01 4.688490e+01 6.096094e+01 4.941066e+01 4.217987e+01 4.008474e+01 3.918542e+01 3.838678e+01 2.984508e+01 6.517165e-01 1.027935e+00 9.317096e-01 1.558951e+00 1.475272e+00 1.485236e+00 1.499174e+00 1.557514e+00 1.571775e+00 1.597241e+00 1.385756e+00 1.192556e+00 1.000000e-02 1.080686e-01 1.295647e-01 1.273701e-01 2.096700e-01 2.166237e-01 2.335604e-01 2.419275e-01 2.466986e-01 2.477296e-01 2.567852e-01 2.264151e-01 1.951877e-01 1.000000e-02
<GCONST> 8.876446e+01
<STATE> 4
<SWEIGHTS> 1
 1.000000e+00
<MEAN> 38
 6.434326e+00 -2.009006e+00 -2.978387e+00 -2.408972e+00 -2.938501e+00 -1.051604e-01 -1.938105e+00 -9.451798e-01 -8.651238e-01 6.322567e-01 -1.146961e-01 -1.639614e+00 -8.135764e-02 -1.940138e-01 -2.693817e-03 -1.597234e-01 -2.088215e-02 6.439858e-03 2.022208e-01 1.631940e-01 5.662426e-02 -9.914429e-02 -1.153611e-01 -3.334453e-02 4.038196e-03 -4.308936e-02 6.054228e-02 4.057230e-02 4.690778e-02 4.691042e-02 1.573221e-03 4.466000e-03 -3.072929e-02 -2.054284e-02 -2.337528e-02 -2.412269e-03 2.089755e-02 -1.566389e-03
<VARIANCE> 38
 2.291863e+01 4.199057e+01 5.060341e+01 6.291597e+01 4.931457e+01 6.470415e+01 5.192672e+01 4.600089e+01 4.331392e+01 4.154055e+01 4.111627e+01 3.092741e+01 6.829408e-01 1.120996e+00 1.070404e+00 1.598534e+00 1.672062e+00 1.545642e+00 1.589460e+00 1.676615e+00 1.667052e+00 1.674799e+00 1.475752e+00 1.269673e+00 1.000000e-02 1.076390e-01 1.412583e-01 1.421601e-01 2.187469e-01 2.340567e-01 2.447116e-01 2.521133e-01 2.648263e-01 2.620529e-01 2.707669e-01 2.347830e-01 2.041830e-01 1.000000e-02
<GCONST> 9.100151e+01
<TRANSP> 5
 0.000000e+00 1.000000e+00 0.000000e+00 0.000000e+00 0.000000e+00
 0.000000e+00 7.090932e-01 2.909069e-01 0.000000e+00 0.000000e+00
 0.000000e+00 0.000000e+00 6.870493e-01 3.129507e-01 0.000000e+00
 0.000000e+00 0.000000e+00 0.000000e+00 6.192669e-01 3.807332e-01
 0.000000e+00 0.000000e+00 0.000000e+00 0.000000e+00 0.000000e+00
<ENDHMM>
~h "x"
<BEGINHMM>
<NUMSTATES> 5
<STATE> 2
<SWEIGHTS> 1
 1.000000e+00
<MEAN> 38
 -8.292295e+00 -6.107747e+00 -5.402045e+00 2.141138e+00 1.063737e+01 3.701779e+00 -1.274645e+00 5.330680e+00 6.165680e+00 3.158468e+00 2.367484e+00 5.277842e-01 -3.417116e-01 -1.742440e-01 -3.349914e-01 -1.399959e-03 2.435102e-01 -2.206637e-02 2.681706e-02 2.331920e-01 2.700311e-01 2.691123e-01 2.106572e-01 1.026634e-01 -6.706485e-03 1.291407e-01 8.844759e-02 6.321716e-02 -4.229842e-02 -1.709084e-01 -6.771627e-02 1.353611e-02 -8.965972e-02 -7.808900e-02 -5.898617e-02 -4.578505e-02 -6.264267e-03 1.558781e-03
<VARIANCE> 38
 2.664160e+01 2.771449e+01 4.688941e+01 3.668299e+01 5.055440e+01 5.472316e+01 4.517315e+01 5.936804e+01 4.389386e+01 3.934674e+01 3.942336e+01 3.077195e+01 1.580277e+00 1.315740e+00 1.681148e+00 1.741638e+00 2.676683e+00 2.359451e+00 2.449130e+00 2.873159e+00 2.771328e+00 2.624070e+00 2.434015e+00 2.058435e+00 1.000000e-02 1.920758e-01 2.183360e-01 2.736328e-01 3.212286e-01 4.515395e-01 4.318950e-01 4.578427e-01 5.104973e-01 5.117044e-01 4.973353e-01 4.597459e-01 4.050424e-01 1.000000e-02
<GCONST> 1.025135e+02
<STATE> 3
<SWEIGHTS> 1
 1.000000e+00
<MEAN> 38
 -8.392001e+00 -5.648650e+00 -5.582310e+00 1.957913e+00 9.398048e+00 2.833363e+00 -4.893951e-01 5.178238e+00 6.140993e+00 3.520742e+00 2.831335e+00 1.095357e+00 3.532969e-01 2.679519e-01 1.449056e-01 -8.257870e-02 -3.775514e-01 -1.823595e-01 7.991669e-02 -2.442967e-01 -1.823378e-01 -1.226822e-01 -1.077763e-01 -3.966546e-03 -2.537309e-03 1.736830e-01 1.187767e-01 1.107747e-01 -2.881076e-02 -1.540211e-01 -4.632942e-02 -1.513545e-02 -1.160852e-01 -1.176532e-01 -9.521411e-02 -7.650941e-02 -3.562137e-02 2.397395e-03
<VARIANCE> 38
 2.706729e+01 3.080564e+01 4.545546e+01 3.686475e+01 5.100327e+01 5.443435e+01 4.689112e+01 6.037757e+01 4.217750e+01 3.925348e+01 3.950747e+01 2.943653e+01 1.972436e+00 1.584903e+00 1.866884e+00 1.844246e+00 2.668043e+00 2.394994e+00 2.652473e+00 3.205822e+00 2.963842e+00 2.816306e+00 2.681727e+00 2.109746e+00 1.000000e-02 2.436828e-01 2.680651e-01 2.943232e-01 3.348296e-01 4.562791e-01 4.318285e-01 4.878151e-01 5.549981e-01 5.379463e-01 5.204551e-01 4.866014e-01 4.075034e-01 1.000000e-02
<GCONST> 1.044856e+02
<STATE> 4
<SWEIGHTS> 1
 1.000000e+00
<MEAN> 38
 -5.903772e+00 -3.707085e+00 -3.904517e+00 1.593714e+00 6.629785e+00 1.875928e+00 8.073882e-02 3.360906e+00 4.441773e+00 2.371092e+00 1.920567e+00 9.411657e-01 1.014025e+00 6.962832e-01 5.208061e-01 -1.935619e-01 -9.361479e-01 -3.355902e-01 -2.396017e-02 -6.453324e-01 -6.023972e-01 -4.408919e-01 -3.730848e-01 -1.490054e-01 8.763044e-03 8.053739e-02 3.882449e-02 3.090808e-02 -4.927085e-02 -9.936081e-02 -2.055449e-02 -2.253073e-02 -2.672022e-02 -3.582106e-02 -1.488597e-02 -3.276340e-03 -6.496233e-03 3.343039e-03
<VARIANCE> 38
 4.410366e+01 3.555189e+01 4.735040e+01 3.821888e+01 5.612798e+01 5.282327e+01 5.068769e+01 6.087801e+01 4.478801e+01 4.234034e+01 4.047111e+01 2.924346e+01 2.868368e+00 2.163655e+00 2.269270e+00 2.361121e+00 3.225797e+00 2.655037e+00 3.241215e+00 3.679398e+00 3.198529e+00 3.068056e+00 3.045348e+00 2.263020e+00 1.000000e-02 3.571711e-01 3.665323e-01 3.558145e-01 3.930776e-01 5.365039e-01 4.566275e-01 5.307515e-01 6.122014e-01 5.706184e-01 5.648293e-01 5.216872e-01 4.123281e-01 1.000000e-02
<GCONST> 1.092851e+02
<TRANSP> 5
 0.000000e+00 1.000000e+00 0.000000e+00 0.000000e+00 0.000000e+00
 0.000000e+00 8.417081e-01 1.582919e-01 0.000000e+00 0.000000e+00
 0.000000e+00 0.000000e+00 7.711087e-01 2.288913e-01 0.000000e+00
 0.000000e+00 0.000000e+00 0.000000e+00 7.031818e-01 2.968182e-01
 0.000000e+00 0.000000e+00 0.000000e+00 0.000000e+00 0.000000e+00
<ENDHMM>
~h "y"
<BEGINHMM>
<NUMSTATES> 5
<STATE> 2
<SWEIGHTS> 1
 1.000000e+00
<MEAN> 38
 4.751758e+00 2.696171e+00 7.426790e+00 8.266764e+00 -6.918581e+00 -7.208055e+00 -5.501606e+00 -1.488937e+00 -8.188265e+00 -4.348489e+00 1.509246e-01 -7.404589e-01 1.874880e-01 -6.676489e-03 -6.642371e-02 4.612022e-02 -7.763671e-02 -1.121525e-01 -1.964801e-01 4.115764e-02 -8.982049e-02 1.238789e-02 -1.654786e-02 -3.032767e-02 4.847140e-03 -8.366741e-02 -1.469106e-02 -4.688759e-02 -3.345831e-02 9.346666e-02 6.714709e-02 5.580704e-02 1.742274e-02 9.307040e-02 4.087818e-02 -6.652304e-03 5.959633e-03 -2.518597e-03
<VARIANCE> 38
 1.688686e+01 1.942675e+01 2.868127e+01 3.894034e+01 4.426442e+01 4.178971e+01 4.776104e+01 4.409467e+01 5.318286e+01 6.339937e+01 4.131820e+01 3.483767e+01 6.476487e-01 8.270324e-01 9.456452e-01 1.086141e+00 1.658084e+00 1.595449e+00 1.843790e+00 1.786876e+00 1.923814e+00 1.901546e+00 1.590456e+00 1.340853e+00 1.000000e-02 9.525558e-02 1.405749e-01 1.424087e-01 1.755726e-01 2.507437e-01 2.627127e-01 2.867028e-01 2.961483e-01 3.054860e-01 2.943403e-01 2.577617e-01 2.198820e-01 1.000000e-02
<GCONST> 8.916545e+01
<STATE> 3
<SWEIGHTS> 1
 1.000000e+00
<MEAN> 38
 5.431427e+00 2.060959e+00 5.200694e+00 6.857307e+00 -5.324745e+00 -7.080779e+00 -6.628163e+00 -2.089383e+00 -6.053311e+00 -2.389223e+00 -8.563346e-01 -7.520306e-01 -1.562945e-02 -3.271308e-02 -2.288029e-01 -1.744265e-01 2.350295e-01 1.518312e-01 1.023454e-02 -7.964433e-02 3.390592e-01 2.193088e-01 -3.315709e-02 -2.767459e-03 -5.141784e-03 -2.901736e-02 -1.329544e-03 -1.007017e-02 -2.583020e-02 2.863389e-02 4.433132e-02 4.512282e-02 -4.516614e-03 3.409548e-02 9.266347e-03 7.528416e-03 -4.436471e-03 -1.168866e-03
<VARIANCE> 38
 1.562585e+01 2.127251e+01 3.243531e+01 3.890998e+01 4.403253e+01 4.618941e+01 5.291240e+01 4.838202e+01 5.370298e+01 5.681009e+01 4.507492e+01 3.423841e+01 4.286640e-01 6.753084e-01 8.720523e-01 1.046744e+00 1.445338e+00 1.487618e+00 1.670109e+00 1.626707e+00 1.715796e+00 1.735844e+00 1.447718e+00 1.261279e+00 1.000000e-02 4.861142e-02 9.448978e-02 1.125752e-01 1.519964e-01 2.066720e-01 2.282955e-01 2.472472e-01 2.530610e-01 2.555609e-01 2.595258e-01 2.326896e-01 2.045971e-01 1.000000e-02
<GCONST> 8.549929e+01
<STATE> 4
<SWEIGHTS> 1
 1.000000e+00
<MEAN> 38
 5.161243e+00 1.210802e+00 2.862195e+00 4.471681e+00 -3.361853e+00 -5.087899e+00 -6.336092e+00 -2.947943e+00 -2.361041e+00 -9.200091e-02 -9.454826e-01 -7.147899e-01 -1.620753e-01 -4.591367e-02 -2.600113e-01 -3.163651e-01 3.420669e-01 4.498378e-01 3.189942e-01 -5.778917e-03 4.493705e-01 2.012248e-01 2.183742e-02 -5.436350e-02 -1.178076e-02 -3.899949e-02 -9.569465e-03 5.114804e-03 -9.059952e-03 1.232326e-02 4.986749e-02 5.856424e-02 4.085339e-02 -4.071920e-03 -2.646032e-02 1.069162e-02 5.347353e-03 -8.294997e-04
<VARIANCE> 38
 2.362800e+01 2.846708e+01 3.933221e+01 4.297039e+01 4.433501e+01 5.446315e+01 6.304030e+01 5.941914e+01 5.482199e+01 5.465232e+01 4.889893e+01 3.401782e+01 6.233891e-01 8.697245e-01 1.045298e+00 1.255939e+00 1.741117e+00 1.823233e+00 1.999230e+00 1.977036e+00 1.973936e+00 2.058606e+00 1.740435e+00 1.446734e+00 1.000000e-02 6.175570e-02 1.235352e-01 1.423963e-01 1.863273e-01 2.445527e-01 2.749795e-01 3.030334e-01 3.001651e-01 3.054341e-01 3.161853e-01 2.838125e-01 2.438718e-01 1.000000e-02
<GCONST> 9.191724e+01
<TRANSP> 5
 0.000000e+00 1.000000e+00 0.000000e+00 0.000000e+00 0.000000e+00
 0.000000e+00 9.241877e-01 7.581232e-02 0.000000e+00 0.000000e+00
 0.000000e+00 0.000000e+00 8.872384e-01 1.127616e-01 0.000000e+00
 0.000000e+00 0.000000e+00 0.000000e+00 8.363044e-01 1.636956e-01
 0.000000e+00 0.000000e+00 0.000000e+00 0.000000e+00 0.000000e+00
<ENDHMM>
~h "z"
<BEGINHMM>
<NUMSTATES> 5
<STATE> 2
<SWEIGHTS> 1
 1.000000e+00
<MEAN> 38
 -1.331843e+01 6.510629e+00 6.799070e+00 2.064572e+00 3.987436e+00 2.320224e-01 -5.107721e-01 3.267581e+00 1.720822e+00 -3.467084e+00 1.408545e+00 1.794187e+00 -6.558113e-01 -2.090575e-02 2.968674e-02 8.992256e-03 1.094469e-01 1.140204e-01 1.719396e-01 2.184160e-01 1.422027e-01 -7.404286e-02 6.066141e-02 3.443115e-02 1.803381e-03 2.900069e-01 -1.028294e-01 -8.064324e-02 -2.673103e-02 -1.275544e-01 -8.771674e-02 -4.439448e-02 -8.553044e-02 -4.049624e-02 5.877057e-02 -3.156604e-02 -1.850692e-02 5.321975e-04
<VARIANCE> 38
 7.130669e+01 3.220367e+01 3.379659e+01 3.048210e+01 4.499615e+01 5.470200e+01 5.601800e+01 5.456614e+01 5.067900e+01 3.551244e+01 3.266803e+01 2.457129e+01 4.332304e+00 1.342719e+00 1.424866e+00 1.385739e+00 2.330872e+00 2.671987e+00 2.361518e+00 2.401046e+00 2.117520e+00 1.984119e+00 1.786116e+00 1.607262e+00 1.000000e-02 2.646369e-01 1.898780e-01 2.099578e-01 2.307345e-01 2.957866e-01 3.833177e-01 3.828367e-01 3.895987e-01 3.680673e-01 3.630628e-01 3.269852e-01 3.058325e-01 1.000000e-02
<GCONST> 9.940476e+01
<STATE> 3
<SWEIGHTS> 1
 1.000000e+00
<MEAN> 38
 -1.096374e+01 4.860940e+00 5.477129e+00 1.626869e+00 1.953461e+00 -1.536543e+00 -6.768447e-01 2.453487e+00 1.494814e+00 -3.038917e+00 1.095251e+00 1.501605e+00 1.320236e+00 -3.759700e-01 -2.696438e-01 -1.381649e-01 -6.707888e-01 -5.791386e-01 -3.042791e-01 -3.776362e-01 -1.117806e-01 1.322597e-01 -1.917370e-01 -9.334091e-02 5.612734e-03 2.251507e-01 -7.247207e-02 -5.885255e-02 -2.903435e-02 -7.098106e-02 -1.407435e-03 -2.952759e-02 -6.302571e-02 -1.482825e-02 5.224892e-02 -3.386338e-02 -3.207258e-02 1.477545e-03
<VARIANCE> 38
 8.528044e+01 3.260144e+01 3.211037e+01 2.876552e+01 4.826802e+01 5.513035e+01 5.552061e+01 5.514445e+01 5.106435e+01 3.546629e+01 3.224849e+01 2.397735e+01 4.408130e+00 1.398067e+00 1.437236e+00 1.398686e+00 2.260457e+00 2.566205e+00 2.387032e+00 2.642141e+00 2.194817e+00 2.073792e+00 1.943993e+00 1.613251e+00 1.000000e-02 3.919697e-01 2.152864e-01 2.119430e-01 2.285573e-01 3.088533e-01 4.062468e-01 3.892923e-01 4.302091e-01 3.786240e-01 3.688254e-01 3.308553e-01 2.954914e-01 1.000000e-02
<GCONST> 1.005718e+02
<STATE> 4
<SWEIGHTS> 1
 1.000000e+00
<MEAN> 38
 -3.100938e+00 2.533597e+00 3.715337e+00 8.251176e-01 -1.581044e+00 -4.171764e+00 -2.310005e+00 3.004583e-01 8.216135e-01 -2.152899e+00 -1.153590e-01 7.418532e-01 1.624105e+00 -6.141580e-01 -4.568910e-01 -2.087505e-01 -6.497777e-01 -2.303577e-01 -2.264433e-01 -4.119456e-01 -1.092449e-01 3.144573e-01 -2.568329e-01 -2.201615e-01 9.822492e-03 -1.540443e-01 -2.331949e-02 -1.070570e-02 -1.906041e-02 9.028638e-02 1.806680e-01 8.268180e-02 5.570771e-02 -5.184188e-05 2.582232e-02 2.979321e-02 -1.127258e-02 -1.892063e-04
<VARIANCE> 38
 7.958799e+01 3.432450e+01 3.428265e+01 2.937351e+01 4.796732e+01 4.794604e+01 5.277951e+01 5.042165e+01 4.726019e+01 3.527261e+01 3.136281e+01 2.366551e+01 3.039471e+00 1.642044e+00 1.501501e+00 1.504900e+00 2.312964e+00 2.404775e+00 2.293542e+00 2.640165e+00 2.183994e+00 2.091036e+00 2.012571e+00 1.558674e+00 1.000000e-02 3.694576e-01 2.136144e-01 1.849312e-01 2.207431e-01 2.991983e-01 3.523637e-01 3.491786e-01 3.952571e-01 3.467911e-01 3.418500e-01 3.102430e-01 2.590522e-01 1.000000e-02
<GCONST> 9.909230e+01
<TRANSP> 5
 0.000000e+00 1.000000e+00 0.000000e+00 0.000000e+00 0.000000e+00
 0.000000e+00 8.751389e-01 1.248611e-01 0.000000e+00 0.000000e+00
 0.000000e+00 0.000000e+00 7.828141e-01 2.171859e-01 0.000000e+00
 0.000000e+00 0.000000e+00 0.000000e+00 7.106512e-01 2.893488e-01
 0.000000e+00 0.000000e+00 0.000000e+00 0.000000e+00 0.000000e+00
<ENDHMM>
~h "ac"
<BEGINHMM>
<NUMSTATES> 5
<STATE> 2
<SWEIGHTS> 1
 1.000000e+00
<MEAN> 38
 6.143519e+00 -5.127693e+00 -1.021821e+01 -7.938882e+00 3.845551e+00 7.553988e+00 -1.256260e+00 -2.980983e+00 1.507221e+00 5.773824e-01 -9.030312e-01 -4.032935e+00 3.128920e-01 7.887274e-03 -2.340620e-01 -3.970967e-01 1.605454e-01 3.926331e-01 2.522820e-02 -1.716046e-01 -2.441272e-01 -1.395288e-01 1.002494e-01 -1.148639e-01 1.037575e-02 -1.089809e-01 1.103686e-01 1.441825e-01 1.513785e-01 -4.383789e-03 -1.171180e-01 1.598377e-02 4.668725e-02 -2.865491e-02 -1.261252e-02 2.006942e-02 7.124176e-02 -3.623091e-03
<VARIANCE> 38
 2.803750e+01 3.120171e+01 3.290533e+01 5.529154e+01 3.852211e+01 5.161229e+01 5.231982e+01 4.120039e+01 4.281377e+01 4.348216e+01 4.312109e+01 3.363858e+01 1.559848e+00 1.788461e+00 2.005723e+00 2.684381e+00 1.752596e+00 2.297063e+00 2.295405e+00 2.340914e+00 2.115733e+00 1.990501e+00 2.030144e+00 1.776239e+00 1.000000e-02 2.336026e-01 2.467120e-01 2.769379e-01 3.727580e-01 2.827522e-01 3.275383e-01 3.707725e-01 3.952351e-01 3.533383e-01 3.344333e-01 3.425448e-01 3.005382e-01 1.000000e-02
<GCONST> 9.965953e+01
<STATE> 3
<SWEIGHTS> 1
 1.000000e+00
<MEAN> 38
 6.721132e+00 -3.069793e+00 -8.975874e+00 -7.902163e+00 4.078200e+00 7.128818e+00 -1.185961e+00 -2.860420e+00 -2.487018e-01 -3.882111e-01 -2.657331e-01 -3.681048e+00 -2.062045e-01 6.197025e-01 5.694017e-01 4.408370e-01 1.349470e-01 -2.982223e-01 2.808151e-02 8.287886e-02 -2.654429e-01 -1.315233e-01 4.734704e-02 1.086270e-01 -1.042795e-02 -1.306672e-01 7.443482e-02 1.569211e-01 1.840510e-01 -9.363256e-03 -1.190814e-01 1.807560e-02 1.808201e-02 1.119077e-02 2.278952e-02 -1.650353e-02 4.638300e-02 -3.092179e-03
<VARIANCE> 38
 2.675528e+01 3.606679e+01 3.541551e+01 5.976008e+01 3.944115e+01 4.898204e+01 5.532980e+01 4.390244e+01 4.481778e+01 4.538360e+01 4.182413e+01 3.322206e+01 1.508013e+00 1.517320e+00 1.856608e+00 2.503494e+00 1.808060e+00 2.241151e+00 2.189949e+00 2.343237e+00 2.127749e+00 1.990611e+00 1.856871e+00 1.689030e+00 1.000000e-02 1.655645e-01 2.002971e-01 2.539245e-01 3.311362e-01 2.791399e-01 3.192061e-01 3.538246e-01 3.931245e-01 3.412193e-01 3.330981e-01 3.096817e-01 2.887167e-01 1.000000e-02
<GCONST> 9.849802e+01
<STATE> 4
<SWEIGHTS> 1
 1.000000e+00
<MEAN> 38
 5.034227e+00 -9.412915e-02 -5.571627e+00 -4.841375e+00 4.409118e+00 4.943233e+00 -1.063681e+00 -2.135643e+00 -1.000404e+00 -6.618762e-01 -3.011689e-01 -3.008489e+00 -6.898382e-01 7.164400e-01 1.050217e+00 1.052857e+00 1.183485e-01 -6.192085e-01 9.653506e-02 8.972072e-02 -1.581968e-01 6.960333e-03 -1.508969e-02 2.480055e-01 -1.918313e-02 -9.171150e-02 -7.506791e-02 1.619008e-02 5.896457e-02 -2.845188e-02 -1.726830e-02 1.309613e-02 -1.135642e-02 4.210485e-02 4.339053e-02 -2.216687e-03 3.627439e-02 8.926167e-06
<VARIANCE> 38
 4.492441e+01 4.240615e+01 4.283941e+01 6.576757e+01 4.265208e+01 4.874129e+01 5.494253e+01 4.700306e+01 4.888067e+01 4.299131e+01 3.813015e+01 3.163802e+01 2.156459e+00 1.756280e+00 2.260653e+00 2.874374e+00 2.272571e+00 2.575383e+00 2.679123e+00 3.197505e+00 2.708767e+00 2.424305e+00 2.157092e+00 1.962698e+00 1.000000e-02 1.901203e-01 2.452876e-01 3.387941e-01 3.996101e-01 3.356127e-01 3.770742e-01 4.034187e-01 4.651597e-01 4.083273e-01 3.837033e-01 3.496499e-01 3.310017e-01 1.000000e-02
<GCONST> 1.039944e+02
<TRANSP> 5
 0.000000e+00 1.000000e+00 0.000000e+00 0.000000e+00 0.000000e+00
 0.000000e+00 8.493603e-01 1.506397e-01 0.000000e+00 0.000000e+00
 0.000000e+00 0.000000e+00 7.456272e-01 2.543729e-01 0.000000e+00
 0.000000e+00 0.000000e+00 0.000000e+00 6.655633e-01 3.344367e-01
 0.000000e+00 0.000000e+00 0.000000e+00 0.000000e+00 0.000000e+00
<ENDHMM>
~h "au"
<BEGINHMM>
<NUMSTATES> 5
<STATE> 2
<SWEIGHTS> 1
 1.000000e+00
<MEAN> 38
 7.646109e+00 -5.953325e+00 -1.162781e+01 -7.599027e+00 1.888342e+00 8.128423e+00 6.799521e-01 -2.921343e+00 -6.320620e-01 1.090379e+00 3.288870e-01 -4.024942e+00 2.025763e-01 2.017523e-01 -9.998165e-02 -2.747809e-01 -1.528120e-01 2.293673e-01 2.197672e-02 -8.775973e-02 -1.848073e-01 3.052884e-02 2.123293e-01 6.193335e-02 1.858275e-03 -2.417916e-02 5.623920e-02 6.015450e-02 4.728561e-02 -2.291879e-02 -4.653673e-02 -2.471072e-02 6.213938e-03 4.716653e-03 -8.983872e-03 3.483717e-03 3.903912e-02 -1.366310e-03
<VARIANCE> 38
 1.707564e+01 3.452866e+01 2.241102e+01 4.725286e+01 4.248058e+01 4.083900e+01 5.269305e+01 3.968279e+01 4.022367e+01 4.048213e+01 5.453189e+01 3.496717e+01 3.270575e-01 8.016485e-01 7.218580e-01 1.030488e+00 1.174269e+00 1.232103e+00 1.333922e+00 1.305339e+00 1.244175e+00 1.310973e+00 1.330988e+00 1.225392e+00 1.000000e-02 5.313883e-02 8.939793e-02 1.025872e-01 1.447510e-01 1.698461e-01 1.803743e-01 1.992886e-01 2.157484e-01 2.041849e-01 2.041106e-01 2.099996e-01 1.894102e-01 1.000000e-02
<GCONST> 8.170004e+01
<STATE> 3
<SWEIGHTS> 1
 1.000000e+00
<MEAN> 38
 9.849139e+00 5.766228e-01 -9.734821e+00 -9.726996e+00 -3.015113e+00 7.373283e+00 -7.606958e-01 -3.243953e+00 -2.725489e+00 3.236076e-01 2.957782e+00 -7.496724e-01 5.470707e-02 4.678879e-01 3.995377e-01 5.840279e-01 -2.064912e-01 -3.507136e-01 -4.068025e-01 -1.924642e-01 1.559173e-02 2.057025e-02 1.632962e-02 2.285116e-01 -9.710317e-03 -5.404174e-02 -4.264902e-02 7.115400e-02 1.785884e-01 9.171848e-02 -9.354915e-02 2.723111e-03 2.191250e-03 4.868322e-02 1.962701e-04 -6.591691e-02 -2.639068e-02 -1.575065e-03
<VARIANCE> 38
 1.494380e+01 4.080891e+01 2.603682e+01 5.104707e+01 4.813263e+01 4.359628e+01 6.694022e+01 4.662701e+01 4.495452e+01 5.266103e+01 5.425436e+01 4.157533e+01 3.613994e-01 9.100387e-01 8.144588e-01 1.771882e+00 1.770943e+00 1.708935e+00 1.854429e+00 1.774204e+00 1.858502e+00 1.922781e+00 1.840114e+00 1.607528e+00 1.000000e-02 4.968404e-02 1.075691e-01 1.197039e-01 1.843309e-01 2.520627e-01 2.695654e-01 2.788224e-01 2.894424e-01 2.898780e-01 2.978338e-01 2.828279e-01 2.572736e-01 1.000000e-02
<GCONST> 9.000973e+01
<STATE> 4
<SWEIGHTS> 1
 1.000000e+00
<MEAN> 38
 9.515656e+00 2.579740e+00 -6.947651e+00 -4.447067e+00 -2.660551e+00 4.623491e+00 -3.149067e+00 -4.578838e+00 -2.263793e+00 7.140369e-01 2.517843e+00 -2.928555e-02 -3.975596e-01 1.785181e-01 8.143169e-01 1.508665e+00 5.458801e-01 -8.463816e-01 -2.512054e-01 -3.337022e-03 3.570636e-01 7.612114e-02 -3.798083e-01 -1.526668e-02 -2.183224e-02 -1.509565e-01 -8.888414e-03 1.221585e-01 8.165956e-02 1.531815e-01 -6.736197e-02 9.904256e-02 1.398690e-01 5.993959e-02 -5.944451e-02 -8.240058e-02 -4.860324e-02 -2.781301e-03
<VARIANCE> 38
 2.017161e+01 4.146524e+01 2.972036e+01 6.874614e+01 5.883176e+01 5.182980e+01 7.446937e+01 5.434726e+01 5.097508e+01 5.678857e+01 5.117110e+01 3.954012e+01 9.384407e-01 1.478534e+00 1.490147e+00 2.349216e+00 3.249163e+00 2.850399e+00 2.804550e+00 2.852694e+00 2.833046e+00 3.023844e+00 2.834610e+00 2.377851e+00 1.000000e-02 1.006548e-01 2.273868e-01 2.084972e-01 3.094217e-01 5.054526e-01 4.483914e-01 4.442118e-01 4.453829e-01 4.571738e-01 4.991004e-01 4.411572e-01 3.865502e-01 1.000000e-02
<GCONST> 1.039646e+02
<TRANSP> 5
 0.000000e+00 1.000000e+00 0.000000e+00 0.000000e+00 0.000000e+00
 0.000000e+00 9.553850e-01 4.461497e-02 0.000000e+00 0.000000e+00
 0.000000e+00 0.000000e+00 8.243446e-01 1.756554e-01 0.000000e+00
 0.000000e+00 0.000000e+00 0.000000e+00 7.709073e-01 2.290927e-01
 0.000000e+00 0.000000e+00 0.000000e+00 0.000000e+00 0.000000e+00
<ENDHMM>
~h "ec"
<BEGINHMM>
<NUMSTATES> 5
<STATE> 2
<SWEIGHTS> 1
 1.000000e+00
<MEAN> 38
 2.707819e+00 -6.129545e+00 3.222942e-02 -1.518505e+00 -6.659265e+00 -4.962532e+00 3.291019e+00 4.621405e+00 8.530443e-01 -1.702611e+00 -2.724428e+00 -6.611992e-01 2.025029e-01 -1.619638e-01 -2.233169e-02 -8.408330e-02 -4.882837e-02 1.026846e-03 9.592451e-02 1.173954e-01 -6.873640e-02 -1.287143e-01 -2.155004e-01 -1.144146e-01 1.106690e-02 -6.067216e-02 1.490138e-01 2.999435e-02 9.296716e-02 1.565485e-01 6.408815e-02 -4.553330e-02 -8.305806e-02 -7.192658e-03 3.265716e-02 5.085145e-02 1.463594e-02 -3.949423e-03
<VARIANCE> 38
 2.327443e+01 2.758890e+01 2.482387e+01 2.866759e+01 4.009484e+01 4.145593e+01 4.776243e+01 3.770865e+01 4.119885e+01 3.537259e+01 3.304699e+01 2.876375e+01 9.934595e-01 1.736404e+00 1.121992e+00 1.482405e+00 2.136881e+00 1.839372e+00 2.109842e+00 2.012171e+00 1.882428e+00 1.740650e+00 1.626631e+00 1.462762e+00 1.000000e-02 1.662478e-01 2.516398e-01 1.776463e-01 2.369801e-01 3.243960e-01 3.098357e-01 3.405626e-01 3.541122e-01 3.269873e-01 3.002229e-01 2.827273e-01 2.528671e-01 1.000000e-02
