~o
<STREAMINFO> 1 38
<VECSIZE> 38<NULLD><MFCC_E_D_N_A_Z><DIAGC>
~h "@"
<BEGINHMM>
<NUMSTATES> 5
<STATE> 2
<NUMMIXES> 16
<SWEIGHTS> 1
 1.000000e+00
<MIXTURE> 1 4.533485e-02
<MEAN> 38
 6.814667e+00 1.127225e+00 2.199379e+00 5.207332e-01 -2.794288e+00 -1.343637e+00 -3.378554e+00 -6.531078e-01 6.148809e-01 2.197826e+00 1.798572e+00 2.399261e+00 4.678429e-01 7.035173e-01 4.650701e-01 4.929146e-01 4.899946e-01 5.710858e-01 4.856998e-01 3.320533e-01 4.427000e-01 5.124338e-01 3.743165e-01 5.180006e-01 1.984476e-02 -4.046382e-01 3.829112e-01 2.896457e-01 4.919321e-01 7.434683e-01 2.630289e-01 4.837016e-01 3.010571e-01 2.417111e-01 1.474671e-02 9.128810e-02 2.498222e-02 9.539329e-03
<VARIANCE> 38
 2.485880e+01 2.884609e+01 5.317826e+01 5.936473e+01 5.820464e+01 7.955157e+01 6.072561e+01 5.675175e+01 5.474498e+01 4.572057e+01 4.113398e+01 3.523785e+01 8.970848e-01 1.526572e+00 1.623128e+00 2.064594e+00 2.593846e+00 2.462367e+00 2.293229e+00 2.530169e+00 2.655509e+00 2.583520e+00 2.165517e+00 1.885862e+00 1.000000e-02 2.372896e-01 3.958021e-01 3.983574e-01 5.940780e-01 6.044421e-01 7.131325e-01 6.979418e-01 7.329379e-01 6.620226e-01 5.836166e-01 5.518869e-01 5.037814e-01 1.000000e-02
<GCONST> 1.078709e+02
<MIXTURE> 2 5.461660e-02
<MEAN> 38
 5.336413e+00 2.638433e+00 3.031876e+00 2.313028e+00 -1.193609e+00 -5.315609e+00 -3.748342e+00 2.652062e-01 2.194321e+00 6.978346e-01 -3.157294e-02 2.241489e+00 1.649159e+00 -1.118850e-01 1.373941e-01 -1.057645e-01 -5.794196e-01 4.001251e-01 -8.794549e-02 8.663817e-02 5.431483e-01 8.223583e-01 4.840299e-01 4.337979e-01 4.476936e-02 -8.031624e-01 -1.036379e-01 2.414315e-02 1.945105e-01 5.789959e-01 5.268214e-01 5.436984e-01 5.126432e-01 2.394836e-01 1.395940e-01 2.890978e-01 1.369839e-01 7.485810e-03
<VARIANCE> 38
 1.269292e+01 1.665306e+01 2.756881e+01 2.349981e+01 3.190381e+01 3.801533e+01 4.025158e+01 3.515887e+01 3.341447e+01 3.136934e+01 2.385424e+01 2.320804e+01 9.423685e-01 1.538762e+00 1.199461e+00 1.602922e+00 1.829725e+00 2.215901e+00 2.078114e+00 2.320133e+00 2.239899e+00 2.121471e+00 1.818305e+00 1.804120e+00 1.000000e-02 1.672478e-01 2.642186e-01 2.404196e-01 2.868710e-01 3.218078e-01 3.499417e-01 4.093734e-01 4.135686e-01 3.858041e-01 3.724026e-01 3.438078e-01 3.102241e-01 1.000000e-02
<GCONST> 9.289652e+01
<MIXTURE> 3 4.040558e-02
<MEAN> 38
 5.564343e+00 9.785186e-01 3.919775e-01 -6.012214e-01 -2.098891e+00 -6.178181e+00 -5.777756e+00 -5.033457e-01 1.206398e+00 -1.678691e+00 -2.895319e+00 6.191876e-01 2.135256e+00 -5.431347e-01 3.438383e-02 -6.565833e-01 -7.167434e-01 3.677702e-01 -5.729098e-01 1.180960e-01 6.440282e-01 9.525278e-01 -2.975178e-02 3.172677e-01 5.334539e-02 -9.721427e-01 -4.571408e-02 1.473868e-01 4.762755e-01 7.328438e-01 6.770265e-01 8.414901e-01 7.442653e-01 4.820946e-01 5.233694e-01 7.359191e-01 3.367586e-01 4.291579e-03
<VARIANCE> 38
 1.160881e+01 1.895152e+01 2.872474e+01 2.557702e+01 3.738977e+01 4.064018e+01 4.124878e+01 3.560093e+01 3.849068e+01 4.039442e+01 2.833501e+01 2.411460e+01 1.398115e+00 2.017030e+00 1.514922e+00 2.249102e+00 2.526919e+00 2.853231e+00 2.864701e+00 3.216339e+00 2.690686e+00 2.874162e+00 2.630388e+00 2.251114e+00 1.000000e-02 1.699472e-01 3.320008e-01 2.772746e-01 3.621523e-01 3.881974e-01 4.016139e-01 4.544893e-01 5.141769e-01 4.833380e-01 4.881354e-01 4.471854e-01 3.516658e-01 1.000000e-02
<GCONST> 9.961954e+01
<MIXTURE> 4 1.025654e-01
<MEAN> 38
 7.034910e+00 -1.400521e+00 1.264371e+00 -4.959923e-01 -1.953146e+00 -1.773207e+00 -5.704838e+00 1.204522e+00 2.973207e+00 2.084731e+00 7.633533e-01 1.820215e-01 5.148367e-01 -2.171415e-01 2.355219e-01 1.878391e-01 2.629228e-02 5.583159e-01 3.453493e-02 7.635522e-01 5.669253e-01 4.831422e-01 2.868685e-01 2.094734e-01 2.737433e-02 -2.786793e-01 4.536390e-01 2.014255e-01 3.967097e-01 5.062115e-01 1.463769e-01 5.076475e-01 -4.176646e-03 3.320128e-04 3.767365e-02 1.034065e-01 1.991951e-01 1.139837e-02
<VARIANCE> 38
 1.119180e+01 1.955400e+01 3.532791e+01 3.623159e+01 3.946352e+01 5.577941e+01 5.302585e+01 4.805982e+01 4.585536e+01 4.477578e+01 4.199420e+01 3.579895e+01 4.267547e-01 8.725950e-01 1.147014e+00 1.313396e+00 1.602191e+00 1.843337e+00 1.922901e+00 2.011839e+00 2.002343e+00 2.023779e+00 1.803215e+00 1.595255e+00 1.000000e-02 1.503384e-01 2.036377e-01 2.178605e-01 2.836406e-01 3.390542e-01 3.799620e-01 4.329630e-01 4.473145e-01 4.295551e-01 4.052231e-01 4.089875e-01 3.521056e-01 1.000000e-02
<GCONST> 9.432090e+01
<MIXTURE> 5 1.028624e-01
<MEAN> 38
 6.556050e+00 -2.398356e+00 7.356226e-01 -1.713150e+00 -1.840840e+00 -1.944351e+00 -5.919386e+00 1.428236e+00 2.507148e+00 1.456247e+00 -4.252833e-01 -7.853440e-01 3.962960e-01 -4.696856e-01 1.750070e-01 -1.574820e-02 -9.636211e-02 4.774485e-01 -5.770808e-02 9.298590e-01 5.769625e-01 3.322670e-01 8.838287e-02 6.228358e-03 2.895880e-02 -1.936243e-01 4.296626e-01 1.883758e-01 4.022699e-01 4.213973e-01 1.194238e-01 4.481413e-01 -3.397687e-02 1.640499e-02 5.932263e-02 1.553885e-01 2.072854e-01 1.256411e-02
<VARIANCE> 38
 1.112766e+01 2.022461e+01 3.618850e+01 3.587122e+01 4.183446e+01 5.443952e+01 5.189344e+01 4.830039e+01 4.852199e+01 5.200031e+01 4.889958e+01 3.651331e+01 4.172779e-01 7.895475e-01 1.190903e+00 1.285600e+00 1.527933e+00 1.855276e+00 1.985026e+00 1.971207e+00 2.062704e+00 2.053180e+00 1.920229e+00 1.663422e+00 1.000000e-02 1.432253e-01 1.697904e-01 2.090025e-01 2.582824e-01 3.216569e-01 3.501565e-01 4.019247e-01 4.145282e-01 3.992375e-01 3.939489e-01 4.025607e-01 3.270154e-01 1.000000e-02
<GCONST> 9.392996e+01
<MIXTURE> 6 6.175855e-02
<MEAN> 38
 5.249684e+00 1.498963e+00 2.404243e+00 1.947194e+00 -1.101600e+00 -5.107683e+00 -4.884052e+00 -3.640418e-01 2.377265e+00 1.460324e+00 -1.361756e-01 6.900831e-01 1.852771e+00 -5.433742e-01 5.015250e-02 -1.430332e-01 -8.833178e-01 3.019377e-01 -3.946542e-01 4.169071e-02 4.064607e-01 6.767530e-01 5.477637e-01 -3.435764e-02 5.064866e-02 -7.645420e-01 -8.623148e-02 -2.934411e-04 1.160121e-01 4.870925e-01 4.675265e-01 5.070018e-01 4.937948e-01 2.327253e-01 8.421490e-02 2.038968e-01 2.178228e-01 7.460279e-03
<VARIANCE> 38
 1.089452e+01 1.505185e+01 2.569312e+01 2.252857e+01 3.012959e+01 3.615755e+01 3.732138e+01 3.548139e+01 3.255119e+01 3.376201e+01 2.375487e+01 2.263713e+01 9.659273e-01 1.385388e+00 1.275734e+00 1.622594e+00 1.792335e+00 2.237074e+00 2.341287e+00 2.408592e+00 2.209415e+00 2.214733e+00 2.093336e+00 1.821325e+00 1.000000e-02 1.696807e-01 2.466151e-01 2.319512e-01 2.678096e-01 3.075792e-01 3.363188e-01 3.853300e-01 3.748591e-01 3.459297e-01 3.507436e-01 3.161436e-01 2.862245e-01 1.000000e-02
<GCONST> 9.195691e+01
<MIXTURE> 7 5.426345e-02
<MEAN> 38
 6.754858e+00 1.046423e-01 1.764055e+00 -4.652084e-01 -3.352971e+00 -1.315071e+00 -3.655062e+00 -9.136362e-01 4.674037e-01 1.819183e+00 1.347173e+00 1.741433e+00 4.445157e-01 1.724278e-01 2.590361e-01 2.278416e-01 1.751127e-01 4.669634e-01 2.358793e-01 3.761174e-01 4.252117e-01 4.486956e-01 1.938611e-01 2.434191e-01 2.551249e-02 -3.199799e-01 3.492782e-01 2.384215e-01 4.471712e-01 6.740727e-01 2.026581e-01 4.045171e-01 2.417597e-01 2.084622e-01 3.801898e-02 9.326282e-02 6.260512e-02 1.067225e-02
<VARIANCE> 38
 1.931556e+01 2.686494e+01 5.098624e+01 5.766781e+01 5.499737e+01 8.115762e+01 6.101226e+01 5.812696e+01 5.685104e+01 4.929103e+01 4.647018e+01 3.769084e+01 7.003011e-01 1.251311e+00 1.437422e+00 1.945784e+00 2.299445e+00 2.335397e+00 2.265534e+00 2.339046e+00 2.475756e+00 2.494958e+00 2.144541e+00 1.785818e+00 1.000000e-02 2.071155e-01 3.071632e-01 3.412690e-01 4.992694e-01 5.184933e-01 6.317176e-01 6.226013e-01 6.370701e-01 5.991538e-01 5.337908e-01 5.168087e-01 4.522558e-01 1.000000e-02
<GCONST> 1.051003e+02
<MIXTURE> 8 3.818334e-02
<MEAN> 38
 4.954556e+00 1.227120e-01 -8.294587e-01 -1.800846e+00 -2.947621e+00 -7.092693e+00 -6.101914e+00 -1.154793e+00 -1.514595e-01 -3.193234e+00 -3.990828e+00 -1.100263e-01 2.561198e+00 -8.891405e-01 -3.069758e-01 -1.271629e+00 -1.334299e+00 -1.484192e-01 -1.209939e+00 -1.984689e-01 2.180930e-01 4.092653e-01 -8.587961e-01 -2.001643e-01 6.640957e-02 -9.427431e-01 -1.572221e-01 1.280064e-01 4.615918e-01 7.446746e-01 7.488837e-01 8.787326e-01 8.736309e-01 6.658956e-01 7.150936e-01 8.232183e-01 4.009944e-01 3.473260e-03
<VARIANCE> 38
 1.115770e+01 1.851227e+01 2.852774e+01 2.316549e+01 3.711862e+01 3.667437e+01 3.943633e+01 3.260749e+01 3.741576e+01 3.994235e+01 2.637104e+01 2.465414e+01 1.558538e+00 2.112683e+00 1.690238e+00 2.574472e+00 2.875979e+00 3.223830e+00 3.423511e+00 3.435940e+00 2.870774e+00 3.280242e+00 3.232370e+00 2.357652e+00 1.000000e-02 1.628605e-01 2.917384e-01 2.592378e-01 3.257427e-01 3.655258e-01 3.979822e-01 4.195804e-01 4.735214e-01 4.738533e-01 4.807631e-01 4.132720e-01 3.521728e-01 1.000000e-02
<GCONST> 9.977404e+01
<MIXTURE> 9 1.028624e-01
<MEAN> 38
 5.221724e+00 -4.197227e+00 -1.670652e+00 -4.108854e+00 -4.428022e+00 -4.895677e+00 -8.800870e+00 -1.351704e+00 -2.791616e-01 -1.428203e+00 -3.222413e+00 -3.202394e+00 1.379078e-01 -8.251116e-01 -2.615070e-01 -4.692854e-01 -5.908005e-01 -6.738554e-02 -6.212719e-01 3.682604e-01 2.477735e-03 -2.408899e-01 -4.659065e-01 -5.096666e-01 -1.104119e-02 -3.450048e-01 2.648401e-01 5.508669e-03 1.989839e-01 1.945381e-01 -1.172723e-01 1.945511e-01 -2.915123e-01 -2.363360e-01 -1.917388e-01 -9.840223e-02 -2.145568e-02 -2.743589e-02
<VARIANCE> 38
 1.112766e+01 2.022461e+01 3.618850e+01 3.587122e+01 4.183446e+01 5.443952e+01 5.189344e+01 4.830039e+01 4.852199e+01 5.200031e+01 4.889958e+01 3.651331e+01 4.172779e-01 7.895475e-01 1.190903e+00 1.285600e+00 1.527933e+00 1.855276e+00 1.985026e+00 1.971207e+00 2.062704e+00 2.053180e+00 1.920229e+00 1.663422e+00 1.000000e-02 1.432253e-01 1.697904e-01 2.090025e-01 2.582824e-01 3.216569e-01 3.501565e-01 4.019247e-01 4.145282e-01 3.992375e-01 3.939489e-01 4.025607e-01 3.270154e-01 1.000000e-02
<GCONST> 9.392996e+01
<MIXTURE> 10 1.025654e-01
<MEAN> 38
 5.696744e+00 -3.169317e+00 -1.113121e+00 -2.903700e+00 -4.465946e+00 -4.760631e+00 -8.617592e+00 -1.568485e+00 2.645433e-01 -5.918576e-01 -1.828764e+00 -2.211267e+00 2.535309e-01 -5.907927e-01 -1.928730e-01 -2.705748e-01 -4.800185e-01 1.523772e-02 -5.201399e-01 1.961950e-01 9.086728e-04 -8.589616e-02 -2.502668e-01 -2.957402e-01 -1.262567e-02 -4.337733e-01 2.731341e-01 1.472334e-02 1.836780e-01 2.732981e-01 -1.001873e-01 2.444478e-01 -2.717029e-01 -2.618298e-01 -2.169549e-01 -1.524020e-01 -3.815889e-02 -2.860163e-02
<VARIANCE> 38
 1.119180e+01 1.955400e+01 3.532791e+01 3.623159e+01 3.946352e+01 5.577941e+01 5.302585e+01 4.805982e+01 4.585536e+01 4.477578e+01 4.199420e+01 3.579895e+01 4.267547e-01 8.725950e-01 1.147014e+00 1.313396e+00 1.602191e+00 1.843337e+00 1.922901e+00 2.011839e+00 2.002343e+00 2.023779e+00 1.803215e+00 1.595255e+00 1.000000e-02 1.503384e-01 2.036377e-01 2.178605e-01 2.836406e-01 3.390542e-01 3.799620e-01 4.329630e-01 4.473145e-01 4.295551e-01 4.052231e-01 4.089875e-01 3.521056e-01 1.000000e-02
<GCONST> 9.432090e+01
<MIXTURE> 11 6.175855e-02
<MEAN> 38
 3.929410e+00 -5.290550e-02 3.767074e-01 4.862332e-02 -3.297218e+00 -7.512929e+00 -7.327702e+00 -2.746692e+00 9.511900e-02 -8.638796e-01 -2.085734e+00 -1.213057e+00 1.459645e+00 -1.014184e+00 -4.016411e-01 -6.525576e-01 -1.418830e+00 -2.963363e-01 -1.006705e+00 -5.790949e-01 -1.881033e-01 8.147383e-02 -3.097093e-02 -5.741836e-01 1.064866e-02 -9.293113e-01 -2.848729e-01 -1.929387e-01 -9.098917e-02 2.652532e-01 2.355545e-01 2.587020e-01 2.488918e-01 -2.537884e-03 -1.526795e-01 -2.100978e-02 3.822990e-03 -3.253972e-02
<VARIANCE> 38
 1.089452e+01 1.505185e+01 2.569312e+01 2.252857e+01 3.012959e+01 3.615755e+01 3.732138e+01 3.548139e+01 3.255119e+01 3.376201e+01 2.375487e+01 2.263713e+01 9.659273e-01 1.385388e+00 1.275734e+00 1.622594e+00 1.792335e+00 2.237074e+00 2.341287e+00 2.408592e+00 2.209415e+00 2.214733e+00 2.093336e+00 1.821325e+00 1.000000e-02 1.696807e-01 2.466151e-01 2.319512e-01 2.678096e-01 3.075792e-01 3.363188e-01 3.853300e-01 3.748591e-01 3.459297e-01 3.507436e-01 3.161436e-01 2.862245e-01 1.000000e-02
<GCONST> 9.195691e+01
<MIXTURE> 12 5.461660e-02
<MEAN> 38
 3.911328e+00 1.006107e+00 9.316357e-01 3.739639e-01 -3.452947e+00 -7.781872e+00 -6.286108e+00 -2.106590e+00 -1.178890e-01 -1.542499e+00 -1.985205e+00 3.145005e-01 1.260857e+00 -6.080724e-01 -3.006855e-01 -6.121907e-01 -1.120489e+00 -1.953110e-01 -6.645721e-01 -5.226412e-01 -5.550335e-02 2.397475e-01 -5.534828e-02 -1.034723e-01 4.769361e-03 -9.667462e-01 -3.092467e-01 -1.719873e-01 -1.973085e-02 3.520835e-01 2.901980e-01 2.877692e-01 2.554060e-01 -8.968964e-03 -1.045052e-01 5.455735e-02 -8.580718e-02 -3.251419e-02
<VARIANCE> 38
 1.269292e+01 1.665306e+01 2.756881e+01 2.349981e+01 3.190381e+01 3.801533e+01 4.025158e+01 3.515887e+01 3.341447e+01 3.136934e+01 2.385424e+01 2.320804e+01 9.423685e-01 1.538762e+00 1.199461e+00 1.602922e+00 1.829725e+00 2.215901e+00 2.078114e+00 2.320133e+00 2.239899e+00 2.121471e+00 1.818305e+00 1.804120e+00 1.000000e-02 1.672478e-01 2.642186e-01 2.404196e-01 2.868710e-01 3.218078e-01 3.499417e-01 4.093734e-01 4.135686e-01 3.858041e-01 3.724026e-01 3.438078e-01 3.102241e-01 1.000000e-02
<GCONST> 9.289652e+01
<MIXTURE> 13 5.426345e-02
<MEAN> 38
 4.996880e+00 -1.968614e+00 -1.092131e+00 -3.502781e+00 -6.319379e+00 -4.918572e+00 -6.779476e+00 -3.963278e+00 -2.548582e+00 -9.891201e-01 -1.379588e+00 -7.142814e-01 1.097797e-01 -2.750202e-01 -2.205341e-01 -3.301238e-01 -4.314441e-01 -1.443169e-01 -3.661884e-01 -2.356403e-01 -2.041697e-01 -1.831218e-01 -3.919089e-01 -2.911189e-01 -1.448751e-02 -5.020197e-01 1.275890e-01 4.748531e-03 1.645352e-01 3.860469e-01 -1.152646e-01 8.889672e-02 -7.750703e-02 -1.011579e-01 -2.542250e-01 -1.942948e-01 -2.063948e-01 -2.932775e-02
<VARIANCE> 38
 1.931556e+01 2.686494e+01 5.098624e+01 5.766781e+01 5.499737e+01 8.115762e+01 6.101226e+01 5.812696e+01 5.685104e+01 4.929103e+01 4.647018e+01 3.769084e+01 7.003011e-01 1.251311e+00 1.437422e+00 1.945784e+00 2.299445e+00 2.335397e+00 2.265534e+00 2.339046e+00 2.475756e+00 2.494958e+00 2.144541e+00 1.785818e+00 1.000000e-02 2.071155e-01 3.071632e-01 3.412690e-01 4.992694e-01 5.184933e-01 6.317176e-01 6.226013e-01 6.370701e-01 5.991538e-01 5.337908e-01 5.168087e-01 4.522558e-01 1.000000e-02
<GCONST> 1.051003e+02
<MIXTURE> 14 4.533485e-02
<MEAN> 38
 4.820323e+00 -1.021118e+00 -7.175584e-01 -2.561207e+00 -5.845966e+00 -4.911304e+00 -6.495620e+00 -3.666458e+00 -2.344713e+00 -5.068533e-01 -7.668588e-01 2.480149e-02 8.898468e-02 2.092992e-01 -4.453811e-02 -8.183320e-02 -1.542222e-01 -5.659142e-02 -1.200366e-01 -3.042069e-01 -2.091293e-01 -1.304996e-01 -2.143114e-01 -3.130618e-02 -2.015524e-02 -5.994877e-01 1.312600e-01 3.718348e-02 1.836263e-01 4.324847e-01 -7.475977e-02 1.495300e-01 -4.139008e-02 -8.374805e-02 -2.908325e-01 -2.058683e-01 -2.589280e-01 -3.046067e-02
<VARIANCE> 38
 2.485880e+01 2.884609e+01 5.317826e+01 5.936473e+01 5.820464e+01 7.955157e+01 6.072561e+01 5.675175e+01 5.474498e+01 4.572057e+01 4.113398e+01 3.523785e+01 8.970848e-01 1.526572e+00 1.623128e+00 2.064594e+00 2.593846e+00 2.462367e+00 2.293229e+00 2.530169e+00 2.655509e+00 2.583520e+00 2.165517e+00 1.885862e+00 1.000000e-02 2.372896e-01 3.958021e-01 3.983574e-01 5.940780e-01 6.044421e-01 7.131325e-01 6.979418e-01 7.329379e-01 6.620226e-01 5.836166e-01 5.518869e-01 5.037814e-01 1.000000e-02
<GCONST> 1.078709e+02
<MIXTURE> 15 4.040558e-02
<MEAN> 38
 4.201475e+00 -7.628152e-01 -1.751841e+00 -2.624171e+00 -4.544779e+00 -8.728168e+00 -8.346765e+00 -2.890006e+00 -1.275236e+00 -4.220955e+00 -5.024545e+00 -1.345077e+00 1.662288e+00 -1.111223e+00 -4.579448e-01 -1.256464e+00 -1.352595e+00 -3.078901e-01 -1.249927e+00 -5.992702e-01 -1.210424e-02 2.743936e-01 -6.784906e-01 -2.828808e-01 1.334539e-02 -1.137041e+00 -2.761921e-01 -6.324068e-02 2.355591e-01 4.836218e-01 4.235345e-01 5.718268e-01 4.574408e-01 2.040046e-01 2.439027e-01 4.684314e-01 9.955297e-02 -3.570842e-02
<VARIANCE> 38
 1.160881e+01 1.895152e+01 2.872474e+01 2.557702e+01 3.738977e+01 4.064018e+01 4.124878e+01 3.560093e+01 3.849068e+01 4.039442e+01 2.833501e+01 2.411460e+01 1.398115e+00 2.017030e+00 1.514922e+00 2.249102e+00 2.526919e+00 2.853231e+00 2.864701e+00 3.216339e+00 2.690686e+00 2.874162e+00 2.630388e+00 2.251114e+00 1.000000e-02 1.699472e-01 3.320008e-01 2.772746e-01 3.621523e-01 3.881974e-01 4.016139e-01 4.544893e-01 5.141769e-01 4.833380e-01 4.881354e-01 4.471854e-01 3.516658e-01 1.000000e-02
<GCONST> 9.961954e+01
<MIXTURE> 16 3.818334e-02
<MEAN> 38
 3.618431e+00 -1.598323e+00 -2.965913e+00 -3.726068e+00 -5.384623e+00 -9.515068e+00 -8.613848e+00 -3.438911e+00 -2.598197e+00 -5.721232e+00 -6.044938e+00 -2.096144e+00 2.061832e+00 -1.470543e+00 -8.270124e-01 -1.913435e+00 -2.012647e+00 -8.666203e-01 -1.950049e+00 -9.399204e-01 -4.596414e-01 -3.151923e-01 -1.577948e+00 -8.143502e-01 2.640957e-02 -1.104167e+00 -3.732733e-01 -7.565518e-02 2.332962e-01 5.028397e-01 4.965404e-01 6.196325e-01 5.983794e-01 3.905476e-01 4.377452e-01 5.660734e-01 1.636178e-01 -3.652674e-02
<VARIANCE> 38
 1.115770e+01 1.851227e+01 2.852774e+01 2.316549e+01 3.711862e+01 3.667437e+01 3.943633e+01 3.260749e+01 3.741576e+01 3.994235e+01 2.637104e+01 2.465414e+01 1.558538e+00 2.112683e+00 1.690238e+00 2.574472e+00 2.875979e+00 3.223830e+00 3.423511e+00 3.435940e+00 2.870774e+00 3.280242e+00 3.232370e+00 2.357652e+00 1.000000e-02 1.628605e-01 2.917384e-01 2.592378e-01 3.257427e-01 3.655258e-01 3.979822e-01 4.195804e-01 4.735214e-01 4.738533e-01 4.807631e-01 4.132720e-01 3.521728e-01 1.000000e-02
<GCONST> 9.977404e+01
<STATE> 3
<NUMMIXES> 16
<SWEIGHTS> 1
 1.000000e+00
<MIXTURE> 1 3.004014e-02
<MEAN> 38
 6.226417e+00 2.735577e+00 3.602725e+00 2.989743e+00 -1.411330e+00 -5.443084e+00 -4.446266e+00 1.096230e+00 2.333174e+00 1.087476e+00 -3.292567e-01 3.363949e+00 -5.869002e-01 2.027315e+00 9.512992e-01 1.229356e+00 1.696682e+00 9.580890e-01 1.323516e+00 4.931893e-01 6.599106e-01 2.207426e-01 4.721275e-01 1.385626e-01 -1.045708e-02 -4.253818e-01 2.784018e-01 3.393717e-01 2.768831e-01 4.333697e-01 4.275946e-01 4.702162e-01 2.521089e-01 5.953760e-02 -2.367869e-03 1.388705e-01 -1.245941e-01 1.039079e-02
<VARIANCE> 38
 1.356580e+01 1.827282e+01 2.766522e+01 2.422642e+01 4.105586e+01 4.034397e+01 4.160287e+01 3.743026e+01 4.114281e+01 3.918482e+01 3.076773e+01 3.070099e+01 1.285195e+00 1.698677e+00 1.660468e+00 2.025924e+00 2.269000e+00 2.525709e+00 2.687143e+00 2.959901e+00 2.857762e+00 2.577949e+00 2.551629e+00 2.297051e+00 1.000000e-02 1.664278e-01 2.780398e-01 2.651514e-01 2.821077e-01 4.328065e-01 3.914053e-01 4.120745e-01 4.616814e-01 4.775083e-01 4.452021e-01 3.961429e-01 3.930939e-01 1.000000e-02
<GCONST> 9.871838e+01
<MIXTURE> 2 8.292945e-02
<MEAN> 38
 6.403234e+00 -8.870828e-02 3.436253e+00 2.521359e+00 -2.647604e+00 -3.854377e+00 -3.161595e+00 2.801416e+00 2.344552e+00 5.647062e-01 2.025422e-01 1.849643e+00 1.440987e-01 5.930532e-01 3.224002e-01 6.313784e-01 6.723688e-01 5.083714e-01 5.014430e-01 1.453431e-01 1.622761e-01 2.222642e-01 1.434675e-01 3.457054e-01 1.048440e-02 -8.687364e-02 2.825406e-01 1.279597e-01 1.842399e-01 3.364580e-01 1.881516e-01 2.671777e-01 -1.767859e-03 4.439269e-02 8.186142e-02 5.702052e-02 8.557157e-02 1.500903e-02
<VARIANCE> 38
 8.813316e+00 1.614371e+01 2.667649e+01 2.783544e+01 3.240971e+01 4.258123e+01 5.591131e+01 3.864482e+01 3.881573e+01 3.594947e+01 2.997947e+01 3.383630e+01 2.695770e-01 6.727263e-01 7.295848e-01 9.119061e-01 1.239017e+00 1.275829e+00 1.379814e+00 1.386167e+00 1.420284e+00 1.335563e+00 1.220412e+00 1.123035e+00 1.000000e-02 5.853125e-02 1.279802e-01 1.195402e-01 1.704843e-01 2.072493e-01 2.326496e-01 2.730575e-01 2.688554e-01 2.755402e-01 2.459020e-01 2.242988e-01 2.219791e-01 1.000000e-02
<GCONST> 8.109216e+01
<MIXTURE> 3 1.057790e-01
<MEAN> 38
 5.704323e+00 -1.701970e+00 2.634735e+00 3.283614e-01 -2.042611e+00 -3.639694e+00 -2.230283e+00 3.316774e+00 2.223853e+00 6.097575e-01 -8.051715e-01 1.186245e+00 1.507949e-01 2.271206e-01 2.283079e-01 3.541376e-01 3.502802e-01 3.495314e-01 3.513513e-01 3.089792e-01 2.255649e-01 1.811357e-01 1.641723e-01 2.341824e-01 1.477073e-02 3.344260e-02 2.004026e-01 8.867029e-02 1.991541e-01 1.741525e-01 1.333551e-01 9.136440e-02 -2.934599e-02 5.175321e-02 8.382185e-02 1.209761e-01 8.763015e-02 1.674233e-02
<VARIANCE> 38
 9.732548e+00 1.642232e+01 2.888316e+01 3.002370e+01 3.579876e+01 4.427857e+01 5.648241e+01 3.952063e+01 4.234357e+01 4.556366e+01 3.845622e+01 3.453972e+01 1.784825e-01 4.118235e-01 5.363072e-01 6.693606e-01 8.335256e-01 9.429041e-01 1.042409e+00 1.078625e+00 1.100634e+00 1.082524e+00 9.753153e-01 8.767076e-01 1.000000e-02 3.248484e-02 6.760705e-02 7.819808e-02 1.122397e-01 1.362784e-01 1.538917e-01 1.726135e-01 1.810699e-01 1.818740e-01 1.843923e-01 1.721054e-01 1.516798e-01 1.000000e-02
<GCONST> 7.333655e+01
<MIXTURE> 4 3.812249e-02
<MEAN> 38
 7.205638e+00 1.511174e-01 1.440189e+00 5.163608e-01 -1.343901e+00 -2.159261e+00 -5.431039e+00 4.503729e-01 2.693235e+00 1.471855e+00 -4.522731e-01 6.185300e-01 1.567979e-01 1.239216e+00 5.438995e-01 9.499558e-01 1.173381e+00 7.329545e-01 9.807209e-01 2.272636e-03 2.618749e-01 4.820057e-01 4.317651e-01 3.244967e-01 5.347759e-03 -2.736669e-01 4.227471e-01 2.683445e-01 3.989410e-01 4.381976e-01 2.033740e-01 5.423819e-01 1.386280e-01 1.328403e-02 1.088573e-01 2.094259e-01 1.288320e-01 1.173316e-02
<VARIANCE> 38
 1.634742e+01 2.469716e+01 4.012758e+01 4.173538e+01 4.249539e+01 5.888455e+01 5.283965e+01 5.372494e+01 5.336721e+01 5.756082e+01 4.769200e+01 3.460745e+01 8.764628e-01 1.547681e+00 1.591861e+00 2.227554e+00 2.527485e+00 2.753096e+00 2.756288e+00 3.014259e+00 2.917565e+00 2.841272e+00 2.491438e+00 2.164392e+00 1.000000e-02 1.605522e-01 2.807662e-01 2.750218e-01 3.519330e-01 3.796000e-01 4.570362e-01 4.919151e-01 5.855401e-01 5.793161e-01 5.830255e-01 5.001158e-01 4.025521e-01 1.000000e-02
<GCONST> 1.035769e+02
<MIXTURE> 5 9.541120e-02
<MEAN> 38
 6.087188e+00 -1.104343e+00 2.554765e+00 1.347600e+00 -3.222888e+00 -4.154420e+00 -4.242476e+00 2.087790e+00 2.571939e+00 6.708384e-01 2.364695e-02 9.427695e-01 1.125806e-01 2.644905e-01 2.011141e-01 3.446806e-01 3.749545e-01 3.503491e-01 3.633186e-01 2.204510e-01 1.414315e-01 1.815792e-01 9.429185e-02 1.445244e-01 1.526110e-02 -5.927791e-02 2.385161e-01 1.080624e-01 1.485606e-01 2.942696e-01 1.365739e-01 2.160567e-01 6.306626e-03 2.031939e-02 6.856615e-02 3.924526e-02 8.548146e-02 1.552594e-02
<VARIANCE> 38
 9.362481e+00 1.662457e+01 2.789768e+01 3.019541e+01 3.405222e+01 4.431910e+01 5.372523e+01 4.127488e+01 4.145137e+01 4.172274e+01 3.464529e+01 3.418647e+01 2.440331e-01 6.018482e-01 6.945378e-01 8.690388e-01 1.130205e+00 1.188495e+00 1.311716e+00 1.355090e+00 1.330638e+00 1.294203e+00 1.180285e+00 1.064876e+00 1.000000e-02 5.673421e-02 1.089484e-01 1.132125e-01 1.594518e-01 1.985271e-01 2.187705e-01 2.566294e-01 2.521264e-01 2.468827e-01 2.343110e-01 2.134924e-01 2.053449e-01 1.000000e-02
<GCONST> 8.023577e+01
<MIXTURE> 6 7.705795e-02
<MEAN> 38
 4.994942e+00 -3.097066e+00 1.684969e+00 -1.451396e+00 -2.828661e+00 -4.721572e+00 -2.346517e+00 3.292814e+00 1.645870e+00 -3.322537e-01 -2.294429e+00 4.080595e-01 8.054398e-02 6.418455e-02 9.359996e-02 1.532413e-01 2.150158e-01 2.288043e-01 2.503558e-01 2.825705e-01 1.777302e-01 4.966345e-02 2.695578e-02 3.340875e-02 1.678565e-02 5.591864e-02 1.803680e-01 7.844540e-02 1.790252e-01 1.389625e-01 1.083088e-01 3.316133e-02 -4.191407e-02 4.230149e-02 7.844034e-02 1.295579e-01 6.424705e-02 1.710092e-02
<VARIANCE> 38
 9.622303e+00 1.627098e+01 2.955208e+01 2.825377e+01 3.608422e+01 4.034708e+01 5.317928e+01 3.933150e+01 4.603395e+01 5.269978e+01 4.419010e+01 3.293207e+01 1.708606e-01 3.879778e-01 5.305123e-01 6.282237e-01 8.080895e-01 9.163578e-01 1.026658e+00 1.110475e+00 1.085869e+00 1.114788e+00 9.910341e-01 8.827865e-01 1.000000e-02 2.964882e-02 5.938588e-02 7.244307e-02 1.031349e-01 1.274309e-01 1.453638e-01 1.619717e-01 1.732879e-01 1.645680e-01 1.732014e-01 1.616817e-01 1.455271e-01 1.000000e-02
<GCONST> 7.238360e+01
<MIXTURE> 7 3.427048e-02
<MEAN> 38
 6.915383e+00 -1.028898e+00 1.371489e-01 -1.054804e+00 -1.664986e+00 -2.315615e+00 -5.264765e+00 2.255661e-01 2.338412e+00 8.222479e-01 -1.806517e+00 -6.493270e-02 2.330542e-01 7.912703e-01 3.447189e-01 6.761158e-01 8.149810e-01 5.772551e-01 7.098160e-01 -5.565438e-02 1.661111e-01 3.367479e-01 2.794147e-01 9.916073e-02 1.248789e-02 -2.106236e-01 3.746765e-01 2.447251e-01 3.976700e-01 3.789537e-01 1.797358e-01 4.331529e-01 1.123194e-01 1.887368e-02 1.418004e-01 2.912151e-01 1.495592e-01 1.294986e-02
<VARIANCE> 38
 1.583794e+01 2.682913e+01 4.213995e+01 4.364557e+01 4.333564e+01 6.146696e+01 5.283439e+01 5.639485e+01 5.662492e+01 6.830814e+01 5.726525e+01 3.643905e+01 8.410255e-01 1.572859e+00 1.698701e+00 2.343255e+00 2.556262e+00 2.794254e+00 2.881544e+00 3.069834e+00 2.870387e+00 2.990886e+00 2.539420e+00 2.185432e+00 1.000000e-02 1.676523e-01 2.594680e-01 2.545568e-01 3.454555e-01 3.621536e-01 4.362521e-01 4.741703e-01 5.797328e-01 5.507382e-01 5.784220e-01 5.015553e-01 3.862949e-01 1.000000e-02
<GCONST> 1.041719e+02
<MIXTURE> 8 3.632465e-02
<MEAN> 38
 5.890465e+00 1.603755e+00 3.329519e+00 2.164570e+00 -1.891792e+00 -5.435564e+00 -5.247364e+00 4.692945e-01 1.958602e+00 2.841926e-01 -9.483595e-01 2.405361e+00 -5.627797e-01 1.617771e+00 7.585180e-01 9.907814e-01 1.402051e+00 7.263787e-01 1.035935e+00 2.950341e-01 4.001411e-01 1.401237e-02 3.463249e-01 1.232598e-01 -2.119660e-03 -4.047670e-01 2.791247e-01 2.465724e-01 2.392244e-01 4.355330e-01 3.963948e-01 4.371871e-01 2.434570e-01 6.467199e-02 4.997776e-02 1.661369e-01 -5.200856e-02 1.208624e-02
<VARIANCE> 38
 1.418008e+01 1.916331e+01 2.905261e+01 2.639886e+01 4.005115e+01 4.293084e+01 4.178902e+01 3.893729e+01 4.302345e+01 4.611106e+01 3.368406e+01 3.018642e+01 1.481913e+00 1.699906e+00 1.633597e+00 2.116051e+00 2.448297e+00 2.595053e+00 2.749097e+00 2.923480e+00 2.862907e+00 2.735247e+00 2.587519e+00 2.289890e+00 1.000000e-02 1.806223e-01 2.653452e-01 2.399780e-01 2.798182e-01 3.832879e-01 3.756922e-01 4.070943e-01 4.559413e-01 4.586229e-01 4.452982e-01 3.888996e-01 3.622519e-01 1.000000e-02
<GCONST> 9.926299e+01
<MIXTURE> 9 1.057790e-01
<MEAN> 38
 4.456442e+00 -3.322948e+00 4.850129e-01 -1.863394e+00 -4.435894e+00 -6.301380e+00 -5.236475e+00 8.021562e-01 -3.790245e-01 -2.090277e+00 -3.285695e+00 -1.164575e+00 -1.819387e-02 -2.957331e-02 -6.462407e-02 2.687977e-02 -1.491036e-02 -3.888160e-02 -5.704246e-02 -1.064483e-01 -1.940795e-01 -2.350419e-01 -2.308599e-01 -1.403483e-01 -2.522927e-02 -3.865161e-02 9.639719e-02 -2.318539e-02 6.514531e-02 2.648889e-02 -2.356100e-02 -7.482272e-02 -1.995552e-01 -1.188336e-01 -8.794186e-02 -4.496630e-02 -6.815422e-02 -2.325767e-02
<VARIANCE> 38
 9.732548e+00 1.642232e+01 2.888316e+01 3.002370e+01 3.579876e+01 4.427857e+01 5.648241e+01 3.952063e+01 4.234357e+01 4.556366e+01 3.845622e+01 3.453972e+01 1.784825e-01 4.118235e-01 5.363072e-01 6.693606e-01 8.335256e-01 9.429041e-01 1.042409e+00 1.078625e+00 1.100634e+00 1.082524e+00 9.753153e-01 8.767076e-01 1.000000e-02 3.248484e-02 6.760705e-02 7.819808e-02 1.122397e-01 1.362784e-01 1.538917e-01 1.726135e-01 1.810699e-01 1.818740e-01 1.843923e-01 1.721054e-01 1.516798e-01 1.000000e-02
<GCONST> 7.333655e+01
<MIXTURE> 10 9.541120e-02
<MEAN> 38
 4.863262e+00 -2.735273e+00 4.420348e-01 -8.504139e-01 -5.557060e+00 -6.817324e+00 -7.174376e+00 -4.820316e-01 -3.370762e-03 -1.912887e+00 -2.330763e+00 -1.395998e+00 -8.501828e-02 -4.582506e-02 -1.322416e-01 -2.820840e-02 -5.028991e-02 -8.572344e-02 -9.480204e-02 -2.451823e-01 -3.199817e-01 -2.734730e-01 -3.402718e-01 -2.682469e-01 -2.473890e-02 -1.545537e-01 1.064867e-01 -2.652584e-02 -1.116502e-02 1.160440e-01 -5.051769e-02 1.342230e-02 -1.945421e-01 -1.784298e-01 -1.250566e-01 -1.455757e-01 -9.577853e-02 -2.447406e-02
<VARIANCE> 38
 9.362481e+00 1.662457e+01 2.789768e+01 3.019541e+01 3.405222e+01 4.431910e+01 5.372523e+01 4.127488e+01 4.145137e+01 4.172274e+01 3.464529e+01 3.418647e+01 2.440331e-01 6.018482e-01 6.945378e-01 8.690388e-01 1.130205e+00 1.188495e+00 1.311716e+00 1.355090e+00 1.330638e+00 1.294203e+00 1.180285e+00 1.064876e+00 1.000000e-02 5.673421e-02 1.089484e-01 1.132125e-01 1.594518e-01 1.985271e-01 2.187705e-01 2.566294e-01 2.521264e-01 2.468827e-01 2.343110e-01 2.134924e-01 2.053449e-01 1.000000e-02
<GCONST> 8.023577e+01
<MIXTURE> 11 8.292945e-02
<MEAN> 38
 5.215744e+00 -1.695878e+00 1.370281e+00 4.109870e-01 -4.924786e+00 -6.464549e+00 -6.152549e+00 3.148178e-01 -1.475395e-01 -1.833609e+00 -1.987598e+00 -4.771159e-01 -6.358448e-02 2.649736e-01 -1.926278e-02 2.494032e-01 2.271242e-01 5.656101e-02 3.158103e-02 -3.255993e-01 -3.144265e-01 -2.400020e-01 -2.984216e-01 -7.818800e-02 -2.951560e-02 -1.836466e-01 1.394433e-01 -1.033866e-02 1.908091e-02 1.543594e-01 -4.783474e-03 5.815809e-02 -2.091729e-01 -1.655750e-01 -1.164926e-01 -1.324203e-01 -1.028871e-01 -2.499097e-02
<VARIANCE> 38
 8.813316e+00 1.614371e+01 2.667649e+01 2.783544e+01 3.240971e+01 4.258123e+01 5.591131e+01 3.864482e+01 3.881573e+01 3.594947e+01 2.997947e+01 3.383630e+01 2.695770e-01 6.727263e-01 7.295848e-01 9.119061e-01 1.239017e+00 1.275829e+00 1.379814e+00 1.386167e+00 1.420284e+00 1.335563e+00 1.220412e+00 1.123035e+00 1.000000e-02 5.853125e-02 1.279802e-01 1.195402e-01 1.704843e-01 2.072493e-01 2.326496e-01 2.730575e-01 2.688554e-01 2.755402e-01 2.459020e-01 2.242988e-01 2.219791e-01 1.000000e-02
<GCONST> 8.109216e+01
<MIXTURE> 12 7.705795e-02
<MEAN> 38
 3.754148e+00 -4.710558e+00 -4.895036e-01 -3.577568e+00 -5.231467e+00 -7.262346e+00 -5.263482e+00 7.842203e-01 -1.068063e+00 -3.236038e+00 -4.953454e+00 -1.887399e+00 -8.479717e-02 -1.849669e-01 -1.977451e-01 -1.638010e-01 -1.445594e-01 -1.541020e-01 -1.549408e-01 -1.389458e-01 -2.390899e-01 -3.726707e-01 -3.712470e-01 -3.424181e-01 -2.321435e-02 -1.295670e-02 8.289117e-02 -2.921560e-02 5.056675e-02 -3.827371e-03 -4.419760e-02 -1.278215e-01 -2.084255e-01 -1.199664e-01 -8.802955e-02 -3.128076e-02 -8.834501e-02 -2.289907e-02
<VARIANCE> 38
 9.622303e+00 1.627098e+01 2.955208e+01 2.825377e+01 3.608422e+01 4.034708e+01 5.317928e+01 3.933150e+01 4.603395e+01 5.269978e+01 4.419010e+01 3.293207e+01 1.708606e-01 3.879778e-01 5.305123e-01 6.282237e-01 8.080895e-01 9.163578e-01 1.026658e+00 1.110475e+00 1.085869e+00 1.114788e+00 9.910341e-01 8.827865e-01 1.000000e-02 2.964882e-02 5.938588e-02 7.244307e-02 1.031349e-01 1.274309e-01 1.453638e-01 1.619717e-01 1.732879e-01 1.645680e-01 1.732014e-01 1.616817e-01 1.455271e-01 1.000000e-02
<GCONST> 7.238360e+01
<MIXTURE> 13 3.812249e-02
<MEAN> 38
 5.588360e+00 -1.836732e+00 -1.093664e+00 -2.067756e+00 -3.951441e+00 -5.228712e+00 -8.338675e+00 -2.481519e+00 -2.288793e-01 -1.562899e+00 -3.214649e+00 -1.734594e+00 -2.176805e-01 7.415931e-01 3.922364e-02 3.529561e-01 5.374581e-01 6.925628e-02 3.166381e-01 -6.921922e-01 -4.213604e-01 -1.922373e-01 -1.996065e-01 -2.639782e-01 -3.465224e-02 -4.339428e-01 2.107977e-01 5.857445e-02 1.616452e-01 1.917508e-01 -6.704381e-02 2.618353e-01 -1.674544e-01 -2.911672e-01 -1.965671e-01 -7.344963e-02 -1.249559e-01 -2.826684e-02
<VARIANCE> 38
 1.634742e+01 2.469716e+01 4.012758e+01 4.173538e+01 4.249539e+01 5.888455e+01 5.283965e+01 5.372494e+01 5.336721e+01 5.756082e+01 4.769200e+01 3.460745e+01 8.764628e-01 1.547681e+00 1.591861e+00 2.227554e+00 2.527485e+00 2.753096e+00 2.756288e+00 3.014259e+00 2.917565e+00 2.841272e+00 2.491438e+00 2.164392e+00 1.000000e-02 1.605522e-01 2.807662e-01 2.750218e-01 3.519330e-01 3.796000e-01 4.570362e-01 4.919151e-01 5.855401e-01 5.793161e-01 5.830255e-01 5.001158e-01 4.025521e-01 1.000000e-02
<GCONST> 1.035769e+02
<MIXTURE> 14 3.632465e-02
<MEAN> 38
 4.384207e+00 -1.472814e-01 1.173500e+00 1.093775e-01 -4.423232e+00 -8.056429e+00 -7.833141e+00 -2.026695e+00 -6.650885e-01 -2.432013e+00 -3.269878e+00 2.076745e-01 -1.049715e+00 1.096249e+00 2.472690e-01 4.089154e-01 7.761693e-01 8.201194e-02 3.727186e-01 -3.888934e-01 -2.766640e-01 -6.475309e-01 -2.971058e-01 -4.820355e-01 -4.211966e-02 -5.747657e-01 7.307807e-02 5.062220e-02 2.763300e-02 1.878920e-01 1.512198e-01 1.819713e-01 -2.663676e-02 -2.062148e-01 -2.169449e-01 -8.331039e-02 -2.927580e-01 -2.791375e-02
<VARIANCE> 38
 1.418008e+01 1.916331e+01 2.905261e+01 2.639886e+01 4.005115e+01 4.293084e+01 4.178902e+01 3.893729e+01 4.302345e+01 4.611106e+01 3.368406e+01 3.018642e+01 1.481913e+00 1.699906e+00 1.633597e+00 2.116051e+00 2.448297e+00 2.595053e+00 2.749097e+00 2.923480e+00 2.862907e+00 2.735247e+00 2.587519e+00 2.289890e+00 1.000000e-02 1.806223e-01 2.653452e-01 2.399780e-01 2.798182e-01 3.832879e-01 3.756922e-01 4.070943e-01 4.559413e-01 4.586229e-01 4.452982e-01 3.888996e-01 3.622519e-01 1.000000e-02
<GCONST> 9.926299e+01
<MIXTURE> 15 3.427048e-02
<MEAN> 38
 5.323507e+00 -3.100772e+00 -2.459463e+00 -3.697396e+00 -4.298178e+00 -5.451649e+00 -8.172256e+00 -2.778294e+00 -6.715699e-01 -2.483702e+00 -4.833469e+00 -2.479523e+00 -1.337756e-01 2.896155e-01 -1.766180e-01 6.380799e-02 1.754484e-01 -9.138575e-02 3.081146e-02 -7.564920e-01 -5.115775e-01 -3.550193e-01 -3.580076e-01 -4.921675e-01 -2.751211e-02 -3.744050e-01 1.709245e-01 4.291066e-02 1.625682e-01 1.382369e-01 -8.446172e-02 1.577128e-01 -1.922414e-01 -2.779733e-01 -1.624158e-01 7.932857e-03 -9.905136e-02 -2.705014e-02
<VARIANCE> 38
 1.583794e+01 2.682913e+01 4.213995e+01 4.364557e+01 4.333564e+01 6.146696e+01 5.283439e+01 5.639485e+01 5.662492e+01 6.830814e+01 5.726525e+01 3.643905e+01 8.410255e-01 1.572859e+00 1.698701e+00 2.343255e+00 2.556262e+00 2.794254e+00 2.881544e+00 3.069834e+00 2.870387e+00 2.990886e+00 2.539420e+00 2.185432e+00 1.000000e-02 1.676523e-01 2.594680e-01 2.545568e-01 3.454555e-01 3.621536e-01 4.362521e-01 4.741703e-01 5.797328e-01 5.507382e-01 5.784220e-01 5.015553e-01 3.862949e-01 1.000000e-02
<GCONST> 1.041719e+02
<MIXTURE> 16 3.004014e-02
<MEAN> 38
 4.753145e+00 1.025709e+00 1.498815e+00 1.020929e+00 -3.974324e+00 -7.983760e+00 -7.026278e+00 -1.350981e+00 -2.325323e-01 -1.416435e+00 -2.548003e+00 1.147609e+00 -1.040366e+00 1.505981e+00 4.358626e-01 6.600165e-01 1.094154e+00 3.223898e-01 6.678154e-01 -1.949853e-01 -1.628613e-02 -4.214972e-01 -1.668253e-01 -4.676784e-01 -5.045708e-02 -5.885640e-01 6.748384e-02 1.334003e-01 6.442787e-02 1.702175e-01 1.773450e-01 2.134440e-01 -1.967968e-02 -2.168703e-01 -2.692617e-01 -1.128890e-01 -3.753829e-01 -2.960921e-02
<VARIANCE> 38
 1.356580e+01 1.827282e+01 2.766522e+01 2.422642e+01 4.105586e+01 4.034397e+01 4.160287e+01 3.743026e+01 4.114281e+01 3.918482e+01 3.076773e+01 3.070099e+01 1.285195e+00 1.698677e+00 1.660468e+00 2.025924e+00 2.269000e+00 2.525709e+00 2.687143e+00 2.959901e+00 2.857762e+00 2.577949e+00 2.551629e+00 2.297051e+00 1.000000e-02 1.664278e-01 2.780398e-01 2.651514e-01 2.821077e-01 4.328065e-01 3.914053e-01 4.120745e-01 4.616814e-01 4.775083e-01 4.452021e-01 3.961429e-01 3.930939e-01 1.000000e-02
<GCONST> 9.871838e+01
<STATE> 4
<NUMMIXES> 16
<SWEIGHTS> 1
 1.000000e+00
<MIXTURE> 1 5.779965e-02
<MEAN> 38
 1.983925e+00 6.352393e+00 7.899652e+00 7.745283e+00 1.711027e+00 -1.867964e+00 2.717212e+00 3.415017e+00 6.978906e-01 -1.344950e+00 3.635800e-02 3.259942e+00 -8.924015e-01 6.600657e-01 4.502614e-01 1.147597e+00 1.747501e+00 1.546531e+00 1.207377e+00 6.281685e-01 5.876099e-01 2.237104e-01 3.865610e-01 1.076969e-01 -2.369765e-02 -1.731217e-02 -1.900536e-01 -1.455413e-01 -3.514119e-02 1.758400e-01 2.962870e-01 1.031925e-01 1.073615e-01 1.642574e-01 2.162100e-01 1.015231e-01 -2.138647e-02 1.815096e-02
<VARIANCE> 38
 1.364159e+01 2.489737e+01 2.280629e+01 2.340173e+01 3.655577e+01 4.458228e+01 4.259678e+01 3.150295e+01 3.223034e+01 3.336598e+01 2.851074e+01 2.385406e+01 8.809185e-01 1.679850e+00 1.444222e+00 1.595046e+00 1.819378e+00 2.002695e+00 2.011413e+00 2.150281e+00 2.291396e+00 2.169770e+00 2.070971e+00 1.951462e+00 1.000000e-02 9.431420e-02 1.637923e-01 1.959984e-01 2.226519e-01 3.033567e-01 3.430341e-01 3.459564e-01 3.643333e-01 3.752481e-01 3.549451e-01 3.375507e-01 3.219474e-01 1.000000e-02
<GCONST> 9.195028e+01
<MIXTURE> 2 6.446830e-02
<MEAN> 38
 7.262855e+00 3.453890e+00 1.868636e+00 3.049392e+00 3.696417e+00 8.436808e-01 -2.133821e+00 -9.528488e-01 9.687341e-01 1.493272e+00 -4.108460e-01 -8.177079e-01 -2.647847e-02 1.620584e+00 9.909956e-01 1.247495e+00 9.877161e-01 6.283468e-01 1.334989e+00 -2.103513e-01 -2.921806e-01 3.078061e-01 3.039175e-01 4.047418e-01 -3.339630e-03 -1.143592e-01 1.133019e-01 2.573191e-01 1.875317e-01 -9.270479e-02 -3.392157e-02 1.877632e-01 1.851093e-01 1.283188e-01 1.117442e-01 1.121282e-01 2.008302e-01 1.752574e-02
<VARIANCE> 38
 1.219691e+01 2.165881e+01 2.779025e+01 3.553293e+01 3.485463e+01 4.517698e+01 4.923063e+01 4.557811e+01 4.091383e+01 4.547060e+01 3.768216e+01 3.162162e+01 7.205889e-01 1.560962e+00 1.602669e+00 1.691715e+00 2.182760e+00 2.752206e+00 2.741047e+00 3.133186e+00 3.179578e+00 2.710442e+00 2.285952e+00 2.219457e+00 1.000000e-02 7.939797e-02 1.753826e-01 1.941721e-01 2.533372e-01 3.297201e-01 3.437713e-01 3.853986e-01 4.130111e-01 3.899003e-01 4.045513e-01 3.442036e-01 3.188544e-01 1.000000e-02
<GCONST> 9.626878e+01
<MIXTURE> 3 6.881995e-02
<MEAN> 38
 1.680082e+00 7.876412e+00 7.338199e+00 6.800138e+00 3.414264e+00 -1.197340e+00 -2.681197e-01 1.128291e+00 1.180309e+00 -7.223995e-01 -6.677407e-01 9.444652e-01 -1.280336e+00 8.781518e-01 8.752254e-01 1.327236e+00 1.665895e+00 1.368310e+00 1.385192e+00 7.945633e-01 4.752503e-01 1.793039e-01 4.927519e-01 2.261107e-01 -2.618340e-02 1.744710e-03 -3.905292e-01 -2.256104e-01 -5.754644e-02 6.423274e-02 2.526350e-01 2.028082e-01 2.623712e-01 1.930737e-01 2.503219e-01 2.030818e-01 1.683757e-01 1.907168e-02
<VARIANCE> 38
 2.012009e+01 2.896751e+01 2.967688e+01 3.269192e+01 3.999278e+01 4.487863e+01 4.249340e+01 3.780194e+01 4.028601e+01 3.926918e+01 3.003918e+01 2.518681e+01 1.762533e+00 2.263649e+00 2.256804e+00 2.265815e+00 2.833112e+00 2.766345e+00 2.762755e+00 3.090430e+00 2.943082e+00 2.815818e+00 2.607254e+00 2.392644e+00 1.000000e-02 1.802938e-01 2.532486e-01 2.898263e-01 3.402368e-01 4.139503e-01 4.202929e-01 4.340906e-01 4.825066e-01 4.881221e-01 4.722580e-01 4.134682e-01 3.841248e-01 1.000000e-02
<GCONST> 1.018859e+02
<MIXTURE> 4 6.393710e-02
<MEAN> 38
 7.794701e+00 1.593154e+00 -2.167875e-01 -9.030938e-03 1.904820e+00 1.224695e+00 -2.520442e+00 -1.817646e+00 9.113575e-01 3.039445e+00 8.048632e-01 -1.630101e+00 2.195226e-01 1.153518e+00 6.504793e-01 9.178922e-01 7.853795e-01 7.072299e-01 1.228477e+00 -2.336144e-01 -2.812605e-01 4.389673e-01 4.167814e-01 3.928711e-01 4.469659e-03 -8.852790e-02 2.312430e-01 3.007458e-01 3.152041e-01 5.956373e-02 2.353548e-02 2.198926e-01 1.788092e-01 1.317292e-01 3.884650e-02 7.977405e-02 2.756295e-01 1.644889e-02
<VARIANCE> 38
 1.340055e+01 2.600894e+01 4.207439e+01 5.144834e+01 3.997277e+01 5.438924e+01 5.546415e+01 5.443270e+01 5.598755e+01 5.824165e+01 5.314812e+01 3.808617e+01 6.463873e-01 1.390469e+00 1.667265e+00 2.155122e+00 2.275684e+00 2.730850e+00 3.103709e+00 3.196603e+00 3.231432e+00 2.769589e+00 2.380125e+00 2.117516e+00 1.000000e-02 9.663769e-02 1.969447e-01 2.371010e-01 3.094598e-01 3.622535e-01 3.796977e-01 4.537451e-01 4.951521e-01 4.843614e-01 4.659789e-01 4.211776e-01 3.471028e-01 1.000000e-02
<GCONST> 1.012033e+02
<MIXTURE> 5 5.880310e-02
<MEAN> 38
 1.638034e+00 7.509764e+00 6.851084e+00 6.502626e+00 3.530716e+00 -1.172046e+00 -1.272697e+00 -2.167238e-01 6.507555e-01 -7.942865e-01 -1.366640e+00 -2.413666e-01 -1.299469e+00 6.710964e-01 8.241959e-01 1.258483e+00 1.455917e+00 1.143157e+00 1.254426e+00 6.218492e-01 2.170181e-01 -3.849986e-02 2.805572e-01 1.770313e-01 -2.475978e-02 6.720063e-02 -4.577531e-01 -3.101097e-01 -1.450164e-01 -2.891973e-03 1.925981e-01 1.640044e-01 2.997794e-01 2.321357e-01 2.858546e-01 2.279476e-01 2.278100e-01 2.086351e-02
<VARIANCE> 38
 2.109187e+01 2.944330e+01 3.018727e+01 3.429921e+01 4.178735e+01 4.386222e+01 4.132027e+01 3.870969e+01 4.321482e+01 4.395713e+01 3.188321e+01 2.580886e+01 2.030344e+00 2.474686e+00 2.582819e+00 2.581364e+00 3.222533e+00 3.148329e+00 3.094308e+00 3.347294e+00 3.206035e+00 3.020895e+00 2.776432e+00 2.520307e+00 1.000000e-02 2.185298e-01 3.024096e-01 3.159693e-01 3.948217e-01 4.562592e-01 4.613094e-01 4.762678e-01 5.207278e-01 5.342040e-01 5.259150e-01 4.422186e-01 4.033304e-01 1.000000e-02
<GCONST> 1.047941e+02
<MIXTURE> 6 6.934755e-02
<MEAN> 38
 1.582674e+00 6.534849e+00 7.478152e+00 7.042614e+00 1.666740e+00 -2.401335e+00 8.086354e-01 2.237669e+00 5.193821e-01 -1.386545e+00 -4.666479e-01 2.144804e+00 -1.058064e+00 5.842629e-01 4.427974e-01 1.011637e+00 1.548291e+00 1.361662e+00 1.041579e+00 5.169638e-01 4.130524e-01 4.732157e-02 2.268227e-01 5.056700e-02 -2.367796e-02 -1.771881e-02 -2.585476e-01 -1.868742e-01 -7.444211e-02 1.500978e-01 2.753090e-01 1.093292e-01 1.191733e-01 1.526464e-01 2.129791e-01 1.133273e-01 2.597404e-02 1.935601e-02
<VARIANCE> 38
 1.541496e+01 2.491187e+01 2.424516e+01 2.491872e+01 3.739548e+01 4.089226e+01 4.100157e+01 3.236395e+01 3.493682e+01 3.520602e+01 2.888773e+01 2.342301e+01 1.135146e+00 1.697267e+00 1.580699e+00 1.723983e+00 1.988414e+00 2.110060e+00 2.103299e+00 2.294461e+00 2.313846e+00 2.170695e+00 2.090621e+00 2.008474e+00 1.000000e-02 1.098775e-01 1.863424e-01 2.071041e-01 2.342985e-01 3.067320e-01 3.427442e-01 3.478996e-01 3.723358e-01 3.824416e-01 3.650012e-01 3.389332e-01 3.197513e-01 1.000000e-02
<GCONST> 9.345190e+01
<MIXTURE> 7 7.052860e-02
<MEAN> 38
 6.851116e+00 2.575549e+00 1.454662e+00 2.200602e+00 2.554655e+00 2.128332e-01 -2.053703e+00 -1.356450e+00 4.492567e-01 1.197834e+00 -1.018223e+00 -1.181624e+00 -3.257157e-02 1.200292e+00 7.672092e-01 1.058399e+00 7.994596e-01 5.256200e-01 1.166009e+00 -2.203521e-01 -3.133662e-01 2.488244e-01 1.555171e-01 2.566624e-01 1.502639e-03 -9.267810e-02 7.568292e-02 1.977787e-01 1.634866e-01 -2.070986e-02 3.783636e-03 1.334856e-01 1.929573e-01 1.543436e-01 1.157785e-01 1.265362e-01 1.868309e-01 1.791948e-02
<VARIANCE> 38
 1.258229e+01 2.394440e+01 3.095049e+01 3.882178e+01 3.931134e+01 4.764611e+01 5.117973e+01 4.839832e+01 4.597853e+01 5.390826e+01 4.259804e+01 3.233673e+01 7.717397e-01 1.443075e+00 1.567059e+00 1.788846e+00 2.151390e+00 2.608174e+00 2.834067e+00 3.002250e+00 3.045677e+00 2.666891e+00 2.194890e+00 2.119462e+00 1.000000e-02 8.124524e-02 1.642717e-01 1.825707e-01 2.543679e-01 3.211967e-01 3.337265e-01 3.824498e-01 4.148038e-01 3.867856e-01 3.920262e-01 3.388498e-01 3.044409e-01 1.000000e-02
<GCONST> 9.684003e+01
<MIXTURE> 8 4.626705e-02
<MEAN> 38
 7.227757e+00 1.838257e-01 -9.683794e-01 -1.053536e+00 6.056290e-01 1.676154e-01 -2.097232e+00 -1.099557e+00 1.078943e+00 2.498391e+00 -6.400684e-01 -2.010690e+00 1.786644e-01 7.161357e-01 4.029071e-01 6.535717e-01 5.970554e-01 6.459893e-01 1.035541e+00 -1.461262e-01 -1.340346e-01 3.762960e-01 1.841498e-01 1.004507e-01 8.835389e-03 -5.829463e-02 2.031856e-01 2.391074e-01 2.709884e-01 1.139339e-01 8.047169e-02 1.349639e-01 1.312831e-01 1.366592e-01 5.255798e-02 1.606094e-01 2.491743e-01 1.666381e-02
<VARIANCE> 38
 1.430631e+01 3.104813e+01 4.764116e+01 5.137616e+01 4.404892e+01 5.674936e+01 5.787727e+01 6.205653e+01 6.429235e+01 7.063182e+01 6.081657e+01 4.029361e+01 6.224583e-01 1.388590e+00 1.748504e+00 2.160838e+00 2.235138e+00 2.555617e+00 3.270604e+00 3.008318e+00 3.036178e+00 2.731333e+00 2.248299e+00 2.048618e+00 1.000000e-02 9.729429e-02 1.819421e-01 2.163107e-01 2.917279e-01 3.319331e-01 3.496094e-01 4.417673e-01 4.895369e-01 4.732091e-01 4.542479e-01 4.182828e-01 3.276642e-01 1.000000e-02
<GCONST> 1.016117e+02
<MIXTURE> 9 7.052860e-02
<MEAN> 38
 5.432256e+00 6.182287e-01 -7.706643e-01 -2.916830e-01 4.670489e-02 -2.548213e+00 -4.915303e+00 -4.139206e+00 -2.263042e+00 -1.739056e+00 -3.628911e+00 -3.456240e+00 -3.839664e-01 7.197795e-01 2.664802e-01 5.234076e-01 2.127549e-01 -1.203738e-01 4.926220e-01 -9.134321e-01 -1.011441e+00 -4.044003e-01 -4.370893e-01 -3.256725e-01 -3.849736e-02 -2.066923e-01 -8.643886e-02 2.686551e-02 -3.825296e-02 -2.474067e-01 -2.272926e-01 -1.138845e-01 -6.466377e-02 -9.442474e-02 -1.346695e-01 -1.063071e-01 -3.387370e-02 -2.208051e-02
<VARIANCE> 38
 1.258229e+01 2.394440e+01 3.095049e+01 3.882178e+01 3.931134e+01 4.764611e+01 5.117973e+01 4.839832e+01 4.597853e+01 5.390826e+01 4.259804e+01 3.233673e+01 7.717397e-01 1.443075e+00 1.567059e+00 1.788846e+00 2.151390e+00 2.608174e+00 2.834067e+00 3.002250e+00 3.045677e+00 2.666891e+00 2.194890e+00 2.119462e+00 1.000000e-02 8.124524e-02 1.642717e-01 1.825707e-01 2.543679e-01 3.211967e-01 3.337265e-01 3.824498e-01 4.148038e-01 3.867856e-01 3.920262e-01 3.388498e-01 3.044409e-01 1.000000e-02
<GCONST> 9.684003e+01
<MIXTURE> 10 6.934755e-02
<MEAN> 38
 1.219809e-02 4.538377e+00 5.508577e+00 5.045868e+00 -7.793334e-01 -4.959217e+00 -1.752663e+00 -3.790438e-02 -1.844913e+00 -3.759931e+00 -2.616540e+00 2.089115e-01 -1.484236e+00 6.314611e-02 -6.010599e-02 4.864345e-01 9.842467e-01 7.806201e-01 4.614683e-01 -8.893538e-02 -1.954008e-01 -5.420096e-01 -3.515365e-01 -5.163156e-01 -6.367796e-02 -1.503099e-01 -4.312172e-01 -3.689090e-01 -2.680597e-01 -7.143575e-02 4.113159e-02 -1.266028e-01 -1.249039e-01 -9.472106e-02 -2.868218e-02 -1.195446e-01 -2.002122e-01 -2.064399e-02
<VARIANCE> 38
 1.541496e+01 2.491187e+01 2.424516e+01 2.491872e+01 3.739548e+01 4.089226e+01 4.100157e+01 3.236395e+01 3.493682e+01 3.520602e+01 2.888773e+01 2.342301e+01 1.135146e+00 1.697267e+00 1.580699e+00 1.723983e+00 1.988414e+00 2.110060e+00 2.103299e+00 2.294461e+00 2.313846e+00 2.170695e+00 2.090621e+00 2.008474e+00 1.000000e-02 1.098775e-01 1.863424e-01 2.071041e-01 2.342985e-01 3.067320e-01 3.427442e-01 3.478996e-01 3.723358e-01 3.824416e-01 3.650012e-01 3.389332e-01 3.197513e-01 1.000000e-02
<GCONST> 9.345190e+01
<MIXTURE> 11 6.881995e-02
<MEAN> 38
 -1.141352e-01 5.723554e+00 5.159139e+00 4.513064e+00 8.846701e-01 -3.877000e+00 -2.875598e+00 -1.331040e+00 -1.358542e+00 -3.229005e+00 -2.860061e+00 -1.062993e+00 -1.811378e+00 2.763346e-01 2.743188e-01 7.251315e-01 9.926209e-01 7.030163e-01 7.203302e-01 9.137851e-02 -2.109663e-01 -4.919121e-01 -1.531279e-01 -3.926162e-01 -6.618340e-02 -1.680994e-01 -5.918244e-01 -4.409524e-01 -2.908657e-01 -1.931231e-01 -6.685011e-03 -6.073401e-02 -1.547959e-02 -8.638924e-02 -2.456227e-02 -5.412415e-02 -7.953551e-02 -2.092832e-02
<VARIANCE> 38
 2.012009e+01 2.896751e+01 2.967688e+01 3.269192e+01 3.999278e+01 4.487863e+01 4.249340e+01 3.780194e+01 4.028601e+01 3.926918e+01 3.003918e+01 2.518681e+01 1.762533e+00 2.263649e+00 2.256804e+00 2.265815e+00 2.833112e+00 2.766345e+00 2.762755e+00 3.090430e+00 2.943082e+00 2.815818e+00 2.607254e+00 2.392644e+00 1.000000e-02 1.802938e-01 2.532486e-01 2.898263e-01 3.402368e-01 4.139503e-01 4.202929e-01 4.340906e-01 4.825066e-01 4.881221e-01 4.722580e-01 4.134682e-01 3.841248e-01 1.000000e-02
<GCONST> 1.018859e+02
<MIXTURE> 12 6.446830e-02
<MEAN> 38
 5.865891e+00 1.592329e+00 -2.400219e-01 6.650120e-01 1.334905e+00 -1.844872e+00 -4.940403e+00 -3.653311e+00 -1.589823e+00 -1.204004e+00 -2.866278e+00 -3.067032e+00 -3.660285e-01 1.120830e+00 4.846094e-01 7.272315e-01 3.967494e-01 -3.524420e-02 6.727449e-01 -9.183836e-01 -1.005435e+00 -3.507307e-01 -3.008571e-01 -1.911719e-01 -4.333963e-02 -2.270698e-01 -5.421294e-02 8.105927e-02 -1.379873e-02 -3.223898e-01 -2.684496e-01 -6.055867e-02 -7.195444e-02 -1.214492e-01 -1.426732e-01 -1.225473e-01 -2.503859e-02 -2.247426e-02
<VARIANCE> 38
 1.219691e+01 2.165881e+01 2.779025e+01 3.553293e+01 3.485463e+01 4.517698e+01 4.923063e+01 4.557811e+01 4.091383e+01 4.547060e+01 3.768216e+01 3.162162e+01 7.205889e-01 1.560962e+00 1.602669e+00 1.691715e+00 2.182760e+00 2.752206e+00 2.741047e+00 3.133186e+00 3.179578e+00 2.710442e+00 2.285952e+00 2.219457e+00 1.000000e-02 7.939797e-02 1.753826e-01 1.941721e-01 2.533372e-01 3.297201e-01 3.437713e-01 3.853986e-01 4.130111e-01 3.899003e-01 4.045513e-01 3.442036e-01 3.188544e-01 1.000000e-02
<GCONST> 9.626878e+01
<MIXTURE> 13 6.393710e-02
<MEAN> 38
 6.330431e+00 -4.468042e-01 -2.811378e+00 -2.878131e+00 -6.241412e-01 -1.725268e+00 -5.499412e+00 -4.768786e+00 -2.081636e+00 -1.320338e-02 -2.111247e+00 -4.098661e+00 -1.020702e-01 6.818455e-01 1.339889e-01 3.306789e-01 1.819647e-01 4.621854e-02 5.237833e-01 -9.487762e-01 -1.000308e+00 -2.267159e-01 -2.003248e-01 -1.891964e-01 -3.553034e-02 -2.128743e-01 5.372919e-02 1.059738e-01 9.268768e-02 -1.811863e-01 -2.229430e-01 -4.954983e-02 -1.026590e-01 -1.466552e-01 -2.342041e-01 -1.798187e-01 3.996774e-02 -2.355111e-02
<VARIANCE> 38
 1.340055e+01 2.600894e+01 4.207439e+01 5.144834e+01 3.997277e+01 5.438924e+01 5.546415e+01 5.443270e+01 5.598755e+01 5.824165e+01 5.314812e+01 3.808617e+01 6.463873e-01 1.390469e+00 1.667265e+00 2.155122e+00 2.275684e+00 2.730850e+00 3.103709e+00 3.196603e+00 3.231432e+00 2.769589e+00 2.380125e+00 2.117516e+00 1.000000e-02 9.663769e-02 1.969447e-01 2.371010e-01 3.094598e-01 3.622535e-01 3.796977e-01 4.537451e-01 4.951521e-01 4.843614e-01 4.659789e-01 4.211776e-01 3.471028e-01 1.000000e-02
<GCONST> 1.012033e+02
<MIXTURE> 14 5.880310e-02
<MEAN> 38
 -1.990017e-01 5.339296e+00 4.653366e+00 4.160006e+00 9.449903e-01 -3.821188e+00 -3.843931e+00 -2.705408e+00 -1.978764e+00 -3.446294e+00 -3.625248e+00 -2.273463e+00 -1.869429e+00 4.185101e-02 1.813498e-01 6.158183e-01 7.378607e-01 4.334160e-01 5.508001e-01 -1.099752e-01 -4.991981e-01 -7.337288e-01 -3.859479e-01 -4.579877e-01 -6.475978e-02 -1.197881e-01 -6.777202e-01 -5.349543e-01 -3.963558e-01 -2.730798e-01 -7.908091e-02 -1.120442e-01 1.113345e-02 -6.022136e-02 -4.225403e-03 -3.805047e-02 -2.622321e-02 -1.913649e-02
<VARIANCE> 38
 2.109187e+01 2.944330e+01 3.018727e+01 3.429921e+01 4.178735e+01 4.386222e+01 4.132027e+01 3.870969e+01 4.321482e+01 4.395713e+01 3.188321e+01 2.580886e+01 2.030344e+00 2.474686e+00 2.582819e+00 2.581364e+00 3.222533e+00 3.148329e+00 3.094308e+00 3.347294e+00 3.206035e+00 3.020895e+00 2.776432e+00 2.520307e+00 1.000000e-02 2.185298e-01 3.024096e-01 3.159693e-01 3.948217e-01 4.562592e-01 4.613094e-01 4.762678e-01 5.207278e-01 5.342040e-01 5.259150e-01 4.422186e-01 4.033304e-01 1.000000e-02
<GCONST> 1.047941e+02
<MIXTURE> 15 5.779965e-02
<MEAN> 38
 5.065445e-01 4.356503e+00 5.989414e+00 5.810269e+00 -7.074279e-01 -4.538762e+00 1.065638e-01 1.169917e+00 -1.572980e+00 -3.655482e+00 -2.099460e+00 1.306318e+00 -1.267831e+00 1.416295e-01 -3.044178e-02 6.424165e-01 1.207963e+00 9.804647e-01 6.400801e-01 4.161507e-02 -1.788437e-02 -3.654951e-01 -1.890737e-01 -4.510821e-01 -6.369765e-02 -1.401546e-01 -3.519386e-01 -3.226281e-01 -2.238852e-01 -4.447135e-02 6.201056e-02 -1.320798e-01 -1.340786e-01 -8.077257e-02 -2.209909e-02 -1.308734e-01 -2.483481e-01 -2.184904e-02
<VARIANCE> 38
 1.364159e+01 2.489737e+01 2.280629e+01 2.340173e+01 3.655577e+01 4.458228e+01 4.259678e+01 3.150295e+01 3.223034e+01 3.336598e+01 2.851074e+01 2.385406e+01 8.809185e-01 1.679850e+00 1.444222e+00 1.595046e+00 1.819378e+00 2.002695e+00 2.011413e+00 2.150281e+00 2.291396e+00 2.169770e+00 2.070971e+00 1.951462e+00 1.000000e-02 9.431420e-02 1.637923e-01 1.959984e-01 2.226519e-01 3.033567e-01 3.430341e-01 3.459564e-01 3.643333e-01 3.752481e-01 3.549451e-01 3.375507e-01 3.219474e-01 1.000000e-02
<GCONST> 9.195028e+01
<MIXTURE> 16 4.626705e-02
<MEAN> 38
 5.714810e+00 -2.045008e+00 -3.729282e+00 -3.920622e+00 -2.049145e+00 -2.845671e+00 -5.140316e+00 -4.250595e+00 -2.128357e+00 -8.633183e-01 -3.759468e+00 -4.549780e+00 -1.369197e-01 2.447819e-01 -1.260169e-01 6.558022e-02 -9.597540e-04 6.537348e-03 3.121489e-01 -8.399063e-01 -8.310199e-01 -2.847738e-01 -4.156234e-01 -4.720691e-01 -3.116461e-02 -1.830628e-01 3.256685e-02 5.307057e-02 5.494102e-02 -1.165207e-01 -1.560394e-01 -1.308984e-01 -1.485845e-01 -1.385016e-01 -2.170337e-01 -9.808977e-02 2.020648e-02 -2.333619e-02
<VARIANCE> 38
 1.430631e+01 3.104813e+01 4.764116e+01 5.137616e+01 4.404892e+01 5.674936e+01 5.787727e+01 6.205653e+01 6.429235e+01 7.063182e+01 6.081657e+01 4.029361e+01 6.224583e-01 1.388590e+00 1.748504e+00 2.160838e+00 2.235138e+00 2.555617e+00 3.270604e+00 3.008318e+00 3.036178e+00 2.731333e+00 2.248299e+00 2.048618e+00 1.000000e-02 9.729429e-02 1.819421e-01 2.163107e-01 2.917279e-01 3.319331e-01 3.496094e-01 4.417673e-01 4.895369e-01 4.732091e-01 4.542479e-01 4.182828e-01 3.276642e-01 1.000000e-02
<GCONST> 1.016117e+02
<TRANSP> 5
 0.000000e+00 1.000000e+00 0.000000e+00 0.000000e+00 0.000000e+00
 0.000000e+00 4.910012e-01 5.089988e-01 0.000000e+00 0.000000e+00
 0.000000e+00 0.000000e+00 7.620158e-01 2.379842e-01 0.000000e+00
 0.000000e+00 0.000000e+00 0.000000e+00 6.240703e-01 3.759297e-01
 0.000000e+00 0.000000e+00 0.000000e+00 0.000000e+00 0.000000e+00
<ENDHMM>
~h "a"
<BEGINHMM>
<NUMSTATES> 5
<STATE> 2
<NUMMIXES> 16
<SWEIGHTS> 1
 1.000000e+00
<MIXTURE> 1 4.036928e-02
<MEAN> 38
 6.267037e+00 -9.520727e+00 -6.760440e+00 1.516226e+00 3.598514e+00 3.563238e+00 2.840759e+00 1.812591e+00 2.177059e+00 -1.525484e+00 -3.555376e+00 -9.997805e-01 2.040445e-01 -1.507268e-01 -6.846853e-02 6.275733e-01 6.544222e-01 6.152738e-01 3.211428e-01 4.880074e-02 3.162621e-01 2.765702e-01 2.654196e-01 4.217260e-01 2.224579e-02 3.283575e-02 2.245425e-01 1.696772e-01 9.398961e-02 7.171918e-02 2.499739e-02 3.128927e-02 9.271872e-02 1.118440e-01 1.408933e-01 1.503981e-01 1.252297e-01 1.787789e-02
<VARIANCE> 38
 1.028275e+01 2.031224e+01 2.487210e+01 3.950284e+01 3.150723e+01 3.299958e+01 3.774535e+01 3.458073e+01 3.580479e+01 3.697881e+01 2.714386e+01 3.638222e+01 2.921582e-01 6.359820e-01 7.204901e-01 9.600873e-01 1.113224e+00 1.201243e+00 1.232780e+00 1.253594e+00 1.202352e+00 1.229828e+00 1.159602e+00 1.061888e+00 1.000000e-02 5.485400e-02 1.018274e-01 1.167417e-01 1.622476e-01 1.720796e-01 1.862210e-01 2.082637e-01 2.179087e-01 2.030143e-01 2.086955e-01 2.010499e-01 1.828048e-01 1.000000e-02
<GCONST> 7.818678e+01
<MIXTURE> 2 8.350505e-02
<MEAN> 38
 6.377130e+00 -1.026794e+01 -6.687296e+00 8.964605e-01 5.058862e+00 4.881191e+00 1.612825e+00 1.549366e+00 2.197214e+00 -1.083365e+00 -3.024294e+00 -2.085534e+00 1.719429e-01 2.115431e-01 1.490446e-01 1.857176e-01 1.855935e-01 2.061981e-01 1.867610e-01 2.214060e-01 1.449652e-01 2.529558e-01 2.620084e-01 2.414356e-01 1.755163e-02 5.156682e-02 9.356564e-02 5.645181e-02 4.126372e-02 1.158661e-02 3.207097e-02 7.978054e-02 8.159319e-02 6.938335e-02 7.794781e-02 6.771781e-02 8.463953e-02 1.933397e-02
<VARIANCE> 38
 9.729070e+00 1.636253e+01 2.227654e+01 4.107763e+01 2.776028e+01 3.590683e+01 3.719372e+01 3.753425e+01 3.833228e+01 3.056092e+01 2.644496e+01 3.458579e+01 8.635609e-02 1.948402e-01 2.506667e-01 3.804573e-01 4.262944e-01 4.994565e-01 5.408282e-01 5.839391e-01 5.754997e-01 5.621791e-01 5.342728e-01 4.745110e-01 1.000000e-02 1.218705e-02 2.414252e-02 3.608603e-02 4.984320e-02 6.028131e-02 7.284424e-02 8.142942e-02 8.630614e-02 8.640689e-02 8.454743e-02 8.000064e-02 7.607571e-02 1.000000e-02
<GCONST> 5.405466e+01
<MIXTURE> 3 6.803815e-02
<MEAN> 38
 6.462897e+00 -8.802742e+00 -6.959355e+00 3.523077e-01 3.334706e+00 3.396417e+00 2.587897e+00 2.468477e+00 3.421438e+00 -1.029827e+00 -3.630554e+00 -1.892970e+00 7.304107e-02 -2.079861e-01 -6.195502e-02 4.343979e-01 6.703388e-01 6.140746e-01 3.261687e-01 3.572573e-02 2.752402e-01 7.509355e-02 2.464459e-01 2.205092e-01 2.139758e-02 3.634693e-02 1.747052e-01 1.639536e-01 8.880036e-02 5.782639e-02 2.004599e-02 2.346972e-02 6.293965e-02 5.834784e-02 1.433746e-01 1.681792e-01 1.148657e-01 1.827646e-02
<VARIANCE> 38
 9.425861e+00 1.659254e+01 2.320956e+01 3.339419e+01 3.119317e+01 3.727959e+01 3.621357e+01 3.788737e+01 3.890783e+01 3.977951e+01 2.984392e+01 3.954096e+01 1.938705e-01 4.538656e-01 6.202285e-01 7.794181e-01 1.018728e+00 1.188510e+00 1.231081e+00 1.249884e+00 1.172102e+00 1.206493e+00 1.129677e+00 1.031363e+00 1.000000e-02 3.303734e-02 6.460654e-02 9.005698e-02 1.293441e-01 1.598210e-01 1.817090e-01 1.993499e-01 2.209483e-01 2.071848e-01 2.056104e-01 1.947534e-01 1.754856e-01 1.000000e-02
<GCONST> 7.520319e+01
<MIXTURE> 4 6.475170e-02
<MEAN> 38
 5.659747e+00 -1.097913e+01 -6.714242e+00 1.880288e+00 5.301075e+00 4.058281e+00 1.176821e+00 8.960595e-01 1.962247e+00 -3.132806e+00 -3.704524e+00 -3.822963e-01 1.015187e-01 1.217083e-01 1.539653e-01 1.802449e-01 2.432761e-01 1.996783e-01 9.950854e-02 2.029010e-01 1.872890e-01 2.231079e-01 2.367888e-01 8.381987e-02 1.828883e-02 5.968672e-02 1.040739e-01 6.987088e-02 2.453175e-02 1.473008e-02 4.933824e-02 1.029726e-01 1.207361e-01 6.589594e-02 1.291389e-01 7.994913e-02 4.593145e-02 1.929892e-02
<VARIANCE> 38
 1.023272e+01 1.526112e+01 1.997352e+01 2.699554e+01 2.711267e+01 2.926152e+01 4.099500e+01 3.795691e+01 3.782369e+01 3.541085e+01 2.416638e+01 2.680276e+01 9.328032e-02 2.058374e-01 2.828252e-01 4.333081e-01 5.333437e-01 5.759450e-01 6.861348e-01 7.194067e-01 6.930456e-01 6.832999e-01 6.203935e-01 5.648879e-01 1.000000e-02 1.278451e-02 2.464895e-02 3.911190e-02 5.464275e-02 7.361701e-02 8.587958e-02 9.877174e-02 1.075930e-01 1.079976e-01 1.083039e-01 9.747481e-02 8.801892e-02 1.000000e-02
<GCONST> 5.690950e+01
<MIXTURE> 5 1.052228e-01
<MEAN> 38
 6.126225e+00 -1.071302e+01 -7.020660e+00 3.580243e-01 4.846912e+00 4.818011e+00 1.132806e+00 1.611401e+00 2.369834e+00 -1.752777e+00 -3.248157e+00 -2.567445e+00 8.028629e-02 1.000870e-01 1.164867e-01 1.085551e-01 1.384884e-01 1.207320e-01 1.020438e-01 1.643874e-01 8.408994e-02 1.373719e-01 1.491593e-01 9.227013e-02 1.849225e-02 3.157681e-02 6.889094e-02 4.322607e-02 1.525449e-02 -7.289980e-03 4.878804e-03 5.124654e-02 6.267827e-02 3.967140e-02 5.818557e-02 4.745870e-02 3.383143e-02 1.945391e-02
<VARIANCE> 38
 9.668771e+00 1.497554e+01 2.105293e+01 3.546288e+01 2.629204e+01 3.670512e+01 3.825332e+01 3.954518e+01 3.891814e+01 3.160934e+01 2.694193e+01 3.345467e+01 7.821951e-02 1.726954e-01 2.287021e-01 3.486487e-01 4.042966e-01 4.769912e-01 5.059923e-01 5.615216e-01 5.276733e-01 5.262560e-01 5.052752e-01 4.546807e-01 1.000000e-02 1.118594e-02 2.165450e-02 3.367760e-02 4.816737e-02 5.792556e-02 6.906758e-02 7.712997e-02 8.426695e-02 8.467127e-02 8.506949e-02 8.084657e-02 7.451484e-02 1.000000e-02
<GCONST> 5.249059e+01
<MIXTURE> 6 5.141385e-02
<MEAN> 38
 5.946082e+00 -9.464104e+00 -7.363617e+00 -5.443009e-01 2.861333e+00 2.791651e+00 2.084531e+00 2.576621e+00 3.216200e+00 -2.032079e+00 -4.180021e+00 -1.830625e+00 -2.300583e-02 -3.508533e-01 -1.544684e-01 3.261904e-01 6.711552e-01 6.313781e-01 2.126970e-01 -8.602273e-02 1.177263e-01 -1.074134e-01 1.821219e-01 -4.370306e-02 2.284745e-02 2.816667e-02 1.708599e-01 1.558175e-01 8.087956e-02 4.516916e-02 -3.899984e-03 -2.051562e-03 3.101104e-02 4.719541e-02 1.420911e-01 1.589489e-01 6.845323e-02 1.816178e-02
<VARIANCE> 38
 9.852484e+00 1.676970e+01 2.231317e+01 2.773524e+01 3.217843e+01 3.874934e+01 3.741229e+01 4.125026e+01 4.183426e+01 4.482351e+01 3.176167e+01 3.900506e+01 1.984220e-01 4.314428e-01 6.344600e-01 7.638037e-01 1.094987e+00 1.282328e+00 1.394694e+00 1.368461e+00 1.291450e+00 1.283293e+00 1.200966e+00 1.124156e+00 1.000000e-02 3.429773e-02 6.200018e-02 9.044651e-02 1.275301e-01 1.700582e-01 1.867765e-01 2.095766e-01 2.351266e-01 2.135652e-01 2.177419e-01 2.069887e-01 1.861838e-01 1.000000e-02
<GCONST> 7.650154e+01
<MIXTURE> 7 5.625890e-02
<MEAN> 38
 6.203568e+00 -9.592193e+00 -7.166829e+00 3.918950e-01 3.171941e+00 3.108918e+00 2.395533e+00 2.048327e+00 2.399933e+00 -1.651847e+00 -3.936615e+00 -1.570463e+00 9.563869e-02 -2.942218e-01 -1.492170e-01 4.894930e-01 6.152393e-01 5.896649e-01 2.445146e-01 -4.675847e-02 1.893181e-01 7.817629e-02 1.711870e-01 1.749412e-01 2.334739e-02 1.719022e-02 2.019509e-01 1.648414e-01 8.369227e-02 5.543455e-02 7.468767e-03 6.782256e-03 5.977884e-02 8.802357e-02 1.143452e-01 1.421982e-01 8.738273e-02 1.794762e-02
<VARIANCE> 38
 1.015163e+01 1.877042e+01 2.375403e+01 3.343509e+01 3.204123e+01 3.545124e+01 3.748154e+01 3.695768e+01 3.832078e+01 3.920426e+01 2.860295e+01 3.779792e+01 2.689819e-01 5.569791e-01 7.040257e-01 9.190538e-01 1.125907e+00 1.234719e+00 1.289134e+00 1.295908e+00 1.251467e+00 1.247546e+00 1.169674e+00 1.078214e+00 1.000000e-02 5.104287e-02 8.879036e-02 1.112644e-01 1.540509e-01 1.771931e-01 1.902232e-01 2.114282e-01 2.235293e-01 2.077003e-01 2.080184e-01 2.001625e-01 1.839292e-01 1.000000e-02
<GCONST> 7.796339e+01
<MIXTURE> 8 3.037513e-02
<MEAN> 38
 4.461817e+00 -1.247050e+01 -7.498640e+00 1.451299e+00 5.608468e+00 3.612311e+00 -1.450025e-01 -4.205863e-01 1.002293e+00 -5.145176e+00 -4.305216e+00 -5.543072e-01 -3.549657e-02 -4.993368e-02 -4.342576e-02 -8.682881e-02 -4.686356e-02 -1.094486e-01 -2.124439e-01 -1.251933e-01 -1.296685e-01 -1.243333e-01 -9.619595e-02 -2.541476e-01 1.905527e-02 3.402661e-02 6.836027e-02 2.714697e-02 -3.772856e-02 -4.284129e-02 -8.662619e-03 5.173918e-02 6.898153e-02 1.486920e-03 5.196737e-02 9.569257e-03 -1.753144e-02 1.931969e-02
<VARIANCE> 38
 1.029672e+01 1.275751e+01 1.827349e+01 2.012315e+01 2.854369e+01 2.677185e+01 4.292893e+01 3.568525e+01 3.487923e+01 3.644199e+01 2.444784e+01 2.281079e+01 9.299280e-02 2.008457e-01 2.843195e-01 4.617704e-01 5.789577e-01 5.896932e-01 7.389327e-01 7.824696e-01 7.648694e-01 7.490731e-01 6.886024e-01 6.095357e-01 1.000000e-02 1.216593e-02 2.437492e-02 3.997403e-02 5.618026e-02 7.565442e-02 8.749140e-02 1.000269e-01 1.135988e-01 1.112369e-01 1.143426e-01 1.017985e-01 9.072144e-02 1.000000e-02
<GCONST> 5.703365e+01
<MIXTURE> 9 1.052228e-01
<MEAN> 38
 4.882439e+00 -1.226095e+01 -8.855999e+00 -2.024004e+00 2.795882e+00 2.394621e+00 -1.341165e+00 -9.039978e-01 -1.255422e-01 -4.001665e+00 -5.324382e+00 -4.881045e+00 -3.158471e-02 -6.613955e-02 -7.480450e-02 -1.276308e-01 -1.158489e-01 -1.555262e-01 -1.824888e-01 -1.353516e-01 -2.064746e-01 -1.528021e-01 -1.351715e-01 -1.774499e-01 -2.150775e-02 -1.072863e-02 1.002907e-02 -3.017976e-02 -7.253377e-02 -1.035609e-01 -1.002440e-01 -5.984259e-02 -5.343682e-02 -7.672191e-02 -5.848113e-02 -6.627543e-02 -7.535820e-02 -2.054609e-02
<VARIANCE> 38
 9.668771e+00 1.497554e+01 2.105293e+01 3.546288e+01 2.629204e+01 3.670512e+01 3.825332e+01 3.954518e+01 3.891814e+01 3.160934e+01 2.694193e+01 3.345467e+01 7.821951e-02 1.726954e-01 2.287021e-01 3.486487e-01 4.042966e-01 4.769912e-01 5.059923e-01 5.615216e-01 5.276733e-01 5.262560e-01 5.052752e-01 4.546807e-01 1.000000e-02 1.118594e-02 2.165450e-02 3.367760e-02 4.816737e-02 5.792556e-02 6.906758e-02 7.712997e-02 8.426695e-02 8.467127e-02 8.506949e-02 8.084657e-02 7.451484e-02 1.000000e-02
<GCONST> 5.249059e+01
<MIXTURE> 10 8.350505e-02
<MEAN> 38
 5.129471e+00 -1.188596e+01 -8.575217e+00 -1.667213e+00 2.951341e+00 2.484299e+00 -8.266416e-01 -9.012424e-01 -2.793086e-01 -3.294642e+00 -5.081281e+00 -4.437922e+00 5.439729e-02 3.498028e-02 -5.122193e-02 -6.100734e-02 -7.557135e-02 -7.649082e-02 -1.074031e-01 -8.425765e-02 -1.584816e-01 -4.695861e-02 -3.036743e-02 -3.410342e-02 -2.244836e-02 7.408835e-03 3.141418e-02 -1.953349e-02 -4.803864e-02 -8.662239e-02 -7.588772e-02 -3.436282e-02 -3.591844e-02 -4.819685e-02 -3.836035e-02 -4.541973e-02 -2.568777e-02 -2.066603e-02
<VARIANCE> 38
 9.729070e+00 1.636253e+01 2.227654e+01 4.107763e+01 2.776028e+01 3.590683e+01 3.719372e+01 3.753425e+01 3.833228e+01 3.056092e+01 2.644496e+01 3.458579e+01 8.635609e-02 1.948402e-01 2.506667e-01 3.804573e-01 4.262944e-01 4.994565e-01 5.408282e-01 5.839391e-01 5.754997e-01 5.621791e-01 5.342728e-01 4.745110e-01 1.000000e-02 1.218705e-02 2.414252e-02 3.608603e-02 4.984320e-02 6.028131e-02 7.284424e-02 8.142942e-02 8.630614e-02 8.640689e-02 8.454743e-02 8.000064e-02 7.607571e-02 1.000000e-02
<GCONST> 5.405466e+01
<MIXTURE> 11 6.803815e-02
<MEAN> 38
 5.234835e+00 -1.043210e+01 -8.886407e+00 -1.959201e+00 1.100672e+00 9.541367e-01 1.807888e-01 6.368518e-03 9.263921e-01 -3.552667e+00 -5.815738e+00 -4.408234e+00 -1.030819e-01 -4.774643e-01 -3.769734e-01 8.125927e-02 2.666106e-01 1.779994e-01 -1.176477e-01 -4.114671e-01 -1.578144e-01 -3.642684e-01 -1.786992e-01 -1.857150e-01 -1.860242e-02 -3.635777e-02 7.303396e-02 4.391561e-02 -5.505740e-02 -1.020841e-01 -1.504634e-01 -1.551248e-01 -1.250809e-01 -1.237224e-01 -3.800257e-02 -8.344255e-03 -5.269828e-02 -2.172354e-02
<VARIANCE> 38
 9.425861e+00 1.659254e+01 2.320956e+01 3.339419e+01 3.119317e+01 3.727959e+01 3.621357e+01 3.788737e+01 3.890783e+01 3.977951e+01 2.984392e+01 3.954096e+01 1.938705e-01 4.538656e-01 6.202285e-01 7.794181e-01 1.018728e+00 1.188510e+00 1.231081e+00 1.249884e+00 1.172102e+00 1.206493e+00 1.129677e+00 1.031363e+00 1.000000e-02 3.303734e-02 6.460654e-02 9.005698e-02 1.293441e-01 1.598210e-01 1.817090e-01 1.993499e-01 2.209483e-01 2.071848e-01 2.056104e-01 1.947534e-01 1.754856e-01 1.000000e-02
<GCONST> 7.520319e+01
<MIXTURE> 12 6.475170e-02
<MEAN> 38
 4.380202e+00 -1.254175e+01 -8.501912e+00 -1.980012e-01 3.218281e+00 1.894525e+00 -1.384273e+00 -1.568308e+00 -4.977917e-01 -5.513086e+00 -5.670896e+00 -2.453152e+00 -2.064862e-02 -5.976897e-02 -5.875998e-02 -8.305962e-02 -4.884548e-02 -1.038858e-01 -2.318245e-01 -1.363704e-01 -1.457084e-01 -1.075399e-01 -7.827146e-02 -2.168162e-01 -2.171117e-02 1.445928e-02 4.127401e-02 -9.236040e-03 -6.897141e-02 -9.379974e-02 -6.788263e-02 -2.273925e-02 -1.046935e-02 -6.555603e-02 -2.499327e-03 -4.493470e-02 -7.274047e-02 -2.070108e-02
<VARIANCE> 38
 1.023272e+01 1.526112e+01 1.997352e+01 2.699554e+01 2.711267e+01 2.926152e+01 4.099500e+01 3.795691e+01 3.782369e+01 3.541085e+01 2.416638e+01 2.680276e+01 9.328032e-02 2.058374e-01 2.828252e-01 4.333081e-01 5.333437e-01 5.759450e-01 6.861348e-01 7.194067e-01 6.930456e-01 6.832999e-01 6.203935e-01 5.648879e-01 1.000000e-02 1.278451e-02 2.464895e-02 3.911190e-02 5.464275e-02 7.361701e-02 8.587958e-02 9.877174e-02 1.075930e-01 1.079976e-01 1.083039e-01 9.747481e-02 8.801892e-02 1.000000e-02
<GCONST> 5.690950e+01
<MIXTURE> 13 5.625890e-02
<MEAN> 38
 4.929103e+00 -1.132519e+01 -9.116353e+00 -1.921028e+00 9.077424e-01 7.272801e-01 -5.335438e-02 -3.833860e-01 -7.621861e-02 -4.156379e+00 -6.075884e+00 -4.029663e+00 -1.118152e-01 -5.927460e-01 -4.848420e-01 1.060238e-01 1.908043e-01 1.451933e-01 -2.096456e-01 -5.021103e-01 -2.581578e-01 -3.685981e-01 -2.614189e-01 -2.404071e-01 -1.665261e-02 -7.318046e-02 8.276008e-02 3.141615e-02 -7.330500e-02 -1.129427e-01 -1.669896e-01 -1.771430e-01 -1.293367e-01 -9.427302e-02 -6.809094e-02 -3.675986e-02 -8.416515e-02 -2.205238e-02
<VARIANCE> 38
 1.015163e+01 1.877042e+01 2.375403e+01 3.343509e+01 3.204123e+01 3.545124e+01 3.748154e+01 3.695768e+01 3.832078e+01 3.920426e+01 2.860295e+01 3.779792e+01 2.689819e-01 5.569791e-01 7.040257e-01 9.190538e-01 1.125907e+00 1.234719e+00 1.289134e+00 1.295908e+00 1.251467e+00 1.247546e+00 1.169674e+00 1.078214e+00 1.000000e-02 5.104287e-02 8.879036e-02 1.112644e-01 1.540509e-01 1.771931e-01 1.902232e-01 2.114282e-01 2.235293e-01 2.077003e-01 2.080184e-01 2.001625e-01 1.839292e-01 1.000000e-02
<GCONST> 7.796339e+01
<MIXTURE> 14 5.141385e-02
<MEAN> 38
 4.690536e+00 -1.110214e+01 -9.253090e+00 -2.650871e+00 5.922914e-01 3.016926e-01 -3.620930e-01 7.566690e-03 6.290238e-01 -4.710093e+00 -6.434320e+00 -4.328787e+00 -2.011842e-01 -6.135905e-01 -4.730804e-01 -2.339303e-02 2.525886e-01 1.784184e-01 -2.596917e-01 -5.539477e-01 -3.368417e-01 -5.605435e-01 -2.562324e-01 -4.678079e-01 -1.715255e-02 -4.591192e-02 7.126053e-02 3.552018e-02 -6.196586e-02 -1.197833e-01 -1.767706e-01 -1.851697e-01 -1.629484e-01 -1.376570e-01 -4.456019e-02 -2.303517e-02 -1.041429e-01 -2.183822e-02
<VARIANCE> 38
 9.852484e+00 1.676970e+01 2.231317e+01 2.773524e+01 3.217843e+01 3.874934e+01 3.741229e+01 4.125026e+01 4.183426e+01 4.482351e+01 3.176167e+01 3.900506e+01 1.984220e-01 4.314428e-01 6.344600e-01 7.638037e-01 1.094987e+00 1.282328e+00 1.394694e+00 1.368461e+00 1.291450e+00 1.283293e+00 1.200966e+00 1.124156e+00 1.000000e-02 3.429773e-02 6.200018e-02 9.044651e-02 1.275301e-01 1.700582e-01 1.867765e-01 2.095766e-01 2.351266e-01 2.135652e-01 2.177419e-01 2.069887e-01 1.861838e-01 1.000000e-02
<GCONST> 7.650154e+01
<MIXTURE> 15 4.036928e-02
<MEAN> 38
 4.984368e+00 -1.132349e+01 -8.755318e+00 -9.978251e-01 1.353262e+00 1.265428e+00 3.832692e-01 -5.396246e-01 -2.164249e-01 -3.957892e+00 -5.639367e+00 -3.412488e+00 -1.216216e-02 -4.697208e-01 -4.079953e-01 2.356371e-01 2.323844e-01 1.768688e-01 -1.229797e-01 -3.990553e-01 -1.223452e-01 -1.670202e-01 -1.653197e-01 9.534195e-03 -1.775421e-02 -6.084798e-02 9.690090e-02 3.300723e-02 -6.713027e-02 -9.421074e-02 -1.476159e-01 -1.512544e-01 -9.400405e-02 -6.838441e-02 -4.183954e-02 -2.895627e-02 -4.579299e-02 -2.212211e-02
<VARIANCE> 38
 1.028275e+01 2.031224e+01 2.487210e+01 3.950284e+01 3.150723e+01 3.299958e+01 3.774535e+01 3.458073e+01 3.580479e+01 3.697881e+01 2.714386e+01 3.638222e+01 2.921582e-01 6.359820e-01 7.204901e-01 9.600873e-01 1.113224e+00 1.201243e+00 1.232780e+00 1.253594e+00 1.202352e+00 1.229828e+00 1.159602e+00 1.061888e+00 1.000000e-02 5.485400e-02 1.018274e-01 1.167417e-01 1.622476e-01 1.720796e-01 1.862210e-01 2.082637e-01 2.179087e-01 2.030143e-01 2.086955e-01 2.010499e-01 1.828048e-01 1.000000e-02
<GCONST> 7.818678e+01
<MIXTURE> 16 3.037513e-02
<MEAN> 38
 3.178277e+00 -1.389920e+01 -9.208540e+00 -3.430547e-01 3.471416e+00 1.542651e+00 -2.765810e+00 -2.810072e+00 -1.360053e+00 -7.559864e+00 -6.283006e+00 -2.464733e+00 -1.574755e-01 -2.291969e-01 -2.567122e-01 -3.586436e-01 -3.512206e-01 -4.166146e-01 -5.562887e-01 -4.790225e-01 -4.794957e-01 -4.705293e-01 -4.281242e-01 -5.664387e-01 -2.094473e-02 -1.009311e-02 5.910389e-03 -5.282705e-02 -1.325381e-01 -1.528627e-01 -1.269784e-01 -7.476894e-02 -6.583616e-02 -1.319219e-01 -8.329096e-02 -1.180543e-01 -1.380114e-01 -2.068031e-02
<VARIANCE> 38
 1.029672e+01 1.275751e+01 1.827349e+01 2.012315e+01 2.854369e+01 2.677185e+01 4.292893e+01 3.568525e+01 3.487923e+01 3.644199e+01 2.444784e+01 2.281079e+01 9.299280e-02 2.008457e-01 2.843195e-01 4.617704e-01 5.789577e-01 5.896932e-01 7.389327e-01 7.824696e-01 7.648694e-01 7.490731e-01 6.886024e-01 6.095357e-01 1.000000e-02 1.216593e-02 2.437492e-02 3.997403e-02 5.618026e-02 7.565442e-02 8.749140e-02 1.000269e-01 1.135988e-01 1.112369e-01 1.143426e-01 1.017985e-01 9.072144e-02 1.000000e-02
<GCONST> 5.703365e+01
<STATE> 3
<NUMMIXES> 16
<SWEIGHTS> 1
 1.000000e+00
<MIXTURE> 1 5.310065e-02
<MEAN> 38
 8.883876e+00 -5.230385e+00 -7.878690e+00 -3.535820e+00 5.068033e+00 7.997327e+00 1.768184e-01 -7.958591e-02 2.717358e+00 1.442490e+00 -6.712236e-01 -4.728719e+00 4.709308e-01 1.192729e+00 5.634310e-01 1.680682e-01 -1.560192e-01 -8.950588e-02 5.519617e-01 1.401576e-01 -3.210199e-01 5.623116e-01 7.490471e-01 3.940031e-01 9.097300e-03 -3.873929e-02 3.318947e-01 3.284864e-01 4.071853e-01 8.352114e-02 -1.919226e-01 2.069368e-01 1.180970e-02 -2.815260e-02 8.766708e-02 8.695728e-02 2.527699e-01 1.682675e-02
<VARIANCE> 38
 8.814684e+00 1.929983e+01 1.991313e+01 3.700053e+01 2.863245e+01 3.653417e+01 4.039412e+01 3.315042e+01 3.697602e+01 3.684551e+01 3.869234e+01 3.133640e+01 2.303350e-01 5.791476e-01 7.306515e-01 9.184855e-01 9.686550e-01 1.220822e+00 1.339893e+00 1.233113e+00 1.436173e+00 1.288598e+00 1.267333e+00 1.260205e+00 1.000000e-02 3.747018e-02 1.050613e-01 1.379157e-01 2.056337e-01 1.821651e-01 2.089442e-01 2.147138e-01 2.377247e-01 2.473903e-01 2.297246e-01 2.347780e-01 1.992799e-01 1.000000e-02
<GCONST> 7.890440e+01
<MIXTURE> 2 6.319305e-02
<MEAN> 38
 7.141101e+00 -8.661231e+00 -3.369439e+00 3.677081e+00 1.053567e+00 -1.213571e+00 5.538399e+00 6.725673e+00 -1.159860e+00 -1.756338e+00 -2.220264e+00 -7.319931e-01 1.737680e-01 6.558570e-01 7.241699e-01 2.243682e-01 -2.251588e-01 -7.629061e-02 2.246996e-01 5.111424e-01 2.477074e-01 4.237262e-01 2.767495e-01 3.332468e-01 1.224735e-02 2.871984e-02 1.846512e-01 1.338990e-01 8.607821e-02 1.213391e-01 1.672274e-01 -5.430512e-02 -4.081485e-02 1.756230e-01 1.362593e-01 9.793828e-02 7.160288e-02 1.827770e-02
<VARIANCE> 38
 9.262109e+00 1.881681e+01 2.682207e+01 3.125211e+01 4.307163e+01 3.824982e+01 4.191818e+01 4.877080e+01 5.043601e+01 3.035525e+01 3.125458e+01 2.453091e+01 1.769018e-01 4.129437e-01 6.455488e-01 7.287233e-01 9.809237e-01 1.088389e+00 1.290707e+00 1.309666e+00 1.205836e+00 1.138972e+00 1.051852e+00 9.302877e-01 1.000000e-02 2.580031e-02 6.381670e-02 8.391432e-02 1.199200e-01 1.466779e-01 1.568548e-01 1.809770e-01 1.848224e-01 1.770405e-01 1.729982e-01 1.636762e-01 1.454189e-01 1.000000e-02
<GCONST> 7.364033e+01
<MIXTURE> 3 8.252260e-02
<MEAN> 38
 7.938228e+00 -5.984604e+00 -9.163882e+00 -7.581106e-01 6.475889e+00 6.529248e+00 1.179489e+00 -5.180573e-01 4.542683e+00 -1.804541e-01 -1.021315e+00 -5.023077e+00 2.578437e-01 5.835789e-01 2.544929e-01 6.977606e-02 2.176384e-01 3.324554e-01 2.320195e-01 2.915514e-01 8.941275e-02 3.225550e-01 4.653802e-01 2.765312e-01 1.471468e-02 4.137212e-02 1.237237e-01 2.080129e-01 8.928311e-02 1.005450e-02 2.385399e-02 1.458917e-01 1.661258e-01 -1.011787e-02 1.283306e-01 9.634613e-02 1.880735e-01 1.858739e-02
<VARIANCE> 38
 9.823958e+00 1.666175e+01 2.419892e+01 4.101181e+01 3.751044e+01 4.349337e+01 5.378918e+01 4.236211e+01 3.761123e+01 3.900589e+01 3.766252e+01 3.524667e+01 1.963767e-01 5.528961e-01 6.641603e-01 9.651300e-01 1.047552e+00 1.339476e+00 1.438755e+00 1.485320e+00 1.374003e+00 1.311011e+00 1.332321e+00 1.218591e+00 1.000000e-02 3.264315e-02 8.009323e-02 1.193287e-01 1.491385e-01 1.843243e-01 2.063185e-01 2.593396e-01 2.405359e-01 2.397695e-01 2.257088e-01 2.263489e-01 2.085116e-01 1.000000e-02
<GCONST> 7.975459e+01
<MIXTURE> 4 5.598200e-02
<MEAN> 38
 6.270298e+00 -9.688467e+00 -4.631531e+00 2.469998e+00 2.419368e+00 -4.306531e-02 3.129782e+00 4.119067e+00 -1.042200e+00 -3.361784e+00 -4.035155e+00 -8.366622e-01 1.647196e-01 4.891384e-01 6.137747e-01 1.268833e-01 -1.194417e-01 -4.794374e-03 3.104011e-01 5.861198e-01 1.942920e-01 3.575893e-01 2.760304e-01 2.334011e-01 1.390057e-02 7.429848e-02 1.809728e-01 1.313107e-01 8.191224e-02 8.513352e-02 1.410962e-01 4.005742e-02 8.736840e-02 1.742714e-01 2.036012e-01 1.674031e-01 5.728684e-02 1.852163e-02
<VARIANCE> 38
 1.123386e+01 1.850477e+01 2.756628e+01 3.074921e+01 4.683769e+01 3.566734e+01 5.710433e+01 6.474238e+01 5.706094e+01 4.276842e+01 3.737304e+01 2.731274e+01 1.530453e-01 3.681189e-01 6.081172e-01 8.004509e-01 1.169830e+00 1.183914e+00 1.479717e+00 1.365903e+00 1.364566e+00 1.320934e+00 1.230017e+00 1.083945e+00 1.000000e-02 2.339529e-02 5.476485e-02 8.330208e-02 1.103703e-01 1.578446e-01 1.638526e-01 2.182999e-01 2.245558e-01 2.152455e-01 2.228131e-01 2.013997e-01 1.788611e-01 1.000000e-02
<GCONST> 7.700209e+01
<MIXTURE> 5 6.979985e-02
<MEAN> 38
 7.523798e+00 -7.297403e+00 -1.006832e+01 -1.202534e+00 6.608085e+00 6.319494e+00 -7.202017e-02 -9.649980e-01 4.146241e+00 -1.945408e+00 -1.635621e+00 -5.344784e+00 1.816204e-01 4.181781e-01 1.598704e-01 -1.731871e-02 2.080947e-01 2.959561e-01 8.932951e-02 2.532210e-01 3.709254e-02 1.778639e-01 3.262062e-01 2.144624e-02 1.650145e-02 4.164801e-02 1.087576e-01 1.868254e-01 5.710663e-02 -1.231043e-02 1.690557e-02 1.476017e-01 1.753442e-01 -2.842076e-03 1.447127e-01 8.663923e-02 1.458750e-01 1.882132e-02
<VARIANCE> 38
 1.014618e+01 1.751408e+01 2.297632e+01 3.633737e+01 3.827716e+01 4.096364e+01 6.468927e+01 4.653122e+01 4.167490e+01 4.600327e+01 4.330167e+01 3.757510e+01 1.887343e-01 5.572846e-01 6.684568e-01 1.033207e+00 1.130185e+00 1.395015e+00 1.524020e+00 1.576152e+00 1.464322e+00 1.337393e+00 1.430394e+00 1.356515e+00 1.000000e-02 3.133102e-02 7.585347e-02 1.155324e-01 1.518475e-01 1.900150e-01 2.135786e-01 2.782097e-01 2.545892e-01 2.437319e-01 2.352356e-01 2.339446e-01 2.299351e-01 1.000000e-02
<GCONST> 8.118266e+01
<MIXTURE> 6 7.951250e-02
<MEAN> 38
 6.771592e+00 -9.809431e+00 -4.189137e+00 2.724870e+00 9.438100e-01 -1.750885e+00 4.975794e+00 6.327468e+00 -1.857937e+00 -2.614407e+00 -2.857237e+00 -1.428501e+00 8.087406e-02 4.497652e-01 6.633656e-01 7.025088e-02 -3.379143e-01 -1.083437e-01 2.812182e-01 4.456949e-01 1.069726e-01 3.156523e-01 2.290639e-01 1.753962e-01 1.435628e-02 2.454426e-02 1.287408e-01 1.111844e-01 2.538743e-02 6.209749e-02 1.382937e-01 -6.133069e-02 -3.017887e-02 1.502990e-01 1.219036e-01 7.558247e-02 3.098499e-02 1.880353e-02
<VARIANCE> 38
 1.031206e+01 1.815100e+01 2.748332e+01 2.900702e+01 4.379439e+01 3.820514e+01 4.654779e+01 5.884282e+01 6.013564e+01 3.329334e+01 3.344754e+01 2.424805e+01 1.467652e-01 3.445323e-01 5.806479e-01 7.010489e-01 9.491848e-01 1.049965e+00 1.245013e+00 1.227992e+00 1.163637e+00 1.106118e+00 1.026626e+00 9.074817e-01 1.000000e-02 2.188625e-02 5.252199e-02 7.804509e-02 1.060337e-01 1.378602e-01 1.578689e-01 1.765731e-01 1.805975e-01 1.781387e-01 1.775618e-01 1.672675e-01 1.442840e-01 1.000000e-02
<GCONST> 7.288601e+01
<MIXTURE> 7 6.451180e-02
<MEAN> 38
 8.294875e+00 -6.460811e+00 -8.795870e+00 -3.447670e+00 5.482110e+00 8.159433e+00 -3.283418e-01 -3.877259e-01 2.708418e+00 4.162232e-01 -1.477572e+00 -5.472624e+00 3.118775e-01 7.976773e-01 2.619144e-01 -1.622275e-03 -7.161750e-02 7.659918e-02 4.369757e-01 1.853544e-01 -1.909449e-01 3.843051e-01 4.942744e-01 1.788906e-01 1.373591e-02 1.657952e-03 2.180023e-01 1.926560e-01 2.230616e-01 2.680252e-02 -1.364346e-01 2.010342e-01 7.903851e-02 3.790571e-02 7.883105e-02 1.055611e-01 1.806557e-01 1.792330e-02
<VARIANCE> 38
 9.192594e+00 1.873214e+01 2.030948e+01 3.605243e+01 3.139655e+01 3.780849e+01 4.903312e+01 3.653556e+01 3.788111e+01 4.082204e+01 4.005176e+01 3.333334e+01 2.074436e-01 5.377488e-01 6.489495e-01 8.885496e-01 9.348047e-01 1.170290e+00 1.261760e+00 1.223072e+00 1.301814e+00 1.216819e+00 1.237086e+00 1.154480e+00 1.000000e-02 3.264736e-02 8.902441e-02 1.168248e-01 1.603625e-01 1.647176e-01 1.807202e-01 2.055953e-01 2.125269e-01 2.116813e-01 1.989728e-01 2.016216e-01 1.783767e-01 1.000000e-02
<GCONST> 7.712480e+01
<MIXTURE> 8 3.134215e-02
<MEAN> 38
 5.016690e+00 -1.103269e+01 -5.464414e+00 8.936952e-01 1.728729e+00 -3.780270e-02 8.708630e-01 1.096075e+00 -2.617099e+00 -5.930320e+00 -5.838190e+00 -1.586644e+00 3.353839e-02 2.815319e-01 3.675079e-01 -1.584354e-01 -3.243919e-01 -2.347950e-01 1.086003e-01 2.125553e-01 -1.655514e-01 2.589841e-02 -5.966292e-02 -1.425920e-01 1.533884e-02 7.446253e-02 1.467554e-01 1.069057e-01 4.837574e-02 6.605405e-02 9.681271e-02 4.509568e-02 1.147847e-01 1.647188e-01 1.923921e-01 1.347816e-01 3.593142e-02 1.883323e-02
<VARIANCE> 38
 1.142889e+01 1.624267e+01 2.589550e+01 2.610959e+01 4.664302e+01 3.377489e+01 6.430079e+01 6.272114e+01 5.279215e+01 4.538751e+01 3.693735e+01 2.774776e+01 1.466069e-01 3.445629e-01 6.162438e-01 8.583000e-01 1.286991e+00 1.156917e+00 1.557315e+00 1.398057e+00 1.482106e+00 1.394140e+00 1.328891e+00 1.151885e+00 1.000000e-02 2.196667e-02 5.004318e-02 8.508991e-02 1.075930e-01 1.637494e-01 1.742740e-01 2.187639e-01 2.238758e-01 2.223404e-01 2.263139e-01 2.121296e-01 1.864630e-01 1.000000e-02
<GCONST> 7.715386e+01
<MIXTURE> 9 8.252260e-02
<MEAN> 38
 6.684500e+00 -7.617356e+00 -1.113158e+01 -3.319729e+00 4.026058e+00 3.891268e+00 -1.754155e+00 -3.121505e+00 2.089563e+00 -2.678642e+00 -3.476107e+00 -7.397833e+00 8.058608e-02 2.861509e-01 -7.149123e-02 -3.231881e-01 -1.917616e-01 -1.304876e-01 -2.477730e-01 -1.959434e-01 -3.794588e-01 -1.354426e-01 3.675371e-03 -1.650280e-01 -2.528532e-02 -3.089754e-02 1.052068e-02 6.983692e-02 -6.519070e-02 -1.616775e-01 -1.578352e-01 -5.780985e-02 -3.005207e-02 -2.059829e-01 -6.170470e-02 -9.395843e-02 5.421273e-03 -2.141261e-02
<VARIANCE> 38
 9.823958e+00 1.666175e+01 2.419892e+01 4.101181e+01 3.751044e+01 4.349337e+01 5.378918e+01 4.236211e+01 3.761123e+01 3.900589e+01 3.766252e+01 3.524667e+01 1.963767e-01 5.528961e-01 6.641603e-01 9.651300e-01 1.047552e+00 1.339476e+00 1.438755e+00 1.485320e+00 1.374003e+00 1.311011e+00 1.332321e+00 1.218591e+00 1.000000e-02 3.264315e-02 8.009323e-02 1.193287e-01 1.491385e-01 1.843243e-01 2.063185e-01 2.593396e-01 2.405359e-01 2.397695e-01 2.257088e-01 2.263489e-01 2.085116e-01 1.000000e-02
<GCONST> 7.975459e+01
<MIXTURE> 10 7.951250e-02
<MEAN> 38
 5.487096e+00 -1.151359e+01 -6.286119e+00 5.705436e-01 -1.703283e+00 -4.223297e+00 2.246756e+00 3.259105e+00 -4.959825e+00 -4.922422e+00 -5.170591e+00 -3.398193e+00 -7.236572e-02 2.149777e-01 3.585646e-01 -2.646638e-01 -7.276188e-01 -5.182149e-01 -1.651024e-01 2.435699e-03 -3.245154e-01 -1.050363e-01 -1.762263e-01 -2.056511e-01 -2.564372e-02 -3.463175e-02 3.707007e-02 -5.617738e-04 -1.048638e-01 -8.642063e-02 -2.063723e-02 -2.294131e-01 -2.001659e-01 -1.852691e-02 -4.664874e-02 -8.801093e-02 -1.209539e-01 -2.119647e-02
<VARIANCE> 38
 1.031206e+01 1.815100e+01 2.748332e+01 2.900702e+01 4.379439e+01 3.820514e+01 4.654779e+01 5.884282e+01 6.013564e+01 3.329334e+01 3.344754e+01 2.424805e+01 1.467652e-01 3.445323e-01 5.806479e-01 7.010489e-01 9.491848e-01 1.049965e+00 1.245013e+00 1.227992e+00 1.163637e+00 1.106118e+00 1.026626e+00 9.074817e-01 1.000000e-02 2.188625e-02 5.252199e-02 7.804509e-02 1.060337e-01 1.378602e-01 1.578689e-01 1.765731e-01 1.805975e-01 1.781387e-01 1.775618e-01 1.672675e-01 1.442840e-01 1.000000e-02
<GCONST> 7.288601e+01
<MIXTURE> 11 6.979985e-02
<MEAN> 38
 6.249674e+00 -8.971395e+00 -1.198566e+01 -3.613754e+00 4.133343e+00 3.759380e+00 -3.289206e+00 -3.693550e+00 1.563997e+00 -4.658436e+00 -4.267781e+00 -7.796726e+00 7.846192e-03 1.195721e-01 -1.671664e-01 -4.239059e-01 -2.171460e-01 -1.764869e-01 -4.044753e-01 -2.489585e-01 -4.469441e-01 -2.847190e-01 -1.521901e-01 -4.444318e-01 -2.349855e-02 -2.915428e-02 -1.408447e-03 5.086518e-02 -9.876382e-02 -1.866733e-01 -1.679527e-01 -6.338069e-02 -2.648313e-02 -2.003189e-01 -4.929164e-02 -1.068321e-01 -4.593116e-02 -2.117868e-02
<VARIANCE> 38
 1.014618e+01 1.751408e+01 2.297632e+01 3.633737e+01 3.827716e+01 4.096364e+01 6.468927e+01 4.653122e+01 4.167490e+01 4.600327e+01 4.330167e+01 3.757510e+01 1.887343e-01 5.572846e-01 6.684568e-01 1.033207e+00 1.130185e+00 1.395015e+00 1.524020e+00 1.576152e+00 1.464322e+00 1.337393e+00 1.430394e+00 1.356515e+00 1.000000e-02 3.133102e-02 7.585347e-02 1.155324e-01 1.518475e-01 1.900150e-01 2.135786e-01 2.782097e-01 2.545892e-01 2.437319e-01 2.352356e-01 2.339446e-01 2.299351e-01 1.000000e-02
<GCONST> 8.118266e+01
<MIXTURE> 12 6.451180e-02
<MEAN> 38
 7.082103e+00 -8.192037e+00 -1.059851e+01 -5.849416e+00 3.240805e+00 5.699889e+00 -3.129288e+00 -2.805512e+00 2.465124e-01 -2.139462e+00 -4.009030e+00 -7.782026e+00 1.296937e-01 5.043519e-01 -6.031521e-02 -3.786739e-01 -4.583587e-01 -3.561206e-01 -1.233669e-02 -2.570160e-01 -6.473331e-01 -5.693296e-02 4.937686e-02 -2.508964e-01 -2.626409e-02 -7.061636e-02 9.865448e-02 5.593742e-02 6.288042e-02 -1.355391e-01 -3.064794e-01 1.966377e-02 -1.053641e-01 -1.461296e-01 -9.959443e-02 -7.404808e-02 1.171700e-02 -2.207670e-02
<VARIANCE> 38
 9.192594e+00 1.873214e+01 2.030948e+01 3.605243e+01 3.139655e+01 3.780849e+01 4.903312e+01 3.653556e+01 3.788111e+01 4.082204e+01 4.005176e+01 3.333334e+01 2.074436e-01 5.377488e-01 6.489495e-01 8.885496e-01 9.348047e-01 1.170290e+00 1.261760e+00 1.223072e+00 1.301814e+00 1.216819e+00 1.237086e+00 1.154480e+00 1.000000e-02 3.264736e-02 8.902441e-02 1.168248e-01 1.603625e-01 1.647176e-01 1.807202e-01 2.055953e-01 2.125269e-01 2.116813e-01 1.989728e-01 2.016216e-01 1.783767e-01 1.000000e-02
<GCONST> 7.712480e+01
<MIXTURE> 13 6.319305e-02
<MEAN> 38
 5.923753e+00 -1.039637e+01 -5.441040e+00 1.440937e+00 -1.571593e+00 -3.687429e+00 2.948629e+00 3.932229e+00 -4.000592e+00 -3.960162e+00 -4.456496e+00 -2.713141e+00 5.529262e-03 3.988142e-01 4.027857e-01 -1.170929e-01 -6.213252e-01 -4.935942e-01 -2.297375e-01 5.337982e-02 -1.915349e-01 -3.164381e-03 -1.334898e-01 -5.255894e-02 -2.775265e-02 -3.553006e-02 8.360337e-02 1.802710e-02 -5.243966e-02 -3.185515e-02 8.807831e-03 -2.244707e-01 -2.127787e-01 7.318228e-03 -3.011291e-02 -6.388938e-02 -8.093244e-02 -2.172230e-02
<VARIANCE> 38
 9.262109e+00 1.881681e+01 2.682207e+01 3.125211e+01 4.307163e+01 3.824982e+01 4.191818e+01 4.877080e+01 5.043601e+01 3.035525e+01 3.125458e+01 2.453091e+01 1.769018e-01 4.129437e-01 6.455488e-01 7.287233e-01 9.809237e-01 1.088389e+00 1.290707e+00 1.309666e+00 1.205836e+00 1.138972e+00 1.051852e+00 9.302877e-01 1.000000e-02 2.580031e-02 6.381670e-02 8.391432e-02 1.199200e-01 1.466779e-01 1.568548e-01 1.809770e-01 1.848224e-01 1.770405e-01 1.729982e-01 1.636762e-01 1.454189e-01 1.000000e-02
<GCONST> 7.364033e+01
<MIXTURE> 14 5.598200e-02
<MEAN> 38
 4.929620e+00 -1.140915e+01 -6.731675e+00 2.519196e-01 -3.181543e-01 -2.431951e+00 1.070858e-01 9.005610e-01 -4.063748e+00 -5.977686e+00 -6.480494e+00 -2.927126e+00 8.235581e-03 2.464472e-01 3.018472e-01 -2.309884e-01 -5.520765e-01 -4.400256e-01 -1.761734e-01 1.186324e-01 -2.729666e-01 -1.021383e-01 -1.675941e-01 -1.830497e-01 -2.609943e-02 1.311640e-02 8.736521e-02 1.586231e-02 -5.097586e-02 -7.378513e-02 -2.081862e-02 -1.468329e-01 -1.021809e-01 -1.130687e-02 1.478884e-02 -1.210722e-02 -1.118810e-01 -2.147836e-02
<VARIANCE> 38
 1.123386e+01 1.850477e+01 2.756628e+01 3.074921e+01 4.683769e+01 3.566734e+01 5.710433e+01 6.474238e+01 5.706094e+01 4.276842e+01 3.737304e+01 2.731274e+01 1.530453e-01 3.681189e-01 6.081172e-01 8.004509e-01 1.169830e+00 1.183914e+00 1.479717e+00 1.365903e+00 1.364566e+00 1.320934e+00 1.230017e+00 1.083945e+00 1.000000e-02 2.339529e-02 5.476485e-02 8.330208e-02 1.103703e-01 1.578446e-01 1.638526e-01 2.182999e-01 2.245558e-01 2.152455e-01 2.228131e-01 2.013997e-01 1.788611e-01 1.000000e-02
<GCONST> 7.700209e+01
<MIXTURE> 15 5.310065e-02
<MEAN> 38
 7.696294e+00 -6.987648e+00 -9.663655e+00 -5.968943e+00 2.927661e+00 5.579587e+00 -2.365436e+00 -2.382642e+00 2.850417e-01 -9.855297e-01 -3.159350e+00 -6.967875e+00 2.789579e-01 8.883215e-01 2.215184e-01 -2.152824e-01 -5.497003e-01 -5.314691e-01 8.894671e-02 -3.040249e-01 -8.003817e-01 1.082460e-01 2.987435e-01 -5.503231e-02 -3.090270e-02 -1.161681e-01 2.022421e-01 1.799384e-01 2.257979e-01 -8.720207e-02 -3.747642e-01 2.158796e-02 -1.832184e-01 -2.271060e-01 -1.040513e-01 -1.068583e-01 7.420674e-02 -2.317325e-02
<VARIANCE> 38
 8.814684e+00 1.929983e+01 1.991313e+01 3.700053e+01 2.863245e+01 3.653417e+01 4.039412e+01 3.315042e+01 3.697602e+01 3.684551e+01 3.869234e+01 3.133640e+01 2.303350e-01 5.791476e-01 7.306515e-01 9.184855e-01 9.686550e-01 1.220822e+00 1.339893e+00 1.233113e+00 1.436173e+00 1.288598e+00 1.267333e+00 1.260205e+00 1.000000e-02 3.747018e-02 1.050613e-01 1.379157e-01 2.056337e-01 1.821651e-01 2.089442e-01 2.147138e-01 2.377247e-01 2.473903e-01 2.297246e-01 2.347780e-01 1.992799e-01 1.000000e-02
<GCONST> 7.890440e+01
<MIXTURE> 16 3.134215e-02
<MEAN> 38
 3.664424e+00 -1.264477e+01 -7.499918e+00 -1.150207e+00 -1.003099e+00 -2.362449e+00 -2.336648e+00 -2.071792e+00 -5.523427e+00 -8.625131e+00 -8.269234e+00 -3.693690e+00 -1.196187e-01 4.673393e-02 5.350311e-02 -5.290134e-01 -7.781744e-01 -6.650354e-01 -3.905694e-01 -2.604025e-01 -6.525186e-01 -4.463964e-01 -5.207731e-01 -5.718956e-01 -2.466116e-02 1.517790e-02 5.727403e-02 -9.774998e-03 -8.282974e-02 -9.580980e-02 -7.017185e-02 -1.419931e-01 -7.447739e-02 -2.389315e-02 2.102263e-03 -4.944857e-02 -1.367940e-01 -2.116677e-02
<VARIANCE> 38
 1.142889e+01 1.624267e+01 2.589550e+01 2.610959e+01 4.664302e+01 3.377489e+01 6.430079e+01 6.272114e+01 5.279215e+01 4.538751e+01 3.693735e+01 2.774776e+01 1.466069e-01 3.445629e-01 6.162438e-01 8.583000e-01 1.286991e+00 1.156917e+00 1.557315e+00 1.398057e+00 1.482106e+00 1.394140e+00 1.328891e+00 1.151885e+00 1.000000e-02 2.196667e-02 5.004318e-02 8.508991e-02 1.075930e-01 1.637494e-01 1.742740e-01 2.187639e-01 2.238758e-01 2.223404e-01 2.263139e-01 2.121296e-01 1.864630e-01 1.000000e-02
<GCONST> 7.715386e+01
<STATE> 4
<NUMMIXES> 16
<SWEIGHTS> 1
 1.000000e+00
<MIXTURE> 1 5.527015e-02
<MEAN> 38
 9.511719e+00 -1.073085e+00 -5.555910e+00 -9.607569e-01 3.921750e+00 4.282822e+00 9.219319e-01 -3.150243e-01 2.521358e+00 2.089304e+00 -1.498045e+00 -3.630235e+00 -2.789070e-01 2.739444e+00 1.977412e+00 1.544498e+00 4.730838e-01 -3.468472e-01 8.542406e-01 -1.031675e-01 -1.588390e-01 5.618295e-01 7.936427e-01 7.078801e-01 -1.343961e-02 -3.972612e-01 2.425348e-01 5.455694e-01 5.296503e-01 2.303991e-01 5.095109e-02 2.079800e-01 1.282735e-01 -4.922107e-03 -6.412588e-02 8.775231e-02 2.714399e-01 1.379050e-02
<VARIANCE> 38
 9.933926e+00 1.982158e+01 2.241179e+01 3.344778e+01 2.468699e+01 3.979229e+01 3.730614e+01 3.375690e+01 4.011219e+01 4.187144e+01 4.147252e+01 3.295600e+01 8.932375e-01 1.398784e+00 1.744100e+00 2.274816e+00 2.316732e+00 2.868494e+00 2.773539e+00 3.031085e+00 3.401777e+00 2.475418e+00 2.320173e+00 2.301039e+00 1.000000e-02 1.185896e-01 2.014743e-01 2.206794e-01 3.136012e-01 2.912156e-01 3.809383e-01 4.224742e-01 4.359652e-01 4.110791e-01 4.301210e-01 4.143669e-01 3.602544e-01 1.000000e-02
<GCONST> 9.670551e+01
<MIXTURE> 2 7.188545e-02
<MEAN> 38
 7.345829e+00 -4.406326e+00 -1.183597e+00 3.762570e+00 1.632920e+00 -1.447882e+00 3.406370e+00 7.129943e+00 -1.567233e-02 -1.290137e+00 -2.595473e+00 -5.372006e-01 -6.665853e-02 1.604171e+00 1.394771e+00 9.825153e-01 4.597408e-01 1.276526e-02 5.808645e-02 7.651637e-02 4.353657e-01 7.135343e-01 4.143472e-01 5.665867e-01 -5.070131e-03 -1.712032e-01 2.809111e-01 2.031079e-01 2.265214e-01 3.791032e-01 3.774840e-01 1.102052e-01 -2.265669e-01 2.228743e-01 1.624057e-01 2.012437e-01 1.160343e-01 1.538970e-02
<VARIANCE> 38
 9.971926e+00 2.630518e+01 3.091092e+01 4.119348e+01 5.445518e+01 4.941901e+01 5.217109e+01 5.906741e+01 5.474200e+01 3.888794e+01 3.697465e+01 3.165556e+01 5.435137e-01 1.102092e+00 1.118922e+00 1.474577e+00 2.095425e+00 2.108701e+00 2.171576e+00 2.487310e+00 2.176973e+00 1.823322e+00 1.722258e+00 1.624866e+00 1.000000e-02 7.164524e-02 1.752280e-01 2.040356e-01 2.654413e-01 3.348280e-01 3.698418e-01 3.834106e-01 4.398736e-01 4.229037e-01 3.507690e-01 3.319175e-01 2.912917e-01 1.000000e-02
<GCONST> 9.416888e+01
<MIXTURE> 3 7.376380e-02
<MEAN> 38
 6.198032e+00 3.528900e+00 -6.895285e-01 2.686708e+00 4.887763e+00 2.249041e+00 2.677164e+00 3.429004e-01 8.859630e-01 7.416380e-01 -1.514267e+00 -2.172250e+00 -1.242450e+00 2.204481e+00 2.340645e+00 1.813441e+00 8.047901e-01 6.017447e-02 7.509900e-01 2.721623e-01 2.760522e-01 3.277110e-01 6.082169e-01 8.629972e-01 -2.674204e-02 -2.040658e-01 -3.151982e-01 4.113299e-02 1.325164e-01 1.774031e-01 2.634716e-01 7.309452e-02 2.304631e-01 2.028832e-01 9.974745e-02 1.280011e-01 1.323348e-01 1.732703e-02
<VARIANCE> 38
 1.708741e+01 2.922297e+01 2.861750e+01 3.477924e+01 3.300827e+01 4.038481e+01 4.084616e+01 4.183199e+01 4.433337e+01 4.070982e+01 3.594730e+01 3.010376e+01 1.856887e+00 1.982043e+00 2.033827e+00 2.767012e+00 3.195840e+00 3.676134e+00 3.547850e+00 4.201951e+00 3.960483e+00 3.330722e+00 3.254668e+00 2.715731e+00 1.000000e-02 1.826353e-01 2.605590e-01 3.310784e-01 3.563301e-01 4.030034e-01 4.229981e-01 4.706786e-01 4.945954e-01 5.239605e-01 4.587615e-01 4.474623e-01 4.029863e-01 1.000000e-02
<GCONST> 1.042761e+02
<MIXTURE> 4 4.991314e-02
<MEAN> 38
 6.081461e+00 -5.533947e+00 -3.214394e+00 2.115094e+00 4.344000e+00 2.648820e+00 1.657217e+00 2.477716e+00 8.958235e-01 -1.939330e+00 -4.021804e+00 -1.763188e+00 1.743382e-01 1.174002e+00 1.009358e+00 4.623756e-01 1.878585e-01 8.839661e-02 1.684512e-01 3.484890e-01 4.455666e-01 7.324615e-01 4.869901e-01 3.180920e-01 -5.545095e-05 1.056624e-02 3.127047e-01 2.359167e-01 3.002996e-01 1.837126e-01 9.601013e-02 1.519464e-01 3.815398e-02 1.793289e-01 2.533721e-01 3.009611e-01 1.686356e-01 1.732627e-02
<VARIANCE> 38
 1.419004e+01 3.053774e+01 4.071325e+01 5.557619e+01 6.281338e+01 5.015950e+01 5.641145e+01 4.986782e+01 5.155816e+01 4.983714e+01 4.193941e+01 3.246437e+01 7.580141e-01 1.145751e+00 1.285980e+00 1.609962e+00 2.124748e+00 1.911331e+00 2.195746e+00 2.138784e+00 1.953681e+00 2.002598e+00 1.871799e+00 1.562746e+00 1.000000e-02 1.116987e-01 2.260696e-01 2.894881e-01 3.803349e-01 4.234413e-01 3.829170e-01 4.231209e-01 4.137020e-01 4.174668e-01 4.066855e-01 3.883622e-01 3.085378e-01 1.000000e-02
<GCONST> 9.812032e+01
<MIXTURE> 5 6.367280e-02
<MEAN> 38
 5.743015e+00 3.522954e+00 -1.710607e-01 2.301718e+00 4.574684e+00 2.210549e+00 2.210447e+00 -4.849536e-01 -6.771107e-01 4.237306e-02 -1.488719e+00 -2.606327e+00 -1.195983e+00 1.805724e+00 2.165761e+00 1.686729e+00 5.966173e-01 -7.298511e-02 5.460020e-01 1.836600e-01 7.761157e-02 2.719328e-01 3.975349e-01 7.371151e-01 -2.368768e-02 -1.062238e-01 -3.798205e-01 -9.894784e-02 6.976268e-02 1.464661e-01 2.058679e-01 3.868572e-02 2.442622e-01 3.052511e-01 1.539964e-01 1.093168e-01 1.288242e-01 1.970108e-02
<VARIANCE> 38
 2.065375e+01 3.124595e+01 3.060780e+01 3.440815e+01 3.412510e+01 4.186087e+01 4.915015e+01 4.509145e+01 4.586968e+01 4.438178e+01 3.963787e+01 3.085442e+01 2.291284e+00 2.206060e+00 2.304551e+00 3.091183e+00 3.231885e+00 4.032076e+00 3.744813e+00 4.242040e+00 3.999489e+00 3.752557e+00 3.464033e+00 2.781654e+00 1.000000e-02 2.188445e-01 3.046957e-01 3.729921e-01 4.227629e-01 4.245156e-01 4.584452e-01 5.452037e-01 5.385706e-01 5.607932e-01 5.022095e-01 4.787720e-01 4.210203e-01 1.000000e-02
<GCONST> 1.073587e+02
<MIXTURE> 6 6.884975e-02
<MEAN> 38
 9.479332e+00 -1.753486e+00 -5.743387e+00 -2.039974e+00 3.531661e+00 4.156378e+00 2.644178e-01 -9.045190e-01 9.394866e-01 1.595311e+00 -1.003117e+00 -4.194795e+00 -1.293518e-01 2.475291e+00 1.870852e+00 1.436877e+00 2.272872e-01 -5.569583e-01 7.161028e-01 -2.390155e-01 -3.834640e-01 5.434880e-01 6.520078e-01 6.223872e-01 -7.809380e-03 -3.484463e-01 2.319808e-01 4.801299e-01 5.296806e-01 2.441079e-01 1.509879e-02 1.631725e-01 8.681104e-02 6.363232e-02 -2.768478e-02 4.549114e-02 2.526225e-01 1.551975e-02
<VARIANCE> 38
 1.012158e+01 2.156963e+01 2.350251e+01 3.213593e+01 2.513939e+01 4.062936e+01 4.589201e+01 3.654251e+01 4.420424e+01 4.846430e+01 4.981132e+01 3.437878e+01 9.287670e-01 1.359398e+00 1.740894e+00 2.369484e+00 2.428481e+00 3.069387e+00 2.797732e+00 3.130293e+00 3.530272e+00 2.727380e+00 2.482474e+00 2.416401e+00 1.000000e-02 1.260569e-01 2.120856e-01 2.214314e-01 3.200697e-01 2.915207e-01 3.865021e-01 4.470789e-01 4.303550e-01 4.304594e-01 4.478783e-01 4.273661e-01 3.524309e-01 1.000000e-02
<GCONST> 9.835696e+01
<MIXTURE> 7 7.865220e-02
<MEAN> 38
 7.066261e+00 -5.672918e+00 -1.840058e+00 1.926862e+00 8.137656e-01 -8.363465e-01 2.532395e+00 5.921649e+00 -1.509440e-02 -1.341773e+00 -2.976120e+00 -1.497541e+00 -2.264768e-03 1.239213e+00 1.239408e+00 5.985919e-01 1.430120e-01 -5.404723e-02 -1.044300e-01 4.014710e-02 3.238371e-01 6.851397e-01 3.257468e-01 3.196567e-01 1.008920e-03 -1.063247e-01 2.580884e-01 1.783244e-01 2.324955e-01 3.319187e-01 2.470054e-01 6.573920e-02 -1.507449e-01 1.845809e-01 1.314236e-01 1.863312e-01 1.210452e-01 1.692562e-02
<VARIANCE> 38
 1.121808e+01 2.650680e+01 3.229251e+01 3.967667e+01 5.637291e+01 4.870870e+01 5.218643e+01 6.113172e+01 5.657451e+01 4.217013e+01 4.013668e+01 3.075781e+01 5.181987e-01 9.663116e-01 1.140749e+00 1.427040e+00 1.969885e+00 1.965152e+00 2.038801e+00 2.316140e+00 1.983958e+00 1.902947e+00 1.693929e+00 1.494075e+00 1.000000e-02 7.038036e-02 1.708606e-01 1.869560e-01 2.453232e-01 3.109604e-01 3.205714e-01 3.442298e-01 4.032859e-01 3.635616e-01 3.265370e-01 3.109238e-01 2.634251e-01 1.000000e-02
<GCONST> 9.290311e+01
<MIXTURE> 8 3.798165e-02
<MEAN> 38
 5.413909e+00 -6.674007e+00 -4.286219e+00 4.634420e-01 4.141202e+00 2.599462e+00 2.444990e-01 9.043034e-01 -7.069857e-01 -3.181125e+00 -5.040864e+00 -2.264040e+00 2.768599e-01 9.127297e-01 6.882986e-01 7.667693e-02 -1.072510e-01 -8.544382e-02 -1.014841e-02 2.774411e-01 2.478942e-01 4.841597e-01 3.129790e-01 1.283202e-02 4.332270e-03 1.068665e-01 3.112769e-01 2.291354e-01 2.924804e-01 1.277265e-01 4.844358e-02 1.285291e-01 1.009218e-01 2.373741e-01 2.712057e-01 2.838196e-01 1.311603e-01 1.827833e-02
<VARIANCE> 38
 1.512354e+01 3.165259e+01 4.084999e+01 5.050977e+01 6.279846e+01 4.959267e+01 6.457432e+01 5.123289e+01 5.299361e+01 5.549472e+01 4.378701e+01 3.349644e+01 7.360504e-01 1.236021e+00 1.424729e+00 1.644104e+00 2.313391e+00 1.928525e+00 2.143991e+00 2.085515e+00 2.148330e+00 2.163532e+00 1.884086e+00 1.548672e+00 1.000000e-02 1.228623e-01 2.422721e-01 3.028136e-01 3.862330e-01 4.160646e-01 3.793013e-01 4.348893e-01 4.132616e-01 4.064345e-01 4.174204e-01 3.871309e-01 3.089338e-01 1.000000e-02
<GCONST> 9.909376e+01
<MIXTURE> 9 7.865220e-02
<MEAN> 38
 5.726525e+00 -7.732308e+00 -4.113118e+00 -5.927148e-01 -2.189510e+00 -3.628011e+00 -3.572125e-01 2.794178e+00 -3.023736e+00 -3.939315e+00 -5.510261e+00 -3.715930e+00 -2.902088e-01 8.460087e-01 8.121843e-01 1.207567e-01 -4.183984e-01 -6.147828e-01 -6.755764e-01 -5.686077e-01 -2.395751e-01 1.333503e-01 -1.948574e-01 -1.692727e-01 -3.899108e-02 -2.124419e-01 9.274722e-02 5.370781e-03 3.437507e-02 1.088634e-01 2.052934e-02 -1.689452e-01 -4.047641e-01 -5.660339e-02 -9.715010e-02 -3.671097e-02 -8.425464e-02 -2.307438e-02
<VARIANCE> 38
 1.121808e+01 2.650680e+01 3.229251e+01 3.967667e+01 5.637291e+01 4.870870e+01 5.218643e+01 6.113172e+01 5.657451e+01 4.217013e+01 4.013668e+01 3.075781e+01 5.181987e-01 9.663116e-01 1.140749e+00 1.427040e+00 1.969885e+00 1.965152e+00 2.038801e+00 2.316140e+00 1.983958e+00 1.902947e+00 1.693929e+00 1.494075e+00 1.000000e-02 7.038036e-02 1.708606e-01 1.869560e-01 2.453232e-01 3.109604e-01 3.205714e-01 3.442298e-01 4.032859e-01 3.635616e-01 3.265370e-01 3.109238e-01 2.634251e-01 1.000000e-02
<GCONST> 9.290311e+01
<MIXTURE> 10 7.376380e-02
<MEAN> 38
 4.544556e+00 1.366569e+00 -2.829342e+00 3.277515e-01 2.589650e+00 -2.929208e-01 1.207240e-01 -2.244206e+00 -1.777369e+00 -1.810532e+00 -3.912509e+00 -4.366926e+00 -1.787520e+00 1.641341e+00 1.770195e+00 1.148067e+00 8.971363e-02 -7.067555e-01 -2.439439e-03 -5.477841e-01 -5.199863e-01 -4.022996e-01 -1.134111e-01 2.038181e-01 -6.674204e-02 -3.750092e-01 -5.193782e-01 -1.890247e-01 -1.062572e-01 -7.652712e-02 3.318384e-03 -2.013296e-01 -5.084681e-02 -8.665724e-02 -1.711803e-01 -1.395694e-01 -1.215900e-01 -2.267297e-02
<VARIANCE> 38
 1.708741e+01 2.922297e+01 2.861750e+01 3.477924e+01 3.300827e+01 4.038481e+01 4.084616e+01 4.183199e+01 4.433337e+01 4.070982e+01 3.594730e+01 3.010376e+01 1.856887e+00 1.982043e+00 2.033827e+00 2.767012e+00 3.195840e+00 3.676134e+00 3.547850e+00 4.201951e+00 3.960483e+00 3.330722e+00 3.254668e+00 2.715731e+00 1.000000e-02 1.826353e-01 2.605590e-01 3.310784e-01 3.563301e-01 4.030034e-01 4.229981e-01 4.706786e-01 4.945954e-01 5.239605e-01 4.587615e-01 4.474623e-01 4.029863e-01 1.000000e-02
<GCONST> 1.042761e+02
<MIXTURE> 11 7.188545e-02
<MEAN> 38
 6.082695e+00 -6.457870e+00 -3.407501e+00 1.195284e+00 -1.318830e+00 -4.259828e+00 5.171878e-01 4.055730e+00 -2.975186e+00 -3.784545e+00 -5.027745e+00 -2.787732e+00 -3.615521e-01 1.184249e+00 9.716548e-01 4.967867e-01 -1.192825e-01 -5.680895e-01 -5.313643e-01 -5.543320e-01 -1.548171e-01 1.734125e-01 -1.105921e-01 5.670571e-02 -4.507013e-02 -2.782698e-01 1.134701e-01 2.242670e-02 2.043741e-02 1.476459e-01 1.342255e-01 -1.374754e-01 -4.918587e-01 -3.724987e-02 -7.449736e-02 -2.920542e-02 -9.985148e-02 -2.461030e-02
<VARIANCE> 38
 9.971926e+00 2.630518e+01 3.091092e+01 4.119348e+01 5.445518e+01 4.941901e+01 5.217109e+01 5.906741e+01 5.474200e+01 3.888794e+01 3.697465e+01 3.165556e+01 5.435137e-01 1.102092e+00 1.118922e+00 1.474577e+00 2.095425e+00 2.108701e+00 2.171576e+00 2.487310e+00 2.176973e+00 1.823322e+00 1.722258e+00 1.624866e+00 1.000000e-02 7.164524e-02 1.752280e-01 2.040356e-01 2.654413e-01 3.348280e-01 3.698418e-01 3.834106e-01 4.398736e-01 4.229037e-01 3.507690e-01 3.319175e-01 2.912917e-01 1.000000e-02
<GCONST> 9.416888e+01
<MIXTURE> 12 6.884975e-02
<MEAN> 38
 8.206755e+00 -3.611210e+00 -7.682563e+00 -4.307516e+00 1.526093e+00 1.606732e+00 -2.445328e+00 -3.322535e+00 -1.719964e+00 -1.189341e+00 -3.826203e+00 -6.540132e+00 -5.148420e-01 2.008919e+00 1.343080e+00 8.211524e-01 -3.960562e-01 -1.257745e+00 4.704595e-02 -9.467209e-01 -1.135025e+00 -1.171032e-01 2.177301e-02 5.961657e-04 -4.780938e-02 -4.904643e-01 4.776978e-02 2.919039e-01 3.033818e-01 2.813728e-02 -2.335784e-01 -1.042834e-01 -1.755948e-01 -1.988053e-01 -2.953796e-01 -2.160018e-01 1.515892e-02 -2.448025e-02
<VARIANCE> 38
