~o
<STREAMINFO> 1 38
<VECSIZE> 38<NULLD><MFCC_E_D_N_A_Z><DIAGC>
~h "@"
<BEGINHMM>
<NUMSTATES> 5
<STATE> 2
<NUMMIXES> 32
<SWEIGHTS> 1
 1.000000e+00
<MIXTURE> 1 1.845475e-02
<MEAN> 38
 5.770304e+00 1.707951e+00 3.244384e+00 1.571093e+00 -2.680578e+00 -2.357004e+00 -2.056804e+00 -1.690819e-01 -3.054798e-01 2.059834e+00 1.908037e+00 2.891465e+00 5.059309e-01 1.111776e+00 6.450960e-01 5.894325e-01 6.502411e-01 5.120298e-01 6.059632e-01 3.360102e-01 4.753412e-01 4.396511e-01 3.350586e-01 5.469248e-01 1.762299e-02 -3.842942e-01 3.390611e-01 2.481243e-01 4.335180e-01 7.633771e-01 4.106818e-01 3.949378e-01 3.298294e-01 3.621696e-01 5.499746e-02 1.076573e-01 -3.088830e-02 9.820029e-03
<VARIANCE> 38
 3.397909e+01 3.354216e+01 5.780959e+01 6.074651e+01 7.176652e+01 7.798023e+01 5.557411e+01 6.054357e+01 5.627514e+01 4.714999e+01 3.903521e+01 3.303537e+01 1.442997e+00 1.813933e+00 2.188938e+00 2.429183e+00 3.058860e+00 2.781112e+00 2.661242e+00 3.032237e+00 3.171866e+00 2.927807e+00 2.411732e+00 2.111787e+00 1.000000e-02 3.037712e-01 4.733960e-01 4.730945e-01 6.570380e-01 7.000993e-01 7.882091e-01 7.433965e-01 8.535616e-01 7.345664e-01 6.688619e-01 5.785594e-01 5.423880e-01 1.000000e-02
<GCONST> 1.123198e+02
<MIXTURE> 2 2.720852e-02
<MEAN> 38
 4.576742e+00 3.351243e+00 5.030968e+00 3.111403e+00 -2.797680e+00 -7.354137e+00 -2.113667e+00 1.041321e+00 1.101444e+00 -4.860939e-01 3.429086e-01 4.488581e+00 1.349635e+00 -5.002990e-03 2.065225e-01 -1.271623e-02 -4.432867e-01 2.772608e-01 5.676784e-02 2.225430e-01 6.372186e-01 7.742714e-01 2.674329e-01 6.794165e-01 3.998780e-02 -7.360673e-01 -6.206504e-02 -1.662982e-02 1.616817e-01 6.549718e-01 6.162525e-01 4.850355e-01 4.760806e-01 2.341560e-01 1.608406e-01 3.095468e-01 -6.327508e-02 8.197689e-03
<VARIANCE> 38
 1.294854e+01 1.660407e+01 2.381962e+01 2.018171e+01 3.127557e+01 3.194324e+01 3.954626e+01 3.095864e+01 3.295327e+01 2.602352e+01 2.220969e+01 1.956295e+01 8.170360e-01 1.328488e+00 1.047337e+00 1.316002e+00 1.649775e+00 1.890886e+00 1.758047e+00 1.976205e+00 2.003448e+00 1.855662e+00 1.549625e+00 1.551735e+00 1.000000e-02 1.574018e-01 2.587332e-01 2.211641e-01 2.610440e-01 3.062407e-01 3.382732e-01 3.982925e-01 3.887380e-01 3.882403e-01 3.478676e-01 3.075189e-01 2.902129e-01 1.000000e-02
<GCONST> 8.939252e+01
<MIXTURE> 3 1.641870e-02
<MEAN> 38
 6.383006e+00 8.716151e-01 -5.155325e-02 -1.253522e+00 -1.534539e+00 -5.606260e+00 -7.166975e+00 -6.845424e-01 2.760246e+00 -1.653627e+00 -3.999220e+00 1.353871e+00 1.753042e+00 -4.102016e-01 2.077208e-01 -5.814934e-01 -3.311451e-01 7.096385e-01 -3.553468e-01 2.153449e-01 8.234675e-01 1.145795e+00 5.256061e-02 6.245973e-01 4.719162e-02 -1.071756e+00 8.162166e-02 2.252834e-01 6.526200e-01 7.876805e-01 6.233609e-01 9.898890e-01 7.527845e-01 3.042244e-01 4.617801e-01 8.549668e-01 2.303618e-01 3.043730e-03
<VARIANCE> 38
 1.107840e+01 1.965037e+01 2.667189e+01 2.624508e+01 3.767995e+01 4.419523e+01 4.188231e+01 3.584720e+01 3.928295e+01 3.731152e+01 2.507011e+01 2.412466e+01 1.117656e+00 1.987185e+00 1.346544e+00 1.986009e+00 2.305178e+00 2.658400e+00 2.457845e+00 3.204242e+00 2.487170e+00 2.645997e+00 2.138694e+00 2.223860e+00 1.000000e-02 1.471437e-01 3.786193e-01 2.876032e-01 3.787314e-01 4.106406e-01 4.295094e-01 4.825530e-01 5.449862e-01 5.140619e-01 4.505090e-01 3.994961e-01 3.673552e-01 1.000000e-02
<GCONST> 9.853471e+01
<MIXTURE> 4 4.707361e-02
<MEAN> 38
 7.361418e+00 -1.402929e+00 1.350909e+00 2.634139e-01 -2.233696e+00 -1.874144e+00 -7.080168e+00 1.193421e+00 3.945332e+00 2.053904e+00 1.077812e+00 8.226490e-02 5.390530e-01 -1.327757e-01 2.441670e-01 2.757028e-01 4.277702e-02 5.950416e-01 -3.730536e-03 5.992434e-01 4.996768e-01 4.555592e-01 3.745713e-01 2.241169e-01 2.712849e-02 -3.415506e-01 4.887174e-01 1.949234e-01 3.523438e-01 5.680526e-01 1.180580e-01 6.076609e-01 -9.646490e-03 -6.515765e-02 4.400340e-02 4.085694e-02 2.173447e-01 1.053602e-02
<VARIANCE> 38
 9.876282e+00 1.737375e+01 2.974442e+01 3.008591e+01 3.328949e+01 4.831602e+01 4.814990e+01 4.403790e+01 3.904456e+01 3.902854e+01 3.488913e+01 3.327386e+01 3.822300e-01 7.895546e-01 1.041936e+00 1.178687e+00 1.504560e+00 1.652603e+00 1.686529e+00 1.821972e+00 1.752373e+00 1.829668e+00 1.571007e+00 1.427751e+00 1.000000e-02 1.438944e-01 2.117283e-01 2.060898e-01 2.614392e-01 3.140882e-01 3.435683e-01 4.151416e-01 4.155163e-01 3.964594e-01 3.768484e-01 3.708711e-01 3.363366e-01 1.000000e-02
<GCONST> 9.063435e+01
<MIXTURE> 5 6.281945e-02
<MEAN> 38
 6.967972e+00 -2.215653e+00 3.597171e-01 -1.920740e+00 -4.766093e-01 -1.422948e+00 -6.071912e+00 2.357027e+00 3.318055e+00 1.883219e+00 -7.758480e-01 -9.059714e-01 3.677878e-01 -3.267358e-01 3.247115e-01 1.219464e-01 4.875958e-02 4.827917e-01 1.941982e-02 9.934253e-01 5.968874e-01 3.242033e-01 1.308891e-01 2.335114e-01 2.617677e-02 -1.681011e-01 4.332014e-01 1.923194e-01 4.448479e-01 3.197094e-01 1.057248e-01 4.493256e-01 -1.444348e-01 -2.014477e-02 6.223377e-02 2.089334e-01 2.268131e-01 1.303296e-02
<VARIANCE> 38
 1.031105e+01 1.887655e+01 3.083528e+01 3.133439e+01 3.778209e+01 5.025857e+01 5.071001e+01 4.379005e+01 4.378233e+01 5.073981e+01 4.474311e+01 3.351893e+01 3.795504e-01 7.081869e-01 1.111143e+00 1.191673e+00 1.420157e+00 1.734433e+00 1.859595e+00 1.824198e+00 1.927337e+00 1.979312e+00 1.743819e+00 1.591191e+00 1.000000e-02 1.170225e-01 1.490655e-01 1.759382e-01 2.191058e-01 2.774639e-01 2.983280e-01 3.443300e-01 3.605838e-01 3.663314e-01 3.713939e-01 3.638071e-01 2.868159e-01 1.000000e-02
<GCONST> 9.035921e+01
<MIXTURE> 6 3.197550e-02
<MEAN> 38
 5.625618e+00 1.318371e+00 1.937407e+00 2.820034e+00 -5.387897e-01 -4.582759e+00 -4.825331e+00 -2.044280e-01 3.022018e+00 2.314425e+00 4.726917e-01 8.717054e-02 1.774621e+00 -4.367117e-01 4.849760e-02 9.803364e-02 -7.436771e-01 3.932584e-01 -2.399436e-01 1.034728e-01 4.230050e-01 7.080568e-01 7.733526e-01 -4.924145e-02 4.738983e-02 -7.583054e-01 -1.919101e-02 8.827431e-02 8.351229e-02 4.732199e-01 4.563372e-01 4.833864e-01 4.613402e-01 1.977711e-01 -9.943448e-03 1.168211e-01 3.000725e-01 7.895949e-03
<VARIANCE> 38
 1.078657e+01 1.386268e+01 2.406254e+01 1.949541e+01 2.686630e+01 3.181850e+01 3.422763e+01 3.482587e+01 2.742693e+01 2.845009e+01 2.091840e+01 2.008607e+01 8.947793e-01 1.375980e+00 1.304911e+00 1.540507e+00 1.702944e+00 2.181739e+00 2.222616e+00 2.256526e+00 2.164388e+00 2.113251e+00 1.892165e+00 1.661528e+00 1.000000e-02 1.787433e-01 2.309681e-01 2.231738e-01 2.338208e-01 2.971691e-01 3.074104e-01 3.657965e-01 3.463410e-01 3.242067e-01 3.187362e-01 2.782308e-01 2.655047e-01 1.000000e-02
<GCONST> 8.934450e+01
<MIXTURE> 7 2.701700e-02
<MEAN> 38
 6.735393e+00 1.208425e+00 3.148878e+00 -7.338660e-01 -5.300921e+00 -1.048582e+00 -9.869564e-01 -1.299464e+00 -1.535633e+00 2.089419e+00 2.293510e+00 2.986327e+00 5.220739e-01 2.682599e-01 2.469795e-01 2.876101e-01 1.976331e-01 5.600234e-01 3.092248e-01 4.475233e-01 4.781273e-01 5.971687e-01 3.138980e-01 3.604434e-01 2.401277e-02 -3.064077e-01 3.012151e-01 1.746265e-01 4.999828e-01 8.228450e-01 1.974868e-01 2.199182e-01 2.945420e-01 3.700949e-01 3.054688e-02 6.372534e-02 -1.088764e-02 1.016042e-02
<VARIANCE> 38
 1.642019e+01 2.526920e+01 5.380079e+01 5.989591e+01 5.330245e+01 8.930440e+01 5.480941e+01 5.750412e+01 5.353775e+01 4.813577e+01 4.538375e+01 3.392255e+01 5.855911e-01 1.080932e+00 1.276881e+00 1.979768e+00 2.244773e+00 2.255465e+00 2.206344e+00 2.255715e+00 2.396539e+00 2.435057e+00 2.143128e+00 1.663386e+00 1.000000e-02 1.898856e-01 2.946405e-01 3.154573e-01 4.913492e-01 4.812545e-01 6.433312e-01 5.701859e-01 6.154125e-01 5.861477e-01 5.346606e-01 5.297192e-01 4.299940e-01 1.000000e-02
<GCONST> 1.035773e+02
<MIXTURE> 8 1.609264e-02
<MEAN> 38
 4.712666e+00 1.220017e+00 -1.770824e-01 -1.294775e+00 -3.420221e+00 -7.870559e+00 -5.466558e+00 -1.205574e+00 -6.591544e-01 -4.233189e+00 -3.769717e+00 6.361315e-01 2.558057e+00 -6.609665e-01 -1.875717e-01 -1.196235e+00 -1.097912e+00 -1.175026e-01 -1.009033e+00 -2.082990e-01 5.319452e-01 7.125475e-01 -7.543576e-01 2.568963e-01 6.166695e-02 -1.029738e+00 -1.707034e-01 1.449710e-01 5.054421e-01 8.200383e-01 8.444259e-01 9.438081e-01 9.739733e-01 7.559724e-01 8.645494e-01 9.517442e-01 4.204554e-01 3.686879e-03
<VARIANCE> 38
 1.150928e+01 1.870045e+01 2.779264e+01 2.201579e+01 3.649717e+01 3.584524e+01 3.883577e+01 3.252761e+01 3.557022e+01 3.226228e+01 2.374458e+01 2.191549e+01 1.385888e+00 2.195688e+00 1.502702e+00 2.325447e+00 2.663966e+00 3.076408e+00 3.101171e+00 3.277336e+00 2.765134e+00 3.002294e+00 2.477875e+00 2.265417e+00 1.000000e-02 1.302083e-01 2.710986e-01 2.522494e-01 3.110235e-01 3.469063e-01 3.764791e-01 3.784079e-01 4.594515e-01 4.185089e-01 3.952377e-01 3.593250e-01 3.344163e-01 1.000000e-02
<GCONST> 9.707064e+01
<MIXTURE> 9 5.389305e-02
<MEAN> 38
 6.309695e+00 -3.267089e+00 -3.070270e-01 -3.196313e+00 -6.232291e-01 -1.840382e+00 -5.995730e+00 2.460130e+00 2.646112e+00 8.676956e-01 -2.297367e+00 -1.706178e+00 2.358385e-01 -5.138052e-01 2.174459e-01 -6.751697e-02 -6.745234e-03 3.944302e-01 2.053735e-02 1.055071e+00 5.479612e-01 1.641729e-01 -1.003274e-01 6.832768e-02 2.705915e-02 -9.428221e-02 4.091982e-01 1.888370e-01 4.285592e-01 2.648205e-01 8.732835e-02 3.725085e-01 -1.379676e-01 5.633280e-03 8.972998e-02 2.593295e-01 2.137469e-01 1.398622e-02
<VARIANCE> 38
 1.052161e+01 1.968159e+01 3.279772e+01 3.068577e+01 4.147823e+01 4.925477e+01 4.983971e+01 4.351905e+01 4.790622e+01 6.004008e+01 4.891950e+01 3.473028e+01 3.782297e-01 6.834731e-01 1.142130e+00 1.207809e+00 1.430314e+00 1.769012e+00 1.886070e+00 1.790460e+00 2.004536e+00 2.004596e+00 1.841760e+00 1.683585e+00 1.000000e-02 1.091856e-01 1.321028e-01 1.723945e-01 2.077416e-01 2.705855e-01 2.819749e-01 3.272249e-01 3.448974e-01 3.452190e-01 3.661473e-01 3.472116e-01 2.779914e-01 1.000000e-02
<GCONST> 9.048983e+01
<MIXTURE> 10 5.656880e-02
<MEAN> 38
 6.905094e+00 -1.963725e+00 1.118342e+00 -5.195785e-01 -2.420377e+00 -1.721157e+00 -7.124678e+00 8.433422e-01 3.555647e+00 2.025482e+00 1.014594e+00 -6.921946e-01 4.470873e-01 -4.082404e-01 2.180129e-01 8.543579e-02 -1.579466e-01 5.184419e-01 -1.280369e-01 7.352751e-01 4.951754e-01 3.525537e-01 2.910750e-01 -1.525424e-02 2.975059e-02 -2.815599e-01 4.239634e-01 1.583508e-01 3.192460e-01 5.077939e-01 8.618063e-02 5.345553e-01 1.659703e-02 -3.276602e-02 4.183353e-02 1.963532e-02 2.223545e-01 1.148890e-02
<VARIANCE> 38
 1.019578e+01 1.757484e+01 3.093480e+01 3.125316e+01 3.498576e+01 5.058578e+01 4.898247e+01 4.595113e+01 4.099387e+01 4.277809e+01 3.932706e+01 3.290499e+01 3.632920e-01 7.320243e-01 1.032479e+00 1.164023e+00 1.383131e+00 1.633385e+00 1.721920e+00 1.726140e+00 1.734773e+00 1.739293e+00 1.607120e+00 1.416159e+00 1.000000e-02 1.385834e-01 1.727120e-01 1.925422e-01 2.350416e-01 2.917811e-01 3.235558e-01 3.880046e-01 3.797661e-01 3.599231e-01 3.522142e-01 3.504125e-01 3.020815e-01 1.000000e-02
<GCONST> 8.980049e+01
<MIXTURE> 11 3.019965e-02
<MEAN> 38
 5.358860e+00 5.204750e-01 1.849648e+00 2.463131e+00 -4.978666e-01 -4.510918e+00 -5.891783e+00 -5.342505e-01 3.128898e+00 2.593214e+00 4.312337e-01 -1.022083e+00 2.006896e+00 -8.317688e-01 1.058263e-01 3.808278e-02 -1.084687e+00 3.802263e-01 -6.295695e-01 7.724592e-02 3.376968e-01 5.539159e-01 9.373662e-01 -4.789937e-01 5.384508e-02 -7.909673e-01 -2.598710e-02 7.291675e-03 7.688910e-03 4.053502e-01 4.094037e-01 4.978055e-01 4.660860e-01 2.163752e-01 -8.221962e-03 6.758485e-02 3.429945e-01 7.147269e-03
<VARIANCE> 38
 9.708631e+00 1.275390e+01 2.233915e+01 1.933511e+01 2.454620e+01 3.064691e+01 3.107029e+01 3.359637e+01 2.633928e+01 2.943245e+01 2.039857e+01 1.903676e+01 9.440587e-01 1.279344e+00 1.402702e+00 1.538458e+00 1.657990e+00 2.183119e+00 2.549969e+00 2.297474e+00 2.074395e+00 2.182574e+00 2.072982e+00 1.663699e+00 1.000000e-02 1.734331e-01 2.244206e-01 2.287012e-01 2.361263e-01 2.886029e-01 3.135680e-01 3.640948e-01 3.325836e-01 2.989607e-01 3.092268e-01 2.633377e-01 2.533359e-01 1.000000e-02
<GCONST> 8.869821e+01
<MIXTURE> 12 3.210111e-02
<MEAN> 38
 4.506275e+00 2.277262e+00 4.654033e+00 2.878732e+00 -3.147296e+00 -7.691805e+00 -3.042473e+00 5.835768e-01 9.151564e-01 -4.871324e-01 -1.390846e-01 3.502856e+00 1.471959e+00 -3.417119e-01 6.057349e-02 -6.635536e-02 -6.954723e-01 9.143400e-02 -1.149502e-01 1.244401e-01 4.874920e-01 6.389164e-01 1.585307e-01 3.574629e-01 4.463563e-02 -6.734105e-01 -4.645052e-02 -2.875419e-02 8.139116e-02 5.927100e-01 6.076456e-01 4.292577e-01 4.367436e-01 2.223119e-01 1.436803e-01 2.492815e-01 -2.207877e-02 8.394809e-03
<VARIANCE> 38
 1.189512e+01 1.584400e+01 2.379498e+01 2.045411e+01 3.036769e+01 3.194428e+01 3.894678e+01 3.267026e+01 3.466404e+01 2.747980e+01 2.186359e+01 1.923675e+01 8.076271e-01 1.216091e+00 1.100726e+00 1.382526e+00 1.649416e+00 1.898366e+00 1.900996e+00 2.055107e+00 2.040640e+00 1.930550e+00 1.650841e+00 1.523245e+00 1.000000e-02 1.557086e-01 2.399833e-01 2.241469e-01 2.482879e-01 2.922476e-01 3.255380e-01 3.883654e-01 3.687808e-01 3.593745e-01 3.298135e-01 2.800431e-01 2.690773e-01 1.000000e-02
<GCONST> 8.899201e+01
<MIXTURE> 13 2.447712e-02
<MEAN> 38
 6.379220e+00 1.760921e-01 2.474404e+00 -1.515511e+00 -5.615803e+00 -1.385581e+00 -1.205187e+00 -1.722186e+00 -1.842552e+00 1.376622e+00 1.474193e+00 2.311630e+00 4.626666e-01 -5.601938e-02 1.084797e-01 8.380687e-02 2.827740e-02 5.131197e-01 1.639226e-01 3.945757e-01 4.405821e-01 5.459397e-01 1.282260e-01 5.344759e-02 2.748829e-02 -2.308376e-01 2.895160e-01 1.806561e-01 4.701580e-01 7.611954e-01 1.974145e-01 1.650800e-01 2.922239e-01 3.470255e-01 7.636970e-02 1.035271e-01 2.276813e-02 1.110173e-02
<VARIANCE> 38
 1.642493e+01 2.597701e+01 5.316571e+01 5.880375e+01 5.450742e+01 9.333314e+01 5.504198e+01 6.046522e+01 5.717374e+01 5.412526e+01 5.388664e+01 3.971083e+01 5.478640e-01 1.026148e+00 1.324700e+00 2.029056e+00 2.206171e+00 2.332915e+00 2.411512e+00 2.309158e+00 2.474987e+00 2.605444e+00 2.314768e+00 1.738177e+00 1.000000e-02 1.851566e-01 2.569957e-01 3.138354e-01 4.626115e-01 4.795754e-01 6.491560e-01 5.540727e-01 6.131620e-01 5.721894e-01 5.433945e-01 5.481460e-01 4.340954e-01 1.000000e-02
<GCONST> 1.042821e+02
<MIXTURE> 14 2.331681e-02
<MEAN> 38
 6.331739e+00 8.568405e-01 2.372350e+00 3.097912e-01 -3.397224e+00 -1.646472e+00 -2.397504e+00 -1.017628e+00 -7.461072e-01 1.746136e+00 1.765844e+00 2.196926e+00 5.680809e-01 5.426059e-01 3.203617e-01 2.943464e-01 3.471725e-01 4.441409e-01 3.610636e-01 1.954175e-01 3.711676e-01 4.129051e-01 1.721673e-01 2.749991e-01 2.464848e-02 -3.471923e-01 3.271642e-01 2.314661e-01 4.458506e-01 7.450738e-01 3.308443e-01 3.549233e-01 3.026288e-01 3.569607e-01 8.231646e-02 8.661514e-02 3.002766e-02 1.027083e-02
<VARIANCE> 38
 2.667791e+01 3.343074e+01 6.007972e+01 6.552840e+01 6.473108e+01 8.489568e+01 5.880882e+01 6.267219e+01 5.872829e+01 5.093480e+01 4.440935e+01 3.769001e+01 1.328331e+00 1.676834e+00 2.030322e+00 2.674328e+00 3.130068e+00 2.899035e+00 2.799478e+00 2.937534e+00 3.175610e+00 3.126587e+00 2.620107e+00 2.093255e+00 1.000000e-02 2.953091e-01 4.420464e-01 4.666005e-01 6.417738e-01 6.637329e-01 7.890366e-01 7.500781e-01 8.092516e-01 7.334661e-01 6.597058e-01 5.803927e-01 5.394525e-01 1.000000e-02
<GCONST> 1.124781e+02
<MIXTURE> 15 1.790671e-02
<MEAN> 38
 6.131983e+00 -5.579935e-01 -8.040618e-01 -2.336531e+00 -2.631310e+00 -6.430192e+00 -7.361463e+00 -9.651535e-01 1.621583e+00 -1.941864e+00 -4.723302e+00 4.694448e-01 1.768139e+00 -9.222503e-01 3.197213e-02 -8.167171e-01 -6.538530e-01 4.222315e-01 -6.695222e-01 2.948066e-01 5.728477e-01 8.520759e-01 -4.508762e-01 2.322721e-01 5.313732e-02 -9.944984e-01 1.149940e-01 2.555192e-01 6.358223e-01 7.734335e-01 6.377298e-01 9.340140e-01 7.280675e-01 3.622319e-01 4.198527e-01 7.913077e-01 2.703032e-01 2.411809e-03
<VARIANCE> 38
 1.043030e+01 2.053039e+01 2.654930e+01 2.392789e+01 3.758333e+01 4.061586e+01 4.206478e+01 3.460931e+01 3.830676e+01 3.975419e+01 2.557355e+01 2.545295e+01 1.038339e+00 1.736303e+00 1.461374e+00 1.888561e+00 2.277092e+00 2.717104e+00 2.635957e+00 3.061297e+00 2.542878e+00 2.858593e+00 2.349250e+00 2.157971e+00 1.000000e-02 1.506318e-01 3.349200e-01 2.737311e-01 3.348671e-01 3.775766e-01 4.044440e-01 4.502970e-01 4.701058e-01 4.628830e-01 4.352649e-01 3.707184e-01 3.581905e-01 1.000000e-02
<GCONST> 9.756308e+01
<MIXTURE> 16 1.448850e-02
<MEAN> 38
 4.302422e+00 4.387610e-01 -1.482269e+00 -2.009127e+00 -3.508731e+00 -8.437243e+00 -5.751634e+00 -1.528372e+00 -9.929991e-01 -4.994616e+00 -4.385548e+00 5.092636e-01 3.042252e+00 -9.515023e-01 -5.011681e-01 -1.775037e+00 -1.714794e+00 -6.825133e-01 -1.787991e+00 -5.719671e-01 -1.090348e-01 -4.694292e-02 -1.702768e+00 -3.753853e-01 7.678990e-02 -9.724655e-01 -2.893617e-01 8.140360e-02 3.996709e-01 7.354379e-01 8.666608e-01 9.347242e-01 1.010739e+00 8.254566e-01 9.505424e-01 9.266565e-01 3.949100e-01 3.236309e-03
<VARIANCE> 38
 1.089565e+01 1.738533e+01 2.603201e+01 2.047083e+01 3.333706e+01 3.070298e+01 3.604286e+01 2.836312e+01 3.299031e+01 3.054547e+01 2.255467e+01 2.344153e+01 1.430728e+00 2.331434e+00 1.703307e+00 2.504535e+00 2.837525e+00 3.278738e+00 3.603446e+00 3.386775e+00 3.009107e+00 3.314628e+00 2.663220e+00 2.366360e+00 1.000000e-02 1.297927e-01 2.256419e-01 2.333360e-01 2.919044e-01 3.242349e-01 3.731386e-01 3.650939e-01 4.189758e-01 4.250552e-01 4.001533e-01 3.688174e-01 3.502291e-01 1.000000e-02
<GCONST> 9.670148e+01
<MIXTURE> 17 6.281945e-02
<MEAN> 38
 5.683538e+00 -3.953539e+00 -1.861464e+00 -4.159825e+00 -2.935295e+00 -4.258680e+00 -8.920350e+00 -2.899351e-01 6.713266e-01 -9.660568e-01 -3.451460e+00 -3.221793e+00 1.213572e-01 -6.633512e-01 -9.693154e-02 -3.147087e-01 -4.279218e-01 -4.399985e-02 -5.260481e-01 4.531738e-01 4.157308e-02 -2.385487e-01 -3.973259e-01 -2.710583e-01 -1.382323e-02 -3.049353e-01 2.787654e-01 2.453943e-02 2.576129e-01 1.090100e-01 -1.127529e-01 2.146070e-01 -3.846294e-01 -2.622460e-01 -1.815346e-01 -3.233225e-02 1.259230e-02 -2.696704e-02
<VARIANCE> 38
 1.031105e+01 1.887655e+01 3.083528e+01 3.133439e+01 3.778209e+01 5.025857e+01 5.071001e+01 4.379005e+01 4.378233e+01 5.073981e+01 4.474311e+01 3.351893e+01 3.795504e-01 7.081869e-01 1.111143e+00 1.191673e+00 1.420157e+00 1.734433e+00 1.859595e+00 1.824198e+00 1.927337e+00 1.979312e+00 1.743819e+00 1.591191e+00 1.000000e-02 1.170225e-01 1.490655e-01 1.759382e-01 2.191058e-01 2.774639e-01 2.983280e-01 3.443300e-01 3.605838e-01 3.663314e-01 3.713939e-01 3.638071e-01 2.868159e-01 1.000000e-02
<GCONST> 9.035921e+01
<MIXTURE> 18 5.656880e-02
<MEAN> 38
 5.627861e+00 -3.640619e+00 -1.106420e+00 -2.755759e+00 -4.786327e+00 -4.566105e+00 -9.924177e+00 -1.868148e+00 9.945890e-01 -5.907165e-01 -1.493858e+00 -2.986710e+00 2.059925e-01 -7.504740e-01 -1.884310e-01 -3.461238e-01 -6.283730e-01 7.226110e-03 -6.529247e-01 2.097446e-01 -3.166777e-02 -1.749754e-01 -2.160140e-01 -4.912642e-01 -1.024941e-02 -4.304671e-01 2.577288e-01 -1.716778e-02 1.253216e-01 2.917269e-01 -1.413472e-01 2.853953e-01 -2.299036e-01 -2.727404e-01 -1.955570e-01 -2.171473e-01 2.506718e-03 -2.851110e-02
<VARIANCE> 38
 1.019578e+01 1.757484e+01 3.093480e+01 3.125316e+01 3.498576e+01 5.058578e+01 4.898247e+01 4.595113e+01 4.099387e+01 4.277809e+01 3.932706e+01 3.290499e+01 3.632920e-01 7.320243e-01 1.032479e+00 1.164023e+00 1.383131e+00 1.633385e+00 1.721920e+00 1.726140e+00 1.734773e+00 1.739293e+00 1.607120e+00 1.416159e+00 1.000000e-02 1.385834e-01 1.727120e-01 1.925422e-01 2.350416e-01 2.917811e-01 3.235558e-01 3.880046e-01 3.797661e-01 3.599231e-01 3.522142e-01 3.504125e-01 3.020815e-01 1.000000e-02
<GCONST> 8.980049e+01
<MIXTURE> 19 5.389305e-02
<MEAN> 38
 5.012213e+00 -5.041646e+00 -2.597799e+00 -5.412103e+00 -3.199373e+00 -4.647652e+00 -8.819620e+00 -1.786284e-01 -1.224604e-01 -2.231726e+00 -5.095066e+00 -4.063474e+00 -1.016307e-02 -8.444948e-01 -2.100360e-01 -5.071184e-01 -4.851282e-01 -1.375866e-01 -5.287998e-01 5.198386e-01 -1.836529e-02 -4.021621e-01 -6.431732e-01 -4.506845e-01 -1.294085e-02 -2.264552e-01 2.638144e-01 2.275537e-02 2.462444e-01 5.674913e-02 -1.250769e-01 1.436942e-01 -3.728794e-01 -2.293881e-01 -1.523105e-01 2.363088e-02 2.847321e-03 -2.601378e-02
<VARIANCE> 38
 1.052161e+01 1.968159e+01 3.279772e+01 3.068577e+01 4.147823e+01 4.925477e+01 4.983971e+01 4.351905e+01 4.790622e+01 6.004008e+01 4.891950e+01 3.473028e+01 3.782297e-01 6.834731e-01 1.142130e+00 1.207809e+00 1.430314e+00 1.769012e+00 1.886070e+00 1.790460e+00 2.004536e+00 2.004596e+00 1.841760e+00 1.683585e+00 1.000000e-02 1.091856e-01 1.321028e-01 1.723945e-01 2.077416e-01 2.705855e-01 2.819749e-01 3.272249e-01 3.448974e-01 3.452190e-01 3.661473e-01 3.472116e-01 2.779914e-01 1.000000e-02
<GCONST> 9.048983e+01
<MIXTURE> 20 4.707361e-02
<MEAN> 38
 6.104356e+00 -3.070203e+00 -8.306291e-01 -1.930611e+00 -4.541578e+00 -4.654533e+00 -9.855774e+00 -1.461021e+00 1.445906e+00 -4.450094e-01 -1.284869e+00 -2.225075e+00 2.917540e-01 -4.882033e-01 -1.641341e-01 -1.585665e-01 -4.478650e-01 8.082718e-02 -5.231963e-01 5.932161e-02 -2.983205e-02 -8.550176e-02 -1.267879e-01 -2.538372e-01 -1.287151e-02 -4.932842e-01 3.046616e-01 1.333497e-02 1.478193e-01 3.438783e-01 -1.164008e-01 3.499349e-01 -2.674887e-01 -3.170177e-01 -2.015485e-01 -2.027398e-01 -1.463348e-02 -2.946398e-02
<VARIANCE> 38
 9.876282e+00 1.737375e+01 2.974442e+01 3.008591e+01 3.328949e+01 4.831602e+01 4.814990e+01 4.403790e+01 3.904456e+01 3.902854e+01 3.488913e+01 3.327386e+01 3.822300e-01 7.895546e-01 1.041936e+00 1.178687e+00 1.504560e+00 1.652603e+00 1.686529e+00 1.821972e+00 1.752373e+00 1.829668e+00 1.571007e+00 1.427751e+00 1.000000e-02 1.438944e-01 2.117283e-01 2.060898e-01 2.614392e-01 3.140882e-01 3.435683e-01 4.151416e-01 4.155163e-01 3.964594e-01 3.768484e-01 3.708711e-01 3.363366e-01 1.000000e-02
<GCONST> 9.063435e+01
<MIXTURE> 21 3.210111e-02
<MEAN> 38
 3.126703e+00 6.850815e-01 2.702829e+00 1.069684e+00 -5.351572e+00 -9.952576e+00 -5.538767e+00 -1.702739e+00 -1.439891e+00 -2.583980e+00 -2.009425e+00 1.748468e+00 1.112487e+00 -7.828180e-01 -3.590885e-01 -5.366789e-01 -1.209191e+00 -4.596908e-01 -6.664566e-01 -4.489857e-01 -8.391196e-02 8.313942e-02 -3.554096e-01 -1.362163e-01 4.635630e-03 -8.312503e-01 -2.424029e-01 -2.181308e-01 -1.179228e-01 3.764703e-01 3.794218e-01 1.799819e-01 1.938343e-01 -1.747950e-02 -8.603731e-02 3.760511e-02 -2.295694e-01 -3.160519e-02
<VARIANCE> 38
 1.189512e+01 1.584400e+01 2.379498e+01 2.045411e+01 3.036769e+01 3.194428e+01 3.894678e+01 3.267026e+01 3.466404e+01 2.747980e+01 2.186359e+01 1.923675e+01 8.076271e-01 1.216091e+00 1.100726e+00 1.382526e+00 1.649416e+00 1.898366e+00 1.900996e+00 2.055107e+00 2.040640e+00 1.930550e+00 1.650841e+00 1.523245e+00 1.000000e-02 1.557086e-01 2.399833e-01 2.241469e-01 2.482879e-01 2.922476e-01 3.255380e-01 3.883654e-01 3.687808e-01 3.593745e-01 3.298135e-01 2.800431e-01 2.690773e-01 1.000000e-02
<GCONST> 8.899201e+01
<MIXTURE> 22 3.197550e-02
<MEAN> 38
 4.311902e+00 -1.709343e-01 -2.473623e-02 1.053890e+00 -2.612098e+00 -6.839075e+00 -7.165507e+00 -2.564966e+00 9.271895e-01 1.808804e-01 -1.356774e+00 -1.705529e+00 1.396250e+00 -9.059204e-01 -4.084332e-01 -3.984350e-01 -1.265665e+00 -1.975701e-01 -8.362812e-01 -4.973968e-01 -1.654694e-01 1.265758e-01 2.231286e-01 -5.648426e-01 7.389830e-03 -9.274176e-01 -2.114276e-01 -1.006908e-01 -1.099078e-01 2.551671e-01 2.345588e-01 2.414620e-01 2.259372e-01 -2.998553e-02 -2.357703e-01 -9.416930e-02 9.396391e-02 -3.210405e-02
<VARIANCE> 38
 1.078657e+01 1.386268e+01 2.406254e+01 1.949541e+01 2.686630e+01 3.181850e+01 3.422763e+01 3.482587e+01 2.742693e+01 2.845009e+01 2.091840e+01 2.008607e+01 8.947793e-01 1.375980e+00 1.304911e+00 1.540507e+00 1.702944e+00 2.181739e+00 2.222616e+00 2.256526e+00 2.164388e+00 2.113251e+00 1.892165e+00 1.661528e+00 1.000000e-02 1.787433e-01 2.309681e-01 2.231738e-01 2.338208e-01 2.971691e-01 3.074104e-01 3.657965e-01 3.463410e-01 3.242067e-01 3.187362e-01 2.782308e-01 2.655047e-01 1.000000e-02
<GCONST> 8.934450e+01
<MIXTURE> 23 3.019965e-02
<MEAN> 38
 4.112513e+00 -9.080291e-01 -4.092449e-02 7.042628e-01 -2.479631e+00 -6.725304e+00 -8.121412e+00 -2.852746e+00 1.076026e+00 4.231464e-01 -1.375357e+00 -2.767329e+00 1.618246e+00 -1.284201e+00 -3.679165e-01 -4.580556e-01 -1.599739e+00 -2.107890e-01 -1.268314e+00 -5.290509e-01 -2.384136e-01 -3.702563e-02 3.614521e-01 -9.949316e-01 1.384508e-02 -9.575485e-01 -2.154793e-01 -1.839992e-01 -1.866824e-01 1.904632e-01 1.854151e-01 2.564445e-01 2.354058e-01 -2.333991e-03 -2.306546e-01 -1.376809e-01 1.416645e-01 -3.285273e-02
<VARIANCE> 38
 9.708631e+00 1.275390e+01 2.233915e+01 1.933511e+01 2.454620e+01 3.064691e+01 3.107029e+01 3.359637e+01 2.633928e+01 2.943245e+01 2.039857e+01 1.903676e+01 9.440587e-01 1.279344e+00 1.402702e+00 1.538458e+00 1.657990e+00 2.183119e+00 2.549969e+00 2.297474e+00 2.074395e+00 2.182574e+00 2.072982e+00 1.663699e+00 1.000000e-02 1.734331e-01 2.244206e-01 2.287012e-01 2.361263e-01 2.886029e-01 3.135680e-01 3.640948e-01 3.325836e-01 2.989607e-01 3.092268e-01 2.633377e-01 2.533359e-01 1.000000e-02
<GCONST> 8.869821e+01
<MIXTURE> 24 2.720852e-02
<MEAN> 38
 3.137378e+00 1.721319e+00 3.078754e+00 1.314441e+00 -5.034662e+00 -9.614872e+00 -4.629099e+00 -1.184299e+00 -1.194753e+00 -2.526624e+00 -1.542178e+00 2.719379e+00 9.880749e-01 -4.660432e-01 -2.028355e-01 -4.715848e-01 -9.570609e-01 -2.727772e-01 -4.735976e-01 -3.397672e-01 7.104579e-02 2.293806e-01 -2.305028e-01 1.811419e-01 -1.220033e-05 -8.947629e-01 -2.655284e-01 -2.047422e-01 -4.268820e-02 4.336158e-01 3.836075e-01 2.325938e-01 2.266852e-01 -1.507977e-02 -7.508066e-02 8.772923e-02 -2.787607e-01 -3.180231e-02
<VARIANCE> 38
 1.294854e+01 1.660407e+01 2.381962e+01 2.018171e+01 3.127557e+01 3.194324e+01 3.954626e+01 3.095864e+01 3.295327e+01 2.602352e+01 2.220969e+01 1.956295e+01 8.170360e-01 1.328488e+00 1.047337e+00 1.316002e+00 1.649775e+00 1.890886e+00 1.758047e+00 1.976205e+00 2.003448e+00 1.855662e+00 1.549625e+00 1.551735e+00 1.000000e-02 1.574018e-01 2.587332e-01 2.211641e-01 2.610440e-01 3.062407e-01 3.382732e-01 3.982925e-01 3.887380e-01 3.882403e-01 3.478676e-01 3.075189e-01 2.902129e-01 1.000000e-02
<GCONST> 8.939252e+01
<MIXTURE> 25 2.701700e-02
<MEAN> 38
 5.114519e+00 -8.023143e-01 2.149166e-01 -3.829564e+00 -8.221263e+00 -4.828622e+00 -3.948292e+00 -4.332723e+00 -4.462413e+00 -6.857792e-01 -4.011881e-01 6.566045e-01 2.159782e-01 -1.476116e-01 -2.050171e-01 -2.752069e-01 -4.016695e-01 -4.070482e-02 -2.849259e-01 -1.532383e-01 -1.411031e-01 -2.701807e-02 -2.716791e-01 -1.554459e-01 -1.598723e-02 -4.807112e-01 8.409191e-02 -5.003588e-02 2.195976e-01 5.453550e-01 -1.233449e-01 -8.212443e-02 -1.925096e-02 6.385373e-02 -2.619351e-01 -2.274019e-01 -2.731833e-01 -2.983958e-02
<VARIANCE> 38
 1.642019e+01 2.526920e+01 5.380079e+01 5.989591e+01 5.330245e+01 8.930440e+01 5.480941e+01 5.750412e+01 5.353775e+01 4.813577e+01 4.538375e+01 3.392255e+01 5.855911e-01 1.080932e+00 1.276881e+00 1.979768e+00 2.244773e+00 2.255465e+00 2.206344e+00 2.255715e+00 2.396539e+00 2.435057e+00 2.143128e+00 1.663386e+00 1.000000e-02 1.898856e-01 2.946405e-01 3.154573e-01 4.913492e-01 4.812545e-01 6.433312e-01 5.701859e-01 6.154125e-01 5.861477e-01 5.346606e-01 5.297192e-01 4.299940e-01 1.000000e-02
<GCONST> 1.035773e+02
<MIXTURE> 26 2.447712e-02
<MEAN> 38
 4.758112e+00 -1.862614e+00 -4.421884e-01 -4.582855e+00 -8.568969e+00 -5.249945e+00 -4.172799e+00 -4.832561e+00 -4.867085e+00 -1.566172e+00 -1.462108e+00 -2.090317e-01 1.665952e-01 -4.612153e-01 -3.519027e-01 -4.859729e-01 -5.658500e-01 -9.783567e-02 -4.572392e-01 -2.132609e-01 -1.887015e-01 -9.971575e-02 -4.803486e-01 -4.739122e-01 -1.251171e-02 -4.029570e-01 8.673701e-02 -4.342793e-02 1.980958e-01 4.841898e-01 -1.248663e-01 -1.326643e-01 -2.099472e-02 4.445270e-02 -2.184915e-01 -1.926204e-01 -2.407755e-01 -2.889827e-02
<VARIANCE> 38
 1.642493e+01 2.597701e+01 5.316571e+01 5.880375e+01 5.450742e+01 9.333314e+01 5.504198e+01 6.046522e+01 5.717374e+01 5.412526e+01 5.388664e+01 3.971083e+01 5.478640e-01 1.026148e+00 1.324700e+00 2.029056e+00 2.206171e+00 2.332915e+00 2.411512e+00 2.309158e+00 2.474987e+00 2.605444e+00 2.314768e+00 1.738177e+00 1.000000e-02 1.851566e-01 2.569957e-01 3.138354e-01 4.626115e-01 4.795754e-01 6.491560e-01 5.540727e-01 6.131620e-01 5.721894e-01 5.433945e-01 5.481460e-01 4.340954e-01 1.000000e-02
<GCONST> 1.042821e+02
<MIXTURE> 27 2.331681e-02
<MEAN> 38
 4.265713e+00 -1.455932e+00 -7.280943e-01 -2.928193e+00 -6.615450e+00 -5.332026e+00 -5.464980e+00 -4.184258e+00 -3.811483e+00 -1.108609e+00 -8.997695e-01 -2.587615e-01 1.070679e-01 2.463543e-02 -2.495958e-01 -3.597886e-01 -3.605074e-01 -2.369213e-01 -3.082021e-01 -4.901519e-01 -3.416421e-01 -2.943812e-01 -4.753025e-01 -3.037243e-01 -1.535152e-02 -5.645617e-01 6.121795e-02 -4.176653e-02 1.254074e-01 4.191946e-01 -2.446656e-02 8.495107e-03 -5.720483e-02 1.439013e-02 -2.425727e-01 -2.181189e-01 -2.637621e-01 -2.972917e-02
<VARIANCE> 38
 2.667791e+01 3.343074e+01 6.007972e+01 6.552840e+01 6.473108e+01 8.489568e+01 5.880882e+01 6.267219e+01 5.872829e+01 5.093480e+01 4.440935e+01 3.769001e+01 1.328331e+00 1.676834e+00 2.030322e+00 2.674328e+00 3.130068e+00 2.899035e+00 2.799478e+00 2.937534e+00 3.175610e+00 3.126587e+00 2.620107e+00 2.093255e+00 1.000000e-02 2.953091e-01 4.420464e-01 4.666005e-01 6.417738e-01 6.637329e-01 7.890366e-01 7.500781e-01 8.092516e-01 7.334661e-01 6.597058e-01 5.803927e-01 5.394525e-01 1.000000e-02
<GCONST> 1.124781e+02
<MIXTURE> 28 1.845475e-02
<MEAN> 38
 3.438640e+00 -6.086723e-01 2.030796e-01 -1.546509e+00 -6.069183e+00 -5.889260e+00 -5.038726e+00 -3.281472e+00 -3.306150e+00 -6.868002e-01 -5.910897e-01 5.924089e-01 2.543168e-02 5.730469e-01 5.329359e-02 -3.400102e-02 -4.934275e-02 -1.550368e-01 -4.656938e-02 -3.605226e-01 -2.370482e-01 -2.447824e-01 -2.861314e-01 -3.435478e-02 -2.237701e-02 -6.047560e-01 6.384595e-02 -2.700313e-02 1.092864e-01 4.286894e-01 5.555722e-02 5.005601e-02 -3.972420e-02 1.934220e-02 -2.721385e-01 -1.965950e-01 -3.254763e-01 -3.017997e-02
<VARIANCE> 38
 3.397909e+01 3.354216e+01 5.780959e+01 6.074651e+01 7.176652e+01 7.798023e+01 5.557411e+01 6.054357e+01 5.627514e+01 4.714999e+01 3.903521e+01 3.303537e+01 1.442997e+00 1.813933e+00 2.188938e+00 2.429183e+00 3.058860e+00 2.781112e+00 2.661242e+00 3.032237e+00 3.171866e+00 2.927807e+00 2.411732e+00 2.111787e+00 1.000000e-02 3.037712e-01 4.733960e-01 4.730945e-01 6.570380e-01 7.000993e-01 7.882091e-01 7.433965e-01 8.535616e-01 7.345664e-01 6.688619e-01 5.785594e-01 5.423880e-01 1.000000e-02
<GCONST> 1.123198e+02
<MIXTURE> 29 1.790671e-02
<MEAN> 38
 4.840145e+00 -2.370412e+00 -2.865102e+00 -4.293177e+00 -5.083520e+00 -8.979416e+00 -9.955758e+00 -3.318341e+00 -8.541152e-01 -4.463902e+00 -6.746114e+00 -1.548592e+00 1.360543e+00 -1.449326e+00 -4.515771e-01 -1.366417e+00 -1.257454e+00 -2.371141e-01 -1.318947e+00 -4.050559e-01 -6.500849e-02 1.757810e-01 -1.063967e+00 -3.553292e-01 1.313732e-02 -1.149744e+00 -1.164951e-01 4.624186e-02 4.043515e-01 5.276445e-01 3.833461e-01 6.655972e-01 4.538105e-01 9.008989e-02 1.559543e-01 5.477611e-01 3.090716e-02 -3.758819e-02
<VARIANCE> 38
 1.043030e+01 2.053039e+01 2.654930e+01 2.392789e+01 3.758333e+01 4.061586e+01 4.206478e+01 3.460931e+01 3.830676e+01 3.975419e+01 2.557355e+01 2.545295e+01 1.038339e+00 1.736303e+00 1.461374e+00 1.888561e+00 2.277092e+00 2.717104e+00 2.635957e+00 3.061297e+00 2.542878e+00 2.858593e+00 2.349250e+00 2.157971e+00 1.000000e-02 1.506318e-01 3.349200e-01 2.737311e-01 3.348671e-01 3.775766e-01 4.044440e-01 4.502970e-01 4.701058e-01 4.628830e-01 4.352649e-01 3.707184e-01 3.581905e-01 1.000000e-02
<GCONST> 9.756308e+01
<MIXTURE> 30 1.641870e-02
<MEAN> 38
 5.051636e+00 -9.015344e-01 -2.117347e+00 -3.302720e+00 -3.989899e+00 -8.265440e+00 -9.755636e+00 -3.079444e+00 2.532017e-01 -4.096953e+00 -6.002022e+00 -6.108037e-01 1.330164e+00 -9.740718e-01 -2.564419e-01 -1.145197e+00 -9.384576e-01 5.745447e-02 -9.824474e-01 -5.006709e-01 1.926369e-01 4.951339e-01 -5.324104e-01 2.809283e-02 7.191621e-03 -1.225194e+00 -1.645065e-01 1.076880e-02 4.064553e-01 5.313555e-01 3.612131e-01 7.120248e-01 4.574918e-01 1.743197e-02 1.933002e-01 6.021440e-01 -1.207757e-02 -3.695627e-02
<VARIANCE> 38
 1.107840e+01 1.965037e+01 2.667189e+01 2.624508e+01 3.767995e+01 4.419523e+01 4.188231e+01 3.584720e+01 3.928295e+01 3.731152e+01 2.507011e+01 2.412466e+01 1.117656e+00 1.987185e+00 1.346544e+00 1.986009e+00 2.305178e+00 2.658400e+00 2.457845e+00 3.204242e+00 2.487170e+00 2.645997e+00 2.138694e+00 2.223860e+00 1.000000e-02 1.471437e-01 3.786193e-01 2.876032e-01 3.787314e-01 4.106406e-01 4.295094e-01 4.825530e-01 5.449862e-01 5.140619e-01 4.505090e-01 3.994961e-01 3.673552e-01 1.000000e-02
<GCONST> 9.853471e+01
<MIXTURE> 31 1.609264e-02
<MEAN> 38
 3.355653e+00 -5.097435e-01 -2.285831e+00 -3.171615e+00 -5.836737e+00 -1.026540e+01 -7.959292e+00 -3.486894e+00 -3.044785e+00 -6.505185e+00 -5.718853e+00 -1.236428e+00 2.087162e+00 -1.253681e+00 -6.779107e-01 -1.806211e+00 -1.750778e+00 -8.190902e-01 -1.713439e+00 -9.324355e-01 -1.332026e-01 1.946232e-02 -1.384008e+00 -3.451557e-01 2.166695e-02 -1.174076e+00 -3.789720e-01 -5.592673e-02 2.823641e-01 5.844433e-01 5.989943e-01 6.977485e-01 7.028419e-01 4.972034e-01 6.130776e-01 7.119693e-01 1.891404e-01 -3.631312e-02
<VARIANCE> 38
 1.150928e+01 1.870045e+01 2.779264e+01 2.201579e+01 3.649717e+01 3.584524e+01 3.883577e+01 3.252761e+01 3.557022e+01 3.226228e+01 2.374458e+01 2.191549e+01 1.385888e+00 2.195688e+00 1.502702e+00 2.325447e+00 2.663966e+00 3.076408e+00 3.101171e+00 3.277336e+00 2.765134e+00 3.002294e+00 2.477875e+00 2.265417e+00 1.000000e-02 1.302083e-01 2.710986e-01 2.522494e-01 3.110235e-01 3.469063e-01 3.764791e-01 3.784079e-01 4.594515e-01 4.185089e-01 3.952377e-01 3.593250e-01 3.344163e-01 1.000000e-02
<GCONST> 9.707064e+01
<MIXTURE> 32 1.448850e-02
<MEAN> 38
 2.982080e+00 -1.229068e+00 -3.523132e+00 -3.818915e+00 -5.818261e+00 -1.065365e+01 -8.153063e+00 -3.658654e+00 -3.290487e+00 -7.205334e+00 -6.285218e+00 -1.427395e+00 2.563800e+00 -1.562264e+00 -1.023211e+00 -2.408066e+00 -2.388592e+00 -1.406805e+00 -2.547301e+00 -1.308095e+00 -8.029060e-01 -7.751877e-01 -2.355543e+00 -9.907045e-01 3.678990e-02 -1.116572e+00 -4.793689e-01 -1.118159e-01 1.835581e-01 5.076714e-01 6.223205e-01 6.930321e-01 7.518260e-01 5.646716e-01 6.975118e-01 6.837351e-01 1.581894e-01 -3.676369e-02
<VARIANCE> 38
 1.089565e+01 1.738533e+01 2.603201e+01 2.047083e+01 3.333706e+01 3.070298e+01 3.604286e+01 2.836312e+01 3.299031e+01 3.054547e+01 2.255467e+01 2.344153e+01 1.430728e+00 2.331434e+00 1.703307e+00 2.504535e+00 2.837525e+00 3.278738e+00 3.603446e+00 3.386775e+00 3.009107e+00 3.314628e+00 2.663220e+00 2.366360e+00 1.000000e-02 1.297927e-01 2.256419e-01 2.333360e-01 2.919044e-01 3.242349e-01 3.731386e-01 3.650939e-01 4.189758e-01 4.250552e-01 4.001533e-01 3.688174e-01 3.502291e-01 1.000000e-02
<GCONST> 9.670148e+01
<STATE> 3
<NUMMIXES> 32
<SWEIGHTS> 1
 1.000000e+00
<MIXTURE> 1 1.271486e-02
<MEAN> 38
 5.788893e+00 3.797588e+00 4.341836e+00 3.676683e+00 -2.244906e+00 -7.363730e+00 -2.817829e+00 1.676543e+00 2.250180e+00 8.268682e-01 -4.082857e-01 5.433925e+00 -5.954610e-01 2.194707e+00 9.861932e-01 1.278650e+00 1.819361e+00 1.099319e+00 1.245500e+00 7.063063e-01 9.456410e-01 2.574631e-01 5.013474e-01 -1.542930e-01 -1.510296e-02 -3.920332e-01 2.107060e-01 3.580773e-01 2.425766e-01 4.511682e-01 5.546913e-01 3.732004e-01 2.267748e-01 2.359855e-02 -4.112616e-03 1.524173e-01 -3.301789e-01 9.690910e-03
<VARIANCE> 38
 1.194503e+01 1.779475e+01 2.498798e+01 2.160532e+01 3.919304e+01 3.113987e+01 3.877496e+01 3.285599e+01 3.930838e+01 3.366528e+01 2.866859e+01 2.698741e+01 1.183809e+00 1.709128e+00 1.726505e+00 2.008008e+00 2.219553e+00 2.401107e+00 2.675145e+00 2.933531e+00 2.665369e+00 2.394778e+00 2.503250e+00 2.293674e+00 1.000000e-02 1.579480e-01 2.773587e-01 2.743981e-01 2.839914e-01 4.339980e-01 3.525227e-01 4.114992e-01 4.606444e-01 4.745587e-01 4.094738e-01 3.851576e-01 3.754290e-01 1.000000e-02
<GCONST> 9.686591e+01
<MIXTURE> 2 3.860487e-02
<MEAN> 38
 6.230293e+00 1.749575e-01 4.517277e+00 3.230676e+00 -3.580719e+00 -5.231842e+00 -2.380065e+00 3.757377e+00 1.363187e+00 -2.997971e-02 1.091106e-01 2.981319e+00 1.340608e-01 8.451918e-01 3.449821e-01 8.007933e-01 9.064100e-01 5.407522e-01 5.768849e-01 7.096969e-02 2.184093e-01 2.123159e-01 7.202365e-02 3.819650e-01 7.170640e-03 -1.075699e-01 3.304902e-01 1.200471e-01 1.827606e-01 4.025395e-01 2.617525e-01 2.743459e-01 -3.609280e-02 1.063078e-01 9.511771e-02 6.271842e-02 1.936626e-02 1.435755e-02
<VARIANCE> 38
 8.063288e+00 1.534083e+01 2.312017e+01 2.341174e+01 2.921438e+01 3.580986e+01 5.331718e+01 3.495033e+01 3.884880e+01 3.213349e+01 2.699047e+01 3.063327e+01 3.073283e-01 7.338772e-01 8.142527e-01 9.725195e-01 1.361791e+00 1.414609e+00 1.542325e+00 1.504876e+00 1.581676e+00 1.431150e+00 1.323216e+00 1.234394e+00 1.000000e-02 6.276284e-02 1.491012e-01 1.314191e-01 1.812860e-01 2.205744e-01 2.481279e-01 2.997124e-01 2.983568e-01 3.151684e-01 2.631395e-01 2.399674e-01 2.410872e-01 1.000000e-02
<GCONST> 8.208578e+01
<MIXTURE> 3 4.589528e-02
<MEAN> 38
 6.082735e+00 -9.852957e-01 2.760283e+00 7.522060e-01 -1.420752e+00 -2.750502e+00 -1.907221e+00 3.068282e+00 2.084507e+00 8.602642e-01 -3.865366e-01 1.489581e+00 1.512112e-01 3.130613e-01 2.646130e-01 4.484082e-01 3.665102e-01 3.511831e-01 3.643390e-01 2.126222e-01 1.331074e-01 1.551400e-01 1.910762e-01 3.289978e-01 1.378100e-02 2.607530e-02 1.769544e-01 8.548447e-02 2.015975e-01 1.436204e-01 1.144121e-01 1.031404e-01 -2.355748e-02 5.070566e-02 5.881780e-02 9.879227e-02 8.391613e-02 1.701904e-02
<VARIANCE> 38
 9.546453e+00 1.526974e+01 2.752484e+01 3.092812e+01 3.511472e+01 4.925884e+01 6.039035e+01 3.908446e+01 3.924311e+01 4.138407e+01 3.464349e+01 3.581580e+01 1.588952e-01 3.737763e-01 4.819622e-01 6.486198e-01 7.619069e-01 8.972917e-01 9.576864e-01 9.659519e-01 1.024102e+00 1.004100e+00 9.032888e-01 8.178317e-01 1.000000e-02 2.569048e-02 6.063595e-02 7.155849e-02 1.059823e-01 1.213783e-01 1.459456e-01 1.601278e-01 1.671175e-01 1.702373e-01 1.716845e-01 1.569678e-01 1.437558e-01 1.000000e-02
<GCONST> 7.105229e+01
<MIXTURE> 4 1.578742e-02
<MEAN> 38
 7.958272e+00 -4.707416e-01 1.340255e+00 7.558868e-01 -9.552814e-01 -9.212164e-01 -8.144702e+00 5.468162e-01 3.743374e+00 1.919830e+00 6.539822e-02 -4.245262e-01 2.698680e-01 1.443570e+00 5.239635e-01 1.031257e+00 1.385128e+00 7.354704e-01 1.188813e+00 -3.050478e-01 1.631086e-01 6.345721e-01 4.380144e-01 3.451445e-01 4.739559e-03 -3.162451e-01 5.662043e-01 2.922343e-01 4.206946e-01 4.695434e-01 6.485699e-02 8.344348e-01 7.552944e-02 -1.154229e-01 8.769961e-02 1.387864e-01 2.107746e-01 1.092442e-02
<VARIANCE> 38
 1.464942e+01 2.286625e+01 3.601881e+01 3.982765e+01 3.908097e+01 5.353144e+01 5.042919e+01 5.662415e+01 5.004863e+01 5.355004e+01 4.372497e+01 3.033673e+01 8.225763e-01 1.435038e+00 1.545811e+00 2.076456e+00 2.509408e+00 2.866442e+00 2.627036e+00 3.022372e+00 3.022254e+00 2.776987e+00 2.486367e+00 2.139731e+00 1.000000e-02 1.721378e-01 3.118686e-01 3.415403e-01 3.902846e-01 4.307108e-01 4.982282e-01 5.354765e-01 6.760045e-01 6.477987e-01 6.582541e-01 5.286989e-01 4.274886e-01 1.000000e-02
<GCONST> 1.037399e+02
<MIXTURE> 5 5.099330e-02
<MEAN> 38
 6.398130e+00 -4.965518e-01 2.737571e+00 2.328368e+00 -3.249552e+00 -3.385990e+00 -4.079966e+00 1.803087e+00 3.282330e+00 8.923604e-01 9.050393e-01 8.189082e-01 1.568185e-01 3.806245e-01 2.880389e-01 4.364926e-01 4.883395e-01 4.427560e-01 4.573411e-01 2.679754e-01 1.551640e-01 2.862952e-01 1.688240e-01 2.544236e-01 1.311862e-02 -7.067443e-02 2.632866e-01 1.397847e-01 1.391834e-01 3.659205e-01 1.403564e-01 2.659713e-01 5.491047e-02 -1.279006e-02 9.976193e-02 9.467155e-03 1.460963e-01 1.501632e-02
<VARIANCE> 38
 9.728539e+00 1.643857e+01 2.811200e+01 2.842860e+01 3.346728e+01 4.433691e+01 5.357835e+01 4.273815e+01 4.130107e+01 3.952721e+01 3.287973e+01 3.351453e+01 2.502770e-01 5.938767e-01 7.277072e-01 8.851305e-01 1.165756e+00 1.227881e+00 1.361559e+00 1.388187e+00 1.387249e+00 1.304417e+00 1.215750e+00 1.102356e+00 1.000000e-02 5.590712e-02 1.115335e-01 1.218435e-01 1.688992e-01 2.030732e-01 2.340082e-01 2.663644e-01 2.608817e-01 2.657394e-01 2.493113e-01 2.227152e-01 2.124749e-01 1.000000e-02
<GCONST> 8.092441e+01
<MIXTURE> 6 5.090285e-02
<MEAN> 38
 5.358531e+00 -2.816205e+00 2.047770e+00 -8.609185e-01 -1.802835e+00 -3.981615e+00 -1.620201e+00 3.937628e+00 1.994726e+00 3.920316e-01 -1.749799e+00 8.262291e-01 1.447225e-01 1.877342e-01 1.804000e-01 2.995843e-01 3.148303e-01 2.967989e-01 3.513446e-01 2.846671e-01 2.472753e-01 1.548499e-01 1.548508e-01 2.159973e-01 1.537749e-02 7.302643e-02 1.878723e-01 8.284949e-02 2.043608e-01 1.199331e-01 1.313568e-01 3.526365e-02 -4.455916e-02 6.343392e-02 8.296453e-02 1.516430e-01 8.435474e-02 1.721617e-02
<VARIANCE> 38
 9.291574e+00 1.477028e+01 2.812778e+01 2.569879e+01 3.513376e+01 4.065024e+01 5.357311e+01 3.700330e+01 4.437994e+01 4.830754e+01 4.007361e+01 3.341890e+01 1.522257e-01 3.385744e-01 4.682341e-01 5.625291e-01 7.094418e-01 8.300753e-01 9.234268e-01 9.589056e-01 9.728776e-01 9.787956e-01 8.691588e-01 7.835593e-01 1.000000e-02 2.414777e-02 5.071113e-02 6.305443e-02 8.919882e-02 1.067897e-01 1.247776e-01 1.369243e-01 1.492576e-01 1.483150e-01 1.536136e-01 1.442857e-01 1.269170e-01 1.000000e-02
<GCONST> 6.860038e+01
<MIXTURE> 7 2.006702e-02
<MEAN> 38
 7.628064e+00 -1.005872e+00 -1.324490e+00 -2.119920e+00 -1.400084e-01 -7.674618e-01 -5.495435e+00 5.927600e-01 2.802036e+00 1.330308e+00 -2.198310e+00 -6.616213e-01 4.453381e-01 8.315119e-01 3.409646e-01 7.265600e-01 8.678993e-01 7.730561e-01 6.483027e-01 -1.259388e-01 3.617520e-01 6.692239e-01 5.302454e-01 2.253359e-01 1.371750e-02 -2.504946e-01 4.598200e-01 3.541533e-01 5.584621e-01 3.523629e-01 1.431484e-01 5.229188e-01 6.040353e-02 2.842829e-03 1.402717e-01 4.049827e-01 2.232551e-01 1.161620e-02
<VARIANCE> 38
 1.566422e+01 2.953244e+01 3.794858e+01 4.435587e+01 4.102445e+01 6.120929e+01 5.566607e+01 5.793013e+01 5.654653e+01 6.601479e+01 5.689188e+01 3.369139e+01 6.805377e-01 1.399347e+00 1.596706e+00 2.378384e+00 2.394746e+00 2.681930e+00 2.554774e+00 2.901356e+00 2.722086e+00 2.820078e+00 2.360724e+00 2.097829e+00 1.000000e-02 1.794685e-01 2.811954e-01 2.669422e-01 3.659679e-01 3.800807e-01 4.532813e-01 5.018620e-01 6.337553e-01 5.975477e-01 6.273823e-01 5.362323e-01 3.970940e-01 1.000000e-02
<GCONST> 1.039268e+02
<MIXTURE> 8 1.948063e-02
<MEAN> 38
 5.382986e+00 2.271995e+00 4.817668e+00 3.064015e+00 -2.592734e+00 -6.094828e+00 -3.986475e+00 1.221083e+00 1.623930e+00 -5.170255e-01 -9.028558e-01 3.338464e+00 -6.144004e-01 1.671381e+00 8.018064e-01 1.031621e+00 1.573964e+00 8.398135e-01 9.571559e-01 6.376234e-01 7.437388e-01 1.879622e-01 5.147132e-01 2.701864e-01 -3.169581e-03 -4.566227e-01 2.904679e-01 1.980853e-01 2.580663e-01 5.787796e-01 4.846232e-01 4.174064e-01 2.803538e-01 1.402874e-01 1.342403e-01 2.364930e-01 -9.528948e-02 1.071541e-02
<VARIANCE> 38
 1.551598e+01 1.934110e+01 2.615841e+01 2.476979e+01 3.883534e+01 3.657211e+01 4.020752e+01 3.487738e+01 4.319263e+01 3.946236e+01 3.019553e+01 2.496876e+01 1.498443e+00 1.717476e+00 1.517264e+00 2.194033e+00 2.489400e+00 2.470643e+00 2.679709e+00 2.800161e+00 2.651041e+00 2.537615e+00 2.472862e+00 2.144425e+00 1.000000e-02 2.024126e-01 2.790188e-01 2.310918e-01 2.829085e-01 3.492085e-01 3.382362e-01 3.882932e-01 4.256737e-01 4.427467e-01 4.227988e-01 3.708769e-01 3.305113e-01 1.000000e-02
<GCONST> 9.761971e+01
<MIXTURE> 9 5.961120e-02
<MEAN> 38
 5.624525e+00 -2.006943e+00 2.327722e+00 -2.622062e-01 -2.420233e+00 -3.738761e+00 -3.357731e+00 2.458932e+00 2.347300e+00 8.877695e-01 -2.595680e-01 4.859597e-01 9.879564e-02 1.245432e-01 1.492259e-01 2.290193e-01 2.258136e-01 2.321384e-01 2.645611e-01 2.503293e-01 1.528560e-01 1.225396e-01 9.946433e-02 1.345462e-01 1.636146e-02 2.962869e-02 1.466978e-01 6.693469e-02 1.525682e-01 1.255800e-01 9.159477e-02 7.728249e-02 -1.790303e-02 2.230170e-02 4.637698e-02 6.244211e-02 6.288645e-02 1.724266e-02
<VARIANCE> 38
 9.747097e+00 1.565348e+01 2.828794e+01 3.082247e+01 3.399508e+01 4.619391e+01 5.668006e+01 4.070275e+01 4.214886e+01 4.538267e+01 3.906312e+01 3.512341e+01 1.425750e-01 3.280967e-01 4.412091e-01 5.750234e-01 6.899577e-01 8.068913e-01 8.674229e-01 9.281054e-01 9.357145e-01 9.314271e-01 8.432590e-01 7.604809e-01 1.000000e-02 2.366194e-02 5.202522e-02 6.494899e-02 9.316419e-02 1.111004e-01 1.313737e-01 1.460921e-01 1.534369e-01 1.499923e-01 1.526609e-01 1.398152e-01 1.321009e-01 1.000000e-02
<GCONST> 6.889149e+01
<MIXTURE> 10 3.791412e-02
<MEAN> 38
 5.873894e+00 -1.448053e+00 2.178988e+00 1.392674e+00 -4.350931e+00 -4.394427e+00 -4.303304e+00 1.577181e+00 2.994219e+00 5.044588e-01 3.060358e-01 5.137667e-01 1.025537e-01 1.420023e-01 1.767843e-01 2.194064e-01 2.788198e-01 3.262827e-01 3.395711e-01 2.999581e-01 1.418926e-01 2.005754e-01 9.056017e-02 2.002130e-02 1.623242e-02 -4.526499e-02 2.304071e-01 1.227333e-01 1.040249e-01 3.475213e-01 1.209424e-01 1.965685e-01 5.631062e-02 -1.372588e-02 9.094558e-02 5.141035e-03 1.121987e-01 1.544232e-02
<VARIANCE> 38
 9.976517e+00 1.690601e+01 2.855708e+01 2.923828e+01 3.473826e+01 4.369803e+01 5.105779e+01 4.368542e+01 4.451622e+01 4.539048e+01 3.754713e+01 3.277390e+01 2.456642e-01 5.795392e-01 7.526686e-01 8.965375e-01 1.147549e+00 1.200846e+00 1.364416e+00 1.403587e+00 1.365423e+00 1.357112e+00 1.245393e+00 1.104538e+00 1.000000e-02 5.593191e-02 1.053256e-01 1.214352e-01 1.639393e-01 2.062319e-01 2.311958e-01 2.586086e-01 2.554954e-01 2.479792e-01 2.484371e-01 2.182769e-01 2.074671e-01 1.000000e-02
<GCONST> 8.111629e+01
<MIXTURE> 11 4.968202e-02
<MEAN> 38
 5.865955e+00 -6.995409e-01 3.704490e+00 2.316475e+00 -4.392220e+00 -5.873805e+00 -3.218538e+00 2.966466e+00 1.376435e+00 -2.772808e-01 -3.630371e-01 2.330944e+00 9.224530e-02 5.111699e-01 2.097703e-01 5.105569e-01 5.984591e-01 3.835034e-01 4.670731e-01 6.936671e-02 1.305556e-01 1.578178e-01 2.551410e-02 2.056473e-01 1.223661e-02 -8.773699e-02 2.785751e-01 1.020799e-01 1.361653e-01 3.695175e-01 2.197907e-01 2.099089e-01 -1.817945e-02 8.649138e-02 8.707434e-02 5.330995e-02 1.925258e-02 1.491058e-02
<VARIANCE> 38
 8.790515e+00 1.627905e+01 2.451862e+01 2.597696e+01 3.111242e+01 3.694553e+01 5.226768e+01 3.727622e+01 4.137817e+01 3.712216e+01 3.037993e+01 3.090208e+01 2.911078e-01 6.853275e-01 8.027092e-01 9.765379e-01 1.340854e+00 1.371167e+00 1.536891e+00 1.506458e+00 1.532824e+00 1.471888e+00 1.323917e+00 1.183908e+00 1.000000e-02 6.383228e-02 1.334736e-01 1.307233e-01 1.800191e-01 2.253197e-01 2.478908e-01 3.017995e-01 2.924703e-01 2.918201e-01 2.637162e-01 2.346559e-01 2.306602e-01 1.000000e-02
<GCONST> 8.240060e+01
<MIXTURE> 12 3.023577e-02
<MEAN> 38
 4.612519e+00 -4.116184e+00 1.015859e+00 -2.629550e+00 -2.768965e+00 -5.128464e+00 -1.208720e+00 3.926680e+00 1.039347e+00 -1.260137e+00 -3.758141e+00 1.111478e-01 5.155594e-02 4.017732e-02 1.990905e-02 1.055234e-01 1.878905e-01 1.705702e-01 2.292731e-01 2.020269e-01 1.396985e-01 -5.465740e-02 -3.325364e-02 -2.933523e-02 1.671320e-02 7.787976e-02 1.666747e-01 7.698412e-02 1.731432e-01 9.290766e-02 1.040589e-01 -3.047597e-02 -5.892639e-02 5.281651e-02 8.026776e-02 1.492439e-01 5.302562e-02 1.752314e-02
<VARIANCE> 38
 9.083802e+00 1.498827e+01 2.869997e+01 2.361031e+01 3.527058e+01 3.663023e+01 5.006624e+01 3.647163e+01 4.783270e+01 5.390863e+01 4.236863e+01 3.057225e+01 1.531863e-01 3.428427e-01 4.844880e-01 5.473610e-01 7.641041e-01 8.664404e-01 9.902030e-01 1.059174e+00 1.047836e+00 1.086653e+00 9.385537e-01 8.383862e-01 1.000000e-02 2.273522e-02 4.744364e-02 6.137071e-02 8.726832e-02 1.070882e-01 1.278003e-01 1.401017e-01 1.542090e-01 1.430060e-01 1.489668e-01 1.397099e-01 1.297106e-01 1.000000e-02
<GCONST> 6.896070e+01
<MIXTURE> 13 1.901465e-02
<MEAN> 38
 7.558291e+00 -1.230402e+00 5.731234e-01 -3.419220e-01 -1.421685e+00 -1.080790e+00 -7.304374e+00 3.891314e-01 3.418008e+00 1.508176e+00 -6.268511e-01 -7.212118e-01 2.236580e-01 9.785406e-01 3.818761e-01 7.977861e-01 1.002293e+00 5.054978e-01 8.761371e-01 -2.650226e-01 1.196005e-01 4.676462e-01 2.545033e-01 1.982268e-01 1.092550e-02 -2.548606e-01 4.679348e-01 2.350335e-01 3.923271e-01 4.238686e-01 7.204309e-02 6.609137e-01 5.429336e-02 -8.229117e-02 1.210552e-01 1.784001e-01 1.989749e-01 1.235371e-02
<VARIANCE> 38
 1.451400e+01 2.412715e+01 3.677648e+01 4.088707e+01 4.042472e+01 5.721835e+01 5.301340e+01 5.995493e+01 5.481984e+01 6.042439e+01 5.199073e+01 3.279350e+01 7.760330e-01 1.369042e+00 1.575382e+00 2.152481e+00 2.511969e+00 2.858582e+00 2.655361e+00 2.916511e+00 2.860569e+00 2.788944e+00 2.459761e+00 2.115489e+00 1.000000e-02 1.701899e-01 2.719747e-01 2.875699e-01 3.635438e-01 3.987531e-01 4.630289e-01 5.260524e-01 6.407431e-01 6.120209e-01 5.972825e-01 5.102498e-01 4.004116e-01 1.000000e-02
<GCONST> 1.034840e+02
<MIXTURE> 14 1.571603e-02
<MEAN> 38
 4.951224e+00 1.310932e+00 4.323501e+00 2.058432e+00 -3.270713e+00 -7.065802e+00 -4.794231e+00 1.719571e-01 8.508050e-01 -1.491118e+00 -1.976562e+00 2.743071e+00 -4.709675e-01 1.408950e+00 6.826681e-01 8.299472e-01 1.284727e+00 6.760284e-01 6.959109e-01 3.800416e-01 4.149976e-01 -8.162913e-02 4.051462e-01 9.729479e-02 2.989870e-03 -3.821638e-01 3.084701e-01 1.592817e-01 2.085427e-01 5.161106e-01 4.778116e-01 3.706476e-01 2.848184e-01 1.296784e-01 1.615903e-01 2.614515e-01 -7.320980e-02 1.220958e-02
<VARIANCE> 38
 1.637635e+01 2.020316e+01 2.646406e+01 2.563543e+01 3.922821e+01 3.729385e+01 4.038284e+01 3.565846e+01 4.324456e+01 4.752470e+01 3.240779e+01 2.529906e+01 1.628733e+00 1.714913e+00 1.558866e+00 2.169975e+00 2.596746e+00 2.449801e+00 2.765778e+00 2.828206e+00 2.714723e+00 2.737699e+00 2.592166e+00 2.182842e+00 1.000000e-02 2.055214e-01 2.618385e-01 2.134688e-01 2.717648e-01 3.263987e-01 3.231665e-01 3.723738e-01 4.108990e-01 4.166459e-01 4.310270e-01 3.618095e-01 3.154445e-01 1.000000e-02
<GCONST> 9.795700e+01
<MIXTURE> 15 1.695670e-02
<MEAN> 38
 6.840096e+00 -2.619920e+00 -2.038458e+00 -3.292212e+00 -8.651407e-01 -1.927192e+00 -4.844657e+00 1.460044e+00 2.047215e+00 -2.275977e-01 -4.405267e+00 -9.133279e-01 3.460531e-01 5.145706e-01 1.482192e-01 5.298136e-01 6.762072e-01 5.818945e-01 4.398594e-01 -1.169524e-01 2.970951e-01 4.254184e-01 2.151441e-01 -2.655086e-02 1.620532e-02 -1.395823e-01 4.226363e-01 3.023677e-01 5.101564e-01 2.916467e-01 1.519582e-01 3.598045e-01 -1.229078e-02 5.723378e-02 2.061038e-01 4.874202e-01 1.848066e-01 1.305581e-02
<VARIANCE> 38
 1.495030e+01 2.934044e+01 3.658710e+01 3.999492e+01 4.279130e+01 6.077563e+01 5.406539e+01 5.872203e+01 5.957962e+01 7.696371e+01 6.136734e+01 3.592558e+01 6.132211e-01 1.346376e+00 1.674320e+00 2.145158e+00 2.282994e+00 2.550081e+00 2.649052e+00 2.915721e+00 2.700925e+00 2.900138e+00 2.323954e+00 2.097710e+00 1.000000e-02 1.681720e-01 2.424120e-01 2.353188e-01 3.260570e-01 3.579611e-01 4.116957e-01 4.529378e-01 5.840400e-01 5.388513e-01 5.783815e-01 4.830918e-01 3.647888e-01 1.000000e-02
<GCONST> 1.026782e+02
<MIXTURE> 16 1.636286e-02
<MEAN> 38
 5.409041e+00 2.732431e+00 4.138598e+00 2.905842e+00 -2.506859e+00 -7.489886e+00 -4.004695e+00 8.076749e-01 1.771852e+00 6.827283e-02 -8.856139e-01 4.325475e+00 -6.597170e-01 1.824601e+00 7.852737e-01 9.599965e-01 1.499551e+00 8.872428e-01 9.701934e-01 4.881172e-01 6.306534e-01 -1.061273e-02 3.798090e-01 -1.020442e-01 -6.146910e-03 -4.192748e-01 2.357137e-01 2.763401e-01 1.949003e-01 4.524869e-01 5.355250e-01 3.596748e-01 2.526233e-01 4.564201e-02 1.084242e-02 1.673762e-01 -2.217833e-01 1.143230e-02
<VARIANCE> 38
 1.321618e+01 1.821654e+01 2.577763e+01 2.351442e+01 3.904187e+01 3.472612e+01 3.857544e+01 3.403230e+01 4.071540e+01 3.702557e+01 2.926659e+01 2.773536e+01 1.387321e+00 1.741427e+00 1.709386e+00 2.098527e+00 2.307606e+00 2.407974e+00 2.652313e+00 2.813924e+00 2.717947e+00 2.509103e+00 2.525858e+00 2.328364e+00 1.000000e-02 1.685311e-01 2.688484e-01 2.499368e-01 2.767655e-01 3.850959e-01 3.417588e-01 3.887132e-01 4.324432e-01 4.452504e-01 3.964410e-01 3.680895e-01 3.606696e-01 1.000000e-02
<GCONST> 9.717525e+01
<MIXTURE> 17 5.961120e-02
<MEAN> 38
 4.375711e+00 -3.589523e+00 2.002658e-01 -2.482926e+00 -4.752445e+00 -6.457405e+00 -6.369177e+00 -9.301615e-02 -2.495861e-01 -1.806897e+00 -2.759588e+00 -1.884640e+00 -5.224079e-02 -1.045757e-01 -1.164684e-01 -7.430193e-02 -1.064412e-01 -1.271701e-01 -1.079811e-01 -1.350237e-01 -2.340734e-01 -2.635023e-01 -2.678522e-01 -2.142761e-01 -2.363854e-02 -3.190106e-02 5.546163e-02 -3.500568e-02 3.047698e-02 -7.746942e-03 -5.338727e-02 -7.560550e-02 -1.745871e-01 -1.326137e-01 -1.099104e-01 -8.712538e-02 -8.249630e-02 -2.275734e-02
<VARIANCE> 38
 9.747097e+00 1.565348e+01 2.828794e+01 3.082247e+01 3.399508e+01 4.619391e+01 5.668006e+01 4.070275e+01 4.214886e+01 4.538267e+01 3.906312e+01 3.512341e+01 1.425750e-01 3.280967e-01 4.412091e-01 5.750234e-01 6.899577e-01 8.068913e-01 8.674229e-01 9.281054e-01 9.357145e-01 9.314271e-01 8.432590e-01 7.604809e-01 1.000000e-02 2.366194e-02 5.202522e-02 6.494899e-02 9.316419e-02 1.111004e-01 1.313737e-01 1.460921e-01 1.534369e-01 1.499923e-01 1.526609e-01 1.398152e-01 1.321009e-01 1.000000e-02
<GCONST> 6.889149e+01
<MIXTURE> 18 5.099330e-02
<MEAN> 38
 5.150506e+00 -2.118332e+00 6.167409e-01 1.956285e-01 -5.563588e+00 -6.049428e+00 -7.007854e+00 -8.118898e-01 7.116938e-01 -1.622466e+00 -1.388595e+00 -1.496761e+00 -4.329226e-02 7.237090e-02 -5.318411e-02 6.016704e-02 5.645873e-02 -4.831702e-04 -9.402320e-03 -2.033100e-01 -3.159622e-01 -1.705492e-01 -2.722202e-01 -1.655490e-01 -2.688138e-02 -1.652532e-01 1.297000e-01 1.603141e-04 -2.520596e-02 1.856659e-01 -5.314115e-02 5.952930e-02 -1.493959e-01 -2.189897e-01 -9.996240e-02 -1.793037e-01 -3.828374e-02 -2.498367e-02
<VARIANCE> 38
 9.728539e+00 1.643857e+01 2.811200e+01 2.842860e+01 3.346728e+01 4.433691e+01 5.357835e+01 4.273815e+01 4.130107e+01 3.952721e+01 3.287973e+01 3.351453e+01 2.502770e-01 5.938767e-01 7.277072e-01 8.851305e-01 1.165756e+00 1.227881e+00 1.361559e+00 1.388187e+00 1.387249e+00 1.304417e+00 1.215750e+00 1.102356e+00 1.000000e-02 5.590712e-02 1.115335e-01 1.218435e-01 1.688992e-01 2.030732e-01 2.340082e-01 2.663644e-01 2.608817e-01 2.657394e-01 2.493113e-01 2.227152e-01 2.124749e-01 1.000000e-02
<GCONST> 8.092441e+01
<MIXTURE> 19 5.090285e-02
<MEAN> 38
 4.139247e+00 -4.353489e+00 -7.365525e-02 -2.888678e+00 -4.173785e+00 -6.531917e+00 -4.547947e+00 1.504414e+00 -6.700048e-01 -2.388113e+00 -4.281947e+00 -1.486134e+00 -1.134200e-02 -4.501441e-02 -9.331058e-02 -4.234761e-04 -2.208313e-02 -6.763494e-02 -3.303580e-02 -1.070278e-01 -1.472630e-01 -2.408865e-01 -2.180640e-01 -1.380782e-01 -2.462251e-02 1.086821e-02 9.779572e-02 -1.759307e-02 8.489606e-02 -1.078172e-02 -9.938695e-03 -1.127495e-01 -1.990947e-01 -9.061282e-02 -7.380975e-02 -2.968013e-04 -5.814692e-02 -2.278383e-02
<VARIANCE> 38
 9.291574e+00 1.477028e+01 2.812778e+01 2.569879e+01 3.513376e+01 4.065024e+01 5.357311e+01 3.700330e+01 4.437994e+01 4.830754e+01 4.007361e+01 3.341890e+01 1.522257e-01 3.385744e-01 4.682341e-01 5.625291e-01 7.094418e-01 8.300753e-01 9.234268e-01 9.589056e-01 9.728776e-01 9.787956e-01 8.691588e-01 7.835593e-01 1.000000e-02 2.414777e-02 5.071113e-02 6.305443e-02 8.919882e-02 1.067897e-01 1.247776e-01 1.369243e-01 1.492576e-01 1.483150e-01 1.536136e-01 1.442857e-01 1.269170e-01 1.000000e-02
<GCONST> 6.860038e+01
<MIXTURE> 20 4.968202e-02
<MEAN> 38
 4.680003e+00 -2.313433e+00 1.723838e+00 2.777710e-01 -6.623360e+00 -8.305119e+00 -6.110394e+00 5.242959e-01 -1.196599e+00 -2.714399e+00 -2.567757e+00 1.073582e-01 -1.235723e-01 1.800318e-01 -1.486059e-01 1.152771e-01 1.352781e-01 -8.488399e-02 -2.881251e-02 -4.215847e-01 -3.646734e-01 -3.274678e-01 -4.347323e-01 -2.295829e-01 -2.776339e-02 -1.887972e-01 1.324389e-01 -4.254285e-02 -3.354933e-02 1.796461e-01 2.063613e-02 -9.836264e-03 -2.345015e-01 -1.295901e-01 -1.183389e-01 -1.404552e-01 -1.728558e-01 -2.508942e-02
<VARIANCE> 38
 8.790515e+00 1.627905e+01 2.451862e+01 2.597696e+01 3.111242e+01 3.694553e+01 5.226768e+01 3.727622e+01 4.137817e+01 3.712216e+01 3.037993e+01 3.090208e+01 2.911078e-01 6.853275e-01 8.027092e-01 9.765379e-01 1.340854e+00 1.371167e+00 1.536891e+00 1.506458e+00 1.532824e+00 1.471888e+00 1.323917e+00 1.183908e+00 1.000000e-02 6.383228e-02 1.334736e-01 1.307233e-01 1.800191e-01 2.253197e-01 2.478908e-01 3.017995e-01 2.924703e-01 2.918201e-01 2.637162e-01 2.346559e-01 2.306602e-01 1.000000e-02
<GCONST> 8.240060e+01
<MIXTURE> 21 4.589528e-02
<MEAN> 38
 4.846841e+00 -2.548356e+00 6.617186e-01 -1.472316e+00 -3.791059e+00 -5.557888e+00 -5.015671e+00 5.675797e-01 -4.212659e-01 -1.712954e+00 -2.740885e+00 -9.042717e-01 -8.235432e-03 6.851230e-02 -1.308100e-02 1.262604e-01 1.736103e-02 -2.771886e-02 -2.710681e-02 -1.805092e-01 -2.716843e-01 -2.456791e-01 -1.890898e-01 -3.273840e-02 -2.621900e-02 -3.803770e-02 7.845695e-02 -2.151720e-02 7.137784e-02 4.262894e-03 -3.839919e-02 -5.692345e-02 -1.870775e-01 -1.143336e-01 -1.069215e-01 -5.968438e-02 -6.774443e-02 -2.298096e-02
<VARIANCE> 38
 9.546453e+00 1.526974e+01 2.752484e+01 3.092812e+01 3.511472e+01 4.925884e+01 6.039035e+01 3.908446e+01 3.924311e+01 4.138407e+01 3.464349e+01 3.581580e+01 1.588952e-01 3.737763e-01 4.819622e-01 6.486198e-01 7.619069e-01 8.972917e-01 9.576864e-01 9.659519e-01 1.024102e+00 1.004100e+00 9.032888e-01 8.178317e-01 1.000000e-02 2.569048e-02 6.063595e-02 7.155849e-02 1.059823e-01 1.213783e-01 1.459456e-01 1.601278e-01 1.671175e-01 1.702373e-01 1.716845e-01 1.569678e-01 1.437558e-01 1.000000e-02
<GCONST> 7.105229e+01
<MIXTURE> 22 3.860487e-02
<MEAN> 38
 5.094455e+00 -1.391737e+00 2.593939e+00 1.295249e+00 -5.742733e+00 -7.625496e+00 -5.300810e+00 1.392625e+00 -1.129965e+00 -2.297436e+00 -1.968984e+00 7.674264e-01 -8.768796e-02 5.025253e-01 -1.596169e-02 4.063277e-01 4.396268e-01 6.500281e-02 8.012332e-02 -4.197239e-01 -2.846495e-01 -2.662068e-01 -3.881009e-01 -6.244816e-02 -3.282936e-02 -2.077799e-01 1.760357e-01 -2.495999e-02 1.244981e-02 2.146781e-01 6.250272e-02 5.536191e-02 -2.545810e-01 -1.182516e-01 -1.100708e-01 -1.332275e-01 -1.770363e-01 -2.564244e-02
<VARIANCE> 38
 8.063288e+00 1.534083e+01 2.312017e+01 2.341174e+01 2.921438e+01 3.580986e+01 5.331718e+01 3.495033e+01 3.884880e+01 3.213349e+01 2.699047e+01 3.063327e+01 3.073283e-01 7.338772e-01 8.142527e-01 9.725195e-01 1.361791e+00 1.414609e+00 1.542325e+00 1.504876e+00 1.581676e+00 1.431150e+00 1.323216e+00 1.234394e+00 1.000000e-02 6.276284e-02 1.491012e-01 1.314191e-01 1.812860e-01 2.205744e-01 2.481279e-01 2.997124e-01 2.983568e-01 3.151684e-01 2.631395e-01 2.399674e-01 2.410872e-01 1.000000e-02
<GCONST> 8.208578e+01
<MIXTURE> 23 3.791412e-02
<MEAN> 38
 4.610469e+00 -3.092729e+00 4.143453e-02 -7.702237e-01 -6.708498e+00 -7.038607e+00 -7.161494e+00 -1.066617e+00 3.253994e-01 -2.190440e+00 -2.144993e+00 -1.776173e+00 -9.570436e-02 -1.625076e-01 -1.702416e-01 -1.593363e-01 -1.496751e-01 -1.120497e-01 -1.276617e-01 -1.739342e-01 -3.255126e-01 -2.654052e-01 -3.558286e-01 -4.003667e-01 -2.376758e-02 -1.398647e-01 1.005915e-01 -1.665692e-02 -5.793274e-02 1.658703e-01 -7.138888e-02 -6.845802e-03 -1.458756e-01 -2.129159e-01 -1.084283e-01 -1.817394e-01 -6.999555e-02 -2.455768e-02
<VARIANCE> 38
 9.976517e+00 1.690601e+01 2.855708e+01 2.923828e+01 3.473826e+01 4.369803e+01 5.105779e+01 4.368542e+01 4.451622e+01 4.539048e+01 3.754713e+01 3.277390e+01 2.456642e-01 5.795392e-01 7.526686e-01 8.965375e-01 1.147549e+00 1.200846e+00 1.364416e+00 1.403587e+00 1.365423e+00 1.357112e+00 1.245393e+00 1.104538e+00 1.000000e-02 5.593191e-02 1.053256e-01 1.214352e-01 1.639393e-01 2.062319e-01 2.311958e-01 2.586086e-01 2.554954e-01 2.479792e-01 2.484371e-01 2.182769e-01 2.074671e-01 1.000000e-02
<GCONST> 8.111629e+01
<MIXTURE> 24 3.023577e-02
<MEAN> 38
 3.406945e+00 -5.664772e+00 -1.127035e+00 -4.573168e+00 -5.144527e+00 -7.549380e+00 -4.039020e+00 1.511010e+00 -1.727100e+00 -4.197037e+00 -6.361789e+00 -2.100539e+00 -1.050001e-01 -1.940338e-01 -2.585116e-01 -1.904120e-01 -1.617617e-01 -2.017610e-01 -1.687627e-01 -2.096379e-01 -2.697569e-01 -4.716280e-01 -4.207696e-01 -3.955890e-01 -2.328680e-02 1.756694e-02 7.954848e-02 -2.210833e-02 5.497837e-02 -3.798968e-02 -3.893773e-02 -1.801966e-01 -2.160042e-01 -9.844802e-02 -7.411712e-02 -2.672821e-04 -9.103581e-02 -2.247686e-02
<VARIANCE> 38
 9.083802e+00 1.498827e+01 2.869997e+01 2.361031e+01 3.527058e+01 3.663023e+01 5.006624e+01 3.647163e+01 4.783270e+01 5.390863e+01 4.236863e+01 3.057225e+01 1.531863e-01 3.428427e-01 4.844880e-01 5.473610e-01 7.641041e-01 8.664404e-01 9.902030e-01 1.059174e+00 1.047836e+00 1.086653e+00 9.385537e-01 8.383862e-01 1.000000e-02 2.273522e-02 4.744364e-02 6.137071e-02 8.726832e-02 1.070882e-01 1.278003e-01 1.401017e-01 1.542090e-01 1.430060e-01 1.489668e-01 1.397099e-01 1.297106e-01 1.000000e-02
<GCONST> 6.896070e+01
<MIXTURE> 25 2.006702e-02
<MEAN> 38
 6.044942e+00 -3.179622e+00 -3.788587e+00 -4.783928e+00 -2.702022e+00 -3.896916e+00 -8.479823e+00 -2.451714e+00 -2.058616e-01 -1.919672e+00 -5.215378e+00 -2.983393e+00 1.153593e-01 3.583359e-01 -1.644787e-01 1.096796e-01 2.489006e-01 1.179922e-01 8.956283e-03 -8.072734e-01 -2.981979e-01 -2.499551e-03 -8.434057e-02 -3.540194e-01 -2.628250e-02 -4.199494e-01 2.477086e-01 1.474875e-01 3.164809e-01 1.057601e-01 -1.261563e-01 2.395500e-01 -2.580315e-01 -3.063620e-01 -1.765581e-01 1.120711e-01 -2.880652e-02 -2.838380e-02
<VARIANCE> 38
 1.566422e+01 2.953244e+01 3.794858e+01 4.435587e+01 4.102445e+01 6.120929e+01 5.566607e+01 5.793013e+01 5.654653e+01 6.601479e+01 5.689188e+01 3.369139e+01 6.805377e-01 1.399347e+00 1.596706e+00 2.378384e+00 2.394746e+00 2.681930e+00 2.554774e+00 2.901356e+00 2.722086e+00 2.820078e+00 2.360724e+00 2.097829e+00 1.000000e-02 1.794685e-01 2.811954e-01 2.669422e-01 3.659679e-01 3.800807e-01 4.532813e-01 5.018620e-01 6.337553e-01 5.975477e-01 6.273823e-01 5.362323e-01 3.970940e-01 1.000000e-02
<GCONST> 1.039268e+02
<MIXTURE> 26 1.948063e-02
<MEAN> 38
 3.807373e+00 5.128546e-01 2.771856e+00 1.073245e+00 -5.085454e+00 -8.513823e+00 -6.522851e+00 -1.141200e+00 -1.004914e+00 -3.029788e+00 -3.100874e+00 1.339714e+00 -1.104044e+00 1.147171e+00 3.090974e-01 4.391303e-01 9.428504e-01 2.110823e-01 3.023633e-01 -3.172386e-02 9.245804e-02 -4.492336e-01 -1.143003e-01 -3.155678e-01 -4.316958e-02 -6.365839e-01 7.917894e-02 5.797282e-03 4.530971e-02 3.424042e-01 2.519908e-01 1.681537e-01 1.937905e-02 -1.258695e-01 -1.258516e-01 -7.105626e-03 -3.252499e-01 -2.928459e-02
<VARIANCE> 38
 1.551598e+01 1.934110e+01 2.615841e+01 2.476979e+01 3.883534e+01 3.657211e+01 4.020752e+01 3.487738e+01 4.319263e+01 3.946236e+01 3.019553e+01 2.496876e+01 1.498443e+00 1.717476e+00 1.517264e+00 2.194033e+00 2.489400e+00 2.470643e+00 2.679709e+00 2.800161e+00 2.651041e+00 2.537615e+00 2.472862e+00 2.144425e+00 1.000000e-02 2.024126e-01 2.790188e-01 2.310918e-01 2.829085e-01 3.492085e-01 3.382362e-01 3.882932e-01 4.256737e-01 4.427467e-01 4.227988e-01 3.708769e-01 3.305113e-01 1.000000e-02
<GCONST> 9.761971e+01
<MIXTURE> 27 1.901465e-02
<MEAN> 38
 6.034401e+00 -3.195178e+00 -1.852621e+00 -2.899642e+00 -3.964903e+00 -4.106503e+00 -1.021679e+01 -2.708091e+00 4.563915e-01 -1.601149e+00 -3.511035e+00 -3.011836e+00 -1.287130e-01 5.105163e-01 -1.201808e-01 2.109327e-01 3.683250e-01 -1.707958e-01 2.243260e-01 -9.481344e-01 -5.569282e-01 -2.003590e-01 -3.728417e-01 -3.835621e-01 -2.907450e-02 -4.198769e-01 2.593300e-01 2.053131e-02 1.511487e-01 1.712810e-01 -2.001418e-01 3.707958e-01 -2.658924e-01 -3.952183e-01 -1.880810e-01 -1.073270e-01 -5.413745e-02 -2.764628e-02
<VARIANCE> 38
 1.451400e+01 2.412715e+01 3.677648e+01 4.088707e+01 4.042472e+01 5.721835e+01 5.301340e+01 5.995493e+01 5.481984e+01 6.042439e+01 5.199073e+01 3.279350e+01 7.760330e-01 1.369042e+00 1.575382e+00 2.152481e+00 2.511969e+00 2.858582e+00 2.655361e+00 2.916511e+00 2.860569e+00 2.788944e+00 2.459761e+00 2.115489e+00 1.000000e-02 1.701899e-01 2.719747e-01 2.875699e-01 3.635438e-01 3.987531e-01 4.630289e-01 5.260524e-01 6.407431e-01 6.120209e-01 5.972825e-01 5.102498e-01 4.004116e-01 1.000000e-02
<GCONST> 1.034840e+02
<MIXTURE> 28 1.695670e-02
<MEAN> 38
 5.293470e+00 -4.786592e+00 -4.457949e+00 -5.821873e+00 -3.481743e+00 -5.045542e+00 -7.785824e+00 -1.605168e+00 -1.040299e+00 -3.736756e+00 -7.538759e+00 -3.310846e+00 3.281933e-02 5.043681e-02 -3.693628e-01 -5.604078e-02 7.182398e-02 -5.686447e-02 -2.111770e-01 -7.999717e-01 -3.602846e-01 -2.557733e-01 -3.946368e-01 -6.058898e-01 -2.379468e-02 -3.036175e-01 2.256949e-01 1.083291e-01 2.817508e-01 5.232730e-02 -1.046959e-01 9.060189e-02 -3.179808e-01 -2.363922e-01 -9.810176e-02 2.094010e-01 -5.678444e-02 -2.694419e-02
<VARIANCE> 38
 1.495030e+01 2.934044e+01 3.658710e+01 3.999492e+01 4.279130e+01 6.077563e+01 5.406539e+01 5.872203e+01 5.957962e+01 7.696371e+01 6.136734e+01 3.592558e+01 6.132211e-01 1.346376e+00 1.674320e+00 2.145158e+00 2.282994e+00 2.550081e+00 2.649052e+00 2.915721e+00 2.700925e+00 2.900138e+00 2.323954e+00 2.097710e+00 1.000000e-02 1.681720e-01 2.424120e-01 2.353188e-01 3.260570e-01 3.579611e-01 4.116957e-01 4.529378e-01 5.840400e-01 5.388513e-01 5.783815e-01 4.830918e-01 3.647888e-01 1.000000e-02
<GCONST> 1.026782e+02
<MIXTURE> 29 1.636286e-02
<MEAN> 38
 3.954879e+00 1.025197e+00 2.107731e+00 9.661757e-01 -5.006199e+00 -9.847041e+00 -6.489061e+00 -1.525814e+00 -7.804932e-01 -2.365673e+00 -3.049558e+00 2.218901e+00 -1.130855e+00 1.296749e+00 2.622997e-01 3.805448e-01 8.919188e-01 2.665369e-01 3.187565e-01 -1.828730e-01 -2.879456e-02 -6.442187e-01 -2.559089e-01 -7.124034e-01 -4.614691e-02 -5.834850e-01 2.831131e-02 7.636534e-02 -1.553377e-02 2.042625e-01 3.016844e-01 1.102873e-01 -1.041833e-02 -2.212663e-01 -2.410118e-01 -7.530531e-02 -4.620064e-01 -2.856770e-02
<VARIANCE> 38
 1.321618e+01 1.821654e+01 2.577763e+01 2.351442e+01 3.904187e+01 3.472612e+01 3.857544e+01 3.403230e+01 4.071540e+01 3.702557e+01 2.926659e+01 2.773536e+01 1.387321e+00 1.741427e+00 1.709386e+00 2.098527e+00 2.307606e+00 2.407974e+00 2.652313e+00 2.813924e+00 2.717947e+00 2.509103e+00 2.525858e+00 2.328364e+00 1.000000e-02 1.685311e-01 2.688484e-01 2.499368e-01 2.767655e-01 3.850959e-01 3.417588e-01 3.887132e-01 4.324432e-01 4.452504e-01 3.964410e-01 3.680895e-01 3.606696e-01 1.000000e-02
<GCONST> 9.717525e+01
<MIXTURE> 30 1.578742e-02
<MEAN> 38
 6.427290e+00 -2.383488e+00 -1.060372e+00 -1.768479e+00 -3.455873e+00 -3.847824e+00 -1.098524e+01 -2.463145e+00 9.135720e-01 -1.007285e+00 -2.579596e+00 -2.627678e+00 -9.291600e-02 9.643979e-01 2.664080e-02 4.548607e-01 7.514837e-01 5.824760e-02 5.404881e-01 -1.000447e+00 -5.322766e-01 -3.199971e-02 -1.927143e-01 -2.399682e-01 -3.526044e-02 -4.822031e-01 3.428235e-01 5.846850e-02 1.708036e-01 2.070292e-01 -2.174841e-01 5.417297e-01 -2.533485e-01 -4.373667e-01 -2.368318e-01 -1.520603e-01 -5.075584e-02 -2.907558e-02
<VARIANCE> 38
 1.464942e+01 2.286625e+01 3.601881e+01 3.982765e+01 3.908097e+01 5.353144e+01 5.042919e+01 5.662415e+01 5.004863e+01 5.355004e+01 4.372497e+01 3.033673e+01 8.225763e-01 1.435038e+00 1.545811e+00 2.076456e+00 2.509408e+00 2.866442e+00 2.627036e+00 3.022372e+00 3.022254e+00 2.776987e+00 2.486367e+00 2.139731e+00 1.000000e-02 1.721378e-01 3.118686e-01 3.415403e-01 3.902846e-01 4.307108e-01 4.982282e-01 5.354765e-01 6.760045e-01 6.477987e-01 6.582541e-01 5.286989e-01 4.274886e-01 1.000000e-02
<GCONST> 1.037399e+02
<MIXTURE> 31 1.571603e-02
<MEAN> 38
 3.332516e+00 -4.869850e-01 2.265771e+00 3.317404e-02 -5.776010e+00 -9.508549e+00 -7.336131e+00 -2.216631e+00 -1.779619e+00 -4.248644e+00 -4.253676e+00 7.311436e-01 -9.814548e-01 8.851316e-01 1.832499e-01 2.407138e-01 6.401501e-01 4.995480e-02 3.068572e-02 -2.926493e-01 -2.440591e-01 -7.434689e-01 -2.388620e-01 -4.936830e-01 -3.701013e-02 -5.635017e-01 1.037895e-01 -2.552900e-02 1.846254e-05 2.875854e-01 2.504206e-01 1.265578e-01 2.841279e-02 -1.285141e-01 -1.010203e-01 2.084909e-02 -2.978676e-01 -2.779042e-02
<VARIANCE> 38
 1.637635e+01 2.020316e+01 2.646406e+01 2.563543e+01 3.922821e+01 3.729385e+01 4.038284e+01 3.565846e+01 4.324456e+01 4.752470e+01 3.240779e+01 2.529906e+01 1.628733e+00 1.714913e+00 1.558866e+00 2.169975e+00 2.596746e+00 2.449801e+00 2.765778e+00 2.828206e+00 2.714723e+00 2.737699e+00 2.592166e+00 2.182842e+00 1.000000e-02 2.055214e-01 2.618385e-01 2.134688e-01 2.717648e-01 3.263987e-01 3.231665e-01 3.723738e-01 4.108990e-01 4.166459e-01 4.310270e-01 3.618095e-01 3.154445e-01 1.000000e-02
<GCONST> 9.795700e+01
<MIXTURE> 32 1.271486e-02
<MEAN> 38
 4.406429e+00 2.110234e+00 2.342318e+00 1.817422e+00 -4.749080e+00 -9.595855e+00 -5.308611e+00 -6.162627e-01 -2.576761e-01 -1.494003e+00 -2.550008e+00 3.355949e+00 -1.030673e+00 1.671773e+00 4.606070e-01 7.118335e-01 1.223435e+00 4.794986e-01 5.912652e-01 2.120411e-02 2.926027e-01 -3.615398e-01 -1.315190e-01 -7.600882e-01 -5.510296e-02 -5.510039e-01 4.658848e-05 1.485453e-01 2.941321e-02 1.876541e-01 3.171967e-01 1.166076e-01 -4.470833e-02 -2.519543e-01 -2.600732e-01 -9.582698e-02 -5.752679e-01 -3.030909e-02
<VARIANCE> 38
 1.194503e+01 1.779475e+01 2.498798e+01 2.160532e+01 3.919304e+01 3.113987e+01 3.877496e+01 3.285599e+01 3.930838e+01 3.366528e+01 2.866859e+01 2.698741e+01 1.183809e+00 1.709128e+00 1.726505e+00 2.008008e+00 2.219553e+00 2.401107e+00 2.675145e+00 2.933531e+00 2.665369e+00 2.394778e+00 2.503250e+00 2.293674e+00 1.000000e-02 1.579480e-01 2.773587e-01 2.743981e-01 2.839914e-01 4.339980e-01 3.525227e-01 4.114992e-01 4.606444e-01 4.745587e-01 4.094738e-01 3.851576e-01 3.754290e-01 1.000000e-02
<GCONST> 9.686591e+01
<STATE> 4
<NUMMIXES> 32
<SWEIGHTS> 1
 1.000000e+00
<MIXTURE> 1 3.190625e-02
<MEAN> 38
 2.782341e+00 4.067632e+00 7.924197e+00 8.736462e+00 1.594151e+00 -1.842127e-01 5.467665e+00 4.898575e+00 -1.625222e-01 -2.148330e+00 -3.271266e-01 4.098275e+00 -6.053026e-01 4.665565e-01 2.643779e-01 1.150821e+00 1.781343e+00 1.537442e+00 1.161071e+00 5.199336e-01 5.451384e-01 9.650527e-02 2.622265e-01 1.536009e-01 -1.927738e-02 -1.046667e-02 -4.278251e-02 -1.446396e-01 -7.455046e-02 1.703681e-01 2.168850e-01 1.444338e-02 6.833595e-02 2.467556e-01 2.572667e-01 1.143017e-01 -6.874205e-02 1.717175e-02
<VARIANCE> 38
 9.656276e+00 2.164692e+01 1.942896e+01 2.231200e+01 3.866322e+01 5.108142e+01 4.299832e+01 3.153700e+01 3.231040e+01 3.841639e+01 3.015824e+01 2.359174e+01 4.699667e-01 1.291603e+00 1.154704e+00 1.378112e+00 1.586867e+00 1.923061e+00 1.953946e+00 1.937457e+00 2.183285e+00 2.076904e+00 1.907477e+00 1.780008e+00 1.000000e-02 6.385767e-02 1.296907e-01 1.587139e-01 2.137973e-01 2.901113e-01 3.527463e-01 3.383992e-01 3.565323e-01 3.707241e-01 3.599983e-01 3.378909e-01 3.083123e-01 1.000000e-02
<GCONST> 8.883451e+01
<MIXTURE> 2 3.193439e-02
<MEAN> 38
 7.821393e+00 3.880295e+00 1.755337e+00 3.302417e+00 4.456348e+00 2.416933e-02 -4.264544e+00 -1.053628e+00 2.013417e+00 2.048712e+00 -4.915104e-01 -1.192287e+00 -7.675385e-02 2.138307e+00 1.260043e+00 1.387244e+00 1.115891e+00 6.781727e-01 1.630738e+00 -2.684187e-01 -3.631875e-01 3.343784e-01 2.580106e-01 2.156182e-01 -8.229190e-03 -1.700600e-01 1.359131e-01 3.237674e-01 1.682756e-01 -2.245048e-01 -4.171606e-02 2.994608e-01 1.778909e-01 3.624325e-02 6.634490e-02 9.558304e-02 1.919394e-01 1.711908e-02
<VARIANCE> 38
 1.111217e+01 1.835814e+01 2.094311e+01 2.655078e+01 2.535199e+01 3.766696e+01 3.922356e+01 3.759048e+01 3.347353e+01 3.543921e+01 3.081536e+01 2.774132e+01 8.109638e-01 1.676082e+00 1.790929e+00 1.680918e+00 2.310960e+00 3.044906e+00 2.894407e+00 3.353903e+00 3.418499e+00 2.989891e+00 2.541836e+00 2.503744e+00 1.000000e-02 8.769819e-02 1.778186e-01 1.854801e-01 2.260218e-01 2.809857e-01 3.248928e-01 3.660058e-01 3.885566e-01 3.619749e-01 3.917442e-01 3.182052e-01 3.040135e-01 1.000000e-02
<GCONST> 9.409732e+01
<MIXTURE> 3 2.648496e-02
<MEAN> 38
 1.762601e+00 8.582132e+00 6.914266e+00 5.254263e+00 2.778139e+00 -2.427208e+00 -1.243613e+00 1.795103e+00 2.480288e+00 -2.361169e-01 7.515538e-02 1.871713e+00 -1.563361e+00 1.264011e+00 1.181847e+00 1.454847e+00 1.842634e+00 1.435863e+00 1.439510e+00 9.168807e-01 5.616160e-01 2.825128e-01 6.656564e-01 1.006977e-01 -2.852109e-02 -8.305510e-02 -4.828636e-01 -1.333065e-01 9.220655e-02 1.441285e-01 3.627285e-01 2.443978e-01 1.854063e-01 4.163250e-02 1.804252e-01 1.327874e-01 7.307489e-02 1.778605e-02
<VARIANCE> 38
 1.939524e+01 2.720959e+01 3.160562e+01 3.186959e+01 3.832352e+01 4.414287e+01 4.035648e+01 3.763333e+01 3.932106e+01 3.743905e+01 2.997668e+01 2.463754e+01 1.800123e+00 2.331091e+00 2.164840e+00 2.370768e+00 3.013006e+00 2.689015e+00 2.708147e+00 3.163423e+00 3.010308e+00 2.886788e+00 2.757973e+00 2.546283e+00 1.000000e-02 1.862751e-01 2.212327e-01 3.185345e-01 3.308586e-01 4.118807e-01 4.054332e-01 4.414889e-01 5.011505e-01 4.759526e-01 4.579198e-01 4.163671e-01 3.784419e-01 1.000000e-02
<GCONST> 1.017831e+02
<MIXTURE> 4 3.539383e-02
<MEAN> 38
 8.837171e+00 1.613235e+00 -2.309924e+00 -1.873942e+00 2.797020e+00 3.524669e+00 -5.213469e+00 -3.996022e+00 1.338038e+00 5.219537e+00 3.502953e+00 -2.211895e+00 1.675809e-01 1.425728e+00 7.676298e-01 9.537060e-01 9.396230e-01 8.069036e-01 1.486126e+00 -1.881736e-01 -5.394623e-01 1.763677e-01 6.250706e-01 6.750168e-01 -4.593097e-05 -1.892441e-01 3.104435e-01 4.665814e-01 4.718688e-01 5.067410e-02 -1.071885e-01 4.306926e-01 3.174611e-01 1.008869e-01 -1.448644e-01 -1.357483e-01 3.121696e-01 1.450027e-02
<VARIANCE> 38
 1.140434e+01 2.042789e+01 3.208025e+01 4.833402e+01 3.231120e+01 5.059296e+01 5.074122e+01 4.418144e+01 5.101241e+01 4.875955e+01 4.887683e+01 3.592166e+01 6.520725e-01 1.271340e+00 1.544457e+00 2.249567e+00 2.121998e+00 2.770362e+00 2.799869e+00 3.008572e+00 3.110544e+00 2.794990e+00 2.623392e+00 2.044872e+00 1.000000e-02 1.083888e-01 2.041009e-01 2.612777e-01 3.243936e-01 3.829011e-01 4.229704e-01 4.732083e-01 4.998168e-01 5.020500e-01 4.993083e-01 4.376282e-01 3.926618e-01 1.000000e-02
<GCONST> 9.994672e+01
<MIXTURE> 5 2.853285e-02
<MEAN> 38
 2.118375e+00 7.947167e+00 6.607022e+00 6.167665e+00 4.622572e+00 -3.190416e-01 -1.200144e+00 -8.530140e-02 1.355947e+00 1.545644e-02 -1.165620e+00 -3.522555e-01 -1.239126e+00 9.493445e-01 1.040690e+00 1.434587e+00 1.577615e+00 1.221639e+00 1.463566e+00 7.326792e-01 3.849455e-01 1.950901e-01 5.636714e-01 3.253408e-01 -2.750936e-02 4.263609e-02 -4.475338e-01 -2.479627e-01 -4.354209e-02 -4.258700e-02 1.728065e-01 2.372764e-01 3.518287e-01 2.085733e-01 2.576566e-01 2.748703e-01 2.836317e-01 1.905619e-02
<VARIANCE> 38
 2.026533e+01 3.116045e+01 3.340451e+01 4.066397e+01 4.217042e+01 4.798107e+01 4.496444e+01 4.238404e+01 4.487092e+01 4.816099e+01 3.363998e+01 2.705501e+01 1.954957e+00 2.482370e+00 2.727383e+00 2.709144e+00 3.569800e+00 3.368887e+00 3.443914e+00 3.716307e+00 3.453972e+00 3.376671e+00 2.979364e+00 2.722361e+00 1.000000e-02 2.582803e-01 3.157233e-01 3.587470e-01 4.594319e-01 5.296463e-01 5.036907e-01 5.434049e-01 6.025934e-01 5.946455e-01 6.169145e-01 5.024681e-01 4.538881e-01 1.000000e-02
<GCONST> 1.078856e+02
<MIXTURE> 6 3.667113e-02
<MEAN> 38
 2.070594e+00 6.438427e+00 8.092938e+00 7.325269e+00 9.254927e-01 -2.639569e+00 1.527407e+00 2.766003e+00 5.083842e-01 -1.046206e+00 -9.965265e-02 2.480419e+00 -7.999637e-01 6.616494e-01 4.738401e-01 1.048627e+00 1.609316e+00 1.433617e+00 1.056083e+00 5.210250e-01 5.133159e-01 1.692174e-01 3.080224e-01 1.717446e-01 -2.169682e-02 -1.559962e-02 -1.848221e-01 -1.638323e-01 -2.103467e-02 2.296851e-01 3.208948e-01 1.678722e-01 1.311589e-01 1.666158e-01 1.923698e-01 1.200708e-01 5.887935e-02 1.821935e-02
<VARIANCE> 38
 1.338136e+01 2.410400e+01 2.321943e+01 2.363531e+01 3.748917e+01 3.920871e+01 3.821052e+01 3.199856e+01 3.446285e+01 3.437762e+01 2.980310e+01 2.241557e+01 8.584526e-01 1.444352e+00 1.322747e+00 1.566089e+00 1.764781e+00 1.966270e+00 1.990300e+00 2.071459e+00 2.198528e+00 2.004846e+00 1.913301e+00 1.842895e+00 1.000000e-02 9.812893e-02 1.664915e-01 1.889342e-01 2.175030e-01 2.832108e-01 3.072146e-01 3.224100e-01 3.497020e-01 3.692960e-01 3.517529e-01 3.243550e-01 2.910193e-01 1.000000e-02
<GCONST> 9.071209e+01
<MIXTURE> 7 3.718558e-02
<MEAN> 38
 6.956185e+00 2.644352e+00 1.821663e+00 3.043437e+00 2.929758e+00 2.362132e-02 -1.496333e+00 -2.986472e-01 8.065200e-01 5.580075e-01 -1.517171e+00 -5.604111e-01 -3.678595e-02 1.314112e+00 8.362754e-01 1.195602e+00 1.002294e+00 5.927900e-01 1.105578e+00 -1.366521e-01 -1.913882e-01 3.105086e-01 2.195718e-01 3.493491e-01 -7.136501e-04 -9.780709e-02 1.195168e-01 2.067605e-01 1.806444e-01 1.705214e-04 4.884078e-02 1.382518e-01 1.440873e-01 1.501089e-01 1.687240e-01 1.809532e-01 1.650926e-01 1.725864e-02
<VARIANCE> 38
 1.065643e+01 1.902253e+01 2.384500e+01 3.163784e+01 3.388960e+01 4.381952e+01 4.821838e+01 4.451110e+01 4.301918e+01 5.077762e+01 3.816093e+01 3.040165e+01 7.156149e-01 1.245995e+00 1.317120e+00 1.584805e+00 1.946465e+00 2.416514e+00 2.555699e+00 2.709916e+00 2.714055e+00 2.430027e+00 2.057099e+00 1.982743e+00 1.000000e-02 7.294514e-02 1.396345e-01 1.462025e-01 2.200030e-01 2.697635e-01 3.019695e-01 3.337760e-01 3.730029e-01 3.551660e-01 3.638777e-01 3.058469e-01 2.755050e-01 1.000000e-02
<GCONST> 9.254905e+01
<MIXTURE> 8 2.731570e-02
<MEAN> 38
 7.369214e+00 -8.495272e-01 -1.980492e+00 -1.334548e+00 4.241234e-01 4.460222e-01 -9.675292e-01 -2.685606e-01 2.445069e+00 2.991068e+00 -6.814311e-01 -1.633099e+00 1.534756e-01 7.668541e-01 4.138602e-01 6.287122e-01 8.083346e-01 8.203416e-01 8.175074e-01 2.245247e-02 1.133312e-01 4.111425e-01 4.273981e-01 3.126366e-01 5.975530e-03 -8.278009e-02 3.210253e-01 3.194543e-01 3.164157e-01 2.103019e-01 1.505066e-01 1.050429e-01 1.053999e-01 6.629582e-02 3.531472e-02 2.372318e-01 2.700049e-01 1.511480e-02
<VARIANCE> 38
 1.424287e+01 2.914865e+01 4.706717e+01 5.017646e+01 4.493824e+01 6.015523e+01 6.135133e+01 6.267464e+01 6.644933e+01 6.685252e+01 5.900152e+01 4.327884e+01 4.875673e-01 1.122254e+00 1.354520e+00 1.777545e+00 1.828810e+00 2.120151e+00 2.505509e+00 2.451662e+00 2.389184e+00 2.252228e+00 1.937390e+00 1.764660e+00 1.000000e-02 9.044185e-02 1.839510e-01 2.053323e-01 2.728636e-01 3.000759e-01 3.398008e-01 4.018367e-01 4.656833e-01 4.680958e-01 4.427994e-01 4.043621e-01 3.324958e-01 1.000000e-02
<GCONST> 9.866658e+01
<MIXTURE> 9 2.965140e-02
<MEAN> 38
 6.535186e+00 1.765049e+00 1.293079e+00 1.999849e+00 1.895724e+00 -7.662079e-01 -2.066360e+00 -1.165935e+00 1.542492e-01 -2.864206e-02 -2.236359e+00 -1.015868e+00 -4.732661e-02 1.027514e+00 6.975943e-01 1.060685e+00 8.301373e-01 4.991373e-01 9.734088e-01 -1.889490e-01 -2.795560e-01 2.397597e-01 1.037520e-01 1.862491e-01 2.757199e-03 -8.178165e-02 8.142212e-02 1.611457e-01 1.530620e-01 3.140458e-02 5.988645e-02 1.062613e-01 1.778188e-01 1.697415e-01 1.703236e-01 1.784945e-01 1.417007e-01 1.760896e-02
<VARIANCE> 38
 1.109753e+01 2.002318e+01 2.568473e+01 3.270705e+01 3.804012e+01 4.453594e+01 4.975367e+01 4.501527e+01 4.656917e+01 6.300700e+01 4.311994e+01 2.957532e+01 7.860888e-01 1.190750e+00 1.339165e+00 1.679707e+00 1.940109e+00 2.330216e+00 2.637158e+00 2.648414e+00 2.656275e+00 2.505216e+00 2.048756e+00 1.954780e+00 1.000000e-02 7.295633e-02 1.270585e-01 1.393574e-01 2.172340e-01 2.587018e-01 2.888136e-01 3.248970e-01 3.622814e-01 3.422169e-01 3.536599e-01 2.945553e-01 2.603399e-01 1.000000e-02
<GCONST> 9.293802e+01
<MIXTURE> 10 2.765455e-02
<MEAN> 38
 1.444761e+00 6.382727e+00 7.707091e+00 6.513230e+00 5.574733e-01 -3.381217e+00 -5.439818e-02 1.574868e+00 1.569489e-01 -1.180130e+00 -4.997817e-01 1.672207e+00 -9.401677e-01 5.307805e-01 3.879243e-01 8.471180e-01 1.386204e+00 1.281037e+00 8.672797e-01 3.943036e-01 3.390655e-01 -1.329836e-02 1.339191e-01 7.520543e-02 -2.147245e-02 -9.435430e-03 -2.254823e-01 -1.923010e-01 -5.792367e-02 2.140671e-01 3.044719e-01 1.511154e-01 1.402676e-01 1.597844e-01 1.862698e-01 1.126911e-01 6.989927e-02 1.941878e-02
<VARIANCE> 38
 1.409720e+01 2.417401e+01 2.407528e+01 2.507973e+01 3.863211e+01 3.627075e+01 3.773048e+01 3.232495e+01 3.709528e+01 3.671004e+01 2.988116e+01 2.229615e+01 1.021416e+00 1.435670e+00 1.410318e+00 1.620810e+00 1.836887e+00 1.987805e+00 1.963049e+00 2.138625e+00 2.161646e+00 1.976998e+00 1.920371e+00 1.846642e+00 1.000000e-02 1.071642e-01 1.830859e-01 1.958722e-01 2.187084e-01 2.733872e-01 2.982886e-01 3.160564e-01 3.431757e-01 3.631578e-01 3.453688e-01 3.266202e-01 2.907260e-01 1.000000e-02
<GCONST> 9.135092e+01
<MIXTURE> 11 3.188442e-02
<MEAN> 38
 1.743732e+00 8.048465e+00 6.737022e+00 5.221515e+00 2.708791e+00 -2.115390e+00 -2.046973e+00 7.602496e-01 2.157537e+00 -1.403331e-01 -6.645759e-01 7.889910e-01 -1.615855e+00 9.912624e-01 1.069471e+00 1.373284e+00 1.696167e+00 1.312672e+00 1.271146e+00 7.235164e-01 3.273483e-01 2.277195e-04 4.197235e-01 1.080416e-01 -2.818470e-02 -7.101712e-02 -5.210113e-01 -2.263674e-01 9.955078e-03 1.205890e-01 3.092661e-01 2.305679e-01 2.175892e-01 6.434010e-02 1.762921e-01 1.565577e-01 1.260626e-01 1.930853e-02
<VARIANCE> 38
 1.958394e+01 2.745869e+01 3.149800e+01 3.224664e+01 3.965828e+01 4.329919e+01 4.000227e+01 3.823382e+01 4.253898e+01 4.133248e+01 2.984552e+01 2.492625e+01 1.854815e+00 2.348245e+00 2.306821e+00 2.461689e+00 3.156339e+00 2.852679e+00 2.829202e+00 3.261981e+00 3.058798e+00 2.875302e+00 2.742476e+00 2.595877e+00 1.000000e-02 1.818680e-01 2.377382e-01 3.059335e-01 3.398399e-01 4.043735e-01 4.071735e-01 4.399871e-01 5.028502e-01 5.036746e-01 4.782156e-01 4.067046e-01 3.757391e-01 1.000000e-02
<GCONST> 1.024508e+02
<MIXTURE> 12 3.746179e-02
<MEAN> 38
 7.351120e+00 2.972985e+00 1.343080e+00 2.535178e+00 3.651988e+00 -4.298627e-01 -4.273966e+00 -1.488809e+00 1.251739e+00 1.558388e+00 -1.069135e+00 -1.734371e+00 -8.188561e-02 1.710874e+00 1.058095e+00 1.263715e+00 9.062828e-01 5.107613e-01 1.509457e+00 -3.306408e-01 -5.171868e-01 2.834531e-01 1.136610e-01 1.664622e-01 -2.408680e-03 -1.411135e-01 7.452522e-02 2.462918e-01 1.513525e-01 -1.698206e-01 -1.758741e-02 2.597982e-01 1.772919e-01 7.114512e-02 1.005579e-01 9.196827e-02 1.836534e-01 1.800094e-02
<VARIANCE> 38
 1.095689e+01 1.841582e+01 2.172311e+01 2.728370e+01 2.740162e+01 3.912047e+01 4.041333e+01 3.793087e+01 3.569297e+01 4.256706e+01 3.463287e+01 2.818872e+01 9.651706e-01 1.636863e+00 1.773643e+00 1.769475e+00 2.354160e+00 3.017669e+00 3.118747e+00 3.387877e+00 3.354185e+00 3.105365e+00 2.541005e+00 2.523433e+00 1.000000e-02 8.674973e-02 1.583499e-01 1.715543e-01 2.231457e-01 2.812983e-01 3.183537e-01 3.612020e-01 3.846855e-01 3.524956e-01 3.803696e-01 3.126462e-01 2.975014e-01 1.000000e-02
<GCONST> 9.464224e+01
<MIXTURE> 13 3.459794e-02
<MEAN> 38
 8.333992e+00 9.307895e-01 -2.552050e+00 -2.541708e+00 1.818469e+00 3.139612e+00 -4.409830e+00 -3.814536e+00 1.335245e+00 4.764575e+00 2.918646e+00 -2.372999e+00 9.504837e-02 9.600297e-01 5.708176e-01 7.637756e-01 6.710876e-01 6.294512e-01 1.184498e+00 -1.413259e-01 -3.755928e-01 1.940113e-01 4.065582e-01 4.391164e-01 5.270150e-03 -1.452785e-01 2.163180e-01 3.502013e-01 3.917581e-01 9.938934e-02 -4.306615e-02 3.079430e-01 2.648631e-01 9.597825e-02 -8.937852e-02 -6.284130e-02 2.968501e-01 1.542063e-02
<VARIANCE> 38
 1.177175e+01 2.188161e+01 3.558243e+01 5.047528e+01 3.520802e+01 5.406063e+01 5.365308e+01 4.928702e+01 5.499426e+01 5.671946e+01 5.588339e+01 3.857720e+01 6.035231e-01 1.179208e+00 1.542377e+00 2.325773e+00 2.082548e+00 2.642953e+00 2.924393e+00 2.838042e+00 3.034740e+00 2.725542e+00 2.400254e+00 2.026206e+00 1.000000e-02 1.045484e-01 1.679096e-01 2.253073e-01 3.028112e-01 3.335097e-01 3.854246e-01 4.529851e-01 4.741705e-01 4.775781e-01 4.665223e-01 4.102474e-01 3.579518e-01 1.000000e-02
<GCONST> 9.954321e+01
<MIXTURE> 14 2.223322e-02
<MEAN> 38
 2.112380e+00 7.158957e+00 6.377702e+00 6.093154e+00 4.307489e+00 -6.676404e-01 -1.819280e+00 -1.127522e+00 4.679052e-01 -2.456911e-01 -1.740132e+00 -1.316212e+00 -1.124100e+00 6.517746e-01 8.799458e-01 1.332052e+00 1.412017e+00 1.016651e+00 1.349894e+00 4.696200e-01 2.316681e-02 -3.475702e-02 2.990774e-01 2.249918e-01 -2.335542e-02 1.323654e-01 -4.629988e-01 -3.440292e-01 -1.430312e-01 -9.358577e-02 1.282966e-01 1.852669e-01 3.631968e-01 2.716908e-01 3.021883e-01 2.870461e-01 3.263808e-01 2.147245e-02
<VARIANCE> 38
 2.031798e+01 3.177149e+01 3.279348e+01 4.067558e+01 4.427538e+01 4.544523e+01 4.356974e+01 4.276262e+01 4.759963e+01 5.245431e+01 3.768483e+01 2.761664e+01 2.251086e+00 2.755914e+00 3.097151e+00 3.012125e+00 3.874127e+00 3.751577e+00 3.771301e+00 3.911976e+00 3.764240e+00 3.513585e+00 3.181878e+00 2.804725e+00 1.000000e-02 2.799843e-01 3.883949e-01 3.886496e-01 5.174081e-01 5.492730e-01 5.386296e-01 5.947423e-01 6.470732e-01 6.497727e-01 6.672441e-01 5.427058e-01 4.630947e-01 1.000000e-02
<GCONST> 1.101872e+02
<MIXTURE> 15 3.808559e-02
<MEAN> 38
 2.157703e+00 4.573425e+00 7.430743e+00 7.851954e+00 1.080335e+00 -1.819526e+00 3.233149e+00 3.698950e+00 -2.829331e-01 -1.908428e+00 -4.929029e-01 3.100050e+00 -7.301417e-01 4.308315e-01 1.895513e-01 9.055952e-01 1.536631e+00 1.348048e+00 9.534215e-01 3.749030e-01 4.440539e-01 3.981474e-02 1.241310e-01 4.511803e-02 -2.096432e-02 -8.744437e-03 -9.793951e-02 -1.574228e-01 -1.068171e-01 1.642512e-01 2.261595e-01 9.554110e-03 5.004309e-02 2.106155e-01 2.363653e-01 1.023557e-01 -4.100227e-02 1.831432e-02
<VARIANCE> 38
 1.115744e+01 2.255712e+01 2.043596e+01 2.410777e+01 3.956923e+01 4.550330e+01 4.338264e+01 3.296220e+01 3.423378e+01 3.875092e+01 3.190567e+01 2.384517e+01 6.616863e-01 1.311844e+00 1.275844e+00 1.486171e+00 1.674586e+00 1.947435e+00 1.971183e+00 2.036387e+00 2.171372e+00 2.080945e+00 1.930243e+00 1.824868e+00 1.000000e-02 7.933937e-02 1.499552e-01 1.693879e-01 2.172522e-01 2.831668e-01 3.400635e-01 3.338777e-01 3.567986e-01 3.629525e-01 3.561070e-01 3.384559e-01 3.099463e-01 1.000000e-02
<GCONST> 9.027814e+01
<MIXTURE> 16 2.299557e-02
<MEAN> 38
 6.618069e+00 -2.420209e+00 -2.901970e+00 -2.094018e+00 -2.863692e-01 -3.806808e-01 -6.199553e-01 1.024110e+00 3.204073e+00 2.600765e+00 -2.027068e+00 -2.188200e+00 6.052642e-02 3.862268e-01 1.621631e-01 4.279917e-01 6.842142e-01 7.377751e-01 7.523422e-01 1.506865e-02 1.526471e-01 3.178565e-01 1.790879e-01 3.921786e-02 8.833960e-03 -4.563023e-02 2.642171e-01 2.654641e-01 2.503010e-01 1.926031e-01 1.528803e-01 4.276891e-02 4.472821e-02 4.584962e-02 4.480967e-02 2.677790e-01 2.425824e-01 1.584981e-02
<VARIANCE> 38
 1.405916e+01 3.016870e+01 4.870756e+01 4.476965e+01 4.724650e+01 5.687250e+01 6.052597e+01 6.780789e+01 7.137639e+01 7.700447e+01 6.029795e+01 4.456779e+01 4.507403e-01 1.116261e+00 1.487522e+00 1.711475e+00 1.846488e+00 2.083589e+00 2.543139e+00 2.389885e+00 2.321963e+00 2.258414e+00 1.854052e+00 1.800212e+00 1.000000e-02 8.373144e-02 1.583196e-01 1.902695e-01 2.491581e-01 2.696235e-01 3.001738e-01 3.656920e-01 4.315359e-01 4.378823e-01 4.104340e-01 3.681839e-01 3.089349e-01 1.000000e-02
<GCONST> 9.772955e+01
<MIXTURE> 17 3.808559e-02
<MEAN> 38
 8.215929e-01 2.673651e+00 5.622497e+00 5.887968e+00 -1.435828e+00 -4.517772e+00 5.985290e-01 1.402442e+00 -2.623319e+00 -4.398438e+00 -2.752307e+00 1.146790e+00 -1.055518e+00 -2.731152e-02 -2.622617e-01 4.179608e-01 1.019007e+00 7.898459e-01 3.918262e-01 -1.959051e-01 -1.453691e-01 -5.372045e-01 -4.316018e-01 -4.952326e-01 -6.096432e-02 -1.214134e-01 -2.528357e-01 -3.220498e-01 -2.932583e-01 -4.860252e-02 -7.100329e-03 -2.215745e-01 -1.888874e-01 -3.036667e-02 -2.333507e-03 -1.303521e-01 -2.636935e-01 -2.168567e-02
<VARIANCE> 38
 1.115744e+01 2.255712e+01 2.043596e+01 2.410777e+01 3.956923e+01 4.550330e+01 4.338264e+01 3.296220e+01 3.423378e+01 3.875092e+01 3.190567e+01 2.384517e+01 6.616863e-01 1.311844e+00 1.275844e+00 1.486171e+00 1.674586e+00 1.947435e+00 1.971183e+00 2.036387e+00 2.171372e+00 2.080945e+00 1.930243e+00 1.824868e+00 1.000000e-02 7.933937e-02 1.499552e-01 1.693879e-01 2.172522e-01 2.831668e-01 3.400635e-01 3.338777e-01 3.567986e-01 3.629525e-01 3.561070e-01 3.384559e-01 3.099463e-01 1.000000e-02
<GCONST> 9.027814e+01
<MIXTURE> 18 3.746179e-02
<MEAN> 38
 6.027072e+00 1.256439e+00 -5.212426e-01 4.458259e-01 1.558126e+00 -2.931717e+00 -6.816825e+00 -3.952331e+00 -1.138004e+00 -1.051349e+00 -3.423123e+00 -3.858093e+00 -4.748580e-01 1.199114e+00 5.253825e-01 7.316282e-01 2.925519e-01 -1.840963e-01 8.030576e-01 -1.066888e+00 -1.249764e+00 -4.214287e-01 -5.239602e-01 -4.689505e-01 -4.240868e-02 -2.589267e-01 -8.464760e-02 8.061536e-02 -3.760066e-02 -3.819709e-01 -2.432788e-01 1.939783e-02 -7.080020e-02 -1.663402e-01 -1.461386e-01 -1.316908e-01 -3.452134e-02 -2.199906e-02
<VARIANCE> 38
 1.095689e+01 1.841582e+01 2.172311e+01 2.728370e+01 2.740162e+01 3.912047e+01 4.041333e+01 3.793087e+01 3.569297e+01 4.256706e+01 3.463287e+01 2.818872e+01 9.651706e-01 1.636863e+00 1.773643e+00 1.769475e+00 2.354160e+00 3.017669e+00 3.118747e+00 3.387877e+00 3.354185e+00 3.105365e+00 2.541005e+00 2.523433e+00 1.000000e-02 8.674973e-02 1.583499e-01 1.715543e-01 2.231457e-01 2.812983e-01 3.183537e-01 3.612020e-01 3.846855e-01 3.524956e-01 3.803696e-01 3.126462e-01 2.975014e-01 1.000000e-02
<GCONST> 9.464224e+01
<MIXTURE> 19 3.718558e-02
<MEAN> 38
 5.650418e+00 8.997595e-01 -1.315905e-01 7.935364e-01 6.011666e-01 -2.624231e+00 -4.273911e+00 -2.967313e+00 -1.817040e+00 -2.292329e+00 -3.988153e+00 -2.765919e+00 -3.751621e-01 8.676156e-01 3.772120e-01 6.920460e-01 4.442308e-01 -2.901560e-02 4.661157e-01 -7.951249e-01 -8.503638e-01 -3.130332e-01 -3.541319e-01 -2.138905e-01 -4.071365e-02 -2.058405e-01 -2.995398e-02 5.381473e-02 -6.973520e-03 -2.075845e-01 -1.709662e-01 -9.284166e-02 -1.002085e-01 -8.827431e-02 -7.256512e-02 -4.026055e-02 -4.486174e-02 -2.274136e-02
<VARIANCE> 38
 1.065643e+01 1.902253e+01 2.384500e+01 3.163784e+01 3.388960e+01 4.381952e+01 4.821838e+01 4.451110e+01 4.301918e+01 5.077762e+01 3.816093e+01 3.040165e+01 7.156149e-01 1.245995e+00 1.317120e+00 1.584805e+00 1.946465e+00 2.416514e+00 2.555699e+00 2.709916e+00 2.714055e+00 2.430027e+00 2.057099e+00 1.982743e+00 1.000000e-02 7.294514e-02 1.396345e-01 1.462025e-01 2.200030e-01 2.697635e-01 3.019695e-01 3.337760e-01 3.730029e-01 3.551660e-01 3.638777e-01 3.058469e-01 2.755050e-01 1.000000e-02
<GCONST> 9.254905e+01
<MIXTURE> 20 3.667113e-02
<MEAN> 38
 6.073722e-01 4.474595e+00 6.165476e+00 5.380623e+00 -1.523643e+00 -5.144243e+00 -9.451790e-01 5.033126e-01 -1.839818e+00 -3.391504e+00 -2.283341e+00 5.866153e-01 -1.170575e+00 1.809246e-01 1.379712e-02 5.480530e-01 1.077936e+00 8.727216e-01 4.917714e-01 -5.467761e-02 -7.978149e-02 -3.971530e-01 -2.452661e-01 -3.712685e-01 -6.169682e-02 -1.409018e-01 -3.480356e-01 -3.376985e-01 -2.075835e-01 1.681489e-02 9.918701e-02 -5.925244e-02 -1.053835e-01 -7.646312e-02 -4.486520e-02 -1.077379e-01 -1.569055e-01 -2.178065e-02
<VARIANCE> 38
 1.338136e+01 2.410400e+01 2.321943e+01 2.363531e+01 3.748917e+01 3.920871e+01 3.821052e+01 3.199856e+01 3.446285e+01 3.437762e+01 2.980310e+01 2.241557e+01 8.584526e-01 1.444352e+00 1.322747e+00 1.566089e+00 1.764781e+00 1.966270e+00 1.990300e+00 2.071459e+00 2.198528e+00 2.004846e+00 1.913301e+00 1.842895e+00 1.000000e-02 9.812893e-02 1.664915e-01 1.889342e-01 2.175030e-01 2.832108e-01 3.072146e-01 3.224100e-01 3.497020e-01 3.692960e-01 3.517529e-01 3.243550e-01 2.910193e-01 1.000000e-02
<GCONST> 9.071209e+01
<MIXTURE> 21 3.539383e-02
<MEAN> 38
 7.486358e+00 -1.946544e-01 -4.575501e+00 -4.654849e+00 5.233022e-01 6.795193e-01 -8.062783e+00 -6.654787e+00 -1.518880e+00 2.426415e+00 7.064745e-01 -4.609282e+00 -1.554231e-01 9.747135e-01 2.705250e-01 3.537638e-01 3.569398e-01 1.411274e-01 8.168138e-01 -8.819830e-01 -1.244932e+00 -4.923613e-01 -2.280498e-02 1.030207e-01 -4.004593e-02 -3.209339e-01 1.297334e-01 2.621200e-01 2.440466e-01 -1.968419e-01 -3.673332e-01 1.555320e-01 3.467025e-02 -1.825350e-01 -4.275114e-01 -4.003621e-01 6.151862e-02 -2.549973e-02
<VARIANCE> 38
 1.140434e+01 2.042789e+01 3.208025e+01 4.833402e+01 3.231120e+01 5.059296e+01 5.074122e+01 4.418144e+01 5.101241e+01 4.875955e+01 4.887683e+01 3.592166e+01 6.520725e-01 1.271340e+00 1.544457e+00 2.249567e+00 2.121998e+00 2.770362e+00 2.799869e+00 3.008572e+00 3.110544e+00 2.794990e+00 2.623392e+00 2.044872e+00 1.000000e-02 1.083888e-01 2.041009e-01 2.612777e-01 3.243936e-01 3.829011e-01 4.229704e-01 4.732083e-01 4.998168e-01 5.020500e-01 4.993083e-01 4.376282e-01 3.926618e-01 1.000000e-02
<GCONST> 9.994672e+01
<MIXTURE> 22 3.459794e-02
<MEAN> 38
 6.961592e+00 -9.403219e-01 -4.938090e+00 -5.383546e+00 -5.549851e-01 1.985743e-01 -7.339760e+00 -6.622724e+00 -1.631080e+00 1.752082e+00 -7.156181e-02 -4.857421e+00 -2.156986e-01 5.256643e-01 7.404774e-02 1.537562e-01 9.384620e-02 -2.083531e-02 5.004632e-01 -8.151855e-01 -1.072413e+00 -4.663573e-01 -2.131519e-01 -1.302630e-01 -3.472985e-02 -2.746143e-01 5.241085e-02 1.603351e-01 1.716449e-01 -1.316119e-01 -2.913965e-01 3.872636e-02 -1.057708e-02 -1.804499e-01 -3.625883e-01 -3.190435e-01 5.753385e-02 -2.457937e-02
<VARIANCE> 38
 1.177175e+01 2.188161e+01 3.558243e+01 5.047528e+01 3.520802e+01 5.406063e+01 5.365308e+01 4.928702e+01 5.499426e+01 5.671946e+01 5.588339e+01 3.857720e+01 6.035231e-01 1.179208e+00 1.542377e+00 2.325773e+00 2.082548e+00 2.642953e+00 2.924393e+00 2.838042e+00 3.034740e+00 2.725542e+00 2.400254e+00 2.026206e+00 1.000000e-02 1.045484e-01 1.679096e-01 2.253073e-01 3.028112e-01 3.335097e-01 3.854246e-01 4.529851e-01 4.741705e-01 4.775781e-01 4.665223e-01 4.102474e-01 3.579518e-01 1.000000e-02
<GCONST> 9.954321e+01
<MIXTURE> 23 3.193439e-02
<MEAN> 38
 6.487996e+00 2.166439e+00 -7.520860e-02 1.241319e+00 2.442318e+00 -2.430768e+00 -6.769692e+00 -3.506072e+00 -3.008359e-01 -3.325220e-01 -2.711974e+00 -3.299088e+00 -4.369680e-01 1.620453e+00 7.247402e-01 8.686426e-01 5.078176e-01 -1.981369e-02 9.502198e-01 -1.000965e+00 -1.102755e+00 -3.572737e-01 -3.797149e-01 -4.173107e-01 -4.822919e-02 -2.885156e-01 -3.276112e-02 1.514978e-01 -2.189143e-02 -4.365371e-01 -2.697135e-01 5.746716e-02 -7.144630e-02 -2.044142e-01 -1.840130e-01 -1.300557e-01 -2.861029e-02 -2.288092e-02
<VARIANCE> 38
 1.111217e+01 1.835814e+01 2.094311e+01 2.655078e+01 2.535199e+01 3.766696e+01 3.922356e+01 3.759048e+01 3.347353e+01 3.543921e+01 3.081536e+01 2.774132e+01 8.109638e-01 1.676082e+00 1.790929e+00 1.680918e+00 2.310960e+00 3.044906e+00 2.894407e+00 3.353903e+00 3.418499e+00 2.989891e+00 2.541836e+00 2.503744e+00 1.000000e-02 8.769819e-02 1.778186e-01 1.854801e-01 2.260218e-01 2.809857e-01 3.248928e-01 3.660058e-01 3.885566e-01 3.619749e-01 3.917442e-01 3.182052e-01 3.040135e-01 1.000000e-02
<GCONST> 9.409732e+01
<MIXTURE> 24 3.190625e-02
<MEAN> 38
 1.539359e+00 2.206582e+00 6.161065e+00 6.847038e+00 -8.930391e-01 -3.043063e+00 2.844741e+00 2.652263e+00 -2.436212e+00 -4.627568e+00 -2.523787e+00 2.155421e+00 -8.795190e-01 1.196167e-02 -1.654507e-01 6.812494e-01 1.277459e+00 9.827440e-01 6.019366e-01 -3.683664e-02 -4.589938e-02 -4.799535e-01 -2.902193e-01 -3.800669e-01 -5.927738e-02 -1.115470e-01 -1.868329e-01 -3.039952e-01 -2.595034e-01 -4.507980e-02 -2.068479e-02 -2.182450e-01 -1.705054e-01 3.207169e-03 1.726728e-02 -1.182118e-01 -2.908456e-01 -2.282825e-02
<VARIANCE> 38
 9.656276e+00 2.164692e+01 1.942896e+01 2.231200e+01 3.866322e+01 5.108142e+01 4.299832e+01 3.153700e+01 3.231040e+01 3.841639e+01 3.015824e+01 2.359174e+01 4.699667e-01 1.291603e+00 1.154704e+00 1.378112e+00 1.586867e+00 1.923061e+00 1.953946e+00 1.937457e+00 2.183285e+00 2.076904e+00 1.907477e+00 1.780008e+00 1.000000e-02 6.385767e-02 1.296907e-01 1.587139e-01 2.137973e-01 2.901113e-01 3.527463e-01 3.383992e-01 3.565323e-01 3.707241e-01 3.599983e-01 3.378909e-01 3.083123e-01 1.000000e-02
<GCONST> 8.883451e+01
<MIXTURE> 25 3.188442e-02
<MEAN> 38
 -2.641809e-02 5.952423e+00 4.492100e+00 2.950069e+00 1.897986e-01 -4.747475e+00 -4.576867e+00 -1.713091e+00 -4.513390e-01 -2.711947e+00 -2.849818e+00 -1.208057e+00 -2.160621e+00 3.783030e-01 4.619423e-01 7.456926e-01 9.855232e-01 6.370769e-01 5.983372e-01 1.078188e-03 -3.722285e-01 -6.780409e-01 -2.426934e-01 -5.364274e-01 -6.818470e-02 -2.416011e-01 -7.160450e-01 -4.476124e-01 -2.232281e-01 -1.337725e-01 5.402550e-02 -3.475822e-02 -6.605855e-02 -2.195400e-01 -1.003205e-01 -9.853590e-02 -1.191277e-01 -2.069147e-02
<VARIANCE> 38
 1.958394e+01 2.745869e+01 3.149800e+01 3.224664e+01 3.965828e+01 4.329919e+01 4.000227e+01 3.823382e+01 4.253898e+01 4.133248e+01 2.984552e+01 2.492625e+01 1.854815e+00 2.348245e+00 2.306821e+00 2.461689e+00 3.156339e+00 2.852679e+00 2.829202e+00 3.261981e+00 3.058798e+00 2.875302e+00 2.742476e+00 2.595877e+00 1.000000e-02 1.818680e-01 2.377382e-01 3.059335e-01 3.398399e-01 4.043735e-01 4.071735e-01 4.399871e-01 5.028502e-01 5.036746e-01 4.782156e-01 4.067046e-01 3.757391e-01 1.000000e-02
<GCONST> 1.024508e+02
<MIXTURE> 26 2.965140e-02
<MEAN> 38
 5.202668e+00 -2.484179e-02 -7.341254e-01 -2.877539e-01 -5.713432e-01 -3.435618e+00 -4.887812e+00 -3.849671e+00 -2.575415e+00 -3.203720e+00 -4.862989e+00 -3.191196e+00 -4.019732e-01 5.910280e-01 2.347051e-01 5.422705e-01 2.729861e-01 -1.114645e-01 3.238357e-01 -8.399070e-01 -9.314793e-01 -3.933552e-01 -4.687870e-01 -3.730047e-01 -3.724280e-02 -1.898234e-01 -6.115896e-02 1.182333e-02 -3.337147e-02 -1.720464e-01 -1.550791e-01 -1.217377e-01 -6.294049e-02 -6.425574e-02 -6.755368e-02 -3.859726e-02 -6.239336e-02 -2.239104e-02
<VARIANCE> 38
 1.109753e+01 2.002318e+01 2.568473e+01 3.270705e+01 3.804012e+01 4.453594e+01 4.975367e+01 4.501527e+01 4.656917e+01 6.300700e+01 4.311994e+01 2.957532e+01 7.860888e-01 1.190750e+00 1.339165e+00 1.679707e+00 1.940109e+00 2.330216e+00 2.637158e+00 2.648414e+00 2.656275e+00 2.505216e+00 2.048756e+00 1.954780e+00 1.000000e-02 7.295633e-02 1.270585e-01 1.393574e-01 2.172340e-01 2.587018e-01 2.888136e-01 3.248970e-01 3.622814e-01 3.422169e-01 3.536599e-01 2.945553e-01 2.603399e-01 1.000000e-02
<GCONST> 9.293802e+01
<MIXTURE> 27 2.853285e-02
<MEAN> 38
 3.176934e-01 5.714305e+00 4.295157e+00 3.616933e+00 2.025022e+00 -3.089777e+00 -3.882366e+00 -2.689423e+00 -1.323483e+00 -2.760468e+00 -3.485620e+00 -2.432833e+00 -1.798406e+00 3.191230e-01 3.800980e-01 7.762074e-01 8.218586e-01 4.874580e-01 7.212542e-01 -3.842983e-02 -3.584492e-01 -5.399387e-01 -1.267620e-01 -3.346424e-01 -6.750936e-02 -1.606490e-01 -6.722909e-01 -4.875447e-01 -3.146677e-01 -3.336942e-01 -1.110782e-01 -5.758763e-02 4.132111e-02 -9.987977e-02 -5.651902e-02 -8.669674e-03 1.414686e-02 -2.094381e-02
<VARIANCE> 38
 2.026533e+01 3.116045e+01 3.340451e+01 4.066397e+01 4.217042e+01 4.798107e+01 4.496444e+01 4.238404e+01 4.487092e+01 4.816099e+01 3.363998e+01 2.705501e+01 1.954957e+00 2.482370e+00 2.727383e+00 2.709144e+00 3.569800e+00 3.368887e+00 3.443914e+00 3.716307e+00 3.453972e+00 3.376671e+00 2.979364e+00 2.722361e+00 1.000000e-02 2.582803e-01 3.157233e-01 3.587470e-01 4.594319e-01 5.296463e-01 5.036907e-01 5.434049e-01 6.025934e-01 5.946455e-01 6.169145e-01 5.024681e-01 4.538881e-01 1.000000e-02
<GCONST> 1.078856e+02
<MIXTURE> 28 2.765455e-02
<MEAN> 38
 -5.708867e-02 4.416043e+00 5.744429e+00 4.510044e+00 -1.928716e+00 -5.790225e+00 -2.511404e+00 -6.993334e-01 -2.279287e+00 -3.603682e+00 -2.686328e+00 -2.165446e-01 -1.344428e+00 5.150270e-02 -8.710293e-02 3.378738e-01 8.440763e-01 7.170787e-01 3.068443e-01 -1.906580e-01 -2.490360e-01 -5.757214e-01 -4.203907e-01 -4.683594e-01 -6.147245e-02 -1.403792e-01 -3.966365e-01 -3.693308e-01 -2.449887e-01 4.921317e-03 8.600869e-02 -7.376014e-02 -9.405722e-02 -8.126590e-02 -4.880252e-02 -1.159117e-01 -1.457768e-01 -2.058122e-02
<VARIANCE> 38
 1.409720e+01 2.417401e+01 2.407528e+01 2.507973e+01 3.863211e+01 3.627075e+01 3.773048e+01 3.232495e+01 3.709528e+01 3.671004e+01 2.988116e+01 2.229615e+01 1.021416e+00 1.435670e+00 1.410318e+00 1.620810e+00 1.836887e+00 1.987805e+00 1.963049e+00 2.138625e+00 2.161646e+00 1.976998e+00 1.920371e+00 1.846642e+00 1.000000e-02 1.071642e-01 1.830859e-01 1.958722e-01 2.187084e-01 2.733872e-01 2.982886e-01 3.160564e-01 3.431757e-01 3.631578e-01 3.453688e-01 3.266202e-01 2.907260e-01 1.000000e-02
<GCONST> 9.135092e+01
<MIXTURE> 29 2.731570e-02
<MEAN> 38
