~o
<STREAMINFO> 1 38
<VECSIZE> 38<NULLD><MFCC_E_D_N_A_Z><DIAGC>
~h "proto38"
<BEGINHMM>
<NUMSTATES> 5
<STATE> 2
<SWEIGHTS> 1
 1.000000e+00
<MEAN> 38
 1.920490e-09 -1.002571e-09 1.644597e-09 -7.647603e-10 -7.508311e-09 4.448442e-09 4.902124e-09 2.011247e-09 2.537473e-10 2.970043e-09 3.530523e-09 6.146127e-09 1.244484e-03 -6.890105e-04 2.646395e-04 1.054505e-05 1.905625e-03 -2.590524e-03 -2.099778e-03 8.004520e-05 -1.253528e-03 -2.297422e-03 -1.202820e-03 -3.968162e-04 4.380570e-05 -4.391398e-04 2.784267e-04 -1.367554e-04 4.243469e-04 3.483964e-04 4.518192e-04 6.099007e-04 3.402825e-04 3.397169e-04 2.040394e-04 2.682947e-04 2.630822e-04 -6.264036e-05
<VARIANCE> 38
 8.576576e+01 5.087136e+01 6.271337e+01 6.073053e+01 6.613818e+01 5.805414e+01 5.703567e+01 6.302882e+01 5.653385e+01 4.303978e+01 4.330822e+01 3.438909e+01 1.925354e+00 2.050035e+00 1.880393e+00 2.192613e+00 2.401940e+00 2.390353e+00 2.497855e+00 2.626992e+00 2.472476e+00 2.255741e+00 2.145999e+00 1.830603e+00 1.000000e-02 2.167585e-01 3.251356e-01 2.836866e-01 3.316853e-01 3.730040e-01 3.905258e-01 4.161561e-01 4.331916e-01 4.149714e-01 3.939462e-01 3.720886e-01 3.235607e-01 1.000000e-02
<GCONST> 1.057201e+02
<STATE> 3
<SWEIGHTS> 1
 1.000000e+00
<MEAN> 38
 1.920490e-09 -1.002571e-09 1.644597e-09 -7.647603e-10 -7.508311e-09 4.448442e-09 4.902124e-09 2.011247e-09 2.537473e-10 2.970043e-09 3.530523e-09 6.146127e-09 1.244484e-03 -6.890105e-04 2.646395e-04 1.054505e-05 1.905625e-03 -2.590524e-03 -2.099778e-03 8.004520e-05 -1.253528e-03 -2.297422e-03 -1.202820e-03 -3.968162e-04 4.380570e-05 -4.391398e-04 2.784267e-04 -1.367554e-04 4.243469e-04 3.483964e-04 4.518192e-04 6.099007e-04 3.402825e-04 3.397169e-04 2.040394e-04 2.682947e-04 2.630822e-04 -6.264036e-05
<VARIANCE> 38
 8.576576e+01 5.087136e+01 6.271337e+01 6.073053e+01 6.613818e+01 5.805414e+01 5.703567e+01 6.302882e+01 5.653385e+01 4.303978e+01 4.330822e+01 3.438909e+01 1.925354e+00 2.050035e+00 1.880393e+00 2.192613e+00 2.401940e+00 2.390353e+00 2.497855e+00 2.626992e+00 2.472476e+00 2.255741e+00 2.145999e+00 1.830603e+00 1.000000e-02 2.167585e-01 3.251356e-01 2.836866e-01 3.316853e-01 3.730040e-01 3.905258e-01 4.161561e-01 4.331916e-01 4.149714e-01 3.939462e-01 3.720886e-01 3.235607e-01 1.000000e-02
<GCONST> 1.057201e+02
<STATE> 4
<SWEIGHTS> 1
 1.000000e+00
<MEAN> 38
 1.920490e-09 -1.002571e-09 1.644597e-09 -7.647603e-10 -7.508311e-09 4.448442e-09 4.902124e-09 2.011247e-09 2.537473e-10 2.970043e-09 3.530523e-09 6.146127e-09 1.244484e-03 -6.890105e-04 2.646395e-04 1.054505e-05 1.905625e-03 -2.590524e-03 -2.099778e-03 8.004520e-05 -1.253528e-03 -2.297422e-03 -1.202820e-03 -3.968162e-04 4.380570e-05 -4.391398e-04 2.784267e-04 -1.367554e-04 4.243469e-04 3.483964e-04 4.518192e-04 6.099007e-04 3.402825e-04 3.397169e-04 2.040394e-04 2.682947e-04 2.630822e-04 -6.264036e-05
<VARIANCE> 38
 8.576576e+01 5.087136e+01 6.271337e+01 6.073053e+01 6.613818e+01 5.805414e+01 5.703567e+01 6.302882e+01 5.653385e+01 4.303978e+01 4.330822e+01 3.438909e+01 1.925354e+00 2.050035e+00 1.880393e+00 2.192613e+00 2.401940e+00 2.390353e+00 2.497855e+00 2.626992e+00 2.472476e+00 2.255741e+00 2.145999e+00 1.830603e+00 1.000000e-02 2.167585e-01 3.251356e-01 2.836866e-01 3.316853e-01 3.730040e-01 3.905258e-01 4.161561e-01 4.331916e-01 4.149714e-01 3.939462e-01 3.720886e-01 3.235607e-01 1.000000e-02
<GCONST> 1.057201e+02
<TRANSP> 5
 0.000000e+00 1.000000e+00 0.000000e+00 0.000000e+00 0.000000e+00
 0.000000e+00 6.000000e-01 4.000000e-01 0.000000e+00 0.000000e+00
 0.000000e+00 0.000000e+00 6.000000e-01 4.000000e-01 0.000000e+00
 0.000000e+00 0.000000e+00 0.000000e+00 6.000000e-01 4.000000e-01
 0.000000e+00 0.000000e+00 0.000000e+00 0.000000e+00 0.000000e+00
<ENDHMM>
