~o
<STREAMINFO> 1 38
<VECSIZE> 38<NULLD><MFCC_E_D_N_A_Z><DIAGC>
~h "@"
<BEGINHMM>
<NUMSTATES> 5
<STATE> 2
<NUMMIXES> 16
<SWEIGHTS> 1
 1.000000e+00
<MIXTURE> 1 3.690950e-02
<MEAN> 38
 4.604472e+00 5.496395e-01 1.723732e+00 1.229212e-02 -4.374881e+00 -4.123132e+00 -3.547765e+00 -1.725277e+00 -1.805815e+00 6.865168e-01 6.584737e-01 1.741937e+00 2.656813e-01 8.424116e-01 3.491948e-01 2.777157e-01 3.004492e-01 1.784965e-01 2.796969e-01 -1.225621e-02 1.191465e-01 9.743434e-02 2.446359e-02 2.562850e-01 -2.377008e-03 -4.945251e-01 2.014535e-01 1.105606e-01 2.714022e-01 5.960333e-01 2.331195e-01 2.224969e-01 1.450526e-01 1.907559e-01 -1.085705e-01 -4.446885e-02 -1.781823e-01 -1.017997e-02
<VARIANCE> 38
 3.397909e+01 3.354216e+01 5.780959e+01 6.074651e+01 7.176652e+01 7.798023e+01 5.557411e+01 6.054357e+01 5.627514e+01 4.714999e+01 3.903521e+01 3.303537e+01 1.442997e+00 1.813933e+00 2.188938e+00 2.429183e+00 3.058860e+00 2.781112e+00 2.661242e+00 3.032237e+00 3.171866e+00 2.927807e+00 2.411732e+00 2.111787e+00 1.000000e-02 3.037712e-01 4.733960e-01 4.730945e-01 6.570380e-01 7.000993e-01 7.882091e-01 7.433965e-01 8.535616e-01 7.345664e-01 6.688619e-01 5.785594e-01 5.423880e-01 1.000000e-02
<GCONST> 1.123198e+02
<MIXTURE> 2 5.441704e-02
<MEAN> 38
 3.857060e+00 2.536281e+00 4.054861e+00 2.212922e+00 -3.916171e+00 -8.484505e+00 -3.371383e+00 -7.148874e-02 -4.665443e-02 -1.506359e+00 -5.996345e-01 3.603980e+00 1.168855e+00 -2.355231e-01 1.843533e-03 -2.421505e-01 -7.001738e-01 2.241776e-03 -2.084149e-01 -5.861208e-02 3.541322e-01 5.018260e-01 1.846506e-02 4.302792e-01 1.998780e-02 -8.154151e-01 -1.637967e-01 -1.106860e-01 5.949673e-02 5.442938e-01 4.999300e-01 3.588147e-01 3.513829e-01 1.095381e-01 4.287995e-02 1.986380e-01 -1.710179e-01 -1.180231e-02
<VARIANCE> 38
 1.294854e+01 1.660407e+01 2.381962e+01 2.018171e+01 3.127557e+01 3.194324e+01 3.954626e+01 3.095864e+01 3.295327e+01 2.602352e+01 2.220969e+01 1.956295e+01 8.170360e-01 1.328488e+00 1.047337e+00 1.316002e+00 1.649775e+00 1.890886e+00 1.758047e+00 1.976205e+00 2.003448e+00 1.855662e+00 1.549625e+00 1.551735e+00 1.000000e-02 1.574018e-01 2.587332e-01 2.211641e-01 2.610440e-01 3.062407e-01 3.382732e-01 3.982925e-01 3.887380e-01 3.882403e-01 3.478676e-01 3.075189e-01 2.902129e-01 1.000000e-02
<GCONST> 8.939252e+01
<MIXTURE> 3 3.283741e-02
<MEAN> 38
 5.717321e+00 -1.495965e-02 -1.084450e+00 -2.278121e+00 -2.762219e+00 -6.935850e+00 -8.461306e+00 -1.881993e+00 1.506724e+00 -2.875290e+00 -5.000621e+00 3.715335e-01 1.541603e+00 -6.921367e-01 -2.436053e-02 -8.633450e-01 -6.348013e-01 3.835465e-01 -6.688971e-01 -1.426630e-01 5.080522e-01 8.204644e-01 -2.399249e-01 3.263451e-01 2.719162e-02 -1.148475e+00 -4.144244e-02 1.180261e-01 5.295376e-01 6.595180e-01 4.922870e-01 8.509569e-01 6.051381e-01 1.608282e-01 3.275402e-01 7.285554e-01 1.091421e-01 -1.695627e-02
<VARIANCE> 38
 1.107840e+01 1.965037e+01 2.667189e+01 2.624508e+01 3.767995e+01 4.419523e+01 4.188231e+01 3.584720e+01 3.928295e+01 3.731152e+01 2.507011e+01 2.412466e+01 1.117656e+00 1.987185e+00 1.346544e+00 1.986009e+00 2.305178e+00 2.658400e+00 2.457845e+00 3.204242e+00 2.487170e+00 2.645997e+00 2.138694e+00 2.223860e+00 1.000000e-02 1.471437e-01 3.786193e-01 2.876032e-01 3.787314e-01 4.106406e-01 4.295094e-01 4.825530e-01 5.449862e-01 5.140619e-01 4.505090e-01 3.994961e-01 3.673552e-01 1.000000e-02
<GCONST> 9.853471e+01
<MIXTURE> 4 9.414721e-02
<MEAN> 38
 6.732887e+00 -2.236566e+00 2.601398e-01 -8.335986e-01 -3.387637e+00 -3.264339e+00 -8.467971e+00 -1.338003e-01 2.695619e+00 8.044471e-01 -1.035289e-01 -1.071405e+00 4.154035e-01 -3.104895e-01 4.001648e-02 5.856815e-02 -2.025440e-01 3.379344e-01 -2.634634e-01 3.292825e-01 2.349224e-01 1.850287e-01 1.238917e-01 -1.486016e-02 7.128494e-03 -4.174174e-01 3.966895e-01 1.041292e-01 2.500815e-01 4.559655e-01 8.286109e-04 4.787979e-01 -1.385676e-01 -1.910877e-01 -7.877255e-02 -8.094144e-02 1.013556e-01 -9.463977e-03
<VARIANCE> 38
 9.876282e+00 1.737375e+01 2.974442e+01 3.008591e+01 3.328949e+01 4.831602e+01 4.814990e+01 4.403790e+01 3.904456e+01 3.902854e+01 3.488913e+01 3.327386e+01 3.822300e-01 7.895546e-01 1.041936e+00 1.178687e+00 1.504560e+00 1.652603e+00 1.686529e+00 1.821972e+00 1.752373e+00 1.829668e+00 1.571007e+00 1.427751e+00 1.000000e-02 1.438944e-01 2.117283e-01 2.060898e-01 2.614392e-01 3.140882e-01 3.435683e-01 4.151416e-01 4.155163e-01 3.964594e-01 3.768484e-01 3.708711e-01 3.363366e-01 1.000000e-02
<GCONST> 9.063435e+01
<MIXTURE> 5 1.256389e-01
<MEAN> 38
 6.325755e+00 -3.084596e+00 -7.508733e-01 -3.040283e+00 -1.705952e+00 -2.840814e+00 -7.496131e+00 1.033546e+00 1.994691e+00 4.585809e-01 -2.113654e+00 -2.063882e+00 2.445725e-01 -4.950435e-01 1.138900e-01 -9.638119e-02 -1.895811e-01 2.193959e-01 -2.533141e-01 7.232995e-01 3.192302e-01 4.282732e-02 -1.332184e-01 -1.877343e-02 6.176773e-03 -2.365182e-01 3.559834e-01 1.084294e-01 3.512304e-01 2.143597e-01 -3.514048e-03 3.319663e-01 -2.645321e-01 -1.411954e-01 -5.965042e-02 8.830060e-02 1.197027e-01 -6.967044e-03
<VARIANCE> 38
 1.031105e+01 1.887655e+01 3.083528e+01 3.133439e+01 3.778209e+01 5.025857e+01 5.071001e+01 4.379005e+01 4.378233e+01 5.073981e+01 4.474311e+01 3.351893e+01 3.795504e-01 7.081869e-01 1.111143e+00 1.191673e+00 1.420157e+00 1.734433e+00 1.859595e+00 1.824198e+00 1.927337e+00 1.979312e+00 1.743819e+00 1.591191e+00 1.000000e-02 1.170225e-01 1.490655e-01 1.759382e-01 2.191058e-01 2.774639e-01 2.983280e-01 3.443300e-01 3.605838e-01 3.663314e-01 3.713939e-01 3.638071e-01 2.868159e-01 1.000000e-02
<GCONST> 9.035921e+01
<MIXTURE> 6 6.395101e-02
<MEAN> 38
 4.968760e+00 5.737182e-01 9.563354e-01 1.936962e+00 -1.575444e+00 -5.710917e+00 -5.995419e+00 -1.384697e+00 1.974604e+00 1.247653e+00 -4.420410e-01 -8.091792e-01 1.585436e+00 -6.713161e-01 -1.799678e-01 -1.502007e-01 -1.004671e+00 9.784419e-02 -5.381124e-01 -1.969620e-01 1.287678e-01 4.173163e-01 4.982406e-01 -3.070420e-01 2.738983e-02 -8.428615e-01 -1.153093e-01 -6.208233e-03 -1.319775e-02 3.641935e-01 3.454480e-01 3.624242e-01 3.436387e-01 8.389278e-02 -1.228569e-01 1.132588e-02 1.970182e-01 -1.210405e-02
<VARIANCE> 38
 1.078657e+01 1.386268e+01 2.406254e+01 1.949541e+01 2.686630e+01 3.181850e+01 3.422763e+01 3.482587e+01 2.742693e+01 2.845009e+01 2.091840e+01 2.008607e+01 8.947793e-01 1.375980e+00 1.304911e+00 1.540507e+00 1.702944e+00 2.181739e+00 2.222616e+00 2.256526e+00 2.164388e+00 2.113251e+00 1.892165e+00 1.661528e+00 1.000000e-02 1.787433e-01 2.309681e-01 2.231738e-01 2.338208e-01 2.971691e-01 3.074104e-01 3.657965e-01 3.463410e-01 3.242067e-01 3.187362e-01 2.782308e-01 2.655047e-01 1.000000e-02
<GCONST> 8.934450e+01
<MIXTURE> 7 5.403401e-02
<MEAN> 38
 5.924956e+00 2.030552e-01 1.681897e+00 -2.281715e+00 -6.761092e+00 -2.938602e+00 -2.467624e+00 -2.816093e+00 -2.999023e+00 7.018198e-01 9.461612e-01 1.821466e+00 3.690260e-01 6.032411e-02 2.098117e-02 6.201582e-03 -1.020182e-01 2.596593e-01 1.214943e-02 1.471425e-01 1.685121e-01 2.850753e-01 2.110945e-02 1.024987e-01 4.012769e-03 -3.935595e-01 1.926535e-01 6.229530e-02 3.597902e-01 6.841000e-01 3.707096e-02 6.889688e-02 1.376455e-01 2.169743e-01 -1.156941e-01 -8.183828e-02 -1.420355e-01 -9.839579e-03
<VARIANCE> 38
 1.642019e+01 2.526920e+01 5.380079e+01 5.989591e+01 5.330245e+01 8.930440e+01 5.480941e+01 5.750412e+01 5.353775e+01 4.813577e+01 4.538375e+01 3.392255e+01 5.855911e-01 1.080932e+00 1.276881e+00 1.979768e+00 2.244773e+00 2.255465e+00 2.206344e+00 2.255715e+00 2.396539e+00 2.435057e+00 2.143128e+00 1.663386e+00 1.000000e-02 1.898856e-01 2.946405e-01 3.154573e-01 4.913492e-01 4.812545e-01 6.433312e-01 5.701859e-01 6.154125e-01 5.861477e-01 5.346606e-01 5.297192e-01 4.299940e-01 1.000000e-02
<GCONST> 1.035773e+02
<MIXTURE> 8 3.218528e-02
<MEAN> 38
 4.034159e+00 3.551369e-01 -1.231457e+00 -2.233195e+00 -4.628479e+00 -9.067977e+00 -6.712925e+00 -2.346234e+00 -1.851970e+00 -5.369187e+00 -4.744285e+00 -3.001482e-01 2.322610e+00 -9.573236e-01 -4.327412e-01 -1.501223e+00 -1.424345e+00 -4.682964e-01 -1.361236e+00 -5.703672e-01 1.993713e-01 3.660049e-01 -1.069183e+00 -4.412971e-02 4.166695e-02 -1.101907e+00 -2.748377e-01 4.452214e-02 3.939031e-01 7.022408e-01 7.217101e-01 8.207783e-01 8.384076e-01 6.265879e-01 7.388135e-01 8.318567e-01 3.047979e-01 -1.631312e-02
<VARIANCE> 38
 1.150928e+01 1.870045e+01 2.779264e+01 2.201579e+01 3.649717e+01 3.584524e+01 3.883577e+01 3.252761e+01 3.557022e+01 3.226228e+01 2.374458e+01 2.191549e+01 1.385888e+00 2.195688e+00 1.502702e+00 2.325447e+00 2.663966e+00 3.076408e+00 3.101171e+00 3.277336e+00 2.765134e+00 3.002294e+00 2.477875e+00 2.265417e+00 1.000000e-02 1.302083e-01 2.710986e-01 2.522494e-01 3.110235e-01 3.469063e-01 3.764791e-01 3.784079e-01 4.594515e-01 4.185089e-01 3.952377e-01 3.593250e-01 3.344163e-01 1.000000e-02
<GCONST> 9.707064e+01
<MIXTURE> 9 1.077861e-01
<MEAN> 38
 5.660954e+00 -4.154368e+00 -1.452413e+00 -4.304208e+00 -1.911301e+00 -3.244017e+00 -7.407675e+00 1.140751e+00 1.261826e+00 -6.820152e-01 -3.696216e+00 -2.884826e+00 1.128377e-01 -6.791500e-01 3.704940e-03 -2.873177e-01 -2.459367e-01 1.284218e-01 -2.541312e-01 7.874548e-01 2.647980e-01 -1.189946e-01 -3.717503e-01 -1.911784e-01 7.059154e-03 -1.603687e-01 3.365063e-01 1.057962e-01 3.374018e-01 1.607848e-01 -1.887427e-02 2.581013e-01 -2.554235e-01 -1.118774e-01 -3.129024e-02 1.414802e-01 1.082971e-01 -6.013783e-03
<VARIANCE> 38
 1.052161e+01 1.968159e+01 3.279772e+01 3.068577e+01 4.147823e+01 4.925477e+01 4.983971e+01 4.351905e+01 4.790622e+01 6.004008e+01 4.891950e+01 3.473028e+01 3.782297e-01 6.834731e-01 1.142130e+00 1.207809e+00 1.430314e+00 1.769012e+00 1.886070e+00 1.790460e+00 2.004536e+00 2.004596e+00 1.841760e+00 1.683585e+00 1.000000e-02 1.091856e-01 1.321028e-01 1.723945e-01 2.077416e-01 2.705855e-01 2.819749e-01 3.272249e-01 3.448974e-01 3.452190e-01 3.661473e-01 3.472116e-01 2.779914e-01 1.000000e-02
<GCONST> 9.048983e+01
<MIXTURE> 10 1.131376e-01
<MEAN> 38
 6.266477e+00 -2.802172e+00 5.960849e-03 -1.637669e+00 -3.603352e+00 -3.143631e+00 -8.524427e+00 -5.124031e-01 2.275118e+00 7.173827e-01 -2.396320e-01 -1.839452e+00 3.265399e-01 -5.793572e-01 1.479092e-02 -1.303440e-01 -3.931598e-01 2.628340e-01 -3.904808e-01 4.725099e-01 2.317538e-01 8.878916e-02 3.753053e-02 -2.532592e-01 9.750590e-03 -3.560135e-01 3.408461e-01 7.059149e-02 2.222838e-01 3.997604e-01 -2.758330e-02 4.099753e-01 -1.066533e-01 -1.527532e-01 -7.686175e-02 -9.875598e-02 1.124306e-01 -8.511098e-03
<VARIANCE> 38
 1.019578e+01 1.757484e+01 3.093480e+01 3.125316e+01 3.498576e+01 5.058578e+01 4.898247e+01 4.595113e+01 4.099387e+01 4.277809e+01 3.932706e+01 3.290499e+01 3.632920e-01 7.320243e-01 1.032479e+00 1.164023e+00 1.383131e+00 1.633385e+00 1.721920e+00 1.726140e+00 1.734773e+00 1.739293e+00 1.607120e+00 1.416159e+00 1.000000e-02 1.385834e-01 1.727120e-01 1.925422e-01 2.350416e-01 2.917811e-01 3.235558e-01 3.880046e-01 3.797661e-01 3.599231e-01 3.522142e-01 3.504125e-01 3.020815e-01 1.000000e-02
<GCONST> 8.980050e+01
<MIXTURE> 11 6.039931e-02
<MEAN> 38
 4.735687e+00 -1.937770e-01 9.043617e-01 1.583697e+00 -1.488749e+00 -5.618111e+00 -7.006598e+00 -1.693498e+00 2.102462e+00 1.508180e+00 -4.720618e-01 -1.894706e+00 1.812571e+00 -1.057985e+00 -1.310451e-01 -2.099864e-01 -1.342213e+00 8.471865e-02 -9.489420e-01 -2.259025e-01 4.964161e-02 2.584451e-01 6.494092e-01 -7.369627e-01 3.384508e-02 -8.742579e-01 -1.207332e-01 -8.835375e-02 -8.949675e-02 2.979067e-01 2.974094e-01 3.771250e-01 3.507459e-01 1.070206e-01 -1.194383e-01 -3.504803e-02 2.423295e-01 -1.285273e-02
<VARIANCE> 38
 9.708631e+00 1.275390e+01 2.233915e+01 1.933511e+01 2.454620e+01 3.064691e+01 3.107029e+01 3.359637e+01 2.633928e+01 2.943245e+01 2.039857e+01 1.903676e+01 9.440587e-01 1.279344e+00 1.402702e+00 1.538458e+00 1.657990e+00 2.183119e+00 2.549969e+00 2.297474e+00 2.074395e+00 2.182574e+00 2.072982e+00 1.663699e+00 1.000000e-02 1.734331e-01 2.244206e-01 2.287012e-01 2.361263e-01 2.886029e-01 3.135680e-01 3.640948e-01 3.325836e-01 2.989607e-01 3.092268e-01 2.633377e-01 2.533359e-01 1.000000e-02
<GCONST> 8.869821e+01
<MIXTURE> 12 6.420223e-02
<MEAN> 38
 3.816489e+00 1.481172e+00 3.678431e+00 1.974208e+00 -4.249434e+00 -8.822190e+00 -4.290620e+00 -5.595813e-01 -2.623671e-01 -1.535556e+00 -1.074255e+00 2.625662e+00 1.292223e+00 -5.622649e-01 -1.492575e-01 -3.015171e-01 -9.523315e-01 -1.841284e-01 -3.907034e-01 -1.622728e-01 2.017900e-01 3.610279e-01 -9.843946e-02 1.106233e-01 2.463563e-02 -7.523304e-01 -1.444267e-01 -1.234425e-01 -1.826583e-02 4.845901e-01 4.935337e-01 3.046198e-01 3.152890e-01 1.024162e-01 2.882148e-02 1.434433e-01 -1.258241e-01 -1.160519e-02
<VARIANCE> 38
 1.189512e+01 1.584400e+01 2.379498e+01 2.045411e+01 3.036769e+01 3.194428e+01 3.894678e+01 3.267026e+01 3.466404e+01 2.747980e+01 2.186359e+01 1.923675e+01 8.076271e-01 1.216091e+00 1.100726e+00 1.382526e+00 1.649416e+00 1.898366e+00 1.900996e+00 2.055107e+00 2.040640e+00 1.930550e+00 1.650841e+00 1.523245e+00 1.000000e-02 1.557086e-01 2.399833e-01 2.241469e-01 2.482879e-01 2.922476e-01 3.255380e-01 3.883654e-01 3.687808e-01 3.593745e-01 3.298135e-01 2.800431e-01 2.690773e-01 1.000000e-02
<GCONST> 8.899201e+01
<MIXTURE> 13 4.895425e-02
<MEAN> 38
 5.568666e+00 -8.432608e-01 1.016108e+00 -3.049183e+00 -7.092386e+00 -3.317763e+00 -2.688993e+00 -3.277374e+00 -3.354818e+00 -9.477494e-02 6.042562e-03 1.051299e+00 3.146309e-01 -2.586173e-01 -1.217115e-01 -2.010830e-01 -2.687863e-01 2.076420e-01 -1.466583e-01 9.065744e-02 1.259403e-01 2.231120e-01 -1.760613e-01 -2.102323e-01 7.488286e-03 -3.168973e-01 1.881265e-01 6.861410e-02 3.341269e-01 6.226926e-01 3.627411e-02 1.620783e-02 1.356146e-01 1.957391e-01 -7.106090e-02 -4.454668e-02 -1.090037e-01 -8.898273e-03
<VARIANCE> 38
 1.642493e+01 2.597701e+01 5.316571e+01 5.880375e+01 5.450742e+01 9.333314e+01 5.504198e+01 6.046522e+01 5.717374e+01 5.412526e+01 5.388664e+01 3.971083e+01 5.478640e-01 1.026148e+00 1.324700e+00 2.029056e+00 2.206171e+00 2.332915e+00 2.411512e+00 2.309158e+00 2.474987e+00 2.605444e+00 2.314768e+00 1.738177e+00 1.000000e-02 1.851566e-01 2.569957e-01 3.138354e-01 4.626115e-01 4.795754e-01 6.491560e-01 5.540727e-01 6.131620e-01 5.721894e-01 5.433945e-01 5.481460e-01 4.340954e-01 1.000000e-02
<GCONST> 1.042821e+02
<MIXTURE> 14 4.663362e-02
<MEAN> 38
 5.298726e+00 -2.995460e-01 8.221279e-01 -1.309201e+00 -5.006337e+00 -3.489249e+00 -3.931242e+00 -2.600943e+00 -2.278795e+00 3.187632e-01 4.330373e-01 9.690823e-01 3.375744e-01 2.836207e-01 3.538299e-02 -3.272111e-02 -6.667442e-03 1.036098e-01 2.643075e-02 -1.473672e-01 1.476272e-02 5.926196e-02 -1.515676e-01 -1.436261e-02 4.648484e-03 -4.558770e-01 1.941911e-01 9.484980e-02 2.856290e-01 5.821342e-01 1.531889e-01 1.817092e-01 1.227120e-01 1.856754e-01 -8.012810e-02 -6.575189e-02 -1.168672e-01 -9.729171e-03
<VARIANCE> 38
 2.667791e+01 3.343074e+01 6.007972e+01 6.552840e+01 6.473108e+01 8.489568e+01 5.880882e+01 6.267219e+01 5.872829e+01 5.093480e+01 4.440935e+01 3.769001e+01 1.328331e+00 1.676834e+00 2.030322e+00 2.674328e+00 3.130068e+00 2.899035e+00 2.799478e+00 2.937534e+00 3.175610e+00 3.126587e+00 2.620107e+00 2.093255e+00 1.000000e-02 2.953091e-01 4.420464e-01 4.666005e-01 6.417738e-01 6.637329e-01 7.890366e-01 7.500781e-01 8.092516e-01 7.334661e-01 6.597058e-01 5.803927e-01 5.394525e-01 1.000000e-02
<GCONST> 1.124781e+02
<MIXTURE> 15 3.581342e-02
<MEAN> 38
 5.486064e+00 -1.464203e+00 -1.834582e+00 -3.314854e+00 -3.857415e+00 -7.704804e+00 -8.658610e+00 -2.141747e+00 3.837339e-01 -3.202883e+00 -5.734708e+00 -5.395735e-01 1.564341e+00 -1.185788e+00 -2.098025e-01 -1.091567e+00 -9.556537e-01 9.255872e-02 -9.942348e-01 -5.512460e-02 2.539196e-01 5.139285e-01 -7.574215e-01 -6.152854e-02 3.313732e-02 -1.072121e+00 -7.505580e-04 1.508805e-01 5.200869e-01 6.505390e-01 5.105380e-01 7.998056e-01 5.909390e-01 2.261609e-01 2.879035e-01 6.695344e-01 1.506052e-01 -1.758819e-02
<VARIANCE> 38
 1.043030e+01 2.053039e+01 2.654930e+01 2.392789e+01 3.758333e+01 4.061586e+01 4.206478e+01 3.460931e+01 3.830676e+01 3.975419e+01 2.557355e+01 2.545295e+01 1.038339e+00 1.736303e+00 1.461374e+00 1.888561e+00 2.277092e+00 2.717104e+00 2.635957e+00 3.061297e+00 2.542878e+00 2.858593e+00 2.349250e+00 2.157971e+00 1.000000e-02 1.506318e-01 3.349200e-01 2.737311e-01 3.348671e-01 3.775766e-01 4.044440e-01 4.502970e-01 4.701058e-01 4.628830e-01 4.352649e-01 3.707184e-01 3.581905e-01 1.000000e-02
<GCONST> 9.756308e+01
<MIXTURE> 16 2.897700e-02
<MEAN> 38
 3.642251e+00 -3.951534e-01 -2.502700e+00 -2.914021e+00 -4.663496e+00 -9.545448e+00 -6.952348e+00 -2.593513e+00 -2.141743e+00 -6.099975e+00 -5.335383e+00 -4.590654e-01 2.803026e+00 -1.256883e+00 -7.621897e-01 -2.091551e+00 -2.051693e+00 -1.044659e+00 -2.167646e+00 -9.400310e-01 -4.559704e-01 -4.110653e-01 -2.029156e+00 -6.830449e-01 5.678990e-02 -1.044519e+00 -3.843653e-01 -1.520614e-02 2.916145e-01 6.215546e-01 7.444906e-01 8.138782e-01 8.812827e-01 6.950641e-01 8.240271e-01 8.051958e-01 2.765497e-01 -1.676369e-02
<VARIANCE> 38
 1.089565e+01 1.738533e+01 2.603201e+01 2.047083e+01 3.333706e+01 3.070298e+01 3.604286e+01 2.836312e+01 3.299031e+01 3.054547e+01 2.255467e+01 2.344153e+01 1.430728e+00 2.331434e+00 1.703307e+00 2.504535e+00 2.837525e+00 3.278738e+00 3.603446e+00 3.386775e+00 3.009107e+00 3.314628e+00 2.663220e+00 2.366360e+00 1.000000e-02 1.297927e-01 2.256419e-01 2.333360e-01 2.919044e-01 3.242349e-01 3.731386e-01 3.650939e-01 4.189758e-01 4.250552e-01 4.001533e-01 3.688174e-01 3.502291e-01 1.000000e-02
<GCONST> 9.670148e+01
<STATE> 3
<NUMMIXES> 16
<SWEIGHTS> 1
 1.000000e+00
<MIXTURE> 1 2.542973e-02
<MEAN> 38
 5.097661e+00 2.953911e+00 3.342077e+00 2.747053e+00 -3.496993e+00 -8.479793e+00 -4.063220e+00 5.301403e-01 9.962518e-01 -3.335676e-01 -1.479147e+00 4.394937e+00 -8.130670e-01 1.933240e+00 7.234001e-01 9.952419e-01 1.521398e+00 7.894087e-01 9.183826e-01 3.637552e-01 6.191219e-01 -5.203833e-02 1.849142e-01 -4.571906e-01 -3.510296e-02 -4.715186e-01 1.053763e-01 2.533113e-01 1.359949e-01 3.194112e-01 4.359440e-01 2.449040e-01 9.103324e-02 -1.141779e-01 -1.320929e-01 2.829515e-02 -4.527234e-01 -1.030909e-02
<VARIANCE> 38
 1.194503e+01 1.779475e+01 2.498798e+01 2.160532e+01 3.919304e+01 3.113987e+01 3.877496e+01 3.285599e+01 3.930838e+01 3.366528e+01 2.866859e+01 2.698741e+01 1.183809e+00 1.709128e+00 1.726505e+00 2.008008e+00 2.219553e+00 2.401107e+00 2.675145e+00 2.933531e+00 2.665369e+00 2.394778e+00 2.503250e+00 2.293674e+00 1.000000e-02 1.579480e-01 2.773587e-01 2.743981e-01 2.839914e-01 4.339980e-01 3.525227e-01 4.114992e-01 4.606444e-01 4.745587e-01 4.094738e-01 3.851576e-01 3.754290e-01 1.000000e-02
<GCONST> 9.686590e+01
<MIXTURE> 2 7.720973e-02
<MEAN> 38
 5.662374e+00 -6.083899e-01 3.555608e+00 2.262962e+00 -4.661726e+00 -6.428669e+00 -3.840438e+00 2.575001e+00 1.166109e-01 -1.163708e+00 -9.299365e-01 1.874373e+00 2.318644e-02 6.738585e-01 1.645102e-01 6.035605e-01 6.730184e-01 3.028775e-01 3.285041e-01 -1.743771e-01 -3.312010e-02 -2.694541e-02 -1.580386e-01 1.597584e-01 -1.282936e-02 -1.576749e-01 2.532630e-01 4.754355e-02 9.760520e-02 3.086088e-01 1.621276e-01 1.648539e-01 -1.453369e-01 -5.971882e-03 -7.476538e-03 -3.525452e-02 -7.883501e-02 -5.642445e-03
<VARIANCE> 38
 8.063288e+00 1.534083e+01 2.312017e+01 2.341174e+01 2.921438e+01 3.580986e+01 5.331718e+01 3.495033e+01 3.884880e+01 3.213349e+01 2.699047e+01 3.063327e+01 3.073283e-01 7.338772e-01 8.142527e-01 9.725195e-01 1.361791e+00 1.414609e+00 1.542325e+00 1.504876e+00 1.581676e+00 1.431150e+00 1.323216e+00 1.234394e+00 1.000000e-02 6.276284e-02 1.491012e-01 1.314191e-01 1.812860e-01 2.205744e-01 2.481279e-01 2.997124e-01 2.983568e-01 3.151684e-01 2.631395e-01 2.399674e-01 2.410872e-01 1.000000e-02
<GCONST> 8.208578e+01
<MIXTURE> 3 9.179056e-02
<MEAN> 38
 5.464788e+00 -1.766826e+00 1.711001e+00 -3.600552e-01 -2.605905e+00 -4.154195e+00 -3.461446e+00 1.817931e+00 8.316205e-01 -4.263449e-01 -1.563711e+00 2.926544e-01 7.148789e-02 1.907868e-01 1.257660e-01 2.873343e-01 1.919356e-01 1.617321e-01 1.686161e-01 1.605653e-02 -6.928848e-02 -4.526953e-02 9.931757e-04 1.481297e-01 -6.219001e-03 -5.981199e-03 1.277057e-01 3.198364e-02 1.364877e-01 7.394167e-02 3.800646e-02 2.310850e-02 -1.053175e-01 -3.181399e-02 -2.405185e-02 1.955394e-02 8.085845e-03 -2.980962e-03
<VARIANCE> 38
 9.546453e+00 1.526974e+01 2.752484e+01 3.092812e+01 3.511472e+01 4.925884e+01 6.039035e+01 3.908446e+01 3.924311e+01 4.138407e+01 3.464349e+01 3.581580e+01 1.588952e-01 3.737763e-01 4.819622e-01 6.486198e-01 7.619069e-01 8.972917e-01 9.576864e-01 9.659519e-01 1.024102e+00 1.004100e+00 9.032888e-01 8.178317e-01 1.000000e-02 2.569048e-02 6.063595e-02 7.155849e-02 1.059823e-01 1.213783e-01 1.459456e-01 1.601278e-01 1.671175e-01 1.702373e-01 1.716845e-01 1.569678e-01 1.437558e-01 1.000000e-02
<GCONST> 7.105229e+01
<MIXTURE> 4 3.157485e-02
<MEAN> 38
 7.192781e+00 -1.427115e+00 1.399413e-01 -5.062963e-01 -2.205577e+00 -2.384520e+00 -9.564972e+00 -9.581642e-01 2.328473e+00 4.562725e-01 -1.257099e+00 -1.526102e+00 8.847599e-02 1.203984e+00 2.753021e-01 7.430589e-01 1.068306e+00 3.968590e-01 8.646508e-01 -6.527472e-01 -1.845840e-01 3.012862e-01 1.226501e-01 5.258813e-02 -1.526044e-02 -3.992241e-01 4.545139e-01 1.753514e-01 2.957491e-01 3.382863e-01 -7.631357e-02 6.880823e-01 -8.890955e-02 -2.763948e-01 -7.456610e-02 -6.636967e-03 8.000939e-02 -9.075582e-03
<VARIANCE> 38
 1.464942e+01 2.286625e+01 3.601881e+01 3.982765e+01 3.908097e+01 5.353144e+01 5.042919e+01 5.662415e+01 5.004863e+01 5.355004e+01 4.372497e+01 3.033673e+01 8.225763e-01 1.435038e+00 1.545811e+00 2.076456e+00 2.509408e+00 2.866442e+00 2.627036e+00 3.022372e+00 3.022254e+00 2.776987e+00 2.486367e+00 2.139731e+00 1.000000e-02 1.721378e-01 3.118686e-01 3.415403e-01 3.902846e-01 4.307108e-01 4.982282e-01 5.354765e-01 6.760045e-01 6.477987e-01 6.582541e-01 5.286989e-01 4.274886e-01 1.000000e-02
<GCONST> 1.037399e+02
<MIXTURE> 5 1.019866e-01
<MEAN> 38
 5.774318e+00 -1.307442e+00 1.677156e+00 1.261998e+00 -4.406570e+00 -4.717709e+00 -5.543910e+00 4.955986e-01 1.997012e+00 -3.650529e-01 -2.417777e-01 -3.389266e-01 5.676313e-02 2.264977e-01 1.174274e-01 2.483298e-01 2.723991e-01 2.211364e-01 2.239694e-01 3.233271e-02 -8.039911e-02 5.787301e-02 -5.169813e-02 4.443730e-02 -6.881382e-03 -1.179638e-01 1.964933e-01 6.997249e-02 5.698873e-02 2.757932e-01 4.360764e-02 1.627503e-01 -4.724269e-02 -1.158899e-01 -1.002309e-04 -8.491827e-02 5.390626e-02 -4.983675e-03
<VARIANCE> 38
 9.728539e+00 1.643857e+01 2.811200e+01 2.842860e+01 3.346728e+01 4.433691e+01 5.357835e+01 4.273815e+01 4.130107e+01 3.952721e+01 3.287973e+01 3.351453e+01 2.502770e-01 5.938767e-01 7.277072e-01 8.851305e-01 1.165756e+00 1.227881e+00 1.361559e+00 1.388187e+00 1.387249e+00 1.304417e+00 1.215750e+00 1.102356e+00 1.000000e-02 5.590712e-02 1.115335e-01 1.218435e-01 1.688992e-01 2.030732e-01 2.340082e-01 2.663644e-01 2.608817e-01 2.657394e-01 2.493113e-01 2.227152e-01 2.124749e-01 1.000000e-02
<GCONST> 8.092441e+01
<MIXTURE> 6 1.018057e-01
<MEAN> 38
 4.748889e+00 -3.584847e+00 9.870573e-01 -1.874798e+00 -2.988310e+00 -5.256766e+00 -3.084074e+00 2.721021e+00 6.623606e-01 -9.980410e-01 -3.015873e+00 -3.299526e-01 6.669023e-02 7.135989e-02 4.354469e-02 1.495804e-01 1.463736e-01 1.145820e-01 1.591544e-01 8.881963e-02 5.000615e-02 -4.301832e-02 -3.160659e-02 3.895957e-02 -4.622512e-03 4.194732e-02 1.428340e-01 3.262821e-02 1.446284e-01 5.457567e-02 6.070905e-02 -3.874292e-02 -1.218269e-01 -1.358945e-02 4.577394e-03 7.567311e-02 1.310391e-02 -2.783831e-03
<VARIANCE> 38
 9.291574e+00 1.477028e+01 2.812778e+01 2.569879e+01 3.513376e+01 4.065024e+01 5.357311e+01 3.700330e+01 4.437994e+01 4.830754e+01 4.007361e+01 3.341890e+01 1.522257e-01 3.385744e-01 4.682341e-01 5.625291e-01 7.094418e-01 8.300753e-01 9.234268e-01 9.589056e-01 9.728776e-01 9.787956e-01 8.691588e-01 7.835593e-01 1.000000e-02 2.414777e-02 5.071113e-02 6.305443e-02 8.919882e-02 1.067897e-01 1.247776e-01 1.369243e-01 1.492576e-01 1.483150e-01 1.536136e-01 1.442857e-01 1.269170e-01 1.000000e-02
<GCONST> 6.860038e+01
<MIXTURE> 7 4.013404e-02
<MEAN> 38
 6.836503e+00 -2.092747e+00 -2.556538e+00 -3.451924e+00 -1.421015e+00 -2.332189e+00 -6.987629e+00 -9.294769e-01 1.298087e+00 -2.946818e-01 -3.706844e+00 -1.822507e+00 2.803487e-01 5.949239e-01 8.824293e-02 4.181198e-01 5.583999e-01 4.455242e-01 3.286295e-01 -4.666061e-01 3.177705e-02 3.333622e-01 2.229524e-01 -6.434176e-02 -6.282500e-03 -3.352220e-01 3.537643e-01 2.508204e-01 4.374715e-01 2.290615e-01 8.496015e-03 3.812344e-01 -9.881397e-02 -1.517596e-01 -1.814321e-02 2.585269e-01 9.722427e-02 -8.383799e-03
<VARIANCE> 38
 1.566422e+01 2.953244e+01 3.794858e+01 4.435587e+01 4.102445e+01 6.120929e+01 5.566607e+01 5.793013e+01 5.654653e+01 6.601479e+01 5.689188e+01 3.369139e+01 6.805377e-01 1.399347e+00 1.596706e+00 2.378384e+00 2.394746e+00 2.681930e+00 2.554774e+00 2.901356e+00 2.722086e+00 2.820078e+00 2.360724e+00 2.097829e+00 1.000000e-02 1.794685e-01 2.811954e-01 2.669422e-01 3.659679e-01 3.800807e-01 4.532813e-01 5.018620e-01 6.337553e-01 5.975477e-01 6.273823e-01 5.362323e-01 3.970940e-01 1.000000e-02
<GCONST> 1.039268e+02
<MIXTURE> 8 3.896127e-02
<MEAN> 38
 4.595179e+00 1.392425e+00 3.794762e+00 2.068630e+00 -3.839094e+00 -7.304325e+00 -5.254663e+00 3.994104e-02 3.095085e-01 -1.773407e+00 -2.001865e+00 2.339089e+00 -8.592222e-01 1.409276e+00 5.554519e-01 7.353757e-01 1.258407e+00 5.254479e-01 6.297596e-01 3.029498e-01 4.180984e-01 -1.306357e-01 2.002064e-01 -2.269071e-02 -2.316958e-02 -5.466033e-01 1.848234e-01 1.019413e-01 1.516880e-01 4.605919e-01 3.683070e-01 2.927800e-01 1.498664e-01 7.208929e-03 4.194379e-03 1.146937e-01 -2.102697e-01 -9.284587e-03
<VARIANCE> 38
 1.551598e+01 1.934110e+01 2.615841e+01 2.476979e+01 3.883534e+01 3.657211e+01 4.020752e+01 3.487738e+01 4.319263e+01 3.946236e+01 3.019553e+01 2.496876e+01 1.498443e+00 1.717476e+00 1.517264e+00 2.194033e+00 2.489400e+00 2.470643e+00 2.679709e+00 2.800161e+00 2.651041e+00 2.537615e+00 2.472862e+00 2.144425e+00 1.000000e-02 2.024126e-01 2.790188e-01 2.310918e-01 2.829085e-01 3.492085e-01 3.382362e-01 3.882932e-01 4.256737e-01 4.427467e-01 4.227988e-01 3.708769e-01 3.305113e-01 1.000000e-02
<GCONST> 9.761971e+01
<MIXTURE> 9 1.192224e-01
<MEAN> 38
 5.000118e+00 -2.798233e+00 1.263994e+00 -1.372566e+00 -3.586339e+00 -5.098083e+00 -4.863454e+00 1.182958e+00 1.048857e+00 -4.595638e-01 -1.509578e+00 -6.993404e-01 2.327742e-02 9.983747e-03 1.637876e-02 7.735866e-02 5.968617e-02 5.248411e-02 7.829000e-02 5.765279e-02 -4.060868e-02 -7.048135e-02 -8.419394e-02 -3.986496e-02 -3.638543e-03 -1.136182e-03 1.010797e-01 1.596450e-02 9.152260e-02 5.891651e-02 1.910375e-02 8.384945e-04 -9.624507e-02 -5.515598e-02 -3.176671e-02 -1.234163e-02 -9.804930e-03 -2.757336e-03
<VARIANCE> 38
 9.747097e+00 1.565348e+01 2.828794e+01 3.082247e+01 3.399508e+01 4.619391e+01 5.668006e+01 4.070275e+01 4.214886e+01 4.538267e+01 3.906312e+01 3.512341e+01 1.425750e-01 3.280967e-01 4.412091e-01 5.750234e-01 6.899577e-01 8.068913e-01 8.674229e-01 9.281054e-01 9.357145e-01 9.314271e-01 8.432590e-01 7.604809e-01 1.000000e-02 2.366194e-02 5.202522e-02 6.494899e-02 9.316419e-02 1.111004e-01 1.313737e-01 1.460921e-01 1.534369e-01 1.499923e-01 1.526609e-01 1.398152e-01 1.321009e-01 1.000000e-02
<GCONST> 6.889149e+01
<MIXTURE> 10 7.582825e-02
<MEAN> 38
 5.242182e+00 -2.270391e+00 1.110211e+00 3.112249e-01 -5.529714e+00 -5.716517e+00 -5.732399e+00 2.552817e-01 1.659809e+00 -8.429904e-01 -9.194785e-01 -6.312031e-01 3.424691e-03 -1.025268e-02 3.271336e-03 3.003506e-02 6.457236e-02 1.071165e-01 1.059547e-01 6.301195e-02 -9.181002e-02 -3.241490e-02 -1.326342e-01 -1.901727e-01 -3.767576e-03 -9.256484e-02 1.654993e-01 5.303819e-02 2.304610e-02 2.566958e-01 2.477677e-02 9.486135e-02 -4.478249e-02 -1.133209e-01 -8.741354e-03 -8.829919e-02 2.110156e-02 -4.557681e-03
<VARIANCE> 38
 9.976517e+00 1.690601e+01 2.855708e+01 2.923828e+01 3.473826e+01 4.369803e+01 5.105779e+01 4.368542e+01 4.451622e+01 4.539048e+01 3.754713e+01 3.277390e+01 2.456642e-01 5.795392e-01 7.526686e-01 8.965375e-01 1.147549e+00 1.200846e+00 1.364416e+00 1.403587e+00 1.365423e+00 1.357112e+00 1.245393e+00 1.104538e+00 1.000000e-02 5.593191e-02 1.053256e-01 1.214352e-01 1.639393e-01 2.062319e-01 2.311958e-01 2.586086e-01 2.554954e-01 2.479792e-01 2.484371e-01 2.182769e-01 2.074671e-01 1.000000e-02
<GCONST> 8.111629e+01
<MIXTURE> 11 9.936405e-02
<MEAN> 38
 5.272979e+00 -1.506487e+00 2.714164e+00 1.297123e+00 -5.507790e+00 -7.089462e+00 -4.664466e+00 1.745381e+00 8.991794e-02 -1.495840e+00 -1.465397e+00 1.219151e+00 -1.566351e-02 3.456008e-01 3.058220e-02 3.129170e-01 3.668686e-01 1.493097e-01 2.191303e-01 -1.761090e-01 -1.170589e-01 -8.482503e-02 -2.046091e-01 -1.196779e-02 -7.763390e-03 -1.382671e-01 2.055070e-01 2.976851e-02 5.130798e-02 2.745818e-01 1.202134e-01 1.000363e-01 -1.263405e-01 -2.154938e-02 -1.563227e-02 -4.357264e-02 -7.680161e-02 -5.089422e-03
<VARIANCE> 38
 8.790515e+00 1.627905e+01 2.451862e+01 2.597696e+01 3.111242e+01 3.694553e+01 5.226768e+01 3.727622e+01 4.137817e+01 3.712216e+01 3.037993e+01 3.090208e+01 2.911078e-01 6.853275e-01 8.027092e-01 9.765379e-01 1.340854e+00 1.371167e+00 1.536891e+00 1.506458e+00 1.532824e+00 1.471888e+00 1.323917e+00 1.183908e+00 1.000000e-02 6.383228e-02 1.334736e-01 1.307233e-01 1.800191e-01 2.253197e-01 2.478908e-01 3.017995e-01 2.924703e-01 2.918201e-01 2.637162e-01 2.346559e-01 2.306602e-01 1.000000e-02
<GCONST> 8.240060e+01
<MIXTURE> 12 6.047154e-02
<MEAN> 38
 4.009732e+00 -4.890478e+00 -5.558766e-02 -3.601359e+00 -3.956746e+00 -6.338922e+00 -2.623870e+00 2.718845e+00 -3.438764e-01 -2.728587e+00 -5.059965e+00 -9.946957e-01 -2.672210e-02 -7.692822e-02 -1.193013e-01 -4.244425e-02 1.306436e-02 -1.559542e-02 3.025523e-02 -3.805499e-03 -6.502921e-02 -2.631427e-01 -2.270116e-01 -2.124621e-01 -3.286800e-03 4.772335e-02 1.231116e-01 2.743790e-02 1.140608e-01 2.745899e-02 3.256060e-02 -1.053363e-01 -1.374653e-01 -2.281576e-02 3.075323e-03 7.448830e-02 -1.900510e-02 -2.476864e-03
<VARIANCE> 38
 9.083802e+00 1.498827e+01 2.869997e+01 2.361031e+01 3.527058e+01 3.663023e+01 5.006624e+01 3.647163e+01 4.783270e+01 5.390863e+01 4.236863e+01 3.057225e+01 1.531863e-01 3.428427e-01 4.844880e-01 5.473610e-01 7.641041e-01 8.664404e-01 9.902030e-01 1.059174e+00 1.047836e+00 1.086653e+00 9.385537e-01 8.383862e-01 1.000000e-02 2.273522e-02 4.744364e-02 6.137071e-02 8.726832e-02 1.070882e-01 1.278003e-01 1.401017e-01 1.542090e-01 1.430060e-01 1.489668e-01 1.397099e-01 1.297106e-01 1.000000e-02
<GCONST> 6.896069e+01
<MIXTURE> 13 3.802929e-02
<MEAN> 38
 6.796346e+00 -2.212790e+00 -6.397490e-01 -1.620782e+00 -2.693294e+00 -2.593646e+00 -8.760580e+00 -1.159480e+00 1.937200e+00 -4.648663e-02 -2.068943e+00 -1.866524e+00 4.747250e-02 7.445285e-01 1.308476e-01 5.043594e-01 6.853089e-01 1.673510e-01 5.502315e-01 -6.065785e-01 -2.186638e-01 1.336436e-01 -5.916917e-02 -9.266763e-02 -9.074501e-03 -3.373688e-01 3.636324e-01 1.277824e-01 2.717379e-01 2.975748e-01 -6.404936e-02 5.158548e-01 -1.057995e-01 -2.387547e-01 -3.351289e-02 3.553657e-02 7.241873e-02 -7.646286e-03
<VARIANCE> 38
 1.451400e+01 2.412715e+01 3.677648e+01 4.088707e+01 4.042472e+01 5.721835e+01 5.301340e+01 5.995493e+01 5.481984e+01 6.042439e+01 5.199073e+01 3.279350e+01 7.760330e-01 1.369042e+00 1.575382e+00 2.152481e+00 2.511969e+00 2.858582e+00 2.655361e+00 2.916511e+00 2.860569e+00 2.788944e+00 2.459761e+00 2.115489e+00 1.000000e-02 1.701899e-01 2.719747e-01 2.875699e-01 3.635438e-01 3.987531e-01 4.630289e-01 5.260524e-01 6.407431e-01 6.120209e-01 5.972825e-01 5.102498e-01 4.004116e-01 1.000000e-02
<GCONST> 1.034840e+02
<MIXTURE> 14 3.143205e-02
<MEAN> 38
 4.141870e+00 4.119735e-01 3.294636e+00 1.045803e+00 -4.523361e+00 -8.287175e+00 -6.065181e+00 -1.022337e+00 -4.644069e-01 -2.869881e+00 -3.115119e+00 1.737107e+00 -7.262112e-01 1.147041e+00 4.329590e-01 5.353305e-01 9.624385e-01 3.629916e-01 3.632983e-01 4.369614e-02 8.546923e-02 -4.125490e-01 8.314212e-02 -1.981941e-01 -1.701013e-02 -4.728327e-01 2.061298e-01 6.687637e-02 1.042806e-01 4.018480e-01 3.641161e-01 2.486027e-01 1.566156e-01 5.821321e-04 3.028503e-02 1.411503e-01 -1.855387e-01 -7.790420e-03
<VARIANCE> 38
 1.637635e+01 2.020316e+01 2.646406e+01 2.563543e+01 3.922821e+01 3.729385e+01 4.038284e+01 3.565846e+01 4.324456e+01 4.752470e+01 3.240779e+01 2.529906e+01 1.628733e+00 1.714913e+00 1.558866e+00 2.169975e+00 2.596746e+00 2.449801e+00 2.765778e+00 2.828206e+00 2.714723e+00 2.737699e+00 2.592166e+00 2.182842e+00 1.000000e-02 2.055214e-01 2.618385e-01 2.134688e-01 2.717648e-01 3.263987e-01 3.231665e-01 3.723738e-01 4.108990e-01 4.166459e-01 4.310270e-01 3.618095e-01 3.154445e-01 1.000000e-02
<GCONST> 9.795700e+01
<MIXTURE> 15 3.391340e-02
<MEAN> 38
 6.066783e+00 -3.703256e+00 -3.248203e+00 -4.557042e+00 -2.173442e+00 -3.486367e+00 -6.315241e+00 -7.256220e-02 5.034577e-01 -1.982177e+00 -5.972013e+00 -2.112087e+00 1.894362e-01 2.825037e-01 -1.105718e-01 2.368864e-01 3.740156e-01 2.625150e-01 1.143412e-01 -4.584621e-01 -3.159475e-02 8.482256e-02 -8.974635e-02 -3.162203e-01 -3.794680e-03 -2.215999e-01 3.241656e-01 2.053484e-01 3.959536e-01 1.719870e-01 2.363118e-02 2.252032e-01 -1.651358e-01 -8.957921e-02 5.400104e-02 3.484106e-01 6.401106e-02 -6.944189e-03
<VARIANCE> 38
 1.495030e+01 2.934044e+01 3.658710e+01 3.999492e+01 4.279130e+01 6.077563e+01 5.406539e+01 5.872203e+01 5.957962e+01 7.696371e+01 6.136734e+01 3.592558e+01 6.132211e-01 1.346376e+00 1.674320e+00 2.145158e+00 2.282994e+00 2.550081e+00 2.649052e+00 2.915721e+00 2.700925e+00 2.900138e+00 2.323954e+00 2.097710e+00 1.000000e-02 1.681720e-01 2.424120e-01 2.353188e-01 3.260570e-01 3.579611e-01 4.116957e-01 4.529378e-01 5.840400e-01 5.388513e-01 5.783815e-01 4.830918e-01 3.647888e-01 1.000000e-02
<GCONST> 1.026782e+02
<MIXTURE> 16 3.272573e-02
<MEAN> 38
 4.681960e+00 1.878814e+00 3.123165e+00 1.936009e+00 -3.756529e+00 -8.668464e+00 -5.246878e+00 -3.590693e-01 4.956792e-01 -1.148700e+00 -1.967586e+00 3.272188e+00 -8.952862e-01 1.560675e+00 5.237867e-01 6.702706e-01 1.195735e+00 5.768898e-01 6.444749e-01 1.526221e-01 3.009294e-01 -3.274157e-01 6.195003e-02 -4.072238e-01 -2.614691e-02 -5.013799e-01 1.320125e-01 1.763527e-01 8.968325e-02 3.283747e-01 4.186047e-01 2.349810e-01 1.211025e-01 -8.781216e-02 -1.150847e-01 4.603545e-02 -3.418948e-01 -8.567704e-03
<VARIANCE> 38
 1.321618e+01 1.821654e+01 2.577763e+01 2.351442e+01 3.904187e+01 3.472612e+01 3.857544e+01 3.403230e+01 4.071540e+01 3.702557e+01 2.926659e+01 2.773536e+01 1.387321e+00 1.741427e+00 1.709386e+00 2.098527e+00 2.307606e+00 2.407974e+00 2.652313e+00 2.813924e+00 2.717947e+00 2.509103e+00 2.525858e+00 2.328364e+00 1.000000e-02 1.685311e-01 2.688484e-01 2.499368e-01 2.767655e-01 3.850959e-01 3.417588e-01 3.887132e-01 4.324432e-01 4.452504e-01 3.964410e-01 3.680895e-01 3.606696e-01 1.000000e-02
<GCONST> 9.717525e+01
<STATE> 4
<NUMMIXES> 16
<SWEIGHTS> 1
 1.000000e+00
<MIXTURE> 1 6.381250e-02
<MEAN> 38
 2.160850e+00 3.137107e+00 7.042631e+00 7.791750e+00 3.505560e-01 -1.613638e+00 4.156203e+00 3.775419e+00 -1.299367e+00 -3.387949e+00 -1.425457e+00 3.126848e+00 -7.424108e-01 2.392591e-01 4.946358e-02 9.160355e-01 1.529401e+00 1.260093e+00 8.815038e-01 2.415485e-01 2.496195e-01 -1.917241e-01 -1.399643e-02 -1.132330e-01 -3.927738e-02 -6.100682e-02 -1.148077e-01 -2.243174e-01 -1.670269e-01 6.264417e-02 9.810011e-02 -1.019008e-01 -5.108470e-02 1.249814e-01 1.372670e-01 -1.955065e-03 -1.797938e-01 -2.828249e-03
<VARIANCE> 38
 9.656276e+00 2.164692e+01 1.942896e+01 2.231200e+01 3.866322e+01 5.108142e+01 4.299832e+01 3.153700e+01 3.231040e+01 3.841639e+01 3.015824e+01 2.359174e+01 4.699667e-01 1.291603e+00 1.154704e+00 1.378112e+00 1.586867e+00 1.923061e+00 1.953946e+00 1.937457e+00 2.183285e+00 2.076904e+00 1.907477e+00 1.780008e+00 1.000000e-02 6.385767e-02 1.296907e-01 1.587139e-01 2.137973e-01 2.901113e-01 3.527463e-01 3.383992e-01 3.565323e-01 3.707241e-01 3.599983e-01 3.378909e-01 3.083123e-01 1.000000e-02
<GCONST> 8.883451e+01
<MIXTURE> 2 6.386878e-02
<MEAN> 38
 7.154694e+00 3.023367e+00 8.400642e-01 2.271868e+00 3.449333e+00 -1.203299e+00 -5.517118e+00 -2.279850e+00 8.562904e-01 8.580948e-01 -1.601742e+00 -2.245688e+00 -2.568609e-01 1.879380e+00 9.923914e-01 1.127943e+00 8.118545e-01 3.291795e-01 1.290479e+00 -6.346920e-01 -7.329712e-01 -1.144768e-02 -6.085214e-02 -1.008463e-01 -2.822919e-02 -2.292878e-01 5.157597e-02 2.376326e-01 7.319207e-02 -3.305210e-01 -1.557148e-01 1.784640e-01 5.322232e-02 -8.408545e-02 -5.883405e-02 -1.723633e-02 8.166455e-02 -2.880917e-03
<VARIANCE> 38
 1.111217e+01 1.835814e+01 2.094311e+01 2.655078e+01 2.535199e+01 3.766696e+01 3.922356e+01 3.759048e+01 3.347353e+01 3.543921e+01 3.081536e+01 2.774132e+01 8.109638e-01 1.676082e+00 1.790929e+00 1.680918e+00 2.310960e+00 3.044906e+00 2.894407e+00 3.353903e+00 3.418499e+00 2.989891e+00 2.541836e+00 2.503744e+00 1.000000e-02 8.769819e-02 1.778186e-01 1.854801e-01 2.260218e-01 2.809857e-01 3.248928e-01 3.660058e-01 3.885566e-01 3.619749e-01 3.917442e-01 3.182052e-01 3.040135e-01 1.000000e-02
<GCONST> 9.409731e+01
<MIXTURE> 3 5.296991e-02
<MEAN> 38
 8.818007e-01 7.538876e+00 5.789888e+00 4.125200e+00 1.540019e+00 -3.756010e+00 -2.514148e+00 5.681826e-01 1.226158e+00 -1.459866e+00 -1.019864e+00 8.789887e-01 -1.831698e+00 9.586531e-01 8.875790e-01 1.146901e+00 1.495474e+00 1.107899e+00 1.110381e+00 5.611604e-01 2.146112e-01 -5.729824e-02 3.335135e-01 -2.184438e-01 -4.852109e-02 -1.693743e-01 -5.769344e-01 -2.461842e-01 -2.283407e-02 1.577269e-02 2.353812e-01 1.115085e-01 4.382236e-02 -9.634614e-02 4.508570e-02 3.734400e-03 -4.996038e-02 -2.213951e-03
<VARIANCE> 38
 1.939524e+01 2.720959e+01 3.160562e+01 3.186959e+01 3.832352e+01 4.414287e+01 4.035648e+01 3.763333e+01 3.932106e+01 3.743905e+01 2.997668e+01 2.463754e+01 1.800123e+00 2.331091e+00 2.164840e+00 2.370768e+00 3.013006e+00 2.689015e+00 2.708147e+00 3.163423e+00 3.010308e+00 2.886788e+00 2.757973e+00 2.546283e+00 1.000000e-02 1.862751e-01 2.212327e-01 3.185345e-01 3.308586e-01 4.118807e-01 4.054332e-01 4.414889e-01 5.011505e-01 4.759526e-01 4.579198e-01 4.163671e-01 3.784419e-01 1.000000e-02
<GCONST> 1.017831e+02
<MIXTURE> 4 7.078766e-02
<MEAN> 38
 8.161764e+00 7.092901e-01 -3.442713e+00 -3.264395e+00 1.660161e+00 2.102094e+00 -6.638126e+00 -5.325404e+00 -9.042104e-02 3.822976e+00 2.104714e+00 -3.410588e+00 6.078915e-03 1.200221e+00 5.190774e-01 6.537349e-01 6.482814e-01 4.740155e-01 1.151470e+00 -5.350783e-01 -8.921970e-01 -1.579968e-01 3.011328e-01 3.890187e-01 -2.004593e-02 -2.550890e-01 2.200884e-01 3.643507e-01 3.579577e-01 -7.308391e-02 -2.372609e-01 2.931123e-01 1.760657e-01 -4.082404e-02 -2.861879e-01 -2.680552e-01 1.868441e-01 -5.499726e-03
<VARIANCE> 38
 1.140434e+01 2.042789e+01 3.208025e+01 4.833402e+01 3.231120e+01 5.059296e+01 5.074122e+01 4.418144e+01 5.101241e+01 4.875955e+01 4.887683e+01 3.592166e+01 6.520725e-01 1.271340e+00 1.544457e+00 2.249567e+00 2.121998e+00 2.770362e+00 2.799869e+00 3.008572e+00 3.110544e+00 2.794990e+00 2.623392e+00 2.044872e+00 1.000000e-02 1.083888e-01 2.041009e-01 2.612777e-01 3.243936e-01 3.829011e-01 4.229704e-01 4.732083e-01 4.998168e-01 5.020500e-01 4.993083e-01 4.376282e-01 3.926618e-01 1.000000e-02
<GCONST> 9.994672e+01
<MIXTURE> 5 5.706570e-02
<MEAN> 38
 1.218034e+00 6.830736e+00 5.451090e+00 4.892299e+00 3.323797e+00 -1.704409e+00 -2.541255e+00 -1.387362e+00 1.623178e-02 -1.372506e+00 -2.325620e+00 -1.392544e+00 -1.518766e+00 6.342338e-01 7.103938e-01 1.105397e+00 1.199737e+00 8.545485e-01 1.092410e+00 3.471247e-01 1.324814e-02 -1.724243e-01 2.184547e-01 -4.650789e-03 -4.750936e-02 -5.900648e-02 -5.599123e-01 -3.677537e-01 -1.791049e-01 -1.881406e-01 3.086417e-02 8.984437e-02 1.965749e-01 5.434676e-02 1.005688e-01 1.331003e-01 1.488893e-01 -9.438092e-04
<VARIANCE> 38
 2.026533e+01 3.116045e+01 3.340451e+01 4.066397e+01 4.217042e+01 4.798107e+01 4.496444e+01 4.238404e+01 4.487092e+01 4.816099e+01 3.363998e+01 2.705501e+01 1.954957e+00 2.482370e+00 2.727383e+00 2.709144e+00 3.569800e+00 3.368887e+00 3.443914e+00 3.716307e+00 3.453972e+00 3.376671e+00 2.979364e+00 2.722361e+00 1.000000e-02 2.582803e-01 3.157233e-01 3.587470e-01 4.594319e-01 5.296463e-01 5.036907e-01 5.434049e-01 6.025934e-01 5.946455e-01 6.169145e-01 5.024681e-01 4.538881e-01 1.000000e-02
<GCONST> 1.078856e+02
<MIXTURE> 6 7.334226e-02
<MEAN> 38
 1.338983e+00 5.456511e+00 7.129207e+00 6.352946e+00 -2.990753e-01 -3.891906e+00 2.911142e-01 1.634658e+00 -6.657171e-01 -2.218855e+00 -1.191497e+00 1.533517e+00 -9.852692e-01 4.212870e-01 2.438186e-01 7.983400e-01 1.343626e+00 1.153169e+00 7.739274e-01 2.331737e-01 2.167672e-01 -1.139678e-01 3.137816e-02 -9.976198e-02 -4.169682e-02 -7.825070e-02 -2.664289e-01 -2.507654e-01 -1.143091e-01 1.232500e-01 2.100409e-01 5.430988e-02 1.288771e-02 4.507635e-02 7.375232e-02 6.166442e-03 -4.901306e-02 -1.780654e-03
<VARIANCE> 38
 1.338136e+01 2.410400e+01 2.321943e+01 2.363531e+01 3.748917e+01 3.920871e+01 3.821052e+01 3.199856e+01 3.446285e+01 3.437762e+01 2.980310e+01 2.241557e+01 8.584526e-01 1.444352e+00 1.322747e+00 1.566089e+00 1.764781e+00 1.966270e+00 1.990300e+00 2.071459e+00 2.198528e+00 2.004846e+00 1.913301e+00 1.842895e+00 1.000000e-02 9.812893e-02 1.664915e-01 1.889342e-01 2.175030e-01 2.832108e-01 3.072146e-01 3.224100e-01 3.497020e-01 3.692960e-01 3.517529e-01 3.243550e-01 2.910193e-01 1.000000e-02
<GCONST> 9.071210e+01
<MIXTURE> 7 7.437117e-02
<MEAN> 38
 6.303302e+00 1.772056e+00 8.450364e-01 1.918487e+00 1.765462e+00 -1.300305e+00 -2.885122e+00 -1.632980e+00 -5.052602e-01 -8.671609e-01 -2.752662e+00 -1.663165e+00 -2.059740e-01 1.090864e+00 6.067437e-01 9.438242e-01 7.232623e-01 2.818872e-01 7.858468e-01 -4.658885e-01 -5.208760e-01 -1.262315e-03 -6.728005e-02 6.772928e-02 -2.071365e-02 -1.518238e-01 4.478142e-02 1.302876e-01 8.683544e-02 -1.037070e-01 -6.106273e-02 2.270505e-02 2.193938e-02 3.091729e-02 4.807943e-02 7.034631e-02 6.011541e-02 -2.741362e-03
<VARIANCE> 38
 1.065643e+01 1.902253e+01 2.384500e+01 3.163784e+01 3.388960e+01 4.381952e+01 4.821838e+01 4.451110e+01 4.301918e+01 5.077762e+01 3.816093e+01 3.040165e+01 7.156149e-01 1.245995e+00 1.317120e+00 1.584805e+00 1.946465e+00 2.416514e+00 2.555699e+00 2.709916e+00 2.714055e+00 2.430027e+00 2.057099e+00 1.982743e+00 1.000000e-02 7.294514e-02 1.396345e-01 1.462025e-01 2.200030e-01 2.697635e-01 3.019695e-01 3.337760e-01 3.730029e-01 3.551660e-01 3.638777e-01 3.058469e-01 2.755050e-01 1.000000e-02
<GCONST> 9.254905e+01
<MIXTURE> 8 5.463140e-02
<MEAN> 38
 6.614419e+00 -1.929317e+00 -3.352602e+00 -2.751255e+00 -9.165964e-01 -1.105174e+00 -2.534071e+00 -1.851907e+00 8.147396e-01 1.355800e+00 -2.217680e+00 -2.948832e+00 1.382355e-02 5.549811e-01 1.810925e-01 3.620630e-01 5.378676e-01 5.291268e-01 5.009314e-01 -2.907032e-01 -1.958085e-01 1.109940e-01 1.490178e-01 4.695553e-02 -1.402447e-02 -1.429272e-01 2.352463e-01 2.288271e-01 2.119430e-01 1.007435e-01 3.392172e-02 -2.173826e-02 -3.108212e-02 -7.053923e-02 -9.777164e-02 1.100528e-01 1.546800e-01 -4.885196e-03
<VARIANCE> 38
 1.424287e+01 2.914865e+01 4.706717e+01 5.017646e+01 4.493824e+01 6.015523e+01 6.135133e+01 6.267464e+01 6.644933e+01 6.685252e+01 5.900152e+01 4.327884e+01 4.875673e-01 1.122254e+00 1.354520e+00 1.777545e+00 1.828810e+00 2.120151e+00 2.505509e+00 2.451662e+00 2.389184e+00 2.252228e+00 1.937390e+00 1.764660e+00 1.000000e-02 9.044185e-02 1.839510e-01 2.053323e-01 2.728636e-01 3.000759e-01 3.398008e-01 4.018367e-01 4.656833e-01 4.680958e-01 4.427994e-01 4.043621e-01 3.324958e-01 1.000000e-02
<GCONST> 9.866658e+01
<MIXTURE> 9 5.930280e-02
<MEAN> 38
 5.868927e+00 8.701036e-01 2.794768e-01 8.560477e-01 6.621903e-01 -2.100913e+00 -3.477086e+00 -2.507803e+00 -1.210583e+00 -1.616181e+00 -3.549674e+00 -2.103532e+00 -2.246499e-01 8.092710e-01 4.661497e-01 8.014776e-01 5.515617e-01 1.938364e-01 6.486223e-01 -5.144280e-01 -6.055176e-01 -7.679772e-02 -1.825175e-01 -9.337784e-02 -1.724280e-02 -1.358025e-01 1.013158e-02 8.648454e-02 5.984527e-02 -7.032090e-02 -4.759631e-02 -7.738212e-03 5.743914e-02 5.274288e-02 5.138495e-02 6.994864e-02 3.965367e-02 -2.391045e-03
<VARIANCE> 38
 1.109753e+01 2.002318e+01 2.568473e+01 3.270705e+01 3.804012e+01 4.453594e+01 4.975367e+01 4.501527e+01 4.656917e+01 6.300700e+01 4.311994e+01 2.957532e+01 7.860888e-01 1.190750e+00 1.339165e+00 1.679707e+00 1.940109e+00 2.330216e+00 2.637158e+00 2.648414e+00 2.656275e+00 2.505216e+00 2.048756e+00 1.954780e+00 1.000000e-02 7.295633e-02 1.270585e-01 1.393574e-01 2.172340e-01 2.587018e-01 2.888136e-01 3.248970e-01 3.622814e-01 3.422169e-01 3.536599e-01 2.945553e-01 2.603399e-01 1.000000e-02
<GCONST> 9.293804e+01
<MIXTURE> 10 5.530911e-02
<MEAN> 38
 6.938361e-01 5.399385e+00 6.725760e+00 5.511637e+00 -6.856214e-01 -4.585721e+00 -1.282901e+00 4.377673e-01 -1.061169e+00 -2.391906e+00 -1.593055e+00 7.278314e-01 -1.142298e+00 2.911416e-01 1.504107e-01 5.924959e-01 1.115140e+00 9.990578e-01 5.870620e-01 1.018228e-01 4.501475e-02 -2.945099e-01 -1.432358e-01 -1.965770e-01 -4.147245e-02 -7.490732e-02 -3.110594e-01 -2.808159e-01 -1.514562e-01 1.094942e-01 1.952403e-01 3.867766e-02 2.310519e-02 3.925925e-02 6.873365e-02 -1.610310e-03 -3.793876e-02 -5.812234e-04
<VARIANCE> 38
 1.409720e+01 2.417401e+01 2.407528e+01 2.507973e+01 3.863211e+01 3.627075e+01 3.773048e+01 3.232495e+01 3.709528e+01 3.671004e+01 2.988116e+01 2.229615e+01 1.021416e+00 1.435670e+00 1.410318e+00 1.620810e+00 1.836887e+00 1.987805e+00 1.963049e+00 2.138625e+00 2.161646e+00 1.976998e+00 1.920371e+00 1.846642e+00 1.000000e-02 1.071642e-01 1.830859e-01 1.958722e-01 2.187084e-01 2.733872e-01 2.982886e-01 3.160564e-01 3.431757e-01 3.631578e-01 3.453688e-01 3.266202e-01 2.907260e-01 1.000000e-02
<GCONST> 9.135093e+01
<MIXTURE> 11 6.376885e-02
<MEAN> 38
 8.586568e-01 7.000444e+00 5.614561e+00 4.085792e+00 1.449295e+00 -3.431432e+00 -3.311920e+00 -4.764205e-01 8.530992e-01 -1.426140e+00 -1.757197e+00 -2.095330e-01 -1.888238e+00 6.847827e-01 7.657068e-01 1.059488e+00 1.340845e+00 9.748744e-01 9.347418e-01 3.622973e-01 -2.244007e-02 -3.389066e-01 8.851506e-02 -2.141929e-01 -4.818470e-02 -1.563091e-01 -6.185281e-01 -3.369899e-01 -1.066365e-01 -6.591733e-03 1.816458e-01 9.790482e-02 7.576531e-02 -7.759997e-02 3.798581e-02 2.901089e-02 3.467447e-03 -6.914731e-04
<VARIANCE> 38
 1.958394e+01 2.745869e+01 3.149800e+01 3.224664e+01 3.965828e+01 4.329919e+01 4.000227e+01 3.823382e+01 4.253898e+01 4.133248e+01 2.984552e+01 2.492625e+01 1.854815e+00 2.348245e+00 2.306821e+00 2.461689e+00 3.156339e+00 2.852679e+00 2.829202e+00 3.261981e+00 3.058798e+00 2.875302e+00 2.742476e+00 2.595877e+00 1.000000e-02 1.818680e-01 2.377382e-01 3.059335e-01 3.398399e-01 4.043735e-01 4.071735e-01 4.399871e-01 5.028502e-01 5.036746e-01 4.782156e-01 4.067046e-01 3.757391e-01 1.000000e-02
<GCONST> 1.024508e+02
<MIXTURE> 12 7.492359e-02
<MEAN> 38
 6.689096e+00 2.114712e+00 4.109186e-01 1.490502e+00 2.605057e+00 -1.680790e+00 -5.545396e+00 -2.720570e+00 5.686747e-02 2.535196e-01 -2.246129e+00 -2.796232e+00 -2.783718e-01 1.454994e+00 7.917389e-01 9.976714e-01 5.994173e-01 1.633325e-01 1.156257e+00 -6.987645e-01 -8.834755e-01 -6.898781e-02 -2.051496e-01 -1.512442e-01 -2.240868e-02 -2.000201e-01 -5.061188e-03 1.634536e-01 5.687594e-02 -2.758957e-01 -1.304331e-01 1.395980e-01 5.324584e-02 -4.759756e-02 -2.279035e-02 -1.986128e-02 7.456604e-02 -1.999062e-03
<VARIANCE> 38
 1.095689e+01 1.841582e+01 2.172311e+01 2.728370e+01 2.740162e+01 3.912047e+01 4.041333e+01 3.793087e+01 3.569297e+01 4.256706e+01 3.463287e+01 2.818872e+01 9.651706e-01 1.636863e+00 1.773643e+00 1.769475e+00 2.354160e+00 3.017669e+00 3.118747e+00 3.387877e+00 3.354185e+00 3.105365e+00 2.541005e+00 2.523433e+00 1.000000e-02 8.674973e-02 1.583499e-01 1.715543e-01 2.231457e-01 2.812983e-01 3.183537e-01 3.612020e-01 3.846855e-01 3.524956e-01 3.803696e-01 3.126462e-01 2.975014e-01 1.000000e-02
<GCONST> 9.464223e+01
<MIXTURE> 13 6.919588e-02
<MEAN> 38
 7.647792e+00 -4.766188e-03 -3.745070e+00 -3.962627e+00 6.317418e-01 1.669093e+00 -5.874795e+00 -5.218630e+00 -1.479173e-01 3.258328e+00 1.423542e+00 -3.615210e+00 -6.032513e-02 7.428470e-01 3.224327e-01 4.587659e-01 3.824669e-01 3.043079e-01 8.424804e-01 -4.782557e-01 -7.240029e-01 -1.361730e-01 9.670313e-02 1.544267e-01 -1.472985e-02 -2.099464e-01 1.343644e-01 2.552682e-01 2.817015e-01 -1.611126e-02 -1.672313e-01 1.733347e-01 1.271430e-01 -4.223581e-02 -2.259834e-01 -1.909424e-01 1.771920e-01 -4.579370e-03
<VARIANCE> 38
 1.177175e+01 2.188161e+01 3.558243e+01 5.047528e+01 3.520802e+01 5.406063e+01 5.365308e+01 4.928702e+01 5.499426e+01 5.671946e+01 5.588339e+01 3.857720e+01 6.035231e-01 1.179208e+00 1.542377e+00 2.325773e+00 2.082548e+00 2.642953e+00 2.924393e+00 2.838042e+00 3.034740e+00 2.725542e+00 2.400254e+00 2.026206e+00 1.000000e-02 1.045484e-01 1.679096e-01 2.253073e-01 3.028112e-01 3.335097e-01 3.854246e-01 4.529851e-01 4.741705e-01 4.775781e-01 4.665223e-01 4.102474e-01 3.579518e-01 1.000000e-02
<GCONST> 9.954321e+01
<MIXTURE> 14 4.446644e-02
<MEAN> 38
 1.210870e+00 6.031633e+00 5.232390e+00 4.817606e+00 2.976694e+00 -2.015902e+00 -3.139428e+00 -2.435385e+00 -9.119445e-01 -1.694198e+00 -2.967892e+00 -2.367243e+00 -1.424172e+00 3.197557e-01 5.279713e-01 9.849426e-01 1.018361e+00 6.292714e-01 9.614970e-01 7.404572e-02 -3.648662e-01 -4.096482e-01 -5.767902e-02 -1.099545e-01 -4.335542e-02 2.653827e-02 -5.876415e-01 -4.687127e-01 -2.868934e-01 -2.418117e-01 -1.848615e-02 3.102781e-02 2.023151e-01 1.104739e-01 1.388183e-01 1.397090e-01 1.902787e-01 1.472455e-03
<VARIANCE> 38
 2.031798e+01 3.177149e+01 3.279348e+01 4.067558e+01 4.427538e+01 4.544523e+01 4.356974e+01 4.276262e+01 4.759963e+01 5.245431e+01 3.768483e+01 2.761664e+01 2.251086e+00 2.755914e+00 3.097151e+00 3.012125e+00 3.874127e+00 3.751577e+00 3.771301e+00 3.911976e+00 3.764240e+00 3.513585e+00 3.181878e+00 2.804725e+00 1.000000e-02 2.799843e-01 3.883949e-01 3.886496e-01 5.174081e-01 5.492730e-01 5.386296e-01 5.947423e-01 6.470732e-01 6.497727e-01 6.672441e-01 5.427058e-01 4.630947e-01 1.000000e-02
<GCONST> 1.101872e+02
<MIXTURE> 15 7.617119e-02
<MEAN> 38
 1.489648e+00 3.623538e+00 6.526620e+00 6.869961e+00 -1.777468e-01 -3.168649e+00 1.915839e+00 2.550696e+00 -1.453126e+00 -3.153433e+00 -1.622605e+00 2.123420e+00 -8.928299e-01 2.017600e-01 -3.635522e-02 6.617780e-01 1.277819e+00 1.068947e+00 6.726238e-01 8.949897e-02 1.493424e-01 -2.486949e-01 -1.537354e-01 -2.250573e-01 -4.096432e-02 -6.507893e-02 -1.753876e-01 -2.397363e-01 -2.000377e-01 5.782432e-02 1.095296e-01 -1.060102e-01 -6.942215e-02 9.012441e-02 1.170159e-01 -1.399817e-02 -1.523479e-01 -1.685675e-03
<VARIANCE> 38
 1.115744e+01 2.255712e+01 2.043596e+01 2.410777e+01 3.956923e+01 4.550330e+01 4.338264e+01 3.296220e+01 3.423378e+01 3.875092e+01 3.190567e+01 2.384517e+01 6.616863e-01 1.311844e+00 1.275844e+00 1.486171e+00 1.674586e+00 1.947435e+00 1.971183e+00 2.036387e+00 2.171372e+00 2.080945e+00 1.930243e+00 1.824868e+00 1.000000e-02 7.933937e-02 1.499552e-01 1.693879e-01 2.172522e-01 2.831668e-01 3.400635e-01 3.338777e-01 3.567986e-01 3.629525e-01 3.561070e-01 3.384559e-01 3.099463e-01 1.000000e-02
<GCONST> 9.027814e+01
<MIXTURE> 16 4.599113e-02
<MEAN> 38
 5.868158e+00 -3.518730e+00 -4.297786e+00 -3.432221e+00 -1.661091e+00 -1.888958e+00 -2.175924e+00 -6.228011e-01 1.514382e+00 8.457212e-01 -3.580103e+00 -3.523383e+00 -7.374798e-02 1.749203e-01 -8.176496e-02 1.663450e-01 4.124432e-01 4.490822e-01 4.333977e-01 -2.941164e-01 -1.521127e-01 1.729609e-02 -9.323925e-02 -2.291261e-01 -1.116604e-02 -1.035030e-01 1.846383e-01 1.782243e-01 1.504695e-01 8.875258e-02 4.330407e-02 -7.817604e-02 -8.665458e-02 -8.649573e-02 -8.332057e-02 1.464227e-01 1.314186e-01 -4.150193e-03
<VARIANCE> 38
 1.405916e+01 3.016870e+01 4.870756e+01 4.476965e+01 4.724650e+01 5.687250e+01 6.052597e+01 6.780789e+01 7.137639e+01 7.700447e+01 6.029795e+01 4.456779e+01 4.507403e-01 1.116261e+00 1.487522e+00 1.711475e+00 1.846488e+00 2.083589e+00 2.543139e+00 2.389885e+00 2.321963e+00 2.258414e+00 1.854052e+00 1.800212e+00 1.000000e-02 8.373144e-02 1.583196e-01 1.902695e-01 2.491581e-01 2.696235e-01 3.001738e-01 3.656920e-01 4.315359e-01 4.378823e-01 4.104340e-01 3.681839e-01 3.089349e-01 1.000000e-02
<GCONST> 9.772955e+01
<TRANSP> 5
 0.000000e+00 1.000000e+00 0.000000e+00 0.000000e+00 0.000000e+00
 0.000000e+00 4.910765e-01 5.089235e-01 0.000000e+00 0.000000e+00
 0.000000e+00 0.000000e+00 7.466996e-01 2.533004e-01 0.000000e+00
 0.000000e+00 0.000000e+00 0.000000e+00 6.139086e-01 3.860914e-01
 0.000000e+00 0.000000e+00 0.000000e+00 0.000000e+00 0.000000e+00
<ENDHMM>
~h "a"
<BEGINHMM>
<NUMSTATES> 5
<STATE> 2
<NUMMIXES> 16
<SWEIGHTS> 1
 1.000000e+00
<MIXTURE> 1 3.400959e-02
<MEAN> 38
 5.299370e+00 -1.155139e+01 -7.730379e+00 1.629566e+00 2.901384e+00 2.917705e+00 1.521794e+00 2.584910e-01 3.485805e-01 -3.298197e+00 -4.265477e+00 -1.042031e+00 1.708227e-01 -2.963046e-01 -1.985964e-01 5.276868e-01 4.193282e-01 3.869244e-01 2.508142e-02 -1.496270e-01 1.176645e-01 2.001419e-01 6.624534e-02 2.316902e-01 4.446947e-03 -5.783838e-02 1.953180e-01 1.076717e-01 -2.860555e-02 9.692711e-03 -6.659077e-02 -3.992199e-02 4.157538e-02 5.848408e-02 6.497814e-02 3.970961e-02 2.263390e-03 -2.964980e-03
<VARIANCE> 38
 1.134118e+01 2.349953e+01 2.516846e+01 4.046208e+01 3.079776e+01 2.959117e+01 4.141236e+01 3.250320e+01 3.239176e+01 3.414822e+01 2.426431e+01 3.218241e+01 4.640468e-01 9.248146e-01 8.673260e-01 1.117369e+00 1.192405e+00 1.191442e+00 1.315728e+00 1.302661e+00 1.200940e+00 1.231730e+00 1.148668e+00 1.101387e+00 1.000000e-02 1.021242e-01 1.636462e-01 1.558111e-01 2.144939e-01 2.072343e-01 2.037142e-01 2.368008e-01 2.290773e-01 2.119053e-01 2.236154e-01 2.208200e-01 1.946234e-01 1.000000e-02
<GCONST> 8.170268e+01
<MIXTURE> 2 6.232302e-02
<MEAN> 38
 5.860045e+00 -1.119301e+01 -7.814931e+00 -8.267285e-01 4.240599e+00 4.043834e+00 3.010392e-01 1.911427e-01 8.545986e-01 -1.438535e+00 -4.144079e+00 -3.819105e+00 1.582666e-01 1.559922e-01 -6.091519e-03 7.335936e-02 6.489894e-02 9.919919e-02 6.496719e-02 3.763053e-02 -4.216102e-02 1.310446e-01 1.153162e-01 1.542429e-01 -2.584810e-03 3.281460e-02 7.195188e-02 1.081826e-02 9.080054e-03 -4.195544e-02 -2.708665e-02 2.792767e-02 1.306163e-02 3.010510e-02 -2.130063e-03 1.099869e-02 5.841981e-02 -7.404191e-04
<VARIANCE> 38
 9.755140e+00 1.662326e+01 2.214996e+01 4.350661e+01 2.791117e+01 3.456974e+01 3.576022e+01 3.457862e+01 3.572522e+01 2.976428e+01 2.677045e+01 3.456121e+01 9.983020e-02 2.139612e-01 2.639028e-01 4.044995e-01 4.211274e-01 5.054863e-01 5.337166e-01 5.856315e-01 5.958416e-01 5.629354e-01 5.495375e-01 4.858208e-01 1.000000e-02 1.376063e-02 2.678964e-02 3.804805e-02 5.142556e-02 5.996422e-02 7.161790e-02 7.823990e-02 8.121415e-02 8.079969e-02 7.854872e-02 7.649234e-02 7.444087e-02 1.000000e-02
<GCONST> 5.429367e+01
<MIXTURE> 3 5.365079e-02
<MEAN> 38
 5.951764e+00 -9.199550e+00 -7.739583e+00 -7.199628e-01 2.172421e+00 2.524171e+00 1.544868e+00 1.222626e+00 2.584430e+00 -1.761329e+00 -4.554266e+00 -3.603470e+00 -1.456617e-02 -3.113312e-01 -2.104855e-01 2.954855e-01 4.794537e-01 3.376181e-01 1.280263e-01 -2.380891e-01 1.057053e-01 -1.407168e-01 -1.550585e-02 1.287815e-01 6.672484e-04 9.883701e-03 9.433490e-02 8.881117e-02 9.478364e-04 -3.670416e-02 -7.689002e-02 -7.527114e-02 -1.108370e-02 -5.665320e-02 3.079017e-02 5.795748e-02 5.371473e-02 -1.411419e-03
<VARIANCE> 38
 8.769761e+00 1.468528e+01 2.354749e+01 3.502426e+01 2.896766e+01 3.577997e+01 3.426917e+01 3.445310e+01 3.762061e+01 3.821585e+01 2.898746e+01 4.059528e+01 1.708480e-01 3.786826e-01 5.792323e-01 7.658553e-01 9.441608e-01 1.129831e+00 1.170786e+00 1.213467e+00 1.144808e+00 1.204718e+00 1.160064e+00 1.017927e+00 1.000000e-02 2.446217e-02 5.718791e-02 8.234837e-02 1.213270e-01 1.491646e-01 1.750345e-01 1.873707e-01 2.067131e-01 2.036057e-01 2.014982e-01 1.902543e-01 1.740263e-01 1.000000e-02
<GCONST> 7.323742e+01
<MIXTURE> 4 7.094668e-02
<MEAN> 38
 4.645782e+00 -1.205934e+01 -7.763208e+00 1.809688e+00 4.243514e+00 2.749276e+00 2.702466e-01 -1.348133e+00 4.746713e-01 -4.835399e+00 -5.044629e+00 -3.158469e-01 1.077622e-01 7.765571e-02 7.492545e-02 1.966201e-01 2.236692e-01 2.050726e-01 -4.025312e-02 5.540416e-02 1.695281e-01 2.017758e-01 1.742196e-01 5.718140e-02 -1.883233e-03 4.888562e-02 8.841295e-02 4.310594e-02 -3.245278e-02 -2.896110e-02 1.809875e-02 3.815524e-02 9.481201e-02 4.868613e-03 8.237431e-02 2.779868e-02 -1.075229e-02 -7.790049e-04
<VARIANCE> 38
 9.856694e+00 1.602877e+01 1.998897e+01 2.596563e+01 2.608248e+01 2.485878e+01 4.039246e+01 3.193226e+01 3.413335e+01 3.346616e+01 2.140937e+01 2.431507e+01 9.957809e-02 2.285789e-01 3.100250e-01 4.864810e-01 5.755199e-01 6.078859e-01 7.697964e-01 7.558004e-01 7.534232e-01 7.424666e-01 6.540701e-01 6.130072e-01 1.000000e-02 1.431219e-02 2.886941e-02 4.498777e-02 6.341609e-02 8.562084e-02 9.792104e-02 1.135079e-01 1.200088e-01 1.213620e-01 1.175705e-01 1.045998e-01 9.837061e-02 1.000000e-02
<GCONST> 5.856007e+01
<MIXTURE> 5 1.282841e-01
<MEAN> 38
 5.864431e+00 -1.096579e+01 -7.643686e+00 -1.124379e+00 3.886305e+00 3.996058e+00 1.084606e-01 9.368429e-01 1.715872e+00 -2.027448e+00 -3.887877e+00 -3.969743e+00 5.563015e-02 5.527166e-02 4.824322e-02 2.121807e-02 5.350208e-02 7.105661e-03 1.652598e-02 4.870862e-02 -2.999530e-02 2.462804e-02 7.218409e-02 5.328538e-02 -2.012363e-03 1.988838e-02 4.647936e-02 2.144961e-02 -9.007434e-03 -3.363688e-02 -3.693864e-02 1.580537e-02 1.513727e-02 -4.951133e-03 2.073484e-02 1.173116e-02 1.772780e-02 -5.659964e-04
<VARIANCE> 38
 9.328224e+00 1.435019e+01 2.181876e+01 3.837349e+01 2.543957e+01 3.771664e+01 3.643759e+01 3.894999e+01 3.846789e+01 2.904638e+01 2.753052e+01 3.449437e+01 7.270379e-02 1.606326e-01 2.104216e-01 3.133583e-01 3.613748e-01 4.409776e-01 4.530053e-01 5.132565e-01 4.689644e-01 4.777417e-01 4.678173e-01 4.131213e-01 1.000000e-02 1.064250e-02 1.977741e-02 3.040453e-02 4.323678e-02 5.166471e-02 6.176678e-02 6.963717e-02 7.495999e-02 7.461626e-02 7.581325e-02 7.351243e-02 6.810917e-02 1.000000e-02
<GCONST> 5.007615e+01
<MIXTURE> 6 6.448247e-02
<MEAN> 38
 5.414762e+00 -9.159940e+00 -7.153267e+00 -2.278410e+00 7.191266e-01 6.000759e-01 1.465085e+00 3.093998e+00 2.436665e+00 -3.119731e+00 -5.438846e+00 -2.996424e+00 -7.405947e-02 -5.241916e-01 -4.093106e-01 2.586734e-01 7.235426e-01 6.885699e-01 2.298825e-01 -2.812682e-01 -2.513991e-02 -3.321721e-01 8.778214e-02 -7.612810e-02 2.663097e-03 1.509896e-02 1.540929e-01 1.163848e-01 8.909690e-02 -5.522791e-03 -8.341100e-02 -1.043328e-01 -1.438781e-01 -5.291425e-02 1.278065e-01 1.338863e-01 3.979833e-02 -2.115010e-03
<VARIANCE> 38
 9.331576e+00 1.549578e+01 2.304367e+01 2.416697e+01 3.318773e+01 4.071556e+01 3.843724e+01 3.924443e+01 4.411919e+01 4.616268e+01 3.346169e+01 4.144561e+01 1.874928e-01 3.844346e-01 6.636860e-01 8.198712e-01 1.162709e+00 1.365993e+00 1.553911e+00 1.502063e+00 1.459467e+00 1.427008e+00 1.408703e+00 1.274313e+00 1.000000e-02 2.822373e-02 5.984318e-02 8.615817e-02 1.190230e-01 1.720410e-01 2.011525e-01 2.351534e-01 2.576371e-01 2.462014e-01 2.432368e-01 2.315146e-01 2.049367e-01 1.000000e-02
<GCONST> 7.770270e+01
<MIXTURE> 7 5.823233e-02
<MEAN> 38
 5.955794e+00 -1.000424e+01 -7.582848e+00 -7.386460e-01 1.780071e+00 1.560016e+00 1.476931e+00 1.834125e+00 8.410835e-01 -2.455606e+00 -4.996775e+00 -2.291256e+00 3.426640e-02 -5.726743e-01 -3.530954e-01 4.021746e-01 4.977581e-01 5.411546e-01 1.535807e-01 -1.658422e-01 8.245734e-03 -7.054862e-02 2.135197e-02 7.702622e-02 5.464435e-03 -8.314908e-02 2.071307e-01 1.462911e-01 6.492643e-02 1.587930e-02 -5.909229e-02 -7.765674e-02 -8.071612e-02 4.261854e-02 3.983439e-02 1.204509e-01 3.356539e-02 -3.111911e-03
<VARIANCE> 38
 1.044065e+01 1.983794e+01 2.468059e+01 3.266334e+01 3.386216e+01 3.724405e+01 4.026955e+01 3.509864e+01 3.760305e+01 3.889688e+01 2.829874e+01 3.604032e+01 3.455011e-01 6.658098e-01 8.525995e-01 1.108026e+00 1.294712e+00 1.410187e+00 1.464738e+00 1.456362e+00 1.362199e+00 1.333799e+00 1.288750e+00 1.203857e+00 1.000000e-02 8.252884e-02 1.151411e-01 1.431640e-01 1.980315e-01 2.259670e-01 2.380440e-01 2.673985e-01 2.582147e-01 2.375140e-01 2.401489e-01 2.405571e-01 2.099087e-01 1.000000e-02
<GCONST> 8.246825e+01
<MIXTURE> 8 5.089406e-02
<MEAN> 38
 4.284030e+00 -1.250320e+01 -8.023380e+00 1.896333e+00 5.336636e+00 3.067330e+00 -2.283736e-01 -1.792293e+00 8.430410e-01 -5.321134e+00 -4.529646e+00 1.042397e-01 -2.063801e-02 -5.923915e-02 -3.843501e-02 1.265412e-02 7.967819e-02 -3.648625e-02 -2.095896e-01 -1.291311e-01 4.138387e-03 -9.801926e-03 -2.310618e-02 -2.399957e-01 -9.887789e-04 4.418754e-02 8.278383e-02 3.662340e-02 -4.603593e-02 -5.859822e-02 5.293721e-03 5.086193e-02 1.023518e-01 -1.737351e-02 7.040628e-02 9.215548e-05 -3.178155e-02 -7.811400e-04
<VARIANCE> 38
 9.429864e+00 1.422750e+01 1.825431e+01 1.973480e+01 2.595595e+01 2.258880e+01 4.014314e+01 2.985245e+01 3.035523e+01 3.357286e+01 2.154562e+01 2.091867e+01 1.050395e-01 2.177336e-01 3.045443e-01 5.059347e-01 6.173888e-01 6.044321e-01 7.856647e-01 8.266470e-01 8.183628e-01 8.334849e-01 7.031322e-01 6.145816e-01 1.000000e-02 1.375709e-02 2.714181e-02 4.435594e-02 6.144700e-02 8.695006e-02 9.652740e-02 1.107126e-01 1.234948e-01 1.240305e-01 1.249732e-01 1.120390e-01 9.760726e-02 1.000000e-02
<GCONST> 5.807448e+01
<MIXTURE> 9 8.625235e-02
<MEAN> 38
 5.360379e+00 -1.186126e+01 -7.983579e+00 -6.769097e-01 3.880130e+00 3.830739e+00 -4.788432e-01 6.102933e-01 1.196196e+00 -3.204375e+00 -4.153702e+00 -3.503865e+00 -1.722243e-02 -3.117435e-02 2.350900e-02 -3.985345e-02 -6.676967e-03 -6.603502e-02 -6.451565e-02 -2.812113e-03 -7.491539e-02 -7.464441e-02 -2.341003e-02 -1.003752e-01 -1.171981e-03 -6.102204e-04 2.475560e-02 -5.466088e-04 -4.664527e-02 -6.041367e-02 -6.753991e-02 -1.413210e-02 -1.597643e-02 -3.686564e-02 -1.734911e-02 -2.711454e-02 -4.179394e-02 -4.892116e-04
<VARIANCE> 38
 9.731684e+00 1.396569e+01 2.009257e+01 3.260499e+01 2.537837e+01 3.619462e+01 3.902497e+01 4.027386e+01 3.899886e+01 3.063835e+01 2.651164e+01 3.098136e+01 6.953925e-02 1.463221e-01 1.977476e-01 3.008020e-01 3.565000e-01 4.328526e-01 4.425802e-01 5.064772e-01 4.657130e-01 4.660834e-01 4.541343e-01 4.122986e-01 1.000000e-02 1.037388e-02 1.960240e-02 3.108556e-02 4.510601e-02 5.288304e-02 6.273675e-02 6.962998e-02 7.708644e-02 7.807513e-02 8.056695e-02 7.832061e-02 6.876865e-02 1.000000e-02
<GCONST> 4.972937e+01
<MIXTURE> 10 9.380937e-02
<MEAN> 38
 5.711373e+00 -1.136867e+01 -8.047529e+00 -1.044752e+00 3.843898e+00 3.856087e+00 3.856000e-03 3.843470e-01 1.050534e+00 -2.094286e+00 -4.284891e+00 -4.238185e+00 5.474270e-02 3.713984e-02 -1.734406e-02 1.728667e-02 2.027006e-02 2.745863e-02 -2.141494e-02 -6.502614e-04 -7.852357e-02 2.404779e-02 2.563278e-03 1.467433e-03 -1.603526e-03 1.237177e-02 4.774561e-02 3.026749e-03 -1.354125e-02 -5.507106e-02 -4.722472e-02 1.916284e-03 -2.480581e-03 6.225976e-03 -1.603650e-02 -5.726643e-03 7.259903e-03 -5.821751e-04
<VARIANCE> 38
 9.659387e+00 1.547426e+01 2.128511e+01 3.825838e+01 2.632955e+01 3.562336e+01 3.632789e+01 3.647026e+01 3.704311e+01 3.020218e+01 2.676133e+01 3.359190e+01 8.697840e-02 1.902699e-01 2.431026e-01 3.714537e-01 4.064565e-01 4.915976e-01 5.066018e-01 5.716150e-01 5.406291e-01 5.340847e-01 5.227743e-01 4.637686e-01 1.000000e-02 1.264428e-02 2.423880e-02 3.634975e-02 5.064976e-02 5.868265e-02 6.930833e-02 7.607743e-02 8.112033e-02 8.066051e-02 8.011319e-02 7.817239e-02 7.387503e-02 1.000000e-02
<GCONST> 5.300117e+01
<MIXTURE> 11 6.808067e-02
<MEAN> 38
 5.740334e+00 -9.607234e+00 -8.336074e+00 -1.978796e+00 1.723117e+00 1.964154e+00 1.062978e+00 1.285154e+00 2.822690e+00 -1.896884e+00 -4.850021e+00 -4.564297e+00 -8.211163e-02 -4.157911e-01 -2.523174e-01 1.785859e-01 4.625576e-01 3.621809e-01 1.097089e-01 -2.892530e-01 -3.620823e-03 -2.946628e-01 -6.776231e-02 -6.701785e-02 1.813620e-03 1.703991e-03 9.187714e-02 8.931344e-02 9.043856e-03 -4.259464e-02 -8.173965e-02 -9.215419e-02 -3.377565e-02 -6.999516e-02 2.177336e-02 5.829785e-02 3.991928e-02 -1.560362e-03
<VARIANCE> 38
 9.087177e+00 1.482360e+01 2.283530e+01 2.883382e+01 2.842494e+01 3.846432e+01 3.378510e+01 3.740111e+01 4.042943e+01 4.186402e+01 3.108199e+01 3.985558e+01 1.682368e-01 3.509649e-01 5.738736e-01 7.331860e-01 9.324800e-01 1.133393e+00 1.212045e+00 1.235065e+00 1.166407e+00 1.202601e+00 1.155531e+00 1.042607e+00 1.000000e-02 2.487903e-02 5.361541e-02 8.032325e-02 1.158554e-01 1.471553e-01 1.722060e-01 1.854228e-01 2.097878e-01 1.992515e-01 1.970388e-01 1.878072e-01 1.754392e-01 1.000000e-02
<GCONST> 7.313560e+01
<MIXTURE> 12 7.708479e-02
<MEAN> 38
 4.575758e+00 -1.226705e+01 -7.957860e+00 8.380969e-01 3.902430e+00 2.410100e+00 -3.892432e-01 -1.276236e+00 3.283257e-01 -5.606587e+00 -5.485484e+00 -1.160574e+00 7.140751e-03 -4.999492e-02 -4.419297e-03 4.334501e-02 8.607648e-02 3.300964e-02 -1.618375e-01 -6.433484e-02 -2.730267e-02 1.182675e-02 1.746508e-02 -1.364145e-01 -1.100783e-03 2.428284e-02 5.811168e-02 1.884056e-02 -6.177633e-02 -6.367090e-02 -2.900390e-02 -4.258377e-03 5.577194e-02 -4.045063e-02 4.508339e-02 -6.442749e-03 -7.045310e-02 -6.783800e-04
<VARIANCE> 38
 1.015844e+01 1.463250e+01 1.942888e+01 2.323160e+01 2.556690e+01 2.555229e+01 4.167500e+01 3.547855e+01 3.568261e+01 3.663086e+01 2.293275e+01 2.390723e+01 9.673189e-02 2.172778e-01 2.954552e-01 4.674731e-01 5.700213e-01 5.944219e-01 7.283633e-01 7.585927e-01 7.372077e-01 7.174392e-01 6.369216e-01 5.952003e-01 1.000000e-02 1.364430e-02 2.670700e-02 4.306881e-02 6.053126e-02 8.235113e-02 9.432907e-02 1.092970e-01 1.195045e-01 1.198909e-01 1.196249e-01 1.056346e-01 9.570708e-02 1.000000e-02
<GCONST> 5.798007e+01
<MIXTURE> 13 4.421046e-02
<MEAN> 38
 5.615844e+00 -1.057520e+01 -8.078153e+00 -1.561612e+00 1.435078e+00 1.155392e+00 7.122446e-01 1.606774e+00 6.397765e-01 -3.092906e+00 -5.637550e+00 -2.525917e+00 -6.324998e-02 -6.955964e-01 -4.177180e-01 2.797614e-01 4.230071e-01 4.702666e-01 1.566684e-02 -2.843760e-01 -1.536812e-01 -2.887792e-01 -6.753802e-02 -1.908531e-01 6.867498e-03 -8.283529e-02 2.058731e-01 1.345724e-01 5.635124e-02 3.611005e-03 -7.723130e-02 -8.111971e-02 -9.665304e-02 3.249983e-02 1.831436e-02 1.163051e-01 -5.074157e-03 -3.132217e-03
<VARIANCE> 38
 1.097851e+01 1.938822e+01 2.412893e+01 2.848103e+01 3.458581e+01 3.796887e+01 4.010704e+01 3.768888e+01 3.975267e+01 4.192672e+01 3.031778e+01 3.618057e+01 3.499780e-01 6.306998e-01 8.465728e-01 1.060655e+00 1.327817e+00 1.468276e+00 1.570382e+00 1.526509e+00 1.442501e+00 1.391556e+00 1.318964e+00 1.274797e+00 1.000000e-02 8.238567e-02 1.093495e-01 1.399596e-01 1.871217e-01 2.369992e-01 2.365703e-01 2.661259e-01 2.649948e-01 2.424227e-01 2.405282e-01 2.456949e-01 2.188526e-01 1.000000e-02
<GCONST> 8.293210e+01
<MIXTURE> 14 3.942053e-02
<MEAN> 38
 4.804585e+00 -9.954124e+00 -7.588355e+00 -3.023775e+00 1.609073e-01 -5.062648e-02 9.986469e-01 2.841628e+00 1.778700e+00 -4.431299e+00 -6.048691e+00 -2.891720e+00 -1.574273e-01 -6.503952e-01 -5.018245e-01 1.525832e-01 6.994191e-01 6.723602e-01 6.384354e-02 -4.368274e-01 -2.274416e-01 -5.224739e-01 1.367216e-02 -3.649000e-01 3.728470e-03 1.233430e-02 1.495705e-01 1.065740e-01 8.048000e-02 -4.244084e-03 -8.922391e-02 -1.292217e-01 -1.511303e-01 -3.813815e-02 1.358041e-01 1.248847e-01 4.191644e-03 -2.130526e-03
<VARIANCE> 38
 9.757301e+00 1.598182e+01 2.222509e+01 2.157923e+01 3.306505e+01 3.991212e+01 3.768517e+01 4.262493e+01 4.779071e+01 5.276157e+01 3.539030e+01 3.999366e+01 1.865056e-01 3.747030e-01 6.556317e-01 7.927668e-01 1.214760e+00 1.420228e+00 1.741519e+00 1.594937e+00 1.558414e+00 1.495501e+00 1.443935e+00 1.341314e+00 1.000000e-02 2.833611e-02 5.542889e-02 8.478206e-02 1.144406e-01 1.777624e-01 1.954015e-01 2.361978e-01 2.643543e-01 2.408965e-01 2.485743e-01 2.356379e-01 2.116762e-01 1.000000e-02
<GCONST> 7.822607e+01
<MIXTURE> 15 4.511671e-02
<MEAN> 38
 5.389270e+00 -1.157513e+01 -8.177280e+00 6.755090e-01 2.649081e+00 2.585785e+00 9.911511e-01 2.886534e-01 3.202938e-01 -3.278530e+00 -4.713210e+00 -1.542867e+00 7.051645e-02 -4.415883e-01 -2.707776e-01 4.065302e-01 3.156973e-01 2.729019e-01 -8.891420e-02 -2.806789e-01 -2.459995e-02 -4.396980e-03 -3.421065e-02 9.689997e-03 5.263758e-03 -5.910545e-02 1.639046e-01 9.545277e-02 -4.873120e-02 -2.628851e-02 -9.522126e-02 -6.591486e-02 8.466851e-03 2.956816e-02 5.497210e-03 1.574804e-02 -4.540075e-02 -2.503688e-03
<VARIANCE> 38
 1.135699e+01 2.139982e+01 2.396566e+01 3.561964e+01 3.136693e+01 3.071048e+01 4.074810e+01 3.372532e+01 3.391068e+01 3.499952e+01 2.492011e+01 3.300844e+01 4.275521e-01 7.832207e-01 8.345336e-01 1.083031e+00 1.192358e+00 1.197197e+00 1.315180e+00 1.311896e+00 1.236270e+00 1.221054e+00 1.122851e+00 1.069745e+00 1.000000e-02 9.109439e-02 1.344691e-01 1.474152e-01 1.989616e-01 2.074968e-01 2.010030e-01 2.309338e-01 2.255836e-01 2.094287e-01 2.143250e-01 2.059846e-01 1.884948e-01 1.000000e-02
<GCONST> 8.064510e+01
<MIXTURE> 16 2.307646e-02
<MEAN> 38
 3.196928e+00 -1.385212e+01 -8.824195e+00 9.864281e-01 5.463511e+00 2.859438e+00 -1.116114e+00 -2.275286e+00 2.288468e-01 -6.310367e+00 -4.924766e+00 -9.839001e-01 -1.825689e-01 -2.698560e-01 -3.504580e-01 -4.213448e-01 -4.443958e-01 -5.134209e-01 -6.684493e-01 -6.430076e-01 -5.613485e-01 -5.866886e-01 -5.701444e-01 -6.432623e-01 -9.115888e-04 -8.983868e-03 5.984862e-03 -5.330227e-02 -1.427003e-01 -1.558497e-01 -1.228315e-01 -6.986497e-02 -5.491230e-02 -1.322250e-01 -1.092361e-01 -1.194001e-01 -1.227923e-01 -7.146614e-04
<VARIANCE> 38
 9.130604e+00 1.028358e+01 1.692064e+01 1.758005e+01 2.894283e+01 2.435415e+01 3.850166e+01 2.990906e+01 3.120171e+01 3.243166e+01 2.297347e+01 2.063846e+01 8.989746e-02 1.939770e-01 2.531064e-01 4.379601e-01 5.041119e-01 5.225142e-01 6.839527e-01 7.271915e-01 7.025241e-01 7.050794e-01 6.668453e-01 5.753446e-01 1.000000e-02 1.231349e-02 2.517208e-02 4.020664e-02 5.826669e-02 7.680933e-02 8.869497e-02 9.914601e-02 1.178406e-01 1.081262e-01 1.112492e-01 9.973199e-02 9.037652e-02 1.000000e-02
<GCONST> 5.490922e+01
<STATE> 3
<NUMMIXES> 16
<SWEIGHTS> 1
 1.000000e+00
<MIXTURE> 1 3.983365e-02
<MEAN> 38
 8.670982e+00 -5.967321e+00 -8.257294e+00 -5.134016e+00 3.643611e+00 7.180152e+00 -1.443908e+00 -7.479989e-01 1.062227e+00 2.362837e-01 -1.654352e+00 -5.633895e+00 4.786546e-01 1.269077e+00 5.880761e-01 9.466124e-02 -4.718021e-01 -5.146015e-01 4.207554e-01 -1.191994e-01 -7.109465e-01 3.961711e-01 6.561746e-01 1.785764e-01 -1.333664e-02 -1.185418e-01 3.599398e-01 3.442142e-01 4.828783e-01 3.107736e-02 -3.974298e-01 1.354691e-01 -1.880616e-01 -1.809777e-01 7.647824e-03 -2.495346e-02 1.926313e-01 -3.792973e-03
<VARIANCE> 38
 8.060165e+00 2.026005e+01 1.858087e+01 3.399755e+01 2.628609e+01 3.256569e+01 3.546656e+01 3.156629e+01 3.681692e+01 3.587736e+01 3.913733e+01 3.083668e+01 2.266840e-01 5.149935e-01 7.202584e-01 9.335527e-01 1.012821e+00 1.201960e+00 1.434358e+00 1.250321e+00 1.535774e+00 1.301485e+00 1.263701e+00 1.395008e+00 1.000000e-02 3.686290e-02 1.092563e-01 1.389675e-01 2.113523e-01 2.016076e-01 2.121109e-01 2.268683e-01 2.589160e-01 2.807639e-01 2.601776e-01 2.618612e-01 2.250595e-01 1.000000e-02
<GCONST> 7.924637e+01
<MIXTURE> 2 4.817657e-02
<MEAN> 38
 6.700938e+00 -9.394994e+00 -3.908055e+00 3.238618e+00 -7.841355e-01 -1.868693e+00 4.795393e+00 5.432998e+00 -2.665521e+00 -2.250926e+00 -3.066285e+00 -1.372965e+00 1.074362e-01 5.367839e-01 4.527109e-01 1.074950e-01 -3.672947e-01 -2.903475e-01 -4.038883e-02 2.482994e-01 8.199500e-02 2.091545e-01 3.588964e-02 1.193051e-01 -7.941009e-03 -1.538281e-02 1.461189e-01 5.743713e-02 1.210914e-02 8.344527e-02 6.250677e-02 -1.545421e-01 -1.297728e-01 1.219581e-01 2.872242e-02 1.716066e-03 -1.427747e-03 -1.750698e-03
<VARIANCE> 38
 8.441911e+00 1.800295e+01 2.545297e+01 3.136776e+01 3.932228e+01 3.609562e+01 3.533500e+01 3.826019e+01 4.088890e+01 2.578971e+01 2.720620e+01 2.352532e+01 1.922536e-01 4.485652e-01 6.866738e-01 7.293053e-01 9.313290e-01 1.018570e+00 1.201364e+00 1.217833e+00 1.141265e+00 1.060924e+00 9.822518e-01 8.586552e-01 1.000000e-02 2.761457e-02 7.025363e-02 8.708506e-02 1.283736e-01 1.404253e-01 1.472539e-01 1.648975e-01 1.621747e-01 1.539731e-01 1.450251e-01 1.407043e-01 1.316628e-01 1.000000e-02
<GCONST> 7.140215e+01
<MIXTURE> 3 7.654624e-02
<MEAN> 38
 7.189390e+00 -5.893248e+00 -1.033260e+01 -1.250219e+00 5.308661e+00 4.330675e+00 1.722272e+00 -3.021959e+00 4.299753e+00 -8.205014e-01 -1.914064e+00 -6.089876e+00 1.622196e-01 4.318130e-01 1.014927e-01 -1.236220e-01 -5.356427e-03 1.156864e-01 -3.504756e-03 -1.188439e-02 -1.462870e-01 7.502969e-02 2.390562e-01 1.462952e-01 -5.334367e-03 7.780115e-03 2.276496e-02 1.605907e-01 -2.957868e-02 -7.458571e-02 6.500077e-03 -5.675829e-02 1.384247e-01 -1.571820e-01 1.382377e-02 -8.578934e-03 1.061776e-01 -1.189505e-03
<VARIANCE> 38
 9.553687e+00 1.467919e+01 2.428192e+01 4.345666e+01 3.682568e+01 4.103216e+01 4.342815e+01 3.525929e+01 3.140343e+01 3.274923e+01 3.253026e+01 3.347192e+01 1.827137e-01 4.988881e-01 6.285983e-01 8.458339e-01 9.459766e-01 1.183571e+00 1.262036e+00 1.361230e+00 1.269790e+00 1.269630e+00 1.227689e+00 1.115181e+00 1.000000e-02 2.950711e-02 6.861762e-02 1.141762e-01 1.330528e-01 1.711921e-01 1.867342e-01 2.210165e-01 2.136828e-01 2.213035e-01 2.110537e-01 2.065999e-01 1.921996e-01 1.000000e-02
<GCONST> 7.636060e+01
<MIXTURE> 4 4.436500e-02
<MEAN> 38
 5.612041e+00 -1.008056e+01 -5.468403e+00 1.813567e+00 2.105573e+00 -3.938342e-01 1.618383e+00 2.140502e+00 -1.294142e+00 -4.004849e+00 -5.729376e+00 -1.041611e+00 1.707587e-01 4.428035e-01 4.030776e-01 4.369525e-02 -2.328002e-01 -2.563742e-01 3.085591e-02 5.104427e-01 2.176241e-02 1.525638e-01 3.792687e-02 1.405006e-01 -6.580102e-03 4.931985e-02 1.514744e-01 4.815518e-02 2.610600e-02 -2.239732e-02 3.126778e-02 -5.704873e-02 -1.755781e-02 3.049352e-02 7.939353e-02 1.171395e-01 -8.311629e-02 -1.618252e-03
<VARIANCE> 38
 9.976419e+00 1.827390e+01 2.611186e+01 3.585960e+01 4.075712e+01 3.222387e+01 4.874631e+01 5.584579e+01 4.795914e+01 4.055330e+01 3.529767e+01 2.894579e+01 1.626931e-01 3.826855e-01 5.579103e-01 7.629347e-01 1.088602e+00 1.222735e+00 1.491282e+00 1.383653e+00 1.387621e+00 1.346273e+00 1.215971e+00 1.137046e+00 1.000000e-02 2.371123e-02 5.913966e-02 8.620697e-02 1.139278e-01 1.512026e-01 1.594654e-01 2.147387e-01 2.265551e-01 2.087122e-01 2.292049e-01 2.003138e-01 1.838381e-01 1.000000e-02
<GCONST> 7.631462e+01
<MIXTURE> 5 8.229594e-02
<MEAN> 38
 6.964592e+00 -7.352636e+00 -1.086214e+01 -1.298652e+00 6.009198e+00 4.429449e+00 -5.039975e-02 -2.580205e+00 4.408023e+00 -3.156826e+00 -2.188114e+00 -5.782615e+00 1.492052e-01 3.446752e-01 8.317599e-02 -1.475468e-01 1.039239e-01 1.530412e-01 -1.808557e-01 1.224923e-01 -4.969245e-02 3.845076e-02 1.906050e-01 -3.068648e-02 -4.365060e-03 2.079115e-02 4.874896e-02 1.487152e-01 -2.768892e-02 -1.162512e-01 -1.322078e-02 2.161107e-02 1.133483e-01 -1.657451e-01 1.146687e-01 -2.443096e-02 6.581658e-02 -1.222515e-03
<VARIANCE> 38
 9.807331e+00 1.620642e+01 2.263172e+01 3.793062e+01 3.584647e+01 4.123590e+01 5.714776e+01 4.360375e+01 3.728218e+01 4.052508e+01 3.866293e+01 3.733355e+01 1.789938e-01 5.321164e-01 6.299945e-01 9.574581e-01 1.092556e+00 1.370141e+00 1.480032e+00 1.571661e+00 1.417232e+00 1.341177e+00 1.375869e+00 1.311667e+00 1.000000e-02 2.781884e-02 6.706668e-02 1.074189e-01 1.395294e-01 1.804795e-01 2.035147e-01 2.745544e-01 2.483025e-01 2.425043e-01 2.369080e-01 2.356964e-01 2.262765e-01 1.000000e-02
<GCONST> 7.952814e+01
<MIXTURE> 6 1.012991e-01
<MEAN> 38
 6.595319e+00 -1.037517e+01 -4.810976e+00 3.024107e+00 -1.198267e-01 -2.673838e+00 4.504394e+00 5.838393e+00 -3.746742e+00 -2.636958e+00 -2.926643e+00 -1.846900e+00 2.711161e-02 3.199950e-01 5.582628e-01 -6.818546e-03 -4.909507e-01 -2.282516e-01 1.602397e-01 2.695010e-01 -6.716281e-02 1.339792e-01 1.299010e-01 9.135991e-02 -5.695910e-03 -6.395553e-05 8.467916e-02 7.391624e-02 -2.803178e-02 -8.572457e-03 8.143715e-02 -1.126840e-01 -9.146766e-02 9.926171e-02 3.494274e-02 -6.752575e-03 5.590192e-04 -1.122948e-03
<VARIANCE> 38
 9.301958e+00 1.818674e+01 2.660358e+01 2.878139e+01 3.925162e+01 3.627586e+01 3.821780e+01 4.930097e+01 5.541753e+01 2.997979e+01 3.013327e+01 2.338548e+01 1.185805e-01 2.977319e-01 5.055760e-01 5.920572e-01 8.220019e-01 8.842178e-01 1.032729e+00 1.039358e+00 9.896131e-01 9.576119e-01 8.996735e-01 7.859542e-01 1.000000e-02 1.797119e-02 4.246142e-02 6.748361e-02 9.223086e-02 1.152139e-01 1.324124e-01 1.486804e-01 1.498937e-01 1.510281e-01 1.496492e-01 1.403665e-01 1.236189e-01 1.000000e-02
<GCONST> 6.788983e+01
<MIXTURE> 7 7.740710e-02
<MEAN> 38
 7.758861e+00 -7.199784e+00 -8.761847e+00 -4.964394e+00 4.679150e+00 8.552841e+00 -2.430486e+00 -5.891246e-01 1.238079e+00 3.601347e-01 -2.652086e+00 -5.967986e+00 2.429575e-01 6.287941e-01 6.903620e-02 -1.831959e-01 -1.831709e-01 -3.551503e-02 2.605377e-01 -1.150203e-02 -3.662215e-01 2.090177e-01 3.669592e-01 7.518463e-02 -5.983849e-03 -2.113386e-03 1.653297e-01 4.714423e-02 1.472802e-01 -4.632210e-02 -2.433757e-01 1.864575e-01 -6.228249e-02 -5.992835e-03 -4.083658e-02 4.265941e-02 9.170242e-02 -1.876607e-03
<VARIANCE> 38
 8.791620e+00 1.818445e+01 1.867606e+01 3.730008e+01 2.949839e+01 3.337794e+01 4.312864e+01 3.296560e+01 3.380297e+01 3.460112e+01 3.403981e+01 3.070315e+01 1.831162e-01 4.365768e-01 5.467964e-01 7.714052e-01 7.748033e-01 9.749371e-01 1.048795e+00 1.024586e+00 1.054397e+00 1.047755e+00 1.081744e+00 9.651513e-01 1.000000e-02 2.513351e-02 6.972177e-02 9.139670e-02 1.127056e-01 1.301288e-01 1.331204e-01 1.593695e-01 1.657404e-01 1.658620e-01 1.553206e-01 1.619827e-01 1.417569e-01 1.000000e-02
<GCONST> 7.091759e+01
<MIXTURE> 8 4.527910e-02
<MEAN> 38
 4.085406e+00 -1.169267e+01 -6.738726e+00 -4.616232e-01 6.619046e-01 -3.946125e-01 -1.993734e+00 -1.529200e+00 -3.282940e+00 -7.818112e+00 -7.675725e+00 -2.754684e+00 1.237884e-01 3.544499e-01 3.219837e-01 -1.497134e-01 -2.694138e-01 -2.117399e-01 7.360266e-02 2.841379e-01 -1.265288e-01 8.604859e-02 -5.970851e-02 -3.177262e-02 -5.390814e-03 1.019907e-01 1.814461e-01 1.008681e-01 8.481406e-02 7.271735e-02 6.150078e-02 8.657093e-02 1.458058e-01 1.204896e-01 2.142552e-01 1.630915e-01 6.430519e-02 -1.595376e-03
<VARIANCE> 38
 1.074437e+01 1.689279e+01 2.535945e+01 2.666432e+01 4.568481e+01 3.115013e+01 5.908852e+01 5.200349e+01 4.526650e+01 4.275088e+01 3.504420e+01 3.025594e+01 1.499284e-01 3.312208e-01 5.159695e-01 7.680678e-01 1.167066e+00 1.107322e+00 1.462407e+00 1.286150e+00 1.365577e+00 1.306585e+00 1.239447e+00 1.090201e+00 1.000000e-02 2.193465e-02 4.942084e-02 8.606692e-02 1.025521e-01 1.602494e-01 1.710886e-01 2.161710e-01 2.171150e-01 2.140132e-01 2.138333e-01 2.004846e-01 1.965459e-01 1.000000e-02
<GCONST> 7.548112e+01
<MIXTURE> 9 9.810437e-02
<MEAN> 38
 7.048057e+00 -6.835128e+00 -1.139199e+01 -1.885058e+00 5.273849e+00 4.200009e+00 1.598870e+00 -3.296893e+00 3.831772e+00 -1.740564e+00 -2.003381e+00 -6.959265e+00 8.524553e-02 2.584960e-01 5.328393e-02 -1.444557e-01 -7.568380e-03 6.916416e-02 -7.981095e-02 5.415718e-03 -1.145593e-01 -3.701962e-02 1.228253e-01 -1.703805e-02 -3.472465e-03 1.436665e-03 1.216246e-03 1.407609e-01 -5.740980e-02 -8.353893e-02 -1.533078e-03 -7.741979e-02 1.246009e-01 -1.100987e-01 1.708646e-02 -2.245250e-02 5.955797e-02 -9.048103e-04
<VARIANCE> 38
 9.678871e+00 1.420155e+01 2.180198e+01 3.820022e+01 3.771106e+01 4.071741e+01 4.964543e+01 3.769633e+01 3.311423e+01 3.447135e+01 3.537754e+01 3.470865e+01 1.576184e-01 4.628018e-01 5.713105e-01 8.295380e-01 9.466817e-01 1.194134e+00 1.250673e+00 1.333125e+00 1.234574e+00 1.176883e+00 1.160828e+00 1.072854e+00 1.000000e-02 2.650229e-02 6.193987e-02 1.029292e-01 1.293959e-01 1.693539e-01 1.871072e-01 2.255108e-01 2.132022e-01 2.142882e-01 2.017826e-01 1.961217e-01 1.893786e-01 1.000000e-02
<GCONST> 7.551202e+01
<MIXTURE> 10 7.089127e-02
<MEAN> 38
 5.928981e+00 -1.174512e+01 -5.421498e+00 1.665102e+00 -5.228024e-01 -3.299304e+00 4.129168e+00 5.106217e+00 -5.077245e+00 -3.614784e+00 -3.854764e+00 -2.372611e+00 -5.126946e-02 2.005430e-01 4.935984e-01 -1.817677e-01 -6.504995e-01 -3.532951e-01 1.877560e-01 1.517827e-01 -2.203085e-01 1.775446e-02 1.896181e-02 -1.232110e-01 -4.387298e-03 -1.209929e-02 5.215301e-02 5.250515e-02 -7.018060e-02 -6.270899e-02 3.322221e-02 -1.449140e-01 -1.165547e-01 7.513130e-02 1.742827e-03 -5.254222e-02 -5.210220e-02 -9.166298e-04
<VARIANCE> 38
 1.022435e+01 1.684402e+01 2.556011e+01 2.494203e+01 3.762374e+01 3.459741e+01 4.100514e+01 5.904779e+01 6.493102e+01 3.281767e+01 3.089894e+01 2.213086e+01 1.128459e-01 2.620755e-01 4.633954e-01 6.013723e-01 8.061236e-01 8.826063e-01 1.035637e+00 1.005085e+00 9.891304e-01 9.225965e-01 8.956949e-01 7.652941e-01 1.000000e-02 1.625947e-02 3.687601e-02 6.138903e-02 8.233283e-02 1.117219e-01 1.339621e-01 1.415102e-01 1.453132e-01 1.525771e-01 1.516341e-01 1.450044e-01 1.193846e-01 1.000000e-02
<GCONST> 6.720704e+01
<MIXTURE> 11 5.337448e-02
<MEAN> 38
 6.539997e+00 -8.928094e+00 -1.173486e+01 -1.785002e+00 6.144414e+00 4.368741e+00 -2.191126e+00 -3.235955e+00 3.565926e+00 -5.358496e+00 -3.087626e+00 -6.048270e+00 7.047755e-02 2.164061e-01 -2.301386e-02 -2.674001e-01 3.577828e-02 3.475292e-02 -3.336734e-01 1.960549e-02 -1.834665e-01 -1.180530e-01 2.023457e-02 -3.376975e-01 -2.975554e-03 1.514662e-02 4.465111e-02 1.220162e-01 -5.576725e-02 -1.346141e-01 -3.835979e-02 3.471985e-02 9.259111e-02 -1.547007e-01 1.160200e-01 -4.990973e-02 2.268510e-02 -1.072722e-03
<VARIANCE> 38
 1.034896e+01 1.711761e+01 2.116711e+01 3.278089e+01 3.701148e+01 3.734197e+01 6.835712e+01 4.585304e+01 4.091704e+01 4.734337e+01 4.344349e+01 3.732701e+01 1.657555e-01 4.912669e-01 6.274915e-01 1.000724e+00 1.142415e+00 1.352100e+00 1.477767e+00 1.595428e+00 1.468702e+00 1.324446e+00 1.471144e+00 1.432383e+00 1.000000e-02 2.590391e-02 6.044649e-02 1.003719e-01 1.401326e-01 1.823927e-01 2.076026e-01 2.774570e-01 2.549120e-01 2.361518e-01 2.377529e-01 2.369163e-01 2.392321e-01 1.000000e-02
<GCONST> 7.992367e+01
<MIXTURE> 12 7.412630e-02
<MEAN> 38
 7.440124e+00 -8.314053e+00 -9.497351e+00 -5.533273e+00 4.743511e+00 8.723269e+00 -3.712928e+00 -8.953310e-01 6.231508e-01 -9.944398e-01 -3.465168e+00 -6.903668e+00 1.490949e-01 4.642823e-01 -3.475809e-02 -2.456334e-01 -1.699416e-01 -6.565357e-02 1.433286e-01 -7.652603e-03 -3.666558e-01 1.231003e-01 1.752620e-01 -1.399813e-01 -3.859200e-03 -4.644540e-03 1.361324e-01 1.098071e-02 1.107105e-01 -5.949833e-02 -2.441900e-01 1.757276e-01 -5.849848e-02 2.208047e-02 -4.733523e-02 4.499361e-02 5.218400e-02 -1.493923e-03
<VARIANCE> 38
 8.685814e+00 1.778039e+01 1.784796e+01 3.166910e+01 2.948963e+01 3.268161e+01 4.957645e+01 3.494952e+01 3.576982e+01 4.069815e+01 3.899725e+01 3.336277e+01 1.650738e-01 4.123086e-01 5.026054e-01 7.949534e-01 7.787020e-01 9.807134e-01 1.025027e+00 1.033834e+00 1.083281e+00 1.006159e+00 1.078431e+00 9.668381e-01 1.000000e-02 2.264865e-02 6.104820e-02 8.091246e-02 1.067720e-01 1.272209e-01 1.313388e-01 1.581800e-01 1.641418e-01 1.597736e-01 1.508718e-01 1.568575e-01 1.441260e-01 1.000000e-02
<GCONST> 7.050718e+01
<MIXTURE> 13 6.842978e-02
<MEAN> 38
 6.352277e+00 -1.054910e+01 -4.758945e+00 2.280532e+00 -1.055308e+00 -2.426191e+00 4.260976e+00 4.982704e+00 -3.069598e+00 -3.228097e+00 -3.666835e+00 -2.180250e+00 2.202752e-02 3.436307e-01 4.407290e-01 -2.616427e-02 -4.757330e-01 -2.964078e-01 9.306254e-03 2.107587e-01 -2.508640e-02 1.221745e-01 1.273534e-02 -3.664623e-03 -5.943683e-03 -1.863348e-02 9.925374e-02 4.340999e-02 -4.469216e-02 3.268021e-02 3.401358e-02 -1.584488e-01 -1.221828e-01 9.107451e-02 2.015356e-02 -1.971327e-02 -3.824323e-02 -1.268216e-03
<VARIANCE> 38
 9.355806e+00 1.796690e+01 2.592895e+01 2.922315e+01 4.034747e+01 3.626018e+01 3.681108e+01 4.362399e+01 4.688461e+01 2.750463e+01 2.911117e+01 2.307245e+01 1.644250e-01 3.856191e-01 6.056716e-01 7.074705e-01 8.934337e-01 1.001984e+00 1.158650e+00 1.152244e+00 1.082192e+00 1.033908e+00 9.617211e-01 8.405578e-01 1.000000e-02 2.387056e-02 5.843076e-02 7.981987e-02 1.125821e-01 1.327841e-01 1.506137e-01 1.587489e-01 1.583701e-01 1.538605e-01 1.505683e-01 1.440478e-01 1.280157e-01 1.000000e-02
<GCONST> 7.055684e+01
<MIXTURE> 14 5.317110e-02
<MEAN> 38
 5.195312e+00 -1.085311e+01 -6.078699e+00 6.650694e-01 1.443331e+00 -1.171112e+00 3.633934e-01 8.901748e-01 -2.350560e+00 -5.533987e+00 -6.825552e+00 -1.778996e+00 6.790955e-02 2.706397e-01 3.068417e-01 -8.210151e-02 -3.162211e-01 -3.384337e-01 2.512026e-03 3.458725e-01 -1.413631e-01 -9.362745e-04 -6.056347e-02 -4.120360e-02 -4.768443e-03 3.288258e-02 9.494321e-02 2.088666e-02 -1.786528e-02 -4.935687e-02 1.686582e-02 -6.776879e-02 -1.698659e-02 2.053720e-02 5.162277e-02 7.989826e-02 -1.189253e-01 -1.150611e-03
<VARIANCE> 38
 1.112253e+01 1.622498e+01 2.599385e+01 3.013314e+01 4.285119e+01 3.080246e+01 5.332942e+01 6.326128e+01 5.048972e+01 4.177739e+01 3.648590e+01 3.011067e+01 1.370385e-01 3.369488e-01 5.321141e-01 7.590605e-01 1.075969e+00 1.159635e+00 1.399428e+00 1.322584e+00 1.377436e+00 1.298864e+00 1.165307e+00 1.104157e+00 1.000000e-02 2.051465e-02 5.007191e-02 7.947924e-02 1.045905e-01 1.515408e-01 1.628503e-01 2.138472e-01 2.246747e-01 2.163009e-01 2.284324e-01 1.960419e-01 1.847542e-01 1.000000e-02
<GCONST> 7.540781e+01
<MIXTURE> 15 4.418557e-02
<MEAN> 38
 8.251125e+00 -7.292972e+00 -8.847892e+00 -5.313479e+00 3.491429e+00 7.119454e+00 -2.215581e+00 -7.174364e-01 2.864642e-01 -5.023739e-01 -2.580892e+00 -6.259139e+00 3.291050e-01 9.246231e-01 3.056337e-01 -7.870187e-02 -4.789566e-01 -4.009941e-01 4.125718e-01 -7.740930e-02 -5.967604e-01 2.856647e-01 3.740343e-01 -1.076945e-03 -9.479037e-03 -9.259018e-02 2.719717e-01 2.030647e-01 3.128051e-01 -9.218916e-03 -3.578477e-01 1.591841e-01 -1.230037e-01 -4.671571e-02 -2.117357e-03 -6.401428e-03 1.288392e-01 -3.103415e-03
<VARIANCE> 38
 8.470986e+00 2.105415e+01 1.931714e+01 3.046761e+01 2.709409e+01 3.292239e+01 4.273476e+01 3.507450e+01 4.046641e+01 4.134007e+01 4.340987e+01 3.203074e+01 2.299413e-01 5.958315e-01 7.634435e-01 9.768146e-01 1.041297e+00 1.227549e+00 1.437247e+00 1.304089e+00 1.456298e+00 1.317262e+00 1.315771e+00 1.285657e+00 1.000000e-02 3.803740e-02 1.103274e-01 1.413010e-01 1.930171e-01 1.890091e-01 1.926055e-01 2.246457e-01 2.456909e-01 2.562275e-01 2.329398e-01 2.437758e-01 2.040781e-01 1.000000e-02
<GCONST> 7.962105e+01
<MIXTURE> 16 2.244628e-02
<MEAN> 38
 3.360532e+00 -1.241191e+01 -7.198176e+00 -1.039156e+00 2.910728e-02 -5.833630e-01 -3.497415e+00 -3.105192e+00 -4.229011e+00 -9.421336e+00 -8.609500e+00 -3.814913e+00 -1.025716e-01 7.367311e-02 -3.227490e-02 -4.869041e-01 -6.691493e-01 -6.029280e-01 -3.929672e-01 -3.203643e-01 -6.453511e-01 -4.613214e-01 -5.961286e-01 -5.721200e-01 -4.131197e-03 7.587140e-02 1.249215e-01 6.635233e-02 2.764859e-02 3.398458e-02 1.746017e-02 4.972705e-02 1.091537e-01 8.777737e-02 1.523436e-01 9.112290e-02 4.469540e-02 -1.180192e-03
<VARIANCE> 38
 9.404744e+00 1.499546e+01 2.320860e+01 2.329229e+01 4.347462e+01 3.232614e+01 5.704276e+01 4.375680e+01 3.988602e+01 3.819624e+01 3.103017e+01 2.846390e+01 1.500834e-01 3.211999e-01 5.508551e-01 8.124002e-01 1.214158e+00 1.035763e+00 1.458827e+00 1.259220e+00 1.434249e+00 1.323970e+00 1.221114e+00 1.134831e+00 1.000000e-02 1.944234e-02 4.822577e-02 8.350825e-02 1.016889e-01 1.535970e-01 1.748536e-01 2.042184e-01 2.004463e-01 2.007570e-01 1.976203e-01 1.960961e-01 1.807383e-01 1.000000e-02
<GCONST> 7.390126e+01
<STATE> 4
<NUMMIXES> 16
<SWEIGHTS> 1
 1.000000e+00
<MIXTURE> 1 4.617627e-02
<MEAN> 38
 9.002804e+00 -2.022129e+00 -7.050089e+00 -1.717280e+00 3.070289e+00 3.059734e+00 -2.985847e-01 -1.867141e+00 2.710935e+00 1.045372e+00 -3.909450e+00 -4.569888e+00 -6.427626e-01 2.708891e+00 1.691351e+00 1.111504e+00 3.040088e-01 -4.723538e-01 6.011323e-01 -2.408966e-01 -3.210391e-01 1.826231e-01 5.223337e-01 2.908704e-01 -3.724540e-02 -5.630112e-01 2.070135e-01 5.429682e-01 4.113909e-01 8.740663e-02 -5.611958e-02 1.470413e-01 1.258598e-01 -1.865353e-01 -2.651529e-01 2.238021e-02 1.478010e-01 -7.992580e-03
<VARIANCE> 38
 9.447198e+00 1.632211e+01 2.000527e+01 2.762424e+01 2.364119e+01 3.533554e+01 3.122507e+01 2.979662e+01 3.452249e+01 3.863323e+01 3.477831e+01 2.883211e+01 8.724581e-01 1.402947e+00 1.913471e+00 2.254016e+00 2.104836e+00 2.599139e+00 2.791785e+00 2.843656e+00 2.960901e+00 2.320301e+00 2.222928e+00 2.165933e+00 1.000000e-02 1.251573e-01 1.821231e-01 2.105003e-01 2.863518e-01 2.830149e-01 3.414284e-01 3.830944e-01 4.063038e-01 3.767791e-01 3.997895e-01 3.966651e-01 3.392327e-01 1.000000e-02
<GCONST> 9.389973e+01
<MIXTURE> 2 5.839648e-02
<MEAN> 38
 6.956073e+00 -4.961522e+00 -1.975957e+00 3.623098e+00 4.261293e-01 -5.062030e+00 1.989485e+00 7.450188e+00 -2.644171e+00 -2.578851e+00 -3.746020e+00 -1.300776e+00 -3.183054e-01 1.735153e+00 1.217161e+00 9.959898e-01 4.622070e-01 -2.386004e-01 -1.267687e-01 -3.142126e-01 1.750634e-01 3.505630e-01 1.451966e-01 4.271893e-01 -3.045290e-02 -3.066746e-01 2.200507e-01 1.274430e-01 7.388335e-02 2.746642e-01 4.627129e-01 3.629780e-02 -4.796537e-01 1.917963e-01 1.880649e-02 7.619590e-02 -3.449080e-02 -6.346126e-03
<VARIANCE> 38
 8.894854e+00 2.369200e+01 2.740150e+01 3.366128e+01 4.972956e+01 4.177513e+01 5.728848e+01 5.837918e+01 5.820763e+01 4.057714e+01 3.607353e+01 3.289376e+01 5.287088e-01 1.280663e+00 1.189958e+00 1.523527e+00 2.290787e+00 2.371257e+00 2.416128e+00 2.916334e+00 2.627078e+00 1.926939e+00 1.785768e+00 1.915410e+00 1.000000e-02 7.548411e-02 1.637438e-01 2.077753e-01 2.452769e-01 3.417088e-01 3.517143e-01 4.486877e-01 4.717008e-01 4.949439e-01 4.047088e-01 3.505728e-01 3.198641e-01 1.000000e-02
<GCONST> 9.527049e+01
<MIXTURE> 3 6.952590e-02
<MEAN> 38
 4.887612e+00 3.045524e+00 -1.514504e+00 2.604281e+00 3.820006e+00 1.800958e-01 1.984176e+00 1.843212e-01 1.479416e+00 -5.795026e-01 -3.821228e+00 -2.548848e+00 -1.715402e+00 2.113203e+00 2.135110e+00 1.405510e+00 5.564865e-01 -2.634727e-02 5.317129e-01 6.040894e-03 1.170543e-01 -1.202224e-01 3.290316e-01 3.864409e-01 -5.428619e-02 -3.253543e-01 -4.410980e-01 -2.449179e-02 -2.169598e-02 4.634982e-02 2.209640e-01 -3.408550e-02 8.563855e-02 -1.012947e-01 -7.470501e-02 7.506564e-02 -3.826440e-02 -3.870849e-03
<VARIANCE> 38
 1.287885e+01 2.418116e+01 2.447170e+01 3.236377e+01 3.230938e+01 3.834175e+01 3.412486e+01 3.909972e+01 3.926848e+01 3.620004e+01 2.977135e+01 2.777884e+01 1.307565e+00 2.098339e+00 2.006003e+00 2.600999e+00 3.043899e+00 3.269469e+00 3.501382e+00 3.863106e+00 3.486626e+00 2.956043e+00 3.096786e+00 2.715347e+00 1.000000e-02 1.696468e-01 1.961445e-01 2.945885e-01 2.933166e-01 3.936787e-01 3.802508e-01 4.052846e-01 4.560953e-01 4.619903e-01 4.023874e-01 4.078256e-01 3.835934e-01 1.000000e-02
<GCONST> 1.003892e+02
<MIXTURE> 4 4.151073e-02
<MEAN> 38
 5.398866e+00 -6.492505e+00 -5.219618e+00 2.412255e+00 4.758528e+00 2.978390e+00 2.756160e-01 1.063654e+00 1.593361e+00 -3.245489e+00 -5.566007e+00 -2.645424e+00 -1.448774e-01 9.935002e-01 7.923495e-01 2.492120e-01 1.256991e-01 -1.136218e-01 2.786390e-02 2.422779e-01 1.897011e-01 3.858293e-01 1.809829e-01 1.369375e-01 -2.217257e-02 -1.440786e-01 2.367000e-01 2.043250e-01 6.925650e-02 2.989647e-02 -9.531010e-02 6.031515e-02 -5.522809e-02 -7.615825e-02 1.170440e-01 2.091637e-01 5.678738e-02 -3.227955e-03
<VARIANCE> 38
 1.206533e+01 2.441766e+01 3.417309e+01 6.492519e+01 5.834895e+01 4.722038e+01 4.977371e+01 4.158535e+01 4.345592e+01 4.753142e+01 3.859051e+01 3.203213e+01 6.579108e-01 1.133457e+00 1.188182e+00 1.515217e+00 2.022982e+00 1.861654e+00 2.240484e+00 2.056435e+00 1.794848e+00 1.899242e+00 1.885293e+00 1.534370e+00 1.000000e-02 1.022990e-01 1.923539e-01 2.666146e-01 4.081665e-01 4.536691e-01 3.725221e-01 4.211402e-01 3.792689e-01 4.078215e-01 4.050227e-01 3.964555e-01 3.157472e-01 1.000000e-02
<GCONST> 9.612834e+01
<MIXTURE> 5 7.261140e-02
<MEAN> 38
 3.357210e+00 3.821955e+00 8.874031e-01 3.367898e+00 3.822453e+00 5.427849e-01 2.279397e+00 -1.070949e+00 -1.918010e+00 -1.582001e+00 -2.572584e+00 -2.539667e+00 -1.668364e+00 1.359919e+00 1.822608e+00 1.291893e+00 5.276979e-01 -7.042989e-02 2.065841e-01 -5.555940e-02 2.718047e-02 -1.226655e-02 2.188953e-01 4.739597e-01 -5.176030e-02 -1.207265e-01 -5.595823e-01 -3.609230e-01 -1.626425e-01 1.078725e-02 1.414563e-01 -1.089753e-01 1.485525e-01 2.091720e-01 8.603926e-02 7.967752e-03 -4.090201e-02 -1.041712e-04
<VARIANCE> 38
 1.893905e+01 3.071057e+01 2.998362e+01 3.734261e+01 3.794837e+01 4.211823e+01 4.789492e+01 5.007582e+01 4.659550e+01 3.907119e+01 3.587858e+01 3.084285e+01 1.718910e+00 2.106319e+00 2.177453e+00 2.755829e+00 3.065691e+00 3.519267e+00 3.590488e+00 4.230545e+00 3.752157e+00 3.316231e+00 3.293642e+00 2.712292e+00 1.000000e-02 2.181884e-01 2.876802e-01 3.605539e-01 4.279808e-01 4.815877e-01 4.907016e-01 5.910640e-01 6.193018e-01 6.040880e-01 5.291079e-01 5.064613e-01 4.659055e-01 1.000000e-02
<GCONST> 1.069100e+02
<MIXTURE> 6 7.709207e-02
<MEAN> 38
 9.533870e+00 -2.517413e+00 -7.062758e+00 -3.945084e+00 2.829645e+00 4.354297e+00 -4.616006e-01 -1.679220e+00 -1.117909e+00 5.140681e-01 -4.318120e-01 -5.708674e+00 -2.743068e-02 2.141937e+00 1.624986e+00 1.292269e+00 -1.201513e-01 -1.060178e+00 3.822831e-01 -6.955715e-01 -9.437572e-01 3.828056e-01 4.183810e-01 5.561660e-01 -2.380522e-02 -3.355249e-01 1.816212e-01 4.193353e-01 5.244125e-01 1.628879e-01 -1.995601e-01 -3.127706e-02 -1.842172e-01 -2.662451e-02 -8.136269e-02 -1.900650e-01 2.082178e-01 -3.895119e-03
<VARIANCE> 38
 9.068664e+00 2.060170e+01 2.276742e+01 3.204117e+01 2.653761e+01 3.639612e+01 4.865432e+01 3.532922e+01 4.198281e+01 4.730552e+01 4.901327e+01 3.506701e+01 5.561042e-01 1.149094e+00 1.512986e+00 2.333534e+00 2.263965e+00 2.847403e+00 2.488655e+00 2.841296e+00 3.537181e+00 2.605021e+00 2.437280e+00 2.292981e+00 1.000000e-02 8.605600e-02 1.782403e-01 1.994192e-01 2.860782e-01 2.926570e-01 3.555972e-01 4.675945e-01 4.225200e-01 4.332191e-01 4.618517e-01 4.243639e-01 3.557744e-01 1.000000e-02
<GCONST> 9.596668e+01
<MIXTURE> 7 9.392364e-02
<MEAN> 38
 6.812171e+00 -7.076430e+00 -2.535483e+00 6.223297e-01 -2.090568e+00 -1.934407e+00 2.073179e+00 4.992856e+00 -9.246969e-01 -1.593296e+00 -3.675385e+00 -2.613316e+00 5.387464e-02 1.060497e+00 1.083496e+00 4.423608e-01 -1.862730e-01 -3.461198e-01 -4.897134e-01 -2.484322e-01 1.604237e-01 5.500343e-01 1.694383e-01 2.200119e-01 -1.702537e-02 -1.322376e-01 2.571479e-01 1.091143e-01 2.090625e-01 3.106696e-01 1.053368e-01 -5.373777e-02 -2.850475e-01 4.103129e-02 -2.687460e-02 7.151283e-02 9.219037e-02 -3.562609e-03
<VARIANCE> 38
 9.836141e+00 2.396629e+01 2.874371e+01 3.208908e+01 5.055251e+01 4.025217e+01 4.383367e+01 4.595858e+01 5.098330e+01 3.821199e+01 3.485668e+01 3.020824e+01 4.009529e-01 7.936012e-01 1.012075e+00 1.237097e+00 1.667376e+00 1.691696e+00 1.895615e+00 2.084714e+00 1.771669e+00 1.682593e+00 1.517936e+00 1.339987e+00 1.000000e-02 5.792257e-02 1.534504e-01 1.467998e-01 1.953468e-01 2.600577e-01 2.613895e-01 2.920052e-01 3.119901e-01 3.030300e-01 2.822074e-01 2.634409e-01 2.271521e-01 1.000000e-02
<GCONST> 8.733794e+01
<MIXTURE> 8 4.358120e-02
<MEAN> 38
 5.251820e+00 -7.957918e+00 -7.381118e+00 -1.256091e+00 4.224572e+00 2.589252e+00 -1.458871e+00 -1.019230e+00 -1.060383e+00 -4.388583e+00 -6.320866e+00 -2.831834e+00 3.292728e-01 9.939384e-01 5.156079e-01 -1.002476e-01 -4.084642e-01 -2.362939e-01 2.178117e-03 2.347084e-01 1.003782e-01 3.678025e-01 1.806295e-01 -7.011080e-02 -1.561238e-02 -1.019532e-02 3.332078e-01 2.925228e-01 2.796279e-01 -4.353783e-02 -1.207653e-01 6.007375e-02 -1.542744e-02 1.093756e-01 1.917717e-01 2.146164e-01 1.749273e-02 -3.189837e-03
<VARIANCE> 38
 1.509139e+01 2.709445e+01 3.448539e+01 5.415515e+01 5.368736e+01 4.841467e+01 6.175939e+01 4.845744e+01 4.805212e+01 5.336640e+01 4.369351e+01 3.461416e+01 5.936747e-01 1.238230e+00 1.240764e+00 1.537643e+00 1.924409e+00 1.873956e+00 2.078288e+00 1.907504e+00 1.987229e+00 2.084005e+00 1.885876e+00 1.507089e+00 1.000000e-02 1.067681e-01 2.175450e-01 2.720834e-01 3.821500e-01 4.222832e-01 3.955787e-01 4.450127e-01 4.194756e-01 4.015511e-01 4.326680e-01 4.022687e-01 3.176095e-01 1.000000e-02
<GCONST> 9.737482e+01
<MIXTURE> 9 8.220889e-02
<MEAN> 38
 6.210109e+00 -8.256975e+00 -2.551825e+00 -6.999259e-01 -3.088049e+00 -2.656106e+00 1.673120e+00 4.459691e+00 -1.950994e+00 -2.273749e+00 -4.200649e+00 -3.478849e+00 -3.481332e-02 7.987517e-01 9.741275e-01 9.643541e-02 -3.874842e-01 -3.134191e-01 -5.481163e-01 -2.591135e-01 7.430791e-02 4.847797e-01 6.428403e-02 -1.967684e-02 -1.358918e-02 -9.197322e-02 1.971483e-01 5.819166e-02 1.697913e-01 2.387649e-01 8.065535e-02 -9.748521e-02 -2.366461e-01 6.923444e-02 -2.686401e-02 6.067676e-02 7.430337e-02 -2.687552e-03
<VARIANCE> 38
 1.162960e+01 2.243640e+01 2.974523e+01 3.088822e+01 5.103254e+01 4.130821e+01 4.882310e+01 5.525782e+01 6.085405e+01 4.342487e+01 3.869055e+01 2.890539e+01 3.604166e-01 7.360660e-01 1.023415e+00 1.250260e+00 1.639071e+00 1.713983e+00 1.785618e+00 2.012261e+00 1.725030e+00 1.894322e+00 1.489393e+00 1.398650e+00 1.000000e-02 5.452696e-02 1.338898e-01 1.328279e-01 1.736242e-01 2.360350e-01 2.402321e-01 2.732855e-01 3.018214e-01 2.862172e-01 2.810016e-01 2.464548e-01 2.177174e-01 1.000000e-02
<GCONST> 8.711870e+01
<MIXTURE> 10 7.565294e-02
<MEAN> 38
 4.480750e+00 3.001076e+00 -1.278259e+00 1.917162e+00 3.594687e+00 6.136196e-01 1.766458e+00 -2.095946e-01 3.723727e-01 -5.449516e-01 -3.667849e+00 -3.427631e+00 -1.825892e+00 1.751166e+00 1.962943e+00 1.232709e+00 4.498731e-01 -7.561728e-02 3.638061e-01 1.603609e-02 -7.767420e-02 -4.089462e-01 6.090856e-02 3.619812e-01 -5.503105e-02 -3.044356e-01 -5.212463e-01 -1.469008e-01 -6.690834e-02 3.910342e-02 1.231226e-01 -1.022301e-01 5.031680e-02 -4.205432e-02 -8.584440e-02 5.128846e-02 4.451596e-04 -1.631100e-03
<VARIANCE> 38
 1.451528e+01 2.800172e+01 2.326931e+01 3.018159e+01 3.331418e+01 3.698321e+01 3.619368e+01 4.137280e+01 4.031857e+01 3.972845e+01 3.240670e+01 2.766450e+01 1.551689e+00 2.154407e+00 2.125525e+00 2.724607e+00 2.939930e+00 3.366923e+00 3.517468e+00 3.793671e+00 3.604610e+00 3.139123e+00 3.376395e+00 2.791617e+00 1.000000e-02 1.940767e-01 2.300542e-01 2.954198e-01 3.227293e-01 4.065335e-01 3.977829e-01 4.369330e-01 4.845195e-01 5.023901e-01 4.371745e-01 4.336485e-01 3.950001e-01 1.000000e-02
<GCONST> 1.021985e+02
<MIXTURE> 11 6.847502e-02
<MEAN> 38
 6.705608e+00 -6.449180e+00 -2.854650e+00 2.413930e+00 2.212977e-01 -4.667198e+00 1.284372e+00 6.629223e+00 -1.872695e+00 -2.851761e+00 -4.053272e+00 -2.212277e+00 -3.256753e-01 1.251311e+00 1.068651e+00 5.785571e-01 1.346920e-01 -2.753694e-01 -3.509887e-01 -2.459965e-01 2.637559e-02 3.041877e-01 9.549467e-03 2.325608e-01 -2.356819e-02 -2.453500e-01 1.728676e-01 1.038451e-01 4.346225e-02 2.198753e-01 3.499390e-01 -1.748862e-02 -4.012905e-01 1.088821e-01 2.788880e-02 4.999151e-02 -1.053880e-02 -4.193359e-03
<VARIANCE> 38
 1.010560e+01 2.442239e+01 2.737593e+01 3.258773e+01 5.028348e+01 4.375026e+01 5.352879e+01 6.479160e+01 5.844251e+01 4.124643e+01 3.803411e+01 3.121553e+01 5.308851e-01 1.126143e+00 1.229941e+00 1.466311e+00 2.145934e+00 2.230082e+00 2.249451e+00 2.765880e+00 2.295973e+00 1.945817e+00 1.815909e+00 1.679909e+00 1.000000e-02 8.082958e-02 1.607206e-01 1.824239e-01 2.277769e-01 3.096927e-01 3.198268e-01 3.957890e-01 4.456214e-01 4.167978e-01 3.625707e-01 3.350031e-01 2.906660e-01 1.000000e-02
<GCONST> 9.393636e+01
<MIXTURE> 12 7.099056e-02
<MEAN> 38
 9.275650e+00 -3.457966e+00 -7.474774e+00 -4.894732e+00 2.455458e+00 3.622356e+00 -2.169354e+00 -2.427131e+00 -2.636954e+00 -1.261043e+00 -1.286310e+00 -5.912623e+00 7.821093e-02 1.982772e+00 1.555567e+00 1.173620e+00 -4.837620e-01 -1.328429e+00 2.990730e-01 -8.026788e-01 -9.783374e-01 5.161291e-01 3.023403e-01 2.673285e-01 -1.860740e-02 -2.916577e-01 1.562105e-01 3.774469e-01 5.230454e-01 1.510554e-01 -2.170119e-01 -3.981821e-02 -1.935831e-01 3.736107e-02 7.756110e-03 -1.739276e-01 1.451310e-01 -2.521425e-03
<VARIANCE> 38
