~o
<STREAMINFO> 1 38
<VECSIZE> 38<NULLD><MFCC_E_D_N_A_Z><DIAGC>
~h "@"
<BEGINHMM>
<NUMSTATES> 5
<STATE> 2
<NUMMIXES> 4
<SWEIGHTS> 1
 1.000000e+00
<MIXTURE> 1 2.207669e-01
<MEAN> 38
 6.038910e+00 -4.052274e-01 4.632340e-01 -7.874060e-01 -3.288901e+00 -3.414191e+00 -5.868935e+00 -1.464102e+00 4.628804e-01 7.456393e-01 -1.303281e-01 4.676175e-01 3.598208e-01 9.021219e-02 1.520201e-01 9.685101e-02 -7.414997e-02 2.465123e-01 2.323580e-02 1.610457e-01 1.866747e-01 2.321377e-01 8.713388e-02 1.656266e-01 4.183087e-03 -5.025211e-01 2.496492e-01 1.539054e-01 2.974917e-01 4.858010e-01 1.013829e-01 3.745074e-01 6.629142e-02 -3.445636e-02 -1.254186e-01 -1.348444e-02 -4.510998e-02 -9.802528e-03
<VARIANCE> 38
 1.834077e+01 2.495807e+01 4.397125e+01 4.672781e+01 4.772064e+01 6.787374e+01 5.763850e+01 5.188935e+01 5.074292e+01 4.383151e+01 3.980212e+01 3.548040e+01 8.212766e-01 1.540757e+00 1.483007e+00 1.834883e+00 2.355369e+00 2.340506e+00 2.267512e+00 2.474737e+00 2.479991e+00 2.434647e+00 2.086192e+00 1.842831e+00 1.000000e-02 2.258529e-01 3.298242e-01 3.212717e-01 4.562722e-01 5.014686e-01 5.788844e-01 5.916325e-01 6.368136e-01 5.721370e-01 5.135741e-01 4.965743e-01 4.441876e-01 1.000000e-02
<GCONST> 1.037761e+02
<MIXTURE> 2 2.604742e-01
<MEAN> 38
 5.034243e+00 5.404567e-01 4.576521e-01 -2.474783e-01 -2.203902e+00 -5.604236e+00 -6.120387e+00 -1.238995e+00 8.076673e-01 -7.979671e-01 -1.905217e+00 -2.928782e-01 1.497941e+00 -5.170861e-01 -1.467973e-01 -5.709956e-01 -9.130422e-01 1.043649e-01 -5.646836e-01 -1.210889e-01 1.992535e-01 5.046855e-01 9.275480e-02 -3.374999e-02 2.644453e-02 -8.247274e-01 -1.372739e-01 -1.907312e-02 2.022157e-01 4.556844e-01 3.592082e-01 4.699053e-01 3.491341e-01 1.608980e-01 1.159058e-01 2.552870e-01 1.406961e-01 -1.251650e-02
<VARIANCE> 38
 1.227771e+01 1.903761e+01 3.101261e+01 2.915484e+01 3.542031e+01 4.378457e+01 4.307314e+01 3.956747e+01 3.802338e+01 4.084032e+01 3.092209e+01 2.547498e+01 1.239706e+00 1.691857e+00 1.405753e+00 1.988221e+00 2.233334e+00 2.574934e+00 2.525663e+00 2.828300e+00 2.529932e+00 2.524854e+00 2.329499e+00 2.043006e+00 1.000000e-02 2.400995e-01 3.166038e-01 2.675681e-01 3.410013e-01 3.680609e-01 3.955421e-01 4.588709e-01 5.217697e-01 4.574749e-01 4.641220e-01 4.462487e-01 3.326803e-01 1.000000e-02
<GCONST> 9.880852e+01
<MIXTURE> 3 2.108034e-01
<MEAN> 38
 4.677485e+00 -7.542149e-01 -5.482277e-01 -1.569216e+00 -3.017154e+00 -6.478345e+00 -6.978945e+00 -1.484874e+00 -1.238495e-01 -2.308827e+00 -3.441667e+00 -1.309056e+00 1.705738e+00 -9.184601e-01 -3.597659e-01 -9.523165e-01 -1.246911e+00 -1.567926e-01 -9.724681e-01 -1.592818e-01 4.766705e-02 2.271746e-01 -4.004370e-01 -4.016182e-01 3.418635e-02 -8.131948e-01 -1.284772e-01 3.952796e-03 2.551534e-01 4.784563e-01 4.122454e-01 5.290635e-01 4.217445e-01 2.705575e-01 2.598617e-01 3.759417e-01 2.012492e-01 -1.339305e-02
<VARIANCE> 38
 1.125273e+01 1.925388e+01 3.136241e+01 2.816714e+01 3.708878e+01 4.083536e+01 4.152878e+01 3.798537e+01 3.969995e+01 4.634250e+01 3.315783e+01 2.565937e+01 1.438596e+00 1.730690e+00 1.580294e+00 2.291349e+00 2.539783e+00 2.833874e+00 2.984771e+00 3.141972e+00 2.653017e+00 2.840986e+00 3.002249e+00 2.136703e+00 1.000000e-02 2.633197e-01 3.102130e-01 2.656397e-01 3.353126e-01 3.797826e-01 4.002909e-01 4.600071e-01 5.425255e-01 4.827818e-01 5.021675e-01 4.709027e-01 3.348053e-01 1.000000e-02
<GCONST> 1.005714e+02
<MIXTURE> 4 3.079177e-01
<MEAN> 38
 5.852754e+00 -1.867958e+00 1.492426e-01 -1.720783e+00 -3.452781e+00 -3.752993e+00 -6.581007e+00 -1.226386e+00 5.400916e-01 3.521713e-01 -9.526150e-01 -6.877037e-01 4.203149e-01 -4.246685e-01 -3.604178e-02 -1.483305e-01 -3.615862e-01 1.530136e-01 -2.364751e-01 3.598914e-01 2.285151e-01 1.524106e-01 -9.293681e-02 -1.269703e-01 9.751740e-03 -3.894424e-01 2.772960e-01 1.101698e-01 2.726875e-01 4.014600e-01 7.509692e-02 3.334894e-01 -1.734686e-02 -7.374251e-02 -9.895365e-02 -3.155222e-03 1.280843e-02 -8.529721e-03
<VARIANCE> 38
 1.423377e+01 2.308824e+01 4.060537e+01 4.232045e+01 4.467417e+01 6.303350e+01 5.539422e+01 5.195186e+01 5.071685e+01 4.680868e+01 4.431522e+01 3.690644e+01 6.595886e-01 1.189402e+00 1.379219e+00 1.601249e+00 1.973453e+00 2.190974e+00 2.230378e+00 2.372987e+00 2.354321e+00 2.301329e+00 2.066842e+00 1.801265e+00 1.000000e-02 2.042770e-01 2.558250e-01 2.713531e-01 3.596646e-01 4.136461e-01 4.841115e-01 5.134322e-01 5.468772e-01 4.962184e-01 4.528386e-01 4.487739e-01 3.917481e-01 1.000000e-02
<GCONST> 1.002492e+02
<STATE> 3
<NUMMIXES> 4
<SWEIGHTS> 1
 1.000000e+00
<MIXTURE> 1 1.431293e-01
<MEAN> 38
 5.957707e+00 1.053491e+00 1.601380e+00 9.788188e-01 -2.335605e+00 -5.070412e+00 -6.144316e+00 -8.362345e-01 8.116524e-01 1.941693e-01 -1.202461e+00 7.392690e-01 -5.127403e-01 1.460737e+00 6.064195e-01 8.700355e-01 1.127884e+00 5.067111e-01 9.104459e-01 -8.307707e-02 4.400471e-02 -5.520919e-02 1.058065e-01 -1.691873e-02 -2.463866e-02 -4.232837e-01 2.037456e-01 1.999027e-01 2.029008e-01 2.684985e-01 1.732930e-01 3.398083e-01 8.445530e-02 -6.541021e-02 -1.164378e-01 -1.077875e-02 -1.184431e-01 -8.350302e-03
<VARIANCE> 38
 1.436513e+01 2.022847e+01 3.308991e+01 3.088506e+01 4.190444e+01 5.034894e+01 4.620441e+01 4.450888e+01 4.548138e+01 4.614973e+01 3.705763e+01 3.474760e+01 1.192616e+00 1.754267e+00 1.617856e+00 2.065314e+00 2.404933e+00 2.636013e+00 2.765808e+00 3.025558e+00 3.013775e+00 2.710977e+00 2.528224e+00 2.237957e+00 1.000000e-02 1.589055e-01 2.633785e-01 2.545554e-01 2.947140e-01 4.157533e-01 4.221191e-01 4.336314e-01 4.900738e-01 4.999377e-01 4.773028e-01 4.194317e-01 3.965647e-01 1.000000e-02
<GCONST> 1.007936e+02
<MIXTURE> 2 3.732445e-01
<MEAN> 38
 5.647236e+00 -1.702104e+00 1.707143e+00 1.434914e-01 -3.536340e+00 -4.914181e+00 -4.777474e+00 1.433475e+00 1.178734e+00 -3.991852e-01 -1.290826e+00 8.813856e-02 7.239489e-02 2.241415e-01 1.120242e-01 2.838660e-01 2.673810e-01 2.310486e-01 1.925285e-01 2.144748e-02 -2.750646e-02 1.160407e-02 -4.437348e-02 7.457124e-02 -6.337385e-03 -1.044054e-01 2.055870e-01 5.545198e-02 1.332209e-01 1.990898e-01 6.468391e-02 1.204191e-01 -1.128126e-01 -5.905149e-02 -2.245298e-02 -6.614795e-03 1.461884e-02 -4.683411e-03
<VARIANCE> 38
 9.352193e+00 1.671951e+01 2.890495e+01 3.027316e+01 3.438691e+01 4.428217e+01 5.567718e+01 4.112444e+01 4.056650e+01 4.122927e+01 3.538213e+01 3.510706e+01 2.461007e-01 6.385968e-01 6.866561e-01 8.613802e-01 1.111277e+00 1.180549e+00 1.293801e+00 1.345436e+00 1.344648e+00 1.292015e+00 1.169757e+00 1.057616e+00 1.000000e-02 6.099354e-02 1.117936e-01 1.104698e-01 1.585529e-01 1.933001e-01 2.122052e-01 2.531460e-01 2.485413e-01 2.510051e-01 2.353716e-01 2.230183e-01 2.028724e-01 1.000000e-02
<GCONST> 8.036492e+01
<MIXTURE> 3 3.308851e-01
<MEAN> 38
 4.852816e+00 -3.126751e+00 9.537209e-01 -1.549974e+00 -4.219439e+00 -5.798448e+00 -4.764968e+00 1.567072e+00 6.831722e-01 -1.224664e+00 -2.641853e+00 -5.696623e-01 2.932260e-02 -1.721663e-02 -1.483345e-02 5.558677e-02 6.892986e-02 9.408084e-02 6.427825e-02 7.998396e-02 -3.327191e-02 -9.380168e-02 -1.422942e-01 -1.203375e-01 -3.219471e-03 -3.807841e-02 1.672148e-01 3.441039e-02 1.203944e-01 1.371438e-01 3.917414e-02 3.089087e-02 -1.241308e-01 -5.471426e-02 -1.564240e-02 2.243396e-02 -1.411682e-03 -3.844809e-03
<VARIANCE> 38
 9.838262e+00 1.727609e+01 2.978648e+01 3.059813e+01 3.623457e+01 4.229785e+01 5.390416e+01 4.123233e+01 4.443332e+01 4.955778e+01 4.250725e+01 3.421113e+01 2.139154e-01 5.202483e-01 6.348397e-01 7.663137e-01 9.712315e-01 1.072613e+00 1.193208e+00 1.280502e+00 1.247092e+00 1.244493e+00 1.121573e+00 1.000936e+00 1.000000e-02 5.065205e-02 8.643680e-02 9.529285e-02 1.350819e-01 1.685294e-01 1.846772e-01 2.165203e-01 2.170124e-01 2.107388e-01 2.117062e-01 2.023557e-01 1.786299e-01 1.000000e-02
<GCONST> 7.796264e+01
<MIXTURE> 4 1.525525e-01
<MEAN> 38
 5.855651e+00 -3.132056e-01 6.430297e-01 -4.307971e-01 -2.924674e+00 -4.791291e+00 -6.474009e+00 -1.478085e+00 6.304632e-01 -3.489206e-01 -1.872594e+00 -2.049256e-01 -2.519850e-01 8.952218e-01 3.268712e-01 5.372752e-01 6.707625e-01 2.871327e-01 5.690874e-01 -2.699419e-01 -1.904547e-01 -1.461203e-01 -2.764657e-02 -1.289396e-01 -1.377083e-02 -3.481465e-01 1.915102e-01 1.269704e-01 1.845302e-01 2.569258e-01 1.157451e-01 2.795785e-01 4.317946e-02 -9.285425e-02 -7.143395e-02 1.817550e-02 -5.342980e-02 -6.804197e-03
<VARIANCE> 38
 1.495573e+01 2.289394e+01 3.756264e+01 3.751274e+01 4.190397e+01 5.560874e+01 4.846065e+01 4.928981e+01 4.962466e+01 5.552906e+01 4.448788e+01 3.633435e+01 1.120148e+00 1.770949e+00 1.649208e+00 2.224900e+00 2.525825e+00 2.665897e+00 2.864664e+00 3.018541e+00 2.914948e+00 2.813620e+00 2.504190e+00 2.193463e+00 1.000000e-02 1.620142e-01 2.479771e-01 2.388647e-01 3.092856e-01 3.748985e-01 4.150469e-01 4.431082e-01 5.073360e-01 4.944430e-01 4.882016e-01 4.285653e-01 3.788223e-01 1.000000e-02
<GCONST> 1.020021e+02
<STATE> 4
<NUMMIXES> 4
<SWEIGHTS> 1
 1.000000e+00
<MIXTURE> 1 2.621522e-01
<MEAN> 38
 9.083144e-01 6.555058e+00 6.461347e+00 6.282176e+00 1.816602e+00 -2.589248e+00 -1.400054e-01 9.051899e-01 -2.016193e-01 -2.308470e+00 -1.509501e+00 7.949201e-01 -1.286637e+00 4.807639e-01 3.494743e-01 9.162515e-01 1.334083e+00 1.147291e+00 1.015898e+00 3.951191e-01 2.099164e-01 -7.274381e-02 1.551059e-01 -1.198925e-01 -4.362582e-02 -6.922223e-02 -3.768966e-01 -2.597807e-01 -1.520029e-01 -3.361181e-02 1.202624e-01 1.493100e-02 6.371123e-02 5.416262e-02 1.138413e-01 3.795661e-02 -2.663204e-02 -6.052487e-04
<VARIANCE> 38
 2.060872e+01 2.802894e+01 2.655685e+01 2.661184e+01 3.650997e+01 4.353007e+01 4.259166e+01 3.437263e+01 3.493765e+01 3.452096e+01 2.843028e+01 2.548249e+01 1.423727e+00 2.054299e+00 1.834756e+00 1.837751e+00 2.273208e+00 2.339077e+00 2.303024e+00 2.585428e+00 2.572379e+00 2.448517e+00 2.296125e+00 2.143914e+00 1.000000e-02 1.263689e-01 2.056065e-01 2.418201e-01 2.609461e-01 3.447880e-01 3.757513e-01 3.780452e-01 4.081016e-01 4.181625e-01 4.030497e-01 3.643705e-01 3.538656e-01 1.000000e-02
<GCONST> 9.691201e+01
<MIXTURE> 2 2.392648e-01
<MEAN> 38
 5.704257e+00 2.446047e+00 1.252596e+00 1.721288e+00 1.392296e+00 -6.999232e-01 -2.534456e+00 -1.956065e+00 -5.627064e-01 -3.169482e-01 -1.938575e+00 -1.762241e+00 -1.807155e-01 8.760612e-01 4.237360e-01 7.212722e-01 5.932745e-01 3.879514e-01 8.152866e-01 -3.651135e-01 -3.966321e-01 2.572560e-02 2.333998e-02 7.598520e-02 -2.038963e-02 -1.265643e-01 9.549215e-03 9.103303e-02 6.861475e-02 -1.014486e-01 -1.013913e-01 1.584368e-02 3.485983e-02 1.908148e-02 8.241946e-04 3.837751e-02 1.062093e-01 -2.151079e-03
<VARIANCE> 38
 1.635509e+01 3.128455e+01 3.989334e+01 4.766134e+01 4.369543e+01 5.012138e+01 5.329105e+01 5.229335e+01 4.649879e+01 5.097092e+01 4.253591e+01 3.393148e+01 7.945654e-01 1.509276e+00 1.573932e+00 1.858816e+00 2.231125e+00 2.506458e+00 2.700868e+00 2.950461e+00 2.989191e+00 2.493961e+00 2.131880e+00 2.007842e+00 1.000000e-02 9.775982e-02 2.074202e-01 2.294681e-01 3.016747e-01 3.647383e-01 3.636718e-01 4.041948e-01 4.423292e-01 4.166764e-01 4.246327e-01 3.735738e-01 3.312345e-01 1.000000e-02
<GCONST> 9.946989e+01
<MIXTURE> 3 3.103539e-01
<MEAN> 38
 8.620059e-01 6.357788e+00 6.001821e+00 5.786678e+00 1.884081e+00 -2.676443e+00 -1.567427e+00 -3.785784e-01 -6.340087e-01 -2.307630e+00 -2.097823e+00 -3.106181e-01 -1.429915e+00 3.885536e-01 3.571803e-01 8.406315e-01 1.135663e+00 9.228067e-01 8.930364e-01 2.539898e-01 -2.893581e-02 -3.080628e-01 -6.298905e-02 -1.877013e-01 -4.243431e-02 -5.710539e-02 -4.611589e-01 -3.325334e-01 -2.315210e-01 -9.468745e-02 7.309723e-02 -3.642929e-03 8.981171e-02 7.188735e-02 1.241956e-01 5.764598e-02 2.704188e-02 5.700227e-04
<VARIANCE> 38
 2.287509e+01 2.812049e+01 2.803673e+01 2.911029e+01 3.835902e+01 4.248365e+01 4.146436e+01 3.660401e+01 3.851083e+01 3.804592e+01 2.956795e+01 2.589296e+01 1.786804e+00 2.214674e+00 2.102301e+00 2.089315e+00 2.615874e+00 2.682314e+00 2.591358e+00 2.927400e+00 2.831500e+00 2.639619e+00 2.434977e+00 2.292845e+00 1.000000e-02 1.568522e-01 2.454722e-01 2.691261e-01 3.046456e-01 3.792141e-01 4.029079e-01 4.044127e-01 4.439166e-01 4.538803e-01 4.394990e-01 3.850296e-01 3.664861e-01 1.000000e-02
<GCONST> 1.000882e+02
<MIXTURE> 4 1.881471e-01
<MEAN> 38
 5.911146e+00 1.045619e+00 -2.713546e-02 -1.407483e-01 6.943532e-02 -1.498495e+00 -3.401893e+00 -2.738584e+00 -1.036224e+00 -1.724668e-01 -2.382891e+00 -2.562759e+00 -5.187029e-02 5.689886e-01 2.189136e-01 4.556471e-01 3.335176e-01 2.705380e-01 6.645899e-01 -4.617334e-01 -4.949301e-01 7.356297e-03 -1.293627e-01 -1.376706e-01 -1.292112e-02 -1.055375e-01 2.509421e-02 7.262783e-02 7.192592e-02 -6.876440e-02 -7.727063e-02 -8.360372e-03 1.718620e-02 2.429394e-02 -1.862568e-02 3.211747e-02 1.099827e-01 -1.955795e-03
<VARIANCE> 38
 1.685625e+01 3.340947e+01 4.516585e+01 5.328490e+01 4.561253e+01 5.316300e+01 5.434546e+01 5.585571e+01 5.340752e+01 5.900785e+01 5.013615e+01 3.612138e+01 8.170854e-01 1.521253e+00 1.708912e+00 2.076515e+00 2.300077e+00 2.540984e+00 3.029198e+00 2.976810e+00 3.038142e+00 2.612698e+00 2.184406e+00 1.999374e+00 1.000000e-02 1.069047e-01 2.083734e-01 2.301256e-01 3.151512e-01 3.607455e-01 3.621081e-01 4.204443e-01 4.628567e-01 4.301760e-01 4.278616e-01 3.894190e-01 3.257148e-01 1.000000e-02
<GCONST> 1.012544e+02
<TRANSP> 5
 0.000000e+00 1.000000e+00 0.000000e+00 0.000000e+00 0.000000e+00
 0.000000e+00 4.363027e-01 5.636973e-01 0.000000e+00 0.000000e+00
 0.000000e+00 0.000000e+00 7.792093e-01 2.207907e-01 0.000000e+00
 0.000000e+00 0.000000e+00 0.000000e+00 6.336617e-01 3.663383e-01
 0.000000e+00 0.000000e+00 0.000000e+00 0.000000e+00 0.000000e+00
<ENDHMM>
~h "a"
<BEGINHMM>
<NUMSTATES> 5
<STATE> 2
<NUMMIXES> 4
<SWEIGHTS> 1
 1.000000e+00
<MIXTURE> 1 2.025070e-01
<MEAN> 38
 5.901031e+00 -1.016882e+01 -7.945152e+00 -1.470175e-01 2.908455e+00 2.781676e+00 1.459750e+00 5.121005e-01 1.403581e+00 -2.171998e+00 -4.246323e+00 -3.013636e+00 8.303843e-02 -1.549301e-01 -1.373289e-01 2.591338e-01 3.063165e-01 2.744759e-01 8.346730e-02 -1.054538e-01 5.273701e-02 1.710773e-02 6.368071e-02 1.427717e-01 4.739513e-05 5.705094e-03 1.144387e-01 7.792812e-02 1.199178e-03 -2.817416e-02 -4.987117e-02 -4.233765e-02 2.276026e-03 -1.969684e-03 3.036480e-02 4.246499e-02 4.087166e-02 -1.487755e-03
<VARIANCE> 38
 9.621492e+00 1.791307e+01 2.423197e+01 4.009873e+01 3.093933e+01 3.566135e+01 3.651158e+01 3.636854e+01 3.700373e+01 3.449763e+01 2.802105e+01 3.831393e+01 1.869624e-01 4.717634e-01 5.470456e-01 7.418371e-01 8.945947e-01 1.005549e+00 9.889053e-01 1.041252e+00 9.878821e-01 1.006496e+00 9.452280e-01 8.571296e-01 1.000000e-02 3.092571e-02 6.492144e-02 8.251371e-02 1.137245e-01 1.296571e-01 1.475424e-01 1.627739e-01 1.741969e-01 1.650215e-01 1.652464e-01 1.581434e-01 1.458125e-01 1.000000e-02
<GCONST> 7.159222e+01
<MIXTURE> 2 3.423936e-01
<MEAN> 38
 5.474702e+00 -1.116612e+01 -7.530652e+00 -2.497529e-01 3.806712e+00 3.215616e+00 2.271545e-01 4.093193e-01 1.086977e+00 -3.086986e+00 -4.386755e+00 -2.726921e+00 5.784675e-02 3.419201e-02 3.497325e-02 6.350224e-02 9.993452e-02 7.478582e-02 -9.482769e-03 3.432494e-02 7.924556e-03 3.883717e-02 9.373568e-02 7.855971e-03 -1.770252e-03 3.070592e-02 6.882640e-02 2.644193e-02 -6.177215e-03 -4.111684e-02 -2.464856e-02 1.942455e-02 2.543092e-02 1.063329e-04 4.271025e-02 2.267994e-02 4.346320e-03 -7.554709e-04
<VARIANCE> 38
 9.945112e+00 1.601310e+01 2.158803e+01 3.402953e+01 2.828909e+01 3.540507e+01 3.908338e+01 3.949389e+01 3.957784e+01 3.442390e+01 2.660606e+01 3.275667e+01 9.812714e-02 2.280296e-01 2.975284e-01 4.329252e-01 5.408959e-01 6.069823e-01 6.653821e-01 7.087461e-01 6.749700e-01 6.778123e-01 6.279961e-01 5.666843e-01 1.000000e-02 1.360043e-02 2.687503e-02 4.067429e-02 5.628012e-02 7.277448e-02 8.661456e-02 9.833156e-02 1.068540e-01 1.067326e-01 1.067634e-01 9.805015e-02 8.965012e-02 1.000000e-02
<GCONST> 5.818265e+01
<MIXTURE> 3 2.594619e-01
<MEAN> 38
 5.673588e+00 -1.051469e+01 -8.332253e+00 -8.079442e-01 2.676223e+00 2.520354e+00 9.823928e-01 5.413106e-01 1.579985e+00 -2.647712e+00 -4.575651e+00 -3.452497e+00 -1.497966e-02 -2.511378e-01 -1.742760e-01 1.421921e-01 2.661329e-01 2.227081e-01 4.303673e-03 -1.729607e-01 -4.409003e-02 -1.332389e-01 -2.728981e-02 -7.281249e-02 9.506072e-04 -9.763158e-03 9.077910e-02 6.755014e-02 -2.002724e-02 -4.756408e-02 -7.245786e-02 -6.510006e-02 -2.290212e-02 -2.976393e-02 9.091971e-03 2.600415e-02 -6.862507e-03 -1.379023e-03
<VARIANCE> 38
 9.581898e+00 1.700208e+01 2.281625e+01 3.443045e+01 3.074765e+01 3.718793e+01 3.691199e+01 3.853250e+01 3.857794e+01 3.656463e+01 2.904513e+01 3.824817e+01 1.695457e-01 4.285682e-01 5.262105e-01 6.751224e-01 8.731160e-01 9.944362e-01 9.985298e-01 1.050330e+00 9.741437e-01 9.974285e-01 9.200326e-01 8.498394e-01 1.000000e-02 2.868849e-02 5.562509e-02 7.785624e-02 1.085798e-01 1.297783e-01 1.463035e-01 1.610456e-01 1.760202e-01 1.651016e-01 1.644682e-01 1.572475e-01 1.445198e-01 1.000000e-02
<GCONST> 7.079855e+01
<MIXTURE> 4 1.955359e-01
<MEAN> 38
 4.595995e+00 -1.220809e+01 -8.041202e+00 -3.230246e-01 3.752016e+00 2.702869e+00 -8.165267e-01 -3.963759e-01 3.629921e-01 -4.968277e+00 -5.118800e+00 -2.489368e+00 -4.417799e-02 -8.783301e-02 -6.311430e-02 -7.407115e-02 -1.315291e-02 -6.579322e-02 -1.927359e-01 -1.366599e-01 -1.578166e-01 -1.557637e-01 -8.447357e-02 -2.374151e-01 -8.830233e-04 1.880004e-02 5.362645e-02 9.990866e-03 -4.134883e-02 -6.884727e-02 -5.266533e-02 -3.998009e-03 7.315867e-03 -2.823463e-02 1.915131e-02 -1.040191e-02 -4.618585e-02 -7.379635e-04
<VARIANCE> 38
 1.056511e+01 1.493637e+01 1.995637e+01 2.603286e+01 2.888757e+01 3.258882e+01 4.246432e+01 4.040645e+01 3.943410e+01 3.874411e+01 2.684577e+01 2.881833e+01 1.018316e-01 2.304820e-01 3.120931e-01 4.570830e-01 6.119441e-01 6.564420e-01 7.512923e-01 8.022778e-01 7.591403e-01 7.503403e-01 6.940923e-01 6.360735e-01 1.000000e-02 1.347461e-02 2.619581e-02 4.160354e-02 5.868900e-02 7.838217e-02 9.065735e-02 1.039870e-01 1.147575e-01 1.142728e-01 1.165913e-01 1.059323e-01 9.510743e-02 1.000000e-02
<GCONST> 5.946761e+01
<STATE> 3
<NUMMIXES> 4
<SWEIGHTS> 1
 1.000000e+00
<MIXTURE> 1 2.352236e-01
<MEAN> 38
 7.780262e+00 -6.715782e+00 -8.923761e+00 -2.925970e+00 4.064011e+00 5.184141e+00 -2.300927e-01 -7.169382e-01 1.918298e+00 -5.448128e-01 -2.250395e+00 -5.660800e+00 2.709855e-01 7.636319e-01 2.428845e-01 -4.444585e-02 -1.982521e-01 -1.244797e-01 1.525411e-01 -1.330067e-02 -3.241667e-01 2.307132e-01 3.704539e-01 1.413869e-01 -8.569981e-03 -3.865274e-02 1.826346e-01 1.898108e-01 1.572727e-01 -2.315956e-02 -1.596959e-01 6.957941e-02 -2.695235e-02 -9.493187e-02 7.228517e-03 2.369036e-03 1.324627e-01 -2.430731e-03
<VARIANCE> 38
 9.103442e+00 1.893717e+01 2.442838e+01 4.465308e+01 3.460501e+01 4.547962e+01 4.641686e+01 4.115081e+01 3.873396e+01 3.744179e+01 3.750282e+01 3.433088e+01 2.307330e-01 6.010846e-01 7.283922e-01 9.206501e-01 1.019848e+00 1.267999e+00 1.371845e+00 1.341787e+00 1.405689e+00 1.280017e+00 1.289712e+00 1.208293e+00 1.000000e-02 3.538416e-02 9.989437e-02 1.280963e-01 1.900450e-01 1.839512e-01 2.166746e-01 2.289715e-01 2.385888e-01 2.364720e-01 2.180942e-01 2.203400e-01 1.970242e-01 1.000000e-02
<GCONST> 8.006077e+01
<MIXTURE> 2 2.754880e-01
<MEAN> 38
 6.308088e+00 -9.549076e+00 -5.591859e+00 1.374656e+00 8.716844e-01 -1.371466e+00 2.529317e+00 3.893295e+00 -1.962484e+00 -3.460821e+00 -3.968723e+00 -2.372939e+00 8.851685e-02 4.619684e-01 5.057275e-01 -3.340895e-02 -3.453256e-01 -2.051292e-01 1.868650e-02 2.759739e-01 -3.945274e-02 2.026096e-01 8.772535e-02 6.463782e-02 -6.902461e-03 1.925862e-02 1.244915e-01 8.151154e-02 1.603492e-02 1.253693e-02 6.704896e-02 -9.131280e-02 -7.898186e-02 6.571733e-02 8.601815e-02 4.752648e-02 -1.412383e-02 -1.581061e-03
<VARIANCE> 38
 1.049542e+01 1.999936e+01 3.037759e+01 3.423774e+01 4.929292e+01 4.641467e+01 5.570523e+01 6.422035e+01 6.025571e+01 3.796825e+01 3.625285e+01 2.811486e+01 1.723609e-01 4.246051e-01 6.790422e-01 8.078178e-01 1.142535e+00 1.220200e+00 1.419202e+00 1.398586e+00 1.311625e+00 1.252579e+00 1.175953e+00 1.050231e+00 1.000000e-02 2.602649e-02 6.340078e-02 8.869357e-02 1.209665e-01 1.630260e-01 1.753504e-01 2.166377e-01 2.199644e-01 2.086830e-01 2.062653e-01 1.941587e-01 1.681131e-01 1.000000e-02
<GCONST> 7.790465e+01
<MIXTURE> 3 2.978021e-01
<MEAN> 38
 7.296991e+00 -7.899503e+00 -9.650957e+00 -2.264798e+00 4.120231e+00 4.521170e+00 -7.331070e-01 -6.523680e-01 1.832755e+00 -1.944270e+00 -2.898291e+00 -6.126218e+00 1.324245e-01 4.045303e-01 8.656840e-02 -1.150693e-01 -1.198567e-01 -3.681803e-02 2.636607e-02 -4.154969e-03 -2.484178e-01 6.369828e-02 1.603048e-01 -6.133789e-02 -5.150520e-03 -2.197600e-02 9.630351e-02 1.241431e-01 3.254912e-02 -6.209347e-02 -1.143395e-01 4.270042e-02 1.264961e-02 -6.591422e-02 1.183814e-02 -2.831448e-03 6.832807e-02 -1.527302e-03
<VARIANCE> 38
 9.534615e+00 1.843157e+01 2.590829e+01 4.191708e+01 3.885329e+01 4.786427e+01 5.569871e+01 4.700692e+01 4.232196e+01 4.033254e+01 4.020896e+01 3.703924e+01 2.121629e-01 6.155290e-01 7.255835e-01 9.887780e-01 1.099428e+00 1.352457e+00 1.467530e+00 1.469498e+00 1.419605e+00 1.305675e+00 1.329321e+00 1.236831e+00 1.000000e-02 3.431217e-02 8.990934e-02 1.228666e-01 1.714258e-01 1.882206e-01 2.142212e-01 2.552342e-01 2.451840e-01 2.347181e-01 2.221880e-01 2.218889e-01 2.077880e-01 1.000000e-02
<GCONST> 8.119289e+01
<MIXTURE> 4 1.914397e-01
<MEAN> 38
 5.481835e+00 -1.090261e+01 -6.415927e+00 1.778996e-01 7.681823e-01 -1.213290e+00 8.061172e-01 2.036142e+00 -3.223308e+00 -5.261489e+00 -5.494595e+00 -2.806995e+00 -5.322250e-03 2.561353e-01 3.398945e-01 -2.415880e-01 -4.507158e-01 -3.119158e-01 -7.650067e-02 9.140383e-02 -2.559364e-01 -2.428638e-02 -1.133697e-01 -2.259623e-01 -5.088074e-03 2.385448e-02 9.688885e-02 5.587209e-02 -2.331935e-02 -2.391437e-02 2.561488e-02 -8.822129e-02 -4.517590e-02 5.907790e-02 7.871109e-02 3.090521e-02 -5.554434e-02 -1.223032e-03
<VARIANCE> 38
 1.177077e+01 1.876784e+01 2.997378e+01 3.048669e+01 5.125476e+01 4.379465e+01 6.586582e+01 7.119978e+01 6.625019e+01 4.431161e+01 3.882945e+01 2.841775e+01 1.566921e-01 4.018928e-01 6.892005e-01 8.758546e-01 1.275321e+00 1.247131e+00 1.540193e+00 1.430229e+00 1.417996e+00 1.357817e+00 1.294502e+00 1.132466e+00 1.000000e-02 2.401191e-02 5.728235e-02 8.731491e-02 1.165071e-01 1.673125e-01 1.785623e-01 2.269954e-01 2.271978e-01 2.200669e-01 2.198623e-01 2.067252e-01 1.800433e-01 1.000000e-02
<GCONST> 7.905430e+01
<STATE> 4
<NUMMIXES> 4
<SWEIGHTS> 1
 1.000000e+00
<MIXTURE> 1 2.631666e-01
<MEAN> 38
 7.769107e+00 -1.131164e+00 -4.817734e+00 -6.240791e-01 2.852777e+00 1.738319e+00 2.490399e-01 -6.877197e-01 3.932262e-01 6.687126e-02 -2.819187e+00 -4.167454e+00 -7.280285e-01 2.237816e+00 1.758530e+00 1.289109e+00 2.822009e-01 -5.512182e-01 4.195755e-01 -3.618765e-01 -3.555738e-01 1.920367e-01 3.852287e-01 4.842373e-01 -3.598199e-02 -4.041984e-01 -2.665040e-03 2.708412e-01 2.670361e-01 1.309135e-01 3.530423e-02 3.811768e-02 -1.201965e-02 -4.989913e-02 -1.317300e-01 -2.435939e-02 1.002628e-01 -5.234070e-03
<VARIANCE> 38
 1.304961e+01 2.827991e+01 2.871934e+01 3.906100e+01 2.929462e+01 4.480247e+01 4.091100e+01 4.357799e+01 4.326500e+01 4.317022e+01 4.051189e+01 3.327406e+01 1.348536e+00 1.644906e+00 1.857809e+00 2.425204e+00 2.622802e+00 3.105477e+00 3.023673e+00 3.388807e+00 3.581074e+00 2.713027e+00 2.563599e+00 2.411320e+00 1.000000e-02 1.317902e-01 2.724018e-01 2.852211e-01 3.535796e-01 3.277511e-01 4.156673e-01 4.399558e-01 4.727199e-01 4.561666e-01 4.397080e-01 4.190319e-01 3.717044e-01 1.000000e-02
<GCONST> 1.011379e+02
<MIXTURE> 2 2.536107e-01
<MEAN> 38
 6.168423e+00 -4.803483e+00 -3.025596e+00 1.239072e+00 1.462753e+00 -5.441996e-01 1.158913e+00 2.700314e+00 -1.176645e+00 -2.558270e+00 -4.009020e+00 -2.468733e+00 -2.121611e-01 1.208100e+00 1.131287e+00 5.749037e-01 -4.435309e-03 -2.868004e-01 -1.487247e-01 -1.306528e-01 3.533377e-02 4.498665e-01 2.008024e-01 1.883072e-01 -2.391884e-02 -1.399075e-01 1.152856e-01 7.198614e-02 1.445450e-01 1.511674e-01 9.841566e-02 -2.862254e-02 -1.992940e-01 8.445470e-02 8.521818e-02 1.040782e-01 2.754538e-02 -3.084981e-03
<VARIANCE> 38
 1.314173e+01 3.588276e+01 3.804013e+01 4.659466e+01 5.699782e+01 5.507070e+01 5.451252e+01 6.230764e+01 5.400555e+01 4.391322e+01 4.096951e+01 3.252264e+01 8.076808e-01 1.163752e+00 1.367791e+00 1.742738e+00 2.253671e+00 2.238918e+00 2.295253e+00 2.506628e+00 2.311028e+00 2.050683e+00 1.987327e+00 1.671991e+00 1.000000e-02 9.265691e-02 2.339016e-01 2.717145e-01 3.295873e-01 3.883787e-01 3.979108e-01 4.035616e-01 4.593014e-01 4.352373e-01 3.772896e-01 3.690576e-01 3.020101e-01 1.000000e-02
<GCONST> 9.854698e+01
<MIXTURE> 3 2.970319e-01
<MEAN> 38
 7.010836e+00 -1.009863e+00 -4.236300e+00 -8.937734e-01 2.779511e+00 1.504029e+00 -1.968765e-01 -1.165174e+00 -7.799504e-01 -5.719342e-01 -2.863160e+00 -4.468184e+00 -8.647103e-01 1.882606e+00 1.676637e+00 1.157029e+00 1.189621e-01 -6.252828e-01 2.390147e-01 -3.737125e-01 -4.423485e-01 5.378540e-02 1.858526e-01 3.419925e-01 -3.369942e-02 -3.330833e-01 -1.164417e-01 1.253074e-01 1.865722e-01 1.019427e-01 1.512361e-02 -1.671610e-02 -8.722702e-03 1.565952e-02 -8.143011e-02 -3.670902e-02 7.490306e-02 -3.067176e-03
<VARIANCE> 38
 1.637053e+01 3.478066e+01 3.170741e+01 3.748387e+01 3.150356e+01 4.449852e+01 4.678397e+01 4.549393e+01 4.558225e+01 4.651221e+01 4.398103e+01 3.269185e+01 1.979380e+00 1.741295e+00 1.984217e+00 2.635160e+00 2.758371e+00 3.396508e+00 3.160244e+00 3.565030e+00 3.637187e+00 3.069688e+00 2.835088e+00 2.475151e+00 1.000000e-02 1.542182e-01 3.299522e-01 3.210709e-01 3.739480e-01 3.402246e-01 4.123279e-01 4.623276e-01 4.713694e-01 4.747025e-01 4.468443e-01 4.284323e-01 3.691875e-01 1.000000e-02
<GCONST> 1.038245e+02
<MIXTURE> 4 1.861519e-01
<MEAN> 38
 5.232766e+00 -5.934915e+00 -3.863278e+00 -1.593842e-01 1.481602e+00 7.832394e-02 -2.002399e-01 8.765856e-01 -1.990512e+00 -3.573972e+00 -5.113081e+00 -3.355071e+00 -1.346462e-01 8.576435e-01 8.042151e-01 1.730797e-01 -2.627074e-01 -3.309339e-01 -2.910804e-01 -1.219257e-01 -5.067187e-02 3.160859e-01 8.453657e-02 -7.615212e-02 -1.935522e-02 -2.736184e-02 9.381993e-02 2.372125e-02 1.193210e-01 5.594002e-02 5.199062e-03 -4.524499e-02 -1.064422e-01 1.027739e-01 1.004249e-01 1.179106e-01 2.129686e-02 -1.545424e-03
<VARIANCE> 38
 1.572735e+01 3.936632e+01 4.267252e+01 4.493753e+01 6.140433e+01 5.362029e+01 6.139750e+01 5.936654e+01 5.581054e+01 5.075357e+01 4.405402e+01 3.192467e+01 1.047622e+00 1.229190e+00 1.557169e+00 1.927167e+00 2.352308e+00 2.205819e+00 2.352673e+00 2.417934e+00 2.298941e+00 2.219878e+00 2.055672e+00 1.726943e+00 1.000000e-02 1.166038e-01 2.670323e-01 3.179097e-01 3.687898e-01 4.016269e-01 3.837775e-01 4.216782e-01 4.421470e-01 4.207592e-01 3.906453e-01 3.790039e-01 3.068815e-01 1.000000e-02
<GCONST> 1.006284e+02
<TRANSP> 5
 0.000000e+00 1.000000e+00 0.000000e+00 0.000000e+00 0.000000e+00
 0.000000e+00 9.280979e-01 7.190209e-02 0.000000e+00 0.000000e+00
 0.000000e+00 0.000000e+00 8.390228e-01 1.609772e-01 0.000000e+00
 0.000000e+00 0.000000e+00 0.000000e+00 7.110639e-01 2.889362e-01
 0.000000e+00 0.000000e+00 0.000000e+00 0.000000e+00 0.000000e+00
<ENDHMM>
~h "b"
<BEGINHMM>
<NUMSTATES> 5
<STATE> 2
<NUMMIXES> 4
<SWEIGHTS> 1
 1.000000e+00
<MIXTURE> 1 3.663729e-01
<MEAN> 38
 8.094280e+00 1.361796e+01 5.122746e+00 5.380678e+00 4.880301e+00 2.327130e+00 1.777021e-01 -4.818001e+00 -2.976682e+00 -1.005192e-01 -1.108530e-01 -1.710060e+00 -2.435823e-01 3.408691e-01 2.552028e-01 3.949202e-01 2.353360e-01 1.586828e-01 2.423446e-01 8.658911e-02 -3.539256e-02 -1.243571e-01 3.099730e-02 1.361748e-01 -1.120064e-02 -8.810940e-02 -2.858797e-01 -7.138190e-02 2.074824e-02 -2.725534e-02 -3.162367e-02 -2.884423e-02 7.426640e-02 5.188283e-02 -4.730885e-02 -4.670993e-02 2.228206e-02 4.778575e-04
<VARIANCE> 38
 1.394484e+01 1.066497e+01 2.015003e+01 2.602069e+01 2.164572e+01 2.732911e+01 3.113237e+01 3.196590e+01 4.042189e+01 2.749704e+01 2.553291e+01 2.657293e+01 2.762437e-01 6.162749e-01 6.826552e-01 7.601701e-01 8.228976e-01 9.664532e-01 1.100970e+00 1.178387e+00 1.304577e+00 1.275392e+00 1.220767e+00 1.048163e+00 1.000000e-02 4.111550e-02 1.442516e-01 1.238369e-01 1.300964e-01 1.506894e-01 1.852126e-01 2.115748e-01 2.343155e-01 2.533645e-01 2.481923e-01 2.242103e-01 2.115457e-01 1.000000e-02
<GCONST> 7.541872e+01
<MIXTURE> 2 1.731955e-01
<MEAN> 38
 4.872876e+00 1.264200e+01 7.064233e+00 8.259031e+00 5.486751e+00 2.213989e+00 1.356439e+00 -3.380229e+00 -2.887586e+00 -2.589063e+00 -1.753841e+00 -1.597310e+00 -1.199643e+00 -1.753910e+00 -3.027303e-01 6.800596e-01 4.115968e-01 1.664571e-01 6.246003e-02 4.464424e-01 5.103073e-01 -1.427827e-01 6.632727e-02 1.351368e-01 -8.794094e-03 -1.728513e-01 -1.057517e+00 -6.787261e-01 -4.267131e-01 -3.394914e-01 -2.310498e-01 -2.483447e-01 1.359572e-01 3.432604e-01 3.170578e-01 2.815524e-01 9.579975e-02 9.462011e-03
<VARIANCE> 38
 2.180454e+01 2.070732e+01 2.395187e+01 2.531838e+01 2.777093e+01 2.743584e+01 3.208437e+01 3.176459e+01 3.396642e+01 2.480801e+01 2.393935e+01 2.500546e+01 1.833196e+00 4.805420e+00 2.475457e+00 2.229224e+00 2.224738e+00 2.422105e+00 2.899150e+00 2.783224e+00 3.035089e+00 2.501386e+00 2.349755e+00 1.948195e+00 1.000000e-02 2.276259e-01 4.845000e-01 3.803326e-01 4.095097e-01 4.878407e-01 4.913990e-01 5.162892e-01 5.450255e-01 5.300891e-01 4.616882e-01 4.217075e-01 3.838604e-01 1.000000e-02
<GCONST> 1.010584e+02
<MIXTURE> 3 3.027131e-01
<MEAN> 38
 8.930577e+00 1.275321e+01 3.872820e+00 4.191596e+00 3.643617e+00 1.458196e+00 -5.161085e-01 -5.743419e+00 -3.943865e+00 -6.792029e-01 -1.008250e+00 -3.157571e+00 -2.977235e-01 3.988948e-01 3.524559e-01 4.431650e-01 1.587087e-01 7.173800e-02 2.066841e-01 1.050655e-01 -8.649987e-03 -2.508944e-01 -1.386255e-01 2.725627e-03 -1.044438e-02 -2.415791e-01 -5.777205e-01 -1.128335e-01 6.649901e-02 -4.406372e-02 -9.364304e-02 -1.126081e-01 1.705072e-01 1.923390e-01 -3.594842e-02 -1.677811e-02 1.066860e-01 1.471288e-03
<VARIANCE> 38
 1.411984e+01 1.282694e+01 2.087094e+01 2.477772e+01 2.311144e+01 2.967778e+01 3.648146e+01 3.277155e+01 4.172532e+01 2.962925e+01 3.028010e+01 3.475904e+01 4.494483e-01 1.416741e+00 8.731788e-01 9.197297e-01 8.858465e-01 1.110651e+00 1.280793e+00 1.304257e+00 1.455618e+00 1.404475e+00 1.354264e+00 1.237545e+00 1.000000e-02 1.113518e-01 3.032890e-01 1.932564e-01 2.032395e-01 2.251016e-01 2.599739e-01 3.231826e-01 3.188146e-01 3.523268e-01 3.244827e-01 3.170430e-01 3.099865e-01 1.000000e-02
<GCONST> 8.460500e+01
<MIXTURE> 4 1.576537e-01
<MEAN> 38
 5.381397e+00 1.052107e+01 5.221358e+00 7.664053e+00 5.263464e+00 1.631478e+00 4.310298e-02 -4.432131e+00 -3.053644e+00 -2.182070e+00 -1.633210e+00 -2.545566e+00 -1.671835e+00 -3.225096e+00 -8.678876e-01 2.904479e-01 -3.930904e-01 -5.734614e-01 -4.068250e-01 1.005599e+00 1.274796e+00 -2.099253e-01 -1.850818e-02 3.675954e-01 9.817989e-03 -3.230288e-02 -8.708569e-01 -5.646500e-01 -5.256779e-01 -5.755461e-01 -4.475406e-01 -3.662984e-01 1.217519e-01 2.935030e-01 2.885631e-01 2.442660e-01 1.508896e-01 1.477303e-02
<VARIANCE> 38
 2.223372e+01 2.553706e+01 2.362615e+01 2.411280e+01 2.543749e+01 2.854381e+01 3.282788e+01 3.252110e+01 3.587779e+01 2.671812e+01 2.620514e+01 2.925568e+01 2.087683e+00 3.700464e+00 3.071282e+00 3.169337e+00 3.219044e+00 3.164569e+00 4.162059e+00 3.897908e+00 4.052677e+00 3.522712e+00 3.265420e+00 3.050020e+00 1.000000e-02 2.563858e-01 4.073006e-01 3.663741e-01 4.049644e-01 3.949365e-01 4.633064e-01 4.684925e-01 5.000035e-01 5.303934e-01 4.646785e-01 4.391763e-01 3.955720e-01 1.000000e-02
<GCONST> 1.043010e+02
<STATE> 3
<NUMMIXES> 4
<SWEIGHTS> 1
 1.000000e+00
<MIXTURE> 1 1.940227e-01
<MEAN> 38
 -1.085921e+00 -4.458066e+00 -2.139718e+00 5.244650e+00 2.236707e+00 -2.923212e+00 -3.964338e+00 -1.814118e+00 2.840245e+00 1.371899e+00 1.724866e+00 4.360949e-01 1.715800e+00 2.387339e-01 -7.019436e-02 -8.285827e-01 -1.442239e+00 -9.448022e-01 -1.134453e+00 -4.783383e-01 -4.802624e-01 -4.273099e-02 3.047827e-01 2.803862e-01 6.001152e-02 7.915561e-01 1.282032e+00 7.210299e-01 -1.013737e-01 -1.461914e-01 4.911866e-01 3.883721e-01 -6.280252e-02 -5.824848e-01 -3.099113e-01 -2.307606e-01 -6.873914e-02 5.266065e-04
<VARIANCE> 38
 1.868706e+01 1.920883e+01 2.772927e+01 3.105183e+01 3.319724e+01 3.698448e+01 4.297720e+01 3.891980e+01 2.923775e+01 2.869435e+01 2.877946e+01 2.328642e+01 1.973847e+00 3.982685e+00 4.241045e+00 4.410387e+00 3.706950e+00 4.318352e+00 3.907792e+00 3.296219e+00 3.776717e+00 3.516413e+00 3.285867e+00 2.400926e+00 1.000000e-02 3.645293e-01 6.745438e-01 5.408900e-01 7.268059e-01 7.226329e-01 8.290992e-01 8.969637e-01 8.387398e-01 7.711894e-01 7.174016e-01 7.403398e-01 5.872675e-01 1.000000e-02
<GCONST> 1.114583e+02
<MIXTURE> 2 2.937586e-01
<MEAN> 38
 -5.651726e-01 9.451437e-01 2.101986e+00 7.815995e+00 4.800552e+00 1.657987e+00 7.240645e-01 -5.479552e-01 1.146781e+00 -1.305960e+00 -9.339294e-02 -7.347811e-01 -7.201923e-01 -3.314803e+00 -1.922328e+00 -1.187116e+00 -1.362748e+00 -1.134771e+00 -1.070351e+00 3.877162e-01 1.038598e+00 7.746493e-01 9.171395e-01 6.241548e-01 3.830784e-02 8.828662e-01 6.338821e-01 -3.062319e-03 -5.659419e-01 -5.206138e-01 -2.809310e-01 -3.514668e-01 -3.452571e-01 -3.438892e-01 1.686462e-01 6.112136e-02 -5.965671e-03 1.637433e-02
<VARIANCE> 38
 1.948678e+01 2.675981e+01 2.284787e+01 2.565250e+01 2.842751e+01 3.201503e+01 3.308275e+01 3.136481e+01 2.658266e+01 2.210170e+01 2.381274e+01 1.942796e+01 2.342712e+00 3.552225e+00 2.831532e+00 3.450871e+00 3.373614e+00 3.339206e+00 3.335234e+00 3.455937e+00 3.374824e+00 2.997425e+00 2.787278e+00 2.420344e+00 1.000000e-02 3.610650e-01 7.697093e-01 5.148248e-01 6.256590e-01 5.299992e-01 6.808738e-01 6.413676e-01 5.895020e-01 6.091028e-01 5.684552e-01 6.233732e-01 4.420014e-01 1.000000e-02
<GCONST> 1.062631e+02
<MIXTURE> 3 2.719060e-01
<MEAN> 38
 4.246531e-01 3.777184e-01 1.903057e+00 7.793014e+00 3.915878e+00 3.169310e-01 -2.073698e-01 -5.201471e-01 1.491800e+00 -2.239494e+00 -1.453637e+00 -1.791383e+00 -9.097772e-01 -3.894659e+00 -1.981515e+00 -1.295272e+00 -1.835599e+00 -1.654098e+00 -1.317384e+00 6.623774e-01 1.215595e+00 4.702323e-01 5.211572e-01 6.195281e-01 4.656054e-02 8.549237e-01 6.478694e-01 -7.532704e-04 -6.119164e-01 -5.085183e-01 -2.352416e-01 -3.592932e-01 -3.786538e-01 -4.166609e-01 3.220515e-01 1.823907e-01 9.386975e-03 1.480088e-02
<VARIANCE> 38
 1.862774e+01 2.166123e+01 2.375290e+01 2.541413e+01 2.984065e+01 3.491718e+01 3.524194e+01 3.099679e+01 2.796891e+01 2.628824e+01 2.524878e+01 2.144493e+01 2.035184e+00 2.537694e+00 3.076167e+00 3.405909e+00 3.324985e+00 3.450974e+00 3.723251e+00 4.030071e+00 4.232152e+00 3.533633e+00 3.056060e+00 3.039885e+00 1.000000e-02 3.123463e-01 6.042429e-01 5.285373e-01 6.379765e-01 5.565277e-01 6.841100e-01 7.187890e-01 6.267683e-01 6.643782e-01 6.806923e-01 7.069440e-01 5.165277e-01 1.000000e-02
<GCONST> 1.076266e+02
<MIXTURE> 4 2.402855e-01
<MEAN> 38
 -3.634610e-01 -3.987205e+00 -2.118986e+00 4.691116e+00 8.589222e-01 -3.491583e+00 -3.956969e+00 -1.645431e+00 2.691730e+00 4.464571e-01 1.282166e+00 1.947973e-02 1.243095e+00 -1.176432e+00 -9.144492e-01 -1.439214e+00 -2.157600e+00 -1.744636e+00 -1.846867e+00 -4.965946e-01 -2.316043e-01 2.863685e-01 3.768047e-01 2.424208e-01 7.252447e-02 7.954292e-01 1.262349e+00 6.884384e-01 -1.422896e-01 -8.373067e-02 4.569776e-01 3.295259e-01 -7.907419e-02 -6.214550e-01 -1.707340e-01 -2.348069e-01 -1.278618e-01 4.467234e-04
<VARIANCE> 38
 2.143592e+01 1.939725e+01 2.599330e+01 3.223361e+01 3.260678e+01 3.794621e+01 3.889357e+01 3.818911e+01 3.118683e+01 2.999339e+01 2.622455e+01 2.368830e+01 2.047018e+00 4.120884e+00 4.191838e+00 4.171095e+00 3.284372e+00 4.244975e+00 3.827611e+00 3.685074e+00 4.137044e+00 3.587104e+00 3.420716e+00 2.583756e+00 1.000000e-02 3.916970e-01 6.424451e-01 5.629340e-01 8.346903e-01 7.898721e-01 8.221314e-01 8.745414e-01 8.973327e-01 8.600641e-01 8.133290e-01 7.468854e-01 6.289884e-01 1.000000e-02
<GCONST> 1.123164e+02
<STATE> 4
<NUMMIXES> 4
<SWEIGHTS> 1
 1.000000e+00
<MIXTURE> 1 2.572247e-01
<MEAN> 38
 6.116806e+00 3.662008e-01 -3.807350e+00 -9.412960e-01 -1.331433e+00 1.106007e-02 -3.737900e+00 -4.478042e+00 -2.386746e-01 9.909706e-01 2.686121e+00 6.894183e-01 1.907333e+00 3.746812e-01 -6.085177e-01 -2.033820e+00 -1.349972e+00 4.254504e-01 -6.216139e-01 -1.951611e-01 -3.789091e-01 4.651384e-01 3.753181e-01 1.715330e-01 4.723138e-02 -2.434610e-01 1.778909e-01 4.261214e-01 3.248461e-01 2.588850e-01 2.458199e-01 3.044896e-01 2.761598e-01 -3.127416e-02 -1.348573e-01 -2.691681e-01 -1.416356e-01 -9.312493e-03
<VARIANCE> 38
 1.697181e+01 1.801946e+01 2.936007e+01 4.903747e+01 2.765811e+01 4.782315e+01 3.619990e+01 3.150935e+01 3.173162e+01 3.246433e+01 2.817686e+01 2.376525e+01 1.835578e+00 3.647992e+00 3.319558e+00 5.186904e+00 3.859888e+00 5.330013e+00 4.099050e+00 3.934583e+00 4.141248e+00 4.128422e+00 4.625005e+00 3.257583e+00 1.000000e-02 3.201218e-01 4.137429e-01 2.774648e-01 4.900204e-01 3.838497e-01 5.466481e-01 4.458619e-01 4.344420e-01 4.515404e-01 4.457512e-01 4.206056e-01 3.388719e-01 1.000000e-02
<GCONST> 1.066275e+02
<MIXTURE> 2 2.562529e-01
<MEAN> 38
 5.893467e+00 -3.095723e+00 2.105536e+00 4.743311e+00 -5.364640e+00 -7.330906e+00 -5.837698e+00 1.021044e-02 -7.879796e-02 -7.849084e-01 5.134304e-01 6.806960e-01 4.966275e-01 -1.894320e-01 8.326445e-01 -8.329612e-01 -1.600492e+00 -1.395828e-01 1.674147e-01 2.633489e-01 -5.948002e-01 1.875217e-01 -5.094997e-02 2.792282e-01 3.071356e-02 -3.475164e-01 3.214070e-01 3.000674e-02 -7.713927e-02 4.910815e-01 5.689899e-01 3.769859e-01 -1.407670e-01 5.230982e-02 5.815377e-02 -1.071784e-01 -1.398823e-01 -1.033591e-02
<VARIANCE> 38
 1.220016e+01 1.936695e+01 4.433301e+01 5.404700e+01 4.383333e+01 4.361365e+01 4.767660e+01 4.071835e+01 4.680289e+01 4.496533e+01 3.292019e+01 2.885477e+01 1.384471e+00 2.122159e+00 2.422555e+00 2.900319e+00 3.621293e+00 3.675380e+00 4.111665e+00 4.059831e+00 3.963994e+00 4.046291e+00 3.085530e+00 2.614366e+00 1.000000e-02 2.090700e-01 3.722164e-01 3.610043e-01 5.144262e-01 4.940593e-01 5.985083e-01 6.359945e-01 5.466338e-01 6.637301e-01 6.767282e-01 5.171016e-01 4.348747e-01 1.000000e-02
<GCONST> 1.079998e+02
<MIXTURE> 3 2.596714e-01
<MEAN> 38
 6.829890e+00 -7.078476e-01 -3.789437e+00 -1.032415e+00 -2.257847e+00 -7.290533e-01 -4.804264e+00 -3.759084e+00 -2.634039e-02 1.140035e+00 1.640186e+00 -9.750700e-01 1.555764e+00 -2.777908e-01 -6.956381e-01 -1.777198e+00 -1.347646e+00 1.416859e-01 -8.340585e-01 1.917537e-02 -2.591618e-01 4.532429e-01 -8.628672e-02 -2.249079e-01 4.662072e-02 -3.399076e-01 1.694892e-01 3.891151e-01 3.444765e-01 3.046035e-01 1.930193e-01 3.255858e-01 1.972222e-01 -2.591123e-02 -1.587124e-01 -2.483135e-01 -5.788262e-02 -1.024887e-02
<VARIANCE> 38
 1.402173e+01 1.955959e+01 3.262686e+01 5.102106e+01 2.907141e+01 5.033951e+01 3.931242e+01 3.357753e+01 3.520351e+01 3.466323e+01 3.357067e+01 2.557477e+01 1.791466e+00 3.223599e+00 3.186039e+00 4.631024e+00 3.701894e+00 4.847706e+00 4.113141e+00 3.898162e+00 4.154207e+00 4.018908e+00 4.707151e+00 3.080540e+00 1.000000e-02 3.000623e-01 3.869849e-01 2.992873e-01 4.905583e-01 3.818110e-01 5.545046e-01 4.650788e-01 4.386840e-01 4.723586e-01 4.730505e-01 4.496458e-01 3.409207e-01 1.000000e-02
<GCONST> 1.070052e+02
<MIXTURE> 4 2.268364e-01
<MEAN> 38
 5.999098e+00 -4.547880e+00 1.483282e+00 2.530799e+00 -7.055977e+00 -7.084377e+00 -5.153062e+00 6.438643e-01 -9.292187e-01 6.342106e-02 -4.713524e-01 -6.229059e-01 1.498392e-01 -5.081440e-01 5.238566e-01 -1.170813e+00 -1.362367e+00 1.091867e-01 3.800671e-01 2.959278e-01 -5.637806e-01 3.203319e-01 -4.349655e-01 -7.601883e-02 2.813009e-02 -3.612554e-01 3.636248e-01 -3.123470e-02 4.040686e-02 5.823199e-01 4.678061e-01 3.011062e-01 -1.947060e-01 1.722548e-01 -7.727973e-02 -8.587716e-02 -5.183658e-02 -1.065295e-02
<VARIANCE> 38
 1.120123e+01 1.966943e+01 5.078957e+01 5.246110e+01 4.469106e+01 4.231645e+01 5.040015e+01 4.477960e+01 5.172660e+01 4.489613e+01 3.945022e+01 3.083668e+01 1.132146e+00 1.815583e+00 2.175262e+00 2.528357e+00 3.465001e+00 3.209096e+00 3.760843e+00 3.847777e+00 3.677966e+00 3.533257e+00 2.895443e+00 2.298189e+00 1.000000e-02 2.118060e-01 3.267584e-01 3.757952e-01 4.817837e-01 5.204208e-01 5.965043e-01 6.693890e-01 5.578239e-01 6.938770e-01 6.676526e-01 5.453813e-01 4.481376e-01 1.000000e-02
<GCONST> 1.072857e+02
<TRANSP> 5
 0.000000e+00 1.000000e+00 0.000000e+00 0.000000e+00 0.000000e+00
 0.000000e+00 8.551055e-01 1.448945e-01 0.000000e+00 0.000000e+00
 0.000000e+00 0.000000e+00 6.546891e-01 3.453108e-01 0.000000e+00
 0.000000e+00 0.000000e+00 0.000000e+00 6.294811e-01 3.705189e-01
 0.000000e+00 0.000000e+00 0.000000e+00 0.000000e+00 0.000000e+00
<ENDHMM>
~h "d"
<BEGINHMM>
<NUMSTATES> 5
<STATE> 2
<NUMMIXES> 4
<SWEIGHTS> 1
 1.000000e+00
<MIXTURE> 1 3.052015e-01
<MEAN> 38
 5.870024e+00 1.290566e+01 7.874555e+00 6.621238e+00 1.001981e+00 -3.289083e+00 -9.143381e-01 -1.047769e+00 8.456203e-01 -1.660035e+00 -4.052918e+00 -2.286266e+00 -5.692174e-01 -1.980376e-01 2.976725e-01 3.218617e-01 5.589321e-01 4.552389e-01 2.824972e-01 7.996640e-02 -5.151745e-02 -1.327141e-01 1.238130e-01 4.784152e-02 -1.357732e-02 -4.259652e-01 -9.273142e-01 -2.810909e-01 -3.204699e-01 9.928536e-02 2.192094e-01 2.393384e-02 2.077914e-04 -1.017718e-01 4.411776e-02 3.081236e-01 1.738593e-01 2.552936e-03
<VARIANCE> 38
 2.063016e+01 2.049721e+01 2.296962e+01 2.335471e+01 3.187667e+01 2.981028e+01 3.331483e+01 3.681135e+01 3.171721e+01 2.716106e+01 2.438895e+01 2.363514e+01 1.631330e+00 3.652694e+00 1.736785e+00 1.740545e+00 2.294044e+00 2.300882e+00 2.170237e+00 2.264314e+00 2.105976e+00 1.943514e+00 1.905864e+00 1.737940e+00 1.000000e-02 2.618731e-01 5.484259e-01 3.753345e-01 4.109892e-01 4.660825e-01 4.495863e-01 4.494442e-01 5.160612e-01 4.766232e-01 4.375668e-01 3.967286e-01 3.687896e-01 1.000000e-02
<GCONST> 9.847536e+01
<MIXTURE> 2 2.083870e-01
<MEAN> 38
 -2.002203e+00 1.671843e+00 5.672545e+00 4.047662e+00 5.476420e+00 1.738896e+00 9.800106e-01 -6.311844e-01 -1.004206e+00 -1.803568e+00 -5.781881e-02 -8.104307e-01 -1.735869e+00 -2.688183e+00 -1.243146e+00 -1.543109e+00 -2.930274e-01 -1.833999e-01 -4.252598e-02 4.398965e-01 3.252126e-01 2.942527e-01 1.127017e+00 7.661364e-01 1.749849e-02 6.096486e-01 4.592301e-01 -2.393682e-01 -2.007226e-01 -8.364792e-01 -7.655755e-01 -3.757477e-01 -1.426880e-01 1.414788e-01 1.931252e-01 -7.948021e-02 1.240078e-01 1.536829e-02
<VARIANCE> 38
 2.635306e+01 4.413434e+01 4.144388e+01 4.339693e+01 3.881079e+01 4.160380e+01 4.361280e+01 3.790949e+01 3.350089e+01 2.920757e+01 3.044108e+01 2.428194e+01 2.559093e+00 5.399616e+00 3.673790e+00 3.642439e+00 4.273838e+00 4.484114e+00 4.121161e+00 4.208545e+00 4.054042e+00 3.555357e+00 3.233653e+00 2.832915e+00 1.000000e-02 4.527619e-01 1.169591e+00 7.703550e-01 8.407457e-01 7.591749e-01 7.960106e-01 7.626284e-01 7.562577e-01 6.788247e-01 6.973611e-01 6.663178e-01 5.677698e-01 1.000000e-02
<GCONST> 1.155368e+02
<MIXTURE> 3 2.196444e-01
<MEAN> 38
 -2.013194e+00 -6.730412e-01 5.461902e+00 2.845656e+00 4.698565e+00 1.673609e+00 4.368024e-01 -3.373370e-01 -1.187998e+00 -2.497184e+00 -2.032790e-01 -1.274028e+00 -1.910223e+00 -3.025158e+00 -1.393408e+00 -1.926319e+00 -5.272146e-01 -3.768407e-01 -3.533525e-01 3.496439e-01 1.608019e-01 8.963714e-02 1.159276e+00 7.860792e-01 2.666531e-02 7.287571e-01 8.300222e-01 -1.986109e-01 -3.782564e-02 -8.121060e-01 -8.694106e-01 -4.396892e-01 -2.298488e-01 1.563295e-01 2.590447e-01 -1.495705e-01 1.122045e-01 1.439471e-02
<VARIANCE> 38
 2.155815e+01 3.964265e+01 3.976339e+01 4.077599e+01 4.009880e+01 4.412297e+01 4.397130e+01 4.019282e+01 3.504460e+01 3.226870e+01 3.297799e+01 2.806773e+01 2.223937e+00 4.438948e+00 3.371341e+00 3.468183e+00 4.329092e+00 4.559032e+00 4.354100e+00 4.686696e+00 4.605443e+00 3.792802e+00 3.490944e+00 3.030481e+00 1.000000e-02 4.071950e-01 1.046433e+00 7.481409e-01 8.321099e-01 8.669171e-01 9.103988e-01 8.179361e-01 8.231155e-01 7.525927e-01 8.250496e-01 7.890749e-01 6.769783e-01 1.000000e-02
<GCONST> 1.164907e+02
<MIXTURE> 4 2.667125e-01
<MEAN> 38
 5.385391e+00 1.075004e+01 7.474657e+00 5.995851e+00 5.894730e-01 -3.847509e+00 -2.096028e+00 -2.453802e+00 -4.265050e-01 -2.244973e+00 -4.229473e+00 -3.088107e+00 -1.472872e+00 -1.468756e+00 2.547515e-01 -1.978723e-01 9.095495e-01 7.579116e-01 3.078728e-01 1.916217e-01 -2.520857e-01 -3.638388e-01 4.243439e-01 1.660731e-01 -1.201068e-02 -3.931666e-01 -1.022681e+00 -5.038038e-01 -5.176512e-01 -1.211105e-01 9.492292e-02 -2.198025e-02 7.565428e-02 2.115189e-03 1.456233e-01 4.128701e-01 2.974034e-01 7.142652e-03
<VARIANCE> 38
 2.037654e+01 2.780077e+01 2.829596e+01 2.864013e+01 3.609837e+01 3.180535e+01 3.604868e+01 3.780146e+01 3.609571e+01 3.252987e+01 2.815672e+01 2.673140e+01 2.758677e+00 6.611973e+00 3.182182e+00 3.108470e+00 4.131171e+00 4.096916e+00 3.705181e+00 3.869148e+00 3.472664e+00 3.379752e+00 3.537805e+00 3.042057e+00 1.000000e-02 3.229780e-01 5.935775e-01 4.524513e-01 4.647819e-01 5.642311e-01 5.417535e-01 5.415376e-01 6.042997e-01 5.975626e-01 5.315245e-01 4.997718e-01 4.436228e-01 1.000000e-02
<GCONST> 1.089801e+02
<STATE> 3
<NUMMIXES> 4
<SWEIGHTS> 1
 1.000000e+00
<MIXTURE> 1 2.478545e-01
<MEAN> 38
 -5.198776e+00 -1.137583e+00 1.314117e+00 -1.507223e+00 4.753030e-01 -3.239213e+00 9.176902e-02 5.405242e-02 -4.477124e-01 -5.068501e-01 2.953245e+00 2.124556e+00 1.180870e+00 1.696288e+00 1.019544e+00 8.023231e-01 -1.265220e+00 -1.749936e+00 -8.402700e-01 -4.433369e-01 -1.785404e-01 -2.142739e-01 -5.048121e-01 2.144917e-01 4.979130e-02 8.372076e-01 5.429240e-01 5.094998e-01 6.083924e-01 -6.871561e-02 1.574880e-01 -1.720922e-01 -1.150507e-01 8.208951e-02 1.613968e-02 -4.435147e-01 -2.327135e-01 9.997090e-04
<VARIANCE> 38
 2.437419e+01 3.676872e+01 4.582110e+01 3.656470e+01 3.300038e+01 3.837221e+01 4.099578e+01 3.960797e+01 3.651136e+01 3.135710e+01 3.221607e+01 2.577673e+01 2.169111e+00 2.899277e+00 3.564166e+00 3.389609e+00 4.103773e+00 3.984556e+00 3.339313e+00 3.171358e+00 3.144315e+00 2.959217e+00 2.818705e+00 2.772692e+00 1.000000e-02 3.428866e-01 1.039948e+00 7.074935e-01 7.975494e-01 6.307483e-01 7.125440e-01 6.905028e-01 7.106019e-01 6.452122e-01 6.644711e-01 6.524008e-01 5.530016e-01 1.000000e-02
<GCONST> 1.119420e+02
<MIXTURE> 2 2.573115e-01
<MEAN> 38
 -1.030721e+00 1.035903e+00 2.803411e+00 1.141926e+00 1.457096e+00 -4.506031e+00 -3.335016e+00 -1.140220e+00 6.557866e-01 -1.488303e+00 -5.204193e-02 1.065853e+00 8.979499e-01 -1.867851e-01 -8.628004e-01 -8.886897e-01 -1.261882e+00 -1.251224e+00 -1.336090e+00 -9.921710e-02 9.809533e-01 8.412414e-01 2.417777e-01 3.230914e-01 3.447730e-02 7.167158e-01 3.139547e-01 4.577224e-02 8.314538e-02 -2.447226e-01 2.006654e-01 -7.628274e-02 -1.604843e-01 -3.489157e-02 2.526531e-01 -1.553357e-01 -2.654294e-01 3.818028e-03
<VARIANCE> 38
 2.134649e+01 2.902255e+01 3.207353e+01 3.196542e+01 3.934934e+01 4.349788e+01 4.510528e+01 3.719635e+01 3.589727e+01 3.168302e+01 3.050860e+01 2.629848e+01 2.344359e+00 3.016237e+00 2.779797e+00 2.785199e+00 3.384868e+00 4.351302e+00 3.990293e+00 3.889764e+00 3.527261e+00 3.531582e+00 3.476301e+00 3.290738e+00 1.000000e-02 3.844770e-01 7.224408e-01 4.602976e-01 5.013793e-01 6.646055e-01 8.059900e-01 7.222479e-01 7.249908e-01 6.640810e-01 6.624635e-01 6.575875e-01 5.848241e-01 1.000000e-02
<GCONST> 1.111838e+02
<MIXTURE> 3 2.060709e-01
<MEAN> 38
 -1.209167e+00 -2.126804e-01 2.169286e+00 6.519939e-01 4.459528e-01 -5.050547e+00 -3.439304e+00 -1.525424e+00 6.599988e-01 -2.270064e+00 -3.195728e-01 4.291832e-01 8.148425e-01 -6.954138e-01 -1.256009e+00 -1.431487e+00 -1.522610e+00 -1.500726e+00 -1.637096e+00 6.099109e-02 1.009840e+00 6.107095e-01 -3.583146e-02 3.853826e-01 4.262371e-02 8.064842e-01 4.573001e-01 3.014635e-02 6.032763e-02 -1.928454e-01 1.688659e-01 -1.834355e-01 -1.254218e-01 -4.127216e-02 3.056361e-01 -2.491157e-01 -2.950726e-01 4.134255e-03
<VARIANCE> 38
 1.922668e+01 2.647817e+01 3.260172e+01 3.005103e+01 4.108004e+01 4.280289e+01 4.433083e+01 3.839531e+01 3.708146e+01 3.442336e+01 3.146185e+01 2.788188e+01 2.433891e+00 3.024003e+00 2.871152e+00 2.659874e+00 3.385294e+00 4.054844e+00 4.125033e+00 4.382517e+00 3.756919e+00 3.831584e+00 4.361123e+00 3.287928e+00 1.000000e-02 3.946660e-01 7.891208e-01 5.118132e-01 5.576658e-01 7.835197e-01 8.677983e-01 8.259990e-01 8.162811e-01 7.590212e-01 8.049952e-01 8.701444e-01 6.642029e-01 1.000000e-02
<GCONST> 1.132210e+02
<MIXTURE> 4 2.887404e-01
<MEAN> 38
 -5.143391e+00 -1.946643e+00 1.211516e+00 -1.076398e+00 5.083684e-01 -2.810055e+00 4.068730e-01 -3.684085e-01 -4.361948e-01 -1.871881e-01 3.331158e+00 1.499110e+00 8.829178e-01 6.717177e-01 6.753785e-02 -4.410655e-01 -2.048603e+00 -2.304247e+00 -1.342615e+00 -7.847126e-01 -3.967040e-01 -2.904639e-01 -3.175670e-01 4.096806e-01 5.985677e-02 9.378816e-01 8.375492e-01 5.504253e-01 5.878857e-01 -1.798922e-01 -5.122456e-02 -2.778554e-01 -1.283239e-01 3.143553e-02 -1.083818e-01 -6.237521e-01 -2.299803e-01 1.877694e-03
<VARIANCE> 38
 2.323617e+01 3.934393e+01 4.461615e+01 3.495975e+01 3.464418e+01 3.930940e+01 4.081835e+01 3.979652e+01 3.658952e+01 3.237298e+01 3.273838e+01 2.655574e+01 2.365561e+00 3.534097e+00 3.588651e+00 3.270868e+00 3.589503e+00 3.421922e+00 3.349809e+00 3.323044e+00 3.233294e+00 3.062639e+00 3.184121e+00 2.635515e+00 1.000000e-02 3.706296e-01 1.189894e+00 7.277193e-01 8.188668e-01 7.770664e-01 8.082317e-01 7.623525e-01 7.509931e-01 6.774656e-01 7.379808e-01 7.359278e-01 5.815008e-01 1.000000e-02
<GCONST> 1.132768e+02
<STATE> 4
<NUMMIXES> 4
<SWEIGHTS> 1
 1.000000e+00
<MIXTURE> 1 2.108440e-01
<MEAN> 38
 1.292228e+00 3.100996e+00 4.684577e+00 1.817264e+00 -2.099969e+00 -5.563065e+00 -3.929496e+00 -3.174250e+00 -9.513239e-01 -7.584161e-02 1.364211e+00 1.437693e+00 1.318825e+00 3.649933e-01 1.683210e-01 6.580746e-02 -1.329055e+00 -4.986902e-01 -6.535696e-01 -4.909481e-01 1.209139e-01 5.201942e-01 2.688322e-02 1.350204e-01 2.888473e-02 -2.388938e-03 -2.032282e-01 -4.937280e-02 -2.504603e-02 2.013341e-01 4.840752e-01 2.093744e-01 1.899790e-01 4.645994e-02 -4.173803e-02 -1.203360e-01 -1.461988e-01 -4.788009e-03
<VARIANCE> 38
 1.810972e+01 2.355392e+01 3.756186e+01 3.648050e+01 4.558062e+01 4.671474e+01 5.016771e+01 4.306965e+01 3.753864e+01 3.135269e+01 2.632521e+01 2.621641e+01 1.732673e+00 2.577025e+00 3.206336e+00 3.180551e+00 3.930844e+00 4.260983e+00 3.643044e+00 3.695019e+00 3.472990e+00 3.143221e+00 3.131096e+00 3.024377e+00 1.000000e-02 2.063393e-01 3.944456e-01 3.355646e-01 3.748341e-01 4.191781e-01 4.950427e-01 4.635373e-01 4.377569e-01 4.145735e-01 4.138156e-01 3.578139e-01 3.762867e-01 1.000000e-02
<GCONST> 1.052146e+02
<MIXTURE> 2 2.760402e-01
<MEAN> 38
 4.481027e+00 -6.104271e-01 -2.781640e-01 -1.036358e+00 -2.537665e+00 -6.634118e+00 -8.516429e+00 -9.372490e-01 4.635890e+00 1.729684e+00 -1.361350e+00 -2.078301e-01 1.288793e+00 -6.042746e-01 -9.557673e-01 -6.943535e-01 -6.411977e-01 5.257090e-01 -7.532864e-01 2.194127e-01 8.031995e-01 8.995782e-01 -1.002173e-01 -5.998244e-01 2.585812e-02 -2.932107e-01 -3.413534e-02 1.167548e-01 9.935807e-02 3.214637e-01 5.291947e-01 5.418777e-01 4.189229e-02 -3.948966e-01 -1.690421e-01 1.251689e-01 -6.678837e-02 -8.313827e-03
<VARIANCE> 38
 9.379523e+00 1.778498e+01 2.928847e+01 2.946518e+01 3.695203e+01 3.530097e+01 4.944202e+01 4.396313e+01 3.511853e+01 4.058514e+01 2.818770e+01 3.329716e+01 1.165394e+00 1.488383e+00 1.832782e+00 2.213195e+00 2.916575e+00 3.700159e+00 3.842492e+00 3.775039e+00 3.403992e+00 3.482425e+00 3.553523e+00 2.945217e+00 1.000000e-02 1.985163e-01 2.679720e-01 2.653561e-01 3.192018e-01 4.135188e-01 4.713469e-01 4.787677e-01 4.726988e-01 4.188583e-01 4.600903e-01 4.255833e-01 4.434873e-01 1.000000e-02
<GCONST> 1.014582e+02
<MIXTURE> 3 2.484366e-01
<MEAN> 38
 4.452269e+00 -2.246135e+00 -1.616392e+00 -2.669992e+00 -4.177011e+00 -7.999124e+00 -6.579088e+00 1.032947e+00 4.256926e+00 -7.591525e-02 -3.672972e+00 -1.119698e-01 1.166164e+00 -1.114044e+00 -9.839321e-01 -9.183250e-01 -3.985021e-01 5.608357e-01 -5.660374e-01 6.241334e-01 5.612807e-01 3.579513e-01 -9.265304e-01 -6.676629e-01 2.757672e-02 -3.949700e-01 -1.943533e-02 8.135165e-02 1.319382e-01 4.703501e-01 5.898070e-01 4.451034e-01 -1.007445e-01 -3.437365e-01 -7.490850e-02 2.951784e-01 -1.127227e-01 -9.666017e-03
<VARIANCE> 38
 9.211263e+00 1.886206e+01 3.065855e+01 2.641861e+01 4.060468e+01 3.150525e+01 5.114098e+01 4.145326e+01 3.820406e+01 4.196299e+01 3.003911e+01 3.204869e+01 1.285353e+00 1.338797e+00 1.708003e+00 2.095527e+00 3.041464e+00 3.208552e+00 3.931727e+00 3.328453e+00 2.896742e+00 3.362407e+00 3.734406e+00 2.693899e+00 1.000000e-02 2.015764e-01 2.719789e-01 2.741047e-01 3.212689e-01 4.590978e-01 4.728905e-01 4.644119e-01 4.695286e-01 4.318736e-01 4.654006e-01 4.718399e-01 4.346375e-01 1.000000e-02
<GCONST> 1.012261e+02
<MIXTURE> 4 2.646625e-01
<MEAN> 38
 1.369390e+00 2.646422e+00 5.384112e+00 1.647424e+00 -4.221089e+00 -7.138565e+00 -4.167222e+00 -3.921444e+00 -1.800806e+00 -8.765236e-01 7.762614e-01 1.129315e+00 1.567093e+00 -4.811479e-02 3.202757e-01 -1.681492e-01 -1.780870e+00 -5.979879e-01 -1.052192e+00 -4.868054e-01 -4.089424e-02 3.500476e-01 -2.111035e-01 -4.471533e-02 3.778484e-02 -9.840820e-02 -3.314685e-01 -1.959142e-01 -1.535115e-01 2.927372e-01 5.784320e-01 2.009270e-01 2.641840e-01 1.013512e-01 3.675375e-02 -4.844484e-02 -1.393413e-01 -7.453332e-03
<VARIANCE> 38
 1.420398e+01 1.944859e+01 3.670572e+01 3.105598e+01 4.471209e+01 4.063482e+01 4.405347e+01 4.139076e+01 3.833917e+01 3.079839e+01 2.537048e+01 2.595715e+01 1.604463e+00 2.280827e+00 3.103283e+00 2.872985e+00 3.705065e+00 4.115269e+00 3.901841e+00 3.890720e+00 3.511814e+00 3.328599e+00 3.869192e+00 2.989579e+00 1.000000e-02 2.154357e-01 3.645692e-01 3.292381e-01 3.733551e-01 4.460419e-01 4.852930e-01 4.423037e-01 4.190032e-01 4.112574e-01 4.112424e-01 3.742643e-01 3.728207e-01 1.000000e-02
<GCONST> 1.040999e+02
<TRANSP> 5
 0.000000e+00 1.000000e+00 0.000000e+00 0.000000e+00 0.000000e+00
 0.000000e+00 7.310577e-01 2.689423e-01 0.000000e+00 0.000000e+00
 0.000000e+00 0.000000e+00 4.996389e-01 5.003611e-01 0.000000e+00
 0.000000e+00 0.000000e+00 0.000000e+00 5.366465e-01 4.633535e-01
 0.000000e+00 0.000000e+00 0.000000e+00 0.000000e+00 0.000000e+00
<ENDHMM>
~h "e"
<BEGINHMM>
<NUMSTATES> 5
<STATE> 2
<NUMMIXES> 4
<SWEIGHTS> 1
 1.000000e+00
<MIXTURE> 1 2.044843e-01
<MEAN> 38
 2.366462e+00 5.274187e-01 9.924994e+00 -4.083568e+00 -1.187451e+01 -3.588717e+00 -1.449671e+00 -4.045061e+00 -1.681594e+00 4.045679e+00 7.349129e-01 2.194722e+00 1.057566e-02 1.292504e-01 2.140646e-01 -1.953726e-02 -8.028947e-02 1.734671e-01 -6.495847e-03 -1.082465e-01 2.846002e-02 2.031786e-01 4.242684e-02 1.471970e-01 3.285381e-04 -6.198918e-03 3.012245e-02 -3.661253e-02 9.301669e-02 5.502357e-02 7.950985e-03 1.377111e-02 2.322216e-02 -1.675993e-02 -6.482739e-02 -8.425852e-04 -5.082605e-02 -1.717529e-03
<VARIANCE> 38
 9.171858e+00 2.970679e+01 2.281075e+01 3.552824e+01 2.348615e+01 5.038493e+01 3.827721e+01 5.639807e+01 4.182600e+01 3.847537e+01 2.934958e+01 2.169998e+01 1.655472e-01 4.185578e-01 4.723460e-01 6.226931e-01 7.565296e-01 8.487645e-01 9.520103e-01 9.534073e-01 1.029251e+00 9.174063e-01 8.370563e-01 7.417279e-01 1.000000e-02 3.157287e-02 6.607532e-02 7.785972e-02 1.069728e-01 1.446339e-01 1.570274e-01 1.718047e-01 1.725876e-01 1.625544e-01 1.600653e-01 1.458016e-01 1.242556e-01 1.000000e-02
<GCONST> 7.063708e+01
<MIXTURE> 2 3.325551e-01
<MEAN> 38
 1.578839e+00 -7.567304e-01 9.336826e+00 -4.098514e+00 -1.331300e+01 -3.510796e+00 -1.149552e+00 -3.677610e+00 -2.898497e+00 2.874070e+00 1.046698e+00 -1.534093e-01 -1.501107e-02 1.688962e-01 1.839835e-01 -7.909372e-04 2.564437e-02 1.275403e-01 4.008551e-03 -1.500432e-01 -3.288797e-02 1.241879e-01 -2.010939e-02 4.957332e-02 -1.226019e-03 3.870471e-02 1.611935e-02 -1.324242e-03 5.962908e-02 6.602036e-02 -2.562811e-02 1.790326e-03 2.134766e-02 -1.039671e-02 -8.526719e-03 -7.586767e-03 5.407261e-02 -8.603091e-04
<VARIANCE> 38
 9.829605e+00 2.050692e+01 2.397867e+01 3.742482e+01 2.217663e+01 3.830982e+01 3.296758e+01 5.143002e+01 3.657022e+01 3.881990e+01 4.310836e+01 2.295108e+01 1.052740e-01 2.530679e-01 3.168840e-01 4.104293e-01 4.759513e-01 5.957144e-01 6.578798e-01 7.146325e-01 7.385432e-01 6.688255e-01 6.275025e-01 5.539813e-01 1.000000e-02 1.456908e-02 2.903966e-02 4.143980e-02 6.010356e-02 7.607933e-02 8.822190e-02 9.908593e-02 1.016467e-01 1.015853e-01 1.025479e-01 1.035843e-01 8.782609e-02 1.000000e-02
<GCONST> 5.899914e+01
<MIXTURE> 3 2.036077e-01
<MEAN> 38
 8.693843e-01 -1.042472e+00 8.088634e+00 -6.011950e+00 -1.416201e+01 -2.707164e+00 -1.310418e+00 -4.853971e+00 -2.915314e+00 2.550181e+00 -1.238128e+00 -1.818441e+00 -1.111145e-01 9.551855e-02 7.936640e-02 -1.537676e-01 -7.023180e-02 6.857497e-02 -9.510062e-02 -3.021723e-01 -1.322613e-01 -7.490397e-02 -2.630159e-01 -1.582373e-01 -6.419886e-04 2.990866e-02 7.882500e-03 1.968554e-03 4.650578e-02 5.815810e-02 -5.659781e-02 -1.592079e-02 -4.844100e-03 -4.041564e-02 -2.680294e-02 -1.156270e-03 4.628930e-02 -7.287164e-04
<VARIANCE> 38
 1.003981e+01 1.791957e+01 2.547241e+01 3.848610e+01 2.352276e+01 3.425864e+01 3.354551e+01 4.612196e+01 3.313684e+01 3.576511e+01 5.093919e+01 2.375457e+01 1.106777e-01 2.627075e-01 3.455176e-01 4.569148e-01 5.183518e-01 6.695735e-01 7.434492e-01 7.978603e-01 7.517467e-01 8.051260e-01 7.680983e-01 6.116555e-01 1.000000e-02 1.425999e-02 2.858002e-02 4.224647e-02 6.277183e-02 8.111592e-02 9.509490e-02 1.035698e-01 1.065185e-01 1.084001e-01 1.122132e-01 1.073145e-01 9.390235e-02 1.000000e-02
<GCONST> 6.058329e+01
<MIXTURE> 4 2.592625e-01
<MEAN> 38
 2.093312e+00 -8.655668e-01 9.159103e+00 -3.245356e+00 -1.289006e+01 -4.824350e+00 -1.528414e+00 -2.976108e+00 -2.945430e+00 2.779299e+00 1.317013e+00 1.199522e+00 -8.898956e-02 3.330335e-02 1.865244e-01 -1.794244e-01 -1.931996e-01 1.330876e-01 -3.540580e-03 -1.653370e-01 -7.019441e-02 1.234634e-01 -2.636048e-02 -9.988461e-02 1.548326e-03 -1.873143e-02 3.448642e-02 -3.886059e-02 5.571738e-02 8.504632e-02 -1.241968e-02 -4.013224e-03 -1.225982e-02 -1.266648e-02 -6.992315e-02 -4.004624e-02 -6.264565e-02 -1.809349e-03
<VARIANCE> 38
 9.565238e+00 2.407482e+01 2.399397e+01 3.951302e+01 2.323261e+01 4.361112e+01 3.557407e+01 5.834488e+01 4.005261e+01 4.078566e+01 3.552596e+01 2.269416e+01 1.702151e-01 4.016367e-01 4.907321e-01 6.454351e-01 7.477350e-01 8.440851e-01 9.419144e-01 9.629518e-01 9.912593e-01 8.969699e-01 8.718731e-01 7.052018e-01 1.000000e-02 3.345561e-02 6.172488e-02 7.755877e-02 1.055393e-01 1.451829e-01 1.487497e-01 1.653023e-01 1.701128e-01 1.622007e-01 1.632509e-01 1.461345e-01 1.219887e-01 1.000000e-02
<GCONST> 7.052522e+01
<STATE> 3
<NUMMIXES> 4
<SWEIGHTS> 1
 1.000000e+00
<MIXTURE> 1 1.982819e-01
<MEAN> 38
 2.929684e+00 3.338439e+00 1.254045e+01 -3.012188e+00 -1.204938e+01 -1.237257e+00 -1.059984e+00 -7.071432e+00 -4.922304e+00 4.773825e+00 -1.112764e+00 9.410861e-01 1.572239e-01 3.415708e-01 -3.161950e-02 9.483985e-01 6.670688e-01 -3.346330e-01 5.406801e-01 4.053988e-01 -1.748435e-01 -3.164728e-01 2.590935e-01 4.387847e-02 -1.436494e-02 -1.026018e-01 5.551293e-02 -1.972423e-01 2.320616e-01 3.446392e-01 -1.628835e-01 8.047672e-02 2.449235e-01 2.083160e-01 -2.342703e-01 6.333818e-02 -1.632818e-02 -3.862687e-03
<VARIANCE> 38
 8.597907e+00 2.471947e+01 2.029693e+01 3.370575e+01 2.596273e+01 4.670092e+01 3.969020e+01 5.066220e+01 5.237822e+01 3.677340e+01 3.764824e+01 2.841917e+01 4.112378e-01 9.379761e-01 9.129371e-01 1.330073e+00 1.475957e+00 1.779878e+00 1.878052e+00 1.948941e+00 1.788748e+00 1.731402e+00 1.714237e+00 1.376739e+00 1.000000e-02 7.656457e-02 1.739720e-01 1.559486e-01 2.173187e-01 2.732556e-01 3.140381e-01 3.562467e-01 3.644193e-01 3.602549e-01 3.006284e-01 3.083560e-01 2.583338e-01 1.000000e-02
<GCONST> 8.830249e+01
<MIXTURE> 2 3.088188e-01
<MEAN> 38
 2.120026e+00 1.102717e+00 9.097218e+00 -2.816942e+00 -1.274068e+01 -4.096504e+00 -3.981107e-01 -4.684750e+00 -4.219518e+00 1.644312e+00 -3.323675e-02 -5.561336e-01 3.058986e-01 -4.509672e-02 -2.640722e-01 4.088536e-01 4.686531e-01 -1.487490e-01 -2.028146e-02 4.010976e-01 -2.976047e-02 -2.413593e-01 6.306181e-03 1.860809e-01 -4.911378e-03 4.933424e-02 1.586271e-02 -3.995146e-02 8.218513e-02 1.587581e-01 1.321332e-02 -5.466168e-02 6.444252e-02 6.530215e-02 4.420105e-03 -2.828836e-02 6.405578e-02 -1.715407e-03
<VARIANCE> 38
 1.033601e+01 2.236828e+01 2.718813e+01 5.003074e+01 3.066231e+01 5.661688e+01 4.614464e+01 5.952618e+01 4.813898e+01 4.326108e+01 5.542776e+01 3.209253e+01 2.123561e-01 6.102287e-01 8.550686e-01 9.496532e-01 1.213329e+00 1.455127e+00 1.577621e+00 1.828436e+00 1.828912e+00 1.621349e+00 1.424283e+00 1.213430e+00 1.000000e-02 3.052649e-02 7.414160e-02 1.119466e-01 1.543873e-01 2.062853e-01 2.332394e-01 2.622401e-01 2.718639e-01 2.592922e-01 2.430671e-01 2.660451e-01 2.075245e-01 1.000000e-02
<GCONST> 8.331565e+01
<MIXTURE> 3 2.557339e-01
<MEAN> 38
 2.067223e+00 2.388152e+00 1.131374e+01 -4.159428e+00 -1.329817e+01 -2.345328e+00 -2.403165e+00 -7.502141e+00 -4.853099e+00 4.021370e+00 -1.387460e+00 3.948102e-01 9.515764e-02 1.405978e-01 -1.727630e-02 5.133893e-01 2.885432e-01 -2.172647e-01 2.458905e-01 1.082531e-01 -3.164026e-01 -2.759899e-01 -1.830007e-03 -1.521426e-01 -7.332963e-03 -3.987344e-02 1.268754e-02 -1.453032e-01 1.471216e-01 2.148747e-01 -1.408840e-01 9.859595e-02 1.778442e-01 9.438481e-02 -1.934143e-01 2.981009e-02 -5.439917e-02 -2.622016e-03
<VARIANCE> 38
 9.462837e+00 2.262856e+01 2.233993e+01 4.223234e+01 2.858980e+01 4.262672e+01 4.179791e+01 5.602999e+01 5.387741e+01 3.997968e+01 4.608952e+01 2.937410e+01 3.517773e-01 8.241692e-01 9.262123e-01 1.321769e+00 1.451488e+00 1.747408e+00 1.738338e+00 1.860290e+00 1.693431e+00 1.678575e+00 1.639789e+00 1.312903e+00 1.000000e-02 6.575988e-02 1.357958e-01 1.486954e-01 2.243302e-01 2.733687e-01 2.876464e-01 3.336219e-01 3.397150e-01 3.295336e-01 2.893807e-01 2.904215e-01 2.365278e-01 1.000000e-02
<GCONST> 8.760785e+01
<MIXTURE> 4 2.371013e-01
<MEAN> 38
 9.327236e-01 6.483941e-01 7.516073e+00 -6.238763e+00 -1.387472e+01 -3.154583e+00 -1.477570e+00 -6.679730e+00 -3.254322e+00 1.386155e+00 -3.657534e+00 -1.842311e+00 1.356077e-01 -1.441900e-01 -2.878339e-01 1.732739e-01 2.405077e-01 -1.981482e-01 -2.960314e-02 1.688399e-01 -2.611868e-01 -4.796684e-01 -2.284715e-01 -1.266965e-01 -2.965430e-03 4.769288e-02 -2.065836e-02 7.834586e-04 7.983930e-02 1.168762e-01 -2.145559e-02 -5.237524e-02 4.980908e-02 -1.623803e-02 -1.098041e-02 5.368160e-02 5.463098e-02 -1.195593e-03
<VARIANCE> 38
 1.082867e+01 2.117293e+01 2.684669e+01 4.936068e+01 3.221544e+01 4.766093e+01 5.049300e+01 5.353626e+01 4.403643e+01 4.462794e+01 5.937507e+01 3.204396e+01 2.027507e-01 5.790102e-01 8.574892e-01 9.000441e-01 1.206673e+00 1.485809e+00 1.609701e+00 2.038311e+00 1.807344e+00 1.726494e+00 1.529359e+00 1.266922e+00 1.000000e-02 2.743244e-02 6.097136e-02 9.866349e-02 1.447254e-01 1.928707e-01 2.252500e-01 2.541019e-01 2.475070e-01 2.449909e-01 2.425598e-01 2.463329e-01 1.975354e-01 1.000000e-02
<GCONST> 8.240555e+01
<STATE> 4
<NUMMIXES> 4
<SWEIGHTS> 1
 1.000000e+00
<MIXTURE> 1 2.448028e-01
<MEAN> 38
 8.077121e-01 5.328945e+00 1.182298e+01 2.697650e+00 -6.668921e+00 -3.588955e+00 2.188556e+00 -3.701659e+00 -4.432826e+00 2.038167e+00 6.985386e-01 5.908514e-01 -1.121091e+00 3.557209e-01 -4.019338e-01 1.468523e+00 2.320770e+00 2.956048e-02 7.311356e-01 1.245520e+00 6.265110e-01 -7.808475e-01 1.952620e-01 4.364131e-02 -4.088537e-02 -3.306852e-01 -2.578411e-01 -2.543180e-01 -2.699544e-02 2.803614e-01 2.504261e-01 -1.343879e-01 1.379638e-01 2.126693e-01 -6.170581e-02 -1.377628e-01 -3.734353e-02 -2.587951e-03
<VARIANCE> 38
 1.918944e+01 2.508814e+01 2.296672e+01 2.757119e+01 3.224562e+01 3.813916e+01 3.016819e+01 4.116895e+01 3.897684e+01 3.012459e+01 2.610363e+01 2.219981e+01 1.617913e+00 2.267869e+00 1.770285e+00 2.406483e+00 2.286084e+00 3.345123e+00 3.020510e+00 3.480983e+00 2.867954e+00 2.763141e+00 2.922566e+00 2.216937e+00 1.000000e-02 1.675270e-01 2.646449e-01 2.641793e-01 2.929023e-01 3.850071e-01 4.200838e-01 4.436788e-01 4.469628e-01 4.706138e-01 4.085531e-01 3.845532e-01 3.260357e-01 1.000000e-02
<GCONST> 9.916103e+01
<MIXTURE> 2 2.671267e-01
<MEAN> 38
 1.355330e+00 7.975842e-01 6.976204e+00 5.634616e+00 -3.275834e+00 -6.696883e+00 -8.979713e-01 1.635473e+00 -2.941592e+00 -2.414694e+00 4.944655e-01 7.501673e-01 -7.019852e-01 2.849748e-01 -9.950701e-01 7.151369e-01 2.193490e+00 6.888715e-01 -5.032278e-02 2.920770e-01 1.201625e+00 -1.267666e-02 -6.542588e-01 -1.170819e-01 -3.014037e-02 -1.290059e-01 5.170764e-02 3.125662e-02 -3.238876e-01 -2.082471e-01 3.478716e-01 1.063568e-01 -3.308024e-01 -4.720056e-02 3.689308e-01 -1.136377e-02 -1.166620e-01 -3.583294e-04
<VARIANCE> 38
 3.711394e+01 2.449401e+01 2.811020e+01 3.612241e+01 4.366029e+01 4.208149e+01 4.353007e+01 4.151218e+01 4.465457e+01 2.835271e+01 3.192629e+01 2.577866e+01 2.595808e+00 2.233185e+00 1.756243e+00 2.190433e+00 2.338373e+00 3.214628e+00 3.219497e+00 4.240146e+00 3.135584e+00 2.799295e+00 2.478376e+00 2.104766e+00 1.000000e-02 1.867701e-01 2.719807e-01 2.769491e-01 3.483431e-01 4.812938e-01 4.711924e-01 4.978948e-01 4.984748e-01 5.200282e-01 4.076676e-01 4.365007e-01 3.735132e-01 1.000000e-02
<GCONST> 1.032355e+02
<MIXTURE> 3 2.713456e-01
<MEAN> 38
 7.288235e-01 4.705407e+00 1.069366e+01 1.800654e+00 -6.833251e+00 -4.296147e+00 7.114018e-01 -4.903315e+00 -5.502685e+00 2.810116e-01 -8.452407e-01 -8.471616e-01 -1.088803e+00 3.226832e-01 -5.154670e-01 1.435509e+00 2.151530e+00 1.322983e-03 4.323409e-01 1.109783e+00 3.555431e-01 -8.712290e-01 1.814093e-01 -1.323181e-01 -3.853444e-02 -3.125944e-01 -2.593748e-01 -2.534896e-01 -6.363393e-02 2.348820e-01 2.054536e-01 -7.619859e-02 1.625162e-01 2.269197e-01 1.374563e-02 -8.561682e-02 3.886332e-02 -1.558072e-03
<VARIANCE> 38
 2.220268e+01 2.630597e+01 2.478777e+01 3.468033e+01 3.662955e+01 3.626540e+01 3.037141e+01 4.756664e+01 3.735392e+01 3.171322e+01 3.194984e+01 2.431167e+01 2.069024e+00 2.312081e+00 1.981755e+00 2.681569e+00 2.634849e+00 3.513890e+00 3.174026e+00 3.594398e+00 3.127436e+00 2.935998e+00 3.165591e+00 2.243762e+00 1.000000e-02 1.846814e-01 3.330888e-01 2.956143e-01 3.257228e-01 4.366350e-01 4.325564e-01 4.509110e-01 4.844092e-01 4.862621e-01 4.488460e-01 4.158138e-01 3.416812e-01 1.000000e-02
<GCONST> 1.022381e+02
<MIXTURE> 4 2.166826e-01
<MEAN> 38
 1.802695e+00 -5.927759e-01 4.718078e+00 3.771340e+00 -4.575386e+00 -7.397719e+00 -1.942105e+00 1.065792e+00 -2.095213e+00 -3.058741e+00 -1.480869e+00 2.970176e-01 -2.536241e-01 -1.925589e-02 -1.252969e+00 4.938247e-01 1.922741e+00 4.133770e-01 -6.542218e-01 2.788160e-01 1.117091e+00 -2.092225e-01 -7.727377e-01 -3.150108e-01 -2.108145e-02 -2.166218e-02 8.869751e-02 4.210946e-02 -3.275753e-01 -1.603807e-01 3.235603e-01 1.959573e-02 -3.787381e-01 -6.752027e-02 3.989958e-01 6.316822e-02 -1.394545e-01 6.345372e-04
<VARIANCE> 38
 3.344446e+01 2.446897e+01 3.335302e+01 5.104996e+01 5.098493e+01 4.119239e+01 4.456855e+01 5.280242e+01 5.097398e+01 3.340712e+01 4.047461e+01 2.993135e+01 2.353542e+00 1.624718e+00 1.604256e+00 2.257147e+00 2.177404e+00 3.117479e+00 3.152023e+00 3.581709e+00 2.891063e+00 2.764109e+00 2.220881e+00 2.074284e+00 1.000000e-02 1.363191e-01 2.234208e-01 2.318780e-01 3.567943e-01 5.036408e-01 4.387958e-01 4.383771e-01 4.884923e-01 4.930780e-01 3.834551e-01 4.371758e-01 3.725756e-01 1.000000e-02
<GCONST> 1.027875e+02
<TRANSP> 5
 0.000000e+00 1.000000e+00 0.000000e+00 0.000000e+00 0.000000e+00
 0.000000e+00 9.355720e-01 6.442797e-02 0.000000e+00 0.000000e+00
 0.000000e+00 0.000000e+00 8.427206e-01 1.572793e-01 0.000000e+00
 0.000000e+00 0.000000e+00 0.000000e+00 7.420478e-01 2.579522e-01
 0.000000e+00 0.000000e+00 0.000000e+00 0.000000e+00 0.000000e+00
<ENDHMM>
~h "f"
<BEGINHMM>
<NUMSTATES> 5
<STATE> 2
<NUMMIXES> 4
<SWEIGHTS> 1
 1.000000e+00
<MIXTURE> 1 2.155485e-01
<MEAN> 38
 -1.403977e+01 -6.599397e+00 -5.324581e+00 4.538744e+00 1.013998e+00 1.507226e+00 2.038286e+00 5.411418e+00 5.590981e+00 3.953718e+00 5.083081e+00 4.007923e+00 -1.984896e-01 -2.458667e-01 -1.494956e-01 4.416774e-03 1.713779e-01 3.565467e-01 3.906993e-01 4.494616e-01 4.729943e-01 4.690831e-01 4.117590e-01 2.907608e-01 -2.443448e-03 1.315296e-01 8.622062e-02 1.230351e-01 6.413013e-02 1.288654e-01 6.165370e-02 3.384110e-02 -3.692625e-02 -7.367703e-02 -1.333381e-01 -1.678443e-01 -1.375818e-01 2.368622e-04
<VARIANCE> 38
 1.097400e+01 1.595871e+01 2.416574e+01 2.146921e+01 2.406659e+01 2.736054e+01 3.141705e+01 3.108170e+01 2.642705e+01 2.496567e+01 2.788194e+01 1.948351e+01 4.574004e-01 5.312405e-01 7.917678e-01 1.030229e+00 1.239605e+00 1.492847e+00 1.580103e+00 1.777702e+00 1.890931e+00 1.842639e+00 1.716650e+00 1.596179e+00 1.000000e-02 6.996530e-02 9.973056e-02 1.447924e-01 1.977368e-01 2.481373e-01 3.126876e-01 3.462726e-01 3.600212e-01 3.874760e-01 3.732457e-01 3.501946e-01 3.263869e-01 1.000000e-02
<GCONST> 8.323619e+01
<MIXTURE> 2 2.650644e-01
<MEAN> 38
 -1.254605e+01 -5.025936e+00 -4.000549e+00 6.946694e+00 3.803995e+00 3.043450e+00 1.914103e+00 3.779117e+00 3.914613e+00 1.283765e+00 9.100282e-01 6.761627e-01 -6.165321e-01 -6.978302e-01 -7.194290e-01 -5.242227e-01 -3.874671e-01 -1.716825e-01 -6.392954e-02 2.939351e-01 5.456516e-01 6.899589e-01 6.636440e-01 5.395762e-01 -4.914665e-03 3.050957e-01 1.536413e-01 6.779331e-02 -1.641406e-01 -1.419428e-01 -1.361262e-01 -7.807466e-02 -6.751954e-02 -2.359287e-02 7.021981e-02 1.426919e-01 1.187897e-01 3.709702e-03
<VARIANCE> 38
 1.489544e+01 1.832608e+01 2.945094e+01 2.576965e+01 2.533944e+01 2.903259e+01 2.750401e+01 2.943518e+01 2.616923e+01 2.572485e+01 2.511978e+01 2.046845e+01 1.019023e+00 7.368113e-01 1.001943e+00 1.245934e+00 1.387585e+00 1.623670e+00 1.710716e+00 1.866533e+00 1.954060e+00 1.898908e+00 1.762354e+00 1.645133e+00 1.000000e-02 9.996023e-02 1.209418e-01 1.954790e-01 2.933190e-01 3.226710e-01 3.416982e-01 3.657038e-01 3.779946e-01 3.942667e-01 3.746144e-01 3.472608e-01 3.230596e-01 1.000000e-02
<GCONST> 8.764817e+01
<MIXTURE> 3 3.376452e-01
<MEAN> 38
 -1.431607e+01 -7.251971e+00 -6.761646e+00 3.480080e+00 4.659280e-01 8.821082e-01 8.223209e-01 4.419962e+00 5.377602e+00 3.923740e+00 3.809010e+00 3.866987e+00 -6.783389e-02 -2.932631e-01 -3.099545e-01 -1.980387e-01 -1.517401e-01 -7.619359e-02 -4.778875e-02 -5.156862e-02 -4.573337e-03 2.193481e-02 1.221629e-02 2.725942e-02 -5.419154e-04 1.277256e-01 4.746932e-02 8.420186e-02 2.909103e-02 1.057474e-01 4.136078e-02 1.622853e-02 -4.739480e-02 -8.275148e-02 -1.371650e-01 -1.478890e-01 -1.315205e-01 -1.420025e-04
<VARIANCE> 38
 1.115351e+01 1.475633e+01 2.317325e+01 2.099963e+01 2.223337e+01 2.634343e+01 2.843790e+01 3.171017e+01 2.527305e+01 2.438631e+01 2.506119e+01 1.847441e+01 3.821678e-01 4.686449e-01 7.070795e-01 9.436419e-01 1.130706e+00 1.379810e+00 1.506016e+00 1.651591e+00 1.747867e+00 1.734971e+00 1.606966e+00 1.521671e+00 1.000000e-02 5.935473e-02 8.794524e-02 1.285411e-01 1.825691e-01 2.381757e-01 2.940560e-01 3.356989e-01 3.588523e-01 3.679698e-01 3.663339e-01 3.333518e-01 3.142142e-01 1.000000e-02
<GCONST> 8.085094e+01
<MIXTURE> 4 1.816477e-01
<MEAN> 38
 -1.245844e+01 -4.933393e+00 -4.892348e+00 6.070102e+00 3.195453e+00 2.631989e+00 1.345713e+00 3.340557e+00 3.814177e+00 1.604729e+00 7.571641e-01 1.236956e+00 -6.155457e-01 -9.333454e-01 -1.080660e+00 -9.456509e-01 -9.142544e-01 -7.376038e-01 -6.480454e-01 -2.784028e-01 6.469632e-02 2.414003e-01 2.667027e-01 2.916732e-01 -2.643990e-03 3.509746e-01 1.370821e-01 5.017648e-02 -1.823959e-01 -1.460217e-01 -1.461162e-01 -1.056862e-01 -1.217307e-01 -8.566600e-02 -7.574153e-03 5.551238e-02 4.841539e-02 4.358700e-03
<VARIANCE> 38
 1.614705e+01 1.824451e+01 2.900851e+01 2.537724e+01 2.413087e+01 2.909502e+01 2.604694e+01 2.910148e+01 2.495292e+01 2.306158e+01 2.294527e+01 1.948321e+01 1.370295e+00 9.032093e-01 1.181219e+00 1.477783e+00 1.575379e+00 1.748363e+00 1.795063e+00 1.903752e+00 1.972327e+00 1.915679e+00 1.793740e+00 1.657831e+00 1.000000e-02 1.122773e-01 1.284189e-01 2.127590e-01 3.320251e-01 3.586417e-01 3.627361e-01 3.728714e-01 3.909722e-01 4.033078e-01 3.641283e-01 3.504486e-01 3.251444e-01 1.000000e-02
<GCONST> 8.904520e+01
<STATE> 3
<NUMMIXES> 4
<SWEIGHTS> 1
 1.000000e+00
<MIXTURE> 1 2.230153e-01
<MEAN> 38
 -1.208979e+01 -7.725316e+00 -7.294793e+00 1.425721e+00 8.440194e-01 -1.488224e-01 -5.473188e-01 3.128942e+00 4.834684e+00 3.002096e+00 2.667535e+00 2.742582e+00 1.272312e+00 9.142988e-01 1.043128e+00 3.207704e-01 9.442818e-01 8.034496e-01 5.129438e-01 3.851585e-02 -3.470191e-02 -7.441146e-02 -7.954676e-02 -2.793562e-01 -1.576492e-03 6.594046e-01 6.436036e-01 4.409327e-01 2.132184e-01 1.231474e-01 2.083752e-01 1.060602e-01 -1.902424e-01 -2.989975e-01 -2.087297e-01 -1.884716e-01 -1.836831e-01 9.488749e-03
<VARIANCE> 38
 1.895275e+01 1.851323e+01 3.760119e+01 2.693746e+01 3.131456e+01 3.640401e+01 3.365890e+01 4.229792e+01 3.090500e+01 3.128244e+01 2.973061e+01 2.291515e+01 1.565288e+00 1.265640e+00 1.458926e+00 1.730501e+00 1.838752e+00 2.309884e+00 2.270133e+00 2.232396e+00 2.261980e+00 2.308298e+00 2.168136e+00 1.961010e+00 1.000000e-02 2.431477e-01 1.907663e-01 2.452037e-01 3.324512e-01 3.937342e-01 4.827362e-01 5.052572e-01 5.061327e-01 4.992077e-01 4.940059e-01 4.667141e-01 4.195989e-01 1.000000e-02
<GCONST> 9.725455e+01
<MIXTURE> 2 2.316505e-01
<MEAN> 38
 -9.849605e+00 -6.866401e+00 -5.583123e+00 4.247734e+00 3.420578e+00 2.403904e+00 1.903103e+00 3.516036e+00 4.817998e+00 2.883325e+00 2.007295e+00 1.585788e+00 3.145756e+00 2.135655e+00 1.533139e+00 1.942697e-01 2.504489e-01 7.618011e-02 -3.388699e-01 -1.192634e+00 -1.411833e+00 -1.137758e+00 -9.512952e-01 -8.945940e-01 4.394396e-02 9.022133e-01 5.247560e-01 8.169498e-03 -4.934761e-01 -5.644529e-01 -2.427022e-01 -3.901947e-01 -4.655382e-01 -4.726807e-01 -1.818672e-01 -5.334866e-02 -5.490398e-02 2.265703e-02
<VARIANCE> 38
 1.802690e+01 1.514634e+01 3.344651e+01 2.497928e+01 2.936253e+01 3.559401e+01 2.855151e+01 3.404089e+01 2.769792e+01 2.686685e+01 2.720740e+01 2.154724e+01 1.818052e+00 1.442442e+00 1.651486e+00 2.055260e+00 1.866534e+00 2.253252e+00 2.238550e+00 2.086986e+00 2.188237e+00 2.134532e+00 2.197613e+00 1.983814e+00 1.000000e-02 1.908481e-01 2.391284e-01 2.866808e-01 3.327177e-01 3.715315e-01 4.708482e-01 4.559332e-01 4.871773e-01 4.685402e-01 4.729926e-01 4.871193e-01 4.115342e-01 1.000000e-02
<GCONST> 9.616302e+01
<MIXTURE> 3 3.753319e-01
<MEAN> 38
 -1.280441e+01 -8.759509e+00 -8.048186e+00 1.913734e+00 3.119379e-01 1.776009e-01 2.203660e-01 3.942998e+00 5.977221e+00 4.320207e+00 3.857900e+00 3.562514e+00 1.067866e+00 2.230108e-01 3.549859e-01 -1.956041e-01 2.136962e-01 -8.201998e-02 -1.432084e-01 -4.151872e-01 -3.792953e-01 -4.691179e-01 -4.997514e-01 -4.976333e-01 -2.910519e-03 6.519203e-01 6.127822e-01 4.815616e-01 2.325343e-01 2.042091e-01 1.646871e-01 -2.646046e-02 -2.995194e-01 -4.481783e-01 -4.121260e-01 -3.994415e-01 -3.451828e-01 8.961130e-03
<VARIANCE> 38
 1.478010e+01 1.478479e+01 2.824798e+01 2.166299e+01 2.741389e+01 3.301695e+01 2.930006e+01 3.606124e+01 2.906098e+01 2.693184e+01 2.739747e+01 2.085340e+01 8.564111e-01 8.210834e-01 1.160915e+00 1.415442e+00 1.723911e+00 2.122367e+00 1.952647e+00 1.945822e+00 2.027457e+00 1.963013e+00 1.923522e+00 1.781917e+00 1.000000e-02 1.990241e-01 1.535031e-01 1.923318e-01 2.630385e-01 3.251276e-01 4.123226e-01 4.481160e-01 4.594505e-01 4.525271e-01 4.499060e-01 4.332141e-01 3.986919e-01 1.000000e-02
<GCONST> 9.119370e+01
<MIXTURE> 4 1.699532e-01
<MEAN> 38
 -1.001319e+01 -6.709093e+00 -3.583191e+00 5.361978e+00 2.891106e+00 2.049856e+00 2.358632e+00 5.039848e+00 5.383339e+00 2.540153e+00 3.346032e+00 1.893228e+00 3.484096e+00 1.934825e+00 1.042062e+00 -4.727727e-01 -4.313497e-01 -8.028713e-01 -1.468487e+00 -2.271739e+00 -2.240723e+00 -1.925367e+00 -1.988877e+00 -1.635868e+00 5.863502e-02 9.465129e-01 3.677303e-01 -2.223532e-01 -6.994261e-01 -5.626149e-01 -2.422478e-01 -5.164881e-01 -6.243367e-01 -5.722407e-01 -1.855459e-01 -3.202783e-01 -2.108243e-01 2.370720e-02
<VARIANCE> 38
 1.644961e+01 1.467525e+01 3.221475e+01 2.291531e+01 3.613676e+01 3.375523e+01 3.123111e+01 3.229298e+01 3.090025e+01 2.678911e+01 2.617757e+01 2.238458e+01 1.749443e+00 1.326167e+00 1.859150e+00 2.175135e+00 1.970847e+00 2.317371e+00 2.172414e+00 2.528737e+00 2.540485e+00 2.176801e+00 2.285711e+00 2.049516e+00 1.000000e-02 1.755073e-01 2.813475e-01 3.075047e-01 3.999846e-01 3.870817e-01 4.578023e-01 4.602650e-01 5.257421e-01 5.149602e-01 5.392612e-01 4.974782e-01 4.378464e-01 1.000000e-02
<GCONST> 9.749169e+01
<STATE> 4
<NUMMIXES> 4
<SWEIGHTS> 1
 1.000000e+00
<MIXTURE> 1 1.699987e-01
<MEAN> 38
 -4.126387e+00 -1.022260e+00 -3.059220e+00 5.411186e-01 2.060083e+00 2.140180e+00 -4.638922e-01 5.828572e-01 1.574467e+00 1.099427e+00 1.599996e+00 1.222258e+00 1.458899e+00 9.478887e-01 6.043071e-01 -4.698283e-01 1.635693e-01 5.089224e-01 3.933894e-01 -2.052017e-01 -1.686041e-01 1.092410e-01 1.297222e-01 3.915803e-02 6.341368e-03 -2.191755e-01 -1.975889e-01 -7.513164e-02 1.050729e-01 -2.539430e-02 -4.492714e-02 1.351116e-01 1.889101e-01 1.718193e-01 8.869676e-02 1.025793e-02 1.634080e-02 -2.547733e-03
<VARIANCE> 38
 8.366241e+01 2.463605e+01 4.405548e+01 4.787042e+01 4.353229e+01 4.579190e+01 4.205264e+01 5.193223e+01 4.163481e+01 3.535223e+01 3.473775e+01 2.799171e+01 2.977836e+00 2.225321e+00 2.385275e+00 2.885903e+00 2.627485e+00 2.870197e+00 3.142441e+00 2.755563e+00 2.722746e+00 2.798848e+00 2.426942e+00 2.048641e+00 1.000000e-02 4.960277e-01 3.101878e-01 3.570020e-01 4.928910e-01 5.244078e-01 5.505084e-01 6.160126e-01 5.897347e-01 5.689949e-01 5.270604e-01 4.939803e-01 4.265863e-01 1.000000e-02
<GCONST> 1.083827e+02
<MIXTURE> 2 3.074569e-01
<MEAN> 38
 1.240153e+00 7.535167e-01 -2.780848e+00 2.208970e+00 9.086568e-01 3.203709e-01 -1.453687e+00 -1.903872e+00 -6.732680e-01 -1.032745e+00 -1.084226e+00 -7.053152e-01 4.222013e+00 1.858124e+00 2.784887e-01 -1.800727e+00 -1.345110e+00 -1.611511e-01 -6.978254e-01 -1.235924e+00 -1.459334e+00 -5.149599e-01 -1.021211e-01 -3.043004e-01 7.658733e-02 -4.578685e-01 -6.674536e-01 -4.915735e-01 -4.257505e-01 -2.515970e-01 1.263508e-01 7.794094e-02 2.939792e-01 3.256710e-01 4.470234e-01 4.422103e-01 2.897619e-01 -3.816832e-03
<VARIANCE> 38
 2.883603e+01 1.539498e+01 3.492050e+01 3.754368e+01 2.834962e+01 3.708514e+01 2.698766e+01 2.724938e+01 2.572459e+01 2.447854e+01 2.029587e+01 1.996051e+01 1.506728e+00 2.407625e+00 2.851765e+00 3.798436e+00 2.857427e+00 3.424748e+00 3.176178e+00 3.247910e+00 2.924611e+00 3.194234e+00 3.064832e+00 2.441408e+00 1.000000e-02 3.732102e-01 2.347353e-01 2.236852e-01 3.948752e-01 4.130251e-01 4.127984e-01 4.276865e-01 4.411394e-01 4.224298e-01 4.306430e-01 3.742377e-01 3.445595e-01 1.000000e-02
<GCONST> 1.003927e+02
<MIXTURE> 3 2.337735e-01
<MEAN> 38
 9.725116e-01 -5.091564e-01 -1.432879e+00 2.294405e+00 -7.031232e-01 -1.352720e+00 -2.922105e+00 -2.529687e+00 -2.066097e+00 -3.100324e+00 -2.090314e+00 -2.342035e+00 4.395522e+00 1.436220e+00 -2.263477e-01 -2.326489e+00 -1.660512e+00 -8.009477e-01 -1.823343e+00 -2.305945e+00 -2.240088e+00 -9.371574e-01 -1.601653e+00 -1.375337e+00 8.860068e-02 -4.875846e-01 -6.740782e-01 -5.359925e-01 -4.427568e-01 -1.540226e-01 2.077532e-01 1.883006e-01 4.798923e-01 4.921625e-01 7.017300e-01 4.389055e-01 3.833849e-01 -5.711378e-03
<VARIANCE> 38
 2.850948e+01 1.386157e+01 4.993041e+01 3.793249e+01 4.093653e+01 4.126958e+01 3.019984e+01 3.020662e+01 3.247964e+01 2.344215e+01 2.198217e+01 1.874504e+01 1.316140e+00 2.846049e+00 3.072088e+00 3.693867e+00 2.855437e+00 3.595886e+00 3.161182e+00 4.052699e+00 3.508306e+00 3.681063e+00 3.553555e+00 2.659616e+00 1.000000e-02 4.046508e-01 2.085857e-01 2.575771e-01 4.587657e-01 4.310167e-01 4.313469e-01 4.731724e-01 5.153499e-01 5.101501e-01 4.550983e-01 4.336652e-01 3.850304e-01 1.000000e-02
<GCONST> 1.035410e+02
<MIXTURE> 4 2.887329e-01
<MEAN> 38
 7.169022e+00 -2.484458e-01 -6.611174e+00 -4.091536e+00 -2.101228e+00 1.901032e+00 -1.755566e+00 -3.324086e+00 -2.180084e+00 4.172850e-01 -5.594501e-02 -1.167029e+00 1.896636e+00 -3.836016e-01 -5.738536e-01 -1.614520e+00 -7.593253e-01 3.453038e-01 -1.833987e-01 -2.566921e-01 -4.106439e-01 4.053945e-01 2.215503e-01 -1.984792e-01 4.277158e-02 -1.032559e+00 -4.737172e-01 1.150220e-01 4.569272e-01 3.375777e-01 6.884240e-02 1.578734e-01 4.085522e-01 4.213639e-01 1.136497e-01 1.108867e-01 1.287667e-01 -1.520908e-02
<VARIANCE> 38
 3.127311e+01 2.764013e+01 3.832168e+01 4.643914e+01 4.089006e+01 5.045293e+01 3.935505e+01 3.562145e+01 3.977091e+01 3.340998e+01 3.484488e+01 3.127770e+01 2.028741e+00 2.098421e+00 1.942377e+00 2.805374e+00 2.525536e+00 2.911885e+00 2.802071e+00 2.893939e+00 2.631396e+00 3.049262e+00 2.920582e+00 2.156794e+00 1.000000e-02 3.133940e-01 2.923240e-01 2.773470e-01 4.253840e-01 4.129977e-01 4.485069e-01 4.735817e-01 4.908195e-01 4.402565e-01 4.174014e-01 4.554123e-01 3.922460e-01 1.000000e-02
<GCONST> 1.040044e+02
<TRANSP> 5
 0.000000e+00 1.000000e+00 0.000000e+00 0.000000e+00 0.000000e+00
 0.000000e+00 8.973453e-01 1.026547e-01 0.000000e+00 0.000000e+00
 0.000000e+00 0.000000e+00 7.133460e-01 2.866540e-01 0.000000e+00
 0.000000e+00 0.000000e+00 0.000000e+00 6.758407e-01 3.241594e-01
 0.000000e+00 0.000000e+00 0.000000e+00 0.000000e+00 0.000000e+00
<ENDHMM>
~h "g"
<BEGINHMM>
<NUMSTATES> 5
<STATE> 2
<NUMMIXES> 4
<SWEIGHTS> 1
 1.000000e+00
<MIXTURE> 1 3.449375e-01
<MEAN> 38
 4.069341e+00 1.254704e+01 1.045477e+01 5.440579e+00 -2.096338e+00 -3.115772e+00 2.144228e+00 -1.110590e+00 -2.058419e+00 1.123622e+00 -2.083063e+00 -2.794390e+00 -1.549369e-01 4.512394e-01 -1.923054e-01 4.384458e-01 9.668491e-01 4.965608e-01 8.281226e-02 8.182314e-02 4.520798e-01 -2.471216e-01 -4.476170e-02 2.316779e-01 -2.696260e-02 -3.384440e-02 -3.748974e-01 -2.992961e-01 -9.748644e-02 1.165220e-01 1.478111e-01 -6.254973e-02 -6.709971e-02 -1.106744e-01 3.648043e-02 3.041401e-02 2.977042e-02 2.245145e-03
<VARIANCE> 38
 2.236486e+01 2.518327e+01 2.772278e+01 2.185268e+01 3.119291e+01 3.267503e+01 2.645364e+01 3.501318e+01 3.987506e+01 2.666792e+01 2.842974e+01 2.289311e+01 6.601804e-01 1.462483e+00 1.434617e+00 1.333130e+00 1.860329e+00 1.493602e+00 1.870884e+00 2.156211e+00 2.176665e+00 1.559705e+00 1.686469e+00 1.616754e+00 1.000000e-02 8.236302e-02 1.788706e-01 2.525555e-01 2.007977e-01 2.802227e-01 2.567478e-01 3.603601e-01 3.626392e-01 3.750611e-01 2.834042e-01 2.763504e-01 2.800701e-01 1.000000e-02
<GCONST> 8.916356e+01
<MIXTURE> 2 1.802817e-01
<MEAN> 38
 4.110103e+00 9.249871e+00 8.384293e+00 4.100631e+00 -2.311273e+00 -4.007971e+00 4.490949e-01 -1.721049e+00 -4.170183e+00 4.026068e-01 -2.023192e+00 -3.638258e+00 -5.412714e-01 1.946517e-01 -2.185792e-01 1.033763e+00 1.765170e+00 2.757468e-01 -1.000834e-01 5.316205e-02 8.441561e-01 -2.141555e-01 -9.685166e-02 9.288593e-02 -3.737306e-02 -1.031861e-01 -6.658939e-01 -6.015381e-01 -1.428705e-01 2.074159e-01 2.998062e-01 -1.597453e-01 3.217537e-02 1.144995e-01 6.619271e-02 1.243752e-01 3.152893e-01 1.769941e-03
<VARIANCE> 38
 2.146756e+01 3.305473e+01 5.006177e+01 3.379128e+01 5.080526e+01 5.396203e+01 4.680933e+01 5.740536e+01 5.099348e+01 4.070332e+01 4.243623e+01 3.229390e+01 1.624417e+00 4.276494e+00 3.328520e+00 3.128457e+00 5.540229e+00 4.358671e+00 3.665425e+00 4.116833e+00 4.095866e+00 2.904188e+00 2.450543e+00 2.365735e+00 1.000000e-02 2.260019e-01 6.685641e-01 4.941337e-01 4.766337e-01 7.979429e-01 7.905219e-01 7.149272e-01 7.287529e-01 6.772316e-01 5.536899e-01 4.718516e-01 5.093201e-01 1.000000e-02
<GCONST> 1.128584e+02
<MIXTURE> 3 2.902200e-01
<MEAN> 38
 2.801177e+00 1.065194e+01 1.015907e+01 5.420107e+00 -2.292800e+00 -3.552791e+00 2.265103e+00 -1.363334e+00 -3.828378e+00 9.644410e-01 -1.327350e+00 -2.863728e+00 -3.378325e-01 1.890506e-01 -4.020794e-01 4.883036e-01 1.319122e+00 6.946115e-01 -6.450688e-02 -7.908551e-02 5.297421e-01 -4.242447e-01 -2.877696e-01 -1.153840e-01 -3.577409e-02 -2.710054e-02 -5.434238e-01 -4.625314e-01 -1.990989e-01 1.754521e-01 1.635496e-01 -1.870832e-01 -6.099806e-02 -2.627899e-02 3.973171e-02 -1.260197e-02 1.057786e-01 4.228764e-03
<VARIANCE> 38
 2.693604e+01 2.508041e+01 3.308893e+01 2.400369e+01 3.064025e+01 3.475587e+01 3.099372e+01 3.943663e+01 4.585202e+01 2.608526e+01 2.994780e+01 2.850453e+01 9.265785e-01 1.721476e+00 1.616310e+00 1.384627e+00 2.223493e+00 1.957645e+00 2.372891e+00 2.437113e+00 2.232085e+00 1.683633e+00 1.945487e+00 1.923543e+00 1.000000e-02 1.460802e-01 3.172045e-01 3.575002e-01 2.909870e-01 3.908959e-01 3.908256e-01 4.659659e-01 4.327863e-01 4.165083e-01 3.066637e-01 3.456792e-01 3.758410e-01 1.000000e-02
<GCONST> 9.596566e+01
<MIXTURE> 4 1.845615e-01
<MEAN> 38
 4.681009e+00 1.072372e+01 7.855515e+00 2.715144e+00 -3.492319e+00 -3.007913e+00 3.559296e-01 -3.498152e+00 -3.989110e+00 -5.497373e-01 -4.688853e+00 -4.194509e+00 -8.995632e-01 -8.761076e-01 -6.692978e-01 1.283678e+00 2.344081e+00 2.656404e-01 -2.975043e-01 -1.759425e-01 1.798926e-01 -4.183119e-01 1.102508e-01 1.190253e-02 -3.579296e-02 -2.142171e-01 -1.019275e+00 -7.555656e-01 -1.171508e-01 3.863053e-01 1.518621e-01 -2.175602e-01 1.375487e-01 2.771392e-02 1.065318e-01 2.758518e-01 3.016647e-01 4.024734e-03
<VARIANCE> 38
 1.924558e+01 2.946026e+01 4.758659e+01 3.436736e+01 4.814647e+01 4.864145e+01 4.599818e+01 4.574579e+01 3.671261e+01 3.990461e+01 5.925230e+01 3.179614e+01 1.889189e+00 6.418950e+00 3.902838e+00 3.775990e+00 6.265771e+00 5.416603e+00 5.564235e+00 3.681374e+00 3.970328e+00 3.769856e+00 3.401944e+00 3.044831e+00 1.000000e-02 2.243160e-01 6.544989e-01 5.702506e-01 4.968253e-01 7.601581e-01 7.115995e-01 7.887364e-01 6.243237e-01 5.287896e-01 6.697776e-01 6.508282e-01 4.329165e-01 1.000000e-02
<GCONST> 1.145764e+02
<STATE> 3
<NUMMIXES> 4
<SWEIGHTS> 1
 1.000000e+00
<MIXTURE> 1 3.061823e-01
<MEAN> 38
 -3.609741e-01 6.711552e+00 4.799843e+00 7.517689e+00 5.826110e+00 2.481320e+00 2.409847e+00 -9.400682e-01 -8.737857e-01 -1.295268e+00 -1.891345e+00 -1.427378e+00 -4.811524e-01 -8.207211e-01 -1.345738e+00 -8.630360e-02 1.032643e+00 1.129361e+00 6.318105e-01 3.728589e-01 5.667220e-01 2.695347e-01 3.386151e-01 2.099271e-01 -3.571491e-02 2.258307e-01 -1.465144e-01 -2.294361e-01 -4.225908e-01 -4.910809e-01 -3.204700e-01 -4.327828e-02 7.451816e-02 -3.627854e-02 2.966866e-01 1.691908e-01 4.586296e-02 9.882287e-03
<VARIANCE> 38
 2.775212e+01 3.008914e+01 4.420981e+01 2.550926e+01 3.586042e+01 3.761139e+01 3.695525e+01 3.479825e+01 3.883990e+01 2.997967e+01 2.346421e+01 1.579977e+01 1.098255e+00 1.776812e+00 2.420421e+00 2.056376e+00 2.341854e+00 2.520768e+00 2.757671e+00 2.921151e+00 2.750730e+00 2.474605e+00 1.598987e+00 1.544736e+00 1.000000e-02 2.158026e-01 4.154088e-01 6.360269e-01 4.697281e-01 4.054334e-01 5.887163e-01 6.272395e-01 4.872332e-01 5.522015e-01 5.467672e-01 3.542452e-01 2.870528e-01 1.000000e-02
<GCONST> 1.009621e+02
<MIXTURE> 2 2.167450e-01
<MEAN> 38
 -1.169186e+00 2.582859e+00 1.796456e+00 7.977467e+00 7.562864e+00 5.502505e-01 1.130817e+00 -3.932247e-01 -1.907737e+00 2.059746e-01 -1.907297e+00 -9.333206e-01 -7.150385e-01 -2.881999e+00 -2.921551e+00 -4.242361e-01 1.612804e+00 5.309763e-01 -4.094022e-01 4.084662e-01 7.452316e-01 7.783585e-01 6.960136e-01 7.873719e-01 -1.385774e-02 3.449754e-01 2.049060e-01 -6.922765e-02 -6.476045e-01 -9.086187e-01 -2.083981e-01 1.958860e-02 -5.016356e-02 -1.212579e-01 7.907938e-02 2.626186e-01 6.838267e-02 1.380140e-02
<VARIANCE> 38
 2.513168e+01 4.885389e+01 6.676558e+01 5.573344e+01 4.540477e+01 6.759348e+01 5.271624e+01 4.345879e+01 3.708665e+01 2.619101e+01 2.864618e+01 1.970228e+01 2.566811e+00 5.101033e+00 4.504794e+00 5.871994e+00 6.996438e+00 6.635512e+00 5.868732e+00 4.671422e+00 4.158381e+00 4.278082e+00 3.731947e+00 2.364813e+00 1.000000e-02 2.700519e-01 1.234016e+00 1.082776e+00 9.408059e-01 7.920829e-01 1.243592e+00 8.871442e-01 6.919162e-01 7.827910e-01 5.234249e-01 5.075379e-01 4.121809e-01 1.000000e-02
<GCONST> 1.189564e+02
<MIXTURE> 3 2.073558e-01
<MEAN> 38
 -4.032720e-01 1.832178e+00 4.135112e-02 7.237391e+00 8.178080e+00 9.796931e-01 1.495423e+00 -5.337328e-01 -2.579814e+00 -3.869179e-01 -1.908915e+00 -9.285449e-01 -8.130225e-01 -4.028491e+00 -3.948260e+00 -9.129101e-01 1.429491e+00 5.705774e-01 -6.762124e-01 5.383367e-01 3.263294e-01 5.407864e-01 6.193050e-01 6.352786e-01 -5.325910e-05 3.000800e-01 2.681197e-01 2.057142e-02 -6.578354e-01 -9.939086e-01 -3.030649e-01 -2.024115e-01 -1.452076e-01 -1.344311e-01 1.101183e-01 2.329467e-01 -4.546337e-03 1.523810e-02
<VARIANCE> 38
 2.574691e+01 5.339764e+01 7.614988e+01 4.634309e+01 4.359316e+01 6.618343e+01 4.440313e+01 3.833456e+01 3.544956e+01 2.211139e+01 2.502923e+01 2.188509e+01 2.714794e+00 4.514209e+00 5.346966e+00 7.581129e+00 8.153349e+00 7.853278e+00 5.940502e+00 4.950466e+00 4.976558e+00 3.851186e+00 5.033872e+00 2.725158e+00 1.000000e-02 2.089920e-01 1.146416e+00 1.047482e+00 6.552574e-01 7.704221e-01 9.834661e-01 7.538887e-01 6.261739e-01 7.805141e-01 4.225856e-01 5.197307e-01 4.035235e-01 1.000000e-02
<GCONST> 1.182171e+02
<MIXTURE> 4 2.697163e-01
<MEAN> 38
 5.702363e-01 6.153961e+00 5.216390e+00 7.110123e+00 3.961778e+00 5.704142e-01 3.149556e-01 -2.594673e+00 -3.067815e+00 -8.493140e-01 -1.508590e+00 -2.032613e+00 -2.923116e-01 -1.137821e+00 -1.617403e+00 -1.983036e-01 9.321774e-01 8.123915e-01 2.516504e-01 1.089387e-01 6.379259e-01 4.797374e-02 1.520818e-01 5.195716e-02 -2.784436e-02 1.842505e-01 -1.130533e-01 -2.230777e-01 -4.553853e-01 -5.353006e-01 -2.660250e-01 1.038025e-01 1.447318e-01 -2.960928e-02 2.003679e-01 6.884447e-02 7.429910e-02 1.025112e-02
<VARIANCE> 38
 2.799890e+01 3.470450e+01 4.687981e+01 3.552951e+01 3.081668e+01 4.369090e+01 4.589123e+01 4.228274e+01 3.507821e+01 2.799431e+01 2.938949e+01 2.059254e+01 1.600716e+00 2.798546e+00 3.498440e+00 2.590688e+00 2.876277e+00 3.512595e+00 3.287881e+00 3.250935e+00 2.862965e+00 2.758163e+00 2.317412e+00 1.701514e+00 1.000000e-02 2.435178e-01 6.362115e-01 7.419320e-01 5.463330e-01 5.392336e-01 7.002215e-01 7.962667e-01 5.729365e-01 5.627512e-01 5.284374e-01 4.292468e-01 3.345870e-01 1.000000e-02
<GCONST> 1.071413e+02
<STATE> 4
<NUMMIXES> 4
<SWEIGHTS> 1
 1.000000e+00
<MIXTURE> 1 3.123482e-01
<MEAN> 38
 -5.365369e-01 3.709371e-02 -3.847902e+00 1.776916e+00 4.452476e+00 8.468007e-01 -3.103563e-01 -1.677344e+00 -7.535149e-01 1.637750e+00 2.087547e+00 1.071421e+00 -2.360336e-01 9.126821e-01 1.090738e+00 5.855759e-01 2.270823e-02 1.354756e-02 8.400915e-01 1.376616e-01 4.747692e-01 1.258106e-01 1.238084e-01 8.511310e-02 -8.978067e-03 -5.200376e-02 2.922999e-01 5.064978e-01 2.625824e-01 -3.607966e-02 5.242470e-02 2.112970e-01 1.727451e-01 -5.244790e-02 -1.718683e-01 -2.019641e-01 -9.065699e-02 1.407805e-03
<VARIANCE> 38
 3.618071e+01 4.574004e+01 7.172603e+01 4.615842e+01 5.432024e+01 5.613149e+01 6.416464e+01 4.883844e+01 3.893891e+01 3.340559e+01 3.030912e+01 2.730745e+01 1.484805e+00 2.900290e+00 4.174141e+00 3.230472e+00 3.149542e+00 3.667871e+00 3.188018e+00 2.952020e+00 2.714241e+00 2.394804e+00 2.458638e+00 2.014102e+00 1.000000e-02 3.107834e-01 6.394054e-01 8.881545e-01 7.268862e-01 8.272724e-01 9.019637e-01 9.065172e-01 6.633943e-01 6.712945e-01 5.539831e-01 4.898114e-01 4.304577e-01 1.000000e-02
<GCONST> 1.129287e+02
<MIXTURE> 2 1.903367e-01
<MEAN> 38
 -2.078516e+00 -3.693336e+00 -3.014747e+00 3.663978e+00 3.470821e+00 -1.911509e+00 1.862068e-01 7.550777e-01 -8.742251e-01 1.712072e+00 5.482217e-01 1.478829e+00 9.156672e-01 2.572180e-01 -1.218690e-01 -6.802750e-01 -1.091160e+00 -8.591917e-01 -7.091901e-01 -4.460529e-01 -6.368348e-02 1.425148e-01 4.470521e-01 1.084405e-01 2.992475e-02 2.916946e-01 8.092422e-01 6.680142e-01 1.415654e-01 -2.648290e-01 1.094268e-02 9.466358e-02 -2.473457e-01 -1.513650e-01 -1.495702e-01 -1.994480e-02 -1.768309e-01 3.587207e-03
<VARIANCE> 38
 3.571517e+01 4.599004e+01 6.814970e+01 4.134260e+01 5.907844e+01 5.250484e+01 6.097009e+01 5.612574e+01 4.916508e+01 3.694209e+01 3.310065e+01 2.610804e+01 1.919820e+00 4.618361e+00 6.020624e+00 3.844518e+00 4.245088e+00 4.588879e+00 4.150043e+00 4.237748e+00 4.540760e+00 3.346158e+00 3.731312e+00 2.391511e+00 1.000000e-02 4.319949e-01 1.386265e+00 1.334705e+00 7.305974e-01 1.025420e+00 9.071458e-01 9.124501e-01 8.805093e-01 9.344211e-01 6.412905e-01 7.755615e-01 4.596592e-01 1.000000e-02
<GCONST> 1.201182e+02
<MIXTURE> 3 3.272440e-01
<MEAN> 38
 -1.405758e-02 7.152007e-01 -2.199380e+00 2.488264e+00 3.340563e+00 1.845847e-01 -2.133535e-01 -1.478855e+00 -1.184976e+00 9.997353e-01 1.219644e+00 8.133239e-01 2.656704e-01 4.771360e-01 3.017559e-01 -8.964702e-03 -4.490297e-01 -2.322294e-01 1.981629e-01 -3.248982e-01 -4.848875e-02 -1.904521e-01 -2.604482e-02 -9.119272e-02 6.243479e-03 1.223830e-02 2.600736e-01 3.692458e-01 1.502177e-01 -1.237177e-01 -2.563688e-02 1.000072e-01 2.974609e-02 -1.011752e-01 -1.087944e-01 -1.821762e-01 -1.332268e-01 4.531462e-03
<VARIANCE> 38
 3.817356e+01 4.539746e+01 6.226973e+01 3.817792e+01 4.544894e+01 5.389980e+01 6.112429e+01 4.377613e+01 3.905984e+01 3.336993e+01 3.095609e+01 3.478645e+01 1.383034e+00 2.768803e+00 3.515369e+00 2.723807e+00 3.510937e+00 3.513125e+00 3.087055e+00 3.170947e+00 2.690289e+00 2.603757e+00 2.222823e+00 1.893652e+00 1.000000e-02 2.880204e-01 7.282805e-01 9.529106e-01 6.757194e-01 7.335694e-01 8.699558e-01 8.914505e-01 6.021343e-01 6.432862e-01 5.409585e-01 4.888094e-01 3.980092e-01 1.000000e-02
<GCONST> 1.117240e+02
<MIXTURE> 4 1.700705e-01
<MEAN> 38
 -2.320065e+00 -5.122970e+00 -5.769244e+00 7.477890e-01 3.214944e+00 -2.932862e-01 3.272280e-01 1.001990e+00 -1.181843e+00 2.470348e+00 1.219519e+00 1.479614e+00 8.896965e-01 -1.013595e+00 -1.287017e+00 -1.598116e+00 -1.531588e+00 -1.006412e+00 -1.696043e+00 -1.068159e+00 -7.312775e-01 3.514669e-02 5.060505e-01 -1.136744e-01 5.474196e-02 2.268829e-01 1.033780e+00 9.474384e-01 3.922259e-01 -2.153758e-01 -1.965337e-01 1.488558e-02 -2.755138e-01 -6.835452e-02 -2.127487e-01 -1.076636e-01 -2.661150e-01 5.118786e-04
<VARIANCE> 38
 3.127318e+01 4.728741e+01 8.121712e+01 4.520153e+01 6.157718e+01 5.468337e+01 5.594843e+01 4.931474e+01 4.812877e+01 3.298772e+01 2.902669e+01 2.250923e+01 2.001840e+00 6.348727e+00 6.689114e+00 4.203020e+00 4.879066e+00 4.535912e+00 5.270522e+00 5.100473e+00 5.029525e+00 3.490524e+00 4.148509e+00 2.725998e+00 1.000000e-02 3.848274e-01 1.286262e+00 1.343986e+00 8.005815e-01 1.032874e+00 7.782843e-01 8.843886e-01 8.155065e-01 8.321008e-01 5.925846e-01 7.522047e-01 4.355628e-01 1.000000e-02
<GCONST> 1.205929e+02
<TRANSP> 5
 0.000000e+00 1.000000e+00 0.000000e+00 0.000000e+00 0.000000e+00
 0.000000e+00 6.948087e-01 3.051913e-01 0.000000e+00 0.000000e+00
 0.000000e+00 0.000000e+00 5.997277e-01 4.002723e-01 0.000000e+00
 0.000000e+00 0.000000e+00 0.000000e+00 7.270457e-01 2.729543e-01
 0.000000e+00 0.000000e+00 0.000000e+00 0.000000e+00 0.000000e+00
<ENDHMM>
~h "h"
<BEGINHMM>
<NUMSTATES> 5
<STATE> 2
<NUMMIXES> 4
<SWEIGHTS> 1
 1.000000e+00
<MIXTURE> 1 2.756181e-01
<MEAN> 38
 8.879415e-01 -4.383467e+00 -3.691184e-01 3.191855e+00 7.476291e+00 7.855169e+00 5.451887e+00 9.895996e-01 1.078948e+00 -1.528646e+00 -2.474252e+00 -7.845381e-01 -2.775642e-02 -1.523568e-02 2.169276e-02 -3.985458e-03 1.012647e-01 1.997580e-01 1.140828e-01 -1.874730e-01 -9.006782e-02 -1.196248e-02 1.374417e-01 7.572767e-02 1.865336e-03 9.496982e-02 9.201957e-02 -2.195771e-02 -9.863578e-02 -1.872812e-01 -1.825392e-01 -1.257288e-01 -2.181159e-02 -2.593975e-02 1.109534e-02 5.645007e-03 -2.553603e-02 1.847925e-03
<VARIANCE> 38
 1.220052e+01 2.220269e+01 4.209861e+01 3.267027e+01 5.937807e+01 4.794514e+01 5.059135e+01 4.038981e+01 3.745954e+01 3.543980e+01 3.249442e+01 2.937586e+01 3.122402e-01 4.587604e-01 7.429398e-01 1.015832e+00 1.460438e+00 1.564698e+00 1.718916e+00 1.729619e+00 1.789217e+00 1.795388e+00 1.666552e+00 1.447026e+00 1.000000e-02 3.021604e-02 5.962976e-02 1.203837e-01 1.648113e-01 2.156056e-01 2.643624e-01 2.951061e-01 3.224227e-01 3.332983e-01 3.347355e-01 3.208720e-01 2.881826e-01 1.000000e-02
<GCONST> 8.479440e+01
<MIXTURE> 2 2.145113e-01
<MEAN> 38
 2.697572e+00 -3.034546e+00 -5.227010e-02 1.941293e+00 2.569715e+00 3.181851e+00 3.322936e+00 2.494469e-01 -1.030160e+00 -2.508090e+00 -3.379570e+00 -1.464468e+00 6.364576e-01 5.749778e-02 -4.227469e-01 -5.780427e-01 -6.394283e-01 -1.007075e-01 5.023308e-02 2.208724e-02 -7.795558e-02 1.771996e-01 1.266857e-01 -1.038399e-01 1.891009e-02 -1.308804e-01 -1.161880e-01 -1.384630e-01 -6.827699e-02 4.175686e-02 4.440462e-02 6.234635e-02 7.363261e-02 1.017429e-01 8.238215e-02 1.201204e-01 7.067198e-02 -2.575353e-03
<VARIANCE> 38
 1.617454e+01 3.012400e+01 4.552194e+01 3.968656e+01 6.677300e+01 5.265363e+01 5.090889e+01 4.411817e+01 4.046831e+01 4.061715e+01 3.041413e+01 2.882374e+01 5.289404e-01 9.396104e-01 1.287102e+00 1.552693e+00 1.983691e+00 2.004131e+00 2.221973e+00 1.944764e+00 2.036204e+00 1.856122e+00 1.731171e+00 1.563275e+00 1.000000e-02 1.400746e-01 1.409784e-01 2.074400e-01 2.746362e-01 3.274148e-01 3.414306e-01 3.679538e-01 3.711132e-01 3.810137e-01 3.773484e-01 3.240466e-01 3.012178e-01 1.000000e-02
<GCONST> 9.430338e+01
<MIXTURE> 3 3.209604e-01
<MEAN> 38
 4.581860e-01 -5.619012e+00 -2.964079e-01 3.403085e+00 7.711224e+00 5.999972e+00 3.692969e+00 -3.917263e-01 -4.048912e-01 -3.676574e+00 -3.944330e+00 -2.057184e+00 4.347016e-02 -5.998908e-02 -1.046482e-01 -5.628429e-02 -1.300311e-02 4.281936e-02 -4.163319e-02 -2.737781e-01 -8.217566e-02 -1.598320e-02 1.057707e-02 -1.410766e-01 3.227769e-03 1.046061e-01 7.354590e-02 -7.349361e-02 -1.255230e-01 -2.160221e-01 -1.398092e-01 -8.669843e-02 1.581358e-02 -9.062391e-04 3.769590e-02 2.103623e-02 -1.634278e-02 1.665101e-03
<VARIANCE> 38
 1.188938e+01 1.956631e+01 3.765514e+01 2.963246e+01 5.907753e+01 4.330360e+01 5.726948e+01 4.203555e+01 4.320458e+01 4.267558e+01 2.993023e+01 3.005727e+01 3.131310e-01 4.390739e-01 7.016741e-01 1.001915e+00 1.423616e+00 1.520235e+00 1.679878e+00 1.714894e+00 1.739506e+00 1.673879e+00 1.582159e+00 1.435728e+00 1.000000e-02 2.883295e-02 5.750213e-02 1.105442e-01 1.598765e-01 2.047105e-01 2.602609e-01 2.874382e-01 3.136986e-01 3.216671e-01 3.185539e-01 3.002434e-01 2.796168e-01 1.000000e-02
<GCONST> 8.390159e+01
<MIXTURE> 4 1.888828e-01
<MEAN> 38
 2.456752e+00 -4.363171e+00 -6.541905e-01 1.360455e+00 2.386406e+00 2.091674e+00 7.266307e-01 -1.847447e+00 -2.809210e+00 -4.780457e+00 -5.002388e+00 -3.441015e+00 8.034219e-01 -1.186001e-01 -7.815472e-01 -8.864347e-01 -9.503003e-01 -3.212608e-01 -2.180909e-01 -1.116628e-01 -1.582652e-01 5.897673e-03 -1.611988e-01 -3.682590e-01 2.506037e-02 -2.007276e-01 -1.858075e-01 -1.836579e-01 -4.193820e-02 8.828840e-02 1.222664e-01 2.257303e-01 1.836137e-01 1.843771e-01 1.349076e-01 1.516307e-01 1.487961e-01 -4.720386e-03
<VARIANCE> 38
 1.652635e+01 2.693001e+01 3.949731e+01 3.521135e+01 7.092386e+01 4.192916e+01 5.830905e+01 4.743179e+01 4.238842e+01 4.097115e+01 2.916492e+01 2.745430e+01 5.444836e-01 9.354180e-01 1.232134e+00 1.536426e+00 1.931379e+00 1.935218e+00 2.263214e+00 1.979250e+00 2.015909e+00 1.844031e+00 1.719970e+00 1.508364e+00 1.000000e-02 1.798588e-01 1.402553e-01 1.949116e-01 2.578303e-01 3.249868e-01 3.097599e-01 3.627464e-01 3.769191e-01 3.825096e-01 3.741294e-01 3.221405e-01 2.924837e-01 1.000000e-02
<GCONST> 9.381797e+01
<STATE> 3
<NUMMIXES> 4
<SWEIGHTS> 1
 1.000000e+00
<MIXTURE> 1 1.848939e-01
<MEAN> 38
 3.966796e+00 8.009313e-01 1.576596e-01 -1.556353e+00 -1.469620e+00 3.251198e+00 4.923721e+00 1.649648e-01 -6.571042e-01 -1.141989e+00 -5.459461e-01 4.318115e-01 2.702514e-01 7.590562e-02 -1.831616e-01 -4.385900e-01 -5.216373e-01 -2.296517e-01 -7.717453e-02 7.646569e-02 1.255625e-02 9.348700e-02 2.280131e-01 7.079475e-02 1.118893e-02 -3.979099e-02 -3.928382e-02 -8.535225e-03 6.198465e-02 4.196545e-02 -2.940743e-02 -8.690094e-02 -9.987559e-03 1.561320e-02 6.180292e-03 -4.516842e-03 -3.656014e-02 -1.099990e-03
<VARIANCE> 38
