~o
<STREAMINFO> 1 38
<VECSIZE> 38<NULLD><MFCC_E_D_N_A_Z><DIAGC>
~h "@"
<BEGINHMM>
<NUMSTATES> 5
<STATE> 2
<NUMMIXES> 8
<SWEIGHTS> 1
 1.000000e+00
<MIXTURE> 1 9.437245e-02
<MEAN> 38
 6.141814e+00 -2.114217e-02 6.290383e-01 -6.777559e-01 -3.506420e+00 -2.926583e+00 -5.343288e+00 -1.520343e+00 1.962985e-01 1.060342e+00 4.349617e-01 9.936873e-01 3.328636e-01 3.530303e-01 2.375879e-01 2.415986e-01 1.494588e-01 3.317527e-01 1.795164e-01 1.453369e-01 2.030483e-01 2.731809e-01 1.637798e-01 2.834798e-01 2.457125e-04 -4.924625e-01 2.904153e-01 1.847101e-01 3.438704e-01 5.523600e-01 9.741309e-02 3.817854e-01 9.958225e-02 1.711029e-02 -1.251674e-01 -2.669466e-02 -6.268944e-02 -1.044930e-02
<VARIANCE> 38
 2.130934e+01 2.650105e+01 4.815992e+01 5.259381e+01 5.186285e+01 7.275671e+01 5.935729e+01 5.377111e+01 5.255315e+01 4.414918e+01 3.993690e+01 3.525530e+01 7.845437e-01 1.500335e+00 1.509051e+00 1.887093e+00 2.410175e+00 2.346554e+00 2.216479e+00 2.445094e+00 2.506708e+00 2.454027e+00 2.068729e+00 1.821221e+00 1.000000e-02 2.194440e-01 3.553230e-01 3.514536e-01 5.206045e-01 5.496536e-01 6.375232e-01 6.334605e-01 6.772479e-01 6.144454e-01 5.442303e-01 5.214970e-01 4.727322e-01 1.000000e-02
<GCONST> 1.052407e+02
<MIXTURE> 2 1.128988e-01
<MEAN> 38
 4.979809e+00 1.554853e+00 1.311842e+00 8.067286e-01 -1.890473e+00 -5.760556e+00 -5.352330e+00 -9.698833e-01 1.211613e+00 -3.397729e-01 -1.225093e+00 6.773806e-01 1.536089e+00 -3.427528e-01 -5.665667e-02 -4.104885e-01 -8.119471e-01 2.011092e-01 -3.943264e-01 -1.495635e-01 2.913793e-01 6.218699e-01 2.653623e-01 1.625764e-01 2.485286e-02 -8.823133e-01 -1.793492e-01 -3.733744e-02 1.641719e-01 4.840388e-01 4.035539e-01 4.736556e-01 4.015248e-01 1.528215e-01 7.229612e-02 2.345790e-01 1.079873e-01 -1.271975e-02
<VARIANCE> 38
 1.247795e+01 1.751100e+01 2.907398e+01 2.611204e+01 3.308302e+01 4.074906e+01 4.114623e+01 3.697144e+01 3.473234e+01 3.514371e+01 2.649250e+01 2.398443e+01 1.063174e+00 1.648284e+00 1.275857e+00 1.783487e+00 2.005554e+00 2.386892e+00 2.252489e+00 2.530406e+00 2.372730e+00 2.290653e+00 2.010084e+00 1.924152e+00 1.000000e-02 1.924213e-01 2.877491e-01 2.534021e-01 3.142021e-01 3.411318e-01 3.661721e-01 4.294095e-01 4.595049e-01 4.148088e-01 4.147633e-01 3.921114e-01 3.199559e-01 1.000000e-02
<GCONST> 9.551509e+01
<MIXTURE> 3 1.010890e-01
<MEAN> 38
 4.834653e+00 3.477924e-02 -3.955007e-01 -1.167782e+00 -2.887795e+00 -6.748392e+00 -6.602500e+00 -1.255690e+00 1.620174e-01 -2.413403e+00 -3.330023e+00 -5.579463e-01 1.918983e+00 -7.916622e-01 -2.176927e-01 -8.711948e-01 -1.081094e+00 8.274712e-03 -8.671084e-01 -1.422598e-01 2.794864e-01 5.454553e-01 -2.431087e-01 -1.019671e-01 3.345979e-02 -9.577756e-01 -1.412850e-01 4.102880e-02 3.261744e-01 5.796006e-01 5.273169e-01 6.484056e-01 5.531062e-01 3.576121e-01 3.634014e-01 5.254940e-01 2.513437e-01 -1.469063e-02
<VARIANCE> 38
 1.130790e+01 1.848795e+01 2.971459e+01 2.603625e+01 3.657800e+01 3.990071e+01 4.069030e+01 3.608709e+01 3.811520e+01 4.279081e+01 2.985468e+01 2.415523e+01 1.417772e+00 1.895062e+00 1.536240e+00 2.311045e+00 2.525307e+00 2.828407e+00 2.927201e+00 3.135387e+00 2.645849e+00 2.816790e+00 2.813216e+00 2.184676e+00 1.000000e-02 2.056742e-01 3.157196e-01 2.672951e-01 3.460928e-01 3.792225e-01 3.919691e-01 4.546793e-01 5.239533e-01 4.811137e-01 5.068132e-01 4.698331e-01 3.403354e-01 1.000000e-02
<GCONST> 9.974091e+01
<MIXTURE> 4 1.902987e-01
<MEAN> 38
 6.314394e+00 -1.892432e+00 3.042687e-01 -1.481305e+00 -3.049446e+00 -3.061287e+00 -6.415928e+00 -3.431429e-01 1.312281e+00 8.926886e-01 -3.622367e-01 -5.906466e-01 4.281040e-01 -3.489981e-01 4.727433e-02 -1.798490e-02 -1.969638e-01 3.133667e-01 -1.635661e-01 5.209407e-01 3.442983e-01 2.641967e-01 4.276996e-02 -1.098404e-03 6.868453e-03 -3.527536e-01 3.587589e-01 1.294261e-01 3.167593e-01 4.159129e-01 5.859618e-02 3.725986e-01 -8.057937e-02 -9.076687e-02 -7.717576e-02 4.122705e-03 7.459832e-02 -8.741615e-03
<VARIANCE> 38
 1.251084e+01 2.131422e+01 3.851686e+01 3.965800e+01 4.228093e+01 5.965285e+01 5.488861e+01 5.039704e+01 4.876171e+01 4.581626e+01 4.344938e+01 3.663404e+01 4.979379e-01 9.984731e-01 1.241213e+00 1.432359e+00 1.748266e+00 1.996832e+00 2.060464e+00 2.177314e+00 2.163414e+00 2.152617e+00 1.922966e+00 1.683612e+00 1.000000e-02 1.690183e-01 2.265818e-01 2.423916e-01 3.210533e-01 3.763506e-01 4.307854e-01 4.688607e-01 4.969518e-01 4.688498e-01 4.309672e-01 4.357174e-01 3.754931e-01 1.000000e-02
<GCONST> 9.722829e+01
<MIXTURE> 5 1.745055e-01
<MEAN> 38
 5.754052e+00 -2.975893e+00 -3.366883e-01 -2.718601e+00 -3.647836e+00 -3.778383e+00 -7.273021e+00 -7.966880e-01 5.657369e-01 -3.920892e-02 -1.588187e+00 -1.671314e+00 2.982228e-01 -6.356288e-01 -1.134485e-01 -2.682436e-01 -4.181884e-01 1.386895e-01 -3.611341e-01 4.965336e-01 2.222123e-01 3.877400e-02 -2.144679e-01 -2.928178e-01 1.022114e-02 -3.153936e-01 3.128883e-01 9.177068e-02 2.723586e-01 3.393129e-01 8.818519e-03 3.052877e-01 -1.140534e-01 -1.080069e-01 -1.005680e-01 -1.593442e-02 4.036479e-02 -7.649046e-03
<VARIANCE> 38
 1.227509e+01 2.163243e+01 3.876947e+01 3.947130e+01 4.365770e+01 5.885038e+01 5.383146e+01 5.117882e+01 5.063322e+01 5.002909e+01 4.812958e+01 3.744302e+01 4.831728e-01 9.173548e-01 1.265590e+00 1.402000e+00 1.685579e+00 1.990315e+00 2.091414e+00 2.137312e+00 2.191535e+00 2.145835e+00 1.993280e+00 1.709772e+00 1.000000e-02 1.667109e-01 2.015960e-01 2.386431e-01 3.017834e-01 3.625620e-01 4.106416e-01 4.543956e-01 4.733256e-01 4.420588e-01 4.182139e-01 4.239284e-01 3.592769e-01 1.000000e-02
<GCONST> 9.685720e+01
<MIXTURE> 6 1.274378e-01
<MEAN> 38
 4.634706e+00 5.920414e-01 8.041230e-01 5.556597e-02 -2.485734e+00 -6.382684e+00 -6.467193e+00 -1.778288e+00 7.646391e-01 -5.312732e-01 -1.832227e+00 -4.228821e-01 1.576574e+00 -7.368847e-01 -2.317712e-01 -5.936942e-01 -1.142794e+00 -4.825786e-02 -7.316190e-01 -3.233082e-01 5.764235e-02 3.513418e-01 5.671443e-02 -2.468190e-01 3.073211e-02 -8.571436e-01 -2.110080e-01 -8.902368e-02 7.753909e-02 3.951482e-01 3.380442e-01 4.030282e-01 3.634395e-01 1.232905e-01 2.437000e-02 1.555369e-01 9.115266e-02 -1.276233e-02
<VARIANCE> 38
 1.153675e+01 1.670634e+01 2.803426e+01 2.582318e+01 3.267321e+01 3.985330e+01 3.995325e+01 3.706388e+01 3.534234e+01 3.770556e+01 2.716650e+01 2.362283e+01 1.069080e+00 1.506363e+00 1.314276e+00 1.796254e+00 1.973667e+00 2.392818e+00 2.397347e+00 2.601772e+00 2.346003e+00 2.346403e+00 2.207082e+00 1.914662e+00 1.000000e-02 1.898887e-01 2.761156e-01 2.476399e-01 3.040559e-01 3.317572e-01 3.609595e-01 4.169368e-01 4.325375e-01 3.889679e-01 3.986798e-01 3.724227e-01 3.051397e-01 1.000000e-02
<GCONST> 9.506303e+01
<MIXTURE> 7 1.172079e-01
<MEAN> 38
 5.827851e+00 -1.134608e+00 8.428112e-02 -1.792473e+00 -4.231040e+00 -3.513027e+00 -6.206850e+00 -2.183979e+00 -3.915838e-01 3.296677e-01 -4.098099e-01 6.172437e-02 2.437265e-01 -8.422238e-02 1.526752e-02 -5.964474e-02 -1.833281e-01 1.162067e-01 -1.057585e-01 5.001143e-02 6.003705e-02 7.174687e-02 -1.054187e-01 -3.149504e-02 6.298189e-03 -4.521062e-01 2.322118e-01 1.210383e-01 2.703288e-01 4.665269e-01 3.433868e-02 2.935779e-01 3.544857e-02 -2.614326e-02 -1.433195e-01 -6.199169e-02 -7.495184e-02 -8.990711e-03
<VARIANCE> 38
 1.911867e+01 2.604285e+01 4.707729e+01 5.239635e+01 5.122100e+01 7.373297e+01 5.952543e+01 5.529544e+01 5.418629e+01 4.694198e+01 4.360246e+01 3.690551e+01 7.330303e-01 1.358083e+00 1.448968e+00 1.838171e+00 2.278991e+00 2.314967e+00 2.227599e+00 2.376670e+00 2.454765e+00 2.425021e+00 2.082694e+00 1.788038e+00 1.000000e-02 2.109140e-01 3.104295e-01 3.301421e-01 4.755392e-01 5.063403e-01 5.964214e-01 6.046253e-01 6.279382e-01 5.787209e-01 5.173065e-01 4.958357e-01 4.438186e-01 1.000000e-02
<GCONST> 1.041507e+02
<MIXTURE> 8 8.216503e-02
<MEAN> 38
 4.359415e+00 -9.755723e-01 -1.351830e+00 -2.369185e+00 -3.821331e+00 -7.696294e+00 -7.447277e+00 -2.064452e+00 -9.515690e-01 -3.588546e+00 -4.489521e+00 -1.455611e+00 2.016563e+00 -1.174976e+00 -5.243286e-01 -1.330344e+00 -1.576283e+00 -3.943065e-01 -1.373704e+00 -4.310974e-01 -1.204344e-01 4.363776e-02 -8.828433e-01 -5.774845e-01 4.203857e-02 -9.403016e-01 -2.190005e-01 -3.683781e-03 2.746188e-01 5.378175e-01 5.028618e-01 6.200206e-01 5.732459e-01 3.840981e-01 3.890418e-01 5.125427e-01 2.295741e-01 -1.524849e-02
<VARIANCE> 38
 1.092213e+01 1.827189e+01 2.970516e+01 2.515555e+01 3.680193e+01 3.767918e+01 3.960564e+01 3.439806e+01 3.819785e+01 4.437314e+01 2.948614e+01 2.481379e+01 1.485985e+00 1.876829e+00 1.648387e+00 2.491187e+00 2.698237e+00 3.001324e+00 3.212563e+00 3.238871e+00 2.706045e+00 3.032729e+00 3.313478e+00 2.220421e+00 1.000000e-02 2.061412e-01 2.930117e-01 2.580904e-01 3.276534e-01 3.704326e-01 3.961927e-01 4.406700e-01 5.016169e-01 4.756901e-01 5.038937e-01 4.506557e-01 3.364784e-01 1.000000e-02
<GCONST> 9.997677e+01
<STATE> 3
<NUMMIXES> 8
<SWEIGHTS> 1
 1.000000e+00
<MIXTURE> 1 5.980659e-02
<MEAN> 38
 5.943424e+00 1.658806e+00 2.164468e+00 1.730226e+00 -2.179647e+00 -5.537145e+00 -5.868650e+00 -2.763940e-01 1.188579e+00 3.231579e-01 -1.100768e+00 1.576062e+00 -6.338521e-01 1.730401e+00 7.221118e-01 1.001979e+00 1.376378e+00 6.438789e-01 1.067430e+00 8.574142e-02 2.446201e-01 -1.517237e-06 1.977791e-01 -1.573121e-02 -2.917507e-02 -4.649294e-01 2.158633e-01 2.454330e-01 2.137966e-01 2.976388e-01 2.433785e-01 3.784177e-01 1.204802e-01 -5.706163e-02 -1.195997e-01 1.152896e-02 -1.665150e-01 -9.613896e-03
<VARIANCE> 38
 1.403831e+01 1.915720e+01 3.031793e+01 2.717171e+01 4.167174e+01 4.571464e+01 4.408075e+01 4.124561e+01 4.318375e+01 4.241616e+01 3.367267e+01 3.288021e+01 1.239069e+00 1.704373e+00 1.637082e+00 2.027307e+00 2.323436e+00 2.610427e+00 2.724012e+00 3.033681e+00 2.975175e+00 2.665226e+00 2.560118e+00 2.278567e+00 1.000000e-02 1.624752e-01 2.749798e-01 2.648592e-01 2.898047e-01 4.325646e-01 4.169714e-01 4.262583e-01 4.830543e-01 4.978991e-01 4.743225e-01 4.170071e-01 4.028230e-01 1.000000e-02
<GCONST> 1.000179e+02
<MIXTURE> 2 1.662111e-01
<MEAN> 38
 5.907186e+00 -9.565769e-01 2.258808e+00 1.151085e+00 -3.252739e+00 -4.570502e+00 -4.406780e+00 1.658430e+00 1.362861e+00 -2.608201e-01 -8.231692e-01 5.772787e-01 8.228073e-02 3.853289e-01 1.838781e-01 4.271450e-01 4.189709e-01 3.148988e-01 2.800063e-01 3.764319e-03 -1.264645e-02 4.743101e-02 -8.351939e-03 1.691986e-01 -9.249259e-03 -1.137060e-01 2.199571e-01 6.899815e-02 1.338571e-01 2.319216e-01 9.126588e-02 1.618041e-01 -9.414292e-02 -4.927804e-02 -8.946826e-03 -1.105237e-02 2.177770e-02 -4.972750e-03
<VARIANCE> 38
 9.041101e+00 1.646184e+01 2.788737e+01 2.927115e+01 3.338757e+01 4.395633e+01 5.646018e+01 3.962690e+01 3.905867e+01 3.771231e+01 3.184469e+01 3.473285e+01 2.550414e-01 6.564983e-01 6.986824e-01 8.786917e-01 1.170714e+00 1.219424e+00 1.326931e+00 1.351436e+00 1.374975e+00 1.300088e+00 1.183365e+00 1.081422e+00 1.000000e-02 5.816444e-02 1.205562e-01 1.141140e-01 1.633732e-01 1.995752e-01 2.211081e-01 2.613159e-01 2.565864e-01 2.629822e-01 2.396685e-01 2.224731e-01 2.118782e-01 1.000000e-02
<GCONST> 8.055288e+01
<MIXTURE> 3 2.053754e-01
<MEAN> 38
 5.133691e+00 -2.507093e+00 1.620302e+00 -6.831658e-01 -3.316612e+00 -4.949845e+00 -3.747065e+00 2.216428e+00 1.131248e+00 -6.302440e-01 -1.966893e+00 1.006239e-01 8.003802e-02 9.816398e-02 9.414673e-02 1.922311e-01 1.932567e-01 1.971968e-01 1.779288e-01 1.627245e-01 6.680502e-02 1.288966e-02 -1.741455e-02 3.878949e-02 -5.273116e-03 -8.867684e-03 1.752751e-01 4.834387e-02 1.473691e-01 1.395929e-01 7.211395e-02 3.779871e-02 -1.015113e-01 -2.362558e-02 1.635476e-02 5.496449e-02 2.820301e-02 -3.717699e-03
<VARIANCE> 38
 9.767529e+00 1.696802e+01 2.931658e+01 3.015877e+01 3.608599e+01 4.296666e+01 5.523613e+01 3.986200e+01 4.309769e+01 4.690602e+01 3.969978e+01 3.424739e+01 1.958989e-01 4.630566e-01 5.837261e-01 7.135503e-01 9.048525e-01 1.006650e+00 1.123042e+00 1.174484e+00 1.175582e+00 1.158206e+00 1.044293e+00 9.362392e-01 1.000000e-02 4.023851e-02 7.722554e-02 8.658431e-02 1.233142e-01 1.526929e-01 1.684954e-01 1.930435e-01 1.980910e-01 1.976989e-01 1.988701e-01 1.882869e-01 1.644737e-01 1.000000e-02
<GCONST> 7.563910e+01
<MIXTURE> 4 7.923699e-02
<MEAN> 38
 6.273859e+00 -1.975983e-01 6.880329e-01 -1.689681e-01 -2.460006e+00 -3.968558e+00 -6.202410e+00 -9.466787e-01 1.197330e+00 1.152622e-01 -1.529072e+00 -3.330836e-02 -9.699004e-02 1.048380e+00 3.860613e-01 6.883309e-01 8.770174e-01 4.539154e-01 7.051228e-01 -1.877556e-01 -2.286702e-02 1.018203e-01 1.493619e-01 4.948994e-02 -1.609238e-02 -3.459773e-01 2.783168e-01 1.703034e-01 2.612184e-01 3.180950e-01 1.300343e-01 3.626244e-01 4.788431e-02 -8.698950e-02 -2.917112e-02 7.486076e-02 -9.617105e-03 -8.264039e-03
<VARIANCE> 38
 1.573402e+01 2.375515e+01 3.924723e+01 4.000636e+01 4.221603e+01 5.709581e+01 5.020498e+01 5.080367e+01 5.107887e+01 5.579216e+01 4.541197e+01 3.558820e+01 9.911112e-01 1.663520e+00 1.628410e+00 2.249846e+00 2.537711e+00 2.722238e+00 2.818592e+00 3.034490e+00 2.925387e+00 2.841484e+00 2.511757e+00 2.188938e+00 1.000000e-02 1.603337e-01 2.652307e-01 2.545070e-01 3.293561e-01 3.758274e-01 4.353862e-01 4.616742e-01 5.445151e-01 5.376165e-01 5.402647e-01 4.684067e-01 3.935758e-01 1.000000e-02
<GCONST> 1.028308e+02
<MIXTURE> 5 2.004046e-01
<MEAN> 38
 5.370679e+00 -2.112597e+00 1.316673e+00 -2.184303e-01 -4.266740e+00 -5.652527e+00 -5.685740e+00 8.079212e-01 8.962758e-01 -8.494341e-01 -1.583145e+00 -4.130868e-01 5.180702e-03 1.023483e-01 1.402242e-02 1.549795e-01 1.433562e-01 1.089416e-01 9.347686e-02 -6.225539e-02 -1.211775e-01 -9.063236e-02 -1.521139e-01 -6.526234e-02 -4.173236e-03 -1.118881e-01 1.649222e-01 2.911478e-02 7.759197e-02 1.719636e-01 2.915697e-02 9.054667e-02 -1.241965e-01 -8.471025e-02 -4.637519e-02 -4.976753e-02 -2.264527e-02 -4.233732e-03
<VARIANCE> 38
 9.293853e+00 1.670237e+01 2.810279e+01 3.043661e+01 3.410394e+01 4.385149e+01 5.456670e+01 4.079556e+01 4.097936e+01 4.183866e+01 3.514027e+01 3.448574e+01 2.401888e-01 6.093862e-01 6.784257e-01 8.542438e-01 1.107174e+00 1.172085e+00 1.288261e+00 1.338118e+00 1.321700e+00 1.280171e+00 1.161892e+00 1.046184e+00 1.000000e-02 5.793262e-02 1.085648e-01 1.099202e-01 1.560381e-01 1.939359e-01 2.122238e-01 2.528924e-01 2.473769e-01 2.440668e-01 2.304156e-01 2.140110e-01 2.017905e-01 1.000000e-02
<GCONST> 7.993256e+01
<MIXTURE> 6 1.468056e-01
<MEAN> 38
 4.406255e+00 -3.774949e+00 5.364172e-01 -2.379880e+00 -4.472026e+00 -6.254026e+00 -4.532704e+00 1.575886e+00 2.205762e-01 -1.905615e+00 -3.501843e+00 -9.150549e-01 -1.619878e-02 -9.226366e-02 -7.783071e-02 -3.627235e-02 -4.996013e-03 1.360930e-02 1.423268e-03 4.273773e-02 -7.551067e-02 -1.855881e-01 -2.161214e-01 -2.049229e-01 -2.675610e-03 -8.151310e-03 1.338388e-01 1.671123e-02 9.963905e-02 8.402602e-02 1.805373e-02 -3.040711e-02 -1.372893e-01 -6.052878e-02 -2.301422e-02 2.124727e-02 -2.494791e-02 -3.159040e-03
<VARIANCE> 38
 9.747724e+00 1.686165e+01 2.959892e+01 2.963253e+01 3.634651e+01 4.083725e+01 5.333915e+01 4.011685e+01 4.560122e+01 5.215469e+01 4.405272e+01 3.333322e+01 1.892245e-01 4.423310e-01 5.794261e-01 6.913935e-01 8.813173e-01 9.881093e-01 1.104666e+00 1.194447e+00 1.158715e+00 1.178992e+00 1.056752e+00 9.388754e-01 1.000000e-02 3.810913e-02 7.079347e-02 8.273096e-02 1.174849e-01 1.469591e-01 1.633859e-01 1.861265e-01 1.930209e-01 1.839330e-01 1.907390e-01 1.793576e-01 1.607859e-01 1.000000e-02
<GCONST> 7.509212e+01
<MIXTURE> 7 6.609684e-02
<MEAN> 38
 5.832378e+00 -1.450095e+00 -4.157302e-01 -1.659863e+00 -3.350380e+00 -4.749411e+00 -6.925066e+00 -1.745540e+00 5.051003e-01 -8.856999e-01 -2.822362e+00 -9.324033e-01 -1.398913e-01 6.247737e-01 1.435145e-01 3.718536e-01 4.923846e-01 1.759014e-01 3.874669e-01 -4.016858e-01 -2.742646e-01 -1.808826e-01 -1.186921e-01 -2.509903e-01 -9.184199e-03 -3.277104e-01 2.060872e-01 1.100125e-01 1.979596e-01 2.433089e-01 6.644589e-02 2.622240e-01 -5.295231e-03 -1.295450e-01 -5.941790e-02 5.830659e-02 -3.506139e-02 -6.443100e-03
<VARIANCE> 38
 1.541914e+01 2.486977e+01 4.042241e+01 4.108441e+01 4.259501e+01 5.846402e+01 5.002229e+01 5.258085e+01 5.302290e+01 6.332290e+01 5.134307e+01 3.657630e+01 1.003111e+00 1.687546e+00 1.694855e+00 2.313820e+00 2.573915e+00 2.762335e+00 2.917809e+00 3.069782e+00 2.899987e+00 2.936980e+00 2.554973e+00 2.195851e+00 1.000000e-02 1.650863e-01 2.535058e-01 2.447294e-01 3.295579e-01 3.644839e-01 4.250610e-01 4.572502e-01 5.408392e-01 5.180331e-01 5.304290e-01 4.628176e-01 3.812732e-01 1.000000e-02
<GCONST> 1.032790e+02
<MIXTURE> 8 7.591045e-02
<MEAN> 38
 5.446489e+00 5.046849e-01 1.471793e+00 5.890710e-01 -2.983627e+00 -6.175869e+00 -6.880298e+00 -1.230172e+00 4.944627e-01 -6.654115e-01 -1.973449e+00 6.400018e-01 -7.371184e-01 1.326778e+00 4.754370e-01 6.962983e-01 1.007365e+00 3.406010e-01 7.273312e-01 -2.067363e-01 -8.205206e-02 -3.123799e-01 -5.379481e-02 -2.138721e-01 -2.199501e-02 -4.721282e-01 1.597617e-01 1.579043e-01 1.375319e-01 2.476971e-01 1.854398e-01 2.993110e-01 6.537062e-02 -1.046331e-01 -1.372559e-01 -1.696114e-02 -1.643979e-01 -7.291395e-03
<VARIANCE> 38
 1.413173e+01 1.981770e+01 3.146561e+01 2.876737e+01 4.104763e+01 4.718860e+01 4.366265e+01 4.212078e+01 4.444740e+01 4.769736e+01 3.638671e+01 3.288579e+01 1.367339e+00 1.726806e+00 1.655972e+00 2.093055e+00 2.432080e+00 2.651995e+00 2.775902e+00 3.003616e+00 2.966406e+00 2.765060e+00 2.587703e+00 2.281238e+00 1.000000e-02 1.688436e-01 2.647501e-01 2.499972e-01 2.888274e-01 4.054155e-01 4.049625e-01 4.256466e-01 4.825674e-01 4.854935e-01 4.671317e-01 4.098781e-01 3.838077e-01 1.000000e-02
<GCONST> 1.004125e+02
<STATE> 4
<NUMMIXES> 8
<SWEIGHTS> 1
 1.000000e+00
<MIXTURE> 1 1.086494e-01
<MEAN> 38
 1.090501e+00 6.291408e+00 6.927166e+00 6.740688e+00 1.428719e+00 -2.710824e+00 8.897052e-01 1.854232e+00 -1.703661e-02 -2.226292e+00 -1.024726e+00 1.799206e+00 -1.173933e+00 5.011560e-01 3.408046e-01 9.752321e-01 1.495976e+00 1.288332e+00 1.051997e+00 4.599337e-01 3.377029e-01 1.916092e-02 2.256883e-01 -9.519285e-02 -4.342892e-02 -6.667712e-02 -3.189085e-01 -2.333345e-01 -1.161189e-01 3.392209e-02 1.786591e-01 3.307432e-02 4.688260e-02 5.940234e-02 1.222512e-01 2.828353e-02 -6.741551e-02 -1.492146e-03
<VARIANCE> 38
 1.664886e+01 2.647194e+01 2.461077e+01 2.501826e+01 3.635104e+01 4.423391e+01 4.247845e+01 3.254182e+01 3.309438e+01 3.310564e+01 2.800775e+01 2.469866e+01 1.131817e+00 1.899090e+00 1.646262e+00 1.719028e+00 2.038481e+00 2.143635e+00 2.136008e+00 2.349321e+00 2.422239e+00 2.309610e+00 2.197716e+00 2.054162e+00 1.000000e-02 1.107949e-01 1.818148e-01 2.192172e-01 2.408276e-01 3.264070e-01 3.587847e-01 3.619758e-01 3.853095e-01 3.965078e-01 3.772476e-01 3.516136e-01 3.407783e-01 1.000000e-02
<GCONST> 9.443266e+01
<MIXTURE> 2 1.190750e-01
<MEAN> 38
 6.348993e+00 2.667837e+00 1.138970e+00 1.974800e+00 2.210418e+00 -1.953778e-01 -2.620397e+00 -1.940693e+00 -3.107357e-01 1.353126e-01 -1.498026e+00 -1.618520e+00 -1.388567e-01 1.216307e+00 6.476454e-01 9.340553e-01 7.104824e-01 4.002823e-01 9.702871e-01 -4.299078e-01 -4.697748e-01 6.866767e-02 9.107001e-02 1.862562e-01 -2.255085e-02 -1.425246e-01 4.446771e-02 1.545513e-01 1.051863e-01 -1.395652e-01 -1.170265e-01 5.008215e-02 6.156406e-02 2.892487e-02 3.720019e-03 3.003785e-02 1.177619e-01 -2.713185e-03
<VARIANCE> 38
 1.374240e+01 2.541775e+01 3.342898e+01 4.138750e+01 3.970755e+01 4.799564e+01 5.205918e+01 4.966978e+01 4.387073e+01 4.815220e+01 4.005818e+01 3.326347e+01 7.129716e-01 1.513703e+00 1.568969e+00 1.754825e+00 2.205009e+00 2.636431e+00 2.695922e+00 3.063282e+00 3.105032e+00 2.581959e+00 2.199695e+00 2.106417e+00 1.000000e-02 8.495875e-02 1.894388e-01 2.117370e-01 2.770396e-01 3.538089e-01 3.565115e-01 3.983117e-01 4.333207e-01 4.111753e-01 4.198263e-01 3.631115e-01 3.285611e-01 1.000000e-02
<GCONST> 9.787826e+01
<MIXTURE> 3 1.550971e-01
<MEAN> 38
 9.386221e-01 6.837224e+00 6.487064e+00 6.187444e+00 2.312347e+00 -2.248266e+00 -1.033188e+00 1.256162e-01 -1.465075e-01 -1.957308e+00 -1.641045e+00 1.328200e-01 -1.405072e+00 5.565403e-01 5.309539e-01 1.017095e+00 1.333157e+00 1.074915e+00 1.076138e+00 4.621393e-01 1.606813e-01 -1.329178e-01 1.489388e-01 -3.897213e-02 -4.319506e-02 -4.954133e-02 -4.426921e-01 -3.158313e-01 -1.821056e-01 -5.193547e-02 1.319022e-01 7.155911e-02 1.429222e-01 1.002965e-01 1.519384e-01 9.892795e-02 6.336916e-02 -6.464355e-04
<VARIANCE> 38
 2.116780e+01 2.830136e+01 2.843332e+01 3.076410e+01 3.900174e+01 4.376656e+01 4.213811e+01 3.701828e+01 3.893198e+01 3.801945e+01 2.949384e+01 2.551992e+01 1.743909e+00 2.215023e+00 2.172461e+00 2.167827e+00 2.696553e+00 2.721020e+00 2.667376e+00 2.975007e+00 2.851990e+00 2.708062e+00 2.497616e+00 2.322337e+00 1.000000e-02 1.716226e-01 2.469675e-01 2.765084e-01 3.215334e-01 3.972487e-01 4.115730e-01 4.176275e-01 4.586958e-01 4.713984e-01 4.557744e-01 3.992108e-01 3.762234e-01 1.000000e-02
<GCONST> 1.008059e+02
<MIXTURE> 4 1.193338e-01
<MEAN> 38
 6.717166e+00 1.143948e+00 -4.316937e-01 -3.300132e-01 6.950650e-01 -5.629326e-01 -3.160419e+00 -2.692186e+00 -6.294549e-01 9.427969e-01 -1.252444e+00 -2.396391e+00 7.027895e-02 8.690168e-01 4.017252e-01 6.558829e-01 4.854437e-01 3.925689e-01 8.723140e-01 -4.736464e-01 -4.824940e-01 1.803100e-01 7.234132e-02 7.725652e-02 -1.535360e-02 -1.176245e-01 1.108989e-01 1.606908e-01 1.646403e-01 -4.485885e-02 -5.966602e-02 5.372524e-02 4.636929e-02 3.580201e-02 -2.890963e-02 2.613944e-02 1.600111e-01 -3.179963e-03
<VARIANCE> 38
 1.457762e+01 2.897617e+01 4.323227e+01 5.186509e+01 4.264830e+01 5.337781e+01 5.468178e+01 5.536106e+01 5.445971e+01 5.800208e+01 5.111340e+01 3.722559e+01 6.978645e-01 1.452651e+00 1.697981e+00 2.106538e+00 2.323504e+00 2.671250e+00 3.098618e+00 3.138511e+00 3.185778e+00 2.708111e+00 2.281362e+00 2.072040e+00 1.000000e-02 9.825763e-02 2.013139e-01 2.292774e-01 3.085891e-01 3.625229e-01 3.688170e-01 4.361093e-01 4.821189e-01 4.611393e-01 4.488669e-01 4.052202e-01 3.334921e-01 1.000000e-02
<GCONST> 1.011220e+02
<MIXTURE> 5 1.268986e-01
<MEAN> 38
 5.887858e-01 6.101666e+00 5.698638e+00 5.385077e+00 1.712118e+00 -2.966713e+00 -2.429805e+00 -1.163847e+00 -9.510130e-01 -2.500544e+00 -2.539729e+00 -9.420419e-01 -1.584814e+00 2.706476e-01 3.536189e-01 8.091851e-01 1.042725e+00 7.795032e-01 7.959517e-01 1.829804e-01 -1.597656e-01 -4.431943e-01 -1.589586e-01 -2.425283e-01 -4.428112e-02 -4.820211e-02 -5.418024e-01 -4.065391e-01 -2.889009e-01 -1.326657e-01 4.884515e-02 -1.600009e-02 9.628148e-02 6.520445e-02 1.197345e-01 5.554808e-02 3.948493e-02 1.161975e-03
<VARIANCE> 38
 2.165684e+01 2.803979e+01 2.848806e+01 3.106878e+01 4.029505e+01 4.265372e+01 4.080416e+01 3.718871e+01 4.083577e+01 4.082713e+01 3.048189e+01 2.570014e+01 1.898770e+00 2.336939e+00 2.331864e+00 2.337854e+00 2.889222e+00 2.901272e+00 2.808419e+00 3.089160e+00 2.987837e+00 2.793808e+00 2.586509e+00 2.393322e+00 1.000000e-02 1.875389e-01 2.724095e-01 2.871167e-01 3.450316e-01 4.128513e-01 4.284229e-01 4.328845e-01 4.744532e-01 4.885944e-01 4.736272e-01 4.062796e-01 3.796710e-01 1.000000e-02
<GCONST> 1.021637e+02
<MIXTURE> 6 1.429204e-01
<MEAN> 38
 5.738686e-01 5.751329e+00 6.174508e+00 5.850195e+00 8.729330e-01 -3.534483e+00 -8.267705e-01 6.462363e-01 -7.312255e-01 -2.736867e+00 -1.807990e+00 7.395231e-01 -1.402985e+00 3.010319e-01 1.903962e-01 7.516804e-01 1.217970e+00 1.017541e+00 7.804756e-01 2.156485e-01 6.535663e-02 -2.614465e-01 -5.151513e-02 -2.816672e-01 -4.536629e-02 -9.118742e-02 -4.020908e-01 -3.023152e-01 -2.002668e-01 -2.968209e-02 1.092436e-01 -3.508216e-02 -4.318275e-03 8.700584e-03 7.834603e-02 -1.194268e-02 -8.940890e-02 -1.810767e-04
<VARIANCE> 38
 1.765384e+01 2.604304e+01 2.519031e+01 2.573348e+01 3.709344e+01 4.193626e+01 4.152743e+01 3.315942e+01 3.499772e+01 3.506169e+01 2.855798e+01 2.443338e+01 1.292205e+00 1.896799e+00 1.739771e+00 1.808900e+00 2.156023e+00 2.234189e+00 2.212150e+00 2.453963e+00 2.445547e+00 2.319862e+00 2.213135e+00 2.097496e+00 1.000000e-02 1.210090e-01 1.985382e-01 2.246292e-01 2.510013e-01 3.299656e-01 3.646086e-01 3.662821e-01 3.938329e-01 4.021427e-01 3.846411e-01 3.526464e-01 3.399158e-01 1.000000e-02
<GCONST> 9.540336e+01
<MIXTURE> 7 1.393174e-01
<MEAN> 38
 5.876975e+00 1.578301e+00 3.274141e-01 7.451679e-01 1.002466e+00 -1.263670e+00 -3.456844e+00 -2.822242e+00 -1.118057e+00 -4.727789e-01 -2.431249e+00 -2.467731e+00 -2.261301e-01 8.578388e-01 4.124911e-01 6.797152e-01 4.357104e-01 1.863467e-01 7.453265e-01 -6.000464e-01 -6.582886e-01 -1.120933e-01 -1.553850e-01 -7.032268e-02 -1.785656e-02 -1.519188e-01 -2.245914e-02 9.054617e-02 4.193680e-02 -1.505453e-01 -1.404739e-01 -2.009895e-02 3.122464e-02 5.338652e-03 -3.227575e-02 -5.093079e-03 6.980453e-02 -1.650824e-03
<VARIANCE> 38
 1.399939e+01 2.722979e+01 3.521141e+01 4.331574e+01 4.177509e+01 4.908795e+01 5.230560e+01 5.085660e+01 4.704720e+01 5.348962e+01 4.355466e+01 3.353539e+01 7.713236e-01 1.478334e+00 1.598471e+00 1.843432e+00 2.204927e+00 2.583977e+00 2.811257e+00 3.018451e+00 3.075024e+00 2.612560e+00 2.178689e+00 2.079525e+00 1.000000e-02 8.809628e-02 1.836551e-01 2.057466e-01 2.785223e-01 3.472575e-01 3.516228e-01 4.005033e-01 4.381232e-01 4.070432e-01 4.113476e-01 3.578843e-01 3.204178e-01 1.000000e-02
<GCONST> 9.843696e+01
<MIXTURE> 8 8.864011e-02
<MEAN> 38
 6.224164e+00 -1.769216e-01 -1.423081e+00 -1.725592e+00 -5.879454e-01 -1.758418e+00 -3.922805e+00 -3.179679e+00 -1.232206e+00 8.611348e-02 -2.592428e+00 -3.269874e+00 -1.485188e-02 4.929223e-01 1.494803e-01 3.695911e-01 2.008672e-01 1.929108e-01 6.388907e-01 -5.975643e-01 -6.127923e-01 -1.626622e-02 -2.232131e-01 -2.535279e-01 -1.027092e-02 -1.204502e-01 4.881553e-02 9.340709e-02 9.895289e-02 -6.319524e-02 -7.838988e-02 -2.513618e-02 -7.631304e-04 1.083738e-02 -6.928995e-02 6.236012e-03 1.038462e-01 -2.243487e-03
<VARIANCE> 38
 1.500257e+01 3.170329e+01 4.599862e+01 5.203743e+01 4.453466e+01 5.480307e+01 5.541672e+01 5.875649e+01 5.892788e+01 6.608331e+01 5.641361e+01 3.801721e+01 7.116464e-01 1.473350e+00 1.789464e+00 2.168495e+00 2.325315e+00 2.616635e+00 3.296123e+00 3.086084e+00 3.150844e+00 2.762952e+00 2.260503e+00 2.055438e+00 1.000000e-02 1.008071e-01 1.919933e-01 2.208741e-01 3.020900e-01 3.486391e-01 3.556795e-01 4.382935e-01 4.816533e-01 4.533372e-01 4.407385e-01 4.026068e-01 3.239986e-01 1.000000e-02
<GCONST> 1.016871e+02
<TRANSP> 5
 0.000000e+00 1.000000e+00 0.000000e+00 0.000000e+00 0.000000e+00
 0.000000e+00 4.690062e-01 5.309938e-01 0.000000e+00 0.000000e+00
 0.000000e+00 0.000000e+00 7.728351e-01 2.271649e-01 0.000000e+00
 0.000000e+00 0.000000e+00 0.000000e+00 6.293739e-01 3.706261e-01
 0.000000e+00 0.000000e+00 0.000000e+00 0.000000e+00 0.000000e+00
<ENDHMM>
~h "a"
<BEGINHMM>
<NUMSTATES> 5
<STATE> 2
<NUMMIXES> 8
<SWEIGHTS> 1
 1.000000e+00
<MIXTURE> 1 8.019378e-02
<MEAN> 38
 5.908761e+00 -9.937487e+00 -7.674000e+00 2.557134e-01 2.767288e+00 2.698353e+00 1.825926e+00 7.922609e-01 1.444633e+00 -2.164834e+00 -4.256474e+00 -2.444443e+00 1.092086e-01 -2.133201e-01 -1.729177e-01 3.937741e-01 4.347267e-01 3.890838e-01 1.403903e-01 -1.163531e-01 1.257794e-01 6.794629e-02 9.921390e-02 2.415731e-01 6.410839e-04 6.390634e-03 1.516689e-01 1.051543e-01 2.381097e-02 -7.001657e-03 -4.480198e-02 -4.377795e-02 1.108318e-02 1.865813e-02 5.722489e-02 7.234178e-02 6.558442e-02 -1.920184e-03
<VARIANCE> 38
 9.904632e+00 1.897491e+01 2.474058e+01 4.019552e+01 3.123008e+01 3.419088e+01 3.666265e+01 3.533662e+01 3.639234e+01 3.626820e+01 2.792315e+01 3.767440e+01 2.383261e-01 5.604184e-01 6.440961e-01 8.696331e-01 1.032187e+00 1.144199e+00 1.139426e+00 1.177895e+00 1.126593e+00 1.152711e+00 1.091741e+00 9.868874e-01 1.000000e-02 4.094419e-02 8.325387e-02 9.989615e-02 1.390273e-01 1.542892e-01 1.715116e-01 1.889722e-01 2.022292e-01 1.902973e-01 1.931971e-01 1.852929e-01 1.691840e-01 1.000000e-02
<GCONST> 7.563434e+01
<MIXTURE> 2 1.667971e-01
<MEAN> 38
 5.767209e+00 -1.094426e+01 -7.329021e+00 -5.548296e-03 4.112570e+00 3.649503e+00 5.286252e-01 5.157430e-01 1.140423e+00 -2.363925e+00 -3.961257e+00 -2.683259e+00 1.127068e-01 1.262734e-01 8.236160e-02 8.846492e-02 8.908914e-02 8.804013e-02 5.181753e-02 9.943439e-02 3.717933e-02 1.243410e-01 1.533767e-01 1.108424e-01 -2.615166e-03 3.624573e-02 7.124607e-02 2.811998e-02 4.911467e-03 -2.898022e-02 -1.019699e-02 3.451013e-02 3.506824e-02 1.548865e-02 4.200444e-02 2.634803e-02 3.240457e-02 -7.186679e-04
<VARIANCE> 38
 9.783298e+00 1.629280e+01 2.226560e+01 3.868582e+01 2.787592e+01 3.566402e+01 3.778916e+01 3.831948e+01 3.897509e+01 3.164045e+01 2.618851e+01 3.333070e+01 8.735238e-02 1.992803e-01 2.597582e-01 3.907528e-01 4.550846e-01 5.239186e-01 5.770630e-01 6.144812e-01 6.010566e-01 5.931376e-01 5.560251e-01 4.961421e-01 1.000000e-02 1.221446e-02 2.426206e-02 3.658385e-02 5.042442e-02 6.309561e-02 7.620721e-02 8.615325e-02 9.204844e-02 9.262700e-02 9.115380e-02 8.495068e-02 7.916363e-02 1.000000e-02
<GCONST> 5.502952e+01
<MIXTURE> 3 1.398475e-01
<MEAN> 38
 5.985846e+00 -9.693688e+00 -7.871978e+00 -4.493670e-01 2.647456e+00 2.559551e+00 1.577296e+00 1.220956e+00 2.176794e+00 -2.094424e+00 -4.362141e+00 -2.909543e+00 1.101358e-02 -2.766406e-01 -1.677701e-01 2.638727e-01 4.409708e-01 3.817620e-01 1.105192e-01 -1.368618e-01 7.338405e-02 -8.015274e-02 6.746977e-02 3.720855e-02 8.400140e-04 3.924722e-03 1.297586e-01 1.083733e-01 1.820453e-02 -1.430522e-02 -5.309339e-02 -4.968799e-02 -8.265154e-03 -9.748492e-03 5.797434e-02 8.176507e-02 3.703313e-02 -1.717781e-03
<VARIANCE> 38
 9.533811e+00 1.690417e+01 2.308332e+01 3.432190e+01 3.113536e+01 3.699386e+01 3.630109e+01 3.801517e+01 3.845855e+01 3.835536e+01 2.958099e+01 3.884274e+01 1.919010e-01 4.654469e-01 5.955211e-01 7.540045e-01 9.850172e-01 1.135105e+00 1.151275e+00 1.186721e+00 1.104166e+00 1.132765e+00 1.054781e+00 9.654077e-01 1.000000e-02 3.311621e-02 6.359635e-02 8.765964e-02 1.242460e-01 1.515160e-01 1.702372e-01 1.864539e-01 2.058341e-01 1.928398e-01 1.922025e-01 1.828666e-01 1.648144e-01 1.000000e-02
<GCONST> 7.406008e+01
<MIXTURE> 4 1.298575e-01
<MEAN> 38
 5.148281e+00 -1.161768e+01 -7.445513e+00 6.007382e-01 4.389375e+00 3.258930e+00 -9.129800e-03 1.522681e-01 9.930385e-01 -3.989547e+00 -4.413522e+00 -1.627999e+00 3.110875e-02 2.754220e-02 4.760757e-02 3.304740e-02 8.586050e-02 4.003038e-02 -5.509628e-02 3.679376e-02 2.816358e-03 3.578159e-02 7.229208e-02 -7.328060e-02 -1.656379e-03 3.716719e-02 7.377170e-02 3.255793e-02 -1.218502e-02 -3.472235e-02 -9.703696e-03 4.377667e-02 5.255616e-02 1.048700e-02 6.407835e-02 2.512913e-02 -4.051020e-03 -6.991755e-04
<VARIANCE> 38
 1.032483e+01 1.507948e+01 2.012827e+01 2.743576e+01 2.774553e+01 3.126204e+01 4.126491e+01 3.921427e+01 3.877264e+01 3.605684e+01 2.536347e+01 2.785974e+01 9.291872e-02 2.052522e-01 2.814368e-01 4.239307e-01 5.365313e-01 5.815030e-01 6.828471e-01 7.231870e-01 6.909068e-01 6.822711e-01 6.275985e-01 5.696361e-01 1.000000e-02 1.247856e-02 2.406930e-02 3.818028e-02 5.348984e-02 7.163849e-02 8.371378e-02 9.636988e-02 1.052165e-01 1.058169e-01 1.070107e-01 9.713386e-02 8.695704e-02 1.000000e-02
<GCONST> 5.694514e+01
<MIXTURE> 5 2.054510e-01
<MEAN> 38
 5.263321e+00 -1.167303e+01 -8.001302e+00 -8.587404e-01 3.589367e+00 3.146830e+00 -3.128431e-01 -1.069892e-02 7.001720e-01 -3.379401e+00 -4.646582e+00 -3.634823e+00 2.109696e-02 6.214465e-03 1.591227e-03 -2.499261e-02 -6.517452e-03 -2.901571e-02 -7.137006e-02 -1.383220e-02 -8.248930e-02 -2.957540e-02 -9.958610e-03 -7.152222e-02 -1.372663e-03 1.197208e-02 4.020638e-02 4.832954e-04 -3.320968e-02 -6.451537e-02 -5.069111e-02 -8.507337e-03 -9.440780e-04 -2.609060e-02 -6.140871e-04 -1.642035e-02 -3.101079e-02 -5.772825e-04
<VARIANCE> 38
 9.802461e+00 1.532987e+01 2.121146e+01 3.440217e+01 2.702990e+01 3.596307e+01 3.872667e+01 3.942190e+01 3.911761e+01 3.285064e+01 2.658500e+01 3.272601e+01 8.338219e-02 1.869966e-01 2.478934e-01 3.755006e-01 4.449297e-01 5.109797e-01 5.599914e-01 6.067532e-01 5.776948e-01 5.746341e-01 5.425816e-01 4.896868e-01 1.000000e-02 1.164984e-02 2.278801e-02 3.527172e-02 4.987821e-02 6.197946e-02 7.398739e-02 8.323989e-02 9.095865e-02 9.159475e-02 9.141169e-02 8.539227e-02 7.845597e-02 1.000000e-02
<GCONST> 5.421381e+01
<MIXTURE> 6 1.036573e-01
<MEAN> 38
 5.355880e+00 -1.061582e+01 -8.636047e+00 -1.401515e+00 1.959112e+00 1.815414e+00 6.958941e-01 6.396791e-01 1.580040e+00 -3.293790e+00 -5.180189e+00 -3.468747e+00 -1.008429e-01 -4.263872e-01 -2.919597e-01 1.116674e-01 3.293509e-01 2.695659e-01 -7.073881e-02 -3.195599e-01 -1.357838e-01 -3.055277e-01 -1.035016e-01 -2.414465e-01 2.540410e-03 -2.200266e-02 9.623072e-02 7.367872e-02 -2.475962e-02 -5.930711e-02 -1.010904e-01 -1.028536e-01 -5.931949e-02 -5.512555e-02 4.131953e-03 2.699410e-02 -3.582053e-02 -1.631522e-03
<VARIANCE> 38
 9.789935e+00 1.683555e+01 2.230825e+01 3.018349e+01 3.152744e+01 3.774654e+01 3.706679e+01 3.994326e+01 4.007133e+01 4.123201e+01 3.050919e+01 3.858388e+01 1.924115e-01 4.448134e-01 5.960632e-01 7.368794e-01 1.013082e+00 1.166273e+00 1.216058e+00 1.236275e+00 1.151781e+00 1.164985e+00 1.079467e+00 1.005198e+00 1.000000e-02 3.335151e-02 6.103859e-02 8.757764e-02 1.237624e-01 1.557497e-01 1.713687e-01 1.891140e-01 2.104789e-01 1.937214e-01 1.956315e-01 1.864254e-01 1.694472e-01 1.000000e-02
<GCONST> 7.448148e+01
<MIXTURE> 7 1.094071e-01
<MEAN> 38
 5.559692e+00 -1.050743e+01 -8.376712e+00 -8.307052e-01 2.100097e+00 2.012684e+00 1.048033e+00 3.971227e-01 1.110803e+00 -2.867239e+00 -4.944343e+00 -3.330099e+00 -2.789356e-03 -3.647510e-01 -2.896569e-01 2.379550e-01 3.242159e-01 2.800665e-01 -7.851481e-03 -2.728806e-01 -5.198859e-02 -1.472331e-01 -6.788232e-02 -2.069382e-02 2.380856e-03 -2.086997e-02 1.129593e-01 7.557292e-02 -1.791474e-02 -4.892723e-02 -8.790673e-02 -9.026181e-02 -3.447787e-02 -2.526897e-02 4.264196e-03 2.430147e-02 -4.785062e-03 -1.678819e-03
<VARIANCE> 38
 9.874776e+00 1.810794e+01 2.372410e+01 3.556709e+01 3.151112e+01 3.547074e+01 3.666817e+01 3.686250e+01 3.789736e+01 3.762467e+01 2.864976e+01 3.841612e+01 2.296858e-01 5.198092e-01 6.358141e-01 8.454504e-01 1.033199e+00 1.145917e+00 1.162162e+00 1.196556e+00 1.146777e+00 1.157323e+00 1.085816e+00 9.896095e-01 1.000000e-02 3.974969e-02 7.719390e-02 9.769131e-02 1.363696e-01 1.563662e-01 1.722910e-01 1.895594e-01 2.036882e-01 1.911934e-01 1.910494e-01 1.830799e-01 1.686657e-01 1.000000e-02
<GCONST> 7.539440e+01
<MIXTURE> 8 6.467363e-02
<MEAN> 38
 4.033956e+00 -1.294495e+01 -8.341489e+00 -6.691843e-02 4.000939e+00 2.471307e+00 -1.502224e+00 -1.236064e+00 -2.547187e-01 -6.070629e+00 -5.439620e+00 -2.234931e+00 -8.662269e-02 -1.254312e-01 -1.233659e-01 -1.955944e-01 -1.644347e-01 -2.207946e-01 -3.326784e-01 -2.539479e-01 -2.849762e-01 -2.695508e-01 -2.225083e-01 -3.691225e-01 -9.635589e-04 9.002049e-03 3.452804e-02 -1.338889e-02 -7.505889e-02 -9.492361e-02 -7.314835e-02 -1.985116e-02 -1.017490e-02 -6.032853e-02 -1.544869e-02 -4.976070e-02 -7.746964e-02 -6.629741e-04
<VARIANCE> 38
 1.059036e+01 1.358382e+01 1.892794e+01 2.253688e+01 2.866202e+01 2.961569e+01 4.335965e+01 3.858434e+01 3.730929e+01 3.776945e+01 2.572406e+01 2.535022e+01 9.291990e-02 2.030348e-01 2.845568e-01 4.437115e-01 5.719967e-01 5.991151e-01 7.271888e-01 7.697317e-01 7.405641e-01 7.229799e-01 6.740907e-01 6.104264e-01 1.000000e-02 1.203156e-02 2.377626e-02 3.870550e-02 5.486374e-02 7.332654e-02 8.496833e-02 9.747849e-02 1.087481e-01 1.084690e-01 1.106979e-01 9.990992e-02 8.944564e-02 1.000000e-02
<GCONST> 5.726814e+01
<STATE> 3
<NUMMIXES> 8
<SWEIGHTS> 1
 1.000000e+00
<MIXTURE> 1 1.061677e-01
<MEAN> 38
 8.170534e+00 -5.992706e+00 -8.810315e+00 -3.827882e+00 4.351827e+00 6.346104e+00 -5.350804e-01 -1.072950e+00 2.108336e+00 1.982402e-01 -1.834331e+00 -5.635760e+00 3.547996e-01 9.679894e-01 3.470534e-01 -1.287035e-02 -2.348506e-01 -1.750856e-01 2.660909e-01 -3.114842e-02 -4.187074e-01 3.282804e-01 5.115110e-01 2.145989e-01 -1.061449e-02 -5.360260e-02 2.397389e-01 2.418775e-01 2.572063e-01 -2.327758e-03 -2.135199e-01 1.078509e-01 -4.131923e-02 -1.169214e-01 5.142990e-03 6.060719e-03 1.718192e-01 -3.069095e-03
<VARIANCE> 38
 8.968115e+00 1.884158e+01 2.153274e+01 4.086113e+01 3.106855e+01 4.011896e+01 4.236727e+01 3.582821e+01 3.671864e+01 3.689648e+01 3.753566e+01 3.221443e+01 2.331516e-01 5.981371e-01 7.298152e-01 9.215069e-01 9.897273e-01 1.252561e+00 1.351965e+00 1.279001e+00 1.426482e+00 1.291878e+00 1.282001e+00 1.238473e+00 1.000000e-02 3.719706e-02 1.050431e-01 1.345853e-01 2.017874e-01 1.838603e-01 2.156093e-01 2.214160e-01 2.391290e-01 2.427441e-01 2.257212e-01 2.294202e-01 1.985178e-01 1.000000e-02
<GCONST> 7.945951e+01
<MIXTURE> 2 1.237598e-01
<MEAN> 38
 6.535830e+00 -9.220765e+00 -4.608377e+00 2.423402e+00 4.069251e-01 -1.987903e+00 3.834981e+00 5.085895e+00 -2.128618e+00 -2.923904e+00 -3.393893e+00 -1.682074e+00 1.131616e-01 5.592878e-01 6.044881e-01 7.108703e-02 -3.593008e-01 -2.272711e-01 3.179439e-02 3.330560e-01 5.257517e-02 2.572325e-01 1.216599e-01 1.753220e-01 -8.222466e-03 1.260311e-02 1.456588e-01 9.221611e-02 3.554865e-02 4.846371e-02 1.034969e-01 -1.124613e-01 -1.043952e-01 9.224201e-02 8.374918e-02 4.688003e-02 6.755746e-03 -1.881242e-03
<VARIANCE> 38
 9.704513e+00 1.934697e+01 2.825156e+01 3.231157e+01 4.577710e+01 4.091853e+01 4.761785e+01 5.558580e+01 5.432318e+01 3.357072e+01 3.339288e+01 2.575245e+01 1.786164e-01 4.219482e-01 6.654403e-01 7.646842e-01 1.069649e+00 1.166157e+00 1.373699e+00 1.378792e+00 1.272063e+00 1.204658e+00 1.116010e+00 9.932799e-01 1.000000e-02 2.639091e-02 6.442529e-02 8.658823e-02 1.216101e-01 1.571563e-01 1.665250e-01 1.993105e-01 2.057606e-01 1.949345e-01 1.917068e-01 1.803097e-01 1.572469e-01 1.000000e-02
<GCONST> 7.587381e+01
<MIXTURE> 3 1.644124e-01
<MEAN> 38
 7.531180e+00 -6.971972e+00 -9.701945e+00 -1.998244e+00 5.037621e+00 5.393174e+00 -4.607652e-01 -1.028192e+00 2.909995e+00 -1.267793e+00 -2.247446e+00 -5.942063e+00 1.904566e-01 4.832456e-01 1.315710e-01 -6.789333e-02 1.384093e-02 9.480800e-02 6.929117e-02 7.338759e-02 -1.427386e-01 1.481531e-01 2.810560e-01 6.938992e-02 -6.172144e-03 1.709158e-05 1.045060e-01 1.519964e-01 4.967191e-02 -5.201204e-02 -8.625235e-02 7.851364e-02 5.493220e-02 -7.479164e-02 4.137546e-02 2.037361e-02 1.130797e-01 -1.709558e-03
<VARIANCE> 38
 9.615163e+00 1.758471e+01 2.467580e+01 4.139223e+01 3.747444e+01 4.479376e+01 5.428379e+01 4.405030e+01 3.930690e+01 4.020581e+01 3.923865e+01 3.579956e+01 2.091852e-01 6.104930e-01 7.087460e-01 1.004783e+00 1.098177e+00 1.382016e+00 1.492876e+00 1.500952e+00 1.420024e+00 1.327346e+00 1.353724e+00 1.253919e+00 1.000000e-02 3.499531e-02 8.870793e-02 1.247285e-01 1.643474e-01 1.907607e-01 2.140885e-01 2.645421e-01 2.484742e-01 2.434440e-01 2.294003e-01 2.306932e-01 2.129814e-01 1.000000e-02
<GCONST> 8.101505e+01
<MIXTURE> 4 1.179717e-01
<MEAN> 38
 5.808831e+00 -1.034401e+01 -5.573174e+00 1.347843e+00 1.142482e+00 -1.115321e+00 1.930926e+00 3.108113e+00 -2.453833e+00 -4.419279e+00 -4.852995e+00 -1.893518e+00 6.784829e-02 3.711876e-01 4.881364e-01 -6.307956e-02 -3.202758e-01 -1.827948e-01 8.468691e-02 3.168385e-01 -3.666138e-02 1.520991e-01 6.901086e-02 -3.886925e-03 -6.154594e-03 4.398244e-02 1.366759e-01 8.615910e-02 2.064787e-02 2.138166e-02 7.713170e-02 -5.039616e-02 -4.544017e-03 1.053310e-01 1.281261e-01 8.362805e-02 -1.121037e-02 -1.492683e-03
<VARIANCE> 38
 1.134447e+01 1.868967e+01 2.864720e+01 3.008973e+01 4.893279e+01 3.891970e+01 6.069312e+01 6.743018e+01 6.117175e+01 4.319947e+01 3.774397e+01 2.706482e+01 1.555373e-01 3.863501e-01 6.583624e-01 8.396642e-01 1.241563e+00 1.223878e+00 1.524043e+00 1.404279e+00 1.391781e+00 1.342265e+00 1.260304e+00 1.102507e+00 1.000000e-02 2.393306e-02 5.607982e-02 8.522885e-02 1.139396e-01 1.637129e-01 1.700176e-01 2.243024e-01 2.280021e-01 2.191237e-01 2.224158e-01 2.050441e-01 1.789405e-01 1.000000e-02
<GCONST> 7.802170e+01
<MIXTURE> 5 1.367227e-01
<MEAN> 38
 6.955711e+00 -8.302586e+00 -1.072696e+01 -2.751184e+00 4.575916e+00 4.821939e+00 -1.791656e+00 -1.845835e+00 2.082809e+00 -2.954237e+00 -3.277826e+00 -6.793912e+00 8.197311e-02 2.602135e-01 -2.530306e-02 -2.192928e-01 -9.056201e-02 -1.873959e-02 -1.150730e-01 -7.313517e-02 -2.948444e-01 -7.134172e-02 5.730571e-02 -2.258924e-01 -3.365142e-03 -1.534054e-02 5.775979e-02 1.063462e-01 -1.207293e-02 -9.638029e-02 -1.177293e-01 3.578228e-02 3.484770e-02 -9.482997e-02 8.334458e-03 -1.878733e-02 3.929692e-02 -1.178597e-03
<VARIANCE> 38
 9.767574e+00 1.777724e+01 2.384443e+01 3.779588e+01 3.840288e+01 4.298287e+01 6.100109e+01 4.633144e+01 4.203509e+01 4.418481e+01 4.269478e+01 3.754824e+01 2.029950e-01 6.116742e-01 7.081707e-01 1.040995e+00 1.139196e+00 1.401403e+00 1.532604e+00 1.541993e+00 1.461158e+00 1.342528e+00 1.399798e+00 1.327011e+00 1.000000e-02 3.398013e-02 8.510866e-02 1.224579e-01 1.648045e-01 1.924972e-01 2.157980e-01 2.720145e-01 2.542611e-01 2.411093e-01 2.320047e-01 2.303525e-01 2.238666e-01 1.000000e-02
<GCONST> 8.163229e+01
<MIXTURE> 6 1.530076e-01
<MEAN> 38
 5.937130e+00 -1.048142e+01 -5.636045e+00 1.125176e+00 -3.153768e-01 -2.801268e+00 2.788853e+00 4.061205e+00 -3.130750e+00 -4.170913e+00 -4.498935e+00 -2.662190e+00 1.061080e-02 3.525239e-01 4.669869e-01 -1.185237e-01 -5.116335e-01 -3.332591e-01 -3.763809e-02 1.902927e-01 -1.301511e-01 9.028688e-02 -2.047921e-02 -4.336761e-02 -5.688738e-03 -3.435720e-03 8.739946e-02 4.847273e-02 -3.745171e-02 -1.515889e-02 4.947708e-02 -1.490922e-01 -1.252791e-01 4.931827e-02 4.092699e-02 -1.682068e-03 -6.162975e-02 -1.234453e-03
<VARIANCE> 38
 1.047779e+01 1.864219e+01 2.862549e+01 3.070605e+01 4.676982e+01 4.089499e+01 5.161373e+01 6.215248e+01 5.997042e+01 3.561602e+01 3.493654e+01 2.564572e+01 1.606352e-01 3.845250e-01 6.359299e-01 7.625594e-01 1.057129e+00 1.149990e+00 1.360521e+00 1.334438e+00 1.256064e+00 1.199685e+00 1.108859e+00 9.847909e-01 1.000000e-02 2.408937e-02 5.837747e-02 8.384246e-02 1.145507e-01 1.516802e-01 1.684304e-01 1.973531e-01 2.021103e-01 1.946376e-01 1.941493e-01 1.821022e-01 1.571139e-01 1.000000e-02
<GCONST> 7.562723e+01
<MIXTURE> 7 1.316376e-01
<MEAN> 38
 7.578199e+00 -7.294011e+00 -9.801066e+00 -4.336062e+00 3.976634e+00 5.872030e+00 -1.384395e+00 -1.679095e+00 1.510839e+00 -1.103556e+00 -2.796876e+00 -6.684230e+00 2.169121e-01 6.615139e-01 1.158554e-01 -1.808161e-01 -2.895277e-01 -1.916762e-01 1.325258e-01 -9.198810e-02 -4.525742e-01 1.277303e-01 2.560134e-01 -3.779580e-02 -6.405985e-03 -5.179927e-02 1.514854e-01 1.497152e-01 1.365748e-01 -6.113858e-02 -2.142907e-01 7.324448e-02 -2.719012e-02 -9.908910e-02 -1.716432e-02 -1.103443e-02 9.376721e-02 -2.030588e-03
<VARIANCE> 38
 9.143309e+00 1.862028e+01 2.161174e+01 3.878696e+01 3.260613e+01 4.058791e+01 4.834826e+01 3.801612e+01 3.823249e+01 4.014206e+01 3.988427e+01 3.373499e+01 2.218204e-01 5.937882e-01 7.028839e-01 9.300768e-01 9.992682e-01 1.253374e+00 1.352874e+00 1.307301e+00 1.390186e+00 1.276371e+00 1.285912e+00 1.218834e+00 1.000000e-02 3.544190e-02 9.830136e-02 1.264956e-01 1.850821e-01 1.788906e-01 2.040546e-01 2.230631e-01 2.324339e-01 2.300405e-01 2.154642e-01 2.167216e-01 1.932991e-01 1.000000e-02
<GCONST> 7.924754e+01
<MIXTURE> 8 6.626549e-02
<MEAN> 38
 4.736207e+00 -1.172401e+01 -6.525846e+00 -1.198384e-01 2.042670e-01 -1.666361e+00 5.895798e-02 7.505658e-01 -4.214077e+00 -6.605389e+00 -6.539322e+00 -2.800726e+00 -6.005505e-02 1.604443e-01 2.457942e-01 -3.423527e-01 -5.691912e-01 -4.379919e-01 -1.655201e-01 -3.461313e-02 -3.933835e-01 -1.889218e-01 -2.626253e-01 -3.628834e-01 -4.665732e-03 2.443517e-02 8.482001e-02 3.706688e-02 -4.434137e-02 -3.752124e-02 5.884405e-03 -1.006327e-01 -4.071021e-02 5.233566e-02 6.651482e-02 1.239918e-02 -8.059391e-02 -1.121619e-03
<VARIANCE> 38
 1.170157e+01 1.692150e+01 2.761596e+01 2.715595e+01 4.863340e+01 3.750062e+01 6.550877e+01 6.874848e+01 6.038426e+01 4.583511e+01 3.780745e+01 2.715930e+01 1.489443e-01 3.689124e-01 6.600443e-01 8.765192e-01 1.304873e+00 1.207542e+00 1.572864e+00 1.422252e+00 1.456719e+00 1.391779e+00 1.322011e+00 1.138986e+00 1.000000e-02 2.263973e-02 5.247426e-02 8.553044e-02 1.113311e-01 1.650673e-01 1.753225e-01 2.200529e-01 2.256492e-01 2.215616e-01 2.235993e-01 2.104414e-01 1.821114e-01 1.000000e-02
<GCONST> 7.804443e+01
<STATE> 4
<NUMMIXES> 8
<SWEIGHTS> 1
 1.000000e+00
<MIXTURE> 1 1.112721e-01
<MEAN> 38
 8.424132e+00 -1.056969e+00 -5.365396e+00 -9.283815e-01 3.110825e+00 2.477920e+00 2.664379e-01 -9.136394e-01 1.123219e+00 7.090439e-01 -2.621928e+00 -4.182577e+00 -6.035907e-01 2.478372e+00 1.828532e+00 1.368288e+00 3.130553e-01 -5.502613e-01 5.497371e-01 -3.695875e-01 -3.616475e-01 2.743544e-01 5.094492e-01 5.237774e-01 -3.585148e-02 -4.342386e-01 7.300346e-02 3.757433e-01 3.510176e-01 1.369548e-01 1.066587e-02 7.549836e-02 1.807060e-02 -7.928576e-02 -1.586441e-01 -1.870011e-02 1.352401e-01 -6.156129e-03
<VARIANCE> 38
 1.145555e+01 2.381757e+01 2.585401e+01 3.723685e+01 2.659444e+01 4.255409e+01 3.811864e+01 3.788777e+01 4.132631e+01 4.159436e+01 3.996052e+01 3.323834e+01 1.080704e+00 1.521588e+00 1.801504e+00 2.347147e+00 2.514204e+00 3.030072e+00 2.943724e+00 3.277825e+00 3.567033e+00 2.598072e+00 2.450987e+00 2.381728e+00 1.000000e-02 1.238177e-01 2.407799e-01 2.573949e-01 3.407258e-01 3.125066e-01 4.051548e-01 4.307401e-01 4.581373e-01 4.364080e-01 4.365483e-01 4.179103e-01 3.731290e-01 1.000000e-02
<GCONST> 9.913049e+01
<MIXTURE> 2 1.341084e-01
<MEAN> 38
 6.570361e+00 -4.930417e+00 -2.343415e+00 2.408208e+00 9.572081e-01 -1.573285e+00 1.976755e+00 4.552611e+00 -1.070928e+00 -2.387569e+00 -3.701243e+00 -1.665873e+00 -1.766484e-01 1.369823e+00 1.217920e+00 7.341308e-01 1.652331e-01 -2.271200e-01 -1.456387e-01 -1.274005e-01 1.707071e-01 5.213617e-01 2.364605e-01 3.226721e-01 -2.510784e-02 -1.853618e-01 1.854039e-01 1.103652e-01 1.553186e-01 2.394564e-01 2.012279e-01 -5.420417e-05 -2.794771e-01 9.698801e-02 8.001968e-02 1.162083e-01 3.342317e-02 -4.329538e-03
<VARIANCE> 38
 1.107652e+01 2.976335e+01 3.427059e+01 4.523790e+01 5.675320e+01 5.309510e+01 5.252602e+01 6.086833e+01 5.399969e+01 4.018528e+01 3.818664e+01 3.183363e+01 6.117355e-01 1.100341e+00 1.183866e+00 1.545018e+00 2.147697e+00 2.123043e+00 2.194550e+00 2.436165e+00 2.177658e+00 1.868197e+00 1.800508e+00 1.611205e+00 1.000000e-02 7.749161e-02 1.969758e-01 2.350045e-01 2.976721e-01 3.653123e-01 3.919097e-01 3.896648e-01 4.535003e-01 4.293637e-01 3.597795e-01 3.471187e-01 2.948165e-01 1.000000e-02
<GCONST> 9.584322e+01
<MIXTURE> 3 1.547892e-01
<MEAN> 38
 6.567440e+00 1.020938e+00 -2.998837e+00 2.465120e-01 3.566735e+00 1.815636e+00 7.864754e-01 -1.130741e+00 -4.912331e-01 -1.324388e-01 -2.250007e+00 -3.784635e+00 -1.109531e+00 2.020796e+00 1.962456e+00 1.469525e+00 3.497673e-01 -4.617123e-01 4.076139e-01 -1.912570e-01 -2.424028e-01 1.426206e-01 3.336869e-01 5.528492e-01 -3.818280e-02 -3.024622e-01 -2.319159e-01 6.756236e-02 1.582246e-01 1.031189e-01 8.264747e-02 -5.965012e-03 6.647884e-02 7.683837e-02 -2.802413e-02 -1.073177e-02 8.163067e-02 -3.373474e-03
<VARIANCE> 38
 1.817162e+01 3.348615e+01 3.165019e+01 3.720152e+01 3.115464e+01 4.175386e+01 4.407054e+01 4.185863e+01 4.452501e+01 4.371382e+01 4.071342e+01 3.177596e+01 2.063283e+00 1.801051e+00 2.004690e+00 2.751766e+00 3.051456e+00 3.611797e+00 3.356023e+00 3.960802e+00 3.904968e+00 3.254446e+00 3.053110e+00 2.599166e+00 1.000000e-02 1.688725e-01 3.230252e-01 3.447045e-01 3.814321e-01 3.651203e-01 4.229087e-01 4.762156e-01 4.824843e-01 5.035327e-01 4.625722e-01 4.437202e-01 3.874489e-01 1.000000e-02
<GCONST> 1.046678e+02
<MIXTURE> 4 1.075533e-01
<MEAN> 38
 5.404953e+00 -5.924419e+00 -3.620783e+00 8.181493e-01 2.273904e+00 7.455195e-01 5.710354e-01 1.513688e+00 -9.743682e-01 -3.040194e+00 -4.772282e+00 -2.697175e+00 -1.395939e-02 9.906954e-01 8.847622e-01 2.994393e-01 -7.024187e-02 -1.534024e-01 -1.262760e-01 5.032137e-02 1.746476e-01 4.997064e-01 2.477323e-01 1.065122e-01 -2.020163e-02 -2.770009e-02 1.849462e-01 8.802610e-02 1.863163e-01 9.176058e-02 3.342802e-02 2.261847e-02 -8.271556e-02 1.094329e-01 1.446756e-01 1.778112e-01 6.918924e-02 -2.565369e-03
<VARIANCE> 38
 1.491138e+01 3.502770e+01 4.251682e+01 4.985142e+01 6.273234e+01 5.185809e+01 5.786055e+01 5.469701e+01 5.360416e+01 4.919229e+01 4.229045e+01 3.190539e+01 8.580892e-01 1.168481e+00 1.397346e+00 1.735546e+00 2.216388e+00 2.017035e+00 2.245252e+00 2.270305e+00 2.087585e+00 2.055344e+00 1.926555e+00 1.617727e+00 1.000000e-02 1.182224e-01 2.468130e-01 3.117381e-01 3.766294e-01 4.161834e-01 3.889388e-01 4.263632e-01 4.324508e-01 4.235185e-01 3.991567e-01 3.846203e-01 3.065116e-01 1.000000e-02
<GCONST> 9.928245e+01
<MIXTURE> 5 1.283277e-01
<MEAN> 38
 6.061350e+00 3.510904e-01 -3.286203e+00 -6.041545e-01 2.870355e+00 1.182593e+00 -2.978977e-01 -2.055965e+00 -1.847500e+00 -1.151976e+00 -2.931621e+00 -4.546057e+00 -1.199671e+00 1.690246e+00 1.744429e+00 1.207083e+00 5.506803e-02 -7.103027e-01 1.459343e-01 -3.971972e-01 -5.216608e-01 -9.836826e-02 2.189071e-02 2.960119e-01 -3.802569e-02 -2.911804e-01 -3.135445e-01 -4.216596e-02 7.311737e-02 4.108160e-02 4.072455e-04 -8.771513e-02 2.365154e-02 6.804220e-02 -6.500997e-02 -6.961111e-02 2.705936e-02 -1.374677e-03
<VARIANCE> 38
 1.964253e+01 3.508520e+01 3.255428e+01 3.615747e+01 3.160446e+01 4.237068e+01 4.987707e+01 4.365854e+01 4.562246e+01 4.669626e+01 4.342902e+01 3.198396e+01 2.411406e+00 1.929747e+00 2.132680e+00 2.928547e+00 3.048968e+00 3.849058e+00 3.488062e+00 3.939094e+00 3.892813e+00 3.536598e+00 3.213501e+00 2.646686e+00 1.000000e-02 1.834180e-01 3.550085e-01 3.655305e-01 4.102853e-01 3.715697e-01 4.305847e-01 5.044860e-01 4.938964e-01 5.101779e-01 4.703796e-01 4.498871e-01 3.912612e-01 1.000000e-02
<GCONST> 1.062212e+02
<MIXTURE> 6 1.361793e-01
<MEAN> 38
 8.043403e+00 -1.916085e+00 -5.807714e+00 -2.050209e+00 2.458122e+00 1.804427e+00 -6.868253e-01 -1.741385e+00 -2.039486e-01 -9.339200e-02 -3.058145e+00 -4.959747e+00 -6.439482e-01 2.197294e+00 1.659506e+00 1.126505e+00 2.969537e-02 -7.847191e-01 3.231737e-01 -5.663782e-01 -6.452454e-01 5.105275e-02 2.353356e-01 2.928828e-01 -3.345352e-02 -4.376197e-01 1.319302e-02 2.888682e-01 2.819912e-01 9.906703e-02 -4.427275e-02 1.993651e-03 -2.957438e-02 -9.326070e-02 -1.902021e-01 -7.120292e-02 7.543364e-02 -4.356829e-03
<VARIANCE> 38
 1.182060e+01 2.526535e+01 2.643382e+01 3.532898e+01 2.676198e+01 4.274127e+01 4.245403e+01 3.967085e+01 4.343898e+01 4.531867e+01 4.429883e+01 3.359401e+01 1.220788e+00 1.537530e+00 1.846588e+00 2.408237e+00 2.548174e+00 3.153044e+00 2.984751e+00 3.325346e+00 3.624451e+00 2.762272e+00 2.582815e+00 2.455933e+00 1.000000e-02 1.353917e-01 2.562803e-01 2.627059e-01 3.522969e-01 3.130588e-01 4.037592e-01 4.402874e-01 4.486718e-01 4.464501e-01 4.360979e-01 4.189319e-01 3.648953e-01 1.000000e-02
<GCONST> 1.002354e+02
<MIXTURE> 7 1.504081e-01
<MEAN> 38
 6.061358e+00 -6.146330e+00 -3.160538e+00 6.708367e-01 1.685541e-02 -1.983649e+00 6.989864e-01 3.468377e+00 -1.733340e+00 -3.109971e+00 -4.549837e+00 -2.722768e+00 -2.372307e-01 1.061008e+00 1.007467e+00 3.746079e-01 -1.442897e-01 -3.831729e-01 -3.619494e-01 -3.010656e-01 -3.429106e-02 3.407323e-01 3.840885e-02 4.276015e-02 -2.134987e-02 -1.656607e-01 1.249640e-01 6.086892e-02 9.784675e-02 1.652842e-01 1.058235e-01 -6.823879e-02 -2.735109e-01 5.171463e-02 2.992600e-02 6.583551e-02 -1.717886e-02 -2.690177e-03
<VARIANCE> 38
 1.201409e+01 3.057613e+01 3.527620e+01 4.354984e+01 5.815478e+01 5.281782e+01 5.382398e+01 6.449751e+01 5.568663e+01 4.292443e+01 4.072844e+01 3.131979e+01 6.352993e-01 1.062821e+00 1.234183e+00 1.549198e+00 2.129783e+00 2.080054e+00 2.137994e+00 2.401291e+00 2.113909e+00 1.954069e+00 1.818163e+00 1.559601e+00 1.000000e-02 8.050334e-02 1.986368e-01 2.286582e-01 2.907992e-01 3.577107e-01 3.652949e-01 3.746429e-01 4.447516e-01 4.005911e-01 3.512988e-01 3.392582e-01 2.844861e-01 1.000000e-02
<GCONST> 9.585297e+01
<MIXTURE> 8 7.734064e-02
<MEAN> 38
 4.680161e+00 -7.138175e+00 -4.609396e+00 -7.791478e-01 1.516463e+00 1.870163e-01 -9.967781e-01 1.023094e-01 -2.451669e+00 -4.460835e+00 -6.035409e+00 -3.603493e+00 -6.134557e-02 6.829680e-01 5.585649e-01 -9.213974e-02 -3.964317e-01 -3.981515e-01 -3.987222e-01 -1.470436e-01 -1.005045e-01 1.875317e-01 -1.012034e-02 -2.340806e-01 -1.741835e-02 9.202020e-03 1.314320e-01 3.331691e-02 1.110771e-01 1.242466e-02 -4.625605e-02 -5.090738e-02 -8.612544e-02 8.868892e-02 9.670229e-02 1.215792e-01 1.405241e-03 -1.152932e-03
<VARIANCE> 38
 1.539675e+01 3.535861e+01 4.302267e+01 4.664138e+01 6.419041e+01 5.159874e+01 6.329944e+01 5.562658e+01 5.474887e+01 5.336057e+01 4.354516e+01 3.204015e+01 8.792930e-01 1.219104e+00 1.504357e+00 1.767720e+00 2.358640e+00 2.018444e+00 2.225458e+00 2.236096e+00 2.170734e+00 2.178380e+00 1.936580e+00 1.623315e+00 1.000000e-02 1.232574e-01 2.572193e-01 3.213176e-01 3.844723e-01 4.134877e-01 3.808104e-01 4.287837e-01 4.269251e-01 4.107069e-01 4.011253e-01 3.787239e-01 3.054230e-01 1.000000e-02
<GCONST> 9.988766e+01
<TRANSP> 5
 0.000000e+00 1.000000e+00 0.000000e+00 0.000000e+00 0.000000e+00
 0.000000e+00 9.287564e-01 7.124368e-02 0.000000e+00 0.000000e+00
 0.000000e+00 0.000000e+00 8.452511e-01 1.547488e-01 0.000000e+00
 0.000000e+00 0.000000e+00 0.000000e+00 7.122658e-01 2.877342e-01
 0.000000e+00 0.000000e+00 0.000000e+00 0.000000e+00 0.000000e+00
<ENDHMM>
~h "b"
<BEGINHMM>
<NUMSTATES> 5
<STATE> 2
<NUMMIXES> 8
<SWEIGHTS> 1
 1.000000e+00
<MIXTURE> 1 1.823816e-01
<MEAN> 38
 8.138071e+00 1.395954e+01 5.445377e+00 5.759188e+00 5.331571e+00 2.682506e+00 4.682678e-01 -4.508167e+00 -2.613726e+00 2.595867e-01 2.329547e-01 -1.373804e+00 -2.084125e-01 2.907673e-01 2.128937e-01 4.009526e-01 2.496859e-01 1.791718e-01 2.579032e-01 1.405881e-01 2.521367e-02 -6.809141e-02 7.996698e-02 1.939090e-01 -1.009557e-02 -5.632306e-02 -1.949092e-01 -3.629063e-02 2.690978e-02 -1.819257e-02 -1.315330e-02 -5.110312e-05 5.711581e-02 3.507939e-02 -4.101357e-02 -3.794803e-02 2.151974e-02 1.221330e-04
<VARIANCE> 38
 1.324258e+01 1.003957e+01 1.943543e+01 2.521782e+01 2.112843e+01 2.710564e+01 2.961537e+01 3.152728e+01 4.035682e+01 2.698372e+01 2.469529e+01 2.544700e+01 2.231313e-01 4.123907e-01 5.535261e-01 6.699942e-01 7.611461e-01 8.740653e-01 9.941655e-01 1.089934e+00 1.221190e+00 1.197833e+00 1.141185e+00 9.791473e-01 1.000000e-02 2.628709e-02 9.448575e-02 9.855897e-02 1.069838e-01 1.290736e-01 1.619687e-01 1.783787e-01 2.036779e-01 2.268047e-01 2.245769e-01 1.975566e-01 1.884908e-01 1.000000e-02
<GCONST> 7.112509e+01
<MIXTURE> 2 9.135614e-02
<MEAN> 38
 4.631483e+00 1.371621e+01 8.246601e+00 8.836959e+00 5.738189e+00 2.520585e+00 1.903213e+00 -2.750339e+00 -2.562067e+00 -2.722788e+00 -1.717937e+00 -1.113943e+00 -1.017297e+00 -1.097431e+00 -1.218055e-02 8.542665e-01 6.803672e-01 4.233771e-01 2.853937e-01 3.667863e-01 3.254783e-01 -1.362909e-01 7.982809e-02 1.461848e-01 -1.658159e-02 -1.694409e-01 -1.053144e+00 -7.090963e-01 -3.732261e-01 -2.129380e-01 -1.056648e-01 -1.664028e-01 1.401840e-01 3.443936e-01 3.470668e-01 3.030146e-01 6.642952e-02 6.333591e-03
<VARIANCE> 38
 1.934242e+01 1.647743e+01 2.106350e+01 2.436156e+01 2.706396e+01 2.545389e+01 3.069535e+01 3.075266e+01 3.177740e+01 2.309159e+01 2.261571e+01 2.277451e+01 1.407259e+00 3.741578e+00 2.059492e+00 1.824563e+00 1.783238e+00 2.070203e+00 2.419675e+00 2.356081e+00 2.567830e+00 2.142112e+00 2.028481e+00 1.614954e+00 1.000000e-02 1.863680e-01 4.512561e-01 3.150582e-01 3.664723e-01 4.632422e-01 4.657122e-01 4.895548e-01 5.228702e-01 5.023879e-01 4.286105e-01 3.971528e-01 3.577645e-01 1.000000e-02
<GCONST> 9.676675e+01
<MIXTURE> 3 1.430771e-01
<MEAN> 38
 9.515770e+00 1.325418e+01 4.029163e+00 4.425932e+00 3.970735e+00 2.138809e+00 -5.055850e-02 -5.702162e+00 -3.484751e+00 6.616092e-02 -3.704446e-01 -2.970839e+00 -2.875569e-01 7.249494e-01 5.557029e-01 5.218763e-01 2.396268e-01 1.727081e-01 3.554392e-01 1.506371e-01 3.074692e-02 -1.731851e-01 3.095241e-02 1.490717e-01 -1.189506e-02 -2.719131e-01 -5.971739e-01 -8.000459e-02 1.207315e-01 -1.809839e-03 -8.462486e-02 -1.144012e-01 2.199788e-01 1.998324e-01 -5.389481e-02 -5.507983e-04 1.559371e-01 2.592820e-04
<VARIANCE> 38
 1.315412e+01 1.245184e+01 2.044225e+01 2.518628e+01 2.285304e+01 2.840890e+01 3.595992e+01 3.305689e+01 4.253303e+01 2.990658e+01 2.993740e+01 3.339825e+01 4.912967e-01 1.413632e+00 1.000859e+00 1.039959e+00 9.648450e-01 1.223067e+00 1.438354e+00 1.430496e+00 1.610161e+00 1.529012e+00 1.474980e+00 1.314386e+00 1.000000e-02 1.106117e-01 2.791950e-01 2.109600e-01 2.218906e-01 2.414105e-01 2.816407e-01 3.609351e-01 3.498520e-01 3.805103e-01 3.604733e-01 3.446281e-01 3.299050e-01 1.000000e-02
<GCONST> 8.625171e+01
<MIXTURE> 4 7.859964e-02
<MEAN> 38
 4.999522e+00 1.046089e+01 5.197451e+00 8.330620e+00 6.262791e+00 2.437265e+00 6.095664e-01 -4.275239e+00 -2.829907e+00 -1.629592e+00 -8.677897e-01 -1.930160e+00 -1.598590e+00 -3.097484e+00 -8.266740e-01 3.135002e-01 -3.561376e-01 -5.085804e-01 -2.769381e-01 1.207897e+00 1.448206e+00 -7.197599e-02 1.969568e-01 4.923138e-01 6.269876e-03 5.945502e-03 -7.667354e-01 -4.772892e-01 -5.079827e-01 -6.180764e-01 -4.619212e-01 -3.216752e-01 1.779615e-01 3.133215e-01 2.771658e-01 2.504893e-01 1.792344e-01 1.478550e-02
<VARIANCE> 38
 2.315302e+01 2.514128e+01 2.329087e+01 2.410092e+01 2.478157e+01 2.858306e+01 3.226123e+01 3.215355e+01 3.656778e+01 2.599450e+01 2.522468e+01 2.744547e+01 2.121041e+00 3.654208e+00 2.921048e+00 3.286050e+00 3.317897e+00 3.230686e+00 4.260949e+00 3.839650e+00 4.100644e+00 3.766900e+00 3.335604e+00 3.071597e+00 1.000000e-02 2.434050e-01 3.921061e-01 3.547894e-01 3.904966e-01 3.716193e-01 4.480444e-01 4.522938e-01 4.714221e-01 5.115968e-01 4.624935e-01 4.324120e-01 3.830462e-01 1.000000e-02
<GCONST> 1.038676e+02
<MIXTURE> 5 2.072645e-01
<MEAN> 38
 7.925359e+00 1.305419e+01 4.559245e+00 4.676134e+00 4.217051e+00 1.620141e+00 -2.320461e-01 -5.040672e+00 -3.677648e+00 -8.619331e-01 -7.492129e-01 -2.066685e+00 -1.994763e-01 2.360253e-01 1.329117e-01 2.977700e-01 1.557953e-01 6.543501e-02 1.291874e-01 5.461187e-02 -5.837443e-02 -1.629442e-01 -1.059362e-01 5.231406e-03 -1.047922e-02 -7.336529e-02 -2.573520e-01 -7.149386e-02 2.159534e-03 -4.315131e-02 -3.898007e-02 -4.050519e-02 4.041374e-02 3.936547e-02 -4.147805e-02 -6.319754e-02 -1.270022e-02 6.989593e-04
<VARIANCE> 38
 1.348229e+01 1.057808e+01 1.999857e+01 2.515636e+01 2.160780e+01 2.913429e+01 3.291462e+01 3.165274e+01 4.045105e+01 2.731271e+01 2.620722e+01 2.850804e+01 2.226817e-01 4.364108e-01 5.451254e-01 6.621400e-01 7.488464e-01 8.883190e-01 1.011768e+00 1.086429e+00 1.186935e+00 1.174178e+00 1.130210e+00 9.829600e-01 1.000000e-02 3.151092e-02 1.152542e-01 1.050008e-01 1.170493e-01 1.366387e-01 1.703140e-01 1.929476e-01 2.074318e-01 2.264286e-01 2.206268e-01 2.073868e-01 1.945900e-01 1.000000e-02
<GCONST> 7.239875e+01
<MIXTURE> 6 1.299403e-01
<MEAN> 38
 9.347423e+00 1.233718e+01 3.093008e+00 3.577462e+00 3.084940e+00 1.088790e+00 -1.093023e+00 -6.490042e+00 -4.356735e+00 -7.950259e-01 -1.368378e+00 -4.047679e+00 -4.036005e-01 3.148433e-01 3.950163e-01 4.641345e-01 7.829016e-02 -7.592198e-03 1.597918e-01 8.463851e-02 -4.306751e-02 -3.884145e-01 -2.444875e-01 -5.621712e-02 -9.983016e-03 -3.460850e-01 -7.728006e-01 -1.346897e-01 9.075460e-02 -7.676643e-02 -1.608321e-01 -1.683851e-01 2.186072e-01 2.477159e-01 -7.134990e-02 -2.834398e-02 1.571843e-01 2.725079e-03
<VARIANCE> 38
 1.286707e+01 1.374260e+01 2.033423e+01 2.385490e+01 2.341925e+01 3.036717e+01 3.739653e+01 3.238280e+01 4.276498e+01 3.097884e+01 3.311666e+01 3.750115e+01 5.258018e-01 1.866054e+00 9.466181e-01 1.001711e+00 9.312827e-01 1.208718e+00 1.380043e+00 1.379687e+00 1.559711e+00 1.484758e+00 1.460841e+00 1.369261e+00 1.000000e-02 1.343431e-01 3.066331e-01 2.186115e-01 2.343093e-01 2.637430e-01 2.983173e-01 3.785059e-01 3.591594e-01 4.115368e-01 3.701814e-01 3.742882e-01 3.620706e-01 1.000000e-02
<GCONST> 8.761205e+01
<MIXTURE> 7 9.364191e-02
<MEAN> 38
 5.284554e+00 1.292437e+01 6.934771e+00 7.369727e+00 4.362456e+00 1.344167e+00 7.605726e-01 -3.591498e+00 -3.222931e+00 -3.079523e+00 -2.334893e+00 -1.952211e+00 -1.391945e+00 -2.157994e+00 -4.221739e-01 7.115638e-01 4.117297e-01 1.226919e-01 -8.102193e-02 3.074054e-01 4.336380e-01 -2.747902e-01 -1.125066e-01 1.146426e-03 -7.097609e-03 -2.313212e-01 -1.230484e+00 -7.874483e-01 -4.334219e-01 -3.047083e-01 -2.246042e-01 -2.953287e-01 7.693937e-02 3.356855e-01 3.232192e-01 2.668985e-01 6.247263e-02 1.113007e-02
<VARIANCE> 38
 2.036363e+01 1.728121e+01 2.151415e+01 2.429888e+01 2.729845e+01 2.735469e+01 3.203880e+01 3.098103e+01 3.387149e+01 2.503523e+01 2.335602e+01 2.549784e+01 1.643786e+00 4.192530e+00 2.326201e+00 2.014063e+00 1.896772e+00 2.163636e+00 2.700408e+00 2.465522e+00 2.641490e+00 2.213647e+00 2.179183e+00 1.791058e+00 1.000000e-02 2.141764e-01 3.891457e-01 3.446434e-01 4.253819e-01 4.653583e-01 4.787095e-01 5.244405e-01 5.523496e-01 5.277250e-01 4.573382e-01 4.182802e-01 3.820262e-01 1.000000e-02
<GCONST> 9.890927e+01
<MIXTURE> 8 7.367971e-02
<MEAN> 38
 5.252923e+00 9.675048e+00 4.765414e+00 7.661125e+00 5.350307e+00 1.475798e+00 -4.188140e-01 -4.766196e+00 -3.045084e+00 -2.135509e+00 -1.663709e+00 -2.897499e+00 -1.834802e+00 -3.690597e+00 -1.083959e+00 7.078499e-02 -7.426308e-01 -8.795248e-01 -5.697783e-01 1.163516e+00 1.450811e+00 -2.708756e-01 -9.679245e-02 4.236427e-01 1.721288e-02 3.489182e-02 -7.957013e-01 -5.437052e-01 -5.938156e-01 -6.820316e-01 -5.454717e-01 -4.166156e-01 1.125562e-01 2.546094e-01 2.647345e-01 2.094862e-01 1.425056e-01 1.644281e-02
<VARIANCE> 38
 2.226967e+01 2.532079e+01 2.351310e+01 2.342311e+01 2.440655e+01 2.885839e+01 3.240402e+01 3.248810e+01 3.600131e+01 2.662401e+01 2.641729e+01 2.972507e+01 2.140223e+00 2.924096e+00 3.222504e+00 3.456161e+00 3.367463e+00 3.323230e+00 4.589298e+00 4.221251e+00 4.367430e+00 3.907191e+00 3.602122e+00 3.419145e+00 1.000000e-02 2.348191e-01 3.517140e-01 3.558505e-01 3.791607e-01 3.508254e-01 4.472590e-01 4.406745e-01 4.800844e-01 5.280638e-01 4.566539e-01 4.410896e-01 3.909483e-01 1.000000e-02
<GCONST> 1.042117e+02
<STATE> 3
<NUMMIXES> 8
<SWEIGHTS> 1
 1.000000e+00
<MIXTURE> 1 8.973756e-02
<MEAN> 38
 -1.525537e+00 -4.915887e+00 -2.104964e+00 5.601732e+00 2.937513e+00 -2.534791e+00 -3.994504e+00 -1.735478e+00 2.999524e+00 1.821057e+00 1.973463e+00 4.556698e-01 2.014754e+00 9.550977e-01 3.641178e-01 -4.925395e-01 -1.063636e+00 -5.691217e-01 -8.063132e-01 -4.532126e-01 -5.870271e-01 -1.788596e-01 1.941543e-01 2.847979e-01 5.621278e-02 8.092792e-01 1.333972e+00 7.348727e-01 -8.539072e-02 -1.542603e-01 5.243376e-01 4.532841e-01 -2.945222e-02 -5.225548e-01 -3.366647e-01 -2.185660e-01 -8.475982e-04 1.208723e-04
<VARIANCE> 38
 1.562480e+01 1.723781e+01 2.865503e+01 3.032082e+01 3.268818e+01 3.673863e+01 4.360206e+01 3.846653e+01 2.863275e+01 2.816436e+01 2.957291e+01 2.214213e+01 1.738234e+00 3.123030e+00 3.904400e+00 4.351666e+00 3.810292e+00 4.251628e+00 3.834378e+00 3.117476e+00 3.487907e+00 3.260169e+00 3.066433e+00 2.320385e+00 1.000000e-02 3.084698e-01 6.459769e-01 5.274343e-01 6.733227e-01 6.864781e-01 8.375732e-01 8.969543e-01 8.097499e-01 7.324999e-01 6.628314e-01 7.232370e-01 5.548995e-01 1.000000e-02
<GCONST> 1.097114e+02
<MIXTURE> 2 1.397263e-01
<MEAN> 38
 -9.497491e-01 1.764234e+00 2.452156e+00 8.019522e+00 5.730980e+00 2.968297e+00 1.671766e+00 -4.559550e-01 9.306419e-01 -7.458538e-01 5.100124e-01 -2.522815e-01 -6.173067e-01 -2.930641e+00 -1.849806e+00 -1.021027e+00 -9.683976e-01 -7.159535e-01 -8.261393e-01 2.876548e-01 9.941871e-01 9.442095e-01 1.087292e+00 6.392775e-01 2.974644e-02 8.364311e-01 5.565868e-01 -2.246383e-02 -5.184523e-01 -5.222165e-01 -3.301571e-01 -3.516271e-01 -2.862619e-01 -2.352331e-01 1.142366e-01 3.591416e-02 1.999064e-02 1.721602e-02
<VARIANCE> 38
 2.100726e+01 2.988453e+01 2.214279e+01 2.504000e+01 2.606992e+01 2.825006e+01 3.170555e+01 3.171801e+01 2.616514e+01 2.028633e+01 2.260149e+01 1.776196e+01 2.257599e+00 3.990875e+00 2.652457e+00 3.332012e+00 3.200828e+00 3.121595e+00 3.092820e+00 3.031295e+00 2.852836e+00 2.606715e+00 2.533927e+00 2.102635e+00 1.000000e-02 4.003402e-01 8.517323e-01 4.783940e-01 5.769535e-01 4.877672e-01 6.272572e-01 5.750079e-01 5.397354e-01 5.444572e-01 4.918507e-01 5.391078e-01 3.830222e-01 1.000000e-02
<GCONST> 1.041578e+02
<MIXTURE> 3 1.353686e-01
<MEAN> 38
 7.806183e-01 1.054190e+00 2.470773e+00 8.552673e+00 4.175927e+00 1.730717e-01 -2.984338e-01 -4.832050e-01 1.691113e+00 -2.174568e+00 -1.353685e+00 -1.312078e+00 -9.475798e-01 -3.762259e+00 -1.694566e+00 -1.006489e+00 -1.719367e+00 -1.572252e+00 -1.108349e+00 9.887893e-01 1.488100e+00 5.283375e-01 6.776879e-01 7.624554e-01 4.016718e-02 8.445606e-01 6.215794e-01 1.069241e-02 -6.258510e-01 -4.885144e-01 -1.676434e-01 -2.885017e-01 -3.769303e-01 -4.479197e-01 3.687693e-01 2.911550e-01 6.277908e-02 1.484878e-02
<VARIANCE> 38
 1.787271e+01 1.982974e+01 2.341067e+01 2.496127e+01 2.841046e+01 3.322951e+01 3.628954e+01 3.142342e+01 2.775124e+01 2.536448e+01 2.485489e+01 2.160489e+01 1.931350e+00 2.391203e+00 3.007643e+00 3.411839e+00 3.332989e+00 3.367936e+00 3.822752e+00 3.915558e+00 4.295889e+00 3.702235e+00 3.075411e+00 3.122953e+00 1.000000e-02 3.124181e-01 5.497865e-01 5.228689e-01 6.314846e-01 5.467517e-01 6.886263e-01 7.461651e-01 6.335363e-01 6.825942e-01 6.861214e-01 6.990085e-01 5.183325e-01 1.000000e-02
<GCONST> 1.072436e+02
<MIXTURE> 4 1.364291e-01
<MEAN> 38
 -5.966612e-01 -3.518422e+00 -1.798656e+00 4.774477e+00 7.010460e-01 -3.398892e+00 -3.165765e+00 -9.609774e-01 3.250720e+00 4.907073e-01 1.647038e+00 6.534619e-01 1.243060e+00 -1.178198e+00 -9.110421e-01 -1.424670e+00 -2.053209e+00 -1.643179e+00 -1.642651e+00 -2.061318e-01 1.215921e-01 6.931393e-01 7.788728e-01 5.082021e-01 6.642445e-02 8.997027e-01 1.317531e+00 7.475168e-01 -5.232523e-02 1.886608e-02 4.905035e-01 2.693038e-01 -1.801455e-01 -6.662136e-01 -9.907691e-02 -1.809119e-01 -1.180038e-01 2.266180e-03
<VARIANCE> 38
 1.935490e+01 1.788068e+01 2.477574e+01 2.934843e+01 3.164133e+01 3.661283e+01 3.799508e+01 3.858111e+01 2.985745e+01 2.974266e+01 2.716638e+01 2.376275e+01 1.921347e+00 3.522871e+00 3.786493e+00 3.909431e+00 3.053234e+00 3.910871e+00 3.431781e+00 3.672559e+00 3.878829e+00 3.382638e+00 3.301991e+00 2.484338e+00 1.000000e-02 3.615993e-01 6.018817e-01 5.501949e-01 8.413957e-01 7.957173e-01 8.187280e-01 8.923944e-01 9.428425e-01 8.828398e-01 8.595474e-01 7.751946e-01 6.584031e-01 1.000000e-02
<GCONST> 1.111239e+02
<MIXTURE> 5 1.528766e-01
<MEAN> 38
 -7.090551e-01 7.800934e-01 1.923240e+00 7.463325e+00 5.067878e+00 2.150451e+00 7.980305e-01 -9.356042e-01 6.468275e-01 -1.429072e+00 -3.154810e-01 -1.203887e+00 -8.709505e-01 -3.679997e+00 -2.269297e+00 -1.362401e+00 -1.365725e+00 -1.159009e+00 -1.301838e+00 1.378424e-02 8.068932e-01 6.598769e-01 7.688327e-01 4.491871e-01 4.316450e-02 8.816743e-01 5.860146e-01 -8.696810e-02 -6.134023e-01 -6.047927e-01 -3.932310e-01 -4.288492e-01 -3.208264e-01 -2.837519e-01 1.195438e-01 -2.463404e-02 -4.941098e-02 1.744896e-02
<VARIANCE> 38
 2.000983e+01 2.712892e+01 2.222235e+01 2.427364e+01 2.698822e+01 2.807469e+01 3.135866e+01 3.018593e+01 2.528834e+01 2.044290e+01 2.193200e+01 1.823468e+01 2.243082e+00 3.341679e+00 2.751482e+00 3.397025e+00 3.271429e+00 3.125864e+00 3.210950e+00 3.423608e+00 3.178198e+00 2.800539e+00 2.610121e+00 2.258490e+00 1.000000e-02 3.599407e-01 7.891563e-01 4.916918e-01 5.821056e-01 4.880472e-01 6.268979e-01 6.067972e-01 5.604927e-01 5.509735e-01 5.117305e-01 5.786894e-01 4.122653e-01 1.000000e-02
<GCONST> 1.043989e+02
<MIXTURE> 6 1.194018e-01
<MEAN> 38
 1.031357e+00 3.264054e-01 1.999511e+00 7.983781e+00 3.498322e+00 -5.098051e-01 -7.877287e-01 -6.287148e-01 1.497433e+00 -2.976794e+00 -2.498877e+00 -2.560905e+00 -1.148473e+00 -4.200519e+00 -1.918037e+00 -1.214451e+00 -1.997097e+00 -1.887861e+00 -1.349674e+00 8.828021e-01 1.326935e+00 2.438464e-01 2.906453e-01 6.503951e-01 4.615000e-02 8.059835e-01 5.892337e-01 -4.249675e-02 -6.837945e-01 -5.365515e-01 -2.217938e-01 -3.697681e-01 -4.092930e-01 -4.693305e-01 4.018656e-01 2.710473e-01 2.291701e-02 1.413591e-02
<VARIANCE> 38
 1.793104e+01 1.884554e+01 2.404476e+01 2.478630e+01 2.933133e+01 3.527327e+01 3.641557e+01 3.127407e+01 2.902600e+01 2.808366e+01 2.522636e+01 2.234407e+01 1.762980e+00 2.119439e+00 3.234905e+00 3.398918e+00 3.320721e+00 3.415175e+00 3.984427e+00 4.043907e+00 4.567981e+00 3.797807e+00 3.165951e+00 3.386012e+00 1.000000e-02 2.925636e-01 5.131111e-01 5.303329e-01 6.232638e-01 5.393533e-01 6.658881e-01 7.558318e-01 6.290068e-01 6.802638e-01 7.100472e-01 7.160858e-01 5.459594e-01 1.000000e-02
<GCONST> 1.075708e+02
<MIXTURE> 7 1.229630e-01
<MEAN> 38
 -4.903811e-01 -4.109203e+00 -2.178620e+00 4.134388e+00 -5.350697e-02 -3.892074e+00 -3.719721e+00 -1.076879e+00 2.851424e+00 -7.710328e-03 9.623116e-01 -1.740584e-01 8.886158e-01 -1.963372e+00 -1.347803e+00 -1.732487e+00 -2.454882e+00 -2.113271e+00 -2.122640e+00 -4.390323e-01 -9.465816e-02 4.373729e-01 3.781341e-01 2.036971e-01 7.810044e-02 8.155482e-01 1.247915e+00 6.485453e-01 -1.320890e-01 -1.891916e-02 4.176044e-01 2.372143e-01 -1.660676e-01 -6.638743e-01 -9.410810e-02 -2.474452e-01 -1.938852e-01 1.135855e-03
<VARIANCE> 38
 2.120164e+01 1.874567e+01 2.477484e+01 3.167484e+01 3.215215e+01 3.799734e+01 3.729292e+01 3.729090e+01 3.150257e+01 3.105444e+01 2.609916e+01 2.297239e+01 1.891098e+00 3.403735e+00 3.850372e+00 3.791129e+00 3.045784e+00 4.021323e+00 3.663140e+00 3.752155e+00 4.106688e+00 3.387314e+00 3.278753e+00 2.673741e+00 1.000000e-02 3.721636e-01 5.924783e-01 5.638633e-01 8.786035e-01 8.089818e-01 8.166438e-01 8.825881e-01 9.191231e-01 8.780438e-01 8.661193e-01 7.736416e-01 6.366407e-01 1.000000e-02
<GCONST> 1.115594e+02
<MIXTURE> 8 1.034699e-01
<MEAN> 38
 -1.160980e+00 -4.838132e+00 -2.183160e+00 5.238485e+00 2.051428e+00 -3.093810e+00 -4.195045e+00 -1.885283e+00 2.263299e+00 9.684818e-01 1.246294e+00 -2.543567e-01 1.700915e+00 8.565670e-02 -2.542464e-01 -1.031619e+00 -1.660698e+00 -1.205224e+00 -1.396352e+00 -7.357967e-01 -8.152828e-01 -4.380560e-01 -1.047366e-01 2.791123e-02 6.837013e-02 7.763955e-01 1.263631e+00 6.521005e-01 -2.140515e-01 -2.442856e-01 4.147455e-01 3.401440e-01 -7.210623e-02 -5.737640e-01 -3.417964e-01 -2.785285e-01 -7.823000e-02 -8.709776e-05
<VARIANCE> 38
 1.791174e+01 1.802925e+01 2.765629e+01 3.072533e+01 3.237245e+01 3.525338e+01 4.298862e+01 3.748256e+01 2.900752e+01 2.786881e+01 2.717873e+01 2.340142e+01 1.932441e+00 3.585577e+00 3.953280e+00 4.317094e+00 3.599946e+00 4.167080e+00 3.847859e+00 3.192468e+00 3.667552e+00 3.265136e+00 3.215128e+00 2.304832e+00 1.000000e-02 3.591986e-01 6.674656e-01 5.428609e-01 7.116440e-01 7.104684e-01 8.213594e-01 9.259761e-01 8.033235e-01 7.463412e-01 6.791564e-01 7.384506e-01 5.710915e-01 1.000000e-02
<GCONST> 1.104447e+02
<STATE> 4
<NUMMIXES> 8
<SWEIGHTS> 1
 1.000000e+00
<MIXTURE> 1 1.155635e-01
<MEAN> 38
 5.830256e+00 1.220685e+00 -4.228497e+00 -1.262506e+00 -4.885278e-01 1.242826e+00 -2.532942e+00 -4.994689e+00 -6.701589e-01 9.838144e-01 3.280701e+00 1.541526e+00 2.218948e+00 7.188634e-01 -7.472689e-01 -2.363163e+00 -1.267367e+00 7.508873e-01 -4.875780e-01 -3.017596e-01 -3.980616e-01 5.989622e-01 6.069872e-01 3.295637e-01 4.863202e-02 -1.562120e-01 1.885611e-01 4.554430e-01 3.249893e-01 2.208060e-01 2.425669e-01 2.554941e-01 3.333139e-01 8.715372e-03 -1.026504e-01 -2.642992e-01 -1.649908e-01 -8.323199e-03
<VARIANCE> 38
 1.782175e+01 1.651436e+01 2.242751e+01 4.155756e+01 2.711911e+01 3.648571e+01 3.307846e+01 2.798132e+01 2.878501e+01 3.017400e+01 2.505305e+01 2.229610e+01 1.759290e+00 3.810301e+00 3.053688e+00 5.138309e+00 3.805324e+00 5.161477e+00 4.110389e+00 3.858911e+00 3.934145e+00 3.992530e+00 4.543533e+00 3.195811e+00 1.000000e-02 3.307424e-01 4.128068e-01 2.583573e-01 4.703053e-01 3.910250e-01 4.912936e-01 4.278338e-01 4.126306e-01 4.365971e-01 4.233918e-01 3.923389e-01 3.370119e-01 1.000000e-02
<GCONST> 1.046033e+02
<MIXTURE> 2 1.417262e-01
<MEAN> 38
 5.372226e+00 -2.331629e+00 3.817127e+00 7.620709e+00 -4.440609e+00 -8.586189e+00 -6.270656e+00 2.677692e-01 1.905852e-01 -2.458234e+00 9.491553e-01 2.021100e+00 8.440563e-01 1.580730e-01 1.388476e+00 -4.882449e-01 -2.026961e+00 -4.321408e-01 5.179260e-02 1.510924e-01 -9.275993e-01 -4.545243e-02 4.093551e-01 6.406360e-01 3.525921e-02 -2.947333e-01 3.709178e-01 6.137269e-02 -2.433902e-01 4.361689e-01 7.640164e-01 4.716167e-01 -1.294993e-01 -1.198272e-02 2.687117e-01 -8.900997e-02 -2.341658e-01 -1.036084e-02
<VARIANCE> 38
 1.318887e+01 1.664484e+01 3.181612e+01 3.778986e+01 3.904497e+01 3.097647e+01 4.164349e+01 3.298369e+01 3.934084e+01 3.562275e+01 2.567535e+01 2.403095e+01 1.526004e+00 2.542416e+00 2.353900e+00 3.199396e+00 3.577075e+00 3.999347e+00 4.427045e+00 4.405017e+00 4.355589e+00 4.536831e+00 3.215813e+00 2.780349e+00 1.000000e-02 2.085215e-01 3.920437e-01 3.355165e-01 4.235732e-01 4.625577e-01 5.037438e-01 6.017296e-01 5.173941e-01 6.153049e-01 5.803952e-01 4.533814e-01 4.002977e-01 1.000000e-02
<GCONST> 1.054710e+02
<MIXTURE> 3 1.368988e-01
<MEAN> 38
 7.273002e+00 -4.951625e-01 -4.685056e+00 -1.598117e+00 -1.126704e+00 3.622656e-01 -4.990136e+00 -3.788457e+00 1.079636e+00 2.966463e+00 2.096911e+00 -1.509939e+00 1.635158e+00 -3.329616e-01 -7.640864e-01 -1.516822e+00 -8.958696e-01 2.475617e-01 -7.897255e-01 2.861058e-01 2.042735e-01 7.836478e-01 -1.071251e-01 -2.194549e-01 4.398132e-02 -3.695908e-01 1.751635e-01 5.013242e-01 5.097758e-01 3.413526e-01 1.549443e-01 4.330640e-01 2.759438e-01 -3.934375e-02 -2.851049e-01 -2.370071e-01 7.402230e-02 -1.082179e-02
<VARIANCE> 38
 1.327978e+01 1.888280e+01 2.556333e+01 4.548672e+01 2.746495e+01 4.362670e+01 3.758076e+01 3.179895e+01 3.554891e+01 3.414865e+01 3.702647e+01 2.438676e+01 1.694708e+00 3.003850e+00 2.773251e+00 4.105623e+00 3.460700e+00 4.781960e+00 3.823273e+00 3.764888e+00 3.857068e+00 3.878451e+00 4.771757e+00 3.087658e+00 1.000000e-02 2.866721e-01 3.518438e-01 2.771549e-01 4.605852e-01 3.788361e-01 5.290618e-01 4.418359e-01 4.356192e-01 4.848674e-01 4.849763e-01 4.902994e-01 3.341021e-01 1.000000e-02
<GCONST> 1.053582e+02
<MIXTURE> 4 1.146242e-01
<MEAN> 38
 6.215546e+00 -4.518524e+00 1.992053e+00 2.393611e+00 -7.560368e+00 -7.295840e+00 -4.144972e+00 1.788759e+00 -7.186706e-01 1.169140e+00 1.207242e-01 8.427124e-02 1.200274e-01 -4.241626e-01 6.722085e-01 -1.103498e+00 -1.187903e+00 3.050425e-01 6.871242e-01 4.725596e-01 -4.086169e-01 5.924014e-01 -3.112167e-01 1.193065e-01 2.531287e-02 -3.629813e-01 4.559666e-01 -1.716541e-02 1.387004e-01 6.968412e-01 5.160556e-01 3.202179e-01 -2.099220e-01 2.276419e-01 -1.660652e-01 -7.458238e-02 -3.442324e-02 -1.134241e-02
<VARIANCE> 38
 1.051849e+01 1.997341e+01 4.772805e+01 4.263052e+01 3.984069e+01 3.734267e+01 4.900850e+01 4.266122e+01 5.030469e+01 3.980396e+01 3.738244e+01 2.790560e+01 9.269407e-01 1.620604e+00 1.699525e+00 2.322461e+00 3.001557e+00 2.861609e+00 3.450211e+00 3.645644e+00 3.125843e+00 3.282695e+00 2.456873e+00 2.053025e+00 1.000000e-02 1.852471e-01 3.247248e-01 3.445740e-01 4.051342e-01 4.552318e-01 5.383690e-01 6.476972e-01 5.306781e-01 6.733790e-01 5.827448e-01 5.242362e-01 4.036493e-01 1.000000e-02
<GCONST> 1.037636e+02
<MIXTURE> 5 1.162790e-01
<MEAN> 38
 7.324884e+00 -1.460354e+00 -5.220182e+00 -2.104370e+00 -2.027086e+00 -2.657588e-01 -5.848265e+00 -3.892374e+00 5.286618e-01 2.173196e+00 7.433009e-01 -2.839339e+00 1.396991e+00 -7.271163e-01 -1.063908e+00 -1.691513e+00 -1.137079e+00 3.750338e-02 -1.065241e+00 1.685859e-01 4.064918e-02 5.138183e-01 -5.510117e-01 -5.574631e-01 4.581522e-02 -4.162177e-01 1.420337e-01 4.453358e-01 4.321255e-01 2.734962e-01 7.419270e-02 3.724694e-01 1.855899e-01 -7.678617e-02 -3.137966e-01 -2.548258e-01 5.747858e-02 -1.066950e-02
<VARIANCE> 38
 1.204792e+01 1.901276e+01 2.693847e+01 4.453570e+01 2.704099e+01 4.316469e+01 4.048051e+01 3.206550e+01 3.654432e+01 3.434266e+01 4.028260e+01 2.513533e+01 1.637152e+00 2.919071e+00 2.749202e+00 4.024436e+00 3.330783e+00 4.448789e+00 3.976787e+00 3.647717e+00 3.819677e+00 3.753977e+00 4.728665e+00 2.975586e+00 1.000000e-02 2.951761e-01 3.523257e-01 2.904529e-01 4.573707e-01 3.776751e-01 5.320861e-01 4.640517e-01 4.262637e-01 4.930927e-01 4.809452e-01 4.911585e-01 3.371323e-01 1.000000e-02
<GCONST> 1.053399e+02
<MIXTURE> 6 1.337199e-01
<MEAN> 38
 6.285508e+00 7.876652e-01 -4.483420e+00 -1.733841e+00 -1.312958e+00 7.203715e-01 -3.361053e+00 -5.270093e+00 -1.434157e+00 3.584502e-01 2.375744e+00 3.704674e-01 1.950759e+00 3.124094e-01 -1.016418e+00 -2.534949e+00 -1.531023e+00 4.804194e-01 -8.910412e-01 -4.936498e-01 -5.446816e-01 3.656630e-01 2.564376e-01 -6.600203e-02 5.097073e-02 -2.453581e-01 1.083472e-01 3.796728e-01 2.815337e-01 1.656887e-01 1.601150e-01 1.709195e-01 2.639568e-01 4.807920e-03 -1.379795e-01 -3.008876e-01 -1.988908e-01 -8.243011e-03
<VARIANCE> 38
 1.562787e+01 1.623801e+01 2.409584e+01 4.394205e+01 2.652357e+01 3.734979e+01 3.611277e+01 2.907619e+01 3.118302e+01 3.246050e+01 2.684470e+01 2.369584e+01 1.749511e+00 3.796812e+00 3.034072e+00 5.233430e+00 3.557689e+00 5.061844e+00 4.180872e+00 3.850709e+00 4.093697e+00 4.085644e+00 4.784179e+00 3.095870e+00 1.000000e-02 3.406994e-01 4.302896e-01 2.746546e-01 4.755149e-01 3.902088e-01 4.927965e-01 4.421199e-01 4.222645e-01 4.630885e-01 4.227350e-01 4.003550e-01 3.261906e-01 1.000000e-02
<GCONST> 1.052517e+02
<MIXTURE> 7 1.438746e-01
<MEAN> 38
 5.506864e+00 -3.245047e+00 3.261860e+00 6.668379e+00 -5.824954e+00 -9.154736e+00 -6.939219e+00 -2.607464e-01 -9.693599e-01 -2.919353e+00 3.778220e-01 1.108424e+00 5.407544e-01 -2.550161e-01 1.042452e+00 -9.043686e-01 -2.174306e+00 -5.525491e-01 -4.944367e-02 2.263602e-02 -1.087902e+00 -2.651292e-02 7.254546e-02 2.498872e-01 3.592112e-02 -3.557153e-01 3.083094e-01 -3.239684e-02 -2.969635e-01 4.357427e-01 6.711760e-01 3.869079e-01 -1.998632e-01 3.921784e-02 2.601830e-01 -1.659053e-01 -2.768948e-01 -1.055757e-02
<VARIANCE> 38
 1.170546e+01 1.625287e+01 3.367015e+01 4.138192e+01 3.878821e+01 3.108434e+01 4.241452e+01 3.265766e+01 4.146103e+01 3.780120e+01 2.742595e+01 2.501057e+01 1.480262e+00 2.265311e+00 2.299670e+00 3.139748e+00 3.558797e+00 3.903436e+00 4.215788e+00 4.252765e+00 4.299740e+00 4.325216e+00 3.187730e+00 2.669752e+00 1.000000e-02 2.180362e-01 3.849480e-01 3.539104e-01 4.326448e-01 4.850691e-01 5.296109e-01 6.297925e-01 5.334392e-01 6.380054e-01 6.153328e-01 4.714859e-01 4.214579e-01 1.000000e-02
<GCONST> 1.057468e+02
<MIXTURE> 8 9.730205e-02
<MEAN> 38
 5.844637e+00 -5.509012e+00 1.247007e+00 9.611512e-01 -8.665484e+00 -7.733648e+00 -4.482441e+00 1.348894e+00 -1.669159e+00 7.278286e-01 -1.041538e+00 -1.144736e+00 -1.082314e-01 -6.631757e-01 3.935692e-01 -1.382432e+00 -1.284489e+00 2.397201e-01 5.832666e-01 2.341778e-01 -6.219558e-01 3.464738e-01 -6.695412e-01 -2.220797e-01 2.602950e-02 -4.000343e-01 3.990456e-01 -6.441193e-02 1.219574e-01 6.636524e-01 4.536183e-01 2.545169e-01 -2.410454e-01 2.391405e-01 -2.317398e-01 -9.243651e-02 -3.484324e-02 -1.136234e-02
<VARIANCE> 38
 1.043375e+01 1.939069e+01 4.935648e+01 4.384867e+01 4.095078e+01 3.575788e+01 4.968480e+01 4.338300e+01 5.250395e+01 3.966080e+01 3.901286e+01 2.842595e+01 8.701143e-01 1.619607e+00 1.695136e+00 2.259986e+00 3.021144e+00 2.743362e+00 3.289907e+00 3.651259e+00 3.207245e+00 3.157340e+00 2.485838e+00 1.986411e+00 1.000000e-02 1.940970e-01 2.992874e-01 3.499826e-01 4.146319e-01 4.699101e-01 5.408232e-01 6.581075e-01 5.326774e-01 6.989661e-01 5.782147e-01 5.324737e-01 4.126305e-01 1.000000e-02
<GCONST> 1.038195e+02
<TRANSP> 5
 0.000000e+00 1.000000e+00 0.000000e+00 0.000000e+00 0.000000e+00
 0.000000e+00 8.534291e-01 1.465709e-01 0.000000e+00 0.000000e+00
 0.000000e+00 0.000000e+00 6.565658e-01 3.434343e-01 0.000000e+00
 0.000000e+00 0.000000e+00 0.000000e+00 6.230556e-01 3.769443e-01
 0.000000e+00 0.000000e+00 0.000000e+00 0.000000e+00 0.000000e+00
<ENDHMM>
~h "d"
<BEGINHMM>
<NUMSTATES> 5
<STATE> 2
<NUMMIXES> 8
<SWEIGHTS> 1
 1.000000e+00
<MIXTURE> 1 1.853137e-01
<MEAN> 38
 6.548310e+00 1.396022e+01 8.287871e+00 6.762657e+00 9.566063e-01 -3.176396e+00 -4.848256e-01 -1.889026e-01 1.566763e+00 -1.457597e+00 -4.119292e+00 -1.998618e+00 -1.924307e-01 2.780649e-01 2.650850e-01 4.473545e-01 4.166771e-01 3.564790e-01 3.058878e-01 1.207288e-01 7.412305e-02 -1.828960e-02 9.262192e-02 5.201861e-02 -1.253903e-02 -3.547874e-01 -6.900870e-01 -1.613726e-01 -1.565837e-01 1.745816e-01 2.258286e-01 3.175532e-02 -3.539847e-02 -1.115547e-01 2.930403e-02 2.493517e-01 1.351741e-01 5.147506e-05
<VARIANCE> 38
 1.770929e+01 1.515002e+01 1.996197e+01 2.121083e+01 2.858301e+01 2.689602e+01 3.192521e+01 3.518797e+01 2.944061e+01 2.613826e+01 2.295660e+01 2.317349e+01 9.694294e-01 1.843871e+00 1.142623e+00 1.173112e+00 1.586111e+00 1.630491e+00 1.614284e+00 1.727342e+00 1.657518e+00 1.506689e+00 1.438257e+00 1.347183e+00 1.000000e-02 1.966783e-01 4.492610e-01 2.736067e-01 2.986714e-01 3.432441e-01 3.615057e-01 3.636686e-01 4.126944e-01 3.782827e-01 3.603046e-01 3.298939e-01 3.064307e-01 1.000000e-02
<GCONST> 9.008801e+01
<MIXTURE> 2 9.319832e-02
<MEAN> 38
 -2.018891e+00 3.553063e+00 5.813664e+00 5.057779e+00 6.407748e+00 1.859223e+00 1.631916e+00 -6.977853e-01 -8.256508e-01 -1.348554e+00 -3.791142e-02 -5.783962e-01 -1.533604e+00 -2.402134e+00 -1.124830e+00 -1.240112e+00 -6.335275e-02 -2.212433e-02 1.823684e-01 5.267417e-01 4.893675e-01 4.601385e-01 1.076437e+00 7.071938e-01 1.130291e-02 5.369750e-01 2.029773e-01 -2.610056e-01 -3.097186e-01 -8.368173e-01 -6.442345e-01 -3.328130e-01 -7.068104e-02 1.650662e-01 1.960066e-01 3.535675e-03 1.582595e-01 1.583274e-02
<VARIANCE> 38
 2.746552e+01 3.724516e+01 4.115871e+01 4.213802e+01 3.553558e+01 3.962755e+01 4.249515e+01 3.662541e+01 3.176516e+01 2.632183e+01 2.719293e+01 2.177737e+01 2.744715e+00 5.499530e+00 3.666275e+00 3.634990e+00 4.000802e+00 4.079435e+00 3.857829e+00 3.844370e+00 3.721130e+00 3.217930e+00 2.984472e+00 2.582690e+00 1.000000e-02 4.245161e-01 9.706534e-01 7.172408e-01 7.590814e-01 6.591967e-01 6.836792e-01 6.948852e-01 6.791351e-01 6.087570e-01 5.859537e-01 5.495195e-01 4.794481e-01 1.000000e-02
<GCONST> 1.126417e+02
<MIXTURE> 3 1.055831e-01
<MEAN> 38
 -2.195650e+00 -1.471120e+00 5.570418e+00 2.468063e+00 4.636725e+00 2.261905e+00 4.957208e-01 3.316248e-01 -8.522418e-01 -2.162999e+00 6.226257e-01 -4.434249e-01 -1.777595e+00 -2.728912e+00 -1.218635e+00 -1.780654e+00 -5.327313e-01 -3.386884e-01 -2.912366e-01 5.139008e-01 3.014664e-01 2.334162e-01 1.362731e+00 9.887347e-01 2.597231e-02 8.162657e-01 1.024806e+00 -1.251007e-01 1.114243e-01 -7.780105e-01 -9.153942e-01 -3.760782e-01 -2.533880e-01 1.703480e-01 2.842642e-01 -1.989144e-01 8.778795e-02 1.385031e-02
<VARIANCE> 38
 2.085897e+01 3.545918e+01 3.921089e+01 3.981709e+01 4.206314e+01 4.533036e+01 4.499149e+01 3.946878e+01 3.585055e+01 3.331627e+01 3.483446e+01 2.860043e+01 2.073622e+00 4.384488e+00 3.101498e+00 3.152348e+00 3.848655e+00 4.267001e+00 4.103492e+00 4.419314e+00 4.386450e+00 3.646856e+00 3.289449e+00 2.929821e+00 1.000000e-02 3.849728e-01 9.543800e-01 7.612967e-01 8.217729e-01 9.450336e-01 9.910564e-01 8.831071e-01 8.851611e-01 8.009366e-01 8.947105e-01 8.097633e-01 7.532561e-01 1.000000e-02
<GCONST> 1.162252e+02
<MIXTURE> 4 1.244789e-01
<MEAN> 38
 5.240385e+00 1.136948e+01 8.216735e+00 7.039933e+00 1.594038e+00 -2.788978e+00 -1.247400e+00 -1.908109e+00 -7.499316e-02 -1.761368e+00 -3.555932e+00 -2.540601e+00 -1.641868e+00 -1.760350e+00 3.048890e-01 -1.638432e-01 1.136179e+00 1.107115e+00 5.101578e-01 3.443328e-01 -2.051952e-01 -2.598937e-01 7.062645e-01 3.682438e-01 -1.468848e-02 -4.200730e-01 -1.089432e+00 -5.441972e-01 -5.725232e-01 -1.617939e-01 8.395664e-02 6.224750e-03 1.196821e-01 6.167141e-02 1.802604e-01 4.559306e-01 3.321676e-01 7.616350e-03
<VARIANCE> 38
 1.928687e+01 2.558491e+01 2.749739e+01 2.901242e+01 3.547827e+01 3.239435e+01 3.635540e+01 3.741534e+01 3.516474e+01 3.094408e+01 2.701455e+01 2.562590e+01 2.529051e+00 7.041684e+00 3.602283e+00 3.570472e+00 4.503520e+00 4.303761e+00 4.152508e+00 4.390908e+00 3.750886e+00 3.798179e+00 3.692500e+00 3.292904e+00 1.000000e-02 3.044376e-01 6.161928e-01 4.547002e-01 4.831332e-01 5.686455e-01 5.733845e-01 5.717839e-01 6.375310e-01 6.151465e-01 5.656178e-01 5.083512e-01 4.516980e-01 1.000000e-02
<GCONST> 1.099170e+02
<MIXTURE> 5 1.725189e-01
<MEAN> 38
 6.147823e+00 1.248401e+01 7.288282e+00 5.501975e+00 1.039894e-02 -4.251289e+00 -1.689178e+00 -1.378101e+00 4.540568e-01 -2.077910e+00 -4.895948e+00 -3.002028e+00 -4.480465e-01 -3.907976e-02 2.068494e-01 2.299111e-01 4.009872e-01 2.401751e-01 1.210659e-01 -5.926661e-02 -1.050194e-01 -2.197010e-01 -6.868967e-02 -1.105710e-01 -1.217502e-02 -4.186543e-01 -8.689575e-01 -2.385297e-01 -2.673217e-01 1.269994e-01 1.925799e-01 -1.315023e-02 -5.532515e-02 -1.582778e-01 8.002964e-03 2.806993e-01 1.584346e-01 2.622556e-03
<VARIANCE> 38
 1.851491e+01 1.889483e+01 2.170997e+01 2.161617e+01 3.127474e+01 2.791107e+01 3.252366e+01 3.609019e+01 3.173405e+01 2.867896e+01 2.399211e+01 2.515722e+01 1.295197e+00 2.828449e+00 1.351652e+00 1.349349e+00 1.831979e+00 1.849453e+00 1.783359e+00 1.891390e+00 1.837849e+00 1.623834e+00 1.636415e+00 1.528431e+00 1.000000e-02 2.465945e-01 5.121164e-01 3.265386e-01 3.523767e-01 4.104848e-01 3.983591e-01 4.095868e-01 4.683512e-01 4.374706e-01 3.987017e-01 3.721058e-01 3.441956e-01 1.000000e-02
<GCONST> 9.454463e+01
<MIXTURE> 6 1.230143e-01
<MEAN> 38
 5.087310e+00 1.000181e+01 7.716389e+00 5.965087e+00 6.339151e-01 -3.795345e+00 -2.383870e+00 -2.884250e+00 -9.261069e-01 -2.583635e+00 -4.311666e+00 -3.435349e+00 -2.041203e+00 -2.329575e+00 4.816021e-02 -5.563522e-01 1.099571e+00 9.623115e-01 3.352231e-01 2.517019e-01 -3.964348e-01 -4.961739e-01 6.227294e-01 2.236488e-01 -1.181363e-02 -3.911782e-01 -1.080330e+00 -6.500642e-01 -6.430775e-01 -2.642224e-01 -2.716737e-02 -7.597424e-02 7.506340e-02 3.447652e-02 1.763462e-01 4.300976e-01 3.290961e-01 1.040255e-02
<VARIANCE> 38
 1.818397e+01 2.773558e+01 2.890144e+01 2.964150e+01 3.569045e+01 3.211011e+01 3.589971e+01 3.710414e+01 3.608332e+01 3.327371e+01 2.839045e+01 2.644243e+01 2.447647e+00 6.409358e+00 3.848582e+00 3.636935e+00 4.764208e+00 4.670892e+00 4.363234e+00 4.670846e+00 4.125942e+00 4.104746e+00 4.218729e+00 3.680603e+00 1.000000e-02 3.029156e-01 5.956303e-01 4.436160e-01 4.582748e-01 5.537494e-01 5.686631e-01 5.558503e-01 6.214058e-01 6.139119e-01 5.558512e-01 5.213516e-01 4.549994e-01 1.000000e-02
<GCONST> 1.105983e+02
<MIXTURE> 7 9.430113e-02
<MEAN> 38
 -2.365734e+00 -2.276136e+00 5.231922e+00 2.027872e+00 4.157988e+00 1.910833e+00 1.134210e-01 3.843819e-02 -1.246939e+00 -2.905800e+00 -1.825493e-01 -1.409416e+00 -1.997752e+00 -3.213323e+00 -1.496867e+00 -2.154020e+00 -7.436548e-01 -5.153400e-01 -5.605021e-01 2.812001e-01 1.788210e-02 -5.926833e-02 1.144088e+00 7.658839e-01 3.210074e-02 7.847334e-01 1.037537e+00 -1.835587e-01 6.003443e-02 -7.893088e-01 -9.682609e-01 -4.734609e-01 -2.923030e-01 1.453609e-01 2.735574e-01 -2.263225e-01 6.389240e-02 1.378726e-02
<VARIANCE> 38
 1.955276e+01 3.372601e+01 3.939196e+01 3.920659e+01 4.173094e+01 4.651283e+01 4.489854e+01 4.166544e+01 3.667382e+01 3.456965e+01 3.442547e+01 3.034379e+01 2.004008e+00 4.055028e+00 3.214472e+00 3.379131e+00 4.099494e+00 4.467879e+00 4.341820e+00 4.739746e+00 4.742100e+00 3.836917e+00 3.502837e+00 3.048623e+00 1.000000e-02 3.711858e-01 9.005106e-01 7.399768e-01 8.040767e-01 9.448022e-01 9.725122e-01 8.654901e-01 8.644269e-01 7.976279e-01 9.061899e-01 8.460231e-01 7.425896e-01 1.000000e-02
<GCONST> 1.165668e+02
<MIXTURE> 8 1.015418e-01
<MEAN> 38
 -1.815069e+00 2.234867e+00 5.507252e+00 4.292906e+00 5.613064e+00 1.024841e+00 8.896325e-01 -1.356440e+00 -1.361802e+00 -2.136338e+00 -9.179917e-01 -1.494477e+00 -1.900151e+00 -3.033178e+00 -1.473942e+00 -1.705702e+00 -3.104783e-01 -2.714683e-01 -1.084647e-01 2.815009e-01 2.602601e-01 1.944430e-01 9.143386e-01 5.777884e-01 1.881244e-02 5.555359e-01 2.932450e-01 -3.178741e-01 -3.540813e-01 -9.046075e-01 -7.355734e-01 -4.464193e-01 -1.365816e-01 1.145241e-01 1.665899e-01 -4.074840e-02 1.312160e-01 1.661480e-02
<VARIANCE> 38
 2.436860e+01 3.655007e+01 4.006925e+01 4.029914e+01 3.514268e+01 3.980168e+01 4.193643e+01 3.667648e+01 3.157969e+01 2.642028e+01 2.664083e+01 2.270599e+01 2.574337e+00 5.033689e+00 3.716037e+00 3.781995e+00 4.325267e+00 4.390460e+00 4.078526e+00 4.236294e+00 4.058195e+00 3.418016e+00 3.268675e+00 2.768962e+00 1.000000e-02 4.167471e-01 9.378127e-01 6.821266e-01 7.308001e-01 6.707953e-01 7.053996e-01 6.951129e-01 6.771840e-01 6.192437e-01 5.966733e-01 5.861632e-01 4.931229e-01 1.000000e-02
<GCONST> 1.129777e+02
<STATE> 3
<NUMMIXES> 8
<SWEIGHTS> 1
 1.000000e+00
<MIXTURE> 1 1.022455e-01
<MEAN> 38
 -5.880635e+00 -1.364346e+00 8.865070e-01 -2.045838e+00 4.551635e-01 -3.119273e+00 4.569864e-01 4.425569e-01 -3.120487e-01 -6.493075e-01 2.994710e+00 2.450387e+00 1.369898e+00 2.306494e+00 1.634145e+00 1.472138e+00 -7.757003e-01 -1.426945e+00 -6.243601e-01 -2.763634e-01 -1.032116e-01 -2.683222e-01 -6.896156e-01 9.626486e-02 5.058412e-02 8.557473e-01 4.913999e-01 5.497478e-01 6.766647e-01 7.960660e-03 2.544632e-01 -1.492110e-01 -9.274205e-02 1.368341e-01 1.037950e-01 -3.586660e-01 -2.123649e-01 7.877255e-04
<VARIANCE> 38
 2.084443e+01 3.147688e+01 4.434167e+01 3.475406e+01 3.242979e+01 3.758958e+01 4.009753e+01 4.121107e+01 3.659531e+01 3.099110e+01 3.181408e+01 2.569329e+01 2.025536e+00 2.226620e+00 3.129172e+00 2.850580e+00 4.107746e+00 4.011070e+00 3.285772e+00 3.189761e+00 3.133325e+00 2.839261e+00 2.685350e+00 2.604358e+00 1.000000e-02 2.875495e-01 8.445604e-01 6.395989e-01 7.316751e-01 5.818752e-01 6.687930e-01 6.753016e-01 7.240473e-01 6.450894e-01 6.446661e-01 6.216319e-01 5.544388e-01 1.000000e-02
<GCONST> 1.099113e+02
<MIXTURE> 2 1.317622e-01
<MEAN> 38
 -5.063636e-01 2.411656e+00 3.385072e+00 1.610868e+00 2.362535e+00 -4.161778e+00 -3.407548e+00 -8.475654e-01 9.066802e-01 -1.008946e+00 -4.707474e-01 1.288459e+00 8.991314e-01 -9.426188e-03 -7.027224e-01 -5.694568e-01 -9.181789e-01 -9.309053e-01 -1.071478e+00 -1.318893e-01 1.004803e+00 9.857948e-01 4.397607e-01 2.332601e-01 2.608454e-02 6.519921e-01 1.879171e-01 3.254883e-02 8.548148e-02 -2.575447e-01 2.544032e-01 4.833353e-03 -1.832968e-01 -5.064411e-02 2.360044e-01 -2.478591e-02 -2.354715e-01 3.813093e-03
<VARIANCE> 38
 2.288909e+01 3.063971e+01 3.073610e+01 3.432269e+01 3.597316e+01 4.131942e+01 4.443681e+01 3.580567e+01 3.478227e+01 2.945641e+01 2.756755e+01 2.528349e+01 2.139221e+00 2.922478e+00 2.502591e+00 2.789050e+00 3.319793e+00 4.357774e+00 3.902564e+00 3.613321e+00 3.376246e+00 3.267587e+00 2.848647e+00 3.143272e+00 1.000000e-02 3.325786e-01 5.648540e-01 3.925313e-01 4.448141e-01 5.432560e-01 6.723439e-01 6.218865e-01 6.271294e-01 5.728598e-01 5.367888e-01 4.995120e-01 5.052495e-01 1.000000e-02
<GCONST> 1.080631e+02
<MIXTURE> 3 1.114418e-01
<MEAN> 38
 -1.007636e+00 -2.508635e-01 2.591747e+00 1.297969e+00 7.547402e-01 -4.588065e+00 -3.355389e+00 -1.033576e+00 1.563787e+00 -1.896912e+00 7.659444e-02 1.241194e+00 8.446696e-01 -4.378508e-01 -1.218215e+00 -1.308793e+00 -1.304191e+00 -1.310651e+00 -1.470036e+00 2.535671e-01 1.332085e+00 1.007360e+00 3.262867e-01 4.629728e-01 3.780626e-02 8.687126e-01 5.706112e-01 5.010734e-02 9.632754e-02 -1.329717e-01 2.076478e-01 -1.291909e-01 -1.704833e-01 -8.428849e-02 4.005761e-01 -1.740371e-01 -3.117470e-01 4.546217e-03
<VARIANCE> 38
 1.832032e+01 2.598397e+01 3.225527e+01 3.135165e+01 4.040920e+01 4.115151e+01 4.451564e+01 3.830992e+01 3.792709e+01 3.503158e+01 3.126954e+01 2.767852e+01 2.096152e+00 3.015621e+00 2.614880e+00 2.568765e+00 3.214529e+00 4.025553e+00 4.080211e+00 4.230005e+00 3.594768e+00 3.792557e+00 3.890593e+00 3.278799e+00 1.000000e-02 3.534681e-01 6.770799e-01 4.857053e-01 5.474794e-01 7.649198e-01 8.716138e-01 8.561103e-01 8.615236e-01 8.148490e-01 8.405631e-01 8.376200e-01 7.114991e-01 1.000000e-02
<GCONST> 1.124820e+02
<MIXTURE> 4 1.592567e-01
<MEAN> 38
 -5.718554e+00 -3.166518e+00 5.426779e-01 -1.292760e+00 1.318629e+00 -1.285481e+00 1.365118e+00 9.314755e-02 1.385336e-01 7.045993e-01 4.565342e+00 1.638055e+00 5.601328e-01 8.335419e-01 -1.217210e-02 -4.756259e-01 -1.974027e+00 -2.237069e+00 -9.797165e-01 -4.493804e-01 -1.334415e-01 -3.193108e-02 1.263696e-01 8.327491e-01 5.463417e-02 1.104290e+00 1.224525e+00 7.852833e-01 7.956370e-01 -2.316443e-01 -2.202099e-01 -2.978211e-01 -1.058849e-01 3.274877e-02 -1.961262e-01 -7.476770e-01 -1.439667e-01 4.275272e-03
<VARIANCE> 38
 2.051922e+01 3.531237e+01 4.200539e+01 3.530859e+01 3.691893e+01 3.914765e+01 3.926488e+01 3.985962e+01 3.573622e+01 3.249827e+01 3.270457e+01 2.728842e+01 2.160974e+00 3.331832e+00 3.244128e+00 2.738682e+00 3.265775e+00 2.982613e+00 3.077192e+00 3.107708e+00 2.942919e+00 2.692034e+00 2.808318e+00 2.328497e+00 1.000000e-02 3.705639e-01 9.671081e-01 6.947710e-01 7.877908e-01 9.375020e-01 8.904361e-01 8.374674e-01 8.513575e-01 7.592701e-01 7.888894e-01 7.340851e-01 6.677508e-01 1.000000e-02
<GCONST> 1.122665e+02
<MIXTURE> 5 1.463807e-01
<MEAN> 38
 -6.002717e+00 -3.958416e+00 1.742102e-01 -1.708853e+00 5.858008e-01 -1.623486e+00 1.051983e+00 -6.618579e-02 -1.618981e-01 3.215615e-01 4.157454e+00 1.090566e+00 3.938602e-01 6.276996e-02 -5.253474e-01 -1.170021e+00 -2.356257e+00 -2.593525e+00 -1.502541e+00 -9.435395e-01 -6.066920e-01 -4.136433e-01 -1.508338e-01 5.078476e-01 6.886949e-02 1.036528e+00 1.247280e+00 6.752186e-01 7.017238e-01 -2.466070e-01 -3.098555e-01 -3.657557e-01 -1.750510e-01 -2.240125e-02 -2.539300e-01 -8.273420e-01 -2.171593e-01 2.691987e-03
<VARIANCE> 38
 1.963313e+01 3.589113e+01 4.195931e+01 3.393417e+01 3.619349e+01 3.847211e+01 3.831989e+01 4.056835e+01 3.667210e+01 3.268526e+01 3.082315e+01 2.758257e+01 2.248044e+00 3.907668e+00 3.281405e+00 2.977910e+00 3.142475e+00 2.857898e+00 3.217151e+00 3.347168e+00 3.103273e+00 2.855503e+00 3.015738e+00 2.351117e+00 1.000000e-02 3.837876e-01 9.885565e-01 6.951247e-01 8.136854e-01 9.862376e-01 8.795198e-01 8.501882e-01 8.251881e-01 7.546896e-01 7.971681e-01 7.533116e-01 6.272839e-01 1.000000e-02
<GCONST> 1.127411e+02
<MIXTURE> 6 1.447804e-01
<MEAN> 38
 -5.389600e-01 1.536250e+00 2.666453e+00 6.794900e-01 1.579172e+00 -5.182060e+00 -4.353858e+00 -1.962740e+00 1.848355e-01 -1.807422e+00 -1.373196e+00 1.954142e-01 6.947485e-01 -5.595863e-01 -1.036490e+00 -1.024737e+00 -1.240325e+00 -1.211565e+00 -1.395472e+00 -2.084651e-01 8.979152e-01 6.992385e-01 1.247295e-01 1.215927e-01 3.200978e-02 6.895507e-01 1.700963e-01 -2.763066e-02 5.802995e-03 -3.483100e-01 2.009716e-01 -9.680557e-02 -1.859387e-01 -7.974483e-02 2.063239e-01 -9.253381e-02 -2.839352e-01 4.767415e-03
<VARIANCE> 38
 2.023602e+01 2.553887e+01 3.050475e+01 3.160316e+01 3.654356e+01 4.046352e+01 4.214138e+01 3.575198e+01 3.426657e+01 3.016321e+01 2.627873e+01 2.585357e+01 2.127597e+00 2.711053e+00 2.591961e+00 2.658105e+00 3.219462e+00 4.122118e+00 3.886111e+00 3.776894e+00 3.424818e+00 3.259202e+00 3.184550e+00 3.185160e+00 1.000000e-02 3.259519e-01 5.751666e-01 4.075267e-01 4.788494e-01 5.555923e-01 6.716197e-01 6.549145e-01 6.498172e-01 5.876039e-01 5.730948e-01 5.684122e-01 5.269741e-01 1.000000e-02
<GCONST> 1.080678e+02
<MIXTURE> 7 1.185537e-01
<MEAN> 38
 -5.965137e+00 -9.178556e-01 1.369376e+00 -1.334081e+00 6.517331e-02 -3.432245e+00 3.423938e-01 -9.434023e-02 -9.326618e-01 -1.144677e+00 2.513058e+00 1.707026e+00 1.300744e+00 1.670362e+00 1.051796e+00 6.898925e-01 -1.504588e+00 -2.086549e+00 -1.229436e+00 -8.570026e-01 -6.493993e-01 -7.070073e-01 -1.008771e+00 -1.306866e-01 5.587780e-02 8.660620e-01 4.128604e-01 4.456136e-01 5.006715e-01 -1.085478e-01 9.572433e-02 -3.005888e-01 -2.009737e-01 5.482920e-02 2.571266e-02 -4.688489e-01 -2.752550e-01 8.022840e-04
<VARIANCE> 38
 2.387757e+01 3.309241e+01 4.659753e+01 3.283880e+01 3.153105e+01 3.710039e+01 4.018982e+01 4.173824e+01 3.895843e+01 3.149414e+01 3.065269e+01 2.648189e+01 2.234380e+00 2.465131e+00 3.252362e+00 2.900928e+00 3.999418e+00 3.849492e+00 3.432115e+00 3.117392e+00 3.072405e+00 2.976301e+00 3.025022e+00 2.662306e+00 1.000000e-02 2.838260e-01 9.025756e-01 6.415538e-01 7.398406e-01 6.001318e-01 6.749280e-01 6.769145e-01 7.020617e-01 6.396524e-01 6.449289e-01 6.428239e-01 5.525245e-01 1.000000e-02
<GCONST> 1.106143e+02
<MIXTURE> 8 8.556510e-02
<MEAN> 38
 -1.037488e+00 -6.919615e-01 1.914359e+00 6.197401e-01 -3.898818e-02 -5.522163e+00 -3.948733e+00 -1.843971e+00 7.721329e-01 -3.027007e+00 -1.052866e+00 -1.310106e-02 6.299319e-01 -9.918138e-01 -1.575111e+00 -1.705492e+00 -1.522034e+00 -1.527632e+00 -1.682906e+00 2.550930e-01 1.174531e+00 6.014093e-01 -1.263853e-01 3.896280e-01 4.119121e-02 8.609343e-01 4.949813e-01 -3.436220e-02 -1.214218e-02 -1.836376e-01 1.498476e-01 -2.564352e-01 -1.571183e-01 -9.991886e-02 3.608727e-01 -2.680588e-01 -3.547505e-01 5.308327e-03
<VARIANCE> 38
 1.712489e+01 2.420032e+01 3.226300e+01 3.099727e+01 4.084933e+01 4.078469e+01 4.327412e+01 3.894173e+01 3.812359e+01 3.603572e+01 2.970313e+01 2.946968e+01 2.157498e+00 2.866782e+00 2.713040e+00 2.511687e+00 3.334146e+00 3.868729e+00 4.168925e+00 4.497776e+00 3.622530e+00 3.838439e+00 4.339348e+00 3.303000e+00 1.000000e-02 3.472346e-01 6.988585e-01 5.178022e-01 5.682940e-01 7.767087e-01 8.511246e-01 8.768101e-01 8.810666e-01 8.316408e-01 8.815829e-01 9.684463e-01 7.267221e-01 1.000000e-02
<GCONST> 1.129628e+02
<STATE> 4
<NUMMIXES> 8
<SWEIGHTS> 1
 1.000000e+00
<MIXTURE> 1 9.065742e-02
<MEAN> 38
 6.819081e-01 3.623325e+00 4.707801e+00 2.096518e+00 -7.028638e-01 -4.739788e+00 -2.788389e+00 -2.335144e+00 -8.836368e-01 -6.252138e-02 1.592782e+00 1.802273e+00 1.299325e+00 6.314800e-01 2.523633e-01 2.355916e-01 -1.122211e+00 -5.444255e-01 -5.121804e-01 -4.454748e-01 1.939332e-01 5.363637e-01 8.250438e-02 2.593234e-01 2.676924e-02 1.143640e-01 -1.376657e-01 2.036704e-02 4.883402e-02 1.408455e-01 4.525705e-01 1.690509e-01 1.452069e-01 8.369302e-02 -2.165613e-02 -1.418673e-01 -1.560398e-01 -2.865694e-03
<VARIANCE> 38
 2.062137e+01 2.633661e+01 3.559074e+01 3.884060e+01 4.410466e+01 4.736182e+01 4.836419e+01 4.245208e+01 3.458414e+01 2.939603e+01 2.633224e+01 2.470635e+01 1.920996e+00 2.931177e+00 3.318681e+00 3.454565e+00 4.122993e+00 4.516998e+00 3.593206e+00 3.701235e+00 3.363161e+00 3.039879e+00 2.964360e+00 3.045611e+00 1.000000e-02 1.913620e-01 4.220656e-01 3.268855e-01 3.676658e-01 4.039777e-01 4.892658e-01 4.559167e-01 4.374058e-01 3.977066e-01 3.984726e-01 3.480117e-01 3.559336e-01 1.000000e-02
<GCONST> 1.052370e+02
<MIXTURE> 2 1.353313e-01
<MEAN> 38
 4.738391e+00 1.772669e-01 -3.456850e-01 -6.334358e-01 -9.068156e-01 -5.160069e+00 -1.000583e+01 -2.392664e+00 5.399329e+00 3.069009e+00 -2.158178e-01 -1.087494e+00 1.348589e+00 -3.058330e-01 -1.016549e+00 -6.852059e-01 -5.528024e-01 6.217679e-01 -8.061112e-01 -1.075160e-01 9.027381e-01 1.184989e+00 3.853112e-01 -6.992193e-01 2.455424e-02 -2.315229e-01 -1.961469e-02 1.927850e-01 1.307117e-01 2.127014e-01 4.769129e-01 6.464041e-01 1.439224e-01 -4.525135e-01 -2.483461e-01 6.102034e-02 5.405535e-02 -7.509013e-03
<VARIANCE> 38
 9.379673e+00 1.664263e+01 2.566155e+01 3.213251e+01 3.258977e+01 3.683284e+01 4.167403e+01 4.190663e+01 3.192691e+01 3.844711e+01 2.700070e+01 3.173491e+01 1.095722e+00 1.525972e+00 1.809553e+00 2.334779e+00 2.782016e+00 3.961400e+00 3.818691e+00 3.824723e+00 3.740492e+00 3.506415e+00 3.291155e+00 2.931799e+00 1.000000e-02 1.896903e-01 2.606279e-01 2.530808e-01 3.283528e-01 3.693324e-01 4.679882e-01 4.719608e-01 4.555248e-01 3.885120e-01 4.530989e-01 4.057849e-01 4.396687e-01 1.000000e-02
<GCONST> 1.004449e+02
<MIXTURE> 3 1.256742e-01
<MEAN> 38
 4.919225e+00 -2.327575e+00 -1.138871e+00 -2.348736e+00 -4.093320e+00 -7.898088e+00 -5.344544e+00 2.932626e+00 4.901425e+00 -1.116316e-02 -3.520873e+00 1.312568e+00 1.084833e+00 -1.017555e+00 -8.804063e-01 -6.431382e-01 -2.077747e-01 6.886062e-01 -2.522487e-01 9.529145e-01 7.039610e-01 4.296678e-01 -9.387462e-01 -2.908264e-01 2.293397e-02 -3.900316e-01 7.309739e-02 1.300722e-01 2.154008e-01 5.332139e-01 5.995956e-01 4.187992e-01 -2.032556e-01 -3.292872e-01 -2.623702e-02 3.288922e-01 -1.814300e-01 -9.376307e-03
<VARIANCE> 38
