~o
<STREAMINFO> 1 38
<VECSIZE> 38<NULLD><MFCC_E_D_N_A_Z><DIAGC>
~h "@"
<BEGINHMM>
<NUMSTATES> 5
<STATE> 2
<NUMMIXES> 16
<SWEIGHTS> 1
 1.000000e+00
<MIXTURE> 1 3.830531e-02
<MEAN> 38
 5.385091e+00 6.567767e-01 1.365403e+00 -4.441523e-01 -4.369497e+00 -3.244866e+00 -3.870203e+00 -1.968666e+00 -1.350227e+00 1.038995e+00 9.176322e-01 1.788379e+00 3.150814e-01 7.445933e-01 3.383952e-01 3.136106e-01 3.261898e-01 3.092462e-01 3.193152e-01 6.306331e-02 1.828082e-01 2.282476e-01 1.390339e-01 3.397069e-01 -2.815174e-03 -5.078666e-01 2.473052e-01 1.609503e-01 3.516646e-01 6.462448e-01 1.619846e-01 2.888081e-01 1.820973e-01 1.707652e-01 -1.181168e-01 -4.215157e-02 -1.471537e-01 -1.100898e-02
<VARIANCE> 38
 2.961565e+01 3.114783e+01 5.680983e+01 6.231298e+01 6.548090e+01 8.103800e+01 5.899465e+01 5.859518e+01 5.508392e+01 4.600509e+01 4.002532e+01 3.380841e+01 1.111491e+00 1.650436e+00 1.861682e+00 2.245431e+00 2.822476e+00 2.630131e+00 2.437399e+00 2.758120e+00 2.880235e+00 2.717854e+00 2.258872e+00 1.982949e+00 1.000000e-02 2.702654e-01 4.470370e-01 4.460317e-01 6.552476e-01 6.650509e-01 7.811997e-01 7.427229e-01 8.072093e-01 7.045375e-01 6.332128e-01 5.764359e-01 5.378597e-01 1.000000e-02
<GCONST> 1.104167e+02
<MIXTURE> 2 4.973272e-02
<MEAN> 38
 4.372944e+00 2.449273e+00 3.112274e+00 2.114605e+00 -2.772906e+00 -7.193960e+00 -3.888272e+00 -2.421769e-01 8.067640e-01 -7.495530e-01 -5.616730e-01 2.631485e+00 1.331058e+00 -1.913736e-01 2.953990e-03 -2.300483e-01 -6.997008e-01 1.177091e-01 -2.064821e-01 -9.403645e-02 3.592878e-01 5.802109e-01 1.934736e-01 3.839639e-01 2.116409e-02 -8.570004e-01 -1.803884e-01 -7.189945e-02 9.176353e-02 5.236555e-01 4.712945e-01 4.112263e-01 3.887837e-01 1.207830e-01 3.576241e-02 1.954193e-01 -5.532660e-02 -1.216986e-02
<VARIANCE> 38
 1.308192e+01 1.668060e+01 2.631244e+01 2.135953e+01 3.189725e+01 3.530625e+01 4.010054e+01 3.275543e+01 3.304971e+01 2.798425e+01 2.255115e+01 2.185838e+01 8.659730e-01 1.447443e+00 1.122419e+00 1.449655e+00 1.730546e+00 2.055593e+00 1.887368e+00 2.127288e+00 2.116186e+00 1.961199e+00 1.643060e+00 1.660923e+00 1.000000e-02 1.602741e-01 2.578898e-01 2.311884e-01 2.713455e-01 3.141356e-01 3.446246e-01 4.024941e-01 3.981399e-01 3.869201e-01 3.564476e-01 3.211474e-01 3.043154e-01 1.000000e-02
<GCONST> 9.106602e+01
<MIXTURE> 3 3.290414e-02
<MEAN> 38
 5.337154e+00 3.929671e-01 -5.933832e-01 -1.585053e+00 -2.985650e+00 -7.174531e+00 -7.305098e+00 -1.608341e+00 7.405925e-01 -2.807631e+00 -4.196240e+00 3.104799e-01 1.759243e+00 -6.668566e-01 -4.676196e-02 -8.323026e-01 -7.293295e-01 2.818466e-01 -6.934229e-01 -1.191932e-01 5.205333e-01 8.579674e-01 -1.950469e-01 3.162497e-01 2.897066e-02 -1.116949e+00 -9.297026e-02 8.547976e-02 4.566770e-01 6.658498e-01 5.623175e-01 8.032487e-01 6.327956e-01 2.889653e-01 3.883468e-01 6.980020e-01 1.844023e-01 -1.644669e-02
<VARIANCE> 38
 1.171240e+01 1.957940e+01 2.800023e+01 2.597434e+01 3.798014e+01 4.278524e+01 4.201771e+01 3.566048e+01 3.923930e+01 3.785522e+01 2.678233e+01 2.406684e+01 1.272342e+00 2.067407e+00 1.422571e+00 2.097289e+00 2.423842e+00 2.758025e+00 2.630384e+00 3.219002e+00 2.606800e+00 2.727395e+00 2.301510e+00 2.241765e+00 1.000000e-02 1.539958e-01 3.645210e-01 2.880660e-01 3.754278e-01 4.034218e-01 4.151940e-01 4.679908e-01 5.316456e-01 5.016256e-01 4.642544e-01 4.216126e-01 3.625464e-01 1.000000e-02
<GCONST> 9.921185e+01
<MIXTURE> 4 9.615017e-02
<MEAN> 38
 6.705513e+00 -2.000665e+00 2.976469e-01 -1.070986e+00 -2.994163e+00 -3.013599e+00 -7.463450e+00 1.171435e-01 2.333024e+00 9.901350e-01 -1.407678e-01 -7.865105e-01 4.286917e-01 -2.875706e-01 8.690395e-02 7.382987e-02 -1.361380e-01 3.611262e-01 -1.921378e-01 4.482147e-01 3.029068e-01 2.509866e-01 1.287998e-01 6.236274e-02 5.953179e-03 -3.786381e-01 3.985032e-01 1.223836e-01 2.968363e-01 4.320136e-01 3.325418e-02 4.399337e-01 -1.378432e-01 -1.489663e-01 -7.471209e-02 -3.027566e-02 1.071797e-01 -9.204578e-03
<VARIANCE> 38
 1.041759e+01 1.814634e+01 3.235767e+01 3.283482e+01 3.623392e+01 5.202914e+01 5.106492e+01 4.548281e+01 4.220969e+01 4.162772e+01 3.785085e+01 3.449854e+01 3.995229e-01 8.249181e-01 1.081302e+00 1.239164e+00 1.548053e+00 1.738958e+00 1.794221e+00 1.913169e+00 1.870931e+00 1.932313e+00 1.675792e+00 1.501296e+00 1.000000e-02 1.448806e-01 2.059200e-01 2.074171e-01 2.704181e-01 3.242242e-01 3.570988e-01 4.203700e-01 4.271417e-01 4.127788e-01 3.905939e-01 3.907161e-01 3.438272e-01 1.000000e-02
<GCONST> 9.229298e+01
<MIXTURE> 5 1.243002e-01
<MEAN> 38
 6.290899e+00 -2.936814e+00 -3.358700e-01 -2.528042e+00 -2.171585e+00 -2.761586e+00 -7.050490e+00 8.381875e-01 1.878434e+00 5.181187e-01 -1.561353e+00 -1.741807e+00 3.016035e-01 -5.106030e-01 1.064407e-01 -9.502207e-02 -1.885607e-01 3.032605e-01 -2.287363e-01 7.662861e-01 3.885574e-01 1.356394e-01 -6.231785e-02 -4.461019e-02 6.591508e-03 -2.499546e-01 3.811629e-01 1.178936e-01 3.499985e-01 2.934564e-01 1.885372e-02 3.551506e-01 -2.013799e-01 -1.105435e-01 -3.372383e-02 7.942101e-02 1.406400e-01 -7.569296e-03
<VARIANCE> 38
 1.058200e+01 1.913529e+01 3.338107e+01 3.316749e+01 3.948438e+01 5.161244e+01 5.120361e+01 4.543419e+01 4.549609e+01 5.067690e+01 4.614080e+01 3.467633e+01 3.936064e-01 7.406503e-01 1.138300e+00 1.222002e+00 1.459804e+00 1.775921e+00 1.917115e+00 1.886095e+00 1.966611e+00 2.008616e+00 1.818339e+00 1.611214e+00 1.000000e-02 1.300265e-01 1.586112e-01 1.901234e-01 2.367009e-01 2.993918e-01 3.194997e-01 3.696760e-01 3.850946e-01 3.828931e-01 3.846368e-01 3.896495e-01 3.058555e-01 1.000000e-02
<GCONST> 9.190450e+01
<MIXTURE> 6 6.783760e-02
<MEAN> 38
 4.824640e+00 8.793797e-01 1.583850e+00 1.834680e+00 -1.760930e+00 -5.863129e+00 -5.607402e+00 -1.127254e+00 1.748549e+00 9.352101e-01 -4.222955e-01 -9.164132e-02 1.660604e+00 -6.616886e-01 -9.833135e-02 -1.791808e-01 -1.007098e+00 1.399854e-01 -5.432904e-01 -1.322541e-01 2.129216e-01 4.815258e-01 4.773500e-01 -2.113940e-01 2.754654e-02 -8.344398e-01 -1.241107e-01 -4.319820e-02 1.643465e-02 3.988861e-01 3.807271e-01 3.984748e-01 3.752601e-01 1.158174e-01 -6.582713e-02 7.073495e-02 1.665328e-01 -1.211200e-02
<VARIANCE> 38
 1.073130e+01 1.434513e+01 2.489161e+01 2.039131e+01 2.836068e+01 3.347568e+01 3.575826e+01 3.461289e+01 2.966366e+01 3.020853e+01 2.171902e+01 2.189131e+01 9.240640e-01 1.386439e+00 1.276139e+00 1.544493e+00 1.722140e+00 2.171206e+00 2.258574e+00 2.284872e+00 2.169070e+00 2.137819e+00 1.969265e+00 1.731558e+00 1.000000e-02 1.730057e-01 2.353007e-01 2.240687e-01 2.431272e-01 2.973256e-01 3.186581e-01 3.683760e-01 3.526849e-01 3.321980e-01 3.299738e-01 2.904882e-01 2.776952e-01 1.000000e-02
<GCONST> 9.024442e+01
<MIXTURE> 7 5.379150e-02
<MEAN> 38
 6.041646e+00 -8.621912e-02 1.076217e+00 -1.730518e+00 -5.395100e+00 -2.647107e+00 -3.539759e+00 -2.359224e+00 -1.642485e+00 8.177874e-01 8.072941e-01 1.406544e+00 3.839658e-01 1.095826e-01 8.818401e-02 6.797170e-02 1.992868e-03 2.964503e-01 6.278457e-02 1.783379e-01 2.325368e-01 3.031859e-01 5.091533e-02 1.357629e-01 3.085170e-03 -4.019297e-01 2.469661e-01 1.196431e-01 3.598329e-01 6.375793e-01 6.843669e-02 1.943551e-01 1.349663e-01 1.519085e-01 -8.314838e-02 -4.307424e-02 -8.359842e-02 -1.008436e-02
<VARIANCE> 38
 1.833907e+01 2.634518e+01 5.358068e+01 6.047481e+01 5.588624e+01 8.616210e+01 5.970054e+01 5.832729e+01 5.658678e+01 4.868483e+01 4.596410e+01 3.585313e+01 6.566952e-01 1.180608e+00 1.383106e+00 2.013310e+00 2.317203e+00 2.332070e+00 2.263355e+00 2.320310e+00 2.460988e+00 2.490504e+00 2.157958e+00 1.741939e+00 1.000000e-02 2.031723e-01 3.134798e-01 3.401265e-01 5.130951e-01 5.179706e-01 6.609715e-01 6.233799e-01 6.445501e-01 6.156160e-01 5.496483e-01 5.397002e-01 4.582410e-01 1.000000e-02
<GCONST> 1.051447e+02
<MIXTURE> 8 3.847950e-02
<MEAN> 38
 4.309157e+00 1.131679e-01 -1.549373e+00 -2.281280e+00 -3.986293e+00 -8.331905e+00 -6.839203e+00 -2.045130e+00 -1.179600e+00 -4.669218e+00 -4.703091e+00 -4.439029e-01 2.402653e+00 -9.504386e-01 -4.101843e-01 -1.492289e+00 -1.437017e+00 -3.832746e-01 -1.392033e+00 -4.857361e-01 1.662572e-01 3.645550e-01 -1.037155e+00 -1.303634e-01 4.326019e-02 -1.066635e+00 -2.510717e-01 6.650408e-02 4.204800e-01 6.939748e-01 7.097665e-01 8.388846e-01 8.337100e-01 6.202962e-01 7.121285e-01 8.267257e-01 3.331195e-01 -1.651757e-02
<VARIANCE> 38
 1.156472e+01 1.887860e+01 2.799503e+01 2.236780e+01 3.693433e+01 3.727500e+01 3.946818e+01 3.249320e+01 3.678716e+01 3.553271e+01 2.471847e+01 2.326657e+01 1.525231e+00 2.223275e+00 1.592026e+00 2.455089e+00 2.823519e+00 3.204316e+00 3.311300e+00 3.451913e+00 2.825871e+00 3.158537e+00 2.792009e+00 2.322228e+00 1.000000e-02 1.418040e-01 2.971132e-01 2.608345e-01 3.253116e-01 3.598928e-01 3.872272e-01 4.001529e-01 4.645613e-01 4.536400e-01 4.355013e-01 3.780296e-01 3.510823e-01 1.000000e-02
<GCONST> 9.872176e+01
<MIXTURE> 9 1.001994e-01
<MEAN> 38
 5.627890e+00 -4.003592e+00 -1.135115e+00 -3.868223e+00 -2.847346e+00 -3.538628e+00 -7.783716e+00 3.876851e-01 1.054171e+00 -6.165289e-01 -2.944460e+00 -2.798869e+00 1.607730e-01 -7.416264e-01 -6.513375e-02 -3.370591e-01 -3.670654e-01 1.277969e-01 -3.784343e-01 6.932389e-01 2.307756e-01 -9.461719e-02 -3.312148e-01 -3.152764e-01 8.963617e-03 -2.223043e-01 3.311645e-01 8.592008e-02 2.982807e-01 2.262247e-01 -3.037618e-02 2.822519e-01 -2.172270e-01 -1.242825e-01 -6.009983e-02 6.167031e-02 9.096315e-02 -6.579393e-03
<VARIANCE> 38
 1.064104e+01 1.967441e+01 3.434932e+01 3.284364e+01 4.149229e+01 5.088668e+01 5.003503e+01 4.586889e+01 4.802187e+01 5.634023e+01 5.001850e+01 3.547056e+01 3.907807e-01 7.186080e-01 1.158315e+00 1.231500e+00 1.454739e+00 1.794517e+00 1.922188e+00 1.856930e+00 2.011166e+00 2.008928e+00 1.886515e+00 1.661419e+00 1.000000e-02 1.285488e-01 1.464351e-01 1.883245e-01 2.274463e-01 2.939854e-01 3.076195e-01 3.622431e-01 3.734090e-01 3.639228e-01 3.754894e-01 3.754435e-01 2.978867e-01 1.000000e-02
<GCONST> 9.192726e+01
<MIXTURE> 10 1.137049e-01
<MEAN> 38
 6.146811e+00 -2.888848e+00 -2.455566e-01 -2.115971e+00 -3.624661e+00 -3.617192e+00 -8.206284e+00 -4.677351e-01 1.701814e+00 4.071339e-01 -8.742583e-01 -1.730107e+00 3.087786e-01 -5.648206e-01 -4.930732e-02 -1.614191e-01 -3.744358e-01 1.947166e-01 -3.772036e-01 4.229039e-01 1.885648e-01 6.632830e-02 -7.050537e-02 -2.208379e-01 9.801449e-03 -3.599743e-01 3.317767e-01 7.482685e-02 2.366141e-01 3.614990e-01 -1.924702e-02 3.684730e-01 -1.486562e-01 -1.554355e-01 -1.016451e-01 -6.827541e-02 6.911856e-02 -8.263133e-03
<VARIANCE> 38
 1.050978e+01 1.840503e+01 3.274549e+01 3.342521e+01 3.738404e+01 5.262043e+01 5.078564e+01 4.663783e+01 4.366630e+01 4.455333e+01 4.139592e+01 3.450029e+01 3.865879e-01 7.819224e-01 1.087088e+00 1.229116e+00 1.482289e+00 1.730928e+00 1.819860e+00 1.855974e+00 1.864142e+00 1.874074e+00 1.705191e+00 1.502857e+00 1.000000e-02 1.438456e-01 1.824753e-01 2.023572e-01 2.537909e-01 3.133312e-01 3.449792e-01 4.105904e-01 4.091661e-01 3.888161e-01 3.777336e-01 3.768999e-01 3.242278e-01 1.000000e-02
<GCONST> 9.189057e+01
<MIXTURE> 11 5.879672e-02
<MEAN> 38
 4.465604e+00 1.024872e-01 1.201460e+00 1.227405e+00 -2.151562e+00 -6.374280e+00 -6.687403e+00 -1.753421e+00 1.464648e+00 7.522836e-01 -9.476723e-01 -1.143366e+00 1.718751e+00 -1.004783e+00 -2.071383e-01 -3.376913e-01 -1.332019e+00 -4.480488e-02 -8.951898e-01 -3.013300e-01 2.079235e-02 2.547249e-01 3.738880e-01 -6.034279e-01 3.357328e-02 -8.581731e-01 -1.672752e-01 -1.161449e-01 -7.530970e-02 3.133217e-01 3.126181e-01 3.471958e-01 3.438981e-01 9.450660e-02 -9.971036e-02 1.427214e-03 1.475016e-01 -1.274690e-02
<VARIANCE> 38
 1.004591e+01 1.359198e+01 2.361196e+01 2.028355e+01 2.753156e+01 3.291710e+01 3.382190e+01 3.395433e+01 2.992042e+01 3.181621e+01 2.163008e+01 2.109614e+01 9.356711e-01 1.271385e+00 1.320786e+00 1.543629e+00 1.694924e+00 2.170649e+00 2.442047e+00 2.314451e+00 2.094126e+00 2.167659e+00 2.115002e+00 1.721992e+00 1.000000e-02 1.677244e-01 2.290995e-01 2.252767e-01 2.449580e-01 2.938749e-01 3.207216e-01 3.689471e-01 3.422892e-01 3.141705e-01 3.217126e-01 2.778668e-01 2.673214e-01 1.000000e-02
<GCONST> 8.980136e+01
<MIXTURE> 12 6.133307e-02
<MEAN> 38
 4.090275e+00 1.466843e+00 2.554098e+00 1.409973e+00 -3.430500e+00 -7.892399e+00 -5.129268e+00 -1.111916e+00 3.025235e-01 -1.067232e+00 -1.285621e+00 1.614461e+00 1.353907e+00 -5.526427e-01 -1.853696e-01 -4.003479e-01 -1.001713e+00 -1.414368e-01 -4.767498e-01 -3.012845e-01 1.191304e-01 3.373969e-01 -1.684990e-02 2.590198e-02 2.665631e-02 -8.348332e-01 -2.105937e-01 -1.179802e-01 -1.186624e-03 4.382031e-01 4.174385e-01 3.291332e-01 3.322450e-01 8.287150e-02 -6.922146e-03 1.168747e-01 -7.305916e-02 -1.217691e-02
<VARIANCE> 38
 1.248785e+01 1.599182e+01 2.598838e+01 2.163178e+01 3.138354e+01 3.546049e+01 3.959250e+01 3.400513e+01 3.423372e+01 2.966592e+01 2.255756e+01 2.178497e+01 8.590659e-01 1.348927e+00 1.153135e+00 1.475595e+00 1.711109e+00 2.043633e+00 1.987470e+00 2.180587e+00 2.122269e+00 2.011275e+00 1.728905e+00 1.649770e+00 1.000000e-02 1.572424e-01 2.485016e-01 2.312728e-01 2.639017e-01 3.051687e-01 3.381024e-01 3.977032e-01 3.845380e-01 3.654266e-01 3.433762e-01 3.032942e-01 2.932962e-01 1.000000e-02
<GCONST> 9.081174e+01
<MIXTURE> 13 4.736554e-02
<MEAN> 38
 5.599795e+00 -1.195263e+00 3.633826e-01 -2.842039e+00 -6.180402e+00 -3.380429e+00 -4.323986e+00 -3.229087e+00 -2.439989e+00 -1.087294e-01 -2.430108e-01 4.838353e-01 2.614188e-01 -2.422697e-01 -1.189523e-01 -2.217189e-01 -2.734104e-01 1.130818e-01 -1.838970e-01 8.024795e-03 5.886482e-02 1.005673e-01 -2.350857e-01 -2.032992e-01 8.040815e-03 -3.693953e-01 1.932368e-01 8.498367e-02 2.994790e-01 5.572202e-01 2.307087e-02 1.154107e-01 1.005023e-01 1.108542e-01 -9.860393e-02 -6.812808e-02 -1.051414e-01 -8.924347e-03
<VARIANCE> 38
 1.798176e+01 2.694181e+01 5.306346e+01 6.005780e+01 5.673295e+01 8.911010e+01 5.963763e+01 6.044051e+01 5.869254e+01 5.265408e+01 5.096934e+01 3.939803e+01 6.330239e-01 1.126019e+00 1.402084e+00 2.035859e+00 2.285265e+00 2.353705e+00 2.369918e+00 2.326693e+00 2.496586e+00 2.585013e+00 2.250560e+00 1.763475e+00 1.000000e-02 2.024027e-01 2.840755e-01 3.392248e-01 4.931581e-01 5.108833e-01 6.535146e-01 6.082919e-01 6.344019e-01 5.942941e-01 5.440026e-01 5.336502e-01 4.481847e-01 1.000000e-02
<GCONST> 1.053282e+02
<MIXTURE> 14 4.814670e-02
<MEAN> 38
 5.371671e+00 -3.337705e-01 7.401062e-01 -1.597850e+00 -5.228430e+00 -3.621675e+00 -4.647134e+00 -2.908486e+00 -2.132333e+00 2.823784e-01 2.164369e-01 9.690536e-01 2.085356e-01 2.760240e-01 5.267673e-02 -2.268239e-02 -3.040786e-02 7.996078e-02 1.989987e-02 -1.706291e-01 -3.389297e-02 1.464360e-02 -1.504703e-01 2.159410e-02 3.729168e-03 -4.887002e-01 1.883284e-01 1.017636e-01 2.825069e-01 5.688546e-01 9.440348e-02 2.000300e-01 1.200263e-01 1.252802e-01 -1.366928e-01 -9.005149e-02 -1.543284e-01 -9.550788e-03
<VARIANCE> 38
 2.671368e+01 3.123427e+01 5.711905e+01 6.411871e+01 6.257683e+01 8.516291e+01 6.032237e+01 6.038492e+01 5.734303e+01 4.887774e+01 4.354794e+01 3.656388e+01 1.114244e+00 1.578515e+00 1.781295e+00 2.330768e+00 2.832413e+00 2.636178e+00 2.505741e+00 2.678704e+00 2.854338e+00 2.822215e+00 2.345407e+00 1.954859e+00 1.000000e-02 2.672516e-01 4.156560e-01 4.375583e-01 6.306751e-01 6.394392e-01 7.605402e-01 7.365642e-01 7.657201e-01 6.866865e-01 6.159713e-01 5.640925e-01 5.185702e-01 1.000000e-02
<GCONST> 1.102978e+02
<MIXTURE> 15 3.681464e-02
<MEAN> 38
 5.006018e+00 -6.925592e-01 -1.314850e+00 -2.717218e+00 -3.939883e+00 -8.070647e+00 -8.090210e+00 -2.374871e+00 -2.317078e-01 -3.427574e+00 -5.084931e+00 -6.304538e-01 1.742786e+00 -1.093941e+00 -2.921506e-01 -1.135437e+00 -1.122650e+00 -5.592725e-02 -1.077707e+00 -3.005881e-01 1.743835e-01 4.347284e-01 -6.920851e-01 -1.084446e-01 3.512372e-02 -1.083692e+00 -1.374712e-01 5.656329e-02 3.877613e-01 5.961964e-01 5.109671e-01 7.228982e-01 5.875342e-01 2.602728e-01 3.218103e-01 6.084388e-01 1.492179e-01 -1.665520e-02
<VARIANCE> 38
 1.114077e+01 1.974336e+01 2.742434e+01 2.465898e+01 3.784867e+01 4.066157e+01 4.192126e+01 3.499417e+01 3.876266e+01 3.983695e+01 2.730902e+01 2.468366e+01 1.244517e+00 1.894084e+00 1.498627e+00 2.054941e+00 2.413658e+00 2.832823e+00 2.779596e+00 3.182040e+00 2.627593e+00 2.885575e+00 2.487371e+00 2.207349e+00 1.000000e-02 1.556741e-01 3.314088e-01 2.793866e-01 3.532521e-01 3.823665e-01 4.051915e-01 4.467623e-01 4.853584e-01 4.694525e-01 4.557930e-01 4.016864e-01 3.519446e-01 1.000000e-02
<GCONST> 9.866602e+01
<MIXTURE> 16 3.216334e-02
<MEAN> 38
 3.908894e+00 -8.568206e-01 -2.640999e+00 -3.281034e+00 -4.701123e+00 -9.221344e+00 -7.437374e+00 -2.818023e+00 -2.079173e+00 -5.554882e+00 -5.608343e+00 -1.017714e+00 2.557687e+00 -1.308348e+00 -7.554361e-01 -1.990988e+00 -1.968302e+00 -8.678336e-01 -2.006424e+00 -8.525172e-01 -4.150764e-01 -3.143853e-01 -1.842707e+00 -7.267998e-01 5.362853e-02 -1.046113e+00 -3.528016e-01 -3.357723e-03 3.149542e-01 6.159462e-01 6.756241e-01 7.818124e-01 8.131278e-01 6.104072e-01 7.006250e-01 7.568369e-01 2.707992e-01 -1.701931e-02
<VARIANCE> 38
 1.108250e+01 1.806479e+01 2.718260e+01 2.148619e+01 3.554700e+01 3.339696e+01 3.810495e+01 2.983758e+01 3.513723e+01 3.473367e+01 2.368938e+01 2.460959e+01 1.545249e+00 2.218384e+00 1.703700e+00 2.525482e+00 2.919820e+00 3.282296e+00 3.606347e+00 3.466286e+00 2.966408e+00 3.356453e+00 2.918856e+00 2.380043e+00 1.000000e-02 1.391813e-01 2.598492e-01 2.480618e-01 3.099630e-01 3.436188e-01 3.859854e-01 3.877364e-01 4.349374e-01 4.501767e-01 4.339379e-01 3.739318e-01 3.547511e-01 1.000000e-02
<GCONST> 9.826427e+01
<STATE> 3
<NUMMIXES> 16
<SWEIGHTS> 1
 1.000000e+00
<MIXTURE> 1 2.508517e-02
<MEAN> 38
 5.371735e+00 2.660169e+00 3.205127e+00 2.700155e+00 -2.884292e+00 -7.403792e+00 -4.698790e+00 4.800503e-01 1.242005e+00 -7.545248e-02 -1.288630e+00 3.494295e+00 -8.215805e-01 1.931845e+00 7.728468e-01 1.032300e+00 1.547846e+00 7.803963e-01 1.044032e+00 3.594211e-01 5.599447e-01 -3.320366e-03 2.479678e-01 -2.307555e-01 -3.350912e-02 -4.992974e-01 1.526393e-01 2.627369e-01 1.747040e-01 3.374426e-01 3.919462e-01 3.241507e-01 1.316981e-01 -7.399713e-02 -1.198158e-01 4.061429e-02 -3.365511e-01 -1.059975e-02
<VARIANCE> 38
 1.285490e+01 1.781701e+01 2.576834e+01 2.211316e+01 4.030180e+01 3.494338e+01 3.977337e+01 3.410761e+01 3.966505e+01 3.523339e+01 2.870826e+01 2.858970e+01 1.225659e+00 1.701082e+00 1.670713e+00 2.019350e+00 2.216501e+00 2.451224e+00 2.664899e+00 2.917908e+00 2.717350e+00 2.440921e+00 2.508666e+00 2.278780e+00 1.000000e-02 1.641291e-01 2.787017e-01 2.704730e-01 2.801747e-01 4.362163e-01 3.692134e-01 4.067502e-01 4.522942e-01 4.697649e-01 4.237659e-01 3.834181e-01 3.874833e-01 1.000000e-02
<GCONST> 9.744904e+01
<MIXTURE> 2 7.346369e-02
<MEAN> 38
 5.883110e+00 -4.139150e-01 3.170764e+00 2.292442e+00 -3.943700e+00 -5.420493e+00 -3.969422e+00 2.199229e+00 9.009313e-01 -7.225062e-01 -6.703036e-01 1.436047e+00 5.053643e-02 6.251242e-01 2.123562e-01 5.919613e-01 6.401495e-01 3.606478e-01 3.597028e-01 -9.560759e-02 -2.117804e-02 3.154497e-02 -6.712216e-02 2.080567e-01 -1.283090e-02 -1.463356e-01 2.446098e-01 7.132065e-02 1.117791e-01 2.997245e-01 1.425466e-01 1.918581e-01 -1.016564e-01 -3.090037e-02 2.534789e-03 -2.768470e-02 -2.375025e-02 -5.607983e-03
<VARIANCE> 38
 8.442048e+00 1.569302e+01 2.501172e+01 2.516745e+01 3.092968e+01 3.952005e+01 5.500493e+01 3.672411e+01 3.865336e+01 3.336717e+01 2.780721e+01 3.235357e+01 2.913966e-01 7.100546e-01 7.773022e-01 9.480499e-01 1.320307e+00 1.355329e+00 1.470490e+00 1.448223e+00 1.510935e+00 1.385595e+00 1.275343e+00 1.188612e+00 1.000000e-02 6.019209e-02 1.415975e-01 1.274031e-01 1.789123e-01 2.162652e-01 2.456962e-01 2.890719e-01 2.869720e-01 3.005368e-01 2.571485e-01 2.335306e-01 2.357901e-01 1.000000e-02
<GCONST> 8.182574e+01
<MIXTURE> 3 9.502869e-02
<MEAN> 38
 5.409305e+00 -1.878202e+00 1.917603e+00 -1.661801e-01 -2.602667e+00 -4.209161e+00 -3.174791e+00 2.224499e+00 1.082959e+00 -3.719412e-01 -1.538713e+00 4.705359e-01 9.492746e-02 1.952129e-01 1.480293e-01 2.986463e-01 2.327381e-01 2.061633e-01 2.017051e-01 9.001961e-02 1.073898e-02 9.728321e-03 3.134023e-02 1.584810e-01 -6.761065e-03 3.583222e-03 1.502376e-01 4.093261e-02 1.484974e-01 9.871735e-02 6.361414e-02 2.723547e-02 -9.954254e-02 -2.006993e-02 -1.856737e-04 4.252701e-02 2.624566e-02 -3.228916e-03
<VARIANCE> 38
 9.624170e+00 1.575157e+01 2.818599e+01 3.018460e+01 3.535656e+01 4.672664e+01 5.852723e+01 3.898218e+01 4.045472e+01 4.254795e+01 3.587518e+01 3.512269e+01 1.690004e-01 3.900145e-01 5.060533e-01 6.547340e-01 7.939677e-01 9.148991e-01 9.964067e-01 1.011006e+00 1.062797e+00 1.035635e+00 9.325024e-01 8.410679e-01 1.000000e-02 2.836910e-02 6.374390e-02 7.430990e-02 1.080246e-01 1.274346e-01 1.482716e-01 1.637556e-01 1.728481e-01 1.766406e-01 1.782720e-01 1.643116e-01 1.464243e-01 1.000000e-02
<GCONST> 7.198590e+01
<MIXTURE> 4 3.152378e-02
<MEAN> 38
 6.901497e+00 -8.655183e-01 2.453812e-01 -5.245413e-01 -2.183157e+00 -2.750845e+00 -7.735821e+00 -7.560424e-01 1.830804e+00 4.172338e-01 -1.379160e+00 -7.900141e-01 8.278499e-02 1.181422e+00 3.467591e-01 7.871692e-01 1.045243e+00 4.816330e-01 8.133763e-01 -4.210329e-01 -4.448632e-02 3.110649e-01 2.125254e-01 1.368238e-01 -1.649871e-02 -3.670788e-01 4.075924e-01 1.956601e-01 3.284126e-01 3.461097e-01 1.814536e-02 5.453650e-01 -3.691463e-02 -1.815988e-01 -4.821074e-02 5.688752e-02 5.089633e-02 -9.262849e-03
<VARIANCE> 38
 1.635224e+01 2.439247e+01 3.867676e+01 4.131796e+01 4.178383e+01 5.769398e+01 5.428833e+01 5.590823e+01 5.315401e+01 5.544791e+01 4.594274e+01 3.247887e+01 8.080646e-01 1.462416e+00 1.552099e+00 2.154919e+00 2.490953e+00 2.778027e+00 2.679175e+00 3.002787e+00 2.967683e+00 2.793113e+00 2.458141e+00 2.132102e+00 1.000000e-02 1.622713e-01 3.035025e-01 3.115275e-01 3.729234e-01 4.013906e-01 4.872445e-01 5.269172e-01 6.375585e-01 6.293741e-01 6.335995e-01 5.281652e-01 4.187274e-01 1.000000e-02
<GCONST> 1.039473e+02
<MIXTURE> 5 1.044934e-01
<MEAN> 38
 5.800319e+00 -1.261992e+00 1.970510e+00 1.230625e+00 -4.063550e+00 -4.718981e+00 -5.193575e+00 1.004458e+00 1.863294e+00 -1.834830e-01 -3.693759e-01 1.527236e-01 6.831843e-02 2.369220e-01 1.360178e-01 2.784629e-01 2.950432e-01 2.488620e-01 2.497463e-01 7.422345e-02 -1.495134e-02 7.288074e-02 -2.282701e-02 6.249862e-02 -7.295254e-03 -1.062588e-01 2.058972e-01 6.993672e-02 8.479135e-02 2.665888e-01 7.339823e-02 1.645145e-01 -5.355376e-02 -7.268306e-02 4.435563e-03 -4.615189e-02 4.137689e-02 -5.045664e-03
<VARIANCE> 38
 9.490524e+00 1.646080e+01 2.803448e+01 2.919849e+01 3.369736e+01 4.465372e+01 5.366275e+01 4.184827e+01 4.137915e+01 3.982402e+01 3.304475e+01 3.392259e+01 2.506069e-01 6.078202e-01 7.176643e-01 8.856489e-01 1.166273e+00 1.220690e+00 1.353121e+00 1.378187e+00 1.373576e+00 1.303433e+00 1.202879e+00 1.089651e+00 1.000000e-02 5.639141e-02 1.126017e-01 1.191205e-01 1.663238e-01 2.036578e-01 2.300470e-01 2.641282e-01 2.608201e-01 2.619865e-01 2.444727e-01 2.205204e-01 2.115212e-01 1.000000e-02
<GCONST> 8.081448e+01
<MIXTURE> 6 1.014514e-01
<MEAN> 38
 4.779984e+00 -3.413512e+00 1.150588e+00 -1.735874e+00 -3.019157e+00 -5.073387e+00 -2.949833e+00 2.738011e+00 8.410189e-01 -9.034714e-01 -2.814782e+00 -1.280153e-01 6.556068e-02 5.824266e-02 5.657296e-02 1.406134e-01 1.613703e-01 1.469526e-01 1.785483e-01 1.518906e-01 8.378791e-02 -2.504414e-02 -2.252924e-02 2.381744e-02 -4.614498e-03 4.356602e-02 1.518992e-01 4.521783e-02 1.528724e-01 7.958245e-02 6.945808e-02 -2.378383e-02 -1.009340e-01 -3.738341e-03 2.515937e-02 8.825949e-02 2.658363e-02 -2.967542e-03
<VARIANCE> 38
 9.444973e+00 1.549545e+01 2.887976e+01 2.696679e+01 3.556000e+01 4.093667e+01 5.370367e+01 3.814869e+01 4.497786e+01 4.976279e+01 4.166526e+01 3.320852e+01 1.591565e-01 3.567865e-01 4.923701e-01 5.889232e-01 7.501138e-01 8.645247e-01 9.659947e-01 1.017835e+00 1.025239e+00 1.032062e+00 9.176858e-01 8.222369e-01 1.000000e-02 2.596081e-02 5.409149e-02 6.676463e-02 9.476809e-02 1.151225e-01 1.330814e-01 1.466054e-01 1.593104e-01 1.562084e-01 1.628715e-01 1.527758e-01 1.341850e-01 1.000000e-02
<GCONST> 7.021997e+01
<MIXTURE> 7 3.922923e-02
<MEAN> 38
 6.637663e+00 -1.910813e+00 -1.551257e+00 -2.477003e+00 -1.952512e+00 -2.646338e+00 -6.445275e+00 -6.678127e-01 1.413517e+00 -2.575479e-01 -3.176619e+00 -1.313780e+00 2.375027e-01 6.778190e-01 1.579792e-01 5.113341e-01 6.551114e-01 4.402495e-01 4.691217e-01 -3.455638e-01 3.809948e-02 2.911492e-01 1.914467e-01 -5.056852e-03 -8.543974e-03 -2.956406e-01 3.609322e-01 2.171369e-01 3.914794e-01 2.817737e-01 4.958063e-02 3.753822e-01 -6.144146e-02 -1.263526e-01 2.455272e-02 2.370942e-01 9.327332e-02 -8.278359e-03
<VARIANCE> 38
 1.601185e+01 2.809902e+01 4.113528e+01 4.444232e+01 4.265941e+01 6.184606e+01 5.545553e+01 5.796719e+01 5.767797e+01 6.663329e+01 5.707550e+01 3.495289e+01 7.305558e-01 1.470831e+00 1.646711e+00 2.350123e+00 2.490769e+00 2.761211e+00 2.741433e+00 3.013231e+00 2.819161e+00 2.921698e+00 2.455470e+00 2.140009e+00 1.000000e-02 1.704347e-01 2.721150e-01 2.677633e-01 3.557591e-01 3.716457e-01 4.521155e-01 4.964514e-01 6.207398e-01 5.920486e-01 6.258656e-01 5.378551e-01 3.979612e-01 1.000000e-02
<GCONST> 1.043703e+02
<MIXTURE> 8 3.878501e-02
<MEAN> 38
 5.025448e+00 1.381454e+00 3.322626e+00 2.061776e+00 -3.131070e+00 -6.856380e+00 -5.528746e+00 4.074827e-02 8.738874e-01 -1.129800e+00 -1.833364e+00 2.212730e+00 -7.922559e-01 1.497844e+00 6.075454e-01 8.146033e-01 1.291607e+00 5.718824e-01 7.718703e-01 2.518640e-01 3.621917e-01 -1.264263e-01 2.117425e-01 -1.748008e-02 -2.433042e-02 -5.108443e-01 2.053282e-01 1.516310e-01 1.664565e-01 4.119249e-01 3.636440e-01 3.340812e-01 1.572415e-01 -1.139990e-02 -1.436402e-02 1.068855e-01 -1.843420e-01 -9.433185e-03
<VARIANCE> 38
 1.456762e+01 1.884417e+01 2.694409e+01 2.468386e+01 3.913354e+01 3.878439e+01 4.050688e+01 3.590460e+01 4.230976e+01 4.144650e+01 3.088720e+01 2.738787e+01 1.470988e+00 1.697102e+00 1.574323e+00 2.146906e+00 2.448564e+00 2.526252e+00 2.717520e+00 2.844474e+00 2.721809e+00 2.592247e+00 2.525892e+00 2.224787e+00 1.000000e-02 1.921334e-01 2.703785e-01 2.357759e-01 2.770414e-01 3.665898e-01 3.538308e-01 3.951303e-01 4.372158e-01 4.461738e-01 4.318700e-01 3.763116e-01 3.477586e-01 1.000000e-02
<GCONST> 9.807668e+01
<MIXTURE> 9 1.177104e-01
<MEAN> 38
 4.812716e+00 -3.001556e+00 1.074418e+00 -1.541143e+00 -3.753732e+00 -5.553797e+00 -4.581825e+00 1.375085e+00 5.700870e-01 -1.061065e+00 -2.307350e+00 -6.891629e-01 1.460692e-02 8.482760e-03 -1.335586e-03 7.882291e-02 5.368714e-02 4.139590e-02 5.374401e-02 1.907298e-02 -6.964770e-02 -1.154976e-01 -1.186352e-01 -5.840670e-02 -3.599206e-03 -7.169375e-03 1.070537e-01 9.180374e-03 9.368773e-02 5.298145e-02 1.687099e-02 -2.478758e-02 -1.264678e-01 -5.767030e-02 -3.582679e-02 -2.634123e-03 -2.749627e-02 -2.770445e-03
<VARIANCE> 38
 9.691006e+00 1.606507e+01 2.847464e+01 3.016451e+01 3.489073e+01 4.463499e+01 5.625890e+01 3.986619e+01 4.283155e+01 4.628332e+01 3.921996e+01 3.446922e+01 1.588290e-01 3.643098e-01 4.868074e-01 6.188680e-01 7.603183e-01 8.705481e-01 9.514726e-01 1.002060e+00 1.018553e+00 1.008780e+00 9.068765e-01 8.144080e-01 1.000000e-02 2.698769e-02 5.841261e-02 7.083134e-02 1.016292e-01 1.224191e-01 1.416559e-01 1.578985e-01 1.666871e-01 1.640087e-01 1.673666e-01 1.537767e-01 1.407537e-01 1.000000e-02
<GCONST> 7.100741e+01
<MIXTURE> 10 7.926812e-02
<MEAN> 38
 5.212802e+00 -2.353965e+00 1.073403e+00 -5.177354e-02 -5.274424e+00 -5.993804e+00 -6.158172e+00 2.619481e-01 1.209036e+00 -9.876682e-01 -1.336363e+00 -6.464343e-01 -2.252182e-02 -5.190362e-03 -3.238766e-02 3.199512e-02 4.856949e-02 5.635010e-02 6.584499e-02 -2.379347e-02 -1.420137e-01 -9.752279e-02 -1.899511e-01 -1.956803e-01 -3.307293e-03 -1.085240e-01 1.540620e-01 3.231043e-02 2.796818e-02 2.120751e-01 1.746877e-02 9.189467e-02 -8.520850e-02 -1.059371e-01 -3.756700e-02 -8.679271e-02 -1.517397e-02 -4.355967e-03
<VARIANCE> 38
 9.619712e+00 1.678271e+01 2.810438e+01 2.986310e+01 3.438570e+01 4.394753e+01 5.194724e+01 4.239909e+01 4.335697e+01 4.402935e+01 3.630900e+01 3.338770e+01 2.464089e-01 5.908096e-01 7.253928e-01 8.867077e-01 1.146592e+00 1.200004e+00 1.344584e+00 1.390976e+00 1.347280e+00 1.335170e+00 1.216586e+00 1.088037e+00 1.000000e-02 5.674171e-02 1.073822e-01 1.179918e-01 1.624775e-01 2.049199e-01 2.265950e-01 2.599978e-01 2.567631e-01 2.471504e-01 2.411147e-01 2.148586e-01 2.080017e-01 1.000000e-02
<GCONST> 8.080313e+01
<MIXTURE> 11 9.623732e-02
<MEAN> 38
 5.394768e+00 -1.481844e+00 2.191145e+00 1.069299e+00 -4.996912e+00 -6.509026e+00 -5.314285e+00 1.177001e+00 4.247724e-01 -1.384523e+00 -1.433460e+00 5.252689e-01 -3.338908e-02 3.243101e-01 2.700847e-02 3.045628e-01 3.318859e-01 1.408434e-01 1.717440e-01 -2.128655e-01 -1.775126e-01 -1.219950e-01 -2.127571e-01 -2.019421e-02 -7.070070e-03 -1.531330e-01 1.837776e-01 2.865478e-02 4.519706e-02 2.375218e-01 7.511504e-02 1.155050e-01 -1.318638e-01 -6.883291e-02 -3.646833e-02 -6.951036e-02 -6.328496e-02 -4.753386e-03
<VARIANCE> 38
 8.828797e+00 1.620452e+01 2.548003e+01 2.688349e+01 3.181102e+01 3.986180e+01 5.360390e+01 3.807985e+01 4.030660e+01 3.681327e+01 3.024977e+01 3.233826e+01 2.815712e-01 6.777411e-01 7.659823e-01 9.483480e-01 1.297894e+00 1.328158e+00 1.459390e+00 1.447283e+00 1.471380e+00 1.402798e+00 1.271481e+00 1.154446e+00 1.000000e-02 6.128822e-02 1.308079e-01 1.259226e-01 1.757245e-01 2.175286e-01 2.428676e-01 2.897752e-01 2.824477e-01 2.839000e-01 2.537310e-01 2.278811e-01 2.281187e-01 1.000000e-02
<GCONST> 8.183294e+01
<MIXTURE> 12 6.176358e-02
<MEAN> 38
 4.029904e+00 -4.625984e+00 1.047882e-02 -3.442598e+00 -4.241332e+00 -6.413928e+00 -3.508632e+00 2.103612e+00 -2.482573e-01 -2.532007e+00 -4.618264e+00 -1.174297e+00 -3.839925e-02 -1.088859e-01 -1.221563e-01 -7.404806e-02 -2.769747e-02 -4.128018e-02 -1.166703e-02 -7.512953e-03 -9.831771e-02 -2.654467e-01 -2.508673e-01 -2.387527e-01 -2.898220e-03 3.091948e-02 1.127261e-01 1.467395e-02 9.852549e-02 2.780159e-02 1.370213e-02 -9.286363e-02 -1.420376e-01 -4.631911e-02 -1.856699e-02 4.409346e-02 -3.140930e-02 -2.539734e-03
<VARIANCE> 38
 9.330709e+00 1.559098e+01 2.926895e+01 2.584325e+01 3.551748e+01 3.844926e+01 5.200494e+01 3.812787e+01 4.724309e+01 5.403078e+01 4.444068e+01 3.171539e+01 1.574464e-01 3.533150e-01 4.956793e-01 5.730358e-01 7.670953e-01 8.722033e-01 9.810783e-01 1.069554e+00 1.043730e+00 1.084878e+00 9.490299e-01 8.486762e-01 1.000000e-02 2.467245e-02 5.107007e-02 6.493647e-02 9.221769e-02 1.137024e-01 1.332887e-01 1.470849e-01 1.605304e-01 1.492161e-01 1.573668e-01 1.465803e-01 1.350694e-01 1.000000e-02
<GCONST> 7.014779e+01
<MIXTURE> 13 3.945716e-02
<MEAN> 38
 6.431883e+00 -1.987956e+00 -6.494345e-01 -1.815565e+00 -3.029102e+00 -3.530295e+00 -8.095366e+00 -1.408420e+00 1.221758e+00 -4.144117e-01 -2.484556e+00 -1.502626e+00 -3.506488e-02 7.612498e-01 1.189632e-01 4.740765e-01 6.572952e-01 1.813295e-01 4.865416e-01 -5.956886e-01 -2.585314e-01 3.390304e-02 -7.272763e-02 -1.335439e-01 -9.838592e-03 -3.521030e-01 3.117985e-01 1.241252e-01 2.541944e-01 2.701324e-01 -2.756717e-02 4.190599e-01 -9.115497e-02 -2.091441e-01 -6.482934e-02 3.785837e-02 1.046539e-02 -7.240398e-03
<VARIANCE> 38
 1.572741e+01 2.499744e+01 3.908474e+01 4.171040e+01 4.199994e+01 5.893109e+01 5.416174e+01 5.765464e+01 5.578197e+01 6.123465e+01 5.183571e+01 3.383835e+01 8.079643e-01 1.445948e+00 1.581078e+00 2.197057e+00 2.523796e+00 2.798427e+00 2.721821e+00 2.969184e+00 2.878742e+00 2.820203e+00 2.460773e+00 2.126363e+00 1.000000e-02 1.657417e-01 2.790629e-01 2.850383e-01 3.620876e-01 3.883563e-01 4.656922e-01 5.223840e-01 6.220616e-01 6.014189e-01 5.968381e-01 5.090359e-01 4.003552e-01 1.000000e-02
<GCONST> 1.038662e+02
<MIXTURE> 14 3.145902e-02
<MEAN> 38
 4.456613e+00 3.270151e-01 2.570163e+00 8.621851e-01 -4.108681e+00 -7.893926e+00 -6.689819e+00 -1.131181e+00 -3.814837e-02 -2.301301e+00 -2.888417e+00 1.353312e+00 -8.556179e-01 1.165579e+00 4.038964e-01 5.271384e-01 9.465809e-01 3.000281e-01 4.505073e-01 -7.769367e-02 -1.401613e-02 -4.815148e-01 -3.053553e-02 -2.765787e-01 -1.847620e-02 -4.984276e-01 1.623650e-01 8.702956e-02 8.446109e-02 3.329115e-01 3.071598e-01 2.513851e-01 1.112018e-01 -6.478734e-02 -5.186532e-02 7.056390e-02 -1.984057e-01 -7.188513e-03
<VARIANCE> 38
 1.475155e+01 1.934260e+01 2.741267e+01 2.548404e+01 3.921021e+01 3.951011e+01 4.062635e+01 3.663226e+01 4.280982e+01 4.730311e+01 3.267319e+01 2.748269e+01 1.576849e+00 1.693287e+00 1.606182e+00 2.152289e+00 2.532073e+00 2.526843e+00 2.755033e+00 2.842766e+00 2.763723e+00 2.726237e+00 2.593804e+00 2.242578e+00 1.000000e-02 1.928112e-01 2.609947e-01 2.237149e-01 2.728218e-01 3.496180e-01 3.435628e-01 3.852590e-01 4.268892e-01 4.282356e-01 4.287871e-01 3.671201e-01 3.350857e-01 1.000000e-02
<GCONST> 9.831265e+01
<MIXTURE> 15 3.124224e-02
<MEAN> 38
 6.030907e+00 -3.269200e+00 -2.570265e+00 -3.900950e+00 -2.908687e+00 -3.715038e+00 -6.900961e+00 -1.047596e+00 5.623220e-01 -1.592575e+00 -4.932708e+00 -2.096045e+00 1.055569e-01 3.068275e-01 -9.437269e-02 2.073427e-01 3.392105e-01 1.681481e-01 1.750160e-01 -5.124369e-01 -1.911580e-01 -2.931118e-02 -1.443706e-01 -3.339934e-01 -4.129069e-03 -2.596723e-01 2.813489e-01 1.567049e-01 3.202648e-01 1.996772e-01 -2.226418e-03 2.481752e-01 -1.160206e-01 -1.391669e-01 3.023872e-03 2.284445e-01 4.089820e-02 -6.645759e-03
<VARIANCE> 38
 1.540519e+01 2.846246e+01 4.031479e+01 4.265866e+01 4.356920e+01 6.186250e+01 5.428560e+01 5.970742e+01 5.987402e+01 7.495862e+01 6.325406e+01 3.643631e+01 7.073517e-01 1.445455e+00 1.714364e+00 2.288713e+00 2.453604e+00 2.724396e+00 2.789875e+00 3.037926e+00 2.802271e+00 2.979846e+00 2.454338e+00 2.148090e+00 1.000000e-02 1.721047e-01 2.517737e-01 2.506816e-01 3.407224e-01 3.604843e-01 4.296962e-01 4.735597e-01 5.987775e-01 5.536698e-01 5.896621e-01 5.082305e-01 3.776598e-01 1.000000e-02
<GCONST> 1.040136e+02
<MIXTURE> 16 3.367928e-02
<MEAN> 38
 4.808074e+00 1.594943e+00 2.627226e+00 1.650282e+00 -3.592526e+00 -8.120179e+00 -5.925662e+00 -5.623161e-01 4.712369e-01 -1.100842e+00 -2.055892e+00 2.506369e+00 -9.786789e-01 1.564619e+00 5.334182e-01 7.052231e-01 1.192060e+00 5.021431e-01 7.080693e-01 4.565774e-02 2.028516e-01 -3.515179e-01 -2.822175e-03 -3.990164e-01 -2.732392e-02 -5.328276e-01 1.124621e-01 1.775407e-01 9.024922e-02 2.870723e-01 3.389347e-01 2.518398e-01 8.898976e-02 -1.162674e-01 -1.522906e-01 6.118208e-03 -3.192311e-01 -8.206135e-03
<VARIANCE> 38
 1.331936e+01 1.807983e+01 2.634749e+01 2.345732e+01 4.014757e+01 3.688127e+01 3.943596e+01 3.505051e+01 4.060188e+01 3.847086e+01 2.961936e+01 2.896743e+01 1.349503e+00 1.715102e+00 1.704313e+00 2.068692e+00 2.287074e+00 2.450093e+00 2.659109e+00 2.845690e+00 2.765155e+00 2.529915e+00 2.536727e+00 2.317949e+00 1.000000e-02 1.677541e-01 2.727235e-01 2.555742e-01 2.766494e-01 4.094785e-01 3.603625e-01 3.962176e-01 4.416641e-01 4.551914e-01 4.142337e-01 3.750567e-01 3.751620e-01 1.000000e-02
<GCONST> 9.772318e+01
<STATE> 4
<NUMMIXES> 16
<SWEIGHTS> 1
 1.000000e+00
<MIXTURE> 1 5.544354e-02
<MEAN> 38
 1.830685e+00 4.557416e+00 7.290730e+00 7.396787e+00 2.868241e-01 -2.613617e+00 3.023913e+00 3.256278e+00 -6.013148e-01 -2.561530e+00 -8.396702e-01 3.063423e+00 -8.536583e-01 3.964488e-01 1.888167e-01 9.658728e-01 1.585984e+00 1.353018e+00 9.662873e-01 3.466669e-01 3.460920e-01 -5.380940e-02 1.086344e-01 -1.040710e-01 -4.079488e-02 -6.202409e-02 -1.788863e-01 -2.099815e-01 -1.159755e-01 1.026689e-01 1.878276e-01 -2.809182e-02 -1.806001e-02 8.917938e-02 1.209562e-01 -5.270187e-03 -1.535585e-01 -2.589959e-03
<VARIANCE> 38
 1.126283e+01 2.364521e+01 2.092233e+01 2.215792e+01 3.702409e+01 4.751735e+01 4.298992e+01 3.096620e+01 3.179032e+01 3.478293e+01 2.896298e+01 2.348556e+01 6.260198e-01 1.504491e+00 1.263480e+00 1.463529e+00 1.653524e+00 1.924248e+00 1.943413e+00 2.002975e+00 2.220964e+00 2.088724e+00 1.959257e+00 1.847554e+00 1.000000e-02 7.835101e-02 1.450538e-01 1.757507e-01 2.130939e-01 2.923080e-01 3.397156e-01 3.378813e-01 3.540208e-01 3.692490e-01 3.494461e-01 3.334587e-01 3.099372e-01 1.000000e-02
<GCONST> 8.992986e+01
<MIXTURE> 2 6.046562e-02
<MEAN> 38
 7.021950e+00 3.032145e+00 9.890410e-01 2.326185e+00 3.340618e+00 -4.648501e-01 -4.265158e+00 -2.109707e+00 4.259185e-01 6.308486e-01 -1.355919e+00 -1.841841e+00 -1.937957e-01 1.708863e+00 9.382189e-01 1.140148e+00 8.276690e-01 3.528249e-01 1.200041e+00 -5.469427e-01 -6.492001e-01 2.895991e-02 4.103531e-02 9.795570e-02 -2.655266e-02 -1.903259e-01 6.068309e-02 2.203702e-01 1.024933e-01 -2.597694e-01 -1.479597e-01 1.355321e-01 7.064937e-02 -1.673115e-02 -1.694379e-02 -4.714091e-04 9.580562e-02 -2.999966e-03
<VARIANCE> 38
 1.130731e+01 1.914088e+01 2.330968e+01 3.011460e+01 2.924239e+01 4.123687e+01 4.491666e+01 4.119486e+01 3.677942e+01 3.997607e+01 3.385529e+01 2.951815e+01 7.344152e-01 1.624531e+00 1.663298e+00 1.654115e+00 2.203814e+00 2.898645e+00 2.795006e+00 3.222781e+00 3.283193e+00 2.842218e+00 2.392611e+00 2.338631e+00 1.000000e-02 8.077510e-02 1.717792e-01 1.855866e-01 2.353391e-01 3.036780e-01 3.331901e-01 3.725023e-01 3.959521e-01 3.731123e-01 3.980923e-01 3.295837e-01 3.094253e-01 1.000000e-02
<GCONST> 9.477170e+01
<MIXTURE> 3 5.436607e-02
<MEAN> 38
 9.461184e-01 7.378482e+00 6.277552e+00 5.251066e+00 2.265696e+00 -2.667434e+00 -1.650961e+00 4.144979e-01 6.961396e-01 -1.523899e+00 -1.275169e+00 4.562255e-01 -1.612149e+00 8.089664e-01 7.742574e-01 1.154165e+00 1.485483e+00 1.150003e+00 1.172591e+00 5.847110e-01 2.623879e-01 -8.984133e-03 3.540172e-01 -6.033424e-02 -4.711133e-02 -1.124150e-01 -5.111033e-01 -2.820660e-01 -8.591893e-02 -2.113447e-02 1.814373e-01 1.194000e-01 1.207947e-01 1.300304e-02 9.826493e-02 7.152256e-02 3.146061e-02 -1.965078e-03
<VARIANCE> 38
 1.951329e+01 2.894636e+01 3.106235e+01 3.339404e+01 3.943398e+01 4.537985e+01 4.207222e+01 3.784156e+01 4.013461e+01 3.868742e+01 3.012116e+01 2.478979e+01 1.754084e+00 2.303742e+00 2.244075e+00 2.309709e+00 2.926643e+00 2.724036e+00 2.752841e+00 3.137681e+00 2.999476e+00 2.884298e+00 2.686106e+00 2.458338e+00 1.000000e-02 1.842813e-01 2.398606e-01 3.052391e-01 3.425593e-01 4.220981e-01 4.190840e-01 4.412037e-01 4.954538e-01 4.896145e-01 4.739482e-01 4.198000e-01 3.864333e-01 1.000000e-02
<GCONST> 1.021458e+02
<MIXTURE> 4 6.227582e-02
<MEAN> 38
 7.755418e+00 7.939968e-01 -2.340482e+00 -2.087661e+00 1.400328e+00 1.040223e+00 -5.044899e+00 -3.945721e+00 -7.319809e-02 2.812266e+00 9.251596e-01 -2.959307e+00 8.852811e-02 1.144281e+00 5.061855e-01 7.056901e-01 6.546995e-01 5.037033e-01 1.051100e+00 -5.438191e-01 -7.150196e-01 6.523103e-02 3.030481e-01 3.127044e-01 -1.879406e-02 -1.869846e-01 2.166289e-01 3.075518e-01 3.042785e-01 -5.499279e-02 -1.460516e-01 2.057924e-01 1.027591e-01 -2.133997e-02 -1.672503e-01 -1.364965e-01 1.952578e-01 -4.832240e-03
<VARIANCE> 38
 1.238616e+01 2.251203e+01 3.798759e+01 5.101215e+01 3.598356e+01 5.390624e+01 5.482893e+01 5.040352e+01 5.384950e+01 5.383364e+01 5.166858e+01 3.751566e+01 6.222534e-01 1.306815e+00 1.584664e+00 2.187850e+00 2.189126e+00 2.758543e+00 2.942917e+00 3.138096e+00 3.180999e+00 2.777746e+00 2.497454e+00 2.101301e+00 1.000000e-02 1.004000e-01 2.014947e-01 2.545831e-01 3.215331e-01 3.744385e-01 4.087663e-01 4.716416e-01 5.109297e-01 5.046490e-01 4.934974e-01 4.425237e-01 3.720575e-01 1.000000e-02
<GCONST> 1.008621e+02
<MIXTURE> 5 6.277391e-02
<MEAN> 38
 1.055617e+00 7.065240e+00 5.989458e+00 5.442083e+00 3.140834e+00 -1.729057e+00 -2.130827e+00 -1.143502e+00 7.868006e-03 -1.484654e+00 -2.081667e+00 -1.088903e+00 -1.489643e+00 6.138372e-01 7.149770e-01 1.126338e+00 1.253569e+00 9.320097e-01 1.131669e+00 4.334766e-01 4.420746e-02 -1.593674e-01 2.186358e-01 3.309523e-02 -4.545644e-02 -2.715050e-02 -5.423253e-01 -3.768168e-01 -1.879399e-01 -1.308277e-01 8.068679e-02 1.022462e-01 2.170352e-01 9.640496e-02 1.512557e-01 1.473262e-01 1.601455e-01 -6.477620e-04
<VARIANCE> 38
 2.084215e+01 3.080359e+01 3.234966e+01 3.786730e+01 4.175080e+01 4.611521e+01 4.308082e+01 4.041045e+01 4.412173e+01 4.572399e+01 3.251026e+01 2.602715e+01 2.016375e+00 2.483073e+00 2.702759e+00 2.674119e+00 3.445918e+00 3.265945e+00 3.299705e+00 3.560817e+00 3.342148e+00 3.210846e+00 2.871619e+00 2.616700e+00 1.000000e-02 2.447408e-01 3.119072e-01 3.422932e-01 4.313428e-01 5.018045e-01 4.860860e-01 5.113773e-01 5.632047e-01 5.711101e-01 5.768600e-01 4.764497e-01 4.316521e-01 1.000000e-02
<GCONST> 1.066097e+02
<MIXTURE> 6 7.748643e-02
<MEAN> 38
 1.278152e+00 5.670320e+00 7.106567e+00 6.581453e+00 3.629027e-01 -3.391376e+00 5.028312e-01 1.834424e+00 -3.911327e-01 -2.223566e+00 -1.098577e+00 1.748460e+00 -1.040783e+00 4.452659e-01 2.767519e-01 8.533865e-01 1.409264e+00 1.210815e+00 8.569000e-01 3.141006e-01 2.572883e-01 -1.030519e-01 6.738103e-02 -8.079314e-02 -4.128310e-02 -6.756345e-02 -2.703941e-01 -2.385281e-01 -1.140355e-01 1.104798e-01 2.150488e-01 5.316089e-02 3.019401e-02 7.021441e-02 1.156865e-01 2.886306e-02 -5.269356e-02 -1.649476e-03
<VARIANCE> 38
 1.391524e+01 2.456256e+01 2.343599e+01 2.397414e+01 3.726658e+01 4.061005e+01 4.005069e+01 3.177555e+01 3.435603e+01 3.454910e+01 2.921159e+01 2.275703e+01 9.532945e-01 1.542223e+00 1.415444e+00 1.618129e+00 1.830937e+00 2.008422e+00 2.022593e+00 2.134926e+00 2.223235e+00 2.057116e+00 1.970442e+00 1.901292e+00 1.000000e-02 1.010587e-01 1.716498e-01 1.944831e-01 2.225220e-01 2.924623e-01 3.232817e-01 3.330675e-01 3.557439e-01 3.737213e-01 3.561230e-01 3.278770e-01 3.016374e-01 1.000000e-02
<GCONST> 9.164769e+01
<MIXTURE> 7 7.605968e-02
<MEAN> 38
 6.442966e+00 2.076292e+00 8.276951e-01 1.792045e+00 1.978495e+00 -7.677830e-01 -2.971752e+00 -2.046535e+00 -3.592474e-01 -1.010266e-01 -2.057601e+00 -1.748393e+00 -1.724146e-01 1.147638e+00 6.567485e-01 9.663422e-01 7.090005e-01 3.190358e-01 9.316030e-01 -4.272313e-01 -5.233282e-01 3.532309e-02 -2.172411e-02 1.081880e-01 -2.133778e-02 -1.440340e-01 4.255265e-02 1.457103e-01 1.029844e-01 -1.042225e-01 -6.859012e-02 5.157955e-02 7.549905e-02 5.010961e-02 3.105105e-02 5.337964e-02 9.323248e-02 -2.957243e-03
<VARIANCE> 38
 1.143818e+01 2.086344e+01 2.675204e+01 3.444684e+01 3.585082e+01 4.542128e+01 4.963059e+01 4.596499e+01 4.368919e+01 5.102097e+01 3.966782e+01 3.113830e+01 7.363916e-01 1.369911e+00 1.456184e+00 1.680122e+00 2.065686e+00 2.561786e+00 2.730934e+00 2.894082e+00 2.913603e+00 2.580155e+00 2.146785e+00 2.077207e+00 1.000000e-02 7.694713e-02 1.510924e-01 1.637059e-01 2.336034e-01 2.959998e-01 3.182425e-01 3.581703e-01 3.919574e-01 3.712938e-01 3.808594e-01 3.233711e-01 2.890651e-01 1.000000e-02
<GCONST> 9.466514e+01
<MIXTURE> 8 5.410297e-02
<MEAN> 38
 6.748619e+00 -1.133060e+00 -2.776509e+00 -2.464705e+00 -4.221690e-01 -6.265101e-01 -2.824520e+00 -1.988475e+00 4.704276e-01 1.636575e+00 -1.539869e+00 -2.816093e+00 6.340827e-02 6.077291e-01 2.216509e-01 4.392234e-01 5.366883e-01 5.543479e-01 7.071961e-01 -2.846304e-01 -2.406991e-01 1.685642e-01 1.376814e-01 4.900128e-02 -1.442979e-02 -1.247771e-01 2.127306e-01 2.220269e-01 2.367388e-01 7.759076e-02 1.739551e-02 3.701492e-02 8.681279e-04 -1.844959e-02 -7.441454e-02 8.713396e-02 1.805984e-01 -4.779279e-03
<VARIANCE> 38
 1.414968e+01 2.987658e+01 4.731967e+01 5.119603e+01 4.349762e+01 5.838920e+01 6.055493e+01 6.294110e+01 6.557244e+01 6.822096e+01 6.086877e+01 4.209304e+01 5.488234e-01 1.251702e+00 1.538151e+00 2.010697e+00 2.033447e+00 2.350827e+00 2.897132e+00 2.746099e+00 2.722594e+00 2.506386e+00 2.119425e+00 1.923222e+00 1.000000e-02 9.402612e-02 1.821495e-01 2.138594e-01 2.830184e-01 3.176239e-01 3.499075e-01 4.299464e-01 4.893268e-01 4.841280e-01 4.660002e-01 4.293578e-01 3.348794e-01 1.000000e-02
<GCONST> 1.004700e+02
<MIXTURE> 9 6.092460e-02
<MEAN> 38
 5.892522e+00 9.556616e-01 -2.412348e-02 4.962464e-01 7.366653e-01 -1.910774e+00 -4.020663e+00 -3.061074e+00 -1.239442e+00 -9.903710e-01 -3.086291e+00 -2.560453e+00 -2.664457e-01 8.295976e-01 4.506886e-01 7.349256e-01 4.460119e-01 1.209277e-01 7.087496e-01 -6.030356e-01 -7.287156e-01 -1.598272e-01 -2.543027e-01 -1.525899e-01 -1.730947e-02 -1.548853e-01 -2.174686e-02 8.465084e-02 3.875580e-02 -1.258178e-01 -1.012290e-01 -1.220053e-02 5.409946e-02 2.425559e-02 -6.378583e-03 1.177695e-02 4.005395e-02 -1.835637e-03
<VARIANCE> 38
 1.170975e+01 2.190845e+01 2.809919e+01 3.529079e+01 3.844202e+01 4.597243e+01 5.035651e+01 4.635440e+01 4.579379e+01 5.864244e+01 4.317611e+01 3.067256e+01 8.101100e-01 1.350509e+00 1.495021e+00 1.758244e+00 2.062461e+00 2.512719e+00 2.832607e+00 2.859133e+00 2.889890e+00 2.645233e+00 2.144296e+00 2.068691e+00 1.000000e-02 7.780958e-02 1.436650e-01 1.591502e-01 2.336431e-01 2.876690e-01 3.107695e-01 3.557835e-01 3.870763e-01 3.612891e-01 3.697155e-01 3.142489e-01 2.812502e-01 1.000000e-02
<GCONST> 9.508757e+01
<MIXTURE> 10 6.034507e-02
<MEAN> 38
 6.044791e-01 5.112398e+00 6.334779e+00 5.556829e+00 -3.581890e-01 -4.401724e+00 -1.178545e+00 5.889408e-01 -1.133043e+00 -2.788721e+00 -1.858238e+00 7.684864e-01 -1.259547e+00 2.264845e-01 9.040905e-02 5.938005e-01 1.115031e+00 9.614425e-01 5.742405e-01 6.442327e-02 -8.246373e-03 -3.702140e-01 -1.990526e-01 -2.931833e-01 -4.379061e-02 -8.997001e-02 -3.419774e-01 -2.973530e-01 -1.919266e-01 5.228621e-02 1.499474e-01 -2.150855e-02 -2.362423e-02 1.385321e-02 6.693959e-02 -2.074652e-02 -9.097330e-02 -3.022628e-04
<VARIANCE> 38
 1.434335e+01 2.452569e+01 2.387497e+01 2.490886e+01 3.819968e+01 3.849194e+01 3.967974e+01 3.207683e+01 3.635464e+01 3.665586e+01 2.946279e+01 2.263484e+01 1.065810e+00 1.546437e+00 1.497674e+00 1.674086e+00 1.899713e+00 2.047062e+00 2.025473e+00 2.210792e+00 2.222493e+00 2.058959e+00 1.990469e+00 1.925009e+00 1.000000e-02 1.067981e-01 1.853816e-01 1.991214e-01 2.254772e-01 2.876014e-01 3.218789e-01 3.306139e-01 3.561339e-01 3.700060e-01 3.525946e-01 3.311664e-01 3.024503e-01 1.000000e-02
<GCONST> 9.227788e+01
<MIXTURE> 11 6.828950e-02
<MEAN> 38
 5.890859e-01 6.580498e+00 5.641627e+00 4.590017e+00 1.638960e+00 -3.255646e+00 -2.876476e+00 -7.275777e-01 -2.997868e-02 -2.012163e+00 -2.145284e+00 -5.332189e-01 -1.799868e+00 5.137475e-01 5.773989e-01 9.518580e-01 1.228563e+00 9.026833e-01 8.886685e-01 2.804568e-01 -5.639539e-02 -3.464360e-01 3.253784e-02 -2.423904e-01 -4.852292e-02 -1.278798e-01 -5.901275e-01 -3.716109e-01 -1.859258e-01 -8.285224e-02 1.065412e-01 4.371975e-02 7.239740e-02 -2.939316e-02 5.354897e-02 2.815710e-02 6.316012e-03 -1.231698e-04
<VARIANCE> 38
 1.969019e+01 2.851102e+01 3.076003e+01 3.326231e+01 4.041815e+01 4.429073e+01 4.136601e+01 3.811154e+01 4.227055e+01 4.123046e+01 3.034153e+01 2.504403e+01 1.835410e+00 2.335994e+00 2.343140e+00 2.397331e+00 3.022317e+00 2.833937e+00 2.831320e+00 3.207990e+00 3.027606e+00 2.869940e+00 2.690292e+00 2.500212e+00 1.000000e-02 1.856735e-01 2.552918e-01 3.016491e-01 3.525015e-01 4.198669e-01 4.237031e-01 4.452814e-01 5.033038e-01 5.055973e-01 4.826791e-01 4.154322e-01 3.833242e-01 1.000000e-02
<GCONST> 1.026830e+02
<MIXTURE> 12 7.501918e-02
<MEAN> 38
 6.466360e+00 1.970457e+00 2.710842e-01 1.285753e+00 2.292345e+00 -1.401266e+00 -4.958745e+00 -2.945712e+00 -5.035230e-01 -1.048193e-01 -2.258223e+00 -2.691328e+00 -3.008329e-01 1.335973e+00 7.124664e-01 9.201857e-01 5.520362e-01 1.273543e-01 9.873545e-01 -7.222492e-01 -8.818952e-01 -1.651314e-01 -2.050329e-01 -1.196833e-01 -2.206589e-02 -2.006955e-01 -2.036886e-02 1.476136e-01 4.202984e-02 -2.714615e-01 -1.752297e-01 7.033820e-02 4.331379e-02 -3.759240e-02 -4.028815e-02 -4.281870e-02 4.951712e-02 -1.687217e-03
<VARIANCE> 38
 1.134143e+01 1.959651e+01 2.402323e+01 3.089484e+01 3.072934e+01 4.191747e+01 4.483253e+01 4.112572e+01 3.814185e+01 4.504742e+01 3.663983e+01 2.946498e+01 8.312337e-01 1.611799e+00 1.687070e+00 1.713234e+00 2.221655e+00 2.861422e+00 2.926183e+00 3.220138e+00 3.239143e+00 2.903671e+00 2.394436e+00 2.349183e+00 1.000000e-02 8.144794e-02 1.623184e-01 1.794227e-01 2.356351e-01 3.035616e-01 3.298437e-01 3.723292e-01 3.961608e-01 3.676275e-01 3.905168e-01 3.239048e-01 3.060538e-01 1.000000e-02
<GCONST> 9.521437e+01
<MIXTURE> 13 6.909329e-02
<MEAN> 38
 7.202185e+00 -2.749978e-01 -3.002879e+00 -3.134136e+00 2.748908e-01 1.829643e-01 -5.328873e+00 -4.381482e+00 -5.832479e-01 2.049590e+00 -1.114772e-01 -3.620862e+00 -3.341996e-02 7.535464e-01 2.830111e-01 4.478685e-01 3.476465e-01 2.718278e-01 7.798410e-01 -6.623361e-01 -8.038989e-01 -9.463426e-02 2.366612e-02 1.072663e-02 -1.359977e-02 -1.897301e-01 1.257266e-01 2.167521e-01 2.183246e-01 -7.126338e-02 -1.553077e-01 1.070654e-01 4.785986e-02 -5.123779e-02 -1.872667e-01 -1.421904e-01 1.431279e-01 -3.540835e-03
<VARIANCE> 38
 1.260839e+01 2.382557e+01 4.005570e+01 5.081535e+01 3.803185e+01 5.525581e+01 5.569577e+01 5.351567e+01 5.650825e+01 6.023912e+01 5.707239e+01 3.878471e+01 6.205459e-01 1.301696e+00 1.635723e+00 2.258740e+00 2.175352e+00 2.703349e+00 3.105034e+00 3.068195e+00 3.182761e+00 2.783530e+00 2.407382e+00 2.092163e+00 1.000000e-02 1.017379e-01 1.819344e-01 2.378051e-01 3.105370e-01 3.529485e-01 3.899795e-01 4.669985e-01 4.979071e-01 4.933643e-01 4.776663e-01 4.270172e-01 3.568504e-01 1.000000e-02
<GCONST> 1.009915e+02
<MIXTURE> 14 4.782889e-02
<MEAN> 38
 7.779238e-01 6.132874e+00 5.268101e+00 4.754213e+00 2.344926e+00 -2.533807e+00 -3.329302e+00 -2.311307e+00 -9.033317e-01 -2.082899e+00 -2.993743e+00 -2.093780e+00 -1.622644e+00 2.563260e-01 4.894817e-01 9.064292e-01 9.756263e-01 6.233527e-01 8.546735e-01 9.637865e-02 -3.484225e-01 -5.045946e-01 -1.373083e-01 -1.945934e-01 -4.519250e-02 -6.808067e-03 -6.338731e-01 -4.800105e-01 -3.078411e-01 -2.072580e-01 -7.725267e-04 3.205636e-03 1.630053e-01 7.133221e-02 1.224113e-01 9.620301e-02 1.296458e-01 1.834740e-03
<VARIANCE> 38
 2.073132e+01 3.045011e+01 3.178440e+01 3.736554e+01 4.312734e+01 4.420293e+01 4.178441e+01 4.026199e+01 4.562097e+01 4.854675e+01 3.456869e+01 2.642518e+01 2.190107e+00 2.662084e+00 2.899240e+00 2.862909e+00 3.623857e+00 3.452233e+00 3.427883e+00 3.635135e+00 3.488108e+00 3.267576e+00 2.995140e+00 2.664984e+00 1.000000e-02 2.548432e-01 3.452322e-01 3.550108e-01 4.576055e-01 5.056056e-01 5.001993e-01 5.317728e-01 5.807964e-01 5.935698e-01 5.952318e-01 4.851251e-01 4.286444e-01 1.000000e-02
<GCONST> 1.076881e+02
<MIXTURE> 15 7.422553e-02
<MEAN> 38
 1.149203e+00 4.235903e+00 6.504192e+00 6.408671e+00 -3.708444e-01 -3.814792e+00 1.086328e+00 2.053215e+00 -1.259672e+00 -3.033258e+00 -1.534272e+00 1.979988e+00 -1.062093e+00 2.221486e-01 8.270367e-04 6.822355e-01 1.290509e+00 1.084182e+00 6.815069e-01 9.864220e-02 1.109030e-01 -2.710192e-01 -1.420970e-01 -3.022097e-01 -4.429013e-02 -9.068815e-02 -2.492687e-01 -2.624209e-01 -1.929345e-01 4.924694e-02 1.235562e-01 -9.920297e-02 -8.130665e-02 2.682493e-02 7.050344e-02 -5.238224e-02 -1.824750e-01 -1.426333e-03
<VARIANCE> 38
 1.207076e+01 2.371585e+01 2.147456e+01 2.326479e+01 3.772054e+01 4.387774e+01 4.311112e+01 3.174079e+01 3.312036e+01 3.598555e+01 2.999167e+01 2.347058e+01 7.599729e-01 1.470278e+00 1.347417e+00 1.533316e+00 1.715995e+00 1.954262e+00 1.964542e+00 2.068287e+00 2.205539e+00 2.091502e+00 1.977851e+00 1.876190e+00 1.000000e-02 8.651519e-02 1.583299e-01 1.810738e-01 2.161762e-01 2.871834e-01 3.393807e-01 3.363048e-01 3.551406e-01 3.641882e-01 3.478711e-01 3.329116e-01 3.107764e-01 1.000000e-02
<GCONST> 9.074252e+01
<MIXTURE> 16 4.126559e-02
<MEAN> 38
 6.114157e+00 -2.561183e+00 -3.803015e+00 -3.683298e+00 -1.565636e+00 -1.672292e+00 -3.399637e+00 -1.987842e+00 2.786602e-01 7.975001e-01 -2.931172e+00 -3.716907e+00 -6.382387e-02 2.366132e-01 -4.341105e-02 1.709033e-01 2.854894e-01 3.352540e-01 4.734869e-01 -4.303756e-01 -3.686933e-01 -4.769512e-02 -1.675356e-01 -2.866216e-01 -1.023328e-02 -1.238329e-01 1.412295e-01 1.530131e-01 1.555844e-01 3.969561e-02 -1.735726e-02 -4.349146e-02 -6.356693e-02 -5.592149e-02 -1.140024e-01 6.516761e-02 1.181201e-01 -3.686141e-03
<VARIANCE> 38
 1.414581e+01 3.099886e+01 4.922136e+01 4.863987e+01 4.562407e+01 5.810188e+01 6.063956e+01 6.753112e+01 7.008421e+01 7.767265e+01 6.399826e+01 4.300759e+01 5.273408e-01 1.246859e+00 1.649835e+00 1.989537e+00 2.041354e+00 2.331668e+00 2.948447e+00 2.684382e+00 2.687905e+00 2.517212e+00 2.058287e+00 1.934364e+00 1.000000e-02 9.289472e-02 1.675601e-01 2.039050e-01 2.727435e-01 2.981527e-01 3.274527e-01 4.122688e-01 4.710852e-01 4.679207e-01 4.444028e-01 4.063410e-01 3.211200e-01 1.000000e-02
<GCONST> 1.002831e+02
<TRANSP> 5
 0.000000e+00 1.000000e+00 0.000000e+00 0.000000e+00 0.000000e+00
 0.000000e+00 4.941948e-01 5.058053e-01 0.000000e+00 0.000000e+00
 0.000000e+00 0.000000e+00 7.561408e-01 2.438592e-01 0.000000e+00
 0.000000e+00 0.000000e+00 0.000000e+00 6.158251e-01 3.841750e-01
 0.000000e+00 0.000000e+00 0.000000e+00 0.000000e+00 0.000000e+00
<ENDHMM>
~h "a"
<BEGINHMM>
<NUMSTATES> 5
<STATE> 2
<NUMMIXES> 16
<SWEIGHTS> 1
 1.000000e+00
<MIXTURE> 1 3.372829e-02
<MEAN> 38
 5.581032e+00 -1.071908e+01 -7.441215e+00 1.154331e+00 2.791353e+00 2.770323e+00 1.845915e+00 7.067471e-01 7.806203e-01 -2.807666e+00 -4.292422e+00 -1.375597e+00 1.574576e-01 -2.855779e-01 -2.001391e-01 5.377507e-01 4.847735e-01 4.537752e-01 1.262266e-01 -1.177142e-01 1.579560e-01 1.823646e-01 1.017273e-01 3.006974e-01 2.931314e-03 -3.067576e-02 1.973494e-01 1.172298e-01 1.902407e-02 1.456056e-02 -4.749264e-02 -3.958734e-02 2.614100e-02 5.950076e-02 7.519247e-02 7.443237e-02 4.494773e-02 -2.713061e-03
<VARIANCE> 38
 1.076288e+01 2.239729e+01 2.534443e+01 4.131673e+01 3.123830e+01 3.134640e+01 3.946212e+01 3.314593e+01 3.414298e+01 3.586300e+01 2.578118e+01 3.393145e+01 3.735762e-01 7.759205e-01 8.025929e-01 1.051752e+00 1.168111e+00 1.219207e+00 1.287480e+00 1.291795e+00 1.215485e+00 1.243913e+00 1.175712e+00 1.091560e+00 1.000000e-02 7.790827e-02 1.317701e-01 1.380562e-01 1.912925e-01 1.914476e-01 1.978010e-01 2.257037e-01 2.272475e-01 2.095901e-01 2.185841e-01 2.153951e-01 1.908997e-01 1.000000e-02
<GCONST> 8.040121e+01
<MIXTURE> 2 6.657545e-02
<MEAN> 38
 5.926643e+00 -1.091542e+01 -7.580943e+00 -4.054968e-01 4.247308e+00 4.000844e+00 5.688329e-01 3.875878e-01 1.015468e+00 -1.594332e+00 -3.872627e+00 -3.287189e+00 1.583831e-01 1.749779e-01 4.953614e-02 9.577303e-02 8.433992e-02 1.093072e-01 8.925318e-02 8.644701e-02 8.034031e-03 1.557157e-01 1.630924e-01 1.803610e-01 -2.918319e-03 3.723092e-02 7.422266e-02 2.437377e-02 1.107208e-02 -2.853297e-02 -1.416548e-02 3.469248e-02 2.778440e-02 2.938119e-02 2.056380e-02 2.203432e-02 6.080197e-02 -7.573637e-04
<VARIANCE> 38
 9.753100e+00 1.692605e+01 2.250066e+01 4.390870e+01 2.801376e+01 3.555293e+01 3.655321e+01 3.614864e+01 3.727712e+01 2.988226e+01 2.667087e+01 3.491702e+01 9.208848e-02 2.051271e-01 2.574638e-01 3.924238e-01 4.227195e-01 5.031000e-01 5.374905e-01 5.827447e-01 5.901109e-01 5.641564e-01 5.408602e-01 4.768912e-01 1.000000e-02 1.285284e-02 2.560073e-02 3.731750e-02 5.089660e-02 6.018374e-02 7.269865e-02 8.050736e-02 8.408181e-02 8.405740e-02 8.139285e-02 7.805469e-02 7.546110e-02 1.000000e-02
<GCONST> 5.431626e+01
<MIXTURE> 3 5.649703e-02
<MEAN> 38
 6.028327e+00 -9.125168e+00 -7.532737e+00 -4.951221e-01 2.337174e+00 2.434071e+00 1.690173e+00 1.517515e+00 2.561265e+00 -1.821978e+00 -4.478359e+00 -3.058903e+00 1.131802e-02 -3.000449e-01 -1.924631e-01 3.136781e-01 5.186456e-01 4.206277e-01 1.662262e-01 -1.635865e-01 1.278979e-01 -9.804005e-02 6.230816e-02 1.329299e-01 6.140607e-04 1.181342e-02 1.239257e-01 1.082238e-01 2.729793e-02 -1.554223e-02 -5.684971e-02 -5.781791e-02 -1.998761e-02 -3.566809e-02 6.058017e-02 9.060894e-02 6.288026e-02 -1.664506e-03
<VARIANCE> 38
 9.098059e+00 1.583577e+01 2.356757e+01 3.475351e+01 3.051664e+01 3.675875e+01 3.568226e+01 3.628500e+01 3.839344e+01 3.907025e+01 2.955807e+01 4.006038e+01 1.847832e-01 4.276646e-01 6.147091e-01 7.856416e-01 1.002067e+00 1.184531e+00 1.227915e+00 1.251489e+00 1.173723e+00 1.222261e+00 1.163052e+00 1.037501e+00 1.000000e-02 2.886786e-02 6.245585e-02 8.761399e-02 1.276168e-01 1.579947e-01 1.834831e-01 1.992624e-01 2.203944e-01 2.116588e-01 2.079907e-01 1.967110e-01 1.772881e-01 1.000000e-02
<GCONST> 7.481293e+01
<MIXTURE> 4 6.448351e-02
<MEAN> 38
 5.006192e+00 -1.162551e+01 -7.451777e+00 1.664699e+00 4.445404e+00 3.050991e+00 3.215350e-01 -6.243105e-01 7.986865e-01 -4.291420e+00 -4.649628e+00 -5.660391e-01 9.665664e-02 8.956619e-02 9.573386e-02 1.561947e-01 1.976600e-01 1.609120e-01 -7.693645e-03 9.075273e-02 1.386733e-01 1.772245e-01 1.776637e-01 4.163037e-02 -2.174097e-03 5.086845e-02 9.078785e-02 4.695873e-02 -1.299854e-02 -2.120630e-02 1.931534e-02 5.794918e-02 8.704392e-02 1.576533e-02 9.219107e-02 3.904579e-02 7.799593e-03 -7.793201e-04
<VARIANCE> 38
 1.003882e+01 1.595319e+01 2.008382e+01 2.683671e+01 2.644174e+01 2.682351e+01 4.044430e+01 3.509375e+01 3.619768e+01 3.431495e+01 2.253303e+01 2.534719e+01 9.676836e-02 2.184614e-01 2.983149e-01 4.629413e-01 5.565136e-01 5.961130e-01 7.317068e-01 7.398030e-01 7.292590e-01 7.168237e-01 6.369354e-01 5.853333e-01 1.000000e-02 1.359429e-02 2.688651e-02 4.231103e-02 5.886057e-02 8.008818e-02 9.280506e-02 1.072039e-01 1.152784e-01 1.161184e-01 1.136843e-01 1.014803e-01 9.323058e-02 1.000000e-02
<GCONST> 5.790752e+01
<MIXTURE> 5 1.267585e-01
<MEAN> 38
 5.945865e+00 -1.089838e+01 -7.537555e+00 -6.546600e-01 4.112426e+00 4.071738e+00 3.605152e-01 9.635780e-01 1.719881e+00 -2.011056e+00 -3.753621e+00 -3.481668e+00 6.439993e-02 6.984855e-02 6.508309e-02 4.434479e-02 6.899743e-02 3.468937e-02 2.989162e-02 7.162846e-02 -2.593978e-03 5.966961e-02 9.241796e-02 6.218252e-02 -2.190062e-03 2.180002e-02 5.312039e-02 2.548632e-02 -6.180336e-03 -3.141168e-02 -2.923900e-02 1.987557e-02 2.426107e-02 4.179876e-03 2.411228e-02 1.845924e-02 1.830016e-02 -5.935773e-04
<VARIANCE> 38
 9.438715e+00 1.477357e+01 2.150130e+01 3.812747e+01 2.582237e+01 3.740017e+01 3.717805e+01 3.921947e+01 3.879622e+01 2.981636e+01 2.715202e+01 3.413302e+01 7.602481e-02 1.686847e-01 2.216006e-01 3.332620e-01 3.831273e-01 4.610717e-01 4.793995e-01 5.372533e-01 4.995527e-01 5.012467e-01 4.859997e-01 4.317836e-01 1.000000e-02 1.103124e-02 2.109597e-02 3.252526e-02 4.640977e-02 5.518313e-02 6.599753e-02 7.402046e-02 7.982593e-02 7.994740e-02 8.046330e-02 7.731694e-02 7.167798e-02 1.000000e-02
<GCONST> 5.147031e+01
<MIXTURE> 6 6.349609e-02
<MEAN> 38
 5.606408e+00 -9.389960e+00 -7.481457e+00 -1.525751e+00 1.632563e+00 1.468837e+00 1.481492e+00 2.425286e+00 2.537767e+00 -2.796973e+00 -5.027132e+00 -2.691338e+00 -6.153331e-02 -4.564438e-01 -2.948479e-01 2.584437e-01 6.514902e-01 6.110151e-01 1.618036e-01 -2.193576e-01 2.237682e-02 -2.469656e-01 1.120691e-01 -8.752017e-02 2.268254e-03 1.507637e-02 1.559113e-01 1.261828e-01 6.775901e-02 -2.056008e-03 -6.679170e-02 -7.223070e-02 -7.628970e-02 -2.812262e-02 1.168058e-01 1.293495e-01 3.629582e-02 -2.029215e-03
<VARIANCE> 38
 9.555471e+00 1.618819e+01 2.268673e+01 2.669489e+01 3.285493e+01 3.992097e+01 3.779821e+01 4.063197e+01 4.264013e+01 4.532830e+01 3.269237e+01 4.016336e+01 1.940055e-01 4.101939e-01 6.578215e-01 7.929575e-01 1.138424e+00 1.343540e+00 1.493430e+00 1.442577e+00 1.376482e+00 1.356321e+00 1.301772e+00 1.193313e+00 1.000000e-02 3.156424e-02 6.164155e-02 8.901817e-02 1.249004e-01 1.741113e-01 1.972943e-01 2.255061e-01 2.523442e-01 2.332091e-01 2.342106e-01 2.218823e-01 1.954909e-01 1.000000e-02
<GCONST> 7.739070e+01
<MIXTURE> 7 6.136224e-02
<MEAN> 38
 5.887857e+00 -9.995742e+00 -7.535922e+00 -2.886530e-01 2.247849e+00 2.098879e+00 1.677643e+00 1.544441e+00 1.286930e+00 -2.389161e+00 -4.666958e+00 -2.117651e+00 4.849765e-02 -4.491439e-01 -2.826112e-01 4.131249e-01 5.103956e-01 5.103799e-01 1.385379e-01 -1.646271e-01 6.605861e-02 -2.601733e-02 5.796986e-02 9.812710e-02 3.609042e-03 -3.726471e-02 1.911405e-01 1.357980e-01 5.161158e-02 1.134170e-02 -5.198221e-02 -6.123156e-02 -2.952238e-02 3.866703e-02 6.060605e-02 1.064063e-01 4.026538e-02 -2.623491e-03
<VARIANCE> 38
 1.030335e+01 1.958646e+01 2.417703e+01 3.384642e+01 3.259927e+01 3.562933e+01 3.864218e+01 3.573232e+01 3.763331e+01 3.872460e+01 2.807727e+01 3.670823e+01 3.108956e-01 6.152589e-01 7.783913e-01 1.009115e+00 1.203796e+00 1.310041e+00 1.369703e+00 1.362857e+00 1.297209e+00 1.285742e+00 1.221812e+00 1.127196e+00 1.000000e-02 6.624874e-02 1.033150e-01 1.269213e-01 1.752744e-01 1.987158e-01 2.104479e-01 2.359057e-01 2.402529e-01 2.211336e-01 2.224348e-01 2.176496e-01 1.942783e-01 1.000000e-02
<GCONST> 8.015945e+01
<MIXTURE> 8 4.491610e-02
<MEAN> 38
 4.407045e+00 -1.244992e+01 -7.764349e+00 1.698649e+00 5.403820e+00 3.241025e+00 -2.545222e-01 -1.144629e+00 8.892143e-01 -5.193713e+00 -4.438097e+00 -1.962975e-01 -2.627406e-02 -5.290431e-02 -3.588456e-02 -3.330014e-02 2.767230e-02 -6.263901e-02 -1.978817e-01 -1.038421e-01 -4.635542e-02 -5.277990e-02 -4.797836e-02 -2.428190e-01 -8.916204e-04 4.051287e-02 7.793411e-02 3.362116e-02 -3.991596e-02 -4.855843e-02 -2.396771e-04 5.586867e-02 8.665674e-02 -6.282978e-03 6.710544e-02 7.609118e-03 -2.392320e-02 -7.194200e-04
<VARIANCE> 38
 9.803933e+00 1.357786e+01 1.820019e+01 1.984367e+01 2.698968e+01 2.424563e+01 4.127977e+01 3.272121e+01 3.247677e+01 3.490688e+01 2.269376e+01 2.152773e+01 9.820289e-02 2.092291e-01 2.949607e-01 4.831465e-01 5.972632e-01 5.976562e-01 7.623850e-01 8.076586e-01 7.909733e-01 7.933345e-01 6.927142e-01 6.087632e-01 1.000000e-02 1.286124e-02 2.554484e-02 4.194379e-02 5.839462e-02 8.137940e-02 9.186299e-02 1.052498e-01 1.191053e-01 1.181734e-01 1.200082e-01 1.066514e-01 9.346266e-02 1.000000e-02
<GCONST> 5.747610e+01
<MIXTURE> 9 9.088586e-02
<MEAN> 38
 5.270423e+00 -1.188316e+01 -8.232502e+00 -1.061456e+00 3.662259e+00 3.573050e+00 -5.600499e-01 2.152003e-01 9.313471e-01 -3.297694e+00 -4.436855e+00 -3.993169e+00 -1.993486e-02 -3.851204e-02 -8.773291e-03 -5.905978e-02 -3.361055e-02 -7.950759e-02 -9.226907e-02 -3.976334e-02 -1.139417e-01 -8.848231e-02 -6.259669e-02 -1.216746e-01 -1.041222e-03 -3.343361e-03 2.198015e-02 -7.706516e-03 -5.031975e-02 -7.223590e-02 -7.336669e-02 -2.774222e-02 -2.227927e-02 -4.361606e-02 -2.942776e-02 -3.504915e-02 -4.874432e-02 -5.074869e-04
<VARIANCE> 38
 9.661046e+00 1.439076e+01 2.035328e+01 3.347729e+01 2.571505e+01 3.670749e+01 3.882756e+01 3.995403e+01 3.880956e+01 3.135690e+01 2.697554e+01 3.226791e+01 7.376432e-02 1.594477e-01 2.130116e-01 3.262939e-01 3.805391e-01 4.592913e-01 4.732599e-01 5.364862e-01 4.980905e-01 4.962157e-01 4.812145e-01 4.351268e-01 1.000000e-02 1.078873e-02 2.074203e-02 3.271012e-02 4.750970e-02 5.565508e-02 6.608674e-02 7.334477e-02 8.091756e-02 8.173108e-02 8.318231e-02 8.008355e-02 7.238705e-02 1.000000e-02
<GCONST> 5.122672e+01
<MIXTURE> 10 9.625340e-02
<MEAN> 38
 5.532140e+00 -1.148338e+01 -8.153710e+00 -1.087143e+00 3.642615e+00 3.497051e+00 -1.065360e-01 5.913371e-02 6.987390e-01 -2.505529e+00 -4.458620e+00 -4.219830e+00 5.924718e-02 4.566993e-02 -2.010772e-02 -1.938657e-03 -5.081355e-03 5.187321e-03 -3.109716e-02 -1.136901e-02 -9.154712e-02 1.140248e-02 5.141310e-04 -2.385100e-03 -1.566420e-03 1.156513e-02 4.199202e-02 -1.721230e-03 -2.420789e-02 -6.131817e-02 -5.112378e-02 -6.336496e-03 -5.785873e-03 -9.195097e-03 -1.760771e-02 -1.799084e-02 -4.141949e-03 -5.654758e-04
<VARIANCE> 38
 9.708142e+00 1.594474e+01 2.159357e+01 3.917195e+01 2.690450e+01 3.606149e+01 3.720310e+01 3.726423e+01 3.787623e+01 3.044140e+01 2.675800e+01 3.410691e+01 8.567911e-02 1.913849e-01 2.451682e-01 3.740911e-01 4.127719e-01 4.923106e-01 5.183351e-01 5.745434e-01 5.552578e-01 5.435182e-01 5.246083e-01 4.660259e-01 1.000000e-02 1.230411e-02 2.408729e-02 3.623532e-02 5.054030e-02 5.926040e-02 7.082976e-02 7.816468e-02 8.355502e-02 8.335885e-02 8.187087e-02 7.873250e-02 7.501396e-02 1.000000e-02
<GCONST> 5.342865e+01
<MIXTURE> 11 6.944127e-02
<MEAN> 38
 5.578911e+00 -9.856909e+00 -8.356217e+00 -1.730873e+00 1.611670e+00 1.667998e+00 8.916733e-01 1.048907e+00 2.174929e+00 -2.554244e+00 -5.164767e+00 -4.064976e+00 -8.023382e-02 -4.349700e-01 -2.910304e-01 1.702557e-01 4.251282e-01 3.427609e-01 5.048737e-02 -2.982783e-01 -4.127324e-02 -2.956860e-01 -8.006836e-02 -1.073978e-01 2.260436e-03 -9.868062e-03 9.435557e-02 8.225039e-02 -2.369555e-03 -4.706411e-02 -8.983911e-02 -9.895223e-02 -5.823120e-02 -6.997173e-02 1.814358e-02 5.046523e-02 4.495746e-03 -1.592243e-03
<VARIANCE> 38
 9.277059e+00 1.578568e+01 2.299539e+01 3.042068e+01 3.027924e+01 3.815870e+01 3.555408e+01 3.820469e+01 4.028413e+01 4.166867e+01 3.067677e+01 3.997972e+01 1.811644e-01 4.028563e-01 6.092832e-01 7.600427e-01 9.976224e-01 1.178363e+00 1.256829e+00 1.262225e+00 1.192338e+00 1.225888e+00 1.157217e+00 1.055210e+00 1.000000e-02 2.899748e-02 5.935092e-02 8.632798e-02 1.252837e-01 1.578263e-01 1.806216e-01 1.984835e-01 2.227633e-01 2.075420e-01 2.052395e-01 1.949849e-01 1.793412e-01 1.000000e-02
<GCONST> 7.470783e+01
<MIXTURE> 12 7.294253e-02
<MEAN> 38
 4.569188e+00 -1.231242e+01 -8.082810e+00 5.185350e-01 3.775910e+00 2.343596e+00 -6.796908e-01 -1.181071e+00 1.454819e-01 -5.427414e+00 -5.435072e+00 -1.659643e+00 -1.524515e-03 -4.368393e-02 -1.465631e-02 -3.582532e-03 4.181178e-02 -1.308300e-02 -1.681340e-01 -6.869221e-02 -5.900123e-02 -2.535468e-02 -1.177399e-02 -1.637687e-01 -1.107947e-03 2.281380e-02 5.430862e-02 1.168434e-02 -5.759056e-02 -6.864056e-02 -3.645778e-02 1.707475e-03 3.648204e-02 -3.864640e-02 3.437863e-02 -1.557918e-02 -6.366335e-02 -6.669567e-04
<VARIANCE> 38
 1.022808e+01 1.488201e+01 1.954976e+01 2.442927e+01 2.620042e+01 2.716769e+01 4.153562e+01 3.701371e+01 3.674473e+01 3.623644e+01 2.348756e+01 2.495218e+01 9.513649e-02 2.113173e-01 2.897928e-01 4.518869e-01 5.523128e-01 5.866143e-01 7.100933e-01 7.417861e-01 7.171011e-01 7.023205e-01 6.291425e-01 5.799320e-01 1.000000e-02 1.315865e-02 2.552279e-02 4.094452e-02 5.750975e-02 7.799583e-02 8.990934e-02 1.036204e-01 1.136567e-01 1.142195e-01 1.136648e-01 1.012819e-01 9.163888e-02 1.000000e-02
<GCONST> 5.741847e+01
<MIXTURE> 13 4.709990e-02
<MEAN> 38
 5.368256e+00 -1.082558e+01 -8.336924e+00 -1.367554e+00 1.530481e+00 1.346831e+00 6.943222e-01 8.995135e-01 6.817880e-01 -3.400727e+00 -5.533329e+00 -2.810237e+00 -6.797498e-02 -6.031120e-01 -4.064157e-01 2.458244e-01 3.650998e-01 3.557550e-01 -5.800566e-02 -3.613589e-01 -1.544152e-01 -2.765361e-01 -1.203349e-01 -1.879310e-01 5.438345e-03 -5.977004e-02 1.549644e-01 9.914337e-02 7.312423e-03 -3.280678e-02 -9.756511e-02 -1.059895e-01 -7.482820e-02 -4.961829e-03 -4.838059e-04 5.366323e-02 -2.843758e-02 -2.433417e-03
<VARIANCE> 38
 1.056763e+01 1.909071e+01 2.368310e+01 3.043266e+01 3.297007e+01 3.622548e+01 3.868502e+01 3.745319e+01 3.913601e+01 4.084417e+01 2.914137e+01 3.681491e+01 3.090112e-01 5.914128e-01 7.702936e-01 9.795256e-01 1.223991e+00 1.329330e+00 1.422877e+00 1.399386e+00 1.347195e+00 1.316886e+00 1.234261e+00 1.159326e+00 1.000000e-02 6.589747e-02 9.846624e-02 1.247276e-01 1.695220e-01 2.039905e-01 2.078716e-01 2.343079e-01 2.422249e-01 2.215437e-01 2.209428e-01 2.175527e-01 1.990208e-01 1.000000e-02
<GCONST> 8.028062e+01
<MIXTURE> 14 3.907884e-02
<MEAN> 38
 4.924256e+00 -1.036044e+01 -8.268554e+00 -2.536052e+00 8.435029e-01 6.348090e-01 5.820841e-01 1.719880e+00 1.715471e+00 -4.170437e+00 -5.913952e+00 -3.242922e+00 -1.685627e-01 -6.041353e-01 -4.286688e-01 1.000897e-01 5.228557e-01 4.764283e-01 -5.681979e-02 -4.344427e-01 -2.262533e-01 -5.004867e-01 -7.387817e-02 -3.966292e-01 3.593127e-03 -6.444424e-03 1.231821e-01 9.022927e-02 2.709720e-02 -3.701537e-02 -1.041570e-01 -1.214971e-01 -1.159922e-01 -6.100592e-02 6.945269e-02 7.848092e-02 -2.837848e-02 -1.951211e-03
<VARIANCE> 38
 9.855141e+00 1.633386e+01 2.213673e+01 2.428261e+01 3.269144e+01 3.992397e+01 3.768647e+01 4.288774e+01 4.500453e+01 4.993915e+01 3.388861e+01 3.948017e+01 1.922514e-01 3.995143e-01 6.534436e-01 7.720281e-01 1.166706e+00 1.379152e+00 1.588869e+00 1.494468e+00 1.428509e+00 1.393193e+00 1.325164e+00 1.242261e+00 1.000000e-02 3.151089e-02 5.848036e-02 8.816921e-02 1.227088e-01 1.777322e-01 1.935678e-01 2.251700e-01 2.545085e-01 2.267590e-01 2.345910e-01 2.232424e-01 2.008199e-01 1.000000e-02
<GCONST> 7.766161e+01
<MIXTURE> 15 4.581903e-02
<MEAN> 38
 5.325986e+00 -1.124242e+01 -8.179016e+00 -4.913831e-02 2.126516e+00 2.047033e+00 9.875640e-01 2.470895e-01 3.250831e-01 -3.425505e+00 -5.047186e+00 -2.260368e+00 4.153248e-02 -4.536702e-01 -3.274565e-01 3.676164e-01 3.330704e-01 2.894481e-01 -4.649059e-02 -3.080336e-01 -4.278266e-02 -5.733938e-02 -7.196428e-02 3.920327e-02 4.651918e-03 -5.350378e-02 1.485295e-01 8.180898e-02 -3.094780e-02 -3.660967e-02 -9.916426e-02 -9.124278e-02 -2.502120e-02 6.195153e-03 2.567740e-03 1.687085e-02 -2.867706e-02 -2.250326e-03
<VARIANCE> 38
 1.075393e+01 2.093766e+01 2.432556e+01 3.714211e+01 3.176469e+01 3.214488e+01 3.918471e+01 3.424242e+01 3.533294e+01 3.668027e+01 2.629081e+01 3.472998e+01 3.569166e-01 7.138430e-01 7.851768e-01 1.032161e+00 1.171243e+00 1.211760e+00 1.293850e+00 1.299231e+00 1.239649e+00 1.243970e+00 1.155832e+00 1.076891e+00 1.000000e-02 7.461827e-02 1.195334e-01 1.340173e-01 1.848758e-01 1.927693e-01 1.954371e-01 2.234943e-01 2.258024e-01 2.088237e-01 2.137188e-01 2.072559e-01 1.890676e-01 1.000000e-02
<GCONST> 7.987894e+01
<MIXTURE> 16 2.052326e-02
<MEAN> 38
 3.225067e+00 -1.377847e+01 -8.758032e+00 6.520654e-01 4.967249e+00 2.517236e+00 -1.633172e+00 -2.326055e+00 -2.603886e-01 -6.946504e+00 -5.349106e+00 -1.317484e+00 -1.673321e-01 -2.419829e-01 -2.979942e-01 -3.829791e-01 -3.923222e-01 -4.604219e-01 -6.206508e-01 -5.638465e-01 -5.113845e-01 -5.249352e-01 -4.961256e-01 -6.045161e-01 -1.053116e-03 -2.650456e-03 1.457053e-02 -4.362963e-02 -1.295008e-01 -1.421841e-01 -1.078041e-01 -5.323988e-02 -3.724055e-02 -1.176418e-01 -7.680535e-02 -1.024706e-01 -1.170093e-01 -6.791500e-04
<VARIANCE> 38
 9.676171e+00 1.109468e+01 1.724981e+01 1.774871e+01 2.878074e+01 2.455808e+01 4.109289e+01 3.182007e+01 3.233428e+01 3.452500e+01 2.378159e+01 2.106605e+01 9.150136e-02 1.974419e-01 2.740720e-01 4.648358e-01 5.562887e-01 5.643119e-01 7.319336e-01 7.735440e-01 7.550887e-01 7.525721e-01 6.983062e-01 6.068347e-01 1.000000e-02 1.205580e-02 2.466191e-02 4.046242e-02 5.764838e-02 7.761434e-02 8.908197e-02 1.014607e-01 1.183805e-01 1.112224e-01 1.148203e-01 1.022864e-01 9.149754e-02 1.000000e-02
<GCONST> 5.616526e+01
<STATE> 3
<NUMMIXES> 16
<SWEIGHTS> 1
 1.000000e+00
<MIXTURE> 1 4.419564e-02
<MEAN> 38
 8.633401e+00 -5.728260e+00 -8.249487e+00 -4.822145e+00 3.943506e+00 7.243430e+00 -1.115939e+00 -7.721271e-01 1.339210e+00 5.608933e-01 -1.590924e+00 -5.496401e+00 4.562178e-01 1.220053e+00 5.384098e-01 7.779741e-02 -3.837828e-01 -3.961945e-01 4.174249e-01 -7.460926e-02 -6.141801e-01 4.167720e-01 6.406125e-01 2.370229e-01 -1.315322e-02 -9.793506e-02 3.360458e-01 3.153987e-01 4.277139e-01 3.180356e-02 -3.396821e-01 1.406200e-01 -1.341582e-01 -1.398975e-01 1.549632e-03 -1.004319e-02 1.967750e-01 -3.800392e-03
<VARIANCE> 38
 8.422352e+00 1.991743e+01 1.909873e+01 3.525821e+01 2.691033e+01 3.399627e+01 3.685403e+01 3.164619e+01 3.634939e+01 3.565750e+01 3.848462e+01 3.056670e+01 2.306956e-01 5.459564e-01 7.332663e-01 9.248989e-01 9.844545e-01 1.207675e+00 1.378722e+00 1.224681e+00 1.476256e+00 1.294104e+00 1.260624e+00 1.319933e+00 1.000000e-02 3.724025e-02 1.082002e-01 1.422119e-01 2.097974e-01 1.922063e-01 2.106177e-01 2.191976e-01 2.470190e-01 2.640988e-01 2.449766e-01 2.506768e-01 2.100506e-01 1.000000e-02
<GCONST> 7.894345e+01
<MIXTURE> 2 5.209439e-02
<MEAN> 38
 6.780173e+00 -9.145054e+00 -3.827693e+00 3.209812e+00 -3.797275e-01 -2.062758e+00 4.856502e+00 5.720808e+00 -2.493990e+00 -2.248301e+00 -2.876372e+00 -1.299849e+00 1.198112e-01 5.861085e-01 5.621357e-01 1.249374e-01 -3.773541e-01 -2.682957e-01 2.854659e-03 2.900593e-01 8.779030e-02 2.466742e-01 9.109342e-02 1.838281e-01 -8.641189e-03 -6.535278e-03 1.535800e-01 8.075307e-02 3.539845e-02 7.768185e-02 9.201211e-02 -1.382338e-01 -1.237458e-01 1.162044e-01 4.777927e-02 1.951625e-02 1.708280e-02 -1.946524e-03
<VARIANCE> 38
 8.699663e+00 1.840287e+01 2.602217e+01 3.103605e+01 4.067245e+01 3.651736e+01 3.739180e+01 4.213931e+01 4.496545e+01 2.748165e+01 2.881623e+01 2.389294e+01 1.856282e-01 4.321568e-01 6.671183e-01 7.194448e-01 9.445311e-01 1.042350e+00 1.241780e+00 1.267389e+00 1.169024e+00 1.099127e+00 1.013753e+00 8.898882e-01 1.000000e-02 2.668389e-02 6.764111e-02 8.514869e-02 1.241442e-01 1.434991e-01 1.501578e-01 1.709169e-01 1.718277e-01 1.642330e-01 1.570659e-01 1.505095e-01 1.379112e-01 1.000000e-02
<GCONST> 7.228246e+01
<MIXTURE> 3 7.444376e-02
<MEAN> 38
 7.370317e+00 -6.011864e+00 -9.991066e+00 -1.427293e+00 5.582065e+00 5.032063e+00 8.113825e-01 -2.220046e+00 4.086032e+00 -8.721713e-01 -1.829597e+00 -5.865347e+00 1.937096e-01 4.872252e-01 1.301598e-01 -9.881266e-02 4.333393e-02 1.460144e-01 8.789551e-03 5.790836e-02 -1.065125e-01 1.304121e-01 2.911159e-01 1.643188e-01 -6.141085e-03 1.450286e-02 5.633911e-02 1.596835e-01 5.473085e-03 -6.849905e-02 -1.974456e-02 1.063045e-02 1.061668e-01 -1.326585e-01 3.750770e-02 3.127068e-03 1.223210e-01 -1.457763e-03
<VARIANCE> 38
 9.717772e+00 1.564731e+01 2.458646e+01 4.215963e+01 3.730912e+01 4.295695e+01 4.861740e+01 3.904428e+01 3.425417e+01 3.549763e+01 3.448895e+01 3.385826e+01 1.899938e-01 5.183461e-01 6.427689e-01 9.065229e-01 9.892259e-01 1.263435e+00 1.354645e+00 1.438450e+00 1.322100e+00 1.302383e+00 1.290966e+00 1.165744e+00 1.000000e-02 3.082478e-02 7.385302e-02 1.170043e-01 1.394308e-01 1.772708e-01 1.971434e-01 2.442345e-01 2.289344e-01 2.330805e-01 2.203464e-01 2.189877e-01 2.014135e-01 1.000000e-02
<GCONST> 7.814663e+01
<MIXTURE> 4 4.751288e-02
<MEAN> 38
 5.738727e+00 -1.005877e+01 -5.363784e+00 1.925346e+00 1.712455e+00 -5.734615e-01 1.915440e+00 2.560194e+00 -1.685828e+00 -4.021646e+00 -5.124278e+00 -1.317932e+00 1.616472e-01 4.586323e-01 4.843239e-01 5.387403e-02 -2.435840e-01 -1.840290e-01 1.029072e-01 4.912022e-01 5.424541e-02 2.044684e-01 1.144435e-01 1.626902e-01 -7.119691e-03 5.515561e-02 1.602833e-01 8.028547e-02 4.281156e-02 1.188126e-02 6.171503e-02 -3.622508e-02 5.345580e-03 7.186414e-02 1.133501e-01 1.108763e-01 -2.238907e-02 -1.754227e-03
<VARIANCE> 38
 1.061118e+01 1.879275e+01 2.702062e+01 3.324303e+01 4.394238e+01 3.370729e+01 5.215958e+01 5.975178e+01 5.174246e+01 4.150252e+01 3.624207e+01 2.813928e+01 1.588845e-01 3.746211e-01 5.786707e-01 7.742233e-01 1.120811e+00 1.189091e+00 1.477446e+00 1.369594e+00 1.359256e+00 1.326411e+00 1.220343e+00 1.101254e+00 1.000000e-02 2.384395e-02 5.707623e-02 8.480892e-02 1.117796e-01 1.554643e-01 1.606041e-01 2.155509e-01 2.258635e-01 2.128154e-01 2.257791e-01 2.012281e-01 1.819290e-01 1.000000e-02
<GCONST> 7.660838e+01
<MIXTURE> 5 8.431847e-02
<MEAN> 38
 7.114996e+00 -7.316618e+00 -1.070479e+01 -1.578769e+00 6.052749e+00 5.120052e+00 -4.642157e-01 -2.211609e+00 4.024290e+00 -2.730267e+00 -2.168399e+00 -5.853374e+00 1.560019e-01 3.694533e-01 9.025177e-02 -1.289788e-01 1.201806e-01 1.803259e-01 -1.100129e-01 1.424141e-01 -4.580637e-02 6.833045e-02 2.266672e-01 -3.132688e-02 -4.697598e-03 2.632231e-02 6.698265e-02 1.517181e-01 -6.129802e-03 -9.034312e-02 -2.193976e-02 5.308761e-02 1.155069e-01 -1.142549e-01 1.008731e-01 6.771203e-03 8.752743e-02 -1.341251e-03
<VARIANCE> 38
 1.003867e+01 1.682302e+01 2.288277e+01 3.720733e+01 3.710302e+01 4.139872e+01 6.059731e+01 4.525737e+01 3.901586e+01 4.303059e+01 4.036872e+01 3.698996e+01 1.817949e-01 5.357590e-01 6.388205e-01 9.896628e-01 1.097728e+00 1.371949e+00 1.491889e+00 1.575703e+00 1.429420e+00 1.331457e+00 1.402479e+00 1.322941e+00 1.000000e-02 2.916800e-02 7.042047e-02 1.108249e-01 1.433090e-01 1.850022e-01 2.076553e-01 2.794120e-01 2.503866e-01 2.455973e-01 2.371740e-01 2.361841e-01 2.283736e-01 1.000000e-02
<GCONST> 8.021906e+01
<MIXTURE> 6 9.904146e-02
<MEAN> 38
 6.634034e+00 -1.013793e+01 -4.625523e+00 2.775745e+00 3.863588e-02 -2.559777e+00 4.533226e+00 5.839414e+00 -3.127740e+00 -2.724937e+00 -3.035470e+00 -1.791589e+00 4.266803e-02 3.775061e-01 5.965822e-01 5.734740e-03 -4.692961e-01 -2.219865e-01 1.643041e-01 3.047714e-01 -2.532774e-02 1.834546e-01 1.441603e-01 1.092063e-01 -6.340982e-03 4.697559e-03 1.001129e-01 8.092423e-02 -1.173813e-02 1.202151e-02 9.178445e-02 -1.133203e-01 -8.453429e-02 1.013484e-01 5.632133e-02 1.569497e-02 3.454661e-03 -1.301121e-03
<VARIANCE> 38
 9.640495e+00 1.818747e+01 2.697909e+01 2.865697e+01 4.102764e+01 3.678460e+01 4.129403e+01 5.299512e+01 5.742089e+01 3.088443e+01 3.124568e+01 2.356344e+01 1.336690e-01 3.234774e-01 5.468580e-01 6.443532e-01 8.766753e-01 9.630053e-01 1.131822e+00 1.131174e+00 1.072159e+00 1.029577e+00 9.573804e-01 8.427285e-01 1.000000e-02 2.008830e-02 4.802295e-02 7.312758e-02 9.998009e-02 1.264590e-01 1.443015e-01 1.612506e-01 1.637758e-01 1.632983e-01 1.618379e-01 1.523107e-01 1.329938e-01 1.000000e-02
<GCONST> 7.028405e+01
<MIXTURE> 7 7.094786e-02
<MEAN> 38
 7.929265e+00 -6.895003e+00 -9.013971e+00 -4.545374e+00 4.766438e+00 8.064692e+00 -1.747092e+00 -8.849421e-01 1.624574e+00 1.499899e-01 -2.367774e+00 -5.972104e+00 2.672589e-01 7.062411e-01 1.335610e-01 -1.411693e-01 -1.884755e-01 -4.884941e-02 3.039331e-01 2.631645e-02 -3.476368e-01 2.531888e-01 3.895009e-01 9.265959e-02 -7.125183e-03 -1.052730e-02 1.824163e-01 1.032997e-01 1.655672e-01 -3.357008e-02 -2.249078e-01 1.643818e-01 -2.345197e-02 -1.787022e-02 -1.114092e-02 4.557475e-02 1.178612e-01 -2.231969e-03
<VARIANCE> 38
 9.009646e+00 1.858983e+01 1.948044e+01 3.608976e+01 3.033815e+01 3.578711e+01 4.563733e+01 3.479070e+01 3.562205e+01 3.751878e+01 3.668972e+01 3.157559e+01 1.957727e-01 4.835021e-01 5.988208e-01 8.253965e-01 8.513064e-01 1.066019e+00 1.150202e+00 1.116756e+00 1.166290e+00 1.138755e+00 1.161038e+00 1.053402e+00 1.000000e-02 2.886498e-02 7.992553e-02 1.061253e-01 1.342257e-01 1.475571e-01 1.556950e-01 1.834764e-01 1.889807e-01 1.892768e-01 1.777220e-01 1.827884e-01 1.592998e-01 1.000000e-02
<GCONST> 7.410751e+01
<MIXTURE> 8 4.302037e-02
<MEAN> 38
 4.541027e+00 -1.129324e+01 -6.154047e+00 3.416834e-01 1.154159e+00 -2.727473e-01 -6.970194e-01 -3.595365e-01 -2.911809e+00 -6.748331e+00 -6.778333e+00 -2.099897e+00 7.623251e-02 3.123392e-01 3.428760e-01 -1.573479e-01 -3.070912e-01 -2.476565e-01 8.768036e-02 2.693357e-01 -1.509414e-01 4.508824e-02 -6.104419e-02 -9.132021e-02 -5.347991e-03 8.740599e-02 1.623614e-01 9.526256e-02 6.157679e-02 5.556705e-02 6.571846e-02 5.806909e-02 1.253227e-01 1.270895e-01 1.907522e-01 1.418717e-01 3.257551e-02 -1.479309e-03
<VARIANCE> 38
 1.118099e+01 1.679691e+01 2.543786e+01 2.729217e+01 4.612880e+01 3.186604e+01 6.248526e+01 5.772485e+01 4.846871e+01 4.504885e+01 3.661152e+01 2.914031e+01 1.467953e-01 3.345243e-01 5.564678e-01 8.087679e-01 1.224068e+00 1.126971e+00 1.514158e+00 1.338208e+00 1.423272e+00 1.356929e+00 1.283122e+00 1.120513e+00 1.000000e-02 2.196669e-02 4.948925e-02 8.527307e-02 1.057013e-01 1.630147e-01 1.726184e-01 2.221931e-01 2.233132e-01 2.212088e-01 2.257110e-01 2.095001e-01 1.941900e-01 1.000000e-02
<GCONST> 7.648265e+01
<MIXTURE> 9 9.252897e-02
<MEAN> 38
 6.923120e+00 -7.136824e+00 -1.107997e+01 -2.346179e+00 5.056793e+00 4.531550e+00 7.165378e-02 -2.877311e+00 3.341053e+00 -2.053297e+00 -2.483161e+00 -6.960745e+00 9.525105e-02 2.937751e-01 1.367089e-02 -2.041695e-01 -3.673581e-02 4.511203e-02 -1.133380e-01 -2.414310e-02 -1.855786e-01 -4.297293e-02 1.010789e-01 -6.256200e-02 -3.334577e-03 -2.920123e-03 1.233272e-02 1.187251e-01 -4.457597e-02 -1.004707e-01 -5.030264e-02 -2.366830e-02 8.021057e-02 -1.289406e-01 1.092147e-02 -2.893326e-02 4.886365e-02 -9.338534e-04
<VARIANCE> 38
 9.870855e+00 1.534010e+01 2.283164e+01 3.839847e+01 3.779468e+01 4.199215e+01 5.396196e+01 4.061894e+01 3.585283e+01 3.742604e+01 3.674007e+01 3.500967e+01 1.740517e-01 4.959905e-01 6.137102e-01 9.029285e-01 9.930507e-01 1.276591e+00 1.349150e+00 1.421773e+00 1.309038e+00 1.256203e+00 1.259576e+00 1.149841e+00 1.000000e-02 2.907973e-02 6.980263e-02 1.114477e-01 1.381679e-01 1.771748e-01 1.987113e-01 2.465727e-01 2.290714e-01 2.283918e-01 2.155355e-01 2.120801e-01 2.007946e-01 1.000000e-02
<GCONST> 7.780388e+01
<MIXTURE> 10 7.049326e-02
<MEAN> 38
 5.850678e+00 -1.149766e+01 -5.584593e+00 1.337007e+00 -8.391880e-01 -3.459668e+00 3.630484e+00 4.579235e+00 -4.600751e+00 -4.057841e+00 -4.244566e+00 -2.716106e+00 -5.272709e-02 2.238645e-01 4.613953e-01 -1.930009e-01 -6.525185e-01 -3.866579e-01 7.932834e-02 1.319666e-01 -2.240366e-01 4.258474e-04 -3.853501e-02 -1.371859e-01 -4.669677e-03 -1.791081e-02 5.218444e-02 3.958729e-02 -7.712714e-02 -5.472029e-02 2.530294e-02 -1.681136e-01 -1.340974e-01 5.049685e-02 -2.824047e-03 -5.258369e-02 -7.020701e-02 -9.770447e-04
<VARIANCE> 38
 1.037685e+01 1.714772e+01 2.651085e+01 2.643944e+01 4.055932e+01 3.628384e+01 4.368884e+01 5.930350e+01 6.319166e+01 3.266239e+01 3.215533e+01 2.306386e+01 1.291188e-01 2.986750e-01 5.167127e-01 6.520170e-01 8.689491e-01 9.660526e-01 1.142191e+00 1.109461e+00 1.072051e+00 1.009101e+00 9.596070e-01 8.355564e-01 1.000000e-02 1.888396e-02 4.411211e-02 6.996478e-02 9.372877e-02 1.251244e-01 1.479291e-01 1.569367e-01 1.607751e-01 1.648210e-01 1.629731e-01 1.557373e-01 1.317362e-01 1.000000e-02
<GCONST> 7.004385e+01
<MIXTURE> 11 5.680650e-02
<MEAN> 38
 6.499050e+00 -8.737568e+00 -1.171090e+01 -2.391383e+00 5.602304e+00 4.490898e+00 -2.219693e+00 -3.229091e+00 2.958300e+00 -4.678355e+00 -3.303626e+00 -6.649565e+00 5.233427e-02 1.919397e-01 -6.004281e-02 -3.005094e-01 -3.102311e-02 7.592308e-04 -3.093231e-01 -4.659175e-02 -2.504712e-01 -1.584724e-01 -1.893617e-02 -3.508479e-01 -2.696981e-03 6.762353e-03 3.229618e-02 1.084366e-01 -5.676917e-02 -1.285726e-01 -6.358636e-02 1.506100e-02 7.721483e-02 -1.384592e-01 6.242903e-02 -4.338938e-02 1.646280e-02 -9.961232e-04
<VARIANCE> 38
 1.040613e+01 1.722750e+01 2.177670e+01 3.366357e+01 3.814557e+01 3.882013e+01 6.839186e+01 4.638294e+01 4.174548e+01 4.770830e+01 4.406230e+01 3.749477e+01 1.728476e-01 5.090886e-01 6.395611e-01 1.015701e+00 1.129085e+00 1.367151e+00 1.492939e+00 1.582610e+00 1.468329e+00 1.328938e+00 1.459376e+00 1.391951e+00 1.000000e-02 2.795185e-02 6.624656e-02 1.069003e-01 1.441528e-01 1.858801e-01 2.120525e-01 2.781201e-01 2.543151e-01 2.407144e-01 2.372293e-01 2.341454e-01 2.366719e-01 1.000000e-02
<GCONST> 8.049087e+01
<MIXTURE> 12 6.330730e-02
<MEAN> 38
 7.396564e+00 -8.131467e+00 -9.931177e+00 -5.369603e+00 4.329842e+00 7.638551e+00 -2.994286e+00 -1.703775e+00 7.546462e-01 -1.379107e+00 -3.464003e+00 -7.158532e+00 1.540468e-01 5.081451e-01 -2.512766e-02 -2.754683e-01 -2.742285e-01 -1.484062e-01 1.544852e-01 -6.888620e-02 -4.478522e-01 8.380383e-02 1.447708e-01 -1.683830e-01 -4.249128e-03 -2.601011e-02 1.322627e-01 4.908803e-02 1.069536e-01 -7.222597e-02 -2.490108e-01 1.263323e-01 -3.624058e-02 -2.010940e-02 -4.395306e-02 1.885081e-02 5.282992e-02 -1.634200e-03
<VARIANCE> 38
 9.045156e+00 1.840043e+01 1.884855e+01 3.252712e+01 3.052011e+01 3.505984e+01 5.047255e+01 3.576664e+01 3.724195e+01 4.172911e+01 4.029810e+01 3.358179e+01 1.841378e-01 4.670585e-01 5.718566e-01 8.429512e-01 8.538036e-01 1.065657e+00 1.141980e+00 1.121684e+00 1.194412e+00 1.109529e+00 1.160725e+00 1.057293e+00 1.000000e-02 2.716891e-02 7.419289e-02 9.834384e-02 1.300768e-01 1.456942e-01 1.530721e-01 1.830061e-01 1.871498e-01 1.843302e-01 1.728702e-01 1.772397e-01 1.604107e-01 1.000000e-02
<GCONST> 7.390196e+01
<MIXTURE> 13 7.204276e-02
<MEAN> 38
 6.234715e+00 -1.042860e+01 -4.899592e+00 1.926892e+00 -1.158455e+00 -2.967815e+00 3.985452e+00 4.876301e+00 -3.244094e+00 -3.383656e+00 -3.865670e+00 -2.343851e+00 1.939528e-02 3.840674e-01 4.499533e-01 -5.036541e-02 -5.212461e-01 -3.524719e-01 -4.454670e-02 1.843746e-01 -6.402589e-02 1.061030e-01 -2.394075e-02 -3.494549e-03 -6.080968e-03 -2.282148e-02 9.659864e-02 4.191822e-02 -3.936893e-02 1.483099e-02 4.093841e-02 -1.715134e-01 -1.460987e-01 7.366193e-02 1.159790e-02 -2.567976e-02 -4.718441e-02 -1.286492e-03
<VARIANCE> 38
 9.316213e+00 1.816240e+01 2.642289e+01 2.982136e+01 4.150530e+01 3.690849e+01 3.886296e+01 4.625354e+01 4.941908e+01 2.863140e+01 3.014814e+01 2.359781e+01 1.690401e-01 3.944717e-01 6.197906e-01 7.147748e-01 9.214014e-01 1.038861e+00 1.219222e+00 1.215894e+00 1.132664e+00 1.078574e+00 9.983875e-01 8.776946e-01 1.000000e-02 2.447425e-02 6.077605e-02 8.092462e-02 1.153677e-01 1.381081e-01 1.533647e-01 1.672329e-01 1.681503e-01 1.637190e-01 1.597934e-01 1.521231e-01 1.351212e-01 1.000000e-02
<GCONST> 7.183762e+01
<MIXTURE> 14 5.620889e-02
<MEAN> 38
 5.125513e+00 -1.108357e+01 -6.263784e+00 5.851534e-01 7.820656e-01 -1.582119e+00 4.857292e-01 1.155758e+00 -2.940044e+00 -5.668920e+00 -6.455325e+00 -2.296299e+00 5.019490e-02 2.734447e-01 3.311667e-01 -1.360745e-01 -4.050204e-01 -3.490428e-01 -3.159200e-02 2.787692e-01 -1.692859e-01 -1.135037e-02 -7.916873e-02 -8.224503e-02 -4.890260e-03 3.119886e-02 1.006471e-01 3.321905e-02 -2.139742e-02 -3.812529e-02 1.840140e-02 -7.810759e-02 -2.811896e-02 3.343754e-02 6.116012e-02 5.099848e-02 -8.989454e-02 -1.198891e-03
<VARIANCE> 38
 1.135474e+01 1.711238e+01 2.662214e+01 2.994786e+01 4.485563e+01 3.254858e+01 5.530321e+01 6.464107e+01 5.399841e+01 4.230427e+01 3.707562e+01 2.859669e+01 1.451814e-01 3.464371e-01 5.606390e-01 7.761034e-01 1.113238e+00 1.157947e+00 1.426851e+00 1.332333e+00 1.361840e+00 1.303581e+00 1.194684e+00 1.086038e+00 1.000000e-02 2.173883e-02 5.172778e-02 8.066694e-02 1.066184e-01 1.541282e-01 1.627842e-01 2.138725e-01 2.215543e-01 2.143036e-01 2.244556e-01 1.979331e-01 1.818417e-01 1.000000e-02
<GCONST> 7.601633e+01
<MIXTURE> 15 5.261341e-02
<MEAN> 38
 8.102601e+00 -7.053711e+00 -9.078773e+00 -5.586618e+00 3.389561e+00 6.756027e+00 -2.002146e+00 -1.369625e+00 4.598358e-01 -4.938596e-01 -2.568768e+00 -6.452446e+00 3.190936e-01 9.358440e-01 3.031403e-01 -1.089228e-01 -4.951440e-01 -4.318210e-01 3.195558e-01 -1.391477e-01 -6.623335e-01 2.548931e-01 3.843568e-01 -6.321048e-03 -9.178868e-03 -9.620338e-02 2.502002e-01 2.102769e-01 3.006224e-01 -2.400591e-02 -3.436783e-01 1.127405e-01 -1.206076e-01 -1.008415e-01 -1.971683e-02 -2.423430e-02 1.172901e-01 -2.819500e-03
<VARIANCE> 38
 8.596292e+00 1.998015e+01 1.918160e+01 3.226558e+01 2.738666e+01 3.442274e+01 4.201438e+01 3.330272e+01 3.883103e+01 3.931454e+01 4.185558e+01 3.154134e+01 2.269354e-01 5.799271e-01 7.439622e-01 9.371200e-01 9.879751e-01 1.209845e+00 1.378815e+00 1.253554e+00 1.443097e+00 1.289433e+00 1.279180e+00 1.266970e+00 1.000000e-02 3.725968e-02 1.055218e-01 1.397334e-01 2.002907e-01 1.829797e-01 1.987089e-01 2.163710e-01 2.390698e-01 2.513059e-01 2.290842e-01 2.367473e-01 1.997049e-01 1.000000e-02
<GCONST> 7.895538e+01
<MIXTURE> 16 2.037261e-02
<MEAN> 38
 3.564416e+00 -1.233404e+01 -6.948428e+00 -7.430845e-01 4.128238e-03 -1.003607e+00 -2.627773e+00 -2.537619e+00 -4.407007e+00 -8.882573e+00 -8.295221e+00 -3.273024e+00 -9.442077e-02 7.872026e-02 4.002398e-02 -4.782567e-01 -6.743953e-01 -5.949180e-01 -3.228986e-01 -2.245885e-01 -6.191682e-01 -4.058287e-01 -5.186026e-01 -5.318192e-01 -4.354110e-03 5.627092e-02 9.981840e-02 4.100269e-02 -1.179596e-02 -8.971624e-03 -4.718456e-03 -1.631677e-02 5.717160e-02 6.107408e-02 1.081183e-01 5.093744e-02 -3.152907e-02 -1.111886e-03
<VARIANCE> 38
 1.051158e+01 1.514742e+01 2.395227e+01 2.426309e+01 4.491219e+01 3.181309e+01 6.138729e+01 5.185451e+01 4.490879e+01 4.221373e+01 3.405396e+01 2.864581e+01 1.465871e-01 3.254590e-01 5.699762e-01 8.470002e-01 1.272482e+00 1.095005e+00 1.536142e+00 1.333858e+00 1.493943e+00 1.381661e+00 1.297012e+00 1.169159e+00 1.000000e-02 2.047013e-02 4.788351e-02 8.469319e-02 1.041652e-01 1.617939e-01 1.756302e-01 2.132711e-01 2.138568e-01 2.151764e-01 2.168900e-01 2.081648e-01 1.886764e-01 1.000000e-02
<GCONST> 7.563560e+01
<STATE> 4
<NUMMIXES> 16
<SWEIGHTS> 1
 1.000000e+00
<MIXTURE> 1 4.666378e-02
<MEAN> 38
 9.186866e+00 -1.847022e+00 -6.726209e+00 -1.864996e+00 3.200919e+00 3.470241e+00 -1.349669e-01 -1.437372e+00 2.126068e+00 1.096742e+00 -2.971824e+00 -4.586298e+00 -4.596553e-01 2.644122e+00 1.743712e+00 1.258380e+00 2.697592e-01 -5.744237e-01 6.088935e-01 -3.303904e-01 -4.077417e-01 3.086748e-01 5.825579e-01 4.201512e-01 -3.453774e-02 -4.929003e-01 2.075936e-01 5.244086e-01 4.572161e-01 1.226406e-01 -7.136764e-02 1.167559e-01 4.575549e-02 -1.465775e-01 -2.026035e-01 -8.787083e-03 1.798156e-01 -7.175536e-03
<VARIANCE> 38
 9.356747e+00 1.748181e+01 2.066921e+01 3.067462e+01 2.413554e+01 3.690531e+01 3.407842e+01 3.113201e+01 3.740408e+01 3.962755e+01 3.839785e+01 3.093490e+01 8.334324e-01 1.371606e+00 1.766363e+00 2.243134e+00 2.183882e+00 2.734527e+00 2.718856e+00 2.894425e+00 3.175348e+00 2.347466e+00 2.237579e+00 2.197081e+00 1.000000e-02 1.177769e-01 1.824730e-01 2.095517e-01 2.913499e-01 2.845367e-01 3.579876e-01 4.080141e-01 4.298013e-01 3.907429e-01 4.183700e-01 4.056328e-01 3.515182e-01 1.000000e-02
<GCONST> 9.486033e+01
<MIXTURE> 2 6.102148e-02
<MEAN> 38
 6.982865e+00 -4.974852e+00 -1.893604e+00 3.374349e+00 2.416845e-01 -3.752622e+00 2.401652e+00 6.776867e+00 -1.815342e+00 -2.310529e+00 -3.521580e+00 -1.213799e+00 -2.193888e-01 1.610955e+00 1.251156e+00 9.377823e-01 3.780230e-01 -2.214877e-01 -1.540025e-01 -2.240492e-01 2.183395e-01 4.561860e-01 2.004711e-01 4.413213e-01 -2.797087e-02 -2.594477e-01 2.306971e-01 1.349016e-01 1.243192e-01 3.031678e-01 3.732229e-01 2.579089e-02 -4.107221e-01 1.458566e-01 4.062060e-02 9.657602e-02 9.803837e-03 -5.785199e-03
<VARIANCE> 38
 9.098418e+00 2.442229e+01 2.846611e+01 3.676118e+01 5.179733e+01 4.510089e+01 5.333001e+01 5.628755e+01 5.587958e+01 3.852131e+01 3.540429e+01 3.191209e+01 5.184223e-01 1.173178e+00 1.115549e+00 1.474630e+00 2.154170e+00 2.204899e+00 2.264077e+00 2.633873e+00 2.342190e+00 1.825210e+00 1.701024e+00 1.754146e+00 1.000000e-02 7.158068e-02 1.654279e-01 1.991058e-01 2.480576e-01 3.312348e-01 3.621649e-01 4.063039e-01 4.450880e-01 4.511299e-01 3.656247e-01 3.315497e-01 3.007909e-01 1.000000e-02
<GCONST> 9.396101e+01
<MIXTURE> 3 6.923958e-02
<MEAN> 38
 5.021362e+00 3.227918e+00 -1.137825e+00 2.707919e+00 4.068475e+00 6.408507e-01 2.147093e+00 -2.455667e-02 8.084090e-01 -3.668292e-01 -3.099814e+00 -2.523348e+00 -1.628889e+00 2.073865e+00 2.170576e+00 1.508856e+00 6.201684e-01 -6.388316e-02 5.220681e-01 1.789071e-02 1.304787e-01 -2.236425e-02 3.763963e-01 5.400484e-01 -5.050031e-02 -2.935152e-01 -4.314535e-01 -5.264170e-02 -4.529156e-03 6.358446e-02 2.170535e-01 -2.997086e-02 1.164343e-01 1.903810e-03 -3.349007e-02 5.819599e-02 -1.005687e-02 -3.568159e-03
<VARIANCE> 38
 1.452227e+01 2.580016e+01 2.619501e+01 3.366187e+01 3.307642e+01 3.935765e+01 3.646737e+01 4.073492e+01 4.237679e+01 3.714091e+01 3.155640e+01 2.865333e+01 1.471160e+00 2.053763e+00 1.981121e+00 2.628609e+00 3.125588e+00 3.431958e+00 3.519591e+00 4.063951e+00 3.696551e+00 3.081262e+00 3.130391e+00 2.719883e+00 1.000000e-02 1.771016e-01 2.161779e-01 3.091767e-01 3.153759e-01 4.103635e-01 4.027012e-01 4.340923e-01 4.794534e-01 5.008408e-01 4.307571e-01 4.273555e-01 3.964874e-01 1.000000e-02
<GCONST> 1.020746e+02
<MIXTURE> 4 4.152325e-02
<MEAN> 38
 5.530680e+00 -6.377200e+00 -4.743404e+00 1.621004e+00 3.972466e+00 2.323262e+00 4.921486e-01 1.268962e+00 7.883007e-01 -3.063367e+00 -5.212925e+00 -2.537161e+00 -4.699243e-03 1.076969e+00 8.476357e-01 3.069786e-01 4.202100e-02 -9.470385e-02 1.603102e-02 2.034453e-01 2.604155e-01 5.109769e-01 2.746926e-01 1.763863e-01 -2.155419e-02 -9.686481e-02 2.639692e-01 1.963214e-01 1.737075e-01 5.638435e-02 -4.912128e-02 6.500083e-02 -6.976935e-02 8.671112e-03 1.425064e-01 2.162518e-01 8.173480e-02 -3.389396e-03
<VARIANCE> 38
 1.310053e+01 2.732778e+01 3.725038e+01 6.246555e+01 6.095990e+01 4.840340e+01 5.258587e+01 4.515675e+01 4.728275e+01 4.871624e+01 4.019507e+01 3.235884e+01 6.996747e-01 1.137272e+00 1.205876e+00 1.534461e+00 2.045501e+00 1.871063e+00 2.220016e+00 2.068742e+00 1.853164e+00 1.943412e+00 1.867612e+00 1.536561e+00 1.000000e-02 1.041628e-01 2.083284e-01 2.776103e-01 3.998071e-01 4.429598e-01 3.837552e-01 4.278137e-01 3.988484e-01 4.196527e-01 4.137442e-01 3.954786e-01 3.125982e-01 1.000000e-02
<GCONST> 9.711567e+01
<MIXTURE> 5 7.472039e-02
<MEAN> 38
 4.070982e+00 3.673930e+00 2.522396e-01 2.794205e+00 4.005671e+00 9.782584e-01 2.057904e+00 -1.085331e+00 -1.495916e+00 -1.093274e+00 -2.427391e+00 -2.761756e+00 -1.564344e+00 1.519263e+00 1.960658e+00 1.434941e+00 5.060511e-01 -1.327065e-01 2.918383e-01 -1.586476e-02 -3.028982e-03 3.141716e-02 2.416489e-01 5.521567e-01 -4.695879e-02 -1.368146e-01 -5.223102e-01 -2.824058e-01 -9.746912e-02 3.604467e-02 1.554221e-01 -7.454755e-02 1.586840e-01 2.101311e-01 8.868098e-02 3.399159e-02 4.970822e-03 -6.542808e-04
<VARIANCE> 38
 1.990112e+01 2.978175e+01 2.984069e+01 3.559071e+01 3.577390e+01 4.182373e+01 4.729428e+01 4.735276e+01 4.645818e+01 4.070475e+01 3.645113e+01 3.063050e+01 1.915860e+00 2.200996e+00 2.240372e+00 2.919787e+00 3.169838e+00 3.744614e+00 3.675614e+00 4.251017e+00 3.870113e+00 3.489936e+00 3.373352e+00 2.764867e+00 1.000000e-02 2.295500e-01 2.806124e-01 3.708180e-01 4.213405e-01 4.607052e-01 4.783139e-01 5.681120e-01 5.797792e-01 5.959499e-01 5.203153e-01 4.938733e-01 4.419824e-01 1.000000e-02
<GCONST> 1.070307e+02
<MIXTURE> 6 7.800625e-02
<MEAN> 38
 9.443425e+00 -2.494585e+00 -6.840437e+00 -3.387864e+00 2.925688e+00 4.038753e+00 -5.696203e-01 -1.731378e+00 -3.963601e-01 6.486695e-01 -1.217950e+00 -5.330848e+00 -1.166120e-01 2.282104e+00 1.653424e+00 1.293622e+00 -3.802747e-02 -9.034997e-01 4.739678e-01 -5.503778e-01 -7.495964e-01 4.130463e-01 4.883379e-01 5.076874e-01 -2.644460e-02 -3.765754e-01 2.082576e-01 4.444852e-01 5.180994e-01 1.679130e-01 -1.487614e-01 3.416198e-02 -8.659005e-02 -2.385806e-02 -1.004941e-01 -1.117890e-01 1.999668e-01 -4.961476e-03
<VARIANCE> 38
 9.366901e+00 2.040053e+01 2.249040e+01 3.131380e+01 2.550369e+01 3.821611e+01 4.725531e+01 3.519732e+01 4.325478e+01 4.846659e+01 5.093948e+01 3.461432e+01 7.158049e-01 1.234446e+00 1.606174e+00 2.353189e+00 2.335628e+00 2.954237e+00 2.619390e+00 2.970018e+00 3.526926e+00 2.676142e+00 2.432982e+00 2.336326e+00 1.000000e-02 1.065237e-01 1.868028e-01 2.062106e-01 2.955483e-01 2.889805e-01 3.707424e-01 4.666284e-01 4.350826e-01 4.365827e-01 4.687119e-01 4.400746e-01 3.538447e-01 1.000000e-02
<GCONST> 9.704260e+01
<MIXTURE> 7 8.911450e-02
<MEAN> 38
 6.834585e+00 -6.561003e+00 -2.509568e+00 1.154763e+00 -1.059211e+00 -1.867061e+00 2.018852e+00 5.123179e+00 -9.614553e-01 -1.702130e+00 -3.575700e+00 -2.252954e+00 -7.981778e-03 1.126242e+00 1.128621e+00 4.817866e-01 -6.980815e-02 -2.565063e-01 -3.744870e-01 -1.738210e-01 1.793559e-01 5.566395e-01 1.886808e-01 2.345939e-01 -1.873819e-02 -1.432254e-01 2.400644e-01 1.228362e-01 1.984308e-01 2.944343e-01 1.543288e-01 -2.444829e-02 -2.727584e-01 7.435036e-02 1.139729e-02 9.469046e-02 8.156799e-02 -3.823240e-03
<VARIANCE> 38
 1.029138e+01 2.469298e+01 3.010847e+01 3.535560e+01 5.367845e+01 4.372682e+01 4.766417e+01 5.239555e+01 5.394235e+01 3.991382e+01 3.713184e+01 3.031541e+01 4.463913e-01 8.748153e-01 1.072446e+00 1.325936e+00 1.819738e+00 1.842160e+00 1.975287e+00 2.214107e+00 1.874982e+00 1.792690e+00 1.596632e+00 1.413364e+00 1.000000e-02 6.317883e-02 1.587428e-01 1.634583e-01 2.152377e-01 2.821954e-01 2.897475e-01 3.198885e-01 3.583414e-01 3.359779e-01 3.054248e-01 2.890972e-01 2.447095e-01 1.000000e-02
<GCONST> 9.000011e+01
<MIXTURE> 8 4.387309e-02
<MEAN> 38
 5.042069e+00 -7.575412e+00 -6.192897e+00 -4.694416e-01 3.882184e+00 2.406719e+00 -9.049188e-01 -4.565154e-01 -1.090731e+00 -4.056531e+00 -5.909029e+00 -2.789287e+00 2.765430e-01 9.053697e-01 5.589514e-01 -4.558481e-02 -2.961944e-01 -1.917919e-01 -3.569746e-02 2.445325e-01 1.480223e-01 3.906712e-01 2.105108e-01 -4.141926e-02 -1.586068e-02 2.745331e-02 3.057843e-01 2.336901e-01 2.571806e-01 2.342151e-03 -7.931049e-02 6.829603e-02 1.494775e-02 1.406161e-01 2.090177e-01 2.231213e-01 5.665082e-02 -2.881342e-03
<VARIANCE> 38
 1.504658e+01 2.935544e+01 3.743345e+01 5.507224e+01 5.863380e+01 4.836174e+01 6.229984e+01 4.863647e+01 5.013771e+01 5.470368e+01 4.342897e+01 3.397845e+01 6.616043e-01 1.236949e+00 1.320538e+00 1.585194e+00 2.096809e+00 1.883312e+00 2.113528e+00 1.960183e+00 2.053678e+00 2.107818e+00 1.880249e+00 1.505400e+00 1.000000e-02 1.161565e-01 2.272720e-01 2.873925e-01 3.900453e-01 4.277778e-01 3.879145e-01 4.452832e-01 4.125748e-01 4.099050e-01 4.341497e-01 4.005676e-01 3.148393e-01 1.000000e-02
<GCONST> 9.825954e+01
<MIXTURE> 9 7.349519e-02
<MEAN> 38
 6.202658e+00 -7.890835e+00 -3.096811e+00 -4.236412e-01 -2.254690e+00 -2.798298e+00 8.924196e-01 4.111912e+00 -1.954149e+00 -2.755991e+00 -4.605886e+00 -3.335766e+00 -1.228534e-01 8.528718e-01 9.339184e-01 1.474923e-01 -3.203746e-01 -3.874061e-01 -5.408812e-01 -3.247449e-01 -1.208040e-02 3.760556e-01 -7.902955e-03 -5.619204e-02 -1.533035e-02 -1.369750e-01 1.714589e-01 6.547815e-02 1.260192e-01 2.139619e-01 9.339100e-02 -9.020114e-02 -2.677177e-01 5.101147e-02 -3.047305e-02 5.080148e-02 2.277745e-02 -2.479453e-03
<VARIANCE> 38
 1.132878e+01 2.390491e+01 3.043068e+01 3.424598e+01 5.390393e+01 4.406318e+01 5.079075e+01 5.860588e+01 5.935876e+01 4.304205e+01 4.024532e+01 2.970540e+01 4.251689e-01 8.430023e-01 1.093222e+00 1.333376e+00 1.805849e+00 1.845573e+00 1.916193e+00 2.154800e+00 1.849812e+00 1.931808e+00 1.585229e+00 1.440730e+00 1.000000e-02 6.228182e-02 1.507559e-01 1.553140e-01 2.036758e-01 2.677631e-01 2.739730e-01 3.071331e-01 3.472319e-01 3.190470e-01 3.004546e-01 2.752145e-01 2.392613e-01 1.000000e-02
<GCONST> 8.991737e+01
<MIXTURE> 10 7.926164e-02
<MEAN> 38
 4.528769e+00 2.677938e+00 -1.404020e+00 1.719479e+00 3.381118e+00 2.538378e-01 1.368365e+00 -7.304828e-01 -3.892425e-01 -9.576420e-01 -3.536521e+00 -3.384264e+00 -1.804300e+00 1.729522e+00 1.930928e+00 1.250557e+00 3.768691e-01 -2.415286e-01 2.664814e-01 -1.538606e-01 -1.701086e-01 -3.510124e-01 3.886201e-02 3.453192e-01 -5.459924e-02 -3.052798e-01 -5.265616e-01 -1.684547e-01 -9.407878e-02 3.769661e-03 1.124428e-01 -1.253568e-01 5.160866e-02 -1.957958e-02 -8.777010e-02 -3.581625e-03 -4.865887e-02 -1.547819e-03
<VARIANCE> 38
 1.550495e+01 2.776272e+01 2.509372e+01 3.145693e+01 3.394905e+01 3.902619e+01 3.832751e+01 4.249069e+01 4.294710e+01 4.007630e+01 3.351846e+01 2.842388e+01 1.647808e+00 2.116663e+00 2.092247e+00 2.721496e+00 3.039514e+00 3.517539e+00 3.568893e+00 4.014373e+00 3.752678e+00 3.226211e+00 3.347336e+00 2.762042e+00 1.000000e-02 1.943113e-01 2.372956e-01 3.145732e-01 3.399604e-01 4.172506e-01 4.150406e-01 4.563066e-01 4.988876e-01 5.261365e-01 4.482368e-01 4.420126e-01 4.039597e-01 1.000000e-02
<GCONST> 1.032848e+02
<MIXTURE> 11 7.654354e-02
<MEAN> 38
 6.549252e+00 -6.364334e+00 -2.668395e+00 1.865695e+00 -5.033869e-01 -4.217811e+00 1.233643e+00 5.958350e+00 -2.018473e+00 -2.996332e+00 -4.302026e+00 -2.281741e+00 -3.223435e-01 1.256209e+00 1.064560e+00 5.666899e-01 4.475266e-02 -3.539532e-01 -3.872554e-01 -3.794712e-01 1.006244e-03 2.913246e-01 -9.710047e-03 1.780885e-01 -2.338872e-02 -2.485755e-01 1.623303e-01 8.345282e-02 5.328918e-02 2.289926e-01 2.767401e-01 -5.095182e-02 -4.106198e-01 8.008916e-02 5.970898e-03 4.027424e-02 -3.175350e-02 -3.881570e-03
<VARIANCE> 38
 9.924317e+00 2.504181e+01 2.849714e+01 3.591394e+01 5.261525e+01 4.600035e+01 5.237018e+01 6.258739e+01 5.703209e+01 4.023175e+01 3.739114e+01 3.115568e+01 5.308099e-01 1.121792e+00 1.160149e+00 1.466038e+00 2.111118e+00 2.152091e+00 2.181232e+00 2.617575e+00 2.225129e+00 1.888528e+00 1.756013e+00 1.641357e+00 1.000000e-02 7.607101e-02 1.658579e-01 1.874796e-01 2.423331e-01 3.153157e-01 3.426495e-01 3.853032e-01 4.384420e-01 4.143431e-01 3.532842e-01 3.280054e-01 2.906668e-01 1.000000e-02
<GCONST> 9.378380e+01
<MIXTURE> 12 6.814934e-02
<MEAN> 38
 9.005159e+00 -3.560503e+00 -7.527764e+00 -4.569453e+00 2.176875e+00 3.100128e+00 -2.107208e+00 -2.769975e+00 -1.886030e+00 -7.360687e-01 -2.045880e+00 -6.027485e+00 -1.222237e-01 2.056854e+00 1.498711e+00 1.040679e+00 -3.803723e-01 -1.204901e+00 2.781394e-01 -7.606069e-01 -9.714394e-01 2.962315e-01 2.504336e-01 2.050020e-01 -2.173804e-02 -3.712442e-01 1.510162e-01 3.765048e-01 4.612989e-01 1.357679e-01 -1.868307e-01 -1.794956e-02 -1.184952e-01 -2.304501e-02 -1.036161e-01 -1.529616e-01 1.239339e-01 -3.116084e-03
<VARIANCE> 38
