~o
<STREAMINFO> 1 38
<VECSIZE> 38<NULLD><MFCC_E_D_N_A_Z><DIAGC>
~h "proto38"
<BEGINHMM>
<NUMSTATES> 5
<STATE> 2
<SWEIGHTS> 1
 1.000000e+00
<MEAN> 38
 4.138139e-09 4.411927e-09 -1.379900e-09 -8.414192e-10 1.272471e-09 3.111566e-09 6.731454e-10 -4.988200e-09 -1.608086e-09 1.001127e-09 1.016546e-09 2.288211e-09 5.925802e-04 4.388191e-05 3.319024e-04 1.681363e-04 1.081952e-03 -1.183289e-03 -9.415171e-04 -1.448965e-05 -5.999862e-04 -1.082521e-03 -6.786888e-04 -3.009781e-04 2.241827e-05 -2.295839e-04 1.089207e-04 -6.375005e-05 2.096533e-04 1.652739e-04 2.280461e-04 2.900804e-04 1.602999e-04 1.986687e-04 1.247522e-04 1.478508e-04 1.392095e-04 -3.127580e-05
<VARIANCE> 38
 7.595739e+01 4.889739e+01 5.566175e+01 5.517786e+01 5.731681e+01 5.084548e+01 5.331102e+01 5.719889e+01 4.999128e+01 3.927345e+01 3.970390e+01 3.103006e+01 1.610474e+00 1.990621e+00 1.658578e+00 2.042876e+00 2.165321e+00 2.193946e+00 2.365471e+00 2.449585e+00 2.312964e+00 2.138582e+00 2.037746e+00 1.742629e+00 1.000000e-02 1.856951e-01 3.156238e-01 2.556503e-01 3.145538e-01 3.470210e-01 3.714956e-01 4.053164e-01 4.187575e-01 4.035819e-01 3.852668e-01 3.651476e-01 3.177360e-01 1.000000e-02
<GCONST> 1.029492e+02
<STATE> 3
<SWEIGHTS> 1
 1.000000e+00
<MEAN> 38
 4.138139e-09 4.411927e-09 -1.379900e-09 -8.414192e-10 1.272471e-09 3.111566e-09 6.731454e-10 -4.988200e-09 -1.608086e-09 1.001127e-09 1.016546e-09 2.288211e-09 5.925802e-04 4.388191e-05 3.319024e-04 1.681363e-04 1.081952e-03 -1.183289e-03 -9.415171e-04 -1.448965e-05 -5.999862e-04 -1.082521e-03 -6.786888e-04 -3.009781e-04 2.241827e-05 -2.295839e-04 1.089207e-04 -6.375005e-05 2.096533e-04 1.652739e-04 2.280461e-04 2.900804e-04 1.602999e-04 1.986687e-04 1.247522e-04 1.478508e-04 1.392095e-04 -3.127580e-05
<VARIANCE> 38
 7.595739e+01 4.889739e+01 5.566175e+01 5.517786e+01 5.731681e+01 5.084548e+01 5.331102e+01 5.719889e+01 4.999128e+01 3.927345e+01 3.970390e+01 3.103006e+01 1.610474e+00 1.990621e+00 1.658578e+00 2.042876e+00 2.165321e+00 2.193946e+00 2.365471e+00 2.449585e+00 2.312964e+00 2.138582e+00 2.037746e+00 1.742629e+00 1.000000e-02 1.856951e-01 3.156238e-01 2.556503e-01 3.145538e-01 3.470210e-01 3.714956e-01 4.053164e-01 4.187575e-01 4.035819e-01 3.852668e-01 3.651476e-01 3.177360e-01 1.000000e-02
<GCONST> 1.029492e+02
<STATE> 4
<SWEIGHTS> 1
 1.000000e+00
<MEAN> 38
 4.138139e-09 4.411927e-09 -1.379900e-09 -8.414192e-10 1.272471e-09 3.111566e-09 6.731454e-10 -4.988200e-09 -1.608086e-09 1.001127e-09 1.016546e-09 2.288211e-09 5.925802e-04 4.388191e-05 3.319024e-04 1.681363e-04 1.081952e-03 -1.183289e-03 -9.415171e-04 -1.448965e-05 -5.999862e-04 -1.082521e-03 -6.786888e-04 -3.009781e-04 2.241827e-05 -2.295839e-04 1.089207e-04 -6.375005e-05 2.096533e-04 1.652739e-04 2.280461e-04 2.900804e-04 1.602999e-04 1.986687e-04 1.247522e-04 1.478508e-04 1.392095e-04 -3.127580e-05
<VARIANCE> 38
 7.595739e+01 4.889739e+01 5.566175e+01 5.517786e+01 5.731681e+01 5.084548e+01 5.331102e+01 5.719889e+01 4.999128e+01 3.927345e+01 3.970390e+01 3.103006e+01 1.610474e+00 1.990621e+00 1.658578e+00 2.042876e+00 2.165321e+00 2.193946e+00 2.365471e+00 2.449585e+00 2.312964e+00 2.138582e+00 2.037746e+00 1.742629e+00 1.000000e-02 1.856951e-01 3.156238e-01 2.556503e-01 3.145538e-01 3.470210e-01 3.714956e-01 4.053164e-01 4.187575e-01 4.035819e-01 3.852668e-01 3.651476e-01 3.177360e-01 1.000000e-02
<GCONST> 1.029492e+02
<TRANSP> 5
 0.000000e+00 1.000000e+00 0.000000e+00 0.000000e+00 0.000000e+00
 0.000000e+00 6.000000e-01 4.000000e-01 0.000000e+00 0.000000e+00
 0.000000e+00 0.000000e+00 6.000000e-01 4.000000e-01 0.000000e+00
 0.000000e+00 0.000000e+00 0.000000e+00 6.000000e-01 4.000000e-01
 0.000000e+00 0.000000e+00 0.000000e+00 0.000000e+00 0.000000e+00
<ENDHMM>
